-0.000000000000000000e+00,-0.000000000000000000e+00,4.040394909679889679e-03,-0.000000000000000000e+00,-0.000000000000000000e+00,-0.000000000000000000e+00,3.430030075833201408e-03,-0.000000000000000000e+00,4.982512909919023514e-03,2.519158832728862762e-02,8.531102503184229136e-05,6.099356687627732754e-04,2.062382642179727554e-03,3.302355995401740074e-03,-0.000000000000000000e+00,2.229587547481060028e-02,2.314412500709295273e-03,-0.000000000000000000e+00,7.636357098817825317e-02,6.964099593460559845e-03,-0.000000000000000000e+00,4.180470947176218033e-03,-0.000000000000000000e+00,1.576494425535202026e-02,2.214616835117340088e-01,-0.000000000000000000e+00,1.020547509193420410e+00,-0.000000000000000000e+00,9.410029649734497070e-01,3.598458319902420044e-02,3.827798739075660706e-02,-0.000000000000000000e+00,1.533620804548263550e-02,2.410445595160126686e-03,-0.000000000000000000e+00,-0.000000000000000000e+00,3.006935119628906250e-01,3.447056747972965240e-03,1.173799633979797363e+00,1.218243688344955444e-02,-0.000000000000000000e+00,1.548126459121704102e+00,6.670165341347455978e-03,-0.000000000000000000e+00,-0.000000000000000000e+00,-0.000000000000000000e+00,1.870443811640143394e-03,1.729822717607021332e-02,2.938804961740970612e-02,3.850117325782775879e-03,1.089197322726249695e-01,4.917799830436706543e-01,-0.000000000000000000e+00,7.604116946458816528e-02,-0.000000000000000000e+00,1.252893474884331226e-03,-0.000000000000000000e+00,-0.000000000000000000e+00,1.565514206886291504e-01,2.736009890213608742e-03,2.834635674953460693e-01,2.107255160808563232e-03,9.292705217376351357e-04,-0.000000000000000000e+00,6.587849929928779602e-03,3.790679872035980225e-01,9.651606669649481773e-04,-0.000000000000000000e+00,7.199178449809551239e-03,-0.000000000000000000e+00,3.706960007548332214e-03,-0.000000000000000000e+00,5.059103015810251236e-03,2.759632654488086700e-03,-0.000000000000000000e+00,-0.000000000000000000e+00,8.335418999195098877e-03,-0.000000000000000000e+00,7.704442832618951797e-03,-0.000000000000000000e+00,-0.000000000000000000e+00,1.943925023078918457e-02,-0.000000000000000000e+00,6.115153897553682327e-03,1.367635466158390045e-02,2.553897909820079803e-02,4.240499436855316162e-02,7.565732114017009735e-03,-0.000000000000000000e+00,-0.000000000000000000e+00,6.161071360111236572e-03,1.224207039922475815e-02,-0.000000000000000000e+00,1.534796133637428284e-02,6.219295319169759750e-03,-0.000000000000000000e+00,1.176141668111085892e-02,1.474631670862436295e-02,2.187295584008097649e-03,7.431232370436191559e-04,1.305439233779907227e+00,1.542717684060335159e-02,1.893882080912590027e-02,-0.000000000000000000e+00,6.482376251369714737e-03,4.580269455909729004e-01,1.641441464424133301e+00,2.852946287021040916e-03,3.708232194185256958e-03,-0.000000000000000000e+00,2.738804556429386139e-02,6.967778801918029785e-01,3.576385080814361572e-01,2.045923843979835510e-02,3.220371218048967421e-05,1.503207206726074219e+00,1.487264037132263184e-02,2.839927561581134796e-03,2.379894107580184937e-01,1.736512482166290283e-01,-0.000000000000000000e+00,8.311516642570495605e-01,5.002459976822137833e-03,-0.000000000000000000e+00,-0.000000000000000000e+00,5.589254666119813919e-03,5.417357664555311203e-03,-0.000000000000000000e+00,2.367671579122543335e-02,9.665670804679393768e-03,5.590509157627820969e-03,-0.000000000000000000e+00,-0.000000000000000000e+00,-0.000000000000000000e+00,-0.000000000000000000e+00,-0.000000000000000000e+00,-0.000000000000000000e+00,-0.000000000000000000e+00,1.554359197616577148e+00,9.751863777637481689e-02,1.085455156862735748e-02,2.751026488840579987e-02,-0.000000000000000000e+00,5.324820056557655334e-03,1.037727948278188705e-02,3.442965680733323097e-03,1.244785357266664505e-02,-0.000000000000000000e+00,1.063365675508975983e-02,1.910187676548957825e-02,-0.000000000000000000e+00,-0.000000000000000000e+00,3.473721444606781006e-03,2.677939832210540771e-02,-0.000000000000000000e+00,3.850856097415089607e-03,-0.000000000000000000e+00,6.270400481298565865e-04,9.896007832139730453e-04,-0.000000000000000000e+00,1.625483157113194466e-03,3.578555537387728691e-03,-0.000000000000000000e+00,1.624739728868007660e-03,-0.000000000000000000e+00,6.025379523634910583e-03,1.157345250248908997e-03,1.063744770362973213e-03,6.644937992095947266e-01,-0.000000000000000000e+00,-0.000000000000000000e+00,-0.000000000000000000e+00,1.319067597389221191e+00,1.578288711607456207e-02,1.027864336967468262e+00,4.464107099920511246e-03,3.768211603164672852e-01,8.253464475274085999e-03,-0.000000000000000000e+00,3.365038428455591202e-03,3.404328227043151855e-01,-0.000000000000000000e+00,1.109704598784446716e-01,1.217526383697986603e-02,1.894373893737792969e-01,4.791585262864828110e-03,1.099676489830017090e+00,3.934131264686584473e-01,8.823029994964599609e-01,2.439925909042358398e+00,6.170271080918610096e-05,8.500786498188972473e-03,6.731853354722261429e-03,9.413394927978515625e-01,3.638547956943511963e-01,9.984190575778484344e-03,-0.000000000000000000e+00,1.372480541467666626e-01,-0.000000000000000000e+00,1.345401862636208534e-03,1.138790976256132126e-02,4.216237924993038177e-03,-0.000000000000000000e+00,1.905209850519895554e-03,-0.000000000000000000e+00,-0.000000000000000000e+00,1.671750913374125957e-03,4.216571338474750519e-03,-0.000000000000000000e+00,1.417814195156097412e-01,-0.000000000000000000e+00,4.354308359324932098e-03,4.435030743479728699e-03,-0.000000000000000000e+00,6.466573569923639297e-03,4.281666129827499390e-03,2.314666286110877991e-02,1.832909649237990379e-03,-0.000000000000000000e+00,-0.000000000000000000e+00,3.960316069424152374e-03,3.347186148166656494e-01,4.381393082439899445e-03,4.629093222320079803e-03,9.926162958145141602e-01,1.567749422974884510e-03,3.041981756687164307e-01,-0.000000000000000000e+00,5.793322920799255371e-01,6.246797274798154831e-03,-0.000000000000000000e+00,1.235924288630485535e-02,-0.000000000000000000e+00,2.462848648428916931e-02,3.782807150855660439e-03,-0.000000000000000000e+00,-0.000000000000000000e+00,1.905669644474983215e-02,8.030523895286023617e-04,8.606355190277099609e-01,6.281787157058715820e-01,-0.000000000000000000e+00,8.353774435818195343e-03,3.049632012844085693e-01,7.752188481390476227e-03,5.394644141197204590e-01,1.321841239929199219e+00,-0.000000000000000000e+00,-0.000000000000000000e+00,8.828787803649902344e-01,2.993386704474687576e-03,-0.000000000000000000e+00,3.686741460114717484e-03,4.914089739322662354e-01,1.275556441396474838e-02,5.722253024578094482e-02,-0.000000000000000000e+00,-0.000000000000000000e+00,4.204207099974155426e-03,-0.000000000000000000e+00,-0.000000000000000000e+00,7.065013647079467773e-01,4.172252491116523743e-03,3.292399346828460693e-01,3.453850373625755310e-02,2.370623201131820679e-01,5.248941853642463684e-02,8.334501385688781738e-01,5.833721533417701721e-02,4.349847435951232910e-01,1.355712488293647766e-02,1.188405871391296387e+00,3.338678181171417236e-02,-0.000000000000000000e+00,4.682481288909912109e-02,4.802880585193634033e-01,2.835266664624214172e-02,3.872454464435577393e-01,-0.000000000000000000e+00,-0.000000000000000000e+00,2.108995318412780762e-01,-0.000000000000000000e+00,-0.000000000000000000e+00,2.783031901344656944e-03,4.224029928445816040e-02,5.867811851203441620e-03,2.234096318716183305e-04,2.836368978023529053e-02,-0.000000000000000000e+00,-0.000000000000000000e+00,3.463278990238904953e-03,6.792954169213771820e-03,-0.000000000000000000e+00,-0.000000000000000000e+00,-0.000000000000000000e+00,-0.000000000000000000e+00,-0.000000000000000000e+00,1.064946316182613373e-02,-0.000000000000000000e+00,9.561238810420036316e-03,2.527590095996856689e-01,5.261044483631849289e-03,3.426583716645836830e-03,1.955047715455293655e-03,-0.000000000000000000e+00,-0.000000000000000000e+00,-0.000000000000000000e+00,-0.000000000000000000e+00,-0.000000000000000000e+00,1.454799203202128410e-03,-0.000000000000000000e+00,1.654161140322685242e-03,1.758717698976397514e-03,-0.000000000000000000e+00,-0.000000000000000000e+00,1.299777161329984665e-02,1.211105845868587494e-02,9.989893296733498573e-04,-0.000000000000000000e+00,8.382985368371009827e-03,-0.000000000000000000e+00,-0.000000000000000000e+00,9.684945456683635712e-03,3.460439853370189667e-03,2.002093553543090820e+00,1.451476454734802246e+00,-0.000000000000000000e+00,-0.000000000000000000e+00,-0.000000000000000000e+00,-0.000000000000000000e+00,-0.000000000000000000e+00,-0.000000000000000000e+00,3.451277152635157108e-04,-0.000000000000000000e+00,3.659873967990279198e-03,1.430367492139339447e-02,-0.000000000000000000e+00,4.746536724269390106e-03,-0.000000000000000000e+00,-0.000000000000000000e+00,1.231269445270299911e-02,9.816602468490600586e-01,8.343328721821308136e-03,-0.000000000000000000e+00,-0.000000000000000000e+00,9.550041519105434418e-03,1.901424378156661987e-01,-0.000000000000000000e+00,1.534382812678813934e-02,-0.000000000000000000e+00,7.884842343628406525e-03,3.014981281012296677e-03,6.041637156158685684e-03,-0.000000000000000000e+00,-0.000000000000000000e+00,-0.000000000000000000e+00,-0.000000000000000000e+00,-0.000000000000000000e+00,-0.000000000000000000e+00,-0.000000000000000000e+00,3.505128552205860615e-04,5.685861222445964813e-03,-0.000000000000000000e+00,-0.000000000000000000e+00,-0.000000000000000000e+00,-0.000000000000000000e+00,-0.000000000000000000e+00,-0.000000000000000000e+00,4.141861107200384140e-03
-0.000000000000000000e+00,-0.000000000000000000e+00,3.562160069122910500e-03,7.148772012442350388e-03,5.294204456731677055e-04,4.020817577838897705e-03,-0.000000000000000000e+00,-0.000000000000000000e+00,1.823654025793075562e-01,3.306034207344055176e-02,7.995771011337637901e-04,-0.000000000000000000e+00,8.728102780878543854e-03,-0.000000000000000000e+00,2.458655973896384239e-03,1.902050338685512543e-02,3.753406694158911705e-03,-0.000000000000000000e+00,2.432294487953186035e-01,1.057590078562498093e-02,-0.000000000000000000e+00,2.388544613495469093e-03,-0.000000000000000000e+00,2.846472663804888725e-03,5.408879835158586502e-03,-0.000000000000000000e+00,2.890724539756774902e-01,-0.000000000000000000e+00,7.183508574962615967e-02,2.119668293744325638e-03,1.006731152534484863e+00,-0.000000000000000000e+00,4.858770072460174561e-01,-0.000000000000000000e+00,1.323688775300979614e-03,-0.000000000000000000e+00,3.603904545307159424e-01,1.061943732202053070e-02,1.496782898902893066e-01,-0.000000000000000000e+00,-0.000000000000000000e+00,4.621669650077819824e-03,-0.000000000000000000e+00,-0.000000000000000000e+00,-0.000000000000000000e+00,-0.000000000000000000e+00,-0.000000000000000000e+00,-0.000000000000000000e+00,7.066808640956878662e-03,-0.000000000000000000e+00,1.421330869197845459e-02,3.222648054361343384e-03,-0.000000000000000000e+00,-0.000000000000000000e+00,-0.000000000000000000e+00,1.020588679239153862e-04,-0.000000000000000000e+00,-0.000000000000000000e+00,4.952593892812728882e-02,4.072695970535278320e-03,7.855585217475891113e-02,-0.000000000000000000e+00,-0.000000000000000000e+00,-0.000000000000000000e+00,-0.000000000000000000e+00,3.619783325120806694e-03,5.501390551216900349e-04,-0.000000000000000000e+00,4.133669659495353699e-03,-0.000000000000000000e+00,-0.000000000000000000e+00,-0.000000000000000000e+00,2.656462192535400391e-01,1.572608828544616699e+00,1.945224474184215069e-03,5.451646633446216583e-03,2.160151256248354912e-03,2.410231390967965126e-03,4.312374629080295563e-03,-0.000000000000000000e+00,-0.000000000000000000e+00,2.310543088242411613e-03,-0.000000000000000000e+00,3.364891046658158302e-03,3.953436855226755142e-03,4.241728484630584717e-01,2.435151934623718262e-01,-0.000000000000000000e+00,6.462178193032741547e-03,-0.000000000000000000e+00,1.702630706131458282e-02,1.289234589785337448e-02,2.582128625363111496e-03,4.893059134483337402e-01,-0.000000000000000000e+00,3.540207743644714355e-01,8.538625836372375488e-01,1.750030368566513062e-02,3.976316656917333603e-03,1.006283052265644073e-02,1.267325520515441895e+00,4.831055402755737305e-01,9.420738369226455688e-02,5.729019641876220703e-03,6.430469453334808350e-03,5.378490313887596130e-03,4.023183602839708328e-03,4.606579605024307966e-04,4.130317363888025284e-03,-0.000000000000000000e+00,1.643194071948528290e-02,3.697613283293321729e-05,6.266016978770494461e-03,3.079570271074771881e-02,-0.000000000000000000e+00,3.505371976643800735e-03,1.291182264685630798e-02,1.694109104573726654e-02,6.383988261222839355e-02,1.483058691024780273e+00,1.392275571823120117e+00,6.744872778654098511e-02,-0.000000000000000000e+00,-0.000000000000000000e+00,-0.000000000000000000e+00,-0.000000000000000000e+00,-0.000000000000000000e+00,-0.000000000000000000e+00,5.287003517150878906e-01,-0.000000000000000000e+00,9.056865819729864597e-04,1.938128709793090820e+00,8.930210024118423462e-04,-0.000000000000000000e+00,5.319068673998117447e-03,-0.000000000000000000e+00,-0.000000000000000000e+00,-0.000000000000000000e+00,1.448073744773864746e+00,1.638832688331604004e-02,1.974082924425601959e-02,1.083523511886596680e+00,1.326097268611192703e-02,2.324002832174301147e-01,1.427265908569097519e-02,3.589758276939392090e-02,7.148088887333869934e-03,1.384804010391235352e+00,1.050955802202224731e-02,1.596070453524589539e-02,5.980822443962097168e-01,1.326359529048204422e-02,-0.000000000000000000e+00,8.805462159216403961e-03,-0.000000000000000000e+00,1.830786019563674927e-01,4.467580467462539673e-03,-0.000000000000000000e+00,1.974935643374919891e-02,-0.000000000000000000e+00,-0.000000000000000000e+00,5.248731002211570740e-03,-0.000000000000000000e+00,-0.000000000000000000e+00,-0.000000000000000000e+00,1.976458787918090820e+00,-0.000000000000000000e+00,7.890600827522575855e-04,1.804019659757614136e-01,-0.000000000000000000e+00,-0.000000000000000000e+00,-0.000000000000000000e+00,-0.000000000000000000e+00,-0.000000000000000000e+00,1.298148278146982193e-02,3.615097375586628914e-04,9.172735363245010376e-02,1.863994449377059937e-02,-0.000000000000000000e+00,-0.000000000000000000e+00,1.199101567268371582e+00,-0.000000000000000000e+00,1.371341347694396973e-01,5.095303989946842194e-03,2.659213840961456299e-01,-0.000000000000000000e+00,1.685553669929504395e+00,4.610395058989524841e-03,3.336179768666625023e-03,-0.000000000000000000e+00,-0.000000000000000000e+00,2.238652855157852173e-02,4.682270344346761703e-03,3.169151842594146729e-01,4.399055615067481995e-03,5.167158320546150208e-03,1.986683811992406845e-03,-0.000000000000000000e+00,-0.000000000000000000e+00,-0.000000000000000000e+00,1.121709682047367096e-02,-0.000000000000000000e+00,-0.000000000000000000e+00,-0.000000000000000000e+00,-0.000000000000000000e+00,-0.000000000000000000e+00,-0.000000000000000000e+00,-0.000000000000000000e+00,-0.000000000000000000e+00,5.187255796045064926e-03,-0.000000000000000000e+00,-0.000000000000000000e+00,7.713746279478073120e-03,-0.000000000000000000e+00,-0.000000000000000000e+00,6.335772573947906494e-03,4.323835019022226334e-03,-0.000000000000000000e+00,1.042656879872083664e-02,-0.000000000000000000e+00,3.685458600521087646e-01,1.246721483767032623e-02,1.645589596591889858e-03,4.203200223855674267e-04,4.750002920627593994e-02,-0.000000000000000000e+00,2.284624986350536346e-02,-0.000000000000000000e+00,5.268231630325317383e-01,1.185315940529108047e-02,-0.000000000000000000e+00,1.407583826221525669e-03,-0.000000000000000000e+00,1.920321464538574219e+00,4.752135574817657471e-01,-0.000000000000000000e+00,6.786987185478210449e-02,-0.000000000000000000e+00,1.215412165038287640e-03,4.779795408248901367e-01,9.131076931953430176e-01,-0.000000000000000000e+00,2.258927933871746063e-02,8.908833377063274384e-03,1.166028715670108795e-02,6.423433870077133179e-02,1.845275750383734703e-03,-0.000000000000000000e+00,-0.000000000000000000e+00,9.648483991622924805e-02,1.403968594968318939e-02,1.020890355110168457e+00,2.404129318892955780e-02,2.031477866694331169e-03,9.605370578356087208e-04,1.025995984673500061e-01,-0.000000000000000000e+00,-0.000000000000000000e+00,2.759751558303833008e+00,-0.000000000000000000e+00,4.046884365379810333e-03,6.038186140358448029e-03,7.158809900283813477e-02,5.089493989944458008e-01,-0.000000000000000000e+00,3.746150061488151550e-02,-0.000000000000000000e+00,2.457932531833648682e-01,1.170468144118785858e-02,6.372408270835876465e-01,2.750672698020935059e-01,1.544766966253519058e-02,8.935453370213508606e-03,-0.000000000000000000e+00,1.025105237960815430e+00,3.717195093631744385e-01,3.402180075645446777e-01,1.898822188377380371e-02,-0.000000000000000000e+00,3.680501598864793777e-03,2.448539016768336296e-03,-0.000000000000000000e+00,-0.000000000000000000e+00,-0.000000000000000000e+00,8.197143077850341797e-01,1.101959031075239182e-03,4.659228958189487457e-03,1.147352717816829681e-02,-0.000000000000000000e+00,-0.000000000000000000e+00,1.066647171974182129e+00,-0.000000000000000000e+00,-0.000000000000000000e+00,-0.000000000000000000e+00,7.730985060334205627e-03,-0.000000000000000000e+00,-0.000000000000000000e+00,7.025899365544319153e-03,-0.000000000000000000e+00,1.312306558247655630e-04,6.495913863182067871e-01,-0.000000000000000000e+00,4.395587369799613953e-03,3.200869774445891380e-03,-0.000000000000000000e+00,-0.000000000000000000e+00,6.643679924309253693e-03,9.386165998876094818e-03,-0.000000000000000000e+00,2.010713797062635422e-03,-0.000000000000000000e+00,1.878336304798722267e-03,9.362079501152038574e-01,-0.000000000000000000e+00,3.718078602105379105e-03,8.607711195945739746e-01,4.159838892519474030e-03,3.409289056435227394e-03,-0.000000000000000000e+00,4.341607447713613510e-03,-0.000000000000000000e+00,-0.000000000000000000e+00,2.485477030277252197e-01,-0.000000000000000000e+00,5.811532139778137207e-01,2.039504051208496094e-02,-0.000000000000000000e+00,-0.000000000000000000e+00,5.294419825077056885e-03,-0.000000000000000000e+00,-0.000000000000000000e+00,-0.000000000000000000e+00,-0.000000000000000000e+00,-0.000000000000000000e+00,3.354378510266542435e-03,3.928965888917446136e-03,-0.000000000000000000e+00,2.337462501600384712e-03,-0.000000000000000000e+00,-0.000000000000000000e+00,1.704404503107070923e-02,1.150755118578672409e-02,9.033972397446632385e-03,2.377989143133163452e-01,-0.000000000000000000e+00,4.863032139837741852e-03,1.671174541115760803e-02,1.050685644149780273e+00,6.970338523387908936e-02,9.627727558836340904e-04,-0.000000000000000000e+00,2.333768410608172417e-03,-0.000000000000000000e+00,3.581363242119550705e-03,-0.000000000000000000e+00,-0.000000000000000000e+00,-0.000000000000000000e+00,-0.000000000000000000e+00,-0.000000000000000000e+00,-0.000000000000000000e+00,-0.000000000000000000e+00,-0.000000000000000000e+00,-0.000000000000000000e+00,2.694970928132534027e-03,-0.000000000000000000e+00,-0.000000000000000000e+00,-0.000000000000000000e+00,-0.000000000000000000e+00,1.217827852815389633e-02
-0.000000000000000000e+00,-0.000000000000000000e+00,8.570468425750732422e-01,7.926436066627502441e-01,3.461963729932904243e-03,-0.000000000000000000e+00,-0.000000000000000000e+00,1.013702340424060822e-02,1.062776136677712202e-04,8.145549148321151733e-02,-0.000000000000000000e+00,1.154057502746582031e+00,3.569070249795913696e-03,-0.000000000000000000e+00,8.550532460212707520e-01,-0.000000000000000000e+00,2.907309532165527344e-01,-0.000000000000000000e+00,6.180828437209129333e-03,8.617317304015159607e-03,9.767217040061950684e-01,-0.000000000000000000e+00,2.459389623254537582e-03,-0.000000000000000000e+00,-0.000000000000000000e+00,2.675000112503767014e-03,-0.000000000000000000e+00,1.214135289192199707e+00,4.341540336608886719e-01,-0.000000000000000000e+00,3.966673277318477631e-03,-0.000000000000000000e+00,6.198887247592210770e-03,4.548391792923212051e-03,-0.000000000000000000e+00,-0.000000000000000000e+00,3.299368917942047119e-02,3.041696310043334961e+00,4.002177956863306463e-05,-0.000000000000000000e+00,5.890845786780118942e-03,1.027637839317321777e+00,1.321042887866497040e-02,-0.000000000000000000e+00,6.092324852943420410e-01,3.102207556366920471e-03,3.748970804736018181e-03,-0.000000000000000000e+00,4.297012637834995985e-04,-0.000000000000000000e+00,5.162166431546211243e-03,2.029450237751007080e-01,-0.000000000000000000e+00,-0.000000000000000000e+00,3.947173710912466049e-03,8.083096742630004883e-01,7.335577607154846191e-01,-0.000000000000000000e+00,4.366649780422449112e-03,6.362663507461547852e-01,-0.000000000000000000e+00,3.947101533412933350e-01,3.838496049866080284e-03,-0.000000000000000000e+00,-0.000000000000000000e+00,-0.000000000000000000e+00,2.481419127434492111e-03,-0.000000000000000000e+00,2.148495912551879883e-01,1.757856369018554688e+00,6.233787629753351212e-03,1.573203682899475098e+00,4.019985441118478775e-03,1.943480610847473145e+00,3.307993290945887566e-03,-0.000000000000000000e+00,2.812182763591408730e-03,-0.000000000000000000e+00,8.861016631126403809e-01,-0.000000000000000000e+00,2.347016474232077599e-03,3.764596302062273026e-03,1.745229721069335938e+00,7.980999536812305450e-03,4.717521071434020996e-01,-0.000000000000000000e+00,3.209076821804046631e-04,2.897850990295410156e+00,1.304803974926471710e-02,-0.000000000000000000e+00,6.857588291168212891e-01,-0.000000000000000000e+00,-0.000000000000000000e+00,3.237890545278787613e-03,-0.000000000000000000e+00,-0.000000000000000000e+00,3.813880495727062225e-03,-0.000000000000000000e+00,2.417153596878051758e+00,4.503895994275808334e-03,1.667599566280841827e-02,1.166872170870192349e-04,-0.000000000000000000e+00,5.507710389792919159e-03,1.567197032272815704e-03,1.809020293876528740e-03,7.643996477127075195e-01,9.922891855239868164e-01,5.603370256721973419e-03,-0.000000000000000000e+00,-0.000000000000000000e+00,-0.000000000000000000e+00,-0.000000000000000000e+00,-0.000000000000000000e+00,-0.000000000000000000e+00,-0.000000000000000000e+00,2.833046577870845795e-02,1.700196415185928345e-03,-0.000000000000000000e+00,8.679542690515518188e-03,-0.000000000000000000e+00,-0.000000000000000000e+00,-0.000000000000000000e+00,-0.000000000000000000e+00,-0.000000000000000000e+00,-0.000000000000000000e+00,-0.000000000000000000e+00,-0.000000000000000000e+00,-0.000000000000000000e+00,2.427082300186157227e+00,3.273612499237060547e+00,-0.000000000000000000e+00,-0.000000000000000000e+00,-0.000000000000000000e+00,-0.000000000000000000e+00,-0.000000000000000000e+00,4.754016117658466101e-04,8.345065116882324219e-01,1.398658007383346558e-01,-0.000000000000000000e+00,-0.000000000000000000e+00,6.045793648809194565e-03,3.368466394022107124e-03,2.302326679229736328e+00,-0.000000000000000000e+00,1.316631317138671875e+00,2.576726116240024567e-02,-0.000000000000000000e+00,1.924157142639160156e+00,2.467571496963500977e+00,1.589756250381469727e+00,-0.000000000000000000e+00,-0.000000000000000000e+00,-0.000000000000000000e+00,8.522290587425231934e-01,2.525603398680686951e-03,-0.000000000000000000e+00,-0.000000000000000000e+00,-0.000000000000000000e+00,-0.000000000000000000e+00,-0.000000000000000000e+00,4.003218375146389008e-03,-0.000000000000000000e+00,2.975376844406127930e+00,2.197291135787963867e+00,-0.000000000000000000e+00,1.287662540562450886e-03,8.810045546852052212e-04,2.078487770631909370e-03,-0.000000000000000000e+00,-0.000000000000000000e+00,-0.000000000000000000e+00,-0.000000000000000000e+00,-0.000000000000000000e+00,6.392306685447692871e-01,5.400840891525149345e-04,2.084235660731792450e-02,-0.000000000000000000e+00,4.273561935406178236e-04,-0.000000000000000000e+00,-0.000000000000000000e+00,-0.000000000000000000e+00,-0.000000000000000000e+00,3.518039593473076820e-04,-0.000000000000000000e+00,1.778893871232867241e-03,-0.000000000000000000e+00,3.812378505244851112e-03,1.993150949478149414e+00,-0.000000000000000000e+00,-0.000000000000000000e+00,4.073089919984340668e-03,-0.000000000000000000e+00,2.000808000564575195e+00,2.097452878952026367e-01,7.723625749349594116e-03,-0.000000000000000000e+00,4.072010051459074020e-03,-0.000000000000000000e+00,-0.000000000000000000e+00,-0.000000000000000000e+00,-0.000000000000000000e+00,8.926717564463615417e-03,-0.000000000000000000e+00,-0.000000000000000000e+00,-0.000000000000000000e+00,2.356916433200240135e-03,-0.000000000000000000e+00,-0.000000000000000000e+00,3.044916782528162003e-03,3.547983942553400993e-03,2.598691789899021387e-04,-0.000000000000000000e+00,-0.000000000000000000e+00,-0.000000000000000000e+00,1.266725420951843262e+00,7.406961638480424881e-03,-0.000000000000000000e+00,-0.000000000000000000e+00,-0.000000000000000000e+00,-0.000000000000000000e+00,-0.000000000000000000e+00,-0.000000000000000000e+00,-0.000000000000000000e+00,1.398135069757699966e-02,-0.000000000000000000e+00,-0.000000000000000000e+00,-0.000000000000000000e+00,1.774601638317108154e-03,2.757072448730468750e-03,1.196467550471425056e-03,-0.000000000000000000e+00,7.732196711003780365e-03,-0.000000000000000000e+00,1.120602965354919434e+00,-0.000000000000000000e+00,1.302062153816223145e+00,1.037441543303430080e-03,-0.000000000000000000e+00,1.531239151954650879e+00,-0.000000000000000000e+00,-0.000000000000000000e+00,-0.000000000000000000e+00,1.290490508079528809e+00,5.451076664030551910e-03,-0.000000000000000000e+00,-0.000000000000000000e+00,3.999444842338562012e-02,-0.000000000000000000e+00,6.662514060735702515e-02,-0.000000000000000000e+00,-0.000000000000000000e+00,6.515660136938095093e-02,-0.000000000000000000e+00,7.186193019151687622e-03,4.974261857569217682e-03,-0.000000000000000000e+00,-0.000000000000000000e+00,-0.000000000000000000e+00,1.219462394714355469e+00,1.279693911783397198e-03,-0.000000000000000000e+00,2.694631461054086685e-03,-0.000000000000000000e+00,1.338111639022827148e+00,1.477871775627136230e+00,1.623137116432189941e+00,1.206821799278259277e+00,1.971476078033447266e+00,1.652699112892150879e+00,-0.000000000000000000e+00,1.967428207397460938e+00,3.944882657378911972e-03,1.884035825729370117e+00,6.475032567977905273e-01,-0.000000000000000000e+00,3.244839375838637352e-03,-0.000000000000000000e+00,-0.000000000000000000e+00,-0.000000000000000000e+00,-0.000000000000000000e+00,-0.000000000000000000e+00,3.233848810195922852e-01,1.891055726446211338e-04,1.003017066977918148e-03,-0.000000000000000000e+00,2.025927416980266571e-03,5.066488403826951981e-03,8.111488074064254761e-03,8.805441856384277344e-02,8.815508484840393066e-01,1.011722922325134277e+00,1.978430390357971191e+00,4.005917347967624664e-03,2.312989234924316406e+00,2.408105134963989258e-02,-0.000000000000000000e+00,1.053411841392517090e+00,-0.000000000000000000e+00,9.273954629898071289e-01,-0.000000000000000000e+00,-0.000000000000000000e+00,2.810376463457942009e-03,1.056325435638427734e+00,1.556921005249023438e+00,3.645148593932390213e-03,8.208801038563251495e-03,-0.000000000000000000e+00,1.801575534045696259e-03,8.864575028419494629e-01,5.803728010505437851e-03,-0.000000000000000000e+00,2.005719423294067383e+00,-0.000000000000000000e+00,-0.000000000000000000e+00,-0.000000000000000000e+00,1.938929855823516846e-01,6.863709092140197754e-01,6.975916679948568344e-03,4.100976977497339249e-03,1.495114900171756744e-02,3.102243412286043167e-03,-0.000000000000000000e+00,-0.000000000000000000e+00,1.738024473190307617e+00,8.605395555496215820e-01,2.402647018432617188e+00,-0.000000000000000000e+00,4.724184516817331314e-03,-0.000000000000000000e+00,8.030533790588378906e-01,-0.000000000000000000e+00,-0.000000000000000000e+00,-0.000000000000000000e+00,2.603448182344436646e-02,1.427046805620193481e-01,2.813205355778336525e-03,1.742184162139892578e-03,-0.000000000000000000e+00,6.723225116729736328e-02,-0.000000000000000000e+00,-0.000000000000000000e+00,1.110520124435424805e+00,1.382899045944213867e+00,2.088878631591796875e+00,-0.000000000000000000e+00,1.137488870881497860e-03,-0.000000000000000000e+00,1.027180910110473633e+00,1.705287955701351166e-02,-0.000000000000000000e+00,1.026599168777465820e+00,-0.000000000000000000e+00,-0.000000000000000000e+00,-0.000000000000000000e+00,-0.000000000000000000e+00,1.563762575387954712e-01,-0.000000000000000000e+00,-0.000000000000000000e+00,3.000072902068495750e-03,2.829384058713912964e-03,6.037014536559581757e-03,5.471940636634826660e-01,4.298416431993246078e-03,-0.000000000000000000e+00,-0.000000000000000000e+00,-0.000000000000000000e+00,-0.000000000000000000e+00,3.505098866298794746e-03
-0.000000000000000000e+00,2.211082028225064278e-03,6.062161549925804138e-02,4.338758066296577454e-03,-0.000000000000000000e+00,-0.000000000000000000e+00,6.302405893802642822e-02,-0.000000000000000000e+00,3.263281583786010742e-01,9.095778465270996094e-01,-0.000000000000000000e+00,1.190457865595817566e-02,5.744701717048883438e-03,6.593863014131784439e-03,2.053152304142713547e-03,7.967839948832988739e-03,4.330350756645202637e-01,-0.000000000000000000e+00,-0.000000000000000000e+00,1.305308490991592407e-01,2.140642888844013214e-02,3.768421709537506104e-03,-0.000000000000000000e+00,-0.000000000000000000e+00,4.851625300943851471e-03,-0.000000000000000000e+00,3.254804760217666626e-03,9.418103843927383423e-03,7.088304031640291214e-03,3.343845009803771973e-01,6.122760940343141556e-03,-0.000000000000000000e+00,3.913959953933954239e-03,-0.000000000000000000e+00,7.546750456094741821e-02,-0.000000000000000000e+00,5.691883619874715805e-03,-0.000000000000000000e+00,1.440459847450256348e+00,-0.000000000000000000e+00,1.263727098703384399e-01,5.176154375076293945e-01,6.626638174057006836e-01,1.895094464998692274e-04,3.947860002517700195e-02,2.914512064307928085e-03,-0.000000000000000000e+00,-0.000000000000000000e+00,-0.000000000000000000e+00,-0.000000000000000000e+00,3.218352794647216797e-02,4.977879822254180908e-01,-0.000000000000000000e+00,5.341842770576477051e-03,-0.000000000000000000e+00,2.655283547937870026e-03,4.765842109918594360e-02,-0.000000000000000000e+00,-0.000000000000000000e+00,4.255625884979963303e-03,3.408270888030529022e-03,2.397995740175247192e-01,1.358303241431713104e-02,4.094862379133701324e-03,-0.000000000000000000e+00,1.169387251138687134e-01,-0.000000000000000000e+00,2.601490914821624756e-02,-0.000000000000000000e+00,3.451758325099945068e-01,4.155602771788835526e-03,3.815104137174785137e-04,3.292634384706616402e-03,-0.000000000000000000e+00,-0.000000000000000000e+00,-0.000000000000000000e+00,9.935132693499326706e-04,-0.000000000000000000e+00,2.881374675780534744e-03,-0.000000000000000000e+00,-0.000000000000000000e+00,1.339539885520935059e-01,1.683184818830341101e-04,-0.000000000000000000e+00,3.338086605072021484e-02,1.072732731699943542e-02,8.030055090785026550e-03,2.110321074724197388e-03,1.147428527474403381e-02,-0.000000000000000000e+00,2.575193159282207489e-02,-0.000000000000000000e+00,-0.000000000000000000e+00,5.996028776280581951e-04,4.836778156459331512e-03,-0.000000000000000000e+00,3.457526909187436104e-03,7.788723707199096680e-02,1.010471224784851074e+00,2.778443275019526482e-03,1.271151185035705566e+00,6.477854680269956589e-03,2.865152433514595032e-03,1.426844954490661621e+00,1.182098407298326492e-02,9.173553586006164551e-01,1.391813755035400391e+00,7.744496315717697144e-02,2.114287614822387695e+00,7.443555593490600586e-01,6.733739376068115234e-01,3.819493204355239868e-02,-0.000000000000000000e+00,-0.000000000000000000e+00,-0.000000000000000000e+00,-0.000000000000000000e+00,-0.000000000000000000e+00,-0.000000000000000000e+00,-0.000000000000000000e+00,1.473760724067687988e+00,9.779862011782824993e-05,6.893576588481664658e-03,-0.000000000000000000e+00,-0.000000000000000000e+00,-0.000000000000000000e+00,7.437170017510652542e-03,9.667319655418395996e-01,-0.000000000000000000e+00,9.644269011914730072e-04,1.893843524158000946e-02,8.510995507240295410e-01,-0.000000000000000000e+00,-0.000000000000000000e+00,-0.000000000000000000e+00,-0.000000000000000000e+00,-0.000000000000000000e+00,1.352688908576965332e+00,4.251835867762565613e-03,-0.000000000000000000e+00,-0.000000000000000000e+00,2.382689621299505234e-03,1.294953376054763794e-02,1.303369551897048950e-02,3.322553262114524841e-02,9.663158096373081207e-03,7.664280533790588379e-01,1.375491380691528320e+00,7.877295836806297302e-03,4.237461388111114502e-01,1.217446755617856979e-02,3.411764502525329590e-01,-0.000000000000000000e+00,-0.000000000000000000e+00,1.802777498960494995e-02,-0.000000000000000000e+00,-0.000000000000000000e+00,-0.000000000000000000e+00,-0.000000000000000000e+00,-0.000000000000000000e+00,-0.000000000000000000e+00,2.711885143071413040e-03,3.878302173689007759e-03,3.155041020363569260e-03,-0.000000000000000000e+00,5.578803829848766327e-04,5.545255728065967560e-03,2.026534639298915863e-03,-0.000000000000000000e+00,3.182226500939577818e-04,-0.000000000000000000e+00,-0.000000000000000000e+00,1.291883587837219238e+00,1.715350663289427757e-03,-0.000000000000000000e+00,1.493576541543006897e-02,3.511329181492328644e-03,-0.000000000000000000e+00,-0.000000000000000000e+00,-0.000000000000000000e+00,-0.000000000000000000e+00,-0.000000000000000000e+00,-0.000000000000000000e+00,1.694424271583557129e+00,8.132512681186199188e-03,6.089434493333101273e-03,-0.000000000000000000e+00,8.570341393351554871e-03,-0.000000000000000000e+00,-0.000000000000000000e+00,4.642471075057983398e-01,1.622553169727325439e-02,4.037942737340927124e-03,-0.000000000000000000e+00,8.399170041084289551e-01,7.657703161239624023e-01,3.111481899395585060e-03,-0.000000000000000000e+00,6.935646757483482361e-03,-0.000000000000000000e+00,7.958018220961093903e-03,1.244515646249055862e-02,-0.000000000000000000e+00,1.278130054473876953e+00,7.244482170790433884e-03,6.005050539970397949e-01,5.917866230010986328e-01,-0.000000000000000000e+00,1.025874137878417969e+00,-0.000000000000000000e+00,-0.000000000000000000e+00,3.540446609258651733e-02,3.907467238605022430e-03,-0.000000000000000000e+00,-0.000000000000000000e+00,-0.000000000000000000e+00,-0.000000000000000000e+00,2.604940347373485565e-02,-0.000000000000000000e+00,1.100239515304565430e+00,-0.000000000000000000e+00,6.728149950504302979e-03,6.920627318322658539e-03,-0.000000000000000000e+00,-0.000000000000000000e+00,1.234350074082612991e-02,1.257225230801850557e-04,-0.000000000000000000e+00,-0.000000000000000000e+00,5.202775355428457260e-03,1.597098074853420258e-03,-0.000000000000000000e+00,3.430501325055956841e-03,1.470437765121459961e+00,-0.000000000000000000e+00,2.568189501762390137e-01,2.413995750248432159e-02,4.243141040205955505e-03,-0.000000000000000000e+00,2.723572542890906334e-03,3.767232596874237061e-02,-0.000000000000000000e+00,-0.000000000000000000e+00,-0.000000000000000000e+00,-0.000000000000000000e+00,4.459513351321220398e-03,-0.000000000000000000e+00,-0.000000000000000000e+00,7.554666996002197266e-01,7.349708117544651031e-03,1.285527180880308151e-02,6.043668836355209351e-04,5.172484554350376129e-03,1.450016200542449951e-01,1.934801973402500153e-02,-0.000000000000000000e+00,5.307531915605068207e-03,-0.000000000000000000e+00,2.946460153907537460e-03,8.359106257557868958e-03,4.388649165630340576e-01,4.059042781591415405e-03,-0.000000000000000000e+00,-0.000000000000000000e+00,1.238801121711730957e+00,1.333219814114272594e-03,1.114935040473937988e+00,-0.000000000000000000e+00,7.918014526367187500e-01,7.948225364089012146e-03,9.215859174728393555e-01,1.805618405342102051e+00,4.148187581449747086e-03,5.887084640562534332e-03,-0.000000000000000000e+00,1.748537123203277588e-01,-0.000000000000000000e+00,7.134966435842216015e-04,2.592291217297315598e-03,-0.000000000000000000e+00,-0.000000000000000000e+00,1.784802526235580444e-01,-0.000000000000000000e+00,4.337516613304615021e-03,-0.000000000000000000e+00,-0.000000000000000000e+00,-0.000000000000000000e+00,1.928675472736358643e-01,2.624510554596781731e-03,-0.000000000000000000e+00,2.351098537445068359e+00,1.753422431647777557e-02,-0.000000000000000000e+00,2.621968090534210205e-02,-0.000000000000000000e+00,1.073884487152099609e+00,6.839945167303085327e-02,-0.000000000000000000e+00,6.531411781907081604e-03,-0.000000000000000000e+00,-0.000000000000000000e+00,-0.000000000000000000e+00,-0.000000000000000000e+00,-0.000000000000000000e+00,1.601526141166687012e-02,1.918546156957745552e-03,-0.000000000000000000e+00,-0.000000000000000000e+00,2.550695324316620827e-03,1.761816209182143211e-03,5.022674798965454102e-03,-0.000000000000000000e+00,-0.000000000000000000e+00,1.232904288917779922e-02,-0.000000000000000000e+00,-0.000000000000000000e+00,1.824051956646144390e-03,2.386163733899593353e-02,1.103901211172342300e-02,3.163625951856374741e-03,8.828796446323394775e-03,-0.000000000000000000e+00,-0.000000000000000000e+00,3.483266336843371391e-03,-0.000000000000000000e+00,-0.000000000000000000e+00,-0.000000000000000000e+00,-0.000000000000000000e+00,-0.000000000000000000e+00,-0.000000000000000000e+00,-0.000000000000000000e+00,-0.000000000000000000e+00,-0.000000000000000000e+00,3.307410515844821930e-03,-0.000000000000000000e+00,-0.000000000000000000e+00,4.987386520951986313e-03,-0.000000000000000000e+00,-0.000000000000000000e+00,-0.000000000000000000e+00,-0.000000000000000000e+00,4.978300072252750397e-03,-0.000000000000000000e+00,1.056681480258703232e-02,1.058108583092689514e-01,3.839174211025238037e-01,-0.000000000000000000e+00,-0.000000000000000000e+00,-0.000000000000000000e+00,4.294696748256683350e-01,-0.000000000000000000e+00,-0.000000000000000000e+00,-0.000000000000000000e+00,4.263935089111328125e-01,7.945156656205654144e-03,-0.000000000000000000e+00,-0.000000000000000000e+00,1.002952223643660545e-03,-0.000000000000000000e+00,-0.000000000000000000e+00,-0.000000000000000000e+00,6.172941531985998154e-03,6.958688143640756607e-03,-0.000000000000000000e+00,-0.000000000000000000e+00,2.909600734710693359e-03,-0.000000000000000000e+00,-0.000000000000000000e+00,-0.000000000000000000e+00,7.764123438391834497e-05
-0.000000000000000000e+00,1.932788174599409103e-03,4.250402096658945084e-03,-0.000000000000000000e+00,-0.000000000000000000e+00,-0.000000000000000000e+00,-0.000000000000000000e+00,1.160943415015935898e-02,-0.000000000000000000e+00,-0.000000000000000000e+00,4.322094377130270004e-03,3.335687890648841858e-02,4.075085371732711792e-02,8.988732472062110901e-03,-0.000000000000000000e+00,3.917508292943239212e-03,-0.000000000000000000e+00,-0.000000000000000000e+00,-0.000000000000000000e+00,-0.000000000000000000e+00,3.489564731717109680e-02,6.120217032730579376e-03,1.280976086854934692e-02,1.135937310755252838e-02,2.341914223507046700e-03,-0.000000000000000000e+00,3.783433511853218079e-02,-0.000000000000000000e+00,9.306756779551506042e-03,-0.000000000000000000e+00,-0.000000000000000000e+00,-0.000000000000000000e+00,7.366874255239963531e-03,2.011519111692905426e-02,-0.000000000000000000e+00,-0.000000000000000000e+00,-0.000000000000000000e+00,4.705460667610168457e-01,-0.000000000000000000e+00,8.219857118092477322e-04,5.728479940444231033e-03,-0.000000000000000000e+00,3.230167552828788757e-03,9.798535145819187164e-03,-0.000000000000000000e+00,2.974749775603413582e-03,3.070075530558824539e-03,-0.000000000000000000e+00,-0.000000000000000000e+00,1.859975047409534454e-02,3.327141748741269112e-03,1.146073453128337860e-03,1.932496950030326843e-02,-0.000000000000000000e+00,3.391625825315713882e-03,5.235079210251569748e-03,-0.000000000000000000e+00,-0.000000000000000000e+00,3.040301846340298653e-03,-0.000000000000000000e+00,-0.000000000000000000e+00,3.065219894051551819e-02,4.361288622021675110e-03,-0.000000000000000000e+00,3.257275000214576721e-02,1.013687159866094589e-02,7.426694501191377640e-03,6.744138430804014206e-03,6.096974611282348633e-01,-0.000000000000000000e+00,4.756914451718330383e-03,3.400851786136627197e-01,4.409203771501779556e-03,1.778770005330443382e-03,-0.000000000000000000e+00,-0.000000000000000000e+00,6.399617530405521393e-03,-0.000000000000000000e+00,7.230891380459070206e-03,1.823657937347888947e-02,1.095253452658653259e-01,2.287722006440162659e-02,-0.000000000000000000e+00,2.899421006441116333e-02,4.489004909992218018e-01,3.409611526876688004e-04,3.339904546737670898e-02,4.515699297189712524e-02,6.846740841865539551e-03,-0.000000000000000000e+00,1.246816478669643402e-02,4.436691105365753174e-01,-0.000000000000000000e+00,1.110364794731140137e+00,4.520603269338607788e-02,8.145696520805358887e-01,1.771723106503486633e-02,-0.000000000000000000e+00,2.185519784688949585e-01,2.059618243947625160e-03,4.520634710788726807e-01,1.815162897109985352e-01,3.384577035903930664e-01,1.309986829757690430e+00,2.086507156491279602e-02,2.478108927607536316e-02,-0.000000000000000000e+00,2.639411250129342079e-04,-0.000000000000000000e+00,-0.000000000000000000e+00,4.749819263815879822e-02,4.497771151363849640e-04,2.319568535313010216e-03,-0.000000000000000000e+00,-0.000000000000000000e+00,3.598537878133356571e-04,7.217341102659702301e-03,-0.000000000000000000e+00,-0.000000000000000000e+00,2.436746610328555107e-03,-0.000000000000000000e+00,4.634371493011713028e-03,7.970266044139862061e-03,3.239010926336050034e-03,7.904924750328063965e-01,1.323319599032402039e-02,3.357475996017456055e-02,-0.000000000000000000e+00,2.346928697079420090e-03,3.281060755252838135e-01,3.426910340785980225e-01,-0.000000000000000000e+00,4.552654325962066650e-01,8.427326567471027374e-03,5.414764955639839172e-02,-0.000000000000000000e+00,6.201715208590030670e-03,-0.000000000000000000e+00,8.075167238712310791e-02,1.128353830426931381e-02,1.422642450779676437e-02,2.010923475027084351e-01,4.187327623367309570e-02,-0.000000000000000000e+00,3.796624252572655678e-03,-0.000000000000000000e+00,3.098829090595245361e-01,-0.000000000000000000e+00,5.115339998155832291e-03,1.486332416534423828e-01,1.070036645978689194e-02,-0.000000000000000000e+00,2.165710739791393280e-02,-0.000000000000000000e+00,3.274011192843317986e-03,-0.000000000000000000e+00,-0.000000000000000000e+00,-0.000000000000000000e+00,-0.000000000000000000e+00,-0.000000000000000000e+00,3.050782978534698486e-01,-0.000000000000000000e+00,3.213108982890844345e-03,-0.000000000000000000e+00,2.754830420017242432e-01,5.348446965217590332e-01,-0.000000000000000000e+00,-0.000000000000000000e+00,2.369162812829017639e-02,-0.000000000000000000e+00,-0.000000000000000000e+00,5.255891475826501846e-03,1.233051776885986328e+00,1.135575175285339355e+00,4.567981660366058350e-01,3.296627476811408997e-02,2.510359510779380798e-03,8.356516808271408081e-02,1.355123072862625122e-01,-0.000000000000000000e+00,2.380863279104232788e-01,3.649234473705291748e-01,4.491765983402729034e-03,7.988728582859039307e-03,3.402519971132278442e-02,2.270228229463100433e-03,-0.000000000000000000e+00,5.765900760889053345e-02,1.253004558384418488e-02,3.489549458026885986e-02,2.228098921477794647e-03,9.482978843152523041e-03,3.712776582688093185e-03,2.550474833697080612e-03,4.124122485518455505e-02,1.833597198128700256e-03,1.252229791134595871e-02,3.497987054288387299e-03,-0.000000000000000000e+00,5.871974304318428040e-02,-0.000000000000000000e+00,8.898788690567016602e-02,-0.000000000000000000e+00,7.826060056686401367e-02,-0.000000000000000000e+00,-0.000000000000000000e+00,1.028087496757507324e+00,5.186871886253356934e-01,2.688159234821796417e-03,6.116904020309448242e-01,1.170981049537658691e+00,5.660247802734375000e-02,2.900318205356597900e-01,-0.000000000000000000e+00,2.146640326827764511e-03,2.196739241480827332e-02,5.843342514708638191e-04,7.076195906847715378e-03,-0.000000000000000000e+00,-0.000000000000000000e+00,4.828652366995811462e-03,-0.000000000000000000e+00,9.599938057363033295e-03,1.830177009105682373e-02,-0.000000000000000000e+00,1.796791213564574718e-03,-0.000000000000000000e+00,-0.000000000000000000e+00,-0.000000000000000000e+00,1.235670759342610836e-03,1.252471469342708588e-02,7.450677454471588135e-03,1.672331243753433228e-02,-0.000000000000000000e+00,-0.000000000000000000e+00,3.016056306660175323e-02,-0.000000000000000000e+00,1.417687982320785522e-01,4.501648712903261185e-03,-0.000000000000000000e+00,3.366066608577966690e-03,3.402910195291042328e-03,8.944751694798469543e-03,-0.000000000000000000e+00,1.202231040224432945e-03,2.879592357203364372e-03,7.625079154968261719e-02,5.423083901405334473e-03,3.788577392697334290e-02,4.320578649640083313e-03,1.189454317092895508e+00,7.407710421830415726e-03,-0.000000000000000000e+00,3.862791508436203003e-02,1.289961487054824829e-02,-0.000000000000000000e+00,1.174648642539978027e+00,-0.000000000000000000e+00,-0.000000000000000000e+00,-0.000000000000000000e+00,-0.000000000000000000e+00,5.333597660064697266e-01,1.220827221870422363e+00,2.372057409957051277e-03,-0.000000000000000000e+00,-0.000000000000000000e+00,3.482586471363902092e-03,5.399226397275924683e-02,-0.000000000000000000e+00,-0.000000000000000000e+00,7.312512025237083435e-04,7.047077640891075134e-03,3.579015657305717468e-02,-0.000000000000000000e+00,-0.000000000000000000e+00,-0.000000000000000000e+00,2.727887779474258423e-02,-0.000000000000000000e+00,1.071802616119384766e+00,-0.000000000000000000e+00,3.760296385735273361e-03,2.094310522079467773e-02,-0.000000000000000000e+00,1.530669331550598145e-01,3.283862397074699402e-02,4.831163585186004639e-01,5.483699496835470200e-03,7.269752677530050278e-03,-0.000000000000000000e+00,2.319907769560813904e-03,1.959701068699359894e-02,1.421695649623870850e-01,4.194748029112815857e-02,1.092513743788003922e-02,-0.000000000000000000e+00,7.105435710400342941e-03,-0.000000000000000000e+00,-0.000000000000000000e+00,4.614303708076477051e-01,8.215039968490600586e-03,1.776069775223731995e-02,1.901070587337017059e-02,-0.000000000000000000e+00,1.110547222197055817e-03,3.980228211730718613e-03,2.755641471594572067e-03,-0.000000000000000000e+00,-0.000000000000000000e+00,4.483653232455253601e-02,1.188076287508010864e-02,2.512509524822235107e-01,1.946618109941482544e-01,1.222922094166278839e-02,-0.000000000000000000e+00,-0.000000000000000000e+00,-0.000000000000000000e+00,1.457104086875915527e-02,8.380941115319728851e-03,2.317729778587818146e-02,3.874654648825526237e-03,-0.000000000000000000e+00,9.417711757123470306e-03,-0.000000000000000000e+00,5.227329675108194351e-03,1.667585596442222595e-02,-0.000000000000000000e+00,-0.000000000000000000e+00,-0.000000000000000000e+00,4.215650856494903564e-01,-0.000000000000000000e+00,2.243363996967673302e-03,-0.000000000000000000e+00,1.355982106178998947e-02,9.004538506269454956e-02,1.562416180968284607e-02,-0.000000000000000000e+00,-0.000000000000000000e+00,7.109247613698244095e-03,4.374175146222114563e-02,9.394840598106384277e-01,1.550765242427587509e-03,3.711171075701713562e-02,3.173919916152954102e-01,1.680974848568439484e-02,5.450660362839698792e-03,-0.000000000000000000e+00,2.186205238103866577e-02,-0.000000000000000000e+00,9.693750762380659580e-04,-0.000000000000000000e+00,-0.000000000000000000e+00,6.699986290186643600e-03,7.125204429030418396e-03,9.360394626855850220e-02,-0.000000000000000000e+00,5.952297942712903023e-04,-0.000000000000000000e+00,3.481658408418297768e-03,1.910718344151973724e-02,2.448756992816925049e-02,4.160629119724035263e-03,1.557155279442667961e-03,3.474310971796512604e-03,-0.000000000000000000e+00,3.771318867802619934e-02,1.315302103757858276e-01,1.519606821238994598e-02,-0.000000000000000000e+00,1.229549013078212738e-02
2.487269463017582893e-03,3.310280852019786835e-03,5.743978023529052734e-01,3.208644455298781395e-03,3.132994100451469421e-02,4.960994049906730652e-02,6.615635752677917480e-01,1.419137865304946899e-01,-0.000000000000000000e+00,2.250372059643268585e-02,3.449103096500039101e-04,2.090064883232116699e-01,9.851019829511642456e-03,6.960095837712287903e-03,4.653064012527465820e-01,8.746932260692119598e-03,1.268786378204822540e-02,-0.000000000000000000e+00,3.942219018936157227e-01,6.220351438969373703e-03,1.429538335651159286e-02,-0.000000000000000000e+00,-0.000000000000000000e+00,3.012717934325337410e-04,-0.000000000000000000e+00,3.219797508791089058e-03,2.298957407474517822e-01,9.634360074996948242e-01,9.868738707154989243e-04,3.340716939419507980e-03,6.929522752761840820e-01,-0.000000000000000000e+00,5.035575032234191895e-01,6.018669530749320984e-02,-0.000000000000000000e+00,-0.000000000000000000e+00,5.407853126525878906e-01,1.195860386360436678e-04,1.175032462924718857e-03,1.033699512481689453e-02,-0.000000000000000000e+00,-0.000000000000000000e+00,1.217870623804628849e-03,8.258635178208351135e-03,6.622554361820220947e-02,3.567332634702324867e-03,3.056243956089019775e-01,3.168444382026791573e-03,6.334335543215274811e-03,3.607602324336767197e-03,8.899254724383354187e-03,2.353452332317829132e-02,3.465270856395363808e-03,-0.000000000000000000e+00,2.565621398389339447e-03,8.638281375169754028e-03,4.626430198550224304e-02,1.247835578396916389e-03,8.203404955565929413e-03,4.174727946519851685e-03,3.689654469490051270e-01,1.679577492177486420e-02,-0.000000000000000000e+00,-0.000000000000000000e+00,-0.000000000000000000e+00,3.290588734671473503e-03,8.967628702521324158e-03,-0.000000000000000000e+00,-0.000000000000000000e+00,8.767294697463512421e-03,1.388904452323913574e-02,7.930157706141471863e-03,2.597542479634284973e-04,1.456063473597168922e-03,2.245756387710571289e+00,2.372009038925170898e+00,2.316649913787841797e+00,2.389591455459594727e+00,2.334195673465728760e-01,3.332843305543065071e-03,6.352575495839118958e-03,-0.000000000000000000e+00,-0.000000000000000000e+00,1.304744509980082512e-03,1.302391197532415390e-02,5.075264256447553635e-03,1.398534327745437622e-02,2.039363048970699310e-02,4.417941272258758545e-01,5.526158213615417480e-01,-0.000000000000000000e+00,-0.000000000000000000e+00,-0.000000000000000000e+00,1.221700757741928101e-02,-0.000000000000000000e+00,-0.000000000000000000e+00,1.167291775345802307e-03,-0.000000000000000000e+00,-0.000000000000000000e+00,5.431302823126316071e-03,1.341308373957872391e-02,3.259120583534240723e-01,5.571725312620401382e-03,4.545407835394144058e-03,1.025400683283805847e-02,-0.000000000000000000e+00,4.426176548004150391e-01,-0.000000000000000000e+00,3.753583179786801338e-03,-0.000000000000000000e+00,8.910449221730232239e-03,1.930908113718032837e-02,5.335638299584388733e-03,-0.000000000000000000e+00,-0.000000000000000000e+00,-0.000000000000000000e+00,1.210615504533052444e-03,1.725474139675498009e-03,2.326667755842208862e-01,7.953186519443988800e-03,3.243751125410199165e-03,-0.000000000000000000e+00,-0.000000000000000000e+00,-0.000000000000000000e+00,-0.000000000000000000e+00,2.982057339977473021e-04,3.265940546989440918e-01,-0.000000000000000000e+00,-0.000000000000000000e+00,1.584490016102790833e-02,1.047324419021606445e+00,-0.000000000000000000e+00,-0.000000000000000000e+00,-0.000000000000000000e+00,-0.000000000000000000e+00,-0.000000000000000000e+00,-0.000000000000000000e+00,1.363253407180309296e-02,1.016157865524291992e-02,-0.000000000000000000e+00,1.571732945740222931e-02,2.211568877100944519e-02,4.662235733121633530e-03,9.783779382705688477e-01,-0.000000000000000000e+00,4.642843827605247498e-02,3.009836109413299710e-05,1.155347347259521484e+00,9.375913999974727631e-03,7.220470905303955078e-01,3.900901079177856445e-01,5.674598813056945801e-01,-0.000000000000000000e+00,8.367058821022510529e-03,1.251078501809388399e-04,3.881424432620406151e-03,-0.000000000000000000e+00,-0.000000000000000000e+00,-0.000000000000000000e+00,-0.000000000000000000e+00,8.171048015356063843e-03,6.479748059064149857e-03,-0.000000000000000000e+00,-0.000000000000000000e+00,4.108519759029150009e-03,3.465946647338569164e-04,-0.000000000000000000e+00,-0.000000000000000000e+00,2.656155452132225037e-02,-0.000000000000000000e+00,-0.000000000000000000e+00,1.201883540488779545e-03,9.546708897687494755e-04,-0.000000000000000000e+00,-0.000000000000000000e+00,4.209754522889852524e-03,3.674983978271484375e-01,7.112722843885421753e-03,8.319271728396415710e-04,1.390601135790348053e-02,3.383463993668556213e-02,-0.000000000000000000e+00,-0.000000000000000000e+00,6.809507608413696289e-01,7.722922563552856445e-01,2.300159307196736336e-03,2.742099761962890625e-02,4.700649529695510864e-03,-0.000000000000000000e+00,1.216911245137453079e-02,3.361928164958953857e-01,2.782600820064544678e-01,8.766419487074017525e-04,6.700351834297180176e-03,-0.000000000000000000e+00,-0.000000000000000000e+00,2.213418774772435427e-04,-0.000000000000000000e+00,-0.000000000000000000e+00,1.630982011556625366e-02,-0.000000000000000000e+00,-0.000000000000000000e+00,-0.000000000000000000e+00,-0.000000000000000000e+00,-0.000000000000000000e+00,-0.000000000000000000e+00,-0.000000000000000000e+00,-0.000000000000000000e+00,-0.000000000000000000e+00,1.018857676535844803e-02,2.655514515936374664e-03,-0.000000000000000000e+00,4.080092534422874451e-03,-0.000000000000000000e+00,-0.000000000000000000e+00,6.859275978058576584e-03,2.875817939639091492e-03,-0.000000000000000000e+00,6.719440221786499023e-01,5.149211883544921875e-01,-0.000000000000000000e+00,2.789580225944519043e-01,5.416406989097595215e-01,2.347402274608612061e-02,4.558522254228591919e-03,1.743043400347232819e-02,1.884955167770385742e-01,8.249022811651229858e-02,3.543315827846527100e-01,8.362091779708862305e-01,1.235196180641651154e-02,1.131758093833923340e+00,8.666738867759704590e-03,2.841676473617553711e-01,3.711926639080047607e-01,-0.000000000000000000e+00,3.961918354034423828e-01,-0.000000000000000000e+00,4.443536102771759033e-01,-0.000000000000000000e+00,6.681763529777526855e-01,4.040968138724565506e-03,1.537874341011047363e-01,1.292330026626586914e-02,3.890378475189208984e-01,4.507879167795181274e-02,-0.000000000000000000e+00,1.109268196159973741e-04,-0.000000000000000000e+00,-0.000000000000000000e+00,-0.000000000000000000e+00,2.300119213759899139e-02,-0.000000000000000000e+00,-0.000000000000000000e+00,-0.000000000000000000e+00,2.353816270828247070e+00,-0.000000000000000000e+00,-0.000000000000000000e+00,1.725184559822082520e+00,-0.000000000000000000e+00,-0.000000000000000000e+00,-0.000000000000000000e+00,-0.000000000000000000e+00,-0.000000000000000000e+00,4.737761914730072021e-01,5.626608133316040039e-01,3.347642123699188232e-01,4.989603161811828613e-01,8.959015011787414551e-01,1.218652963638305664e+00,1.667176722548902035e-03,4.067630972713232040e-03,3.497247397899627686e-02,-0.000000000000000000e+00,4.295315127819776535e-03,1.639568686485290527e+00,2.502117156982421875e-01,4.940865188837051392e-02,-0.000000000000000000e+00,3.326848894357681274e-02,9.174197167158126831e-02,-0.000000000000000000e+00,4.256672225892543793e-03,-0.000000000000000000e+00,9.750089608132839203e-03,9.993014857172966003e-03,-0.000000000000000000e+00,3.375972155481576920e-03,-0.000000000000000000e+00,2.845056820660829544e-03,1.082685947418212891e+00,4.675149451941251755e-03,1.077407598495483398e+00,-0.000000000000000000e+00,2.219503046944737434e-03,-0.000000000000000000e+00,-0.000000000000000000e+00,5.240834318101406097e-03,-0.000000000000000000e+00,5.456761457026004791e-03,9.647934883832931519e-02,-0.000000000000000000e+00,6.194715853780508041e-03,8.170161843299865723e-01,4.397636279463768005e-03,1.756336808204650879e+00,-0.000000000000000000e+00,3.787471912801265717e-03,9.026937186717987061e-03,-0.000000000000000000e+00,4.318596911616623402e-04,-0.000000000000000000e+00,7.051818370819091797e-01,1.580798625946044922e-02,-0.000000000000000000e+00,6.762434244155883789e-01,-0.000000000000000000e+00,8.614781312644481659e-03,1.051279483363032341e-03,7.609797758050262928e-04,-0.000000000000000000e+00,-0.000000000000000000e+00,3.943234384059906006e-01,-0.000000000000000000e+00,2.529777120798826218e-03,7.843957864679396152e-04,9.056308865547180176e-01,5.065488949185237288e-05,-0.000000000000000000e+00,-0.000000000000000000e+00,-0.000000000000000000e+00,-0.000000000000000000e+00,2.126662759110331535e-03,-0.000000000000000000e+00,3.594068577513098717e-03,-0.000000000000000000e+00,4.428037907928228378e-03,4.115305375307798386e-03,2.984837861731648445e-03,-0.000000000000000000e+00,-0.000000000000000000e+00,1.891905441880226135e-03,3.341340692713856697e-03,4.606768488883972168e-02,4.551173187792301178e-03,5.049470928497612476e-04,8.789791725575923920e-03,1.006971955299377441e+00,4.024058282375335693e-01,-0.000000000000000000e+00,-0.000000000000000000e+00,3.284877864643931389e-03,3.427533200010657310e-03,1.469568465836346149e-03,-0.000000000000000000e+00,-0.000000000000000000e+00,2.858273801393806934e-04,-0.000000000000000000e+00,-0.000000000000000000e+00,8.269933052361011505e-03,1.462457142770290375e-02,9.049284853972494602e-04,2.171484827995300293e-01,2.529469784349203110e-03,-0.000000000000000000e+00,-0.000000000000000000e+00,-0.000000000000000000e+00,2.243311377242207527e-03,2.382176535320468247e-05
-0.000000000000000000e+00,-0.000000000000000000e+00,2.952471142634749413e-03,9.471096098423004150e-03,2.788616257021203637e-05,2.452866639941930771e-03,1.480986829847097397e-04,-0.000000000000000000e+00,5.409725308418273926e-01,8.064293265342712402e-01,-0.000000000000000000e+00,3.044120036065578461e-03,-0.000000000000000000e+00,-0.000000000000000000e+00,-0.000000000000000000e+00,1.826265640556812286e-02,-0.000000000000000000e+00,2.595621626824140549e-03,1.676903218030929565e-01,3.195472061634063721e-01,1.107482798397541046e-02,4.293646197766065598e-03,-0.000000000000000000e+00,6.136690974235534668e-01,6.679469347000122070e-01,1.667299866676330566e-02,3.325449302792549133e-02,-0.000000000000000000e+00,2.685985565185546875e-01,1.337750077247619629e+00,1.932284832000732422e-01,-0.000000000000000000e+00,4.356086254119873047e-03,-0.000000000000000000e+00,6.136355996131896973e-01,1.519003999419510365e-03,6.198400855064392090e-01,1.149580720812082291e-02,-0.000000000000000000e+00,-0.000000000000000000e+00,2.325999975204467773e+00,-0.000000000000000000e+00,-0.000000000000000000e+00,1.736187026835978031e-03,-0.000000000000000000e+00,3.602480981498956680e-03,-0.000000000000000000e+00,-0.000000000000000000e+00,2.778017520904541016e-01,9.246895089745521545e-03,4.748041927814483643e-01,3.915340900421142578e-01,2.074912935495376587e-02,2.423525303602218628e-01,-0.000000000000000000e+00,-0.000000000000000000e+00,-0.000000000000000000e+00,-0.000000000000000000e+00,8.527659811079502106e-03,-0.000000000000000000e+00,6.800942122936248779e-02,3.761515254154801369e-03,4.673411604017019272e-03,3.040748182684183121e-03,6.604335308074951172e-01,8.752601146697998047e-01,1.448387280106544495e-02,2.261630058288574219e+00,8.923510313034057617e-01,3.562349127605557442e-03,8.912346959114074707e-01,2.977014984935522079e-03,2.991935471072793007e-03,3.984797280281782150e-03,-0.000000000000000000e+00,-0.000000000000000000e+00,-0.000000000000000000e+00,4.134973045438528061e-03,1.985347829759120941e-02,1.022825017571449280e-03,1.241062115877866745e-02,2.776055812835693359e+00,-0.000000000000000000e+00,1.956007676199078560e-03,3.416118621826171875e-01,4.805360920727252960e-03,2.416737936437129974e-02,1.056280918419361115e-02,1.221487484872341156e-02,-0.000000000000000000e+00,9.830829501152038574e-01,-0.000000000000000000e+00,-0.000000000000000000e+00,-0.000000000000000000e+00,2.380456447601318359e+00,-0.000000000000000000e+00,6.972823292016983032e-03,-0.000000000000000000e+00,-0.000000000000000000e+00,3.221823573112487793e-01,7.502291798591613770e-01,9.472843408584594727e-01,8.747923420742154121e-04,2.129698038101196289e+00,-0.000000000000000000e+00,1.084253311157226562e+00,-0.000000000000000000e+00,3.154159784317016602e+00,2.127697924152016640e-03,2.348816156387329102e+00,1.635970711708068848e+00,7.565348409116268158e-03,-0.000000000000000000e+00,-0.000000000000000000e+00,6.494719855254516006e-06,-0.000000000000000000e+00,1.673075021244585514e-03,-0.000000000000000000e+00,-0.000000000000000000e+00,7.129750847816467285e-01,-0.000000000000000000e+00,8.208772540092468262e-01,2.146652899682521820e-03,-0.000000000000000000e+00,-0.000000000000000000e+00,2.449787855148315430e+00,4.097268730401992798e-02,-0.000000000000000000e+00,1.085235550999641418e-02,1.355757843703031540e-02,1.233933866024017334e-02,-0.000000000000000000e+00,1.543001890182495117e+00,-0.000000000000000000e+00,-0.000000000000000000e+00,-0.000000000000000000e+00,-0.000000000000000000e+00,-0.000000000000000000e+00,8.126572966575622559e-01,-0.000000000000000000e+00,7.255971431732177734e-03,1.614366412162780762e+00,-0.000000000000000000e+00,-0.000000000000000000e+00,7.647176086902618408e-02,2.276790910400450230e-04,6.242366507649421692e-03,-0.000000000000000000e+00,4.722645506262779236e-03,-0.000000000000000000e+00,-0.000000000000000000e+00,-0.000000000000000000e+00,-0.000000000000000000e+00,4.397555589675903320e-01,2.395928837358951569e-03,-0.000000000000000000e+00,-0.000000000000000000e+00,-0.000000000000000000e+00,-0.000000000000000000e+00,-0.000000000000000000e+00,1.115303397178649902e+00,-0.000000000000000000e+00,-0.000000000000000000e+00,5.551512353122234344e-03,5.813579075038433075e-03,6.026749499142169952e-03,4.091173708438873291e-01,-0.000000000000000000e+00,4.185906425118446350e-02,-0.000000000000000000e+00,-0.000000000000000000e+00,1.470387935638427734e+00,-0.000000000000000000e+00,5.082875955849885941e-03,1.740776300430297852e+00,1.369981765747070312e+00,-0.000000000000000000e+00,-0.000000000000000000e+00,1.625870227813720703e+00,-0.000000000000000000e+00,-0.000000000000000000e+00,2.971467562019824982e-02,6.466928124427795410e-01,1.275035669095814228e-03,-0.000000000000000000e+00,3.996369894593954086e-03,2.211371902376413345e-04,4.413223359733819962e-03,6.084763631224632263e-02,3.725488185882568359e-01,-0.000000000000000000e+00,4.360362887382507324e-03,4.128690343350172043e-03,1.899697780609130859e+00,1.447771787643432617e+00,1.924026990309357643e-03,-0.000000000000000000e+00,-0.000000000000000000e+00,-0.000000000000000000e+00,-0.000000000000000000e+00,1.054371953010559082e+00,1.516892388463020325e-02,-0.000000000000000000e+00,-0.000000000000000000e+00,-0.000000000000000000e+00,2.945804735645651817e-03,2.170573711395263672e+00,1.524675488471984863e+00,-0.000000000000000000e+00,3.904938464984297752e-03,1.591629505157470703e+00,-0.000000000000000000e+00,-0.000000000000000000e+00,-0.000000000000000000e+00,4.391150549054145813e-03,4.257334396243095398e-03,6.047765612602233887e-01,1.671818017959594727e+00,-0.000000000000000000e+00,-0.000000000000000000e+00,1.172426462173461914e+00,-0.000000000000000000e+00,-0.000000000000000000e+00,1.327476799488067627e-01,1.967747882008552551e-02,-0.000000000000000000e+00,-0.000000000000000000e+00,-0.000000000000000000e+00,-0.000000000000000000e+00,-0.000000000000000000e+00,1.229851961135864258e+00,1.363940350711345673e-02,6.036456227302551270e-01,1.408432959578931332e-03,-0.000000000000000000e+00,2.840211391448974609e-01,-0.000000000000000000e+00,1.779233336448669434e+00,-0.000000000000000000e+00,-0.000000000000000000e+00,-0.000000000000000000e+00,-0.000000000000000000e+00,-0.000000000000000000e+00,2.597109600901603699e-02,-0.000000000000000000e+00,-0.000000000000000000e+00,1.746603287756443024e-02,4.615572746843099594e-03,8.993417141027748585e-04,1.492735266685485840e+00,6.107019260525703430e-03,4.115964472293853760e-02,1.077103137969970703e+00,6.119420528411865234e-01,3.963209688663482666e-02,-0.000000000000000000e+00,-0.000000000000000000e+00,-0.000000000000000000e+00,4.899749532341957092e-02,1.272722840309143066e+00,3.924548625946044922e-03,9.107399731874465942e-03,-0.000000000000000000e+00,7.502550482749938965e-01,3.588819503784179688e-02,7.443336844444274902e-01,9.219241142272949219e-01,8.813986778259277344e-01,8.315411806106567383e-01,1.049948930740356445e+00,8.116815090179443359e-01,2.273606136441230774e-02,1.637638211250305176e+00,-0.000000000000000000e+00,7.628695964813232422e-01,1.390391469001770020e+00,7.738412022590637207e-01,-0.000000000000000000e+00,-0.000000000000000000e+00,-0.000000000000000000e+00,8.389110565185546875e-01,1.672793645411729813e-03,-0.000000000000000000e+00,8.478285744786262512e-03,1.443823099136352539e+00,-0.000000000000000000e+00,1.592556014657020569e-03,2.540636658668518066e-01,-0.000000000000000000e+00,-0.000000000000000000e+00,2.229268789291381836e+00,-0.000000000000000000e+00,-0.000000000000000000e+00,-0.000000000000000000e+00,4.026708193123340607e-03,-0.000000000000000000e+00,-0.000000000000000000e+00,-0.000000000000000000e+00,1.802713028155267239e-03,-0.000000000000000000e+00,1.207266092300415039e+00,8.876745402812957764e-02,-0.000000000000000000e+00,-0.000000000000000000e+00,4.952491074800491333e-02,-0.000000000000000000e+00,1.414788607507944107e-02,-0.000000000000000000e+00,2.060480229556560516e-02,5.427078157663345337e-02,-0.000000000000000000e+00,-0.000000000000000000e+00,-0.000000000000000000e+00,1.523316279053688049e-02,-0.000000000000000000e+00,5.983562469482421875e-01,1.039443969726562500e+00,8.070239797234535217e-03,1.066796302795410156e+00,9.225009009242057800e-03,-0.000000000000000000e+00,2.414209768176078796e-03,-0.000000000000000000e+00,-0.000000000000000000e+00,1.622480340301990509e-02,6.521302275359630585e-03,-0.000000000000000000e+00,-0.000000000000000000e+00,-0.000000000000000000e+00,-0.000000000000000000e+00,-0.000000000000000000e+00,-0.000000000000000000e+00,8.025730401277542114e-02,-0.000000000000000000e+00,-0.000000000000000000e+00,1.671390533447265625e-01,8.352259756065905094e-04,1.575478352606296539e-02,1.607917435467243195e-02,7.533107399940490723e-01,6.974379066377878189e-03,1.195265650749206543e+00,1.385392807424068451e-02,-0.000000000000000000e+00,-0.000000000000000000e+00,7.584996987134218216e-03,-0.000000000000000000e+00,-0.000000000000000000e+00,7.647577440366148949e-04,-0.000000000000000000e+00,-0.000000000000000000e+00,3.245713422074913979e-03,1.193077862262725830e-02,5.280093755573034286e-04,-0.000000000000000000e+00,-0.000000000000000000e+00,-0.000000000000000000e+00,-0.000000000000000000e+00,2.805228717625141144e-02,-0.000000000000000000e+00,3.806151682510972023e-03,9.899227879941463470e-03,2.928029745817184448e-03,5.692041944712400436e-03,-0.000000000000000000e+00,-0.000000000000000000e+00,4.520163871347904205e-03,-0.000000000000000000e+00,-0.000000000000000000e+00
-0.000000000000000000e+00,-0.000000000000000000e+00,-0.000000000000000000e+00,-0.000000000000000000e+00,-0.000000000000000000e+00,-0.000000000000000000e+00,-0.000000000000000000e+00,-0.000000000000000000e+00,-0.000000000000000000e+00,-0.000000000000000000e+00,3.400035900995135307e-03,-0.000000000000000000e+00,1.034862245433032513e-03,2.510801423341035843e-03,-0.000000000000000000e+00,-0.000000000000000000e+00,-0.000000000000000000e+00,-0.000000000000000000e+00,-0.000000000000000000e+00,-0.000000000000000000e+00,-0.000000000000000000e+00,5.936541710980236530e-04,4.927148111164569855e-03,4.427659325301647186e-03,-0.000000000000000000e+00,9.602431673556566238e-04,6.887006759643554688e-01,-0.000000000000000000e+00,2.344904700294137001e-03,-0.000000000000000000e+00,1.532926224172115326e-03,-0.000000000000000000e+00,-0.000000000000000000e+00,-0.000000000000000000e+00,-0.000000000000000000e+00,-0.000000000000000000e+00,-0.000000000000000000e+00,1.586163997650146484e+00,1.402012109756469727e+00,-0.000000000000000000e+00,1.198103785514831543e+00,1.959693193435668945e+00,3.383045317605137825e-03,-0.000000000000000000e+00,-0.000000000000000000e+00,2.210747217759490013e-03,-0.000000000000000000e+00,-0.000000000000000000e+00,-0.000000000000000000e+00,3.593890927731990814e-03,1.339414622634649277e-03,-0.000000000000000000e+00,-0.000000000000000000e+00,-0.000000000000000000e+00,1.222425047308206558e-02,1.900926697999238968e-03,2.082582795992493629e-03,-0.000000000000000000e+00,-0.000000000000000000e+00,1.096151390811428428e-04,-0.000000000000000000e+00,3.742643864825367928e-03,-0.000000000000000000e+00,5.284239538013935089e-03,-0.000000000000000000e+00,1.323173521086573601e-03,-0.000000000000000000e+00,4.403648972511291504e-01,-0.000000000000000000e+00,-0.000000000000000000e+00,-0.000000000000000000e+00,2.989963442087173462e-02,-0.000000000000000000e+00,-0.000000000000000000e+00,-0.000000000000000000e+00,2.818796783685684204e-03,-0.000000000000000000e+00,-0.000000000000000000e+00,6.633418146520853043e-03,-0.000000000000000000e+00,2.670917892828583717e-03,-0.000000000000000000e+00,-0.000000000000000000e+00,4.017658066004514694e-03,-0.000000000000000000e+00,-0.000000000000000000e+00,2.351120114326477051e-01,9.310894012451171875e-01,-0.000000000000000000e+00,-0.000000000000000000e+00,1.012885212898254395e+00,5.561941862106323242e-02,-0.000000000000000000e+00,-0.000000000000000000e+00,1.536366157233715057e-02,-0.000000000000000000e+00,5.022260360419750214e-03,1.089970588684082031e+00,1.440139412879943848e+00,9.927705861628055573e-03,-0.000000000000000000e+00,2.302493095397949219e+00,4.916306585073471069e-02,-0.000000000000000000e+00,1.458376459777355194e-02,1.389418449252843857e-02,8.829595446586608887e-01,1.415650963783264160e+00,5.494177341461181641e-01,1.263507306575775146e-01,1.741818189620971680e+00,2.101920127868652344e+00,5.675660446286201477e-03,-0.000000000000000000e+00,-0.000000000000000000e+00,-0.000000000000000000e+00,1.012658583931624889e-03,6.530966609716415405e-03,1.535648945719003677e-02,-0.000000000000000000e+00,-0.000000000000000000e+00,2.562521491199731827e-03,-0.000000000000000000e+00,4.254520405083894730e-03,1.188261866569519043e+00,1.535811461508274078e-03,2.619288265705108643e-01,-0.000000000000000000e+00,-0.000000000000000000e+00,-0.000000000000000000e+00,-0.000000000000000000e+00,2.276372537016868591e-02,1.826962456107139587e-03,3.880010545253753662e-01,1.021022070199251175e-02,2.936917357146739960e-03,-0.000000000000000000e+00,3.536996664479374886e-03,-0.000000000000000000e+00,3.557533398270606995e-02,3.373665809631347656e-01,-0.000000000000000000e+00,-0.000000000000000000e+00,-0.000000000000000000e+00,7.863393984735012054e-03,3.900894196704030037e-03,5.798953771591186523e-02,8.017271757125854492e-03,7.762297056615352631e-03,1.707746647298336029e-02,4.800015985965728760e-01,-0.000000000000000000e+00,4.693885520100593567e-02,-0.000000000000000000e+00,3.817886579781770706e-03,2.582008251920342445e-03,-0.000000000000000000e+00,4.542933776974678040e-03,9.775792248547077179e-03,-0.000000000000000000e+00,1.131165307015180588e-02,-0.000000000000000000e+00,3.109212964773178101e-03,7.581516355276107788e-02,1.097093429416418076e-02,-0.000000000000000000e+00,-0.000000000000000000e+00,2.445853780955076218e-03,-0.000000000000000000e+00,-0.000000000000000000e+00,-0.000000000000000000e+00,1.660862803459167480e+00,2.044851303100585938e+00,5.932216644287109375e-01,5.642526745796203613e-01,4.446242004632949829e-03,2.388408593833446503e-02,1.040741335600614548e-02,-0.000000000000000000e+00,2.431088127195835114e-02,-0.000000000000000000e+00,-0.000000000000000000e+00,-0.000000000000000000e+00,1.133473031222820282e-02,7.541180122643709183e-03,-0.000000000000000000e+00,1.675480604171752930e+00,6.816624999046325684e-01,3.908333834260702133e-03,1.454723477363586426e+00,6.606500595808029175e-02,1.827073656022548676e-02,3.174166660755872726e-03,5.304794758558273315e-03,4.423383623361587524e-03,-0.000000000000000000e+00,-0.000000000000000000e+00,3.082274794578552246e-01,-0.000000000000000000e+00,6.640351843088865280e-03,1.947685331106185913e-02,1.789498701691627502e-02,-0.000000000000000000e+00,8.649659343063831329e-03,2.616337733343243599e-03,-0.000000000000000000e+00,1.746910572052001953e+00,4.514356609433889389e-03,-0.000000000000000000e+00,6.809309590607881546e-03,-0.000000000000000000e+00,-0.000000000000000000e+00,-0.000000000000000000e+00,-0.000000000000000000e+00,-0.000000000000000000e+00,2.258074091514572501e-04,-0.000000000000000000e+00,1.378319501876831055e+00,4.857619404792785645e-01,4.757759273052215576e-01,-0.000000000000000000e+00,1.044637896120548248e-02,3.298062384128570557e-01,4.221247434616088867e-01,-0.000000000000000000e+00,6.789479851722717285e-01,-0.000000000000000000e+00,1.656601905822753906e+00,2.396150827407836914e-01,4.852264523506164551e-01,-0.000000000000000000e+00,4.508892595767974854e-01,9.903441369533538818e-02,5.449796915054321289e-01,4.622260748874396086e-04,2.167145013809204102e-01,-0.000000000000000000e+00,2.701282203197479248e-01,5.079612508416175842e-02,2.656791806221008301e-01,4.767897725105285645e-01,1.246382892131805420e-01,4.945504963397979736e-01,-0.000000000000000000e+00,7.483938336372375488e-02,6.003241613507270813e-02,-0.000000000000000000e+00,6.933105178177356720e-03,9.547793865203857422e-01,2.009744197130203247e-01,-0.000000000000000000e+00,9.006128646433353424e-03,2.017784304916858673e-02,-0.000000000000000000e+00,8.850011043250560760e-03,9.046063758432865143e-03,4.709812346845865250e-03,-0.000000000000000000e+00,-0.000000000000000000e+00,1.493879873305559158e-02,2.405719365924596786e-03,1.981818489730358124e-02,7.582593243569135666e-03,-0.000000000000000000e+00,-0.000000000000000000e+00,-0.000000000000000000e+00,-0.000000000000000000e+00,8.765438105911016464e-04,2.198197878897190094e-03,-0.000000000000000000e+00,7.549779023975133896e-03,3.657322842627763748e-03,2.758560143411159515e-02,-0.000000000000000000e+00,-0.000000000000000000e+00,-0.000000000000000000e+00,-0.000000000000000000e+00,1.717208139598369598e-02,-0.000000000000000000e+00,1.916590571403503418e+00,4.907926172018051147e-02,-0.000000000000000000e+00,-0.000000000000000000e+00,3.765397006645798683e-03,1.301442971453070641e-03,1.542464364320039749e-03,1.925843581557273865e-02,-0.000000000000000000e+00,-0.000000000000000000e+00,-0.000000000000000000e+00,1.786337137222290039e+00,2.362285740673542023e-02,1.446224212646484375e+00,3.136554267257452011e-03,1.538235992193222046e-01,-0.000000000000000000e+00,-0.000000000000000000e+00,-0.000000000000000000e+00,1.315376348793506622e-02,5.029144813306629658e-04,1.405284274369478226e-03,-0.000000000000000000e+00,-0.000000000000000000e+00,-0.000000000000000000e+00,-0.000000000000000000e+00,-0.000000000000000000e+00,-0.000000000000000000e+00,-0.000000000000000000e+00,2.864627866074442863e-03,-0.000000000000000000e+00,1.668794266879558563e-02,-0.000000000000000000e+00,-0.000000000000000000e+00,-0.000000000000000000e+00,3.541278652846813202e-03,-0.000000000000000000e+00,2.679451368749141693e-02,3.545923624187707901e-03,-0.000000000000000000e+00,4.601175896823406219e-03,-0.000000000000000000e+00,2.580312453210353851e-02,1.441969443112611771e-02,4.404693841934204102e-03,-0.000000000000000000e+00,2.435935428366065025e-03,-0.000000000000000000e+00,-0.000000000000000000e+00,-0.000000000000000000e+00,-0.000000000000000000e+00,-0.000000000000000000e+00,-0.000000000000000000e+00,1.133161783218383789e+00,-0.000000000000000000e+00,-0.000000000000000000e+00,-0.000000000000000000e+00,-0.000000000000000000e+00,1.646833959966897964e-03,3.790596732869744301e-03,-0.000000000000000000e+00,-0.000000000000000000e+00,4.391856957226991653e-03,-0.000000000000000000e+00,4.678723216056823730e-01,1.135846972465515137e+00,-0.000000000000000000e+00,3.721208777278661728e-03,-0.000000000000000000e+00,3.144422546029090881e-03,-0.000000000000000000e+00,-0.000000000000000000e+00,1.013620523735880852e-03,9.902461431920528412e-03,2.392700687050819397e-02,-0.000000000000000000e+00,-0.000000000000000000e+00,-0.000000000000000000e+00,-0.000000000000000000e+00,1.909011602401733398e-02,2.560330089181661606e-03,-0.000000000000000000e+00,-0.000000000000000000e+00,-0.000000000000000000e+00,-0.000000000000000000e+00,5.407080519944429398e-03,1.924583921208977699e-05,8.745523691177368164e-01,-0.000000000000000000e+00,1.175475679337978363e-02
-0.000000000000000000e+00,1.845354679971933365e-03,3.668834641575813293e-02,5.990252271294593811e-02,-0.000000000000000000e+00,-0.000000000000000000e+00,-0.000000000000000000e+00,1.798335433704778552e-04,-0.000000000000000000e+00,7.231166819110512733e-04,-0.000000000000000000e+00,5.733388066291809082e-01,5.709914490580558777e-03,-0.000000000000000000e+00,4.619003832340240479e-01,-0.000000000000000000e+00,5.987040400505065918e-01,-0.000000000000000000e+00,-0.000000000000000000e+00,-0.000000000000000000e+00,1.236381474882364273e-02,-0.000000000000000000e+00,-0.000000000000000000e+00,-0.000000000000000000e+00,-0.000000000000000000e+00,-0.000000000000000000e+00,4.167770743370056152e-01,4.097664654254913330e-01,-0.000000000000000000e+00,-0.000000000000000000e+00,1.585758640430867672e-03,-0.000000000000000000e+00,6.592296995222568512e-03,3.332378808408975601e-03,-0.000000000000000000e+00,-0.000000000000000000e+00,2.400026470422744751e-02,3.732251701876521111e-03,4.198572714813053608e-04,1.854090765118598938e-02,4.052781034260988235e-03,1.122109591960906982e-03,-0.000000000000000000e+00,3.234810894355177879e-03,1.862187981605529785e-01,2.299231477081775665e-03,1.628389209508895874e-02,3.501078113913536072e-03,7.970236474648118019e-04,6.869823671877384186e-03,6.814179476350545883e-03,1.839336357079446316e-03,-0.000000000000000000e+00,-0.000000000000000000e+00,4.569576121866703033e-03,1.355112716555595398e-02,2.019790410995483398e-01,-0.000000000000000000e+00,4.177090246230363846e-03,1.159542589448392391e-03,-0.000000000000000000e+00,1.714216172695159912e-02,-0.000000000000000000e+00,7.657972164452075958e-04,-0.000000000000000000e+00,-0.000000000000000000e+00,-0.000000000000000000e+00,-0.000000000000000000e+00,-0.000000000000000000e+00,4.610666539520025253e-03,1.028061960823833942e-04,9.257148019969463348e-03,4.259165748953819275e-02,4.724666941910982132e-03,2.947025699540972710e-03,-0.000000000000000000e+00,1.944887451827526093e-03,4.103168845176696777e-03,4.039567895233631134e-03,-0.000000000000000000e+00,-0.000000000000000000e+00,-0.000000000000000000e+00,-0.000000000000000000e+00,4.505222314037382603e-04,4.586906172335147858e-03,2.019654214382171631e-02,2.252551913261413574e-02,1.133636105805635452e-02,7.747270501567982137e-06,1.940285437740385532e-05,-0.000000000000000000e+00,4.609513562172651291e-03,-0.000000000000000000e+00,2.270009135827422142e-03,-0.000000000000000000e+00,-0.000000000000000000e+00,-0.000000000000000000e+00,3.076884197071194649e-03,8.754746913909912109e-01,9.369209408760070801e-01,7.541276514530181885e-03,-0.000000000000000000e+00,1.365629076957702637e+00,2.284821420907974243e-01,1.289032250642776489e-01,5.257158875465393066e-01,5.901806354522705078e-01,1.092533826828002930e+00,7.930919528007507324e-01,2.047264337539672852e+00,1.940708637237548828e+00,2.401251549599692225e-04,-0.000000000000000000e+00,-0.000000000000000000e+00,2.897883998230099678e-03,-0.000000000000000000e+00,7.408856414258480072e-03,1.849731206893920898e-01,-0.000000000000000000e+00,1.990270800888538361e-03,-0.000000000000000000e+00,4.781717900186777115e-03,-0.000000000000000000e+00,4.482226911932229996e-03,-0.000000000000000000e+00,4.074247088283300400e-03,1.758974161930382252e-03,-0.000000000000000000e+00,-0.000000000000000000e+00,4.590736329555511475e-02,5.468760132789611816e-01,-0.000000000000000000e+00,-0.000000000000000000e+00,-0.000000000000000000e+00,1.184006873518228531e-02,-0.000000000000000000e+00,7.030646204948425293e-01,1.307393431663513184e+00,1.031823270022869110e-02,1.492548827081918716e-02,-0.000000000000000000e+00,-0.000000000000000000e+00,1.876608654856681824e-02,1.050265073776245117e+00,-0.000000000000000000e+00,1.822283118963241577e-02,5.680395290255546570e-03,-0.000000000000000000e+00,5.402327179908752441e-01,4.595080390572547913e-03,1.164728999137878418e+00,-0.000000000000000000e+00,-0.000000000000000000e+00,-0.000000000000000000e+00,-0.000000000000000000e+00,1.055446802638471127e-03,-0.000000000000000000e+00,-0.000000000000000000e+00,-0.000000000000000000e+00,-0.000000000000000000e+00,-0.000000000000000000e+00,3.869158215820789337e-03,9.126403019763529301e-04,-0.000000000000000000e+00,1.221532374620437622e-02,-0.000000000000000000e+00,-0.000000000000000000e+00,-0.000000000000000000e+00,-0.000000000000000000e+00,-0.000000000000000000e+00,-0.000000000000000000e+00,1.337881665676832199e-02,1.429929398000240326e-02,-0.000000000000000000e+00,-0.000000000000000000e+00,1.189193487167358398e+00,8.893843293190002441e-01,-0.000000000000000000e+00,-0.000000000000000000e+00,-0.000000000000000000e+00,-0.000000000000000000e+00,-0.000000000000000000e+00,-0.000000000000000000e+00,3.488035500049591064e-01,2.073092386126518250e-02,2.603289365768432617e+00,1.334468647837638855e-02,2.305872552096843719e-02,-0.000000000000000000e+00,-0.000000000000000000e+00,-0.000000000000000000e+00,4.399185534566640854e-03,-0.000000000000000000e+00,2.630646467208862305e+00,1.169850349426269531e+00,-0.000000000000000000e+00,-0.000000000000000000e+00,-0.000000000000000000e+00,-0.000000000000000000e+00,2.430459022521972656e+00,-0.000000000000000000e+00,9.166373871266841888e-03,2.821477502584457397e-02,-0.000000000000000000e+00,3.303822875022888184e-02,6.910796277225017548e-03,-0.000000000000000000e+00,9.692093357443809509e-03,-0.000000000000000000e+00,1.144620310515165329e-02,6.732238456606864929e-03,5.030656605958938599e-02,2.891847863793373108e-03,-0.000000000000000000e+00,1.220425009727478027e+00,-0.000000000000000000e+00,2.200958086177706718e-03,2.352981090545654297e+00,1.430840849876403809e+00,4.981133043766021729e-01,2.502354327589273453e-03,9.067226201295852661e-03,-0.000000000000000000e+00,1.197181701660156250e+00,1.060286723077297211e-02,1.213598489761352539e+00,-0.000000000000000000e+00,2.052471399307250977e+00,4.091445803642272949e-01,1.497104018926620483e-02,-0.000000000000000000e+00,1.275592148303985596e-01,1.319205760955810547e+00,3.522946499288082123e-03,5.769732967019081116e-02,1.542246580123901367e+00,4.261892139911651611e-01,9.475071430206298828e-01,6.062274769647046924e-05,1.457854270935058594e+00,1.397496182471513748e-02,1.999096246436238289e-03,-0.000000000000000000e+00,2.459493698552250862e-03,2.054567821323871613e-02,3.437663661316037178e-03,-0.000000000000000000e+00,4.779537994181737304e-05,2.793598687276244164e-03,-0.000000000000000000e+00,-0.000000000000000000e+00,2.779776453971862793e-01,1.708556083030998707e-03,-0.000000000000000000e+00,1.185743953101336956e-03,5.216197371482849121e-01,4.958820994943380356e-03,-0.000000000000000000e+00,1.263083796948194504e-02,2.996761584654450417e-03,1.543084945296868682e-04,-0.000000000000000000e+00,2.186246914789080620e-03,2.827116753906011581e-03,8.658643346279859543e-04,1.974210701882839203e-02,7.918674964457750320e-04,2.308323979377746582e-02,1.386277843266725540e-02,3.065530769526958466e-02,8.611906319856643677e-03,3.550012130290269852e-03,3.103050170466303825e-03,-0.000000000000000000e+00,7.805627537891268730e-04,2.767665428109467030e-04,1.766224508173763752e-03,-0.000000000000000000e+00,-0.000000000000000000e+00,-0.000000000000000000e+00,-0.000000000000000000e+00,-0.000000000000000000e+00,4.756433367729187012e-01,2.575244434410706162e-05,-0.000000000000000000e+00,3.865521633997559547e-03,5.251612747088074684e-04,7.705060765147209167e-03,8.897528052330017090e-02,6.436140276491641998e-03,1.948598980903625488e+00,3.255547955632209778e-03,1.648029386997222900e-01,-0.000000000000000000e+00,7.704376708716154099e-03,-0.000000000000000000e+00,-0.000000000000000000e+00,7.788069844245910645e-01,-0.000000000000000000e+00,7.657392416149377823e-04,2.400695579126477242e-03,-0.000000000000000000e+00,-0.000000000000000000e+00,2.932425960898399353e-02,2.114541269838809967e-02,-0.000000000000000000e+00,-0.000000000000000000e+00,4.864653572440147400e-03,-0.000000000000000000e+00,3.226681612432003021e-03,3.452459815889596939e-03,-0.000000000000000000e+00,4.068934321403503418e-01,-0.000000000000000000e+00,-0.000000000000000000e+00,-0.000000000000000000e+00,-0.000000000000000000e+00,3.596685593947768211e-03,1.049928017891943455e-03,5.037127528339624405e-03,-0.000000000000000000e+00,-0.000000000000000000e+00,3.688374534249305725e-03,-0.000000000000000000e+00,1.215277356095612049e-03,-0.000000000000000000e+00,-0.000000000000000000e+00,-0.000000000000000000e+00,-0.000000000000000000e+00,1.996999839320778847e-03,4.457550644874572754e-01,-0.000000000000000000e+00,1.907183439470827579e-03,-0.000000000000000000e+00,2.085565626621246338e-01,-0.000000000000000000e+00,9.606078965589404106e-04,-0.000000000000000000e+00,-0.000000000000000000e+00,-0.000000000000000000e+00,-0.000000000000000000e+00,-0.000000000000000000e+00,5.323082953691482544e-02,9.045354723930358887e-01,9.818199276924133301e-01,-0.000000000000000000e+00,-0.000000000000000000e+00,-0.000000000000000000e+00,1.807109266519546509e-01,-0.000000000000000000e+00,-0.000000000000000000e+00,-0.000000000000000000e+00,-0.000000000000000000e+00,-0.000000000000000000e+00,-0.000000000000000000e+00,-0.000000000000000000e+00,5.732726771384477615e-03,-0.000000000000000000e+00,-0.000000000000000000e+00,-0.000000000000000000e+00,1.734697609208524227e-03,5.095768719911575317e-03,4.185906145721673965e-03,-0.000000000000000000e+00,-0.000000000000000000e+00,-0.000000000000000000e+00,1.576300710439682007e-04,-0.000000000000000000e+00,3.660981543362140656e-03
1.316012535244226456e-02,-0.000000000000000000e+00,2.371877897530794144e-03,1.289324369281530380e-02,1.328276266576722264e-04,4.875053127761930227e-04,-0.000000000000000000e+00,-0.000000000000000000e+00,8.634047508239746094e-01,9.282739758491516113e-01,-0.000000000000000000e+00,1.229686080478131771e-03,-0.000000000000000000e+00,-0.000000000000000000e+00,-0.000000000000000000e+00,2.293917164206504822e-02,-0.000000000000000000e+00,-0.000000000000000000e+00,3.197603626176714897e-03,4.390165209770202637e-01,-0.000000000000000000e+00,1.308264210820198059e-03,1.566648250445723534e-03,9.807799942791461945e-03,7.786215748637914658e-03,8.403303027153015137e-01,2.428112030029296875e+00,-0.000000000000000000e+00,7.991917431354522705e-02,6.374079585075378418e-01,1.148573398590087891e+00,-0.000000000000000000e+00,6.080797873437404633e-03,1.842094957828521729e-02,7.832856774330139160e-01,2.755883615463972092e-03,-0.000000000000000000e+00,-0.000000000000000000e+00,1.866039936430752277e-03,3.625699086114764214e-03,-0.000000000000000000e+00,-0.000000000000000000e+00,1.269996864721179008e-03,4.568910226225852966e-03,-0.000000000000000000e+00,7.924584746360778809e-01,-0.000000000000000000e+00,4.185383915901184082e-01,1.950961654074490070e-03,1.001456403173506260e-03,4.681973755359649658e-01,4.810187220573425293e-01,1.256627403199672699e-02,3.113054037094116211e-01,-0.000000000000000000e+00,-0.000000000000000000e+00,-0.000000000000000000e+00,-0.000000000000000000e+00,5.794215947389602661e-03,1.553048263303935528e-03,3.248925087973475456e-03,-0.000000000000000000e+00,8.491190150380134583e-03,2.115340670570731163e-03,4.210411105304956436e-03,2.533284202218055725e-02,5.709668993949890137e-01,-0.000000000000000000e+00,5.219555497169494629e-01,-0.000000000000000000e+00,5.160182118415832520e-01,3.251531347632408142e-02,8.840613067150115967e-03,-0.000000000000000000e+00,-0.000000000000000000e+00,-0.000000000000000000e+00,-0.000000000000000000e+00,3.636644920334219933e-03,7.548185531049966812e-03,3.283287631347775459e-03,-0.000000000000000000e+00,1.472751498222351074e+00,2.914325594902038574e-01,3.027367591857910156e-01,5.563687533140182495e-03,2.097678743302822113e-02,1.086790800094604492e+00,3.703053109347820282e-03,6.033103447407484055e-03,-0.000000000000000000e+00,2.016362547874450684e-02,5.480419378727674484e-03,-0.000000000000000000e+00,-0.000000000000000000e+00,6.208811402320861816e-01,-0.000000000000000000e+00,6.501951254904270172e-03,1.046713534742593765e-02,-0.000000000000000000e+00,2.733729600906372070e+00,8.056440353393554688e-01,1.122236609458923340e+00,1.086967345327138901e-02,4.529100358486175537e-01,1.078008487820625305e-02,2.449754476547241211e-01,-0.000000000000000000e+00,6.327217817306518555e-01,-0.000000000000000000e+00,1.301601409912109375e+00,2.093997783958911896e-03,1.720106345601379871e-03,1.216045260429382324e+00,6.309066414833068848e-01,2.837912645190954208e-03,-0.000000000000000000e+00,1.119140863418579102e+00,-0.000000000000000000e+00,1.118406653404235840e+00,1.301525592803955078e+00,-0.000000000000000000e+00,-0.000000000000000000e+00,2.522278204560279846e-02,6.677055498585104942e-04,-0.000000000000000000e+00,8.971757255494594574e-03,2.061325073242187500e+00,-0.000000000000000000e+00,1.166072115302085876e-02,2.576572820544242859e-03,1.683451607823371887e-02,-0.000000000000000000e+00,3.378778463229537010e-03,-0.000000000000000000e+00,4.638402722775936127e-03,-0.000000000000000000e+00,-0.000000000000000000e+00,-0.000000000000000000e+00,1.475269626826047897e-02,1.057737588882446289e+00,2.497021853923797607e-02,7.296643685549497604e-03,-0.000000000000000000e+00,2.776313107460737228e-03,5.664767622947692871e-01,-0.000000000000000000e+00,6.877211853861808777e-03,-0.000000000000000000e+00,4.040004219859838486e-03,3.441205322742462158e-01,-0.000000000000000000e+00,-0.000000000000000000e+00,-0.000000000000000000e+00,4.997048079967498779e-01,3.720471635460853577e-02,-0.000000000000000000e+00,-0.000000000000000000e+00,-0.000000000000000000e+00,-0.000000000000000000e+00,-0.000000000000000000e+00,1.586437784135341644e-02,-0.000000000000000000e+00,-0.000000000000000000e+00,5.262531340122222900e-03,9.906073682941496372e-05,1.627012372016906738e+00,-0.000000000000000000e+00,4.947646986693143845e-03,1.507801175117492676e+00,-0.000000000000000000e+00,-0.000000000000000000e+00,2.902281703427433968e-03,-0.000000000000000000e+00,2.038440201431512833e-03,1.417725920677185059e+00,2.695504343137145042e-03,-0.000000000000000000e+00,1.689020633697509766e+00,-0.000000000000000000e+00,-0.000000000000000000e+00,9.061310440301895142e-03,-0.000000000000000000e+00,5.789917707443237305e-01,2.966138534247875214e-03,1.396950721740722656e+00,-0.000000000000000000e+00,-0.000000000000000000e+00,1.006772756576538086e+00,8.721005320549011230e-01,-0.000000000000000000e+00,4.184551835060119629e-01,1.112189888954162598e+00,8.023311495780944824e-01,2.187803983688354492e+00,6.230761408805847168e-01,4.634597301483154297e-01,9.987208060920238495e-03,1.563391531817615032e-03,-0.000000000000000000e+00,3.358163405209779739e-03,1.161239862442016602e+00,5.596185103058815002e-03,4.195977933704853058e-03,-0.000000000000000000e+00,3.780227620154619217e-03,1.848430722020566463e-03,2.786794793792068958e-04,1.252766609191894531e+00,9.429927468299865723e-01,5.489217117428779602e-03,2.110254287719726562e+00,-0.000000000000000000e+00,-0.000000000000000000e+00,-0.000000000000000000e+00,-0.000000000000000000e+00,2.194211818277835846e-02,1.348149418830871582e+00,4.454478621482849121e-03,-0.000000000000000000e+00,-0.000000000000000000e+00,1.329710939899086952e-03,-0.000000000000000000e+00,2.150741405785083771e-03,1.957108639180660248e-02,1.356549002230167389e-02,-0.000000000000000000e+00,1.770626068115234375e+00,-0.000000000000000000e+00,-0.000000000000000000e+00,-0.000000000000000000e+00,1.250262379646301270e+00,3.225098550319671631e-02,1.730242848396301270e+00,9.137576445937156677e-03,-0.000000000000000000e+00,-0.000000000000000000e+00,-0.000000000000000000e+00,-0.000000000000000000e+00,6.073002703487873077e-03,1.173555967397987843e-03,2.363128900527954102e+00,-0.000000000000000000e+00,1.444752454757690430e+00,6.556696295738220215e-01,1.325108669698238373e-02,1.756271958351135254e+00,-0.000000000000000000e+00,2.322571538388729095e-02,-0.000000000000000000e+00,1.331900596618652344e+00,8.177555166184902191e-03,2.685193538665771484e+00,5.256315469741821289e-01,1.504326343536376953e+00,-0.000000000000000000e+00,-0.000000000000000000e+00,9.181507863104343414e-03,-0.000000000000000000e+00,2.629494905471801758e+00,3.275204682722687721e-03,5.280965939164161682e-03,1.675592899322509766e+00,1.901865750551223755e-01,9.788849353790283203e-01,2.269088290631771088e-02,1.251495838165283203e+00,6.402125209569931030e-02,9.775018692016601562e-01,3.118372857570648193e-01,1.541314482688903809e+00,5.745975375175476074e-01,1.180767536163330078e+00,1.444383144378662109e+00,-0.000000000000000000e+00,1.462536692619323730e+00,6.659075021743774414e-01,1.316920280456542969e+00,1.137455463409423828e+00,-0.000000000000000000e+00,-0.000000000000000000e+00,1.052419900894165039e+00,8.624519705772399902e-01,-0.000000000000000000e+00,-0.000000000000000000e+00,-0.000000000000000000e+00,1.554338261485099792e-03,1.231753383763134480e-03,5.781913176178932190e-02,-0.000000000000000000e+00,-0.000000000000000000e+00,8.837564848363399506e-03,2.436060225591063499e-03,-0.000000000000000000e+00,-0.000000000000000000e+00,6.375809898599982262e-04,-0.000000000000000000e+00,-0.000000000000000000e+00,3.011700697243213654e-03,-0.000000000000000000e+00,6.137975025922060013e-03,1.081781983375549316e+00,1.674251914024353027e+00,4.377849400043487549e-03,-0.000000000000000000e+00,2.474050782620906830e-02,4.245907533913850784e-03,4.015686735510826111e-02,-0.000000000000000000e+00,1.478161197155714035e-02,6.695631146430969238e-02,7.992688566446304321e-03,-0.000000000000000000e+00,-0.000000000000000000e+00,2.384697198867797852e-01,-0.000000000000000000e+00,-0.000000000000000000e+00,1.814619079232215881e-02,2.953290473669767380e-03,1.538170687854290009e-02,1.215014219284057617e+00,-0.000000000000000000e+00,1.641797251068055630e-03,-0.000000000000000000e+00,4.308806955814361572e-01,6.290391553193330765e-03,-0.000000000000000000e+00,-0.000000000000000000e+00,1.010576845146715641e-03,-0.000000000000000000e+00,-0.000000000000000000e+00,-0.000000000000000000e+00,-0.000000000000000000e+00,2.837353706359863281e+00,9.216571450233459473e-01,-0.000000000000000000e+00,2.019060030579566956e-02,2.693064045161008835e-03,1.032606977969408035e-02,-0.000000000000000000e+00,2.890427131205797195e-03,3.510378068313002586e-03,4.592479672282934189e-03,1.716144941747188568e-02,-0.000000000000000000e+00,-0.000000000000000000e+00,5.623682518489658833e-04,1.509897038340568542e-02,1.332523301243782043e-03,8.490826003253459930e-03,-0.000000000000000000e+00,-0.000000000000000000e+00,1.943457126617431641e-02,1.660935759544372559e+00,2.320870291441679001e-03,-0.000000000000000000e+00,-0.000000000000000000e+00,-0.000000000000000000e+00,-0.000000000000000000e+00,9.293032884597778320e-01,1.429841358913108706e-04,4.099952057003974915e-03,2.859189212322235107e-01,2.656490541994571686e-03,2.663201093673706055e+00,-0.000000000000000000e+00,-0.000000000000000000e+00,4.500566516071557999e-03,3.609040286391973495e-04,3.348279744386672974e-03
