1.199443638324737549e-02,-0.000000000000000000e+00,4.492196440696716309e-02,-0.000000000000000000e+00,-0.000000000000000000e+00,-0.000000000000000000e+00,2.845782972872257233e-02,2.924247644841670990e-03,-0.000000000000000000e+00,7.837764173746109009e-02,3.549523185938596725e-03,5.871044471859931946e-03,5.272525013424456120e-04,1.437051780521869659e-02,2.193740569055080414e-02,8.556553162634372711e-03,6.744071841239929199e-01,3.685488831251859665e-03,8.516853675246238708e-03,6.434877868741750717e-03,1.774822026491165161e-01,1.808703690767288208e-01,1.116560492664575577e-02,-0.000000000000000000e+00,3.676418913528323174e-03,-0.000000000000000000e+00,1.719915866851806641e-02,5.011306405067443848e-01,4.418935161083936691e-03,2.696446608752012253e-03,-0.000000000000000000e+00,1.166932098567485809e-02,-0.000000000000000000e+00,4.515021108090877533e-03,2.271426608785986900e-03,-0.000000000000000000e+00,-0.000000000000000000e+00,3.948199376463890076e-02,1.466672681272029877e-02,-0.000000000000000000e+00,1.921504735946655273e-03,1.635894551873207092e-02,-0.000000000000000000e+00,2.186428522691130638e-03,2.833289839327335358e-02,-0.000000000000000000e+00,1.130688469856977463e-03,1.129458285868167877e-02,-0.000000000000000000e+00,4.399867728352546692e-03,1.615512650460004807e-03,8.780753239989280701e-03,-0.000000000000000000e+00,-0.000000000000000000e+00,4.692932125180959702e-03,-0.000000000000000000e+00,8.296072483062744141e-03,1.358790416270494461e-02,-0.000000000000000000e+00,6.631645374000072479e-03,-0.000000000000000000e+00,3.605711087584495544e-02,2.288700342178344727e-01,1.819574041292071342e-03,2.860977314412593842e-03,8.342520333826541901e-03,-0.000000000000000000e+00,2.956965938210487366e-03,1.260191015899181366e-02,9.591893292963504791e-03,5.539025180041790009e-03,-0.000000000000000000e+00,8.121699690818786621e-01,7.232953608036041260e-02,1.153273694217205048e-02,6.291490979492664337e-03,-0.000000000000000000e+00,4.967903252691030502e-03,7.432325743138790131e-03,-0.000000000000000000e+00,-0.000000000000000000e+00,2.868799865245819092e-02,9.638172574341297150e-03,1.850355416536331177e-02,1.474821288138628006e-02,-0.000000000000000000e+00,8.863756665959954262e-04,2.625276148319244385e-02,2.606558613479137421e-03,9.167978540062904358e-03,1.804936490952968597e-02,-0.000000000000000000e+00,3.769078524783253670e-03,3.401804482564330101e-03,4.723028396256268024e-04,-0.000000000000000000e+00,-0.000000000000000000e+00,2.571913786232471466e-02,4.265656694769859314e-03,3.350045084953308105e-01,2.083610161207616329e-04,1.475451281294226646e-03,1.304352656006813049e-02,-0.000000000000000000e+00,4.348934628069400787e-03,6.360006984323263168e-03,9.255418181419372559e-01,3.207255387678742409e-03,-0.000000000000000000e+00,7.472064346075057983e-03,-0.000000000000000000e+00,7.934299297630786896e-03,8.801577496342360973e-04,-0.000000000000000000e+00,-0.000000000000000000e+00,-0.000000000000000000e+00,3.635424189269542694e-03,1.195335295051336288e-02,5.298918113112449646e-04,-0.000000000000000000e+00,-0.000000000000000000e+00,3.635718952864408493e-03,-0.000000000000000000e+00,4.148493986576795578e-03,7.998145185410976410e-03,4.121545236557722092e-03,2.001876980066299438e-01,-0.000000000000000000e+00,-0.000000000000000000e+00,2.124532358720898628e-03,6.650339961051940918e-01,1.461961801396682858e-04,-0.000000000000000000e+00,-0.000000000000000000e+00,1.809242926537990570e-02,-0.000000000000000000e+00,3.534583607688546181e-03,1.496241241693496704e-01,2.386151347309350967e-03,-0.000000000000000000e+00,-0.000000000000000000e+00,-0.000000000000000000e+00,-0.000000000000000000e+00,5.806295201182365417e-03,4.140843171626329422e-03,2.621831139549612999e-03,3.986054062843322754e-01,-0.000000000000000000e+00,-0.000000000000000000e+00,1.176271704025566578e-03,6.833144426345825195e-01,3.978026506956666708e-04,-0.000000000000000000e+00,7.469314150512218475e-04,-0.000000000000000000e+00,-0.000000000000000000e+00,-0.000000000000000000e+00,-0.000000000000000000e+00,-0.000000000000000000e+00,-0.000000000000000000e+00,-0.000000000000000000e+00,-0.000000000000000000e+00,5.981266498565673828e-02,2.567456066608428955e-01,-0.000000000000000000e+00,-0.000000000000000000e+00,9.650997526478022337e-05,4.554660990834236145e-03,-0.000000000000000000e+00,-0.000000000000000000e+00,-0.000000000000000000e+00,1.093744300305843353e-02,2.525193616747856140e-03,-0.000000000000000000e+00,1.999238040298223495e-03,-0.000000000000000000e+00,3.825533017516136169e-02,-0.000000000000000000e+00,-0.000000000000000000e+00,-0.000000000000000000e+00,-0.000000000000000000e+00,-0.000000000000000000e+00,2.344779204577207565e-06,-0.000000000000000000e+00,3.555625211447477341e-03,-0.000000000000000000e+00,1.639237105846405029e-01,-0.000000000000000000e+00,1.356018800288438797e-02,2.563338726758956909e-03,4.464351106435060501e-03,6.416953634470701218e-03,-0.000000000000000000e+00,-0.000000000000000000e+00,2.607972025871276855e-01,-0.000000000000000000e+00,-0.000000000000000000e+00,2.883481327444314957e-03,-0.000000000000000000e+00,-0.000000000000000000e+00,3.727776929736137390e-03,-0.000000000000000000e+00,-0.000000000000000000e+00,-0.000000000000000000e+00,3.330352157354354858e-02,1.361923515796661377e-01,-0.000000000000000000e+00,1.999340578913688660e-02,1.472640084102749825e-03,3.549465443938970566e-03,-0.000000000000000000e+00,3.374968767166137695e-01,6.300859618932008743e-03,-0.000000000000000000e+00,1.507897512055933475e-03,-0.000000000000000000e+00,-0.000000000000000000e+00,9.607513435184955597e-03,4.933716356754302979e-01,2.283425070345401764e-03,4.889803472906351089e-03,8.113698568195104599e-04,2.002650173380970955e-03,-0.000000000000000000e+00,2.771806670352816582e-03,5.356241017580032349e-03,-0.000000000000000000e+00,-0.000000000000000000e+00,2.819154039025306702e-02,4.184014396741986275e-04,-0.000000000000000000e+00,1.284439698792994022e-03,8.593708276748657227e-01,3.445785343647003174e-01,4.921332374215126038e-02,1.135692000389099121e-02,6.174573898315429688e-01,2.195457965135574341e-01,-0.000000000000000000e+00,2.889328170567750931e-03,-0.000000000000000000e+00,2.522708615288138390e-03,-0.000000000000000000e+00,3.163203597068786621e-03,-0.000000000000000000e+00,-0.000000000000000000e+00,5.746042588725686073e-04,6.971930153667926788e-03,-0.000000000000000000e+00,-0.000000000000000000e+00,6.787704303860664368e-03,3.646969562396407127e-04,-0.000000000000000000e+00,2.226038277149200439e-02,3.852023277431726456e-03,1.121826656162738800e-02,-0.000000000000000000e+00,3.469622693955898285e-03,1.881568809039890766e-03,2.270531281828880310e-02,-0.000000000000000000e+00,-0.000000000000000000e+00,2.211894392967224121e-01,2.954793861135840416e-03,5.174854397773742676e-01,1.070555951446294785e-02,4.493095874786376953e-01,6.711343303322792053e-03,4.879154860973358154e-01,2.294521331787109375e-01,3.115357831120491028e-04,8.840442751534283161e-04,-0.000000000000000000e+00,4.599784035235643387e-03,-0.000000000000000000e+00,-0.000000000000000000e+00,5.107949487864971161e-03,-0.000000000000000000e+00,2.681610640138387680e-03,-0.000000000000000000e+00,7.184571586549282074e-03,-0.000000000000000000e+00,1.560818962752819061e-02,-0.000000000000000000e+00,2.564930357038974762e-03,-0.000000000000000000e+00,9.979038834571838379e-01,5.487812217324972153e-03,6.824294924736022949e-01,5.039914045482873917e-03,2.993388175964355469e-01,-0.000000000000000000e+00,3.663022220134735107e-01,2.105804160237312317e-02,4.900209605693817139e-03,6.437305808067321777e-01,-0.000000000000000000e+00,1.491287201642990112e-01,-0.000000000000000000e+00,-0.000000000000000000e+00,4.342019092291593552e-03,-0.000000000000000000e+00,3.603147051762789488e-04,1.856342405080795288e-01,1.830398477613925934e-02,6.297615356743335724e-03,-0.000000000000000000e+00,3.682463243603706360e-02,-0.000000000000000000e+00,-0.000000000000000000e+00,-0.000000000000000000e+00,-0.000000000000000000e+00,2.819665148854255676e-02,8.837556466460227966e-03,-0.000000000000000000e+00,-0.000000000000000000e+00,-0.000000000000000000e+00,2.966398186981678009e-02,-0.000000000000000000e+00,-0.000000000000000000e+00,-0.000000000000000000e+00,-0.000000000000000000e+00,1.106726936995983124e-02,-0.000000000000000000e+00,1.067948760464787483e-03,6.900753360241651535e-03,6.437912583351135254e-01,-0.000000000000000000e+00,-0.000000000000000000e+00,3.256379626691341400e-03,1.310360312461853027e+00,-0.000000000000000000e+00,1.487066037952899933e-05,-0.000000000000000000e+00,2.639193087816238403e-02,-0.000000000000000000e+00,8.868773584254086018e-04,1.932407147251069546e-03,1.066109910607337952e-02,8.431129972450435162e-04,-0.000000000000000000e+00,2.268298994749784470e-03,3.606913611292839050e-02,7.663657069206237793e-01,2.598322927951812744e-03,3.700544591993093491e-03,-0.000000000000000000e+00,2.000688808038830757e-03,3.872006535530090332e-01,1.290603633970022202e-02,-0.000000000000000000e+00,-0.000000000000000000e+00,1.601871848106384277e-02,-0.000000000000000000e+00,-0.000000000000000000e+00,-0.000000000000000000e+00,6.304042339324951172e-01,-0.000000000000000000e+00,-0.000000000000000000e+00,4.447998479008674622e-03,2.941039390861988068e-03,1.835507107898592949e-03,3.145716618746519089e-03,-0.000000000000000000e+00,-0.000000000000000000e+00,-0.000000000000000000e+00,-0.000000000000000000e+00,-0.000000000000000000e+00,1.311953924596309662e-02
1.028629392385482788e-02,-0.000000000000000000e+00,-0.000000000000000000e+00,-0.000000000000000000e+00,-0.000000000000000000e+00,-0.000000000000000000e+00,-0.000000000000000000e+00,-0.000000000000000000e+00,-0.000000000000000000e+00,6.383702857419848442e-04,-0.000000000000000000e+00,-0.000000000000000000e+00,-0.000000000000000000e+00,-0.000000000000000000e+00,-0.000000000000000000e+00,-0.000000000000000000e+00,8.179284632205963135e-04,-0.000000000000000000e+00,3.427856601774692535e-03,-0.000000000000000000e+00,1.080544607248157263e-04,-0.000000000000000000e+00,7.094883359968662262e-03,-0.000000000000000000e+00,-0.000000000000000000e+00,-0.000000000000000000e+00,2.300849556922912598e-02,-0.000000000000000000e+00,4.495744109153747559e-01,-0.000000000000000000e+00,-0.000000000000000000e+00,1.286968681961297989e-02,-0.000000000000000000e+00,2.043060772120952606e-02,-0.000000000000000000e+00,-0.000000000000000000e+00,2.682849066331982613e-03,-0.000000000000000000e+00,5.857625007629394531e-01,8.567900396883487701e-03,-0.000000000000000000e+00,-0.000000000000000000e+00,-0.000000000000000000e+00,-0.000000000000000000e+00,-0.000000000000000000e+00,1.715435646474361420e-02,-0.000000000000000000e+00,1.417467594146728516e-01,-0.000000000000000000e+00,6.741892546415328979e-03,9.512348100543022156e-03,8.743611164391040802e-03,-0.000000000000000000e+00,6.701532402075827122e-04,-0.000000000000000000e+00,-0.000000000000000000e+00,-0.000000000000000000e+00,-0.000000000000000000e+00,-0.000000000000000000e+00,-0.000000000000000000e+00,-0.000000000000000000e+00,-0.000000000000000000e+00,2.941402373835444450e-03,-0.000000000000000000e+00,-0.000000000000000000e+00,3.888404753524810076e-04,-0.000000000000000000e+00,-0.000000000000000000e+00,9.195532584271859378e-06,-0.000000000000000000e+00,1.781000196933746338e-01,6.021751761436462402e-01,9.041994810104370117e-03,-0.000000000000000000e+00,-0.000000000000000000e+00,1.200830680318176746e-03,-0.000000000000000000e+00,4.109387751668691635e-03,1.233399473130702972e-02,-0.000000000000000000e+00,-0.000000000000000000e+00,-0.000000000000000000e+00,3.471358120441436768e-01,3.604896832257509232e-03,-0.000000000000000000e+00,-0.000000000000000000e+00,1.125262002460658550e-03,-0.000000000000000000e+00,4.578232392668724060e-02,-0.000000000000000000e+00,-0.000000000000000000e+00,1.330430526286363602e-02,-0.000000000000000000e+00,-0.000000000000000000e+00,-0.000000000000000000e+00,4.100388847291469574e-03,1.664398587308824062e-03,4.400382749736309052e-03,4.515620879828929901e-03,-0.000000000000000000e+00,1.470613598823547363e+00,3.793310374021530151e-02,6.367810368537902832e-01,-0.000000000000000000e+00,3.957538604736328125e-01,5.818909499794244766e-03,9.093745029531419277e-04,-0.000000000000000000e+00,-0.000000000000000000e+00,-0.000000000000000000e+00,-0.000000000000000000e+00,8.601450920104980469e-01,2.058680169284343719e-03,2.805871516466140747e-02,-0.000000000000000000e+00,1.301548257470130920e-02,1.122248291969299316e+00,-0.000000000000000000e+00,2.484794147312641144e-02,1.811962341889739037e-03,1.262454199604690075e-03,-0.000000000000000000e+00,1.308566480875015259e-01,-0.000000000000000000e+00,1.145461387932300568e-02,6.253902334719896317e-03,1.994500309228897095e-02,-0.000000000000000000e+00,-0.000000000000000000e+00,-0.000000000000000000e+00,1.003145333379507065e-02,-0.000000000000000000e+00,8.676996803842484951e-04,1.015328615903854370e-02,4.310939311981201172e-01,-0.000000000000000000e+00,-0.000000000000000000e+00,1.213510520756244659e-02,6.552999019622802734e-01,1.070332601666450500e-01,4.629955510608851910e-04,-0.000000000000000000e+00,-0.000000000000000000e+00,4.514588508754968643e-03,-0.000000000000000000e+00,-0.000000000000000000e+00,6.228766404092311859e-03,-0.000000000000000000e+00,5.004054866731166840e-03,2.623458504676818848e-01,8.800812065601348877e-03,-0.000000000000000000e+00,2.091555595397949219e-01,2.020586980506777763e-03,-0.000000000000000000e+00,-0.000000000000000000e+00,-0.000000000000000000e+00,-0.000000000000000000e+00,1.296345144510269165e-03,-0.000000000000000000e+00,-0.000000000000000000e+00,-0.000000000000000000e+00,4.838426038622856140e-02,-0.000000000000000000e+00,-0.000000000000000000e+00,1.225908517837524414e+00,-0.000000000000000000e+00,4.887998802587389946e-04,6.673625111579895020e-01,3.161365399137139320e-03,1.933814026415348053e-03,2.325570210814476013e-03,5.528908222913742065e-03,1.539268065243959427e-02,7.073713541030883789e-01,-0.000000000000000000e+00,3.672772273421287537e-02,2.656118273735046387e-01,-0.000000000000000000e+00,3.281282843090593815e-04,7.624084353446960449e-01,-0.000000000000000000e+00,5.169597268104553223e-01,6.194590125232934952e-03,2.362324111163616180e-02,-0.000000000000000000e+00,1.012717604637145996e+00,3.620839118957519531e-01,7.905803620815277100e-03,3.113346993923187256e-01,3.213906288146972656e-02,6.502910051494836807e-03,1.695761233568191528e-01,7.779471278190612793e-01,9.584070066921412945e-04,-0.000000000000000000e+00,3.652482628822326660e-01,7.635539863258600235e-03,-0.000000000000000000e+00,-0.000000000000000000e+00,3.213125467300415039e-01,-0.000000000000000000e+00,-0.000000000000000000e+00,-0.000000000000000000e+00,3.552429145202040672e-03,-0.000000000000000000e+00,1.064553618431091309e+00,4.820500500500202179e-03,2.847095602191984653e-04,5.255057290196418762e-02,-0.000000000000000000e+00,2.778858840465545654e-01,5.895690321922302246e-01,-0.000000000000000000e+00,2.839403226971626282e-02,1.623740070499479771e-03,5.437947437167167664e-02,1.430143356323242188e+00,1.379164867103099823e-02,6.033008918166160583e-03,1.837447867728769779e-03,2.062142454087734222e-02,3.767713159322738647e-02,3.891861140727996826e-01,3.570732660591602325e-04,4.185240250080823898e-03,-0.000000000000000000e+00,1.396594475954771042e-02,1.043788902461528778e-02,1.649623177945613861e-02,6.297944486141204834e-02,3.080027103424072266e-01,1.438270509243011475e-02,4.691826701164245605e-01,-0.000000000000000000e+00,8.125682920217514038e-02,-0.000000000000000000e+00,-0.000000000000000000e+00,2.297562360763549805e-02,-0.000000000000000000e+00,3.413615375757217407e-02,2.402307838201522827e-01,-0.000000000000000000e+00,4.226557444781064987e-03,1.160692982375621796e-02,6.647111847996711731e-03,3.349548578262329102e-02,8.523470759391784668e-01,9.880936704576015472e-03,5.263330340385437012e-01,-0.000000000000000000e+00,-0.000000000000000000e+00,-0.000000000000000000e+00,1.065200686454772949e+00,3.004755591973662376e-03,3.038752125576138496e-03,7.073281332850456238e-03,-0.000000000000000000e+00,4.243331495672464371e-03,-0.000000000000000000e+00,-0.000000000000000000e+00,-0.000000000000000000e+00,1.314035892486572266e+00,-0.000000000000000000e+00,-0.000000000000000000e+00,-0.000000000000000000e+00,-0.000000000000000000e+00,8.917400985956192017e-02,3.541840007528662682e-03,4.012003075331449509e-03,5.180040001869201660e-01,1.198896486312150955e-02,2.118702791631221771e-02,-0.000000000000000000e+00,-0.000000000000000000e+00,8.273839950561523438e-02,1.656459271907806396e-02,-0.000000000000000000e+00,4.671806003898382187e-03,9.271250367164611816e-01,1.284433528780937195e-02,3.527531167492270470e-03,4.118126817047595978e-03,-0.000000000000000000e+00,9.463290916755795479e-05,-0.000000000000000000e+00,-0.000000000000000000e+00,-0.000000000000000000e+00,-0.000000000000000000e+00,-0.000000000000000000e+00,9.454074315726757050e-03,2.549882233142852783e-02,1.215778198093175888e-02,4.476071521639823914e-02,-0.000000000000000000e+00,-0.000000000000000000e+00,-0.000000000000000000e+00,1.120721548795700073e-02,-0.000000000000000000e+00,7.790927588939666748e-02,4.311755765229463577e-03,7.436442375183105469e-01,4.287882708013057709e-03,-0.000000000000000000e+00,-0.000000000000000000e+00,-0.000000000000000000e+00,-0.000000000000000000e+00,1.150276395492255688e-03,-0.000000000000000000e+00,7.007107883691787720e-02,7.002358790487051010e-03,2.505360543727874756e-02,-0.000000000000000000e+00,-0.000000000000000000e+00,-0.000000000000000000e+00,-0.000000000000000000e+00,-0.000000000000000000e+00,-0.000000000000000000e+00,-0.000000000000000000e+00,-0.000000000000000000e+00,-0.000000000000000000e+00,-0.000000000000000000e+00,-0.000000000000000000e+00,-0.000000000000000000e+00,7.733062840998172760e-03,7.109029684215784073e-04,3.093048464506864548e-03,-0.000000000000000000e+00,-0.000000000000000000e+00,-0.000000000000000000e+00,-0.000000000000000000e+00,-0.000000000000000000e+00,-0.000000000000000000e+00,5.600012540817260742e-01,-0.000000000000000000e+00,-0.000000000000000000e+00,-0.000000000000000000e+00,2.858429448679089546e-03,4.449580796062946320e-03,8.599146269261837006e-03,-0.000000000000000000e+00,1.443246263079345226e-03,-0.000000000000000000e+00,7.005095947533845901e-03,9.832949377596378326e-03,-0.000000000000000000e+00,1.198557853698730469e+00,-0.000000000000000000e+00,-0.000000000000000000e+00,3.987520933151245117e-03,-0.000000000000000000e+00,1.794751286506652832e-01,1.875860616564750671e-02,2.242502989247441292e-03,-0.000000000000000000e+00,-0.000000000000000000e+00,-0.000000000000000000e+00,-0.000000000000000000e+00,-0.000000000000000000e+00,-0.000000000000000000e+00,2.575971651822328568e-03,1.184608135372400284e-02,4.726550076156854630e-03,5.962940398603677750e-03,2.443761099129915237e-03,8.632760727778077126e-04,1.496769138611853123e-03,-0.000000000000000000e+00,1.789278909564018250e-02
1.296631409786641598e-03,-0.000000000000000000e+00,3.926138393580913544e-03,-0.000000000000000000e+00,-0.000000000000000000e+00,-0.000000000000000000e+00,-0.000000000000000000e+00,9.266919456422328949e-03,-0.000000000000000000e+00,3.768007736653089523e-03,2.378342440351843834e-03,-0.000000000000000000e+00,2.976960036903619766e-03,-0.000000000000000000e+00,-0.000000000000000000e+00,1.086898730136454105e-03,9.226465481333434582e-04,2.072276081889867783e-03,4.730959422886371613e-03,-0.000000000000000000e+00,-0.000000000000000000e+00,8.132264949381351471e-03,7.067382801324129105e-03,5.470123142004013062e-02,1.752044446766376495e-02,-0.000000000000000000e+00,2.135679591447114944e-03,7.486461254302412271e-05,4.394312389194965363e-03,3.723502159118652344e-03,-0.000000000000000000e+00,8.833764120936393738e-03,-0.000000000000000000e+00,-0.000000000000000000e+00,7.334725232794880867e-04,2.488008700311183929e-03,-0.000000000000000000e+00,2.264299429953098297e-03,4.281364679336547852e-01,-0.000000000000000000e+00,1.523525826632976532e-02,8.562355637550354004e-01,1.831396715715527534e-03,4.833387210965156555e-03,2.883300112443976104e-06,4.048357717692852020e-03,-0.000000000000000000e+00,-0.000000000000000000e+00,-0.000000000000000000e+00,1.794878393411636353e-02,7.407511584460735321e-04,3.647360485047101974e-03,2.889457046985626221e-01,1.527779037132859230e-03,3.931201528757810593e-03,2.260827226564288139e-03,2.467143349349498749e-03,2.675004070624709129e-03,-0.000000000000000000e+00,1.991476165130734444e-03,5.794094875454902649e-03,1.881492673419415951e-03,6.223419215530157089e-03,-0.000000000000000000e+00,1.329212635755538940e-02,3.252128884196281433e-02,2.035641664406284690e-04,-0.000000000000000000e+00,1.528640714241191745e-04,-0.000000000000000000e+00,2.439742209389805794e-03,3.169254050590097904e-04,4.047943744808435440e-03,2.168225124478340149e-03,-0.000000000000000000e+00,3.995622391812503338e-04,-0.000000000000000000e+00,-0.000000000000000000e+00,1.258560083806514740e-02,3.134018508717417717e-03,-0.000000000000000000e+00,3.490324690937995911e-02,1.400999259203672409e-02,7.137162610888481140e-03,3.062008880078792572e-03,3.062783740460872650e-02,6.328520248644053936e-04,6.932739779585972428e-05,4.577619489282369614e-03,-0.000000000000000000e+00,3.061446174979209900e-02,3.651679260656237602e-03,-0.000000000000000000e+00,6.987798027694225311e-03,6.218088790774345398e-03,1.547697465866804123e-02,5.975094391033053398e-04,9.722154736518859863e-01,2.485645376145839691e-02,-0.000000000000000000e+00,-0.000000000000000000e+00,3.717596456408500671e-02,4.682706203311681747e-03,1.160051301121711731e-02,-0.000000000000000000e+00,3.558330535888671875e-01,4.096215963363647461e-01,8.940855041146278381e-03,-0.000000000000000000e+00,5.936204455792903900e-03,3.674170002341270447e-04,7.587985396385192871e-01,6.125324871391057968e-04,2.202856820076704025e-03,-0.000000000000000000e+00,5.091271363198757172e-03,1.159406965598464012e-03,-0.000000000000000000e+00,3.980620503425598145e-01,4.014380741864442825e-03,1.154505516751669347e-04,1.347806956619024277e-02,-0.000000000000000000e+00,4.734616959467530251e-04,6.529927719384431839e-03,9.376881644129753113e-04,3.951188623905181885e-01,-0.000000000000000000e+00,-0.000000000000000000e+00,3.307177918031811714e-03,1.763389096595346928e-03,-0.000000000000000000e+00,2.026217617094516754e-02,7.585351821035146713e-03,1.278847223147749901e-03,-0.000000000000000000e+00,1.178367529064416885e-03,2.279726555570960045e-03,1.522647142410278320e-01,-0.000000000000000000e+00,4.013408615719527006e-04,1.842156425118446350e-02,5.906603299081325531e-03,5.664647091180086136e-03,2.449481980875134468e-04,4.270789679139852524e-03,8.282797411084175110e-03,4.936581011861562729e-03,1.101027987897396088e-02,-0.000000000000000000e+00,1.283495454117655754e-03,-0.000000000000000000e+00,7.762757129967212677e-03,2.115163579583168030e-02,-0.000000000000000000e+00,-0.000000000000000000e+00,1.674267579801380634e-03,-0.000000000000000000e+00,-0.000000000000000000e+00,6.457233102992177010e-04,1.301445718854665756e-02,-0.000000000000000000e+00,1.461102906614542007e-02,-0.000000000000000000e+00,6.017310079187154770e-03,2.910677343606948853e-03,1.631232444196939468e-04,-0.000000000000000000e+00,-0.000000000000000000e+00,-0.000000000000000000e+00,-0.000000000000000000e+00,5.368536338210105896e-03,-0.000000000000000000e+00,-0.000000000000000000e+00,1.518709957599639893e-01,1.472153421491384506e-02,7.522549480199813843e-02,-0.000000000000000000e+00,2.345578977838158607e-03,1.295386231504380703e-03,-0.000000000000000000e+00,4.564238712191581726e-03,4.262925591319799423e-03,6.938628852367401123e-03,2.364141633734107018e-03,8.780338102951645851e-04,6.032969355583190918e-01,6.142330355942249298e-03,1.063596844673156738e+00,1.286509037017822266e+00,1.018884181976318359e-01,3.712913952767848969e-03,4.114263225346803665e-03,2.024752497673034668e-01,5.307974293828010559e-03,4.456709604710340500e-03,-0.000000000000000000e+00,3.846828043460845947e-01,-0.000000000000000000e+00,3.769370377995073795e-04,5.135058891028165817e-03,-0.000000000000000000e+00,-0.000000000000000000e+00,-0.000000000000000000e+00,2.643137238919734955e-03,-0.000000000000000000e+00,1.747048273682594299e-02,2.099024951457977295e-01,5.215087439864873886e-03,-0.000000000000000000e+00,1.786425709724426270e-02,1.503246277570724487e-02,-0.000000000000000000e+00,-0.000000000000000000e+00,-0.000000000000000000e+00,7.781238760799169540e-03,6.491830572485923767e-03,1.642801240086555481e-02,-0.000000000000000000e+00,7.928864099085330963e-03,2.384961023926734924e-02,-0.000000000000000000e+00,1.643805205821990967e-02,-0.000000000000000000e+00,-0.000000000000000000e+00,1.279611140489578247e-02,4.551632329821586609e-03,-0.000000000000000000e+00,1.499270275235176086e-02,1.382201677188277245e-03,7.231349125504493713e-03,1.503264415077865124e-03,7.345643360167741776e-03,9.621666073799133301e-01,1.153490133583545685e-02,1.335825771093368530e-02,7.697667926549911499e-03,9.714722633361816406e-03,8.287138305604457855e-03,8.811420798301696777e-01,5.694309249520301819e-03,1.807389780879020691e-03,-0.000000000000000000e+00,8.712949156761169434e-01,2.405264240223914385e-05,8.434144780039787292e-03,8.659495040774345398e-03,-0.000000000000000000e+00,4.704859480261802673e-02,2.703409194946289062e-01,2.256642095744609833e-03,4.447678569704294205e-03,5.020454991608858109e-04,8.161362260580062866e-03,1.414530515670776367e+00,-0.000000000000000000e+00,-0.000000000000000000e+00,-0.000000000000000000e+00,9.225143585354089737e-04,-0.000000000000000000e+00,1.264773076400160789e-03,-0.000000000000000000e+00,7.374425232410430908e-02,5.208174586296081543e-01,-0.000000000000000000e+00,7.331470958888530731e-03,3.167127370834350586e-01,4.734364803880453110e-03,1.374649442732334137e-02,-0.000000000000000000e+00,1.411850750446319580e-02,8.445186018943786621e-01,2.030685544013977051e-02,-0.000000000000000000e+00,-0.000000000000000000e+00,-0.000000000000000000e+00,1.624329388141632080e-02,2.492590844631195068e-01,5.195463076233863831e-03,6.071031093597412109e-01,4.310394823551177979e-01,4.080910235643386841e-03,-0.000000000000000000e+00,-0.000000000000000000e+00,1.302098296582698822e-02,-0.000000000000000000e+00,-0.000000000000000000e+00,2.703739404678344727e-01,-0.000000000000000000e+00,3.051432431675493717e-04,1.769058033823966980e-02,-0.000000000000000000e+00,4.489882383495569229e-03,-0.000000000000000000e+00,2.138862153515219688e-03,6.115863216109573841e-04,-0.000000000000000000e+00,-0.000000000000000000e+00,2.997861301992088556e-04,-0.000000000000000000e+00,1.706919223070144653e-01,7.829736173152923584e-02,1.138756982982158661e-03,-0.000000000000000000e+00,4.309793468564748764e-03,-0.000000000000000000e+00,-0.000000000000000000e+00,-0.000000000000000000e+00,-0.000000000000000000e+00,8.364910027012228966e-04,1.406146492809057236e-02,-0.000000000000000000e+00,1.281674194615334272e-04,-0.000000000000000000e+00,2.835788996890187263e-03,-0.000000000000000000e+00,-0.000000000000000000e+00,8.620926178991794586e-03,1.245952397584915161e-02,-0.000000000000000000e+00,3.432484809309244156e-03,1.170816714875400066e-03,2.056155353784561157e-03,-0.000000000000000000e+00,-0.000000000000000000e+00,2.651714021340012550e-03,3.387033706530928612e-03,-0.000000000000000000e+00,-0.000000000000000000e+00,1.668201875872910023e-03,-0.000000000000000000e+00,-0.000000000000000000e+00,6.323237437754869461e-03,-0.000000000000000000e+00,-0.000000000000000000e+00,-0.000000000000000000e+00,-0.000000000000000000e+00,4.051889292895793915e-03,4.689252004027366638e-03,4.387678578495979309e-03,2.454733010381460190e-03,4.392117727547883987e-03,4.513435706030577421e-04,1.425333693623542786e-02,7.943077944219112396e-03,-0.000000000000000000e+00,-0.000000000000000000e+00,2.691546105779707432e-04,4.044387955218553543e-03,1.028876518830657005e-03,-0.000000000000000000e+00,-0.000000000000000000e+00,6.269808113574981689e-02,1.503385952673852444e-03,-0.000000000000000000e+00,4.367446526885032654e-03,-0.000000000000000000e+00,6.125483196228742599e-04,9.488234296441078186e-03,1.503758132457733154e-03,1.995113445445895195e-03,-0.000000000000000000e+00,-0.000000000000000000e+00,2.217792673036456108e-03,-0.000000000000000000e+00,1.710461452603340149e-03,1.034833141602575779e-03,-0.000000000000000000e+00,1.713577471673488617e-02
7.462901528924703598e-03,3.145729424431920052e-03,-0.000000000000000000e+00,-0.000000000000000000e+00,-0.000000000000000000e+00,5.722062778659164906e-04,6.953098811209201813e-03,1.679711043834686279e-02,4.762526950798928738e-04,2.467720070853829384e-03,7.802969194017350674e-04,-0.000000000000000000e+00,4.839610308408737183e-03,5.319519899785518646e-03,2.887035254389047623e-03,1.378451753407716751e-02,3.368063131347298622e-03,1.845086924731731415e-02,1.685838960111141205e-02,2.491151355206966400e-02,1.236296072602272034e-02,5.173130426555871964e-03,1.302909385412931442e-02,-0.000000000000000000e+00,1.205382170155644417e-03,-0.000000000000000000e+00,2.671343646943569183e-02,9.192185476422309875e-03,4.210621584206819534e-03,-0.000000000000000000e+00,-0.000000000000000000e+00,1.582739874720573425e-02,1.630043238401412964e-02,6.793559528887271881e-03,1.131662051193416119e-03,1.201280206441879272e-02,3.128172457218170166e-02,-0.000000000000000000e+00,-0.000000000000000000e+00,1.649014279246330261e-02,-0.000000000000000000e+00,2.780343638733029366e-04,-0.000000000000000000e+00,4.667742643505334854e-03,4.209243692457675934e-03,5.781493964605033398e-04,-0.000000000000000000e+00,-0.000000000000000000e+00,-0.000000000000000000e+00,5.361889954656362534e-03,4.615218378603458405e-03,8.979481644928455353e-03,-0.000000000000000000e+00,-0.000000000000000000e+00,2.069545211270451546e-03,-0.000000000000000000e+00,1.044208742678165436e-02,7.880800403654575348e-03,-0.000000000000000000e+00,-0.000000000000000000e+00,1.253640931099653244e-02,1.027358323335647583e-02,-0.000000000000000000e+00,-0.000000000000000000e+00,3.261180361732840538e-03,2.397580770775675774e-03,3.545085666701197624e-03,2.972464542835950851e-03,6.996657699346542358e-03,1.674112863838672638e-02,5.770980715751647949e-01,2.903893473558127880e-04,4.347790032625198364e-03,-0.000000000000000000e+00,-0.000000000000000000e+00,4.844873398542404175e-02,6.388990674167871475e-03,4.825589060783386230e-02,2.008327282965183258e-03,-0.000000000000000000e+00,-0.000000000000000000e+00,1.978009380400180817e-02,1.341284159570932388e-02,1.035760156810283661e-02,1.352572906762361526e-02,4.651206545531749725e-03,5.633920431137084961e-03,2.046545036137104034e-02,2.993258647620677948e-02,3.520017024129629135e-03,3.818712430074810982e-03,3.077138913795351982e-03,3.385308664292097092e-03,7.524743676185607910e-03,4.504928831011056900e-03,3.355153650045394897e-02,8.508014434482902288e-05,3.101452253758907318e-03,1.986945979297161102e-02,3.474825248122215271e-02,9.262497536838054657e-03,1.382574066519737244e-02,1.097100134938955307e-02,-0.000000000000000000e+00,-0.000000000000000000e+00,9.846545755863189697e-03,4.028896801173686981e-03,9.308136999607086182e-03,-0.000000000000000000e+00,9.090765379369258881e-04,3.793980926275253296e-03,8.527552708983421326e-03,7.912247674539685249e-04,-0.000000000000000000e+00,3.020218107849359512e-03,4.097464494407176971e-03,1.824153028428554535e-02,-0.000000000000000000e+00,5.878946394659578800e-04,4.747149068862199783e-03,3.967474699020385742e-01,3.417290747165679932e-03,-0.000000000000000000e+00,2.066210377961397171e-03,1.323372125625610352e-02,7.805539295077323914e-03,1.363368052989244461e-02,-0.000000000000000000e+00,1.753537170588970184e-02,-0.000000000000000000e+00,8.315764367580413818e-03,-0.000000000000000000e+00,2.933591976761817932e-02,-0.000000000000000000e+00,-0.000000000000000000e+00,-0.000000000000000000e+00,1.295420713722705841e-02,7.499856874346733093e-03,9.807493537664413452e-03,8.369777351617813110e-03,-0.000000000000000000e+00,-0.000000000000000000e+00,8.236548746936023235e-04,5.854095797985792160e-03,3.651559352874755859e-03,3.417274681851267815e-03,4.924621433019638062e-03,-0.000000000000000000e+00,-0.000000000000000000e+00,1.887648017145693302e-03,-0.000000000000000000e+00,2.756043977569788694e-04,-0.000000000000000000e+00,2.286099130287766457e-03,-0.000000000000000000e+00,-0.000000000000000000e+00,-0.000000000000000000e+00,-0.000000000000000000e+00,-0.000000000000000000e+00,6.499896699097007513e-05,9.349333122372627258e-03,-0.000000000000000000e+00,3.371800761669874191e-03,1.399648003280162811e-02,4.064183682203292847e-03,2.532484196126461029e-02,-0.000000000000000000e+00,-0.000000000000000000e+00,-0.000000000000000000e+00,1.623212359845638275e-03,3.795000258833169937e-03,2.807744592428207397e-02,5.027515813708305359e-03,7.267027394846081734e-04,4.970204550772905350e-03,6.197566632181406021e-03,-0.000000000000000000e+00,3.157404484227299690e-03,2.031782642006874084e-02,2.380219660699367523e-02,1.224445365369319916e-02,4.956799559295177460e-03,1.246827095746994019e-02,1.511942781507968903e-02,9.837041608989238739e-03,5.934424232691526413e-03,4.040317609906196594e-03,3.164477180689573288e-03,3.885908285155892372e-03,1.683848211541771889e-03,-0.000000000000000000e+00,7.671694038435816765e-04,-0.000000000000000000e+00,-0.000000000000000000e+00,-0.000000000000000000e+00,-0.000000000000000000e+00,-0.000000000000000000e+00,6.807281635701656342e-03,-0.000000000000000000e+00,7.045891135931015015e-03,5.179179133847355843e-04,3.749406430870294571e-03,-0.000000000000000000e+00,-0.000000000000000000e+00,2.349233254790306091e-04,2.706198720261454582e-03,1.873918459750711918e-03,2.023659832775592804e-02,2.304999157786369324e-03,3.291509347036480904e-03,-0.000000000000000000e+00,-0.000000000000000000e+00,-0.000000000000000000e+00,-0.000000000000000000e+00,3.981906629633158445e-04,-0.000000000000000000e+00,-0.000000000000000000e+00,1.121077034622430801e-02,4.177193157374858856e-03,3.773012198507785797e-03,3.045334015041589737e-03,7.249127142131328583e-03,5.751041229814291000e-03,-0.000000000000000000e+00,2.419806551188230515e-03,8.167239720933139324e-04,-0.000000000000000000e+00,1.557601266540586948e-03,1.650835201144218445e-02,3.186707617715001106e-04,7.768591865897178650e-03,8.956259116530418396e-03,1.337828300893306732e-02,3.754307283088564873e-03,-0.000000000000000000e+00,1.696684584021568298e-02,-0.000000000000000000e+00,-0.000000000000000000e+00,7.928852923214435577e-03,1.727709313854575157e-03,2.076612785458564758e-02,9.207639843225479126e-03,2.418439835309982300e-03,1.071717590093612671e-03,1.154665928333997726e-02,4.755095869768410921e-04,2.336726058274507523e-03,9.369845502078533173e-03,2.107715606689453125e-02,1.185507397167384624e-03,3.232460934668779373e-03,1.325855497270822525e-02,-0.000000000000000000e+00,-0.000000000000000000e+00,4.699699115008115768e-03,5.951622501015663147e-03,-0.000000000000000000e+00,3.437238046899437904e-03,7.504664827138185501e-03,-0.000000000000000000e+00,-0.000000000000000000e+00,-0.000000000000000000e+00,3.556606825441122055e-03,-0.000000000000000000e+00,1.624404452741146088e-02,4.184762481600046158e-03,1.257518772035837173e-02,6.659081671386957169e-03,7.741940207779407501e-03,4.969287198036909103e-03,1.117322966456413269e-02,2.130268840119242668e-03,1.631240127608180046e-03,8.584893075749278069e-04,1.833667512983083725e-03,1.007999945431947708e-02,1.769855245947837830e-02,-0.000000000000000000e+00,1.125296810641884804e-03,5.830707028508186340e-03,1.208361517637968063e-02,2.875724108889698982e-03,2.437871589791029692e-04,-0.000000000000000000e+00,3.205861896276473999e-03,-0.000000000000000000e+00,1.369606703519821167e-03,-0.000000000000000000e+00,-0.000000000000000000e+00,1.232681679539382458e-03,-0.000000000000000000e+00,-0.000000000000000000e+00,1.126679033041000366e-02,-0.000000000000000000e+00,-0.000000000000000000e+00,-0.000000000000000000e+00,-0.000000000000000000e+00,1.242007827386260033e-03,-0.000000000000000000e+00,-0.000000000000000000e+00,4.317692946642637253e-03,8.722336031496524811e-03,1.852953992784023285e-02,-0.000000000000000000e+00,1.117048133164644241e-02,3.420560620725154877e-03,-0.000000000000000000e+00,3.060938324779272079e-03,-0.000000000000000000e+00,-0.000000000000000000e+00,8.942802436649799347e-03,2.741921879351139069e-02,4.340709187090396881e-03,2.129171416163444519e-02,-0.000000000000000000e+00,7.711156504228711128e-04,-0.000000000000000000e+00,6.053154822438955307e-03,3.596741473302245140e-03,-0.000000000000000000e+00,-0.000000000000000000e+00,3.307834034785628319e-03,-0.000000000000000000e+00,-0.000000000000000000e+00,9.302835096605122089e-04,-0.000000000000000000e+00,3.644581185653805733e-03,-0.000000000000000000e+00,7.230732589960098267e-03,-0.000000000000000000e+00,-0.000000000000000000e+00,1.165173389017581940e-02,-0.000000000000000000e+00,-0.000000000000000000e+00,1.373370178043842316e-03,-0.000000000000000000e+00,6.080380640923976898e-03,2.792505919933319092e-02,2.315139211714267731e-02,6.066820584237575531e-03,3.440514672547578812e-03,8.267342345789074898e-04,-0.000000000000000000e+00,9.061861783266067505e-04,1.010779757052659988e-02,-0.000000000000000000e+00,1.237361342646181583e-03,1.134616602212190628e-02,2.868893370032310486e-02,3.824738785624504089e-03,5.156121915206313133e-04,3.116675070486962795e-04,9.782265871763229370e-03,-0.000000000000000000e+00,-0.000000000000000000e+00,8.441740646958351135e-03,4.157223273068666458e-03,7.119056768715381622e-03,8.009540848433971405e-03,6.061144638806581497e-03,9.736067615449428558e-03,9.510347619652748108e-03,-0.000000000000000000e+00,-0.000000000000000000e+00,7.450649980455636978e-03,-0.000000000000000000e+00,-0.000000000000000000e+00,2.982614561915397644e-03,1.659450819715857506e-03
2.342196553945541382e-02,3.808069974184036255e-03,1.615351531654596329e-03,-0.000000000000000000e+00,-0.000000000000000000e+00,-0.000000000000000000e+00,3.434803802520036697e-03,3.460262715816497803e-01,-0.000000000000000000e+00,4.526108503341674805e-03,2.843988360837101936e-03,1.954091526567935944e-02,4.527322351932525635e-01,2.503684256225824356e-03,-0.000000000000000000e+00,-0.000000000000000000e+00,2.899725688621401787e-03,-0.000000000000000000e+00,4.285865463316440582e-03,6.774583016522228718e-04,8.594962954521179199e-02,4.578507971018552780e-03,7.303464692085981369e-03,-0.000000000000000000e+00,1.170026417821645737e-02,1.015120558440685272e-02,-0.000000000000000000e+00,-0.000000000000000000e+00,4.426541738212108612e-03,-0.000000000000000000e+00,4.019547719508409500e-03,7.353643421083688736e-03,-0.000000000000000000e+00,3.367254510521888733e-03,2.047827001661062241e-03,-0.000000000000000000e+00,1.468138676136732101e-02,3.383677452802658081e-02,-0.000000000000000000e+00,-0.000000000000000000e+00,2.822402399033308029e-03,8.958068490028381348e-01,-0.000000000000000000e+00,4.454493895173072815e-02,2.452836558222770691e-02,7.525706896558403969e-04,-0.000000000000000000e+00,-0.000000000000000000e+00,-0.000000000000000000e+00,4.147147294133901596e-03,1.158494153060019016e-03,9.548619389533996582e-03,6.564254406839609146e-03,-0.000000000000000000e+00,4.169083200395107269e-03,4.863009788095951080e-03,7.136103231459856033e-03,3.834906674455851316e-04,-0.000000000000000000e+00,1.284498069435358047e-02,1.917465589940547943e-02,1.094502862542867661e-02,3.385440260171890259e-02,-0.000000000000000000e+00,2.099567092955112457e-02,1.681948751211166382e-01,2.506809681653976440e-02,6.373849231749773026e-03,1.925395801663398743e-02,-0.000000000000000000e+00,1.732952147722244263e-02,1.943252801895141602e+00,8.514084853231906891e-03,6.886419840157032013e-03,-0.000000000000000000e+00,-0.000000000000000000e+00,1.700261491350829601e-03,2.484975149855017662e-03,2.931067049503326416e-01,-0.000000000000000000e+00,3.621424734592437744e-02,1.535232551395893097e-02,5.100261569023132324e-01,2.525233663618564606e-03,4.462338052690029144e-03,8.374589495360851288e-03,1.192363910377025604e-02,1.193515770137310028e-02,-0.000000000000000000e+00,-0.000000000000000000e+00,3.975429758429527283e-02,1.991325989365577698e-03,-0.000000000000000000e+00,2.618181053549051285e-03,-0.000000000000000000e+00,5.835974588990211487e-04,-0.000000000000000000e+00,-0.000000000000000000e+00,4.849833901971578598e-03,-0.000000000000000000e+00,-0.000000000000000000e+00,5.027302075177431107e-03,7.802568376064300537e-03,1.464881002902984619e-03,1.481073850300163031e-04,3.955189138650894165e-03,2.505879700183868408e-01,-0.000000000000000000e+00,-0.000000000000000000e+00,9.654108434915542603e-04,1.400404050946235657e-02,7.871128618717193604e-03,3.231196999549865723e-01,3.786689601838588715e-03,-0.000000000000000000e+00,-0.000000000000000000e+00,7.879851036705076694e-04,-0.000000000000000000e+00,2.485606120899319649e-03,3.294366877526044846e-03,-0.000000000000000000e+00,3.171112854033708572e-03,-0.000000000000000000e+00,-0.000000000000000000e+00,-0.000000000000000000e+00,1.642590947449207306e-02,4.151327610015869141e-01,-0.000000000000000000e+00,-0.000000000000000000e+00,5.164696574211120605e-01,6.766250729560852051e-01,5.748562514781951904e-03,4.450783506035804749e-02,-0.000000000000000000e+00,1.004649559035897255e-03,-0.000000000000000000e+00,4.980398807674646378e-03,7.577205076813697815e-03,4.273468162864446640e-03,2.064791508018970490e-02,-0.000000000000000000e+00,-0.000000000000000000e+00,2.448372077196836472e-03,5.076309666037559509e-03,3.880849340930581093e-03,3.834265982732176781e-03,2.083586901426315308e-02,-0.000000000000000000e+00,3.258977830410003662e-01,9.481405019760131836e-01,4.651044495403766632e-03,-0.000000000000000000e+00,-0.000000000000000000e+00,1.421586144715547562e-03,1.566397584974765778e-02,-0.000000000000000000e+00,-0.000000000000000000e+00,6.289030890911817551e-03,-0.000000000000000000e+00,-0.000000000000000000e+00,-0.000000000000000000e+00,-0.000000000000000000e+00,9.581601247191429138e-03,1.215238310396671295e-02,5.041241049766540527e-01,-0.000000000000000000e+00,-0.000000000000000000e+00,4.213918931782245636e-03,1.157828664872795343e-04,-0.000000000000000000e+00,-0.000000000000000000e+00,-0.000000000000000000e+00,1.009472412988543510e-03,2.159317722544074059e-03,7.517254911363124847e-03,2.550100348889827728e-02,2.445707656443119049e-02,1.913973502814769745e-02,4.325637128204107285e-03,-0.000000000000000000e+00,1.219616174697875977e+00,3.339698538184165955e-02,9.878849610686302185e-03,1.109313726425170898e+00,7.488801479339599609e-01,1.094093546271324158e-02,2.233413979411125183e-03,1.531695015728473663e-03,2.675149589776992798e-03,1.020319294184446335e-02,6.168351974338293076e-03,-0.000000000000000000e+00,1.113160629756748676e-03,1.467483962187543511e-04,1.258609350770711899e-02,3.106457646936178207e-03,-0.000000000000000000e+00,-0.000000000000000000e+00,7.757734060287475586e-01,2.800636179745197296e-02,2.832315163686871529e-03,-0.000000000000000000e+00,2.043695189058780670e-03,-0.000000000000000000e+00,4.595055244863033295e-03,-0.000000000000000000e+00,-0.000000000000000000e+00,2.275437582284212112e-03,2.911499934270977974e-03,6.516694556921720505e-03,9.778245352208614349e-03,7.516894489526748657e-03,-0.000000000000000000e+00,-0.000000000000000000e+00,-0.000000000000000000e+00,-0.000000000000000000e+00,8.708224631845951080e-04,-0.000000000000000000e+00,4.522887058556079865e-03,3.496218705549836159e-03,1.840754784643650055e-02,5.990034900605678558e-03,8.763562440872192383e-01,1.292141387239098549e-03,-0.000000000000000000e+00,7.731076795607805252e-03,2.790350117720663548e-04,5.300650373101234436e-03,1.189520116895437241e-02,4.975779913365840912e-03,2.330248989164829254e-02,-0.000000000000000000e+00,2.119699725881218910e-03,1.375786378048360348e-04,1.148280315101146698e-02,-0.000000000000000000e+00,1.023259852081537247e-02,-0.000000000000000000e+00,1.787013839930295944e-03,1.927673234604299068e-03,3.929379861801862717e-03,-0.000000000000000000e+00,1.042491785483434796e-04,4.583325702697038651e-03,8.658347651362419128e-03,-0.000000000000000000e+00,3.640026785433292389e-03,1.078948285430669785e-02,4.372955299913883209e-03,3.260370111092925072e-03,1.226252689957618713e-02,3.688116557896137238e-03,5.394663661718368530e-03,-0.000000000000000000e+00,8.092269301414489746e-03,6.389052607119083405e-03,-0.000000000000000000e+00,-0.000000000000000000e+00,2.877753460779786110e-03,1.119933556765317917e-02,1.356169697828590870e-03,-0.000000000000000000e+00,4.939964972436428070e-03,2.311764284968376160e-03,9.124348289333283901e-04,-0.000000000000000000e+00,3.661911189556121826e-02,1.091276947408914566e-02,7.065585814416408539e-03,-0.000000000000000000e+00,4.280903376638889313e-03,2.884603571146726608e-03,2.347226738929748535e-01,-0.000000000000000000e+00,-0.000000000000000000e+00,-0.000000000000000000e+00,2.037117630243301392e-02,-0.000000000000000000e+00,8.215466514229774475e-03,1.023015705868601799e-03,6.250479072332382202e-02,4.625083804130554199e-01,4.203374497592449188e-03,-0.000000000000000000e+00,1.072084123734384775e-04,-0.000000000000000000e+00,6.141343154013156891e-03,-0.000000000000000000e+00,-0.000000000000000000e+00,-0.000000000000000000e+00,-0.000000000000000000e+00,1.296067595481872559e+00,1.208328455686569214e-02,2.045636065304279327e-03,1.638822630047798157e-02,-0.000000000000000000e+00,-0.000000000000000000e+00,3.679516725242137909e-03,-0.000000000000000000e+00,1.036524772644042969e+00,4.278735257685184479e-03,-0.000000000000000000e+00,5.288484971970319748e-03,2.607163973152637482e-03,4.327260889112949371e-03,3.506671404466032982e-03,5.987121257930994034e-03,-0.000000000000000000e+00,-0.000000000000000000e+00,2.254808396100997925e-01,5.648104473948478699e-03,4.721722565591335297e-03,-0.000000000000000000e+00,3.199581056833267212e-03,-0.000000000000000000e+00,-0.000000000000000000e+00,2.743507921695709229e-01,8.817565627396106720e-03,8.240366354584693909e-03,2.093798853456974030e-02,6.180818658322095871e-03,-0.000000000000000000e+00,3.599215764552354813e-03,-0.000000000000000000e+00,6.137223914265632629e-03,1.052108127623796463e-03,2.351120347157120705e-04,-0.000000000000000000e+00,6.978637538850307465e-03,2.352218143641948700e-03,-0.000000000000000000e+00,-0.000000000000000000e+00,7.608100306242704391e-03,-0.000000000000000000e+00,5.463353171944618225e-02,-0.000000000000000000e+00,-0.000000000000000000e+00,1.526590064167976379e-02,1.483290828764438629e-02,8.592211641371250153e-03,-0.000000000000000000e+00,7.800475228577852249e-03,1.019653677940368652e+00,-0.000000000000000000e+00,4.513805732131004333e-03,-0.000000000000000000e+00,8.771965280175209045e-03,-0.000000000000000000e+00,7.680056151002645493e-03,1.322858734056353569e-03,-0.000000000000000000e+00,-0.000000000000000000e+00,5.109084844589233398e-01,-0.000000000000000000e+00,1.434990670531988144e-03,1.371921971440315247e-02,-0.000000000000000000e+00,3.541278187185525894e-03,2.095299400389194489e-02,3.909798339009284973e-02,1.809016976039856672e-04,-0.000000000000000000e+00,4.780908524990081787e-01,-0.000000000000000000e+00,2.296730875968933105e-03,2.351555973291397095e-03,-0.000000000000000000e+00,-0.000000000000000000e+00,2.244042791426181793e-02
-0.000000000000000000e+00,-0.000000000000000000e+00,1.638724934309720993e-03,-0.000000000000000000e+00,-0.000000000000000000e+00,1.992189092561602592e-03,3.201496787369251251e-03,-0.000000000000000000e+00,-0.000000000000000000e+00,1.510828267782926559e-02,-0.000000000000000000e+00,2.905377652496099472e-03,4.347855690866708755e-03,8.898407104425132275e-04,-0.000000000000000000e+00,-0.000000000000000000e+00,6.239178124815225601e-03,-0.000000000000000000e+00,3.654861357063055038e-03,1.867559924721717834e-02,-0.000000000000000000e+00,-0.000000000000000000e+00,1.706529036164283752e-02,-0.000000000000000000e+00,5.719605833292007446e-03,-0.000000000000000000e+00,2.123270556330680847e-02,2.188901649788022041e-03,4.428351763635873795e-03,-0.000000000000000000e+00,-0.000000000000000000e+00,6.456638220697641373e-03,-0.000000000000000000e+00,-0.000000000000000000e+00,2.742351265624165535e-03,-0.000000000000000000e+00,-0.000000000000000000e+00,5.816786084324121475e-03,5.898027420043945312e-01,-0.000000000000000000e+00,3.620049450546503067e-03,1.444390788674354553e-02,2.902294800151139498e-04,-0.000000000000000000e+00,1.275603752583265305e-02,2.744561526924371719e-03,-0.000000000000000000e+00,-0.000000000000000000e+00,-0.000000000000000000e+00,-0.000000000000000000e+00,-0.000000000000000000e+00,8.845771662890911102e-03,-0.000000000000000000e+00,-0.000000000000000000e+00,1.325780176557600498e-04,-0.000000000000000000e+00,1.842314610257744789e-03,-0.000000000000000000e+00,-0.000000000000000000e+00,-0.000000000000000000e+00,-0.000000000000000000e+00,1.304585952311754227e-02,3.087415918707847595e-02,5.703695863485336304e-02,3.157700411975383759e-03,6.306401640176773071e-02,8.995023556053638458e-03,1.980663836002349854e-02,4.731819964945316315e-03,3.895385598298162222e-04,3.145172726362943649e-03,2.863912843167781830e-03,4.779860842972993851e-03,-0.000000000000000000e+00,-0.000000000000000000e+00,2.526294207200407982e-03,2.277646563015878201e-04,-0.000000000000000000e+00,6.895968690514564514e-03,-0.000000000000000000e+00,-0.000000000000000000e+00,3.744188696146011353e-02,5.393488798290491104e-03,6.678542122244834900e-03,-0.000000000000000000e+00,1.367743313312530518e-02,1.428583916276693344e-02,3.180500352755188942e-04,-0.000000000000000000e+00,-0.000000000000000000e+00,1.455334015190601349e-02,-0.000000000000000000e+00,-0.000000000000000000e+00,1.311566680669784546e-02,1.042485423386096954e-02,2.176065609091892838e-04,-0.000000000000000000e+00,4.662598483264446259e-03,1.066364943981170654e-01,-0.000000000000000000e+00,2.834176644682884216e-03,1.121891196817159653e-03,8.750759065151214600e-03,1.275130748748779297e+00,-0.000000000000000000e+00,1.260994672775268555e-01,5.692803114652633667e-02,1.236613932996988297e-02,2.687888033688068390e-02,7.285403553396463394e-03,1.226909756660461426e+00,3.433198109269142151e-02,2.335764234885573387e-03,-0.000000000000000000e+00,-0.000000000000000000e+00,4.422306083142757416e-03,3.200185950845479965e-03,-0.000000000000000000e+00,-0.000000000000000000e+00,1.290237763896584511e-03,-0.000000000000000000e+00,2.275612391531467438e-02,-0.000000000000000000e+00,3.507757559418678284e-03,-0.000000000000000000e+00,4.563701804727315903e-03,2.634867429733276367e-01,-0.000000000000000000e+00,-0.000000000000000000e+00,7.239158730953931808e-03,1.464596986770629883e-01,5.192291922867298126e-03,6.229147780686616898e-03,-0.000000000000000000e+00,-0.000000000000000000e+00,-0.000000000000000000e+00,4.275566339492797852e-02,-0.000000000000000000e+00,1.830380060710012913e-03,6.021754350513219833e-03,-0.000000000000000000e+00,1.381269376724958420e-02,2.174756256863474846e-03,5.101764108985662460e-03,-0.000000000000000000e+00,9.035905823111534119e-03,9.362813085317611694e-03,-0.000000000000000000e+00,2.345588654279708862e-01,-0.000000000000000000e+00,5.041242577135562897e-03,-0.000000000000000000e+00,-0.000000000000000000e+00,5.450709257274866104e-03,-0.000000000000000000e+00,-0.000000000000000000e+00,-0.000000000000000000e+00,-0.000000000000000000e+00,1.456401776522397995e-03,4.357750061899423599e-03,-0.000000000000000000e+00,-0.000000000000000000e+00,3.395048901438713074e-03,-0.000000000000000000e+00,-0.000000000000000000e+00,-0.000000000000000000e+00,2.422259887680411339e-03,7.498056511394679546e-04,-0.000000000000000000e+00,-0.000000000000000000e+00,-0.000000000000000000e+00,8.620541095733642578e-01,1.979647018015384674e-02,2.381472382694482803e-03,4.024971276521682739e-03,5.710989702492952347e-03,-0.000000000000000000e+00,3.548644017428159714e-03,7.852311246097087860e-03,4.780220333486795425e-03,2.484139520674943924e-03,4.332065116614103317e-03,6.028167903423309326e-03,1.461549382656812668e-02,-0.000000000000000000e+00,-0.000000000000000000e+00,-0.000000000000000000e+00,-0.000000000000000000e+00,-0.000000000000000000e+00,1.158467214554548264e-02,4.027659073472023010e-02,8.442372083663940430e-03,1.386311720125377178e-03,1.073300465941429138e-02,1.251345127820968628e-01,7.561518810689449310e-03,-0.000000000000000000e+00,4.514622502028942108e-03,-0.000000000000000000e+00,7.269837427884340286e-03,4.032334778457880020e-03,-0.000000000000000000e+00,1.832778682000935078e-03,-0.000000000000000000e+00,1.311403047293424606e-02,4.154043737798929214e-03,1.044277567416429520e-03,6.444792151451110840e-01,1.190536422654986382e-04,-0.000000000000000000e+00,2.920255996286869049e-02,1.522668730467557907e-02,-0.000000000000000000e+00,-0.000000000000000000e+00,2.644306514412164688e-03,-0.000000000000000000e+00,2.019876381382346153e-03,-0.000000000000000000e+00,2.989771366119384766e-01,-0.000000000000000000e+00,3.885213984176516533e-03,7.837105542421340942e-03,1.630505896173417568e-03,-0.000000000000000000e+00,-0.000000000000000000e+00,4.584830719977617264e-03,-0.000000000000000000e+00,1.309685059823095798e-03,4.561436176300048828e-02,-0.000000000000000000e+00,1.687288656830787659e-02,-0.000000000000000000e+00,4.670997262001037598e-01,2.859364962205290794e-03,2.337913662195205688e-01,7.200282532721757889e-03,9.990666992962360382e-03,-0.000000000000000000e+00,3.767176996916532516e-03,2.960536396130919456e-03,1.438370347023010254e-02,-0.000000000000000000e+00,-0.000000000000000000e+00,3.842749632894992828e-03,1.087267231196165085e-02,-0.000000000000000000e+00,-0.000000000000000000e+00,1.868127845227718353e-02,3.917426336556673050e-03,3.185626864433288574e-02,9.283059276640415192e-03,1.013550907373428345e-02,1.291067572310566902e-03,5.126787349581718445e-03,-0.000000000000000000e+00,4.405042156577110291e-03,-0.000000000000000000e+00,-0.000000000000000000e+00,5.815803539007902145e-03,2.205931693315505981e-01,2.500945702195167542e-03,-0.000000000000000000e+00,8.219950832426548004e-03,1.705912202596664429e-01,-0.000000000000000000e+00,9.139954927377402782e-04,4.913182463496923447e-03,2.223691940307617188e-01,-0.000000000000000000e+00,-0.000000000000000000e+00,5.630090832710266113e-03,3.395897801965475082e-03,1.176724582910537720e-02,-0.000000000000000000e+00,-0.000000000000000000e+00,-0.000000000000000000e+00,3.471826668828725815e-03,-0.000000000000000000e+00,-0.000000000000000000e+00,1.061935350298881531e-02,1.624702289700508118e-02,3.206495894119143486e-03,1.513339346274733543e-03,-0.000000000000000000e+00,1.469226117478683591e-05,-0.000000000000000000e+00,1.417562179267406464e-02,4.001099616289138794e-03,-0.000000000000000000e+00,1.199832797050476074e+00,7.542018778622150421e-03,3.305015154182910919e-03,1.650156825780868530e-02,-0.000000000000000000e+00,1.700645834207534790e-01,8.456492796540260315e-03,-0.000000000000000000e+00,6.987813860177993774e-03,-0.000000000000000000e+00,-0.000000000000000000e+00,4.452843219041824341e-03,3.833755385130643845e-03,-0.000000000000000000e+00,2.869516378268599510e-03,8.013814222067594528e-04,1.120969420298933983e-03,-0.000000000000000000e+00,1.743780449032783508e-04,-0.000000000000000000e+00,-0.000000000000000000e+00,1.632307888939976692e-03,-0.000000000000000000e+00,1.155181787908077240e-02,-0.000000000000000000e+00,-0.000000000000000000e+00,-0.000000000000000000e+00,6.014066562056541443e-02,1.391198765486478806e-02,1.960475184023380280e-02,-0.000000000000000000e+00,5.718454718589782715e-03,-0.000000000000000000e+00,7.691136561334133148e-04,2.470791223458945751e-04,5.018809344619512558e-03,3.305854974314570427e-03,-0.000000000000000000e+00,-0.000000000000000000e+00,4.704291932284832001e-03,-0.000000000000000000e+00,1.780439284630119801e-03,-0.000000000000000000e+00,1.615211833268404007e-03,-0.000000000000000000e+00,5.393504165112972260e-03,-0.000000000000000000e+00,-0.000000000000000000e+00,1.754708960652351379e-02,3.727584262378513813e-04,3.024397604167461395e-02,3.619018709287047386e-03,3.231435269117355347e-02,-0.000000000000000000e+00,-0.000000000000000000e+00,4.911271482706069946e-02,3.096023108810186386e-03,-0.000000000000000000e+00,-0.000000000000000000e+00,2.297984994947910309e-02,3.688763361424207687e-03,2.465975412633270025e-04,-0.000000000000000000e+00,1.207181364297866821e-01,-0.000000000000000000e+00,-0.000000000000000000e+00,2.941491082310676575e-03,-0.000000000000000000e+00,2.420056378468871117e-03,-0.000000000000000000e+00,2.409465378150343895e-03,3.062984673306345940e-03,-0.000000000000000000e+00,-0.000000000000000000e+00,-0.000000000000000000e+00,-0.000000000000000000e+00,2.941208658739924431e-03,4.649274633266031742e-04,-0.000000000000000000e+00,1.811120891943573952e-03
6.316051818430423737e-03,1.121334265917539597e-02,-0.000000000000000000e+00,-0.000000000000000000e+00,-0.000000000000000000e+00,1.368952565826475620e-03,6.069185677915811539e-03,1.546233613044023514e-02,6.736103445291519165e-03,3.846162697300314903e-03,-0.000000000000000000e+00,-0.000000000000000000e+00,2.734739100560545921e-03,-0.000000000000000000e+00,-0.000000000000000000e+00,1.773444935679435730e-02,2.854152582585811615e-03,2.618450298905372620e-02,1.734348013997077942e-02,2.552486397325992584e-02,1.351506914943456650e-02,9.050057269632816315e-03,4.140523727983236313e-03,-0.000000000000000000e+00,3.010201500728726387e-03,8.364157751202583313e-03,4.135676659643650055e-03,3.515878459438681602e-03,4.423674661666154861e-03,1.099739037454128265e-02,3.382106544449925423e-03,-0.000000000000000000e+00,-0.000000000000000000e+00,2.686485648155212402e-03,-0.000000000000000000e+00,1.466174703091382980e-02,2.516859956085681915e-02,1.178353279829025269e-02,9.961545001715421677e-04,1.902499794960021973e-02,-0.000000000000000000e+00,-0.000000000000000000e+00,-0.000000000000000000e+00,3.451987169682979584e-03,-0.000000000000000000e+00,5.014155525714159012e-03,-0.000000000000000000e+00,-0.000000000000000000e+00,-0.000000000000000000e+00,7.709906436502933502e-03,3.519482444971799850e-03,8.559233509004116058e-03,-0.000000000000000000e+00,-0.000000000000000000e+00,3.269822336733341217e-03,-0.000000000000000000e+00,6.490122526884078979e-03,1.379534602165222168e-02,7.174506783485412598e-03,-0.000000000000000000e+00,6.435886025428771973e-03,6.835829466581344604e-03,4.010972566902637482e-03,-0.000000000000000000e+00,9.577997028827667236e-03,9.761849651113152504e-04,3.448292985558509827e-02,1.653057336807250977e-02,2.539481036365032196e-02,5.938482470810413361e-03,2.260020747780799866e-02,1.846997253596782684e-02,1.491448190063238144e-02,-0.000000000000000000e+00,-0.000000000000000000e+00,2.845552051439881325e-03,4.078417085111141205e-03,-0.000000000000000000e+00,1.176435686647891998e-02,-0.000000000000000000e+00,-0.000000000000000000e+00,2.349011227488517761e-02,2.104881964623928070e-02,1.601266860961914062e-02,3.359411656856536865e-02,1.066680997610092163e-01,4.997043870389461517e-03,6.102327723056077957e-03,5.300791468471288681e-03,3.399240784347057343e-03,5.707379896193742752e-03,5.382213741540908813e-03,3.346318146213889122e-03,1.480272854678332806e-03,1.633176952600479126e-02,1.211002562195062637e-02,-0.000000000000000000e+00,3.662971546873450279e-03,2.885153982788324356e-03,9.083158336579799652e-03,5.554201547056436539e-03,6.799323949962854385e-03,-0.000000000000000000e+00,-0.000000000000000000e+00,-0.000000000000000000e+00,9.306741878390312195e-03,3.087853081524372101e-03,9.738457389175891876e-03,-0.000000000000000000e+00,1.040139049291610718e-02,8.415028452873229980e-03,5.908649181947112083e-04,-0.000000000000000000e+00,-0.000000000000000000e+00,2.084790728986263275e-03,2.774655260145664215e-02,1.299408450722694397e-02,-0.000000000000000000e+00,2.012348966673016548e-03,4.119708668440580368e-03,1.996814459562301636e-02,6.563516333699226379e-03,-0.000000000000000000e+00,1.018430665135383606e-02,-0.000000000000000000e+00,1.999591104686260223e-02,7.209971547126770020e-03,-0.000000000000000000e+00,7.269336842000484467e-03,3.465073648840188980e-03,3.920797258615493774e-03,9.440034627914428711e-04,4.716620221734046936e-02,4.034136421978473663e-03,-0.000000000000000000e+00,-0.000000000000000000e+00,9.810432791709899902e-03,3.604365978389978409e-03,5.265675485134124756e-03,-0.000000000000000000e+00,-0.000000000000000000e+00,8.313930593430995941e-04,-0.000000000000000000e+00,5.420922301709651947e-03,3.819610690698027611e-03,3.671949729323387146e-03,4.480966832488775253e-03,-0.000000000000000000e+00,-0.000000000000000000e+00,-0.000000000000000000e+00,-0.000000000000000000e+00,-0.000000000000000000e+00,5.810488946735858917e-04,1.028812956064939499e-02,-0.000000000000000000e+00,-0.000000000000000000e+00,-0.000000000000000000e+00,-0.000000000000000000e+00,-0.000000000000000000e+00,-0.000000000000000000e+00,4.443260841071605682e-03,-0.000000000000000000e+00,4.999696277081966400e-03,4.568798933178186417e-03,-0.000000000000000000e+00,1.855059713125228882e-02,1.946179196238517761e-02,-0.000000000000000000e+00,-0.000000000000000000e+00,5.332912784069776535e-03,6.693987175822257996e-03,6.033249199390411377e-03,9.626717306673526764e-03,3.119918983429670334e-04,5.006055347621440887e-03,9.059481322765350342e-03,-0.000000000000000000e+00,-0.000000000000000000e+00,1.959151215851306915e-02,4.329131450504064560e-03,1.023670192807912827e-03,6.449057254940271378e-03,1.383212115615606308e-02,4.967201966792345047e-03,8.581219241023063660e-03,-0.000000000000000000e+00,-0.000000000000000000e+00,1.880960306152701378e-03,1.236375048756599426e-02,-0.000000000000000000e+00,1.566471997648477554e-03,-0.000000000000000000e+00,2.426256891340017319e-03,-0.000000000000000000e+00,1.342468243092298508e-02,3.317506238818168640e-02,-0.000000000000000000e+00,-0.000000000000000000e+00,-0.000000000000000000e+00,-0.000000000000000000e+00,1.055860193446278572e-03,-0.000000000000000000e+00,1.777636935003101826e-03,-0.000000000000000000e+00,3.706570714712142944e-03,2.410748507827520370e-03,-0.000000000000000000e+00,1.293419953435659409e-02,1.275312504731118679e-03,5.098223336972296238e-04,2.686723135411739349e-03,-0.000000000000000000e+00,-0.000000000000000000e+00,-0.000000000000000000e+00,2.907078247517347336e-03,3.398177213966846466e-03,-0.000000000000000000e+00,1.102710375562310219e-04,2.702930010855197906e-03,3.395177656784653664e-03,2.092410996556282043e-02,-0.000000000000000000e+00,-0.000000000000000000e+00,-0.000000000000000000e+00,3.342483658343553543e-03,2.140372525900602341e-04,-0.000000000000000000e+00,-0.000000000000000000e+00,-0.000000000000000000e+00,-0.000000000000000000e+00,7.955226115882396698e-03,-0.000000000000000000e+00,2.709560096263885498e-03,4.270920529961585999e-03,-0.000000000000000000e+00,3.744051558896899223e-03,2.623061649501323700e-03,-0.000000000000000000e+00,-0.000000000000000000e+00,3.125177463516592979e-03,-0.000000000000000000e+00,-0.000000000000000000e+00,-0.000000000000000000e+00,2.953632269054651260e-03,-0.000000000000000000e+00,-0.000000000000000000e+00,8.499593473970890045e-03,8.529057726263999939e-03,3.756819525733590126e-03,4.685999825596809387e-02,1.562611013650894165e-02,1.781001500785350800e-02,-0.000000000000000000e+00,2.454708144068717957e-02,1.039459928870201111e-02,-0.000000000000000000e+00,-0.000000000000000000e+00,7.498444058001041412e-03,5.187187343835830688e-03,-0.000000000000000000e+00,-0.000000000000000000e+00,2.410531975328922272e-03,1.652003265917301178e-02,4.713564645498991013e-03,1.368629187345504761e-02,5.448614712804555893e-03,1.513809524476528168e-02,4.928128328174352646e-03,1.496246084570884705e-02,1.170306466519832611e-02,1.143170893192291260e-02,4.795044194906949997e-03,1.981053873896598816e-02,2.486499026417732239e-02,1.915960758924484253e-02,1.696249283850193024e-02,1.638183183968067169e-02,-0.000000000000000000e+00,4.173886962234973907e-03,-0.000000000000000000e+00,1.203261781483888626e-02,2.825058065354824066e-03,1.933141844347119331e-03,-0.000000000000000000e+00,2.464554039761424065e-03,1.606493955478072166e-03,2.475687302649021149e-03,1.677585579454898834e-02,-0.000000000000000000e+00,-0.000000000000000000e+00,-0.000000000000000000e+00,3.368866629898548126e-03,4.488544538617134094e-03,3.909841645509004593e-03,5.108624231070280075e-03,-0.000000000000000000e+00,-0.000000000000000000e+00,3.559852950274944305e-03,-0.000000000000000000e+00,-0.000000000000000000e+00,4.255129490047693253e-03,8.715422824025154114e-03,2.580238133668899536e-02,1.660145935602486134e-03,6.271852254867553711e-01,-0.000000000000000000e+00,8.996765129268169403e-03,2.885181922465562820e-03,-0.000000000000000000e+00,4.335553850978612900e-03,6.521727889776229858e-03,-0.000000000000000000e+00,-0.000000000000000000e+00,3.018003143370151520e-02,-0.000000000000000000e+00,7.715205196291208267e-03,-0.000000000000000000e+00,2.054078504443168640e-02,3.148544579744338989e-02,1.046617515385150909e-02,2.857821993529796600e-03,-0.000000000000000000e+00,-0.000000000000000000e+00,-0.000000000000000000e+00,5.499758291989564896e-03,1.634027063846588135e-02,5.257349461317062378e-03,3.182967659085988998e-03,-0.000000000000000000e+00,3.638868685811758041e-03,-0.000000000000000000e+00,4.580141510814428329e-03,1.018485333770513535e-02,-0.000000000000000000e+00,5.387582350522279739e-04,4.159812256693840027e-02,8.942770771682262421e-03,3.921529650688171387e-02,1.434248685836791992e-02,1.662064343690872192e-02,9.374198503792285919e-03,1.186415366828441620e-02,-0.000000000000000000e+00,1.586307538673281670e-03,1.053771702572703362e-03,4.576692590489983559e-04,-0.000000000000000000e+00,8.981569670140743256e-03,6.944188382476568222e-03,6.889713695272803307e-04,2.293040789663791656e-02,4.860369954258203506e-03,2.755487104877829552e-03,-0.000000000000000000e+00,-0.000000000000000000e+00,-0.000000000000000000e+00,3.226036904379725456e-03,6.328362040221691132e-03,2.758315764367580414e-02,3.286858322098851204e-03,1.706432737410068512e-02,1.119051780551671982e-02,1.518714590929448605e-03,9.514377452433109283e-04,3.692561294883489609e-03,-0.000000000000000000e+00,-0.000000000000000000e+00,2.390961395576596260e-03,2.735532354563474655e-03
6.044773384928703308e-03,3.180334111675620079e-03,8.160262368619441986e-03,-0.000000000000000000e+00,-0.000000000000000000e+00,1.051223138347268105e-03,2.185460180044174194e-02,2.420665696263313293e-03,3.546970547176897526e-04,9.416374377906322479e-04,8.037823252379894257e-03,-0.000000000000000000e+00,5.471079144626855850e-03,9.883346967399120331e-03,-0.000000000000000000e+00,6.696965079754590988e-03,4.477400216273963451e-04,1.109778601676225662e-02,2.697358839213848114e-03,2.110928669571876526e-02,1.274907216429710388e-02,2.941711805760860443e-03,6.189360283315181732e-03,-0.000000000000000000e+00,-0.000000000000000000e+00,-0.000000000000000000e+00,1.880070194602012634e-02,-0.000000000000000000e+00,4.300735425204038620e-03,3.808158682659268379e-03,4.608026647474616766e-04,1.135060004889965057e-02,-0.000000000000000000e+00,5.569934000959619880e-05,3.112979931756854057e-03,-0.000000000000000000e+00,6.996355950832366943e-03,-0.000000000000000000e+00,3.475900739431381226e-04,6.182299852371215820e-01,-0.000000000000000000e+00,3.094890620559453964e-03,-0.000000000000000000e+00,3.148102667182683945e-03,6.688362918794155121e-03,1.404206966981291771e-03,-0.000000000000000000e+00,8.753370493650436401e-03,-0.000000000000000000e+00,1.048118062317371368e-02,5.065795034170150757e-03,7.220468483865261078e-03,-0.000000000000000000e+00,-0.000000000000000000e+00,5.118736065924167633e-03,4.204239696264266968e-03,1.162458397448062897e-02,5.415173713117837906e-03,6.252164021134376526e-03,5.992017686367034912e-03,2.254948485642671585e-03,8.994462899863719940e-03,1.488504651933908463e-02,1.695138053037226200e-03,1.772855408489704132e-03,4.179726354777812958e-03,1.897162874229252338e-03,1.023573800921440125e-02,9.493735618889331818e-03,2.691666036844253540e-02,1.779129612259566784e-03,5.040210206061601639e-03,1.911062188446521759e-02,8.151836693286895752e-03,-0.000000000000000000e+00,-0.000000000000000000e+00,6.499323062598705292e-03,6.949871312826871872e-03,2.772598061710596085e-03,-0.000000000000000000e+00,-0.000000000000000000e+00,5.442763213068246841e-03,1.789036206901073456e-02,1.544955968856811523e-01,2.677226811647415161e-02,-0.000000000000000000e+00,-0.000000000000000000e+00,1.281363237649202347e-02,1.257377024739980698e-02,-0.000000000000000000e+00,1.612354069948196411e-02,7.419758941978216171e-03,1.408873940818011761e-03,7.126256357878446579e-03,-0.000000000000000000e+00,8.117440156638622284e-03,-0.000000000000000000e+00,4.172676708549261093e-03,3.315476700663566589e-03,2.835964551195502281e-03,1.016584318131208420e-02,-0.000000000000000000e+00,1.574897393584251404e-02,-0.000000000000000000e+00,7.802178733982145786e-04,1.140994392335414886e-02,2.791948383674025536e-03,1.236920431256294250e-02,-0.000000000000000000e+00,2.464100252836942673e-03,1.079433877021074295e-02,2.547904476523399353e-02,-0.000000000000000000e+00,-0.000000000000000000e+00,-0.000000000000000000e+00,1.059495937079191208e-02,4.318293184041976929e-03,-0.000000000000000000e+00,-0.000000000000000000e+00,2.981153666041791439e-04,3.936850465834140778e-03,3.171210875734686852e-03,-0.000000000000000000e+00,2.521447604522109032e-04,9.676252603530883789e-01,6.178220734000205994e-03,3.769238293170928955e-02,-0.000000000000000000e+00,-0.000000000000000000e+00,4.670556518249213696e-05,5.148348398506641388e-03,4.716609604656696320e-03,7.304043974727392197e-04,-0.000000000000000000e+00,4.510051105171442032e-03,-0.000000000000000000e+00,9.082102216780185699e-03,1.090043690055608749e-02,3.820794867351651192e-03,9.064082056283950806e-03,1.050194492563605309e-03,-0.000000000000000000e+00,-0.000000000000000000e+00,1.689014211297035217e-02,4.116182215511798859e-03,2.031532349064946175e-04,9.858225472271442413e-03,-0.000000000000000000e+00,-0.000000000000000000e+00,5.141973122954368591e-02,8.167983032763004303e-03,-0.000000000000000000e+00,-0.000000000000000000e+00,9.318104013800621033e-03,-0.000000000000000000e+00,-0.000000000000000000e+00,-0.000000000000000000e+00,-0.000000000000000000e+00,-0.000000000000000000e+00,-0.000000000000000000e+00,-0.000000000000000000e+00,-0.000000000000000000e+00,1.760374382138252258e-02,8.399300277233123779e-03,-0.000000000000000000e+00,-0.000000000000000000e+00,-0.000000000000000000e+00,6.410677917301654816e-03,-0.000000000000000000e+00,7.544316351413726807e-03,5.477601196616888046e-03,8.919718675315380096e-03,4.625095985829830170e-03,5.985232070088386536e-03,9.081583470106124878e-03,4.721008706837892532e-03,3.154355660080909729e-02,-0.000000000000000000e+00,-0.000000000000000000e+00,-0.000000000000000000e+00,-0.000000000000000000e+00,3.902698867022991180e-03,1.365071721374988556e-02,6.108819041401147842e-03,1.094381790608167648e-02,1.284780725836753845e-02,-0.000000000000000000e+00,3.320820163935422897e-03,1.870648562908172607e-02,-0.000000000000000000e+00,8.903809823095798492e-03,4.515605513006448746e-03,3.815369447693228722e-03,3.770069684833288193e-03,1.066747028380632401e-02,2.375754155218601227e-02,9.511284297332167625e-04,6.635371595621109009e-03,-0.000000000000000000e+00,1.120303850620985031e-02,5.743087735027074814e-03,-0.000000000000000000e+00,-0.000000000000000000e+00,-0.000000000000000000e+00,3.711679019033908844e-03,1.923037489177659154e-04,-0.000000000000000000e+00,1.185136660933494568e-02,1.040078047662973404e-02,-0.000000000000000000e+00,-0.000000000000000000e+00,9.554714895784854889e-03,2.959641627967357635e-03,-0.000000000000000000e+00,8.653980679810047150e-03,-0.000000000000000000e+00,-0.000000000000000000e+00,1.013978570699691772e-02,1.289426442235708237e-02,3.655466251075267792e-03,-0.000000000000000000e+00,-0.000000000000000000e+00,8.358966559171676636e-03,1.885857433080673218e-03,2.382162027060985565e-03,1.564647443592548370e-02,-0.000000000000000000e+00,2.749775769189000130e-03,1.033905241638422012e-02,-0.000000000000000000e+00,2.230942016467452049e-03,1.384496339596807957e-03,1.208878383040428162e-01,5.641064606606960297e-03,-0.000000000000000000e+00,5.354057624936103821e-02,-0.000000000000000000e+00,-0.000000000000000000e+00,9.006629697978496552e-04,-0.000000000000000000e+00,3.310853848233819008e-03,1.252743788063526154e-02,-0.000000000000000000e+00,-0.000000000000000000e+00,1.089328667148947716e-03,-0.000000000000000000e+00,4.112946800887584686e-03,2.059476822614669800e-02,6.579843815416097641e-03,-0.000000000000000000e+00,1.180409081280231476e-02,9.223096072673797607e-03,-0.000000000000000000e+00,3.777650743722915649e-02,5.014635156840085983e-03,-0.000000000000000000e+00,-0.000000000000000000e+00,2.463427605107426643e-03,1.102892123162746429e-02,-0.000000000000000000e+00,1.157501013949513435e-03,-0.000000000000000000e+00,6.683359146118164062e-01,2.971898764371871948e-02,1.046015601605176926e-02,1.236150637269020081e-01,2.143901772797107697e-03,5.294827278703451157e-03,2.015767153352499008e-03,-0.000000000000000000e+00,1.195707824081182480e-02,5.036021117120981216e-03,1.542866928502917290e-03,6.833703373558819294e-04,-0.000000000000000000e+00,3.466904163360595703e-04,-0.000000000000000000e+00,-0.000000000000000000e+00,1.635471591725945473e-03,1.870866632089018822e-03,1.617162115871906281e-02,-0.000000000000000000e+00,3.927109763026237488e-03,3.542508780956268311e-01,2.192347310483455658e-03,-0.000000000000000000e+00,3.404352115467190742e-03,-0.000000000000000000e+00,-0.000000000000000000e+00,-0.000000000000000000e+00,2.225716225802898407e-02,-0.000000000000000000e+00,6.024581380188465118e-03,-0.000000000000000000e+00,4.775181878358125687e-03,1.651422062423080206e-04,-0.000000000000000000e+00,1.682474464178085327e-02,4.434454254806041718e-03,2.304922090843319893e-03,4.337918944656848907e-03,1.177166122943162918e-03,4.525267984718084335e-03,-0.000000000000000000e+00,-0.000000000000000000e+00,3.365734359249472618e-03,-0.000000000000000000e+00,-0.000000000000000000e+00,-0.000000000000000000e+00,1.743361912667751312e-02,7.262044120579957962e-03,7.434525527060031891e-03,-0.000000000000000000e+00,5.728189367800951004e-03,5.805091932415962219e-03,-0.000000000000000000e+00,6.896498613059520721e-03,1.368636637926101685e-02,1.252639107406139374e-02,-0.000000000000000000e+00,-0.000000000000000000e+00,5.980471149086952209e-03,5.069592036306858063e-03,2.129653468728065491e-03,1.056270860135555267e-02,-0.000000000000000000e+00,1.802219427190721035e-03,-0.000000000000000000e+00,1.848228741437196732e-03,1.536648720502853394e-03,-0.000000000000000000e+00,1.370539539493620396e-04,-0.000000000000000000e+00,-0.000000000000000000e+00,5.774618475697934628e-04,-0.000000000000000000e+00,1.599830342456698418e-03,4.171554930508136749e-03,2.039448730647563934e-02,1.371289696544408798e-02,-0.000000000000000000e+00,6.895088590681552887e-04,-0.000000000000000000e+00,1.661260612308979034e-02,6.177587900310754776e-03,-0.000000000000000000e+00,2.912763971835374832e-03,-0.000000000000000000e+00,-0.000000000000000000e+00,1.794900599634274840e-04,-0.000000000000000000e+00,5.482460372149944305e-03,1.485126093029975891e-02,4.673561546951532364e-03,-0.000000000000000000e+00,-0.000000000000000000e+00,-0.000000000000000000e+00,1.373400096781551838e-03,2.772851847112178802e-03,-0.000000000000000000e+00,4.351390525698661804e-02,8.304720744490623474e-03,4.756113630719482899e-04,-0.000000000000000000e+00,-0.000000000000000000e+00,-0.000000000000000000e+00,-0.000000000000000000e+00,6.719830911606550217e-03,7.923913188278675079e-03
4.044305533170700073e-03,-0.000000000000000000e+00,-0.000000000000000000e+00,-0.000000000000000000e+00,-0.000000000000000000e+00,-0.000000000000000000e+00,-0.000000000000000000e+00,8.546883240342140198e-03,-0.000000000000000000e+00,-0.000000000000000000e+00,-0.000000000000000000e+00,-0.000000000000000000e+00,-0.000000000000000000e+00,-0.000000000000000000e+00,-0.000000000000000000e+00,-0.000000000000000000e+00,-0.000000000000000000e+00,-0.000000000000000000e+00,-0.000000000000000000e+00,-0.000000000000000000e+00,-0.000000000000000000e+00,2.651019720360636711e-03,1.084524951875209808e-02,-0.000000000000000000e+00,-0.000000000000000000e+00,-0.000000000000000000e+00,1.262865066528320312e-01,-0.000000000000000000e+00,1.393981045112013817e-03,-0.000000000000000000e+00,-0.000000000000000000e+00,1.068230997771024704e-02,-0.000000000000000000e+00,-0.000000000000000000e+00,-0.000000000000000000e+00,-0.000000000000000000e+00,-0.000000000000000000e+00,1.479561567306518555e+00,9.659242033958435059e-01,-0.000000000000000000e+00,1.374575018882751465e+00,1.332985162734985352e+00,-0.000000000000000000e+00,3.002171404659748077e-03,-0.000000000000000000e+00,-0.000000000000000000e+00,-0.000000000000000000e+00,-0.000000000000000000e+00,-0.000000000000000000e+00,6.221583113074302673e-03,-0.000000000000000000e+00,-0.000000000000000000e+00,-0.000000000000000000e+00,-0.000000000000000000e+00,7.908721454441547394e-03,-0.000000000000000000e+00,-0.000000000000000000e+00,-0.000000000000000000e+00,-0.000000000000000000e+00,-0.000000000000000000e+00,-0.000000000000000000e+00,-0.000000000000000000e+00,1.449398789554834366e-02,-0.000000000000000000e+00,1.305095758289098740e-02,-0.000000000000000000e+00,4.158776253461837769e-03,7.662156224250793457e-01,-0.000000000000000000e+00,-0.000000000000000000e+00,-0.000000000000000000e+00,1.170422881841659546e-02,-0.000000000000000000e+00,2.583302557468414307e-03,-0.000000000000000000e+00,3.092581639066338539e-03,-0.000000000000000000e+00,5.365047138184309006e-03,1.936735003255307674e-03,9.904757607728242874e-04,-0.000000000000000000e+00,8.214268833398818970e-03,7.161554414778947830e-03,5.879227537661790848e-04,2.387805376201868057e-03,-0.000000000000000000e+00,2.647363841533660889e-01,1.133772492408752441e+00,-0.000000000000000000e+00,-0.000000000000000000e+00,1.195617437362670898e+00,-0.000000000000000000e+00,-0.000000000000000000e+00,-0.000000000000000000e+00,1.219181995838880539e-02,1.054473686963319778e-02,2.635211218148469925e-03,1.111407428979873657e-01,1.454857110977172852e+00,-0.000000000000000000e+00,-0.000000000000000000e+00,2.264833688735961914e+00,1.129315979778766632e-02,-0.000000000000000000e+00,-0.000000000000000000e+00,5.054947920143604279e-03,3.382897078990936279e-01,5.870606899261474609e-01,6.156218647956848145e-01,3.179617524147033691e-01,1.213944673538208008e+00,1.282535791397094727e+00,1.963484100997447968e-03,5.488202441483736038e-04,-0.000000000000000000e+00,-0.000000000000000000e+00,-0.000000000000000000e+00,-0.000000000000000000e+00,3.164110332727432251e-02,-0.000000000000000000e+00,-0.000000000000000000e+00,1.800838974304497242e-03,-0.000000000000000000e+00,6.908079376444220543e-04,3.525410592555999756e-02,7.133039645850658417e-03,3.839647024869918823e-02,-0.000000000000000000e+00,-0.000000000000000000e+00,-0.000000000000000000e+00,3.296702401712536812e-03,1.049541588872671127e-02,1.393457315862178802e-02,7.313641253858804703e-03,2.658580197021365166e-03,-0.000000000000000000e+00,6.856456398963928223e-03,1.029140781611204147e-02,-0.000000000000000000e+00,5.443345010280609131e-02,3.481650054454803467e-01,-0.000000000000000000e+00,-0.000000000000000000e+00,5.292055662721395493e-03,4.027906805276870728e-03,3.901868127286434174e-03,1.750354170799255371e-01,-0.000000000000000000e+00,3.772774012759327888e-03,1.004391466267406940e-03,2.824658155441284180e-01,-0.000000000000000000e+00,1.224649837240576744e-03,4.128931905142962933e-04,1.675318577326834202e-03,-0.000000000000000000e+00,-0.000000000000000000e+00,-0.000000000000000000e+00,1.393424998968839645e-02,2.311408752575516701e-03,6.904578767716884613e-03,-0.000000000000000000e+00,1.842397078871726990e-02,3.143267035484313965e-01,6.647741887718439102e-03,-0.000000000000000000e+00,-0.000000000000000000e+00,-0.000000000000000000e+00,-0.000000000000000000e+00,-0.000000000000000000e+00,-0.000000000000000000e+00,1.307044744491577148e+00,1.482876062393188477e+00,1.413312833756208420e-02,8.188080191612243652e-01,1.668046414852142334e-02,1.672532036900520325e-02,-0.000000000000000000e+00,1.402621855959296227e-04,2.276149019598960876e-02,6.520509254187345505e-03,-0.000000000000000000e+00,5.811596289277076721e-03,-0.000000000000000000e+00,6.781916134059429169e-03,-0.000000000000000000e+00,1.050791859626770020e+00,1.694940589368343353e-02,-0.000000000000000000e+00,7.857349514961242676e-01,3.423365950584411621e-02,5.499451886862516403e-03,5.650712177157402039e-03,-0.000000000000000000e+00,8.235795423388481140e-03,-0.000000000000000000e+00,-0.000000000000000000e+00,2.648427896201610565e-02,-0.000000000000000000e+00,-0.000000000000000000e+00,1.678646774962544441e-03,6.324413698166608810e-04,-0.000000000000000000e+00,-0.000000000000000000e+00,4.697944503277540207e-03,-0.000000000000000000e+00,3.604498878121376038e-02,9.410121478140354156e-03,4.805578850209712982e-03,-0.000000000000000000e+00,-0.000000000000000000e+00,1.226990763098001480e-02,2.969030989333987236e-03,6.360439117997884750e-03,9.249529801309108734e-03,-0.000000000000000000e+00,-0.000000000000000000e+00,4.383600056171417236e-01,3.833499504253268242e-03,3.745488077402114868e-02,3.611472435295581818e-03,2.011627331376075745e-02,4.722384363412857056e-02,1.158599741756916046e-02,-0.000000000000000000e+00,3.239911049604415894e-02,-0.000000000000000000e+00,5.395014882087707520e-01,2.408963441848754883e-02,1.379235461354255676e-02,4.457613918930292130e-03,2.551382221281528473e-02,1.465423032641410828e-02,1.231648400425910950e-01,-0.000000000000000000e+00,1.908689551055431366e-02,8.764121681451797485e-03,-0.000000000000000000e+00,1.978068053722381592e-02,2.011660719290375710e-03,5.430984869599342346e-02,2.023719996213912964e-02,6.263825576752424240e-03,-0.000000000000000000e+00,1.276639103889465332e-02,6.658517289906740189e-03,-0.000000000000000000e+00,-0.000000000000000000e+00,6.205301284790039062e-01,5.443377494812011719e-01,3.083293093368411064e-03,8.181129582226276398e-03,4.566106796264648438e-01,-0.000000000000000000e+00,4.680765792727470398e-03,1.345113385468721390e-03,2.158584829885512590e-04,-0.000000000000000000e+00,-0.000000000000000000e+00,-0.000000000000000000e+00,-0.000000000000000000e+00,-0.000000000000000000e+00,5.180498119443655014e-03,-0.000000000000000000e+00,-0.000000000000000000e+00,-0.000000000000000000e+00,-0.000000000000000000e+00,3.932968713343143463e-03,-0.000000000000000000e+00,-0.000000000000000000e+00,7.644700352102518082e-03,-0.000000000000000000e+00,-0.000000000000000000e+00,-0.000000000000000000e+00,-0.000000000000000000e+00,-0.000000000000000000e+00,7.262544240802526474e-03,-0.000000000000000000e+00,4.387234337627887726e-03,8.561507463455200195e-01,1.021815929561853409e-02,3.758229315280914307e-03,-0.000000000000000000e+00,5.450012162327766418e-03,3.244520165026187897e-03,-0.000000000000000000e+00,2.766068875789642334e-01,-0.000000000000000000e+00,-0.000000000000000000e+00,-0.000000000000000000e+00,1.201930046081542969e+00,9.032711386680603027e-03,1.131526708602905273e+00,5.648424383252859116e-03,7.469651699066162109e-01,7.143930997699499130e-03,3.406405914574861526e-03,4.622425884008407593e-03,2.876071957871317863e-03,-0.000000000000000000e+00,5.346123944036662579e-04,5.288081709295511246e-03,1.445153320673853159e-04,1.244922634214162827e-03,4.344072192907333374e-03,-0.000000000000000000e+00,1.147338072769343853e-03,-0.000000000000000000e+00,-0.000000000000000000e+00,-0.000000000000000000e+00,2.681528218090534210e-02,4.044845700263977051e-03,2.299741841852664948e-03,4.161329939961433411e-03,-0.000000000000000000e+00,-0.000000000000000000e+00,2.567888982594013214e-02,1.069488003849983215e-02,3.085050557274371386e-04,1.357158552855253220e-02,-0.000000000000000000e+00,4.216007888317108154e-02,1.081063644960522652e-03,-0.000000000000000000e+00,-0.000000000000000000e+00,-0.000000000000000000e+00,1.173664000816643238e-03,-0.000000000000000000e+00,-0.000000000000000000e+00,-0.000000000000000000e+00,1.916648470796644688e-03,-0.000000000000000000e+00,1.501794457435607910e+00,-0.000000000000000000e+00,-0.000000000000000000e+00,-0.000000000000000000e+00,-0.000000000000000000e+00,2.140740863978862762e-02,8.825891651213169098e-03,6.644613575190305710e-03,4.209258127957582474e-03,1.614703331142663956e-03,-0.000000000000000000e+00,2.419129461050033569e-01,7.318295836448669434e-01,-0.000000000000000000e+00,5.592728964984416962e-03,-0.000000000000000000e+00,5.433158017694950104e-03,4.199930932372808456e-03,-0.000000000000000000e+00,-0.000000000000000000e+00,1.821650937199592590e-02,-0.000000000000000000e+00,-0.000000000000000000e+00,1.645301282405853271e-02,-0.000000000000000000e+00,-0.000000000000000000e+00,3.517270088195800781e-02,-0.000000000000000000e+00,-0.000000000000000000e+00,-0.000000000000000000e+00,5.490905605256557465e-03,-0.000000000000000000e+00,1.829498214647173882e-03,-0.000000000000000000e+00,8.820123672485351562e-01,4.806583456229418516e-04,1.918961852788925171e-02
-0.000000000000000000e+00,-0.000000000000000000e+00,-0.000000000000000000e+00,-0.000000000000000000e+00,-0.000000000000000000e+00,2.319836057722568512e-03,5.569144152104854584e-03,1.110988929867744446e-01,-0.000000000000000000e+00,2.168656326830387115e-03,8.862009644508361816e-01,2.956463992595672607e-01,3.900547511875629425e-03,3.717217594385147095e-03,-0.000000000000000000e+00,-0.000000000000000000e+00,3.291302826255559921e-03,-0.000000000000000000e+00,7.837149314582347870e-03,4.180316347628831863e-03,2.713365256786346436e-01,2.293086051940917969e-02,1.182315722107887268e-01,1.160534024238586426e-01,7.091283332556486130e-03,8.898515370674431324e-04,8.016169071197509766e-03,-0.000000000000000000e+00,4.371101967990398407e-03,-0.000000000000000000e+00,2.092057140544056892e-03,1.532243564724922180e-02,-0.000000000000000000e+00,9.632321307435631752e-04,1.922669034684076905e-04,4.083578940480947495e-03,3.522330429404973984e-03,-0.000000000000000000e+00,-0.000000000000000000e+00,-0.000000000000000000e+00,-0.000000000000000000e+00,-0.000000000000000000e+00,-0.000000000000000000e+00,1.251368317753076553e-02,-0.000000000000000000e+00,2.128045633435249329e-02,-0.000000000000000000e+00,-0.000000000000000000e+00,-0.000000000000000000e+00,5.861263722181320190e-03,-0.000000000000000000e+00,8.793895132839679718e-03,-0.000000000000000000e+00,-0.000000000000000000e+00,9.727350436151027679e-03,5.004815291613340378e-03,8.743719081394374371e-04,-0.000000000000000000e+00,-0.000000000000000000e+00,-0.000000000000000000e+00,-0.000000000000000000e+00,1.446712203323841095e-02,5.201399326324462891e-02,8.821246214210987091e-03,2.271552756428718567e-02,-0.000000000000000000e+00,4.331213887780904770e-03,1.030402816832065582e-02,5.319342948496341705e-03,-0.000000000000000000e+00,1.224038936197757721e-02,3.398619592189788818e-02,3.918561618775129318e-03,-0.000000000000000000e+00,-0.000000000000000000e+00,7.619300391525030136e-03,4.203524440526962280e-03,3.404771676287055016e-03,1.070479210466146469e-02,5.265393108129501343e-02,1.016390547156333923e-01,9.404494427144527435e-03,1.749082654714584351e-02,1.376809086650609970e-02,2.370570302009582520e-01,7.280543446540832520e-03,4.677412100136280060e-03,9.523788467049598694e-03,1.266579143702983856e-02,3.599327523261308670e-03,3.934388514608144760e-03,7.610262371599674225e-03,-0.000000000000000000e+00,1.767821431159973145e+00,7.661915849894285202e-03,5.617516636848449707e-01,2.683409303426742554e-02,3.271354828029870987e-03,1.372154336422681808e-03,-0.000000000000000000e+00,9.708737730979919434e-01,2.297558933496475220e-01,6.041220389306545258e-03,5.549173802137374878e-02,-0.000000000000000000e+00,1.028513815253973007e-02,3.563882783055305481e-03,3.589155152440071106e-03,-0.000000000000000000e+00,9.010022506117820740e-03,1.507679652422666550e-02,4.736339673399925232e-03,-0.000000000000000000e+00,5.890182219445705414e-03,4.556156636681407690e-04,-0.000000000000000000e+00,4.676450043916702271e-02,-0.000000000000000000e+00,-0.000000000000000000e+00,4.153698100708425045e-04,-0.000000000000000000e+00,-0.000000000000000000e+00,-0.000000000000000000e+00,6.266472861170768738e-03,3.303389251232147217e-02,9.646512567996978760e-03,1.115819346159696579e-02,-0.000000000000000000e+00,-0.000000000000000000e+00,5.866767466068267822e-02,3.339394554495811462e-02,-0.000000000000000000e+00,5.648095607757568359e-01,-0.000000000000000000e+00,2.260257257148623466e-03,1.599178649485111237e-04,-0.000000000000000000e+00,-0.000000000000000000e+00,1.110109034925699234e-02,2.804147778078913689e-03,4.223363008350133896e-03,-0.000000000000000000e+00,3.477876186370849609e-01,5.336532369256019592e-03,3.050285857170820236e-03,-0.000000000000000000e+00,7.428137063980102539e-01,-0.000000000000000000e+00,-0.000000000000000000e+00,1.544350234325975180e-04,8.746357634663581848e-03,-0.000000000000000000e+00,1.553021284053102136e-04,-0.000000000000000000e+00,-0.000000000000000000e+00,-0.000000000000000000e+00,-0.000000000000000000e+00,-0.000000000000000000e+00,5.218067090027034283e-04,-0.000000000000000000e+00,8.320888876914978027e-01,-0.000000000000000000e+00,1.374786626547574997e-02,9.391590952873229980e-03,2.565988600254058838e-01,7.078368663787841797e-01,-0.000000000000000000e+00,-0.000000000000000000e+00,1.381989866495132446e-01,-0.000000000000000000e+00,3.242071485146880150e-03,9.219212457537651062e-03,6.951132789254188538e-03,2.698459289968013763e-02,1.374227367341518402e-02,3.564327061176300049e-01,-0.000000000000000000e+00,1.160076702944934368e-03,2.312242239713668823e-01,4.622915759682655334e-03,4.063620567321777344e-01,6.093112826347351074e-01,1.450259983539581299e-02,1.450341492891311646e-01,2.120119519531726837e-02,1.515085697174072266e-01,2.605662681162357330e-03,3.844258608296513557e-03,-0.000000000000000000e+00,2.600574400275945663e-03,-0.000000000000000000e+00,4.026175010949373245e-03,4.470115993171930313e-03,1.867782557383179665e-04,1.169125512242317200e-01,-0.000000000000000000e+00,1.135835610330104828e-02,-0.000000000000000000e+00,1.091759186238050461e-02,5.330973491072654724e-02,4.673855379223823547e-03,4.127676784992218018e-01,-0.000000000000000000e+00,-0.000000000000000000e+00,-0.000000000000000000e+00,4.204129800200462341e-03,4.465136528015136719e-01,9.710829704999923706e-03,1.373954350128769875e-03,6.638076156377792358e-03,-0.000000000000000000e+00,6.094534415751695633e-03,1.788760907948017120e-02,1.440000720322132111e-03,7.186913397163152695e-03,1.033558882772922516e-02,-0.000000000000000000e+00,2.261361032724380493e-01,4.463435616344213486e-03,4.736395087093114853e-03,5.846381187438964844e-01,1.093578874133527279e-03,-0.000000000000000000e+00,-0.000000000000000000e+00,-0.000000000000000000e+00,7.325329352170228958e-05,1.095177489332854748e-03,4.383439198136329651e-03,1.193725969642400742e-02,-0.000000000000000000e+00,6.839880347251892090e-02,5.777140613645315170e-03,1.400947198271751404e-02,7.207940798252820969e-03,-0.000000000000000000e+00,4.053595662117004395e-01,-0.000000000000000000e+00,1.546935830265283585e-02,9.706925600767135620e-03,-0.000000000000000000e+00,-0.000000000000000000e+00,1.773658394813537598e-02,-0.000000000000000000e+00,-0.000000000000000000e+00,-0.000000000000000000e+00,1.761721447110176086e-03,2.932722866535186768e-01,1.928449794650077820e-02,4.410943016409873962e-03,3.955925628542900085e-02,1.013160347938537598e+00,9.511292912065982819e-03,-0.000000000000000000e+00,4.051625728607177734e-01,5.304617807269096375e-03,-0.000000000000000000e+00,5.931117921136319637e-04,-0.000000000000000000e+00,7.043263874948024750e-03,-0.000000000000000000e+00,2.646670211106538773e-03,-0.000000000000000000e+00,6.230179667472839355e-01,-0.000000000000000000e+00,3.258713521063327789e-03,4.546186421066522598e-03,3.330511273816227913e-03,2.025894373655319214e-01,-0.000000000000000000e+00,-0.000000000000000000e+00,4.341414198279380798e-03,3.673294791951775551e-03,2.381387166678905487e-02,-0.000000000000000000e+00,-0.000000000000000000e+00,-0.000000000000000000e+00,6.947723031044006348e-02,-0.000000000000000000e+00,2.068290859460830688e-01,-0.000000000000000000e+00,1.578127592802047729e-02,3.400183282792568207e-03,-0.000000000000000000e+00,2.330309338867664337e-02,2.352452371269464493e-03,-0.000000000000000000e+00,1.792646199464797974e-02,3.300867741927504539e-03,-0.000000000000000000e+00,-0.000000000000000000e+00,1.009243354201316833e-01,1.064439583569765091e-02,5.406047217547893524e-03,5.939966067671775818e-03,7.695958483964204788e-03,-0.000000000000000000e+00,-0.000000000000000000e+00,4.072705633006989956e-04,-0.000000000000000000e+00,-0.000000000000000000e+00,8.733185939490795135e-03,7.239792495965957642e-02,7.650058250874280930e-06,4.921794752590358257e-04,3.212532028555870056e-03,4.912347532808780670e-03,-0.000000000000000000e+00,-0.000000000000000000e+00,-0.000000000000000000e+00,2.726925909519195557e-01,1.837220788002014160e-02,2.135286480188369751e-02,-0.000000000000000000e+00,1.602830132469534874e-03,-0.000000000000000000e+00,-0.000000000000000000e+00,-0.000000000000000000e+00,1.590408943593502045e-02,-0.000000000000000000e+00,-0.000000000000000000e+00,3.924449440091848373e-03,-0.000000000000000000e+00,-0.000000000000000000e+00,-0.000000000000000000e+00,6.957825738936662674e-03,-0.000000000000000000e+00,9.472129167988896370e-04,-0.000000000000000000e+00,1.055537257343530655e-03,-0.000000000000000000e+00,-0.000000000000000000e+00,-0.000000000000000000e+00,5.074436776340007782e-03,3.485839366912841797e-01,-0.000000000000000000e+00,-0.000000000000000000e+00,-0.000000000000000000e+00,7.358357310295104980e-03,1.569292508065700531e-02,6.714805960655212402e-02,1.565628452226519585e-03,6.123282015323638916e-03,4.880057275295257568e-02,1.268829964101314545e-02,8.352845907211303711e-03,-0.000000000000000000e+00,5.798462778329849243e-03,2.898156177252531052e-03,-0.000000000000000000e+00,-0.000000000000000000e+00,-0.000000000000000000e+00,-0.000000000000000000e+00,1.378179620951414108e-02,-0.000000000000000000e+00,-0.000000000000000000e+00,4.985954146832227707e-03,9.898913558572530746e-04,-0.000000000000000000e+00,2.456276677548885345e-02,8.813361637294292450e-03,2.254592254757881165e-03,-0.000000000000000000e+00,-0.000000000000000000e+00,-0.000000000000000000e+00,4.924364387989044189e-03,-0.000000000000000000e+00,9.905933984555304050e-05,-0.000000000000000000e+00,7.910549174994230270e-04
