-0.000000000000000000e+00,-0.000000000000000000e+00,-0.000000000000000000e+00,-0.000000000000000000e+00,-0.000000000000000000e+00,5.742989378632046282e-05,-0.000000000000000000e+00,2.464713901281356812e-02,2.133124172687530518e-01,2.928744852542877197e-01,-0.000000000000000000e+00,4.033153951168060303e-01,-0.000000000000000000e+00,6.755206268280744553e-03,-0.000000000000000000e+00,3.479764983057975769e-02,-0.000000000000000000e+00,3.170011639595031738e-01,1.505827903747558594e-01,1.405488103628158569e-01,-0.000000000000000000e+00,2.499539107084274292e-01,2.711604582145810127e-03,5.532686710357666016e-01,4.229678213596343994e-01,2.590872347354888916e-02,-0.000000000000000000e+00,-0.000000000000000000e+00,1.027580380439758301e+00,3.520456850528717041e-01,1.187744271010160446e-02,7.603595964610576630e-03,1.844906061887741089e-02,-0.000000000000000000e+00,1.096507906913757324e-01,4.924835171550512314e-03,3.929509520530700684e-01,1.028302788734436035e+00,-0.000000000000000000e+00,1.579270325601100922e-02,1.774752140045166016e-02,-0.000000000000000000e+00,-0.000000000000000000e+00,6.259418092668056488e-03,2.387427259236574173e-03,3.049755236133933067e-03,3.969222307205200195e-03,1.586886942386627197e-01,-0.000000000000000000e+00,1.654166379012167454e-03,5.141459777951240540e-02,2.675549089908599854e-01,3.607626259326934814e-01,9.402829408645629883e-02,-0.000000000000000000e+00,-0.000000000000000000e+00,-0.000000000000000000e+00,3.299484029412269592e-02,2.993328571319580078e-01,4.124137107282876968e-03,1.005830913782119751e-01,3.848209278658032417e-03,7.197714410722255707e-03,3.799289697781205177e-04,6.110783815383911133e-01,6.549100279808044434e-01,7.376371882855892181e-03,1.896725967526435852e-03,1.711785316467285156e+00,1.788408495485782623e-02,2.078039571642875671e-02,-0.000000000000000000e+00,1.243155837059020996e+00,1.249278664588928223e+00,-0.000000000000000000e+00,4.199667833745479584e-03,-0.000000000000000000e+00,-0.000000000000000000e+00,5.607088208198547363e-01,1.999147422611713409e-02,2.035253564827144146e-04,1.507772207260131836e+00,2.287024166435003281e-03,-0.000000000000000000e+00,5.775276571512222290e-02,2.436466217041015625e+00,1.075754880905151367e+00,2.740917503833770752e-01,1.742855086922645569e-02,4.121923353523015976e-03,1.668110728263854980e+00,-0.000000000000000000e+00,3.202846040949225426e-03,1.498398780822753906e-01,2.620372533798217773e+00,7.634282112121582031e-01,4.885526895523071289e-01,-0.000000000000000000e+00,7.529620081186294556e-03,-0.000000000000000000e+00,2.264259338378906250e+00,1.056426525115966797e+00,6.572077982127666473e-03,1.066403090953826904e-02,-0.000000000000000000e+00,8.850312791764736176e-03,-0.000000000000000000e+00,2.356601953506469727e+00,-0.000000000000000000e+00,-0.000000000000000000e+00,-0.000000000000000000e+00,-0.000000000000000000e+00,-0.000000000000000000e+00,-0.000000000000000000e+00,8.008467964828014374e-03,1.941136956214904785e+00,3.233858346939086914e-01,-0.000000000000000000e+00,1.472317148000001907e-02,1.133491277694702148e+00,1.780151009559631348e+00,9.979293346405029297e-01,1.808868721127510071e-02,-0.000000000000000000e+00,-0.000000000000000000e+00,1.343266367912292480e+00,1.324658980593085289e-03,-0.000000000000000000e+00,8.877531886100769043e-01,-0.000000000000000000e+00,-0.000000000000000000e+00,-0.000000000000000000e+00,2.017593145370483398e+00,6.826932076364755630e-03,1.023807562887668610e-02,-0.000000000000000000e+00,8.564662421122193336e-04,-0.000000000000000000e+00,2.150418281555175781e+00,2.168865408748388290e-03,8.227407932281494141e-03,7.506165504455566406e-01,-0.000000000000000000e+00,2.194756176322698593e-03,4.445527680218219757e-03,-0.000000000000000000e+00,3.526626154780387878e-02,-0.000000000000000000e+00,-0.000000000000000000e+00,-0.000000000000000000e+00,2.063504187390208244e-03,-0.000000000000000000e+00,-0.000000000000000000e+00,2.538004703819751740e-02,7.328706234693527222e-02,-0.000000000000000000e+00,-0.000000000000000000e+00,-0.000000000000000000e+00,-0.000000000000000000e+00,-0.000000000000000000e+00,2.980385674163699150e-03,-0.000000000000000000e+00,7.114561740309000015e-04,3.431924805045127869e-02,3.712000092491507530e-03,2.181059122085571289e+00,3.113949112594127655e-02,-0.000000000000000000e+00,6.029151082038879395e-01,9.281332604587078094e-03,4.656160715967416763e-03,-0.000000000000000000e+00,-0.000000000000000000e+00,-0.000000000000000000e+00,2.058948040008544922e+00,2.605167329311370850e-01,-0.000000000000000000e+00,2.676464058458805084e-02,-0.000000000000000000e+00,-0.000000000000000000e+00,1.043356537818908691e+00,4.890716634690761566e-03,3.026274964213371277e-02,4.851441364735364914e-03,2.347302623093128204e-02,4.661310929805040359e-03,-0.000000000000000000e+00,1.634768676012754440e-03,1.096994042396545410e+00,2.663559280335903168e-02,3.560241544619202614e-03,-0.000000000000000000e+00,7.798540405929088593e-03,1.374521851539611816e+00,1.169979691505432129e+00,9.808924794197082520e-01,-0.000000000000000000e+00,-0.000000000000000000e+00,-0.000000000000000000e+00,-0.000000000000000000e+00,1.041702747344970703e+00,-0.000000000000000000e+00,-0.000000000000000000e+00,3.829391207545995712e-03,-0.000000000000000000e+00,1.976941013708710670e-03,4.126213025301694870e-03,-0.000000000000000000e+00,-0.000000000000000000e+00,-0.000000000000000000e+00,2.881945343688130379e-03,-0.000000000000000000e+00,-0.000000000000000000e+00,-0.000000000000000000e+00,-0.000000000000000000e+00,-0.000000000000000000e+00,5.695911124348640442e-02,-0.000000000000000000e+00,-0.000000000000000000e+00,-0.000000000000000000e+00,9.731106758117675781e-01,-0.000000000000000000e+00,-0.000000000000000000e+00,-0.000000000000000000e+00,9.140810966491699219e-01,-0.000000000000000000e+00,-0.000000000000000000e+00,-0.000000000000000000e+00,-0.000000000000000000e+00,-0.000000000000000000e+00,2.448466122150421143e-01,-0.000000000000000000e+00,-0.000000000000000000e+00,-0.000000000000000000e+00,-0.000000000000000000e+00,-0.000000000000000000e+00,-0.000000000000000000e+00,-0.000000000000000000e+00,-0.000000000000000000e+00,-0.000000000000000000e+00,-0.000000000000000000e+00,1.396910229232162237e-04,-0.000000000000000000e+00,6.366638541221618652e-01,-0.000000000000000000e+00,1.975227060029283166e-04,1.700698256492614746e+00,2.406856976449489594e-03,-0.000000000000000000e+00,1.629310011863708496e+00,6.975789070129394531e-01,-0.000000000000000000e+00,8.365526795387268066e-01,2.185598611831665039e+00,1.742493391036987305e+00,-0.000000000000000000e+00,2.664730884134769440e-02,-0.000000000000000000e+00,5.422559753060340881e-02,1.996615901589393616e-02,-0.000000000000000000e+00,7.174620777368545532e-02,9.084233641624450684e-01,4.974935650825500488e-01,3.986556231975555420e-01,5.344053506851196289e-01,9.692705869674682617e-01,1.027233481407165527e+00,3.611646890640258789e-01,9.811378121376037598e-01,1.940844347700476646e-03,1.271673560142517090e+00,1.817336082458496094e+00,2.178742736577987671e-02,3.822698891162872314e-01,7.242494225502014160e-01,1.111979842185974121e+00,1.779393106698989868e-02,-0.000000000000000000e+00,-0.000000000000000000e+00,7.675879001617431641e-01,9.290701709687709808e-03,1.281991600990295410e-03,1.624277443625032902e-03,7.700341343879699707e-01,-0.000000000000000000e+00,-0.000000000000000000e+00,6.458510756492614746e-01,-0.000000000000000000e+00,-0.000000000000000000e+00,2.760827541351318359e+00,-0.000000000000000000e+00,-0.000000000000000000e+00,-0.000000000000000000e+00,-0.000000000000000000e+00,6.529726088047027588e-03,-0.000000000000000000e+00,-0.000000000000000000e+00,-0.000000000000000000e+00,1.071808207780122757e-02,1.234269380569458008e+00,-0.000000000000000000e+00,7.127436343580484390e-03,-0.000000000000000000e+00,2.618546423036605120e-04,1.126510614994913340e-04,3.744935244321823120e-02,1.125833112746477127e-02,1.067055272869765759e-03,1.330221910029649734e-02,-0.000000000000000000e+00,2.936932025477290154e-03,-0.000000000000000000e+00,1.890022866427898407e-02,1.863809674978256226e-02,2.036991529166698456e-02,1.291349291801452637e+00,-0.000000000000000000e+00,8.256606459617614746e-01,7.680380251258611679e-03,1.547918748110532761e-02,-0.000000000000000000e+00,-0.000000000000000000e+00,1.166714914143085480e-02,3.226147174835205078e+00,2.102818250656127930e+00,-0.000000000000000000e+00,-0.000000000000000000e+00,3.870775923132896423e-03,-0.000000000000000000e+00,-0.000000000000000000e+00,-0.000000000000000000e+00,-0.000000000000000000e+00,-0.000000000000000000e+00,1.390708639519289136e-04,-0.000000000000000000e+00,-0.000000000000000000e+00,-0.000000000000000000e+00,-0.000000000000000000e+00,7.223318098112940788e-04,4.060610663145780563e-03,5.167661309242248535e-01,5.351432561874389648e-01,-0.000000000000000000e+00,-0.000000000000000000e+00,-0.000000000000000000e+00,-0.000000000000000000e+00,-0.000000000000000000e+00,-0.000000000000000000e+00,2.980397548526525497e-04,1.813469082117080688e-02,-0.000000000000000000e+00,-0.000000000000000000e+00,-0.000000000000000000e+00,-0.000000000000000000e+00,-0.000000000000000000e+00,-0.000000000000000000e+00,-0.000000000000000000e+00,3.521679434925317764e-03,-0.000000000000000000e+00,-0.000000000000000000e+00,3.334243549033999443e-03,-0.000000000000000000e+00,2.626558244228363037e-01,-0.000000000000000000e+00,3.494353033602237701e-03,-0.000000000000000000e+00,-0.000000000000000000e+00,6.104187574237585068e-03
7.324524922296404839e-04,1.810904708690941334e-03,1.588138699531555176e+00,2.099489560350775719e-03,5.525433421134948730e-01,1.687878668308258057e-01,7.661714553833007812e-01,-0.000000000000000000e+00,-0.000000000000000000e+00,6.095314398407936096e-03,-0.000000000000000000e+00,9.486482739448547363e-01,-0.000000000000000000e+00,-0.000000000000000000e+00,1.189892530441284180e+00,2.085313899442553520e-03,9.451507031917572021e-02,-0.000000000000000000e+00,4.178619384765625000e-02,-0.000000000000000000e+00,-0.000000000000000000e+00,-0.000000000000000000e+00,-0.000000000000000000e+00,-0.000000000000000000e+00,-0.000000000000000000e+00,-0.000000000000000000e+00,1.873836040496826172e+00,9.968711137771606445e-01,7.770940428599715233e-04,1.812425325624644756e-03,2.563443779945373535e-01,-0.000000000000000000e+00,4.012356698513031006e-01,4.658388497773557901e-04,8.692365139722824097e-03,-0.000000000000000000e+00,9.575657546520233154e-03,-0.000000000000000000e+00,-0.000000000000000000e+00,-0.000000000000000000e+00,-0.000000000000000000e+00,-0.000000000000000000e+00,-0.000000000000000000e+00,3.229382215067744255e-03,9.661296606063842773e-01,-0.000000000000000000e+00,2.484066970646381378e-02,-0.000000000000000000e+00,-0.000000000000000000e+00,-0.000000000000000000e+00,7.016033865511417389e-03,5.782618187367916107e-03,-0.000000000000000000e+00,3.100245026871562004e-03,-0.000000000000000000e+00,1.164983608759939671e-03,9.799246191978454590e-01,-0.000000000000000000e+00,-0.000000000000000000e+00,3.057892201468348503e-03,2.777242287993431091e-02,-0.000000000000000000e+00,4.917088663205504417e-04,-0.000000000000000000e+00,-0.000000000000000000e+00,1.101050293073058128e-03,3.301588818430900574e-03,-0.000000000000000000e+00,-0.000000000000000000e+00,2.279017686843872070e+00,-0.000000000000000000e+00,-0.000000000000000000e+00,-0.000000000000000000e+00,4.027130082249641418e-03,8.705108165740966797e-01,1.719252467155456543e+00,1.406136035919189453e+00,4.009434282779693604e-01,2.558224601671099663e-03,-0.000000000000000000e+00,1.507400302216410637e-03,-0.000000000000000000e+00,-0.000000000000000000e+00,3.902222029864788055e-03,-0.000000000000000000e+00,-0.000000000000000000e+00,2.715938091278076172e+00,1.053610723465681076e-02,1.127979019656777382e-03,-0.000000000000000000e+00,5.807308014482259750e-03,-0.000000000000000000e+00,2.778139314614236355e-04,-0.000000000000000000e+00,-0.000000000000000000e+00,2.037510043010115623e-03,-0.000000000000000000e+00,3.938705660402774811e-03,3.059814311563968658e-02,-0.000000000000000000e+00,2.309084124863147736e-02,2.583664655685424805e+00,2.675029390957206488e-04,-0.000000000000000000e+00,2.421848475933074951e-03,5.012780893594026566e-03,2.400917053222656250e+00,2.719276905059814453e+00,1.338422205299139023e-02,9.411825798451900482e-03,1.079717883840203285e-03,-0.000000000000000000e+00,1.653220891952514648e+00,-0.000000000000000000e+00,-0.000000000000000000e+00,-0.000000000000000000e+00,-0.000000000000000000e+00,-0.000000000000000000e+00,1.802537441253662109e+00,1.542735262773931026e-04,-0.000000000000000000e+00,-0.000000000000000000e+00,2.430746098980307579e-04,-0.000000000000000000e+00,-0.000000000000000000e+00,-0.000000000000000000e+00,-0.000000000000000000e+00,-0.000000000000000000e+00,-0.000000000000000000e+00,3.370988415554165840e-03,2.310485363006591797e+00,2.881137887015938759e-03,-0.000000000000000000e+00,-0.000000000000000000e+00,9.811458876356482506e-04,-0.000000000000000000e+00,2.162795513868331909e-03,7.017949596047401428e-03,7.917841430753469467e-04,1.743470788002014160e+00,1.790900249034166336e-03,-0.000000000000000000e+00,4.332927055656909943e-03,3.774133205413818359e+00,7.901557255536317825e-04,1.694536089897155762e+00,-0.000000000000000000e+00,3.022004365921020508e+00,1.823279023170471191e+00,1.742032542824745178e-02,2.342957258224487305e+00,1.289512157440185547e+00,-0.000000000000000000e+00,-0.000000000000000000e+00,-0.000000000000000000e+00,-0.000000000000000000e+00,1.379830121994018555e+00,-0.000000000000000000e+00,-0.000000000000000000e+00,-0.000000000000000000e+00,-0.000000000000000000e+00,-0.000000000000000000e+00,-0.000000000000000000e+00,4.721230268478393555e-02,-0.000000000000000000e+00,-0.000000000000000000e+00,-0.000000000000000000e+00,-0.000000000000000000e+00,-0.000000000000000000e+00,-0.000000000000000000e+00,-0.000000000000000000e+00,-0.000000000000000000e+00,3.184092760086059570e+00,-0.000000000000000000e+00,-0.000000000000000000e+00,7.198017556220293045e-03,9.973151981830596924e-02,3.012018045410513878e-03,4.040585830807685852e-03,-0.000000000000000000e+00,1.563469268148764968e-04,-0.000000000000000000e+00,-0.000000000000000000e+00,2.752473831176757812e+00,1.575420141220092773e+00,3.390336642041802406e-03,4.586655180901288986e-03,1.560506343841552734e+00,1.690589124336838722e-03,3.895743936300277710e-02,6.408457644283771515e-03,9.599773883819580078e-01,-0.000000000000000000e+00,2.767996549606323242e+00,1.921054482460021973e+00,-0.000000000000000000e+00,-0.000000000000000000e+00,-0.000000000000000000e+00,7.276259828358888626e-03,1.331478543579578400e-02,-0.000000000000000000e+00,-0.000000000000000000e+00,4.305703639984130859e-01,-0.000000000000000000e+00,4.401837475597858429e-03,3.709951415657997131e-03,-0.000000000000000000e+00,-0.000000000000000000e+00,-0.000000000000000000e+00,6.936191581189632416e-03,6.485878955572843552e-03,-0.000000000000000000e+00,2.569534117355942726e-03,-0.000000000000000000e+00,-0.000000000000000000e+00,6.584140937775373459e-04,-0.000000000000000000e+00,5.907723680138587952e-03,1.663217425346374512e+00,1.348624099045991898e-02,-0.000000000000000000e+00,1.946558952331542969e+00,1.391256690025329590e+00,3.933925181627273560e-03,1.335499226115643978e-03,-0.000000000000000000e+00,1.725484490394592285e+00,-0.000000000000000000e+00,3.284056186676025391e+00,2.410251379013061523e+00,-0.000000000000000000e+00,7.922257781028747559e-01,-0.000000000000000000e+00,-0.000000000000000000e+00,1.359020233154296875e+00,-0.000000000000000000e+00,8.764869570732116699e-01,-0.000000000000000000e+00,6.243362277746200562e-02,1.262099742889404297e-01,3.020105063915252686e-01,6.750918691977858543e-05,2.371861133724451065e-03,-0.000000000000000000e+00,1.353845596313476562e+00,1.381082653999328613e+00,-0.000000000000000000e+00,-0.000000000000000000e+00,-0.000000000000000000e+00,-0.000000000000000000e+00,-0.000000000000000000e+00,2.460512399673461914e+00,-0.000000000000000000e+00,-0.000000000000000000e+00,2.192772692069411278e-03,3.306924819946289062e+00,-0.000000000000000000e+00,-0.000000000000000000e+00,2.840755939483642578e+00,9.798136539757251740e-03,-0.000000000000000000e+00,3.497099736705422401e-03,-0.000000000000000000e+00,-0.000000000000000000e+00,2.532205078750848770e-03,3.225035667419433594e-01,5.370864644646644592e-03,2.989354431629180908e-01,2.642228454351425171e-02,1.044300198554992676e+00,-0.000000000000000000e+00,1.018274109810590744e-03,3.134272410534322262e-04,2.299266634508967400e-04,-0.000000000000000000e+00,2.837211608886718750e+00,2.044177532196044922e+00,1.751780390739440918e+00,-0.000000000000000000e+00,-0.000000000000000000e+00,2.849507611244916916e-03,3.047167882323265076e-02,-0.000000000000000000e+00,-0.000000000000000000e+00,1.928152982145547867e-03,-0.000000000000000000e+00,-0.000000000000000000e+00,-0.000000000000000000e+00,-0.000000000000000000e+00,-0.000000000000000000e+00,1.752998113632202148e+00,4.595541860908269882e-03,1.615296840667724609e+00,6.744640995748341084e-04,3.285947084426879883e+00,-0.000000000000000000e+00,-0.000000000000000000e+00,-0.000000000000000000e+00,-0.000000000000000000e+00,5.845086183398962021e-03,2.304451942443847656e+00,-0.000000000000000000e+00,1.993403071537613869e-03,1.079959154129028320e+00,7.583546452224254608e-03,1.005070842802524567e-02,-0.000000000000000000e+00,2.989608095958828926e-03,7.123559247702360153e-03,1.178019773215055466e-02,-0.000000000000000000e+00,-0.000000000000000000e+00,1.963456749916076660e+00,2.772558014839887619e-03,-0.000000000000000000e+00,1.194470562040805817e-02,-0.000000000000000000e+00,-0.000000000000000000e+00,2.067270223051309586e-03,-0.000000000000000000e+00,-0.000000000000000000e+00,-0.000000000000000000e+00,2.448580116033554077e-01,-0.000000000000000000e+00,-0.000000000000000000e+00,-0.000000000000000000e+00,2.104274183511734009e-02,5.769132822751998901e-02,-0.000000000000000000e+00,-0.000000000000000000e+00,-0.000000000000000000e+00,-0.000000000000000000e+00,-0.000000000000000000e+00,-0.000000000000000000e+00,-0.000000000000000000e+00,-0.000000000000000000e+00,6.545590003952383995e-04,-0.000000000000000000e+00,-0.000000000000000000e+00,1.395225990563631058e-05,-0.000000000000000000e+00,-0.000000000000000000e+00,1.687212614342570305e-03,1.488571882247924805e+00,5.903421435505151749e-03,-0.000000000000000000e+00,1.210410799831151962e-02,2.096833705902099609e+00,1.562452793121337891e+00,-0.000000000000000000e+00,-0.000000000000000000e+00,-0.000000000000000000e+00,8.933294448070228100e-04,-0.000000000000000000e+00,-0.000000000000000000e+00,-0.000000000000000000e+00,-0.000000000000000000e+00,-0.000000000000000000e+00,-0.000000000000000000e+00,-0.000000000000000000e+00,-0.000000000000000000e+00,-0.000000000000000000e+00,3.254512266721576452e-04,-0.000000000000000000e+00,-0.000000000000000000e+00,-0.000000000000000000e+00,2.135485876351594925e-03,-0.000000000000000000e+00,4.118872806429862976e-03
5.440997332334518433e-02,9.164863266050815582e-03,3.978280816227197647e-03,5.026370286941528320e-03,3.093679668381810188e-03,4.292129073292016983e-03,4.366045352071523666e-03,-0.000000000000000000e+00,9.807995520532131195e-03,4.402421414852142334e-02,-0.000000000000000000e+00,1.190335005521774292e-01,4.721205681562423706e-03,2.316058799624443054e-02,6.446191575378179550e-03,3.215608373284339905e-02,-0.000000000000000000e+00,3.427710849791765213e-03,6.783114746212959290e-03,1.987826637923717499e-02,2.968660788610577583e-03,5.438516382128000259e-03,-0.000000000000000000e+00,1.147940102964639664e-02,2.663382329046726227e-02,1.786043308675289154e-02,5.825248081237077713e-03,2.855670638382434845e-02,1.442601233720779419e-01,2.453200817108154297e-01,1.250904798507690430e-01,-0.000000000000000000e+00,1.449756696820259094e-02,2.179216034710407257e-02,4.358962178230285645e-03,2.606050074100494385e-01,3.593180775642395020e-01,2.864163219928741455e-01,-0.000000000000000000e+00,2.816151380538940430e-01,2.328087091445922852e+00,-0.000000000000000000e+00,-0.000000000000000000e+00,1.471703313291072845e-02,4.029561299830675125e-03,1.647212356328964233e-02,9.794968180358409882e-03,4.710461944341659546e-03,8.818022906780242920e-03,3.172232303768396378e-03,1.658496633172035217e-02,2.276113023981451988e-03,-0.000000000000000000e+00,1.713378122076392174e-03,-0.000000000000000000e+00,-0.000000000000000000e+00,-0.000000000000000000e+00,1.327362563461065292e-02,2.415405120700597763e-03,3.958075772970914841e-03,4.243939649313688278e-03,4.074978642165660858e-03,7.393816486001014709e-03,1.595857203938066959e-03,5.460005253553390503e-02,4.647396132349967957e-02,1.538928784430027008e-02,2.130130290985107422e+00,8.102768659591674805e-01,2.554825693368911743e-02,1.584702730178833008e+00,2.540052652359008789e+00,1.809811592102050781e-01,8.923768997192382812e-01,-0.000000000000000000e+00,4.628024995326995850e-03,6.513750413432717323e-04,-0.000000000000000000e+00,3.313602805137634277e-01,-0.000000000000000000e+00,3.652603598311543465e-03,1.412970781326293945e+00,1.932838678359985352e+00,1.262545585632324219e+00,3.807079419493675232e-02,3.064138591289520264e-01,8.705647662281990051e-03,9.470959305763244629e-01,1.331385731697082520e+00,1.105497218668460846e-02,5.911008641123771667e-02,-0.000000000000000000e+00,3.990311175584793091e-03,1.413479447364807129e-02,4.049909710884094238e-01,1.040528528392314911e-02,-0.000000000000000000e+00,-0.000000000000000000e+00,7.322388235479593277e-03,1.390510916709899902e+00,1.047403573989868164e+00,1.790662407875061035e-01,-0.000000000000000000e+00,2.293444395065307617e+00,-0.000000000000000000e+00,3.272087872028350830e-01,-0.000000000000000000e+00,1.536254644393920898e+00,-0.000000000000000000e+00,6.780864000320434570e-01,3.070230362936854362e-03,-0.000000000000000000e+00,5.489218048751354218e-03,-0.000000000000000000e+00,5.877820658497512341e-04,1.174446102231740952e-02,1.529129035770893097e-02,-0.000000000000000000e+00,-0.000000000000000000e+00,2.758994102478027344e-01,5.912655615247786045e-05,4.912495240569114685e-02,4.513712599873542786e-03,1.713341684080660343e-03,-0.000000000000000000e+00,9.498733282089233398e-01,9.835650026798248291e-02,-0.000000000000000000e+00,-0.000000000000000000e+00,1.510931849479675293e-01,3.278154507279396057e-02,-0.000000000000000000e+00,1.982093691825866699e+00,4.705677740275859833e-03,1.237664278596639633e-02,-0.000000000000000000e+00,7.160095032304525375e-03,-0.000000000000000000e+00,7.998563814908266068e-04,-0.000000000000000000e+00,1.732540549710392952e-03,1.046361446380615234e+00,-0.000000000000000000e+00,4.662915132939815521e-03,1.174932462163269520e-03,-0.000000000000000000e+00,-0.000000000000000000e+00,-0.000000000000000000e+00,7.020499091595411301e-03,2.405675888061523438e+00,1.957586267963051796e-03,-0.000000000000000000e+00,2.623813692480325699e-03,8.182369172573089600e-03,5.409422516822814941e-01,-0.000000000000000000e+00,-0.000000000000000000e+00,-0.000000000000000000e+00,-0.000000000000000000e+00,-0.000000000000000000e+00,1.425178408622741699e+00,-0.000000000000000000e+00,-0.000000000000000000e+00,8.465157747268676758e-01,1.416503638029098511e-01,-0.000000000000000000e+00,7.375437766313552856e-02,-0.000000000000000000e+00,3.671081736683845520e-03,-0.000000000000000000e+00,-0.000000000000000000e+00,-0.000000000000000000e+00,2.187537727877497673e-03,8.696641307324171066e-04,3.231448829174041748e-01,5.616080164909362793e-01,-0.000000000000000000e+00,-0.000000000000000000e+00,1.662733912467956543e+00,-0.000000000000000000e+00,4.387402907013893127e-03,8.846586942672729492e-01,-0.000000000000000000e+00,4.489091224968433380e-03,2.937220782041549683e-02,2.677874173969030380e-03,4.446232225745916367e-03,-0.000000000000000000e+00,9.887738227844238281e-01,3.398226574063301086e-03,-0.000000000000000000e+00,-0.000000000000000000e+00,9.511142037808895111e-03,1.474377065896987915e-01,3.143110126256942749e-02,8.330467157065868378e-03,-0.000000000000000000e+00,-0.000000000000000000e+00,-0.000000000000000000e+00,-0.000000000000000000e+00,7.728553377091884613e-03,-0.000000000000000000e+00,-0.000000000000000000e+00,-0.000000000000000000e+00,-0.000000000000000000e+00,2.274583326652646065e-03,-0.000000000000000000e+00,2.043539136648178101e-01,-0.000000000000000000e+00,5.450185388326644897e-03,8.726444244384765625e-01,-0.000000000000000000e+00,1.769384555518627167e-02,-0.000000000000000000e+00,-0.000000000000000000e+00,1.404307410120964050e-02,2.639215672388672829e-03,-0.000000000000000000e+00,-0.000000000000000000e+00,-0.000000000000000000e+00,6.026907563209533691e-01,-0.000000000000000000e+00,-0.000000000000000000e+00,-0.000000000000000000e+00,2.218194305896759033e-02,-0.000000000000000000e+00,3.093710402026772499e-03,-0.000000000000000000e+00,-0.000000000000000000e+00,-0.000000000000000000e+00,4.769362509250640869e-01,-0.000000000000000000e+00,5.048942193388938904e-02,-0.000000000000000000e+00,-0.000000000000000000e+00,-0.000000000000000000e+00,-0.000000000000000000e+00,1.852060551755130291e-03,5.906629667151719332e-05,-0.000000000000000000e+00,-0.000000000000000000e+00,-0.000000000000000000e+00,-0.000000000000000000e+00,1.258758008480072021e-01,-0.000000000000000000e+00,-0.000000000000000000e+00,1.959788240492343903e-02,3.169755218550562859e-03,-0.000000000000000000e+00,1.732342839241027832e-01,1.148024457506835461e-03,1.072270236909389496e-02,1.580523103475570679e-01,1.170876622200012207e-02,6.657461822032928467e-02,-0.000000000000000000e+00,-0.000000000000000000e+00,-0.000000000000000000e+00,2.556699812412261963e-01,2.720511257648468018e-01,-0.000000000000000000e+00,5.901885684579610825e-03,2.998980693519115448e-03,6.856195628643035889e-02,6.635982394218444824e-01,7.273538503795862198e-03,9.327960014343261719e-01,2.109346725046634674e-02,1.623940110206604004e+00,2.543145716190338135e-01,-0.000000000000000000e+00,6.340541243553161621e-01,7.714943289756774902e-01,5.063173826783895493e-03,4.607619717717170715e-02,7.137537598609924316e-01,6.107525229454040527e-01,4.850434605032205582e-03,4.434564113616943359e-01,-0.000000000000000000e+00,3.232492506504058838e-02,6.240394711494445801e-01,-0.000000000000000000e+00,4.909215029329061508e-03,6.477528214454650879e-01,4.078322381246834993e-04,-0.000000000000000000e+00,2.275393530726432800e-02,-0.000000000000000000e+00,-0.000000000000000000e+00,2.568217925727367401e-02,1.187434434890747070e+00,5.170232616364955902e-03,-0.000000000000000000e+00,1.547718327492475510e-02,3.528424771502614021e-03,-0.000000000000000000e+00,-0.000000000000000000e+00,-0.000000000000000000e+00,6.230001449584960938e-01,2.254649102687835693e-01,9.779110550880432129e-04,8.115105330944061279e-03,2.002547727897763252e-03,7.267047762870788574e-01,3.253038972616195679e-02,1.077819988131523132e-01,5.344173405319452286e-03,3.147765994071960449e-02,1.500131487846374512e+00,6.608816236257553101e-02,8.230452658608555794e-04,4.153438843786716461e-03,5.316535234451293945e-01,2.343488112092018127e-02,5.064085721969604492e-01,-0.000000000000000000e+00,-0.000000000000000000e+00,1.317683234810829163e-02,1.855665445327758789e-02,1.044209767132997513e-02,-0.000000000000000000e+00,-0.000000000000000000e+00,3.964161500334739685e-03,7.409306708723306656e-03,1.602145284414291382e-02,-0.000000000000000000e+00,-0.000000000000000000e+00,3.822280559688806534e-04,-0.000000000000000000e+00,-0.000000000000000000e+00,-0.000000000000000000e+00,-0.000000000000000000e+00,-0.000000000000000000e+00,5.166906863451004028e-03,6.282991915941238403e-02,3.462980268523097038e-03,2.291893819347023964e-03,3.415121755097061396e-04,1.200096607208251953e+00,4.211087245494127274e-03,6.078134775161743164e-01,1.542097143828868866e-02,-0.000000000000000000e+00,8.558414876461029053e-03,-0.000000000000000000e+00,1.353417988866567612e-02,-0.000000000000000000e+00,-0.000000000000000000e+00,-0.000000000000000000e+00,-0.000000000000000000e+00,1.034378036856651306e-01,1.204228214919567108e-02,-0.000000000000000000e+00,-0.000000000000000000e+00,-0.000000000000000000e+00,-0.000000000000000000e+00,1.258041476830840111e-03,3.219493199139833450e-03,1.897193375043570995e-03,1.895409449934959412e-02,3.200218547135591507e-03,-0.000000000000000000e+00,1.933520101010799408e-02,-0.000000000000000000e+00,-0.000000000000000000e+00,-0.000000000000000000e+00,-0.000000000000000000e+00,-0.000000000000000000e+00
4.502347204834222794e-03,-0.000000000000000000e+00,2.596815349534153938e-03,-0.000000000000000000e+00,-0.000000000000000000e+00,-0.000000000000000000e+00,-0.000000000000000000e+00,-0.000000000000000000e+00,-0.000000000000000000e+00,-0.000000000000000000e+00,-0.000000000000000000e+00,-0.000000000000000000e+00,-0.000000000000000000e+00,-0.000000000000000000e+00,-0.000000000000000000e+00,-0.000000000000000000e+00,-0.000000000000000000e+00,-0.000000000000000000e+00,-0.000000000000000000e+00,-0.000000000000000000e+00,-0.000000000000000000e+00,4.082961007952690125e-03,4.793004598468542099e-03,-0.000000000000000000e+00,-0.000000000000000000e+00,-0.000000000000000000e+00,8.857315778732299805e-01,-0.000000000000000000e+00,3.314703702926635742e-01,-0.000000000000000000e+00,-0.000000000000000000e+00,-0.000000000000000000e+00,-0.000000000000000000e+00,5.088097229599952698e-02,-0.000000000000000000e+00,-0.000000000000000000e+00,4.818279296159744263e-03,2.325141103938221931e-03,1.093253254890441895e+00,7.559235207736492157e-03,8.050779812037944794e-03,1.321000099182128906e+00,3.088739467784762383e-04,-0.000000000000000000e+00,-0.000000000000000000e+00,1.463496126234531403e-02,2.503769937902688980e-03,6.902280729264020920e-03,-0.000000000000000000e+00,-0.000000000000000000e+00,4.461552016437053680e-03,2.311688847839832306e-03,3.412565682083368301e-03,4.817005246877670288e-03,-0.000000000000000000e+00,-0.000000000000000000e+00,1.579035422764718533e-03,4.180984571576118469e-03,-0.000000000000000000e+00,-0.000000000000000000e+00,-0.000000000000000000e+00,-0.000000000000000000e+00,4.526652395725250244e-03,5.389327183365821838e-03,-0.000000000000000000e+00,7.339653559029102325e-03,-0.000000000000000000e+00,-0.000000000000000000e+00,5.796054843813180923e-03,-0.000000000000000000e+00,8.915624022483825684e-02,1.457216501235961914e+00,-0.000000000000000000e+00,-0.000000000000000000e+00,-0.000000000000000000e+00,1.031473278999328613e-03,2.840021334122866392e-04,-0.000000000000000000e+00,-0.000000000000000000e+00,-0.000000000000000000e+00,-0.000000000000000000e+00,-0.000000000000000000e+00,5.675151348114013672e-01,1.430580951273441315e-02,1.539322920143604279e-02,-0.000000000000000000e+00,1.368657220155000687e-02,8.556937798857688904e-03,1.746406406164169312e-01,1.742125372402369976e-03,2.985309110954403877e-03,1.614935159683227539e+00,4.001959692686796188e-03,2.665827982127666473e-03,-0.000000000000000000e+00,4.135726951062679291e-03,-0.000000000000000000e+00,5.062525160610675812e-03,8.035732507705688477e-01,-0.000000000000000000e+00,2.015736341476440430e+00,1.771872639656066895e+00,2.988570213317871094e+00,7.000266108661890030e-03,6.547129750251770020e-01,-0.000000000000000000e+00,1.122499942779541016e+00,-0.000000000000000000e+00,-0.000000000000000000e+00,-0.000000000000000000e+00,5.241826176643371582e-01,1.960266351699829102e+00,4.150418937206268311e-02,6.745504215359687805e-04,-0.000000000000000000e+00,3.556836396455764771e-02,3.149758875370025635e-01,-0.000000000000000000e+00,9.885638952255249023e-03,-0.000000000000000000e+00,2.389791887253522873e-03,1.747366599738597870e-02,1.709167100489139557e-02,5.913081578910350800e-03,3.032593242824077606e-02,2.108698245137929916e-03,9.435616731643676758e-01,-0.000000000000000000e+00,-0.000000000000000000e+00,-0.000000000000000000e+00,-0.000000000000000000e+00,-0.000000000000000000e+00,1.434251898899674416e-04,5.079851485788822174e-03,7.873601317405700684e-01,-0.000000000000000000e+00,-0.000000000000000000e+00,-0.000000000000000000e+00,1.342982292175292969e+00,4.589480757713317871e-01,1.235576625913381577e-02,-0.000000000000000000e+00,-0.000000000000000000e+00,4.263684619218111038e-03,-0.000000000000000000e+00,-0.000000000000000000e+00,4.345898050814867020e-03,1.642370130866765976e-03,7.545694243162870407e-03,1.401777505874633789e+00,7.192696630954742432e-02,-0.000000000000000000e+00,4.035096615552902222e-02,-0.000000000000000000e+00,1.623313291929662228e-03,-0.000000000000000000e+00,-0.000000000000000000e+00,-0.000000000000000000e+00,-0.000000000000000000e+00,-0.000000000000000000e+00,-0.000000000000000000e+00,-0.000000000000000000e+00,4.981684088706970215e-01,2.589948009699583054e-03,2.189992927014827728e-03,1.688238620758056641e+00,-0.000000000000000000e+00,-0.000000000000000000e+00,6.273972392082214355e-01,-0.000000000000000000e+00,-0.000000000000000000e+00,1.926792263984680176e+00,1.028246879577636719e+00,7.562767863273620605e-01,1.829049348831176758e+00,2.726661739870905876e-03,2.096921391785144806e-02,1.210360646247863770e+00,-0.000000000000000000e+00,-0.000000000000000000e+00,1.554394245147705078e+00,-0.000000000000000000e+00,4.081202447414398193e-01,2.565922215580940247e-03,1.522658020257949829e-01,-0.000000000000000000e+00,2.345815896987915039e+00,7.955024242401123047e-01,1.359345670789480209e-02,1.664681315422058105e+00,3.976436331868171692e-02,2.369843050837516785e-02,1.857341825962066650e-02,1.126546502113342285e+00,-0.000000000000000000e+00,-0.000000000000000000e+00,7.930909991264343262e-01,2.515683136880397797e-02,-0.000000000000000000e+00,-0.000000000000000000e+00,3.623755276203155518e-01,-0.000000000000000000e+00,2.451196778565645218e-04,3.802680373191833496e-01,-0.000000000000000000e+00,-0.000000000000000000e+00,2.198862791061401367e+00,-0.000000000000000000e+00,-0.000000000000000000e+00,2.469086170196533203e+00,-0.000000000000000000e+00,1.791479229927062988e+00,1.141289830207824707e+00,-0.000000000000000000e+00,4.531991183757781982e-01,-0.000000000000000000e+00,3.137832507491111755e-03,2.650269985198974609e+00,7.293741106986999512e-01,2.848902642726898193e-01,-0.000000000000000000e+00,5.098635330796241760e-03,5.774514675140380859e-01,8.291597962379455566e-01,1.268733874894678593e-03,7.484051585197448730e-02,7.966750115156173706e-02,1.164620041847229004e+00,5.268444307148456573e-03,9.700226783752441406e-01,2.519385218620300293e-01,5.339630842208862305e-01,1.598490774631500244e-01,9.047218561172485352e-01,4.248597659170627594e-03,6.852114945650100708e-02,-0.000000000000000000e+00,1.622372120618820190e-01,1.097428724169731140e-01,2.692206203937530518e-01,1.476567685604095459e-01,1.368904560804367065e-01,2.870674431324005127e-01,6.252115592360496521e-03,2.627677656710147858e-02,1.435328423976898193e-01,1.864517480134963989e-01,3.620069324970245361e-01,3.161052614450454712e-02,1.347352027893066406e+00,-0.000000000000000000e+00,3.210941329598426819e-03,-0.000000000000000000e+00,1.201835393905639648e+00,5.480703897774219513e-03,6.481304764747619629e-01,2.007158041000366211e+00,-0.000000000000000000e+00,3.580211894586682320e-03,-0.000000000000000000e+00,-0.000000000000000000e+00,8.729241788387298584e-03,3.128196477890014648e+00,-0.000000000000000000e+00,-0.000000000000000000e+00,-0.000000000000000000e+00,4.997308366000652313e-03,5.402843952178955078e-01,2.492842031642794609e-04,-0.000000000000000000e+00,7.057107686996459961e-01,2.529529854655265808e-02,8.183298110961914062e-01,-0.000000000000000000e+00,-0.000000000000000000e+00,1.601613825187087059e-03,1.294407993555068970e-03,3.709894418716430664e-02,-0.000000000000000000e+00,2.339079141616821289e+00,8.118097484111785889e-02,8.519735932350158691e-01,2.439574105665087700e-03,1.110446825623512268e-02,-0.000000000000000000e+00,1.235351800918579102e+00,-0.000000000000000000e+00,1.334600616246461868e-02,-0.000000000000000000e+00,-0.000000000000000000e+00,6.446458101272583008e-01,7.361004352569580078e-01,1.328365683555603027e+00,4.445796459913253784e-02,2.861208049580454826e-03,-0.000000000000000000e+00,5.063275340944528580e-03,-0.000000000000000000e+00,7.255487442016601562e-01,3.990652039647102356e-02,5.805696249008178711e-01,7.576628327369689941e-01,9.361071512103080750e-03,-0.000000000000000000e+00,-0.000000000000000000e+00,-0.000000000000000000e+00,-0.000000000000000000e+00,-0.000000000000000000e+00,-0.000000000000000000e+00,5.401427745819091797e-01,2.085185945034027100e-01,1.858584932051599026e-03,-0.000000000000000000e+00,-0.000000000000000000e+00,-0.000000000000000000e+00,3.055993700399994850e-03,-0.000000000000000000e+00,-0.000000000000000000e+00,-0.000000000000000000e+00,-0.000000000000000000e+00,-0.000000000000000000e+00,-0.000000000000000000e+00,2.445144113153219223e-03,-0.000000000000000000e+00,1.184083819389343262e+00,2.794168889522552490e-02,-0.000000000000000000e+00,-0.000000000000000000e+00,-0.000000000000000000e+00,-0.000000000000000000e+00,-0.000000000000000000e+00,-0.000000000000000000e+00,-0.000000000000000000e+00,6.994272470474243164e-01,-0.000000000000000000e+00,-0.000000000000000000e+00,4.472824221011251211e-04,-0.000000000000000000e+00,2.047873102128505707e-03,1.682256311178207397e-01,-0.000000000000000000e+00,4.553112667053937912e-03,-0.000000000000000000e+00,3.542945981025695801e-01,6.044942736625671387e-01,-0.000000000000000000e+00,1.309052228927612305e+00,-0.000000000000000000e+00,-0.000000000000000000e+00,-0.000000000000000000e+00,-0.000000000000000000e+00,3.003908321261405945e-02,3.783766627311706543e-01,9.316030144691467285e-02,-0.000000000000000000e+00,1.360434689559042454e-03,-0.000000000000000000e+00,-0.000000000000000000e+00,-0.000000000000000000e+00,-0.000000000000000000e+00,-0.000000000000000000e+00,-0.000000000000000000e+00,-0.000000000000000000e+00,1.351055875420570374e-02,2.432460663840174675e-03,3.722719848155975342e-01,-0.000000000000000000e+00,-0.000000000000000000e+00,8.423964679241180420e-02
7.653911132365465164e-03,-0.000000000000000000e+00,1.130271077156066895e+00,-0.000000000000000000e+00,4.705951511859893799e-01,6.598320603370666504e-01,1.144011378288269043e+00,-0.000000000000000000e+00,1.220489978790283203e+00,-0.000000000000000000e+00,1.319477319717407227e+00,1.123330593109130859e+00,-0.000000000000000000e+00,7.883333601057529449e-03,1.046692603267729282e-03,-0.000000000000000000e+00,2.286270959302783012e-03,2.766547724604606628e-03,9.523320198059082031e-01,3.087137937545776367e-01,-0.000000000000000000e+00,4.416687414050102234e-03,7.414193241856992245e-04,4.242862109094858170e-03,-0.000000000000000000e+00,3.596432507038116455e-03,-0.000000000000000000e+00,-0.000000000000000000e+00,2.025216072797775269e-02,-0.000000000000000000e+00,-0.000000000000000000e+00,4.613814130425453186e-02,7.680768370628356934e-01,1.596133828163146973e+00,1.064186362782493234e-04,3.382673719897866249e-03,-0.000000000000000000e+00,-0.000000000000000000e+00,-0.000000000000000000e+00,4.860319895669817924e-04,1.197350144386291504e+00,3.669106168672442436e-03,-0.000000000000000000e+00,6.776934266090393066e-01,7.080259919166564941e-01,-0.000000000000000000e+00,1.112614572048187256e-02,5.851155519485473633e-01,-0.000000000000000000e+00,8.008409142494201660e-01,7.118806242942810059e-01,2.264744834974408150e-03,4.917040765285491943e-01,4.582924544811248779e-01,1.251702196896076202e-03,-0.000000000000000000e+00,7.737447740510106087e-04,-0.000000000000000000e+00,-0.000000000000000000e+00,5.500822663307189941e-01,8.206285238265991211e-01,5.989288911223411560e-04,2.925225766375660896e-03,9.482534369453787804e-04,-0.000000000000000000e+00,2.647316781803965569e-03,7.861067540943622589e-03,1.100190520286560059e+00,3.390165865421295166e-01,1.417312979698181152e+00,2.791836977005004883e+00,1.031047315336763859e-03,2.972146034240722656e+00,7.900614291429519653e-03,-0.000000000000000000e+00,-0.000000000000000000e+00,2.002354145050048828e+00,1.696315765380859375e+00,1.337169528007507324e+00,7.914294600486755371e-01,2.369602676481008530e-03,1.128760933876037598e+00,1.795178093016147614e-02,-0.000000000000000000e+00,-0.000000000000000000e+00,1.350967168807983398e+00,1.401540637016296387e-02,1.076158601790666580e-03,-0.000000000000000000e+00,-0.000000000000000000e+00,4.108854383230209351e-02,-0.000000000000000000e+00,-0.000000000000000000e+00,-0.000000000000000000e+00,-0.000000000000000000e+00,-0.000000000000000000e+00,-0.000000000000000000e+00,1.179371960461139679e-03,-0.000000000000000000e+00,-0.000000000000000000e+00,2.345190286636352539e+00,1.465183496475219727e+00,3.495454072952270508e+00,1.595037902006879449e-04,1.154033303260803223e+00,6.322934059426188469e-04,1.881638646125793457e+00,-0.000000000000000000e+00,4.172603607177734375e+00,1.086458330973982811e-03,-0.000000000000000000e+00,3.452134551480412483e-03,1.379855990409851074e+00,2.426631748676300049e-01,6.933535914868116379e-04,7.993428707122802734e-01,2.790351390838623047e+00,-0.000000000000000000e+00,1.582070469856262207e+00,2.103975601494312286e-02,1.063531357795000076e-02,2.995203435420989990e-02,5.121916532516479492e-01,1.729279398918151855e+00,-0.000000000000000000e+00,-0.000000000000000000e+00,1.719226595014333725e-03,-0.000000000000000000e+00,-0.000000000000000000e+00,-0.000000000000000000e+00,-0.000000000000000000e+00,-0.000000000000000000e+00,3.966888878494501114e-03,-0.000000000000000000e+00,-0.000000000000000000e+00,-0.000000000000000000e+00,5.747258197516202927e-03,-0.000000000000000000e+00,6.030845455825328827e-03,1.517950296401977539e+00,4.503520671278238297e-03,2.246058702468872070e+00,-0.000000000000000000e+00,4.906063899397850037e-03,3.384876847267150879e-01,-0.000000000000000000e+00,1.602768898010253906e-03,-0.000000000000000000e+00,6.519192829728126526e-03,2.696944400668144226e-02,5.126844160258769989e-03,-0.000000000000000000e+00,-0.000000000000000000e+00,8.526921272277832031e-03,3.294084744993597269e-04,-0.000000000000000000e+00,-0.000000000000000000e+00,-0.000000000000000000e+00,-0.000000000000000000e+00,-0.000000000000000000e+00,-0.000000000000000000e+00,-0.000000000000000000e+00,-0.000000000000000000e+00,3.204547465429641306e-05,3.991019446402788162e-03,1.730817928910255432e-02,-0.000000000000000000e+00,6.553611755371093750e-01,1.161847352981567383e+00,-0.000000000000000000e+00,-0.000000000000000000e+00,-0.000000000000000000e+00,-0.000000000000000000e+00,-0.000000000000000000e+00,2.151076793670654297e+00,-0.000000000000000000e+00,2.180731156840920448e-03,-0.000000000000000000e+00,1.428224053233861923e-02,-0.000000000000000000e+00,6.554152071475982666e-02,1.402907725423574448e-02,1.399530887603759766e+00,1.904400587081909180e+00,-0.000000000000000000e+00,4.235418047755956650e-03,4.591137409210205078e+00,1.184673428535461426e+00,1.869833096861839294e-02,9.491040371358394623e-03,4.230240825563669205e-03,2.524971961975097656e-03,1.332839764654636383e-02,2.484316349029541016e+00,6.552801728248596191e-01,5.165509413927793503e-03,1.473762560635805130e-03,-0.000000000000000000e+00,8.315447568893432617e-01,8.341114968061447144e-03,2.019604295492172241e-02,-0.000000000000000000e+00,2.345390558242797852e+00,4.119691904634237289e-03,2.179945707321166992e+00,5.572303533554077148e-01,7.302130688913166523e-04,-0.000000000000000000e+00,-0.000000000000000000e+00,3.658841609954833984e+00,-0.000000000000000000e+00,3.003315925598144531e+00,3.139261971227824688e-04,-0.000000000000000000e+00,1.080117886886000633e-03,2.145019546151161194e-02,1.783297657966613770e+00,-0.000000000000000000e+00,4.243831038475036621e-01,-0.000000000000000000e+00,1.307968616485595703e+00,2.401073230430483818e-03,1.114952206611633301e+00,-0.000000000000000000e+00,9.622261673212051392e-02,1.861432800069451332e-03,5.107949953526258469e-03,-0.000000000000000000e+00,-0.000000000000000000e+00,-0.000000000000000000e+00,-0.000000000000000000e+00,-0.000000000000000000e+00,-0.000000000000000000e+00,-0.000000000000000000e+00,-0.000000000000000000e+00,-0.000000000000000000e+00,-0.000000000000000000e+00,-0.000000000000000000e+00,-0.000000000000000000e+00,-0.000000000000000000e+00,-0.000000000000000000e+00,-0.000000000000000000e+00,2.768665784969925880e-03,7.283420562744140625e-01,2.069400064647197723e-02,-0.000000000000000000e+00,6.560296416282653809e-01,-0.000000000000000000e+00,-0.000000000000000000e+00,1.989332437515258789e+00,-0.000000000000000000e+00,-0.000000000000000000e+00,3.162702322006225586e-01,-0.000000000000000000e+00,1.064103484153747559e+00,2.902930736541748047e+00,1.600438356399536133e-01,-0.000000000000000000e+00,3.985399845987558365e-03,-0.000000000000000000e+00,-0.000000000000000000e+00,-0.000000000000000000e+00,3.047167062759399414e+00,4.377712029963731766e-03,2.329905748367309570e+00,4.612219519913196564e-03,1.923745989799499512e+00,1.841540448367595673e-02,2.720249652862548828e+00,9.112940169870853424e-03,1.604014992713928223e+00,2.519076690077781677e-02,1.011693757027387619e-02,3.281609058380126953e+00,-0.000000000000000000e+00,1.271541357040405273e+00,1.443508863449096680e+00,1.602018237113952637e+00,-0.000000000000000000e+00,-0.000000000000000000e+00,-0.000000000000000000e+00,6.959923505783081055e-01,-0.000000000000000000e+00,-0.000000000000000000e+00,1.855107188224792480e+00,-0.000000000000000000e+00,-0.000000000000000000e+00,1.094739437103271484e+00,-0.000000000000000000e+00,-0.000000000000000000e+00,8.191558881662786007e-04,-0.000000000000000000e+00,1.841381639242172241e-01,2.580549102276563644e-03,-0.000000000000000000e+00,-0.000000000000000000e+00,-0.000000000000000000e+00,-0.000000000000000000e+00,-0.000000000000000000e+00,2.213148027658462524e-02,1.446549296379089355e+00,-0.000000000000000000e+00,-0.000000000000000000e+00,4.787424504756927490e-01,-0.000000000000000000e+00,1.167854070663452148e+00,5.867290496826171875e-01,1.125365197658538818e-01,-0.000000000000000000e+00,1.805260419845581055e+00,-0.000000000000000000e+00,-0.000000000000000000e+00,-0.000000000000000000e+00,-0.000000000000000000e+00,4.758794326335191727e-03,9.848386645317077637e-01,-0.000000000000000000e+00,-0.000000000000000000e+00,4.853602033108472824e-03,-0.000000000000000000e+00,-0.000000000000000000e+00,-0.000000000000000000e+00,2.478845603764057159e-02,-0.000000000000000000e+00,-0.000000000000000000e+00,5.436127539724111557e-03,1.999899744987487793e+00,9.708462953567504883e-01,-0.000000000000000000e+00,-0.000000000000000000e+00,-0.000000000000000000e+00,1.053032651543617249e-02,-0.000000000000000000e+00,-0.000000000000000000e+00,-0.000000000000000000e+00,-0.000000000000000000e+00,3.935048356652259827e-03,-0.000000000000000000e+00,-0.000000000000000000e+00,4.735814407467842102e-02,-0.000000000000000000e+00,-0.000000000000000000e+00,5.018547922372817993e-02,-0.000000000000000000e+00,-0.000000000000000000e+00,7.526113186031579971e-04,-0.000000000000000000e+00,-0.000000000000000000e+00,-0.000000000000000000e+00,4.967601895332336426e-01,-0.000000000000000000e+00,6.621239008381962776e-04,-0.000000000000000000e+00,-0.000000000000000000e+00,-0.000000000000000000e+00,-0.000000000000000000e+00,-0.000000000000000000e+00,-0.000000000000000000e+00,-0.000000000000000000e+00,-0.000000000000000000e+00,3.124871582258492708e-04,7.960361242294311523e-01,8.869697451591491699e-01,9.804280400276184082e-01,-0.000000000000000000e+00,-0.000000000000000000e+00,-0.000000000000000000e+00,8.183946013450622559e-01,-0.000000000000000000e+00
3.982397019863128662e-01,2.619251376017928123e-03,-0.000000000000000000e+00,4.176175221800804138e-03,3.323574317619204521e-03,-0.000000000000000000e+00,-0.000000000000000000e+00,-0.000000000000000000e+00,-0.000000000000000000e+00,-0.000000000000000000e+00,-0.000000000000000000e+00,6.271257996559143066e-01,-0.000000000000000000e+00,2.828279510140419006e-03,-0.000000000000000000e+00,-0.000000000000000000e+00,-0.000000000000000000e+00,-0.000000000000000000e+00,-0.000000000000000000e+00,-0.000000000000000000e+00,-0.000000000000000000e+00,-0.000000000000000000e+00,-0.000000000000000000e+00,-0.000000000000000000e+00,-0.000000000000000000e+00,4.174935165792703629e-03,1.450613021850585938e+00,4.016215912997722626e-03,2.421555574983358383e-03,5.817718338221311569e-03,-0.000000000000000000e+00,7.774241268634796143e-03,-0.000000000000000000e+00,4.674073308706283569e-03,-0.000000000000000000e+00,-0.000000000000000000e+00,-0.000000000000000000e+00,-0.000000000000000000e+00,1.540658064186573029e-02,4.875835031270980835e-03,-0.000000000000000000e+00,-0.000000000000000000e+00,6.155816372483968735e-03,2.330087870359420776e-01,4.119527060538530350e-03,4.532284219749271870e-04,7.094479165971279144e-03,-0.000000000000000000e+00,-0.000000000000000000e+00,1.417327374219894409e-01,3.412983939051628113e-02,-0.000000000000000000e+00,2.496861964464187622e-01,6.196221336722373962e-03,-0.000000000000000000e+00,-0.000000000000000000e+00,-0.000000000000000000e+00,1.202087034471333027e-03,2.984087215736508369e-03,7.074197637848556042e-04,-0.000000000000000000e+00,1.196830533444881439e-03,3.607122227549552917e-03,1.366694830358028412e-02,1.565045677125453949e-03,-0.000000000000000000e+00,-0.000000000000000000e+00,-0.000000000000000000e+00,2.812161110341548920e-03,-0.000000000000000000e+00,-0.000000000000000000e+00,2.091377258300781250e+00,4.315241239964962006e-03,5.950377881526947021e-02,-0.000000000000000000e+00,7.862456841394305229e-04,-0.000000000000000000e+00,-0.000000000000000000e+00,9.062836766242980957e-01,-0.000000000000000000e+00,1.141551416367292404e-03,2.591080427169799805e+00,1.444755554199218750e+00,-0.000000000000000000e+00,-0.000000000000000000e+00,2.204073965549468994e-02,8.697960525751113892e-03,-0.000000000000000000e+00,-0.000000000000000000e+00,-0.000000000000000000e+00,-0.000000000000000000e+00,-0.000000000000000000e+00,4.641757812350988388e-03,3.160172607749700546e-03,3.248818684369325638e-03,-0.000000000000000000e+00,-0.000000000000000000e+00,4.908733069896697998e-03,1.021126151084899902e+00,1.488986372947692871e+00,8.160042925737798214e-04,9.857976436614990234e-01,1.995448395609855652e-02,3.165378570556640625e+00,-0.000000000000000000e+00,9.240749478340148926e-01,-0.000000000000000000e+00,7.526023983955383301e-01,-0.000000000000000000e+00,1.118119992315769196e-02,2.989497482776641846e-01,3.876583883538842201e-03,1.208682656288146973e-01,4.224587082862854004e-01,3.921528812497854233e-03,5.665150284767150879e-02,1.013133488595485687e-02,-0.000000000000000000e+00,4.516642168164253235e-02,9.804856777191162109e-01,1.706833718344569206e-03,1.329449295997619629e+00,-0.000000000000000000e+00,1.130421400070190430e+00,5.543923377990722656e-01,-0.000000000000000000e+00,-0.000000000000000000e+00,-0.000000000000000000e+00,-0.000000000000000000e+00,-0.000000000000000000e+00,-0.000000000000000000e+00,-0.000000000000000000e+00,3.186239395290613174e-03,4.210753366351127625e-03,-0.000000000000000000e+00,-0.000000000000000000e+00,1.458081603050231934e+00,7.713563442230224609e-01,3.579421281814575195e+00,1.337738275527954102e+00,1.427780650556087494e-02,9.060997366905212402e-01,2.707720967009663582e-03,2.508589066565036774e-03,-0.000000000000000000e+00,-0.000000000000000000e+00,2.752983383834362030e-02,4.480283707380294800e-03,6.097600329667329788e-03,2.203072786331176758e+00,3.143559023737907410e-02,-0.000000000000000000e+00,1.097390055656433105e-01,1.590212062001228333e-02,1.085308147594332695e-03,-0.000000000000000000e+00,-0.000000000000000000e+00,-0.000000000000000000e+00,-0.000000000000000000e+00,-0.000000000000000000e+00,-0.000000000000000000e+00,-0.000000000000000000e+00,-0.000000000000000000e+00,2.714604372158646584e-03,1.122938282787799835e-02,3.057197900488972664e-03,-0.000000000000000000e+00,4.421181678771972656e-01,-0.000000000000000000e+00,-0.000000000000000000e+00,-0.000000000000000000e+00,2.009194850921630859e+00,1.311782002449035645e+00,4.716005641967058182e-03,2.806894540786743164e+00,4.628302063792943954e-03,3.651873171329498291e-01,-0.000000000000000000e+00,1.993141055107116699e+00,-0.000000000000000000e+00,-0.000000000000000000e+00,1.595934987068176270e+00,1.573588848114013672e+00,1.655196666717529297e+00,-0.000000000000000000e+00,1.946868062019348145e+00,1.029720250517129898e-02,1.406422019004821777e+00,1.729340851306915283e-02,1.795907855033874512e+00,4.204260706901550293e-01,1.226488426327705383e-01,9.432692080736160278e-02,1.578996062278747559e+00,3.802839294075965881e-02,-0.000000000000000000e+00,1.936859771376475692e-04,-0.000000000000000000e+00,9.363518953323364258e-01,1.990052700042724609e+00,1.226626515388488770e+00,1.255685579963028431e-03,-0.000000000000000000e+00,4.160533659160137177e-03,-0.000000000000000000e+00,-0.000000000000000000e+00,7.125146221369504929e-03,1.728596091270446777e+00,3.882518410682678223e-01,-0.000000000000000000e+00,2.524017810821533203e+00,-0.000000000000000000e+00,1.668968354351818562e-03,-0.000000000000000000e+00,1.454241871833801270e+00,2.794573828577995300e-02,1.238338470458984375e+00,1.733717560768127441e+00,1.760254383087158203e+00,7.277444005012512207e-01,5.265887975692749023e-01,2.362483181059360504e-02,9.417796134948730469e-01,7.451796531677246094e-01,4.561560750007629395e-01,8.859890103340148926e-01,6.824222803115844727e-01,1.543768286705017090e+00,5.219520535320043564e-03,1.345471143722534180e+00,-0.000000000000000000e+00,1.101625710725784302e-02,7.051177024841308594e-01,4.850707650184631348e-01,-0.000000000000000000e+00,-0.000000000000000000e+00,-0.000000000000000000e+00,-0.000000000000000000e+00,4.868784844875335693e-01,4.477340281009674072e-01,1.168948054313659668e+00,3.934724256396293640e-02,7.420915961265563965e-01,1.182482957839965820e+00,1.768781989812850952e-02,7.433953881263732910e-01,1.366345882415771484e+00,3.042539581656455994e-03,1.722921058535575867e-02,2.437250375747680664e+00,-0.000000000000000000e+00,7.514348626136779785e-02,-0.000000000000000000e+00,2.985479775816202164e-03,1.820915341377258301e+00,-0.000000000000000000e+00,4.561230540275573730e-03,2.215376123785972595e-03,-0.000000000000000000e+00,-0.000000000000000000e+00,-0.000000000000000000e+00,-0.000000000000000000e+00,4.369786940515041351e-03,1.319504022598266602e+00,-0.000000000000000000e+00,-0.000000000000000000e+00,2.267038106918334961e+00,1.974818296730518341e-02,2.943924162536859512e-03,7.528418209403753281e-03,2.048552513122558594e+00,1.119982823729515076e-01,-0.000000000000000000e+00,-0.000000000000000000e+00,-0.000000000000000000e+00,1.232629179954528809e+00,6.614494919776916504e-01,5.917143076658248901e-02,-0.000000000000000000e+00,2.644089236855506897e-02,4.304661881178617477e-03,3.658111765980720520e-02,1.927330791950225830e-01,3.584283217787742615e-02,7.454231977462768555e-01,-0.000000000000000000e+00,-0.000000000000000000e+00,1.017837762832641602e+00,-0.000000000000000000e+00,-0.000000000000000000e+00,5.729819536209106445e-01,1.456142663955688477e+00,-0.000000000000000000e+00,-0.000000000000000000e+00,-0.000000000000000000e+00,-0.000000000000000000e+00,-0.000000000000000000e+00,4.822891056537628174e-01,-0.000000000000000000e+00,4.933715760707855225e-01,4.724737256765365601e-02,6.635089404881000519e-03,-0.000000000000000000e+00,-0.000000000000000000e+00,3.276893170550465584e-03,2.955195028334856033e-03,-0.000000000000000000e+00,-0.000000000000000000e+00,-0.000000000000000000e+00,2.213843725621700287e-02,2.697149175219237804e-04,-0.000000000000000000e+00,3.006826387718319893e-03,-0.000000000000000000e+00,8.181952871382236481e-03,-0.000000000000000000e+00,-0.000000000000000000e+00,-0.000000000000000000e+00,-0.000000000000000000e+00,3.352599160280078650e-04,-0.000000000000000000e+00,-0.000000000000000000e+00,-0.000000000000000000e+00,-0.000000000000000000e+00,-0.000000000000000000e+00,2.247043652459979057e-03,-0.000000000000000000e+00,3.253570757806301117e-03,-0.000000000000000000e+00,1.898963819257915020e-05,4.074789118021726608e-03,1.263388060033321381e-02,-0.000000000000000000e+00,-0.000000000000000000e+00,-0.000000000000000000e+00,5.018534138798713684e-03,-0.000000000000000000e+00,-0.000000000000000000e+00,-0.000000000000000000e+00,1.191233377903699875e-02,-0.000000000000000000e+00,3.179036779329180717e-03,1.136087346822023392e-02,2.900839447975158691e-01,1.008671045303344727e+00,-0.000000000000000000e+00,-0.000000000000000000e+00,-0.000000000000000000e+00,-0.000000000000000000e+00,2.318566897884011269e-03,-0.000000000000000000e+00,-0.000000000000000000e+00,-0.000000000000000000e+00,-0.000000000000000000e+00,-0.000000000000000000e+00,-0.000000000000000000e+00,2.857537008821964264e-03,-0.000000000000000000e+00,-0.000000000000000000e+00,3.934814012609422207e-04,9.425273165106773376e-03,2.355085015296936035e-01,7.679367661476135254e-01,1.176409143954515457e-02,-0.000000000000000000e+00,3.630565712228417397e-03,-0.000000000000000000e+00,-0.000000000000000000e+00,4.413524642586708069e-03
-0.000000000000000000e+00,-0.000000000000000000e+00,2.519459426403045654e-01,-0.000000000000000000e+00,6.645276211202144623e-03,-0.000000000000000000e+00,4.380452912300825119e-03,-0.000000000000000000e+00,8.352503180503845215e-01,6.140668392181396484e-01,-0.000000000000000000e+00,2.540317550301551819e-02,-0.000000000000000000e+00,-0.000000000000000000e+00,1.433246303349733353e-02,-0.000000000000000000e+00,2.328395843505859375e-01,-0.000000000000000000e+00,6.686937529593706131e-03,2.868931889533996582e-01,-0.000000000000000000e+00,4.810938611626625061e-03,6.989087443798780441e-03,-0.000000000000000000e+00,3.212295174598693848e-01,6.310214288532733917e-03,6.052136421203613281e-03,-0.000000000000000000e+00,2.790041565895080566e-01,1.992816030979156494e-01,4.328171256929636002e-03,-0.000000000000000000e+00,-0.000000000000000000e+00,-0.000000000000000000e+00,9.551769122481346130e-03,-0.000000000000000000e+00,1.002338062971830368e-02,5.241206847131252289e-03,1.815200686454772949e+00,-0.000000000000000000e+00,1.053043961524963379e+00,1.542022228240966797e+00,1.827708333730697632e-01,-0.000000000000000000e+00,7.666687667369842529e-02,-0.000000000000000000e+00,3.438608255237340927e-03,-0.000000000000000000e+00,-0.000000000000000000e+00,-0.000000000000000000e+00,4.582987129688262939e-01,5.116648674011230469e-01,2.889974974095821381e-03,8.746562153100967407e-02,4.000934306532144547e-03,-0.000000000000000000e+00,3.975161910057067871e-02,-0.000000000000000000e+00,-0.000000000000000000e+00,-0.000000000000000000e+00,4.295979626476764679e-03,-0.000000000000000000e+00,4.294494166970252991e-03,1.378379575908184052e-02,1.451352704316377640e-02,2.864006459712982178e-01,4.341778345406055450e-03,9.358832836151123047e-01,1.327730529010295868e-02,3.269093334674835205e-01,-0.000000000000000000e+00,-0.000000000000000000e+00,-0.000000000000000000e+00,3.903619013726711273e-03,-0.000000000000000000e+00,-0.000000000000000000e+00,4.077575635164976120e-03,-0.000000000000000000e+00,2.189247636124491692e-03,-0.000000000000000000e+00,2.777442801743745804e-03,1.067592978477478027e+00,-0.000000000000000000e+00,-0.000000000000000000e+00,7.791819050908088684e-03,-0.000000000000000000e+00,-0.000000000000000000e+00,-0.000000000000000000e+00,-0.000000000000000000e+00,-0.000000000000000000e+00,9.609497189521789551e-01,-0.000000000000000000e+00,-0.000000000000000000e+00,6.817664485424757004e-03,9.394523687660694122e-03,3.912367857992649078e-03,-0.000000000000000000e+00,2.182218313217163086e+00,5.268674492835998535e-01,1.234607305377721786e-03,2.969576835632324219e+00,8.621505498886108398e-01,1.267127227038145065e-03,2.081577777862548828e+00,3.935162909328937531e-03,1.239678144454956055e+00,2.405508995056152344e+00,1.917003273963928223e+00,3.266561031341552734e+00,2.245324373245239258e+00,2.009543180465698242e+00,6.799584627151489258e-01,9.127105586230754852e-03,-0.000000000000000000e+00,-0.000000000000000000e+00,3.120985347777605057e-03,7.066972553730010986e-03,-0.000000000000000000e+00,1.529344264417886734e-02,1.110115647315979004e+00,-0.000000000000000000e+00,8.215779066085815430e-01,4.436247982084751129e-03,-0.000000000000000000e+00,-0.000000000000000000e+00,5.678931251168251038e-03,1.755882263183593750e+00,-0.000000000000000000e+00,-0.000000000000000000e+00,7.988976431079208851e-04,3.928468227386474609e-01,-0.000000000000000000e+00,-0.000000000000000000e+00,-0.000000000000000000e+00,9.548774687573313713e-04,-0.000000000000000000e+00,8.247202634811401367e-01,3.241210477426648140e-03,-0.000000000000000000e+00,4.735251422971487045e-03,1.614406704902648926e-03,1.679998517036437988e+00,4.168703220784664154e-03,4.410177003592252731e-03,1.172548383474349976e-01,6.750609874725341797e-01,1.272275298833847046e-01,6.415718235075473785e-04,6.749851703643798828e-01,1.380426692776381969e-03,6.336184144020080566e-01,-0.000000000000000000e+00,-0.000000000000000000e+00,8.853108622133731842e-03,-0.000000000000000000e+00,-0.000000000000000000e+00,5.216361489146947861e-03,7.728658616542816162e-03,-0.000000000000000000e+00,5.570997949689626694e-03,5.507645197212696075e-03,-0.000000000000000000e+00,-0.000000000000000000e+00,3.540937788784503937e-03,1.730241638142615557e-04,-0.000000000000000000e+00,-0.000000000000000000e+00,-0.000000000000000000e+00,5.056601366959512234e-05,-0.000000000000000000e+00,-0.000000000000000000e+00,2.537456512451171875e+00,-0.000000000000000000e+00,4.127501044422388077e-03,1.648028135299682617e+00,2.005896717309951782e-02,-0.000000000000000000e+00,-0.000000000000000000e+00,-0.000000000000000000e+00,-0.000000000000000000e+00,-0.000000000000000000e+00,3.434153972193598747e-03,2.129283428192138672e+00,2.566494978964328766e-03,5.786659196019172668e-03,7.805958390235900879e-02,8.889312157407402992e-04,-0.000000000000000000e+00,2.450152765959501266e-03,2.095197439193725586e+00,1.876439712941646576e-02,1.494791358709335327e-03,-0.000000000000000000e+00,1.841718435287475586e+00,1.108233690261840820e+00,3.147458774037659168e-04,1.864620367996394634e-03,8.262971788644790649e-02,-0.000000000000000000e+00,3.152455016970634460e-02,1.548036839812994003e-02,-0.000000000000000000e+00,1.517270922660827637e+00,-0.000000000000000000e+00,7.633183598518371582e-01,3.673185110092163086e-01,-0.000000000000000000e+00,1.397636771202087402e+00,-0.000000000000000000e+00,-0.000000000000000000e+00,3.558167815208435059e-01,3.394682193174958229e-03,-0.000000000000000000e+00,-0.000000000000000000e+00,-0.000000000000000000e+00,-0.000000000000000000e+00,1.247071146965026855e+00,-0.000000000000000000e+00,2.193039655685424805e+00,-0.000000000000000000e+00,5.840899348258972168e-01,-0.000000000000000000e+00,-0.000000000000000000e+00,3.009684849530458450e-03,4.989052191376686096e-02,4.025265225209295750e-04,8.682313375174999237e-03,-0.000000000000000000e+00,-0.000000000000000000e+00,-0.000000000000000000e+00,-0.000000000000000000e+00,-0.000000000000000000e+00,1.908180952072143555e+00,2.769713522866368294e-03,4.142009187489748001e-03,4.209463298320770264e-02,-0.000000000000000000e+00,7.074950933456420898e-01,-0.000000000000000000e+00,7.075572013854980469e-01,-0.000000000000000000e+00,-0.000000000000000000e+00,-0.000000000000000000e+00,3.903837176039814949e-03,3.284435486420989037e-03,1.159701241704169661e-05,-0.000000000000000000e+00,-0.000000000000000000e+00,-0.000000000000000000e+00,1.734440207481384277e+00,-0.000000000000000000e+00,-0.000000000000000000e+00,1.758314132690429688e+00,1.313520874828100204e-02,9.016399271786212921e-04,-0.000000000000000000e+00,-0.000000000000000000e+00,-0.000000000000000000e+00,-0.000000000000000000e+00,3.440556302666664124e-02,-0.000000000000000000e+00,-0.000000000000000000e+00,-0.000000000000000000e+00,1.394665837287902832e+00,2.757967449724674225e-03,4.824801683425903320e-01,7.786582224071025848e-03,1.056616663932800293e+00,2.115429006516933441e-02,2.896220237016677856e-02,2.404009819030761719e+00,1.475614029914140701e-03,5.147566199302673340e-01,3.735796781256794930e-05,4.601369611918926239e-03,4.451442975550889969e-03,8.343091607093811035e-02,4.824056923389434814e-01,-0.000000000000000000e+00,-0.000000000000000000e+00,9.929715394973754883e-01,1.179848611354827881e-02,-0.000000000000000000e+00,-0.000000000000000000e+00,1.396887898445129395e+00,-0.000000000000000000e+00,-0.000000000000000000e+00,1.364650018513202667e-02,-0.000000000000000000e+00,2.051093816757202148e+00,1.096507787704467773e+00,-0.000000000000000000e+00,7.022885978221893311e-02,-0.000000000000000000e+00,1.832577466964721680e+00,5.166916642338037491e-03,-0.000000000000000000e+00,-0.000000000000000000e+00,7.137573789805173874e-03,4.759138915687799454e-03,2.279782742261886597e-01,-0.000000000000000000e+00,3.391092177480459213e-03,5.044507794082164764e-03,5.881724646314978600e-04,-0.000000000000000000e+00,-0.000000000000000000e+00,1.079989504069089890e-02,3.842106554657220840e-03,1.961583271622657776e-03,-0.000000000000000000e+00,3.091170452535152435e-03,2.233661897480487823e-02,2.120282733812928200e-03,1.074835751205682755e-02,1.501386240124702454e-02,7.925863265991210938e-01,-0.000000000000000000e+00,4.244993440806865692e-03,-0.000000000000000000e+00,8.470121771097183228e-03,-0.000000000000000000e+00,-0.000000000000000000e+00,-0.000000000000000000e+00,2.259446773678064346e-03,1.007545622996985912e-03,4.802823532372713089e-03,-0.000000000000000000e+00,-0.000000000000000000e+00,-0.000000000000000000e+00,-0.000000000000000000e+00,-0.000000000000000000e+00,-0.000000000000000000e+00,-0.000000000000000000e+00,-0.000000000000000000e+00,2.229799283668398857e-03,-0.000000000000000000e+00,3.216567449271678925e-03,-0.000000000000000000e+00,6.638299208134412766e-03,3.407075768336653709e-03,1.430221274495124817e-02,-0.000000000000000000e+00,5.354273319244384766e-02,4.012623801827430725e-03,3.231161506846547127e-03,2.529654884710907936e-03,3.685239003971219063e-03,4.172045588493347168e-01,-0.000000000000000000e+00,-0.000000000000000000e+00,1.798514393158257008e-03,1.154593944549560547e+00,4.403826897032558918e-04,-0.000000000000000000e+00,-0.000000000000000000e+00,-0.000000000000000000e+00,-0.000000000000000000e+00,-0.000000000000000000e+00,-0.000000000000000000e+00,-0.000000000000000000e+00,-0.000000000000000000e+00,-0.000000000000000000e+00,-0.000000000000000000e+00,-0.000000000000000000e+00,-0.000000000000000000e+00,4.355831537395715714e-03,-0.000000000000000000e+00,6.016981322318315506e-03
-0.000000000000000000e+00,-0.000000000000000000e+00,1.105863809585571289e+00,3.561191856861114502e-01,-0.000000000000000000e+00,2.105610445141792297e-03,4.385078325867652893e-03,-0.000000000000000000e+00,-0.000000000000000000e+00,9.016034007072448730e-01,2.829471044242382050e-02,1.251747369766235352e+00,3.153396537527441978e-03,-0.000000000000000000e+00,8.290015459060668945e-01,1.549074891954660416e-03,3.610202968120574951e-01,-0.000000000000000000e+00,-0.000000000000000000e+00,1.992389000952243805e-02,8.685255050659179688e-01,1.727343946695327759e-01,2.333262469619512558e-03,-0.000000000000000000e+00,-0.000000000000000000e+00,-0.000000000000000000e+00,-0.000000000000000000e+00,1.301379680633544922e+00,5.210735201835632324e-01,3.762096166610717773e-03,4.253871738910675049e-03,-0.000000000000000000e+00,2.530830679461359978e-03,6.317537743598222733e-03,4.267285112291574478e-03,-0.000000000000000000e+00,7.723208982497453690e-03,2.495507955551147461e+00,2.501983428373932838e-03,4.009726457297801971e-03,1.658751047216355801e-03,1.271634697914123535e+00,4.272181540727615356e-03,3.393930848687887192e-03,5.701752305030822754e-01,-0.000000000000000000e+00,4.739159718155860901e-03,3.182061249390244484e-03,-0.000000000000000000e+00,-0.000000000000000000e+00,-0.000000000000000000e+00,1.562376972287893295e-02,1.027184422127902508e-03,-0.000000000000000000e+00,-0.000000000000000000e+00,4.523029923439025879e-01,5.246880650520324707e-01,5.161220673471689224e-03,-0.000000000000000000e+00,5.307617187500000000e-01,2.943984232842922211e-03,5.263781547546386719e-01,6.752768158912658691e-01,2.730110427364706993e-03,-0.000000000000000000e+00,-0.000000000000000000e+00,-0.000000000000000000e+00,-0.000000000000000000e+00,3.937627188861370087e-03,2.685696125030517578e+00,2.350655617192387581e-03,2.112205266952514648e+00,1.852509021759033203e+00,1.932942867279052734e+00,-0.000000000000000000e+00,-0.000000000000000000e+00,1.018825569190084934e-03,-0.000000000000000000e+00,1.288666129112243652e+00,-0.000000000000000000e+00,6.932691670954227448e-03,-0.000000000000000000e+00,1.382468223571777344e+00,1.640890166163444519e-02,1.606948494911193848e+00,-0.000000000000000000e+00,-0.000000000000000000e+00,2.754829645156860352e+00,5.212624557316303253e-03,-0.000000000000000000e+00,6.949213743209838867e-01,-0.000000000000000000e+00,-0.000000000000000000e+00,-0.000000000000000000e+00,-0.000000000000000000e+00,-0.000000000000000000e+00,-0.000000000000000000e+00,1.768585294485092163e-02,3.016273736953735352e+00,3.455900121480226517e-03,4.768665432929992676e-01,-0.000000000000000000e+00,9.948462247848510742e-01,8.338145911693572998e-03,1.220265507698059082e+00,3.670621514320373535e-01,2.363631486892700195e+00,1.498332500457763672e+00,2.362023830413818359e+00,7.961802482604980469e-01,1.221061218529939651e-03,-0.000000000000000000e+00,1.168205635622143745e-03,-0.000000000000000000e+00,-0.000000000000000000e+00,-0.000000000000000000e+00,9.109617210924625397e-03,8.318678289651870728e-02,-0.000000000000000000e+00,2.577508613467216492e-02,-0.000000000000000000e+00,1.333210431039333344e-02,4.156621638685464859e-03,1.404752861708402634e-02,-0.000000000000000000e+00,8.976605022326111794e-04,4.435474276542663574e-01,-0.000000000000000000e+00,-0.000000000000000000e+00,1.825689673423767090e+00,3.703832387924194336e+00,-0.000000000000000000e+00,-0.000000000000000000e+00,-0.000000000000000000e+00,1.194711208343505859e+00,-0.000000000000000000e+00,6.174632310867309570e-01,2.230390548706054688e+00,5.661584436893463135e-03,4.640719853341579437e-03,-0.000000000000000000e+00,-0.000000000000000000e+00,3.978542983531951904e-03,2.873972892761230469e+00,-0.000000000000000000e+00,9.252107143402099609e-01,2.990811586380004883e+00,6.330874748528003693e-03,2.101234436035156250e+00,3.180489540100097656e+00,2.869464159011840820e+00,-0.000000000000000000e+00,-0.000000000000000000e+00,-0.000000000000000000e+00,3.544829189777374268e-01,3.430970711633563042e-03,-0.000000000000000000e+00,-0.000000000000000000e+00,-0.000000000000000000e+00,-0.000000000000000000e+00,-0.000000000000000000e+00,-0.000000000000000000e+00,7.147601246833801270e-01,3.338777303695678711e+00,1.451238274574279785e+00,-0.000000000000000000e+00,-0.000000000000000000e+00,-0.000000000000000000e+00,-0.000000000000000000e+00,-0.000000000000000000e+00,-0.000000000000000000e+00,2.270740224048495293e-03,-0.000000000000000000e+00,-0.000000000000000000e+00,8.396378755569458008e-01,6.295147351920604706e-03,1.770678311586380005e-01,-0.000000000000000000e+00,-0.000000000000000000e+00,-0.000000000000000000e+00,-0.000000000000000000e+00,-0.000000000000000000e+00,-0.000000000000000000e+00,5.504572764039039612e-04,1.121582835912704468e-02,7.436859421432018280e-03,2.528497716411948204e-03,-0.000000000000000000e+00,4.464007318019866943e-01,4.253902938216924667e-03,4.229560494422912598e-03,-0.000000000000000000e+00,-0.000000000000000000e+00,3.493343114852905273e+00,1.610160112380981445e+00,-0.000000000000000000e+00,-0.000000000000000000e+00,-0.000000000000000000e+00,-0.000000000000000000e+00,5.626497790217399597e-03,-0.000000000000000000e+00,-0.000000000000000000e+00,1.302213430404663086e+00,-0.000000000000000000e+00,-0.000000000000000000e+00,1.577644050121307373e-02,-0.000000000000000000e+00,-0.000000000000000000e+00,-0.000000000000000000e+00,-0.000000000000000000e+00,-0.000000000000000000e+00,5.863298773765563965e-01,2.428441494703292847e-02,-0.000000000000000000e+00,1.708527677692472935e-03,1.461223810911178589e-01,5.918683018535375595e-03,-0.000000000000000000e+00,-0.000000000000000000e+00,-0.000000000000000000e+00,-0.000000000000000000e+00,-0.000000000000000000e+00,6.398003082722425461e-03,-0.000000000000000000e+00,4.545298870652914047e-03,1.990274358831811696e-05,6.689562578685581684e-04,-0.000000000000000000e+00,-0.000000000000000000e+00,-0.000000000000000000e+00,-0.000000000000000000e+00,-0.000000000000000000e+00,-0.000000000000000000e+00,3.388026962056756020e-03,1.254418611526489258e+00,1.545783411711454391e-02,1.192429423332214355e+00,2.261350899934768677e-01,-0.000000000000000000e+00,1.090127825736999512e+00,-0.000000000000000000e+00,-0.000000000000000000e+00,-0.000000000000000000e+00,1.284233450889587402e+00,3.368754405528306961e-03,7.349792285822331905e-04,2.695242641493678093e-03,2.481836080551147461e-01,-0.000000000000000000e+00,1.978520750999450684e-01,-0.000000000000000000e+00,8.441167301498353481e-04,2.584696747362613678e-02,1.735546253621578217e-02,2.974389493465423584e-02,1.994289457798004150e-03,-0.000000000000000000e+00,-0.000000000000000000e+00,3.179479390382766724e-03,8.256217241287231445e-01,-0.000000000000000000e+00,-0.000000000000000000e+00,3.055871248245239258e+00,1.090604901313781738e+00,2.016339063644409180e+00,1.462276339530944824e+00,2.203495264053344727e+00,1.098293662071228027e+00,2.882459402084350586e+00,2.190689325332641602e+00,-0.000000000000000000e+00,7.791374623775482178e-02,2.982382662594318390e-03,5.983114242553710938e-01,4.310690984129905701e-02,-0.000000000000000000e+00,2.273892052471637726e-03,9.153643622994422913e-03,-0.000000000000000000e+00,-0.000000000000000000e+00,-0.000000000000000000e+00,8.015601038932800293e-01,1.036358237266540527e+00,-0.000000000000000000e+00,3.239600453525781631e-03,-0.000000000000000000e+00,2.171344041824340820e+00,-0.000000000000000000e+00,-0.000000000000000000e+00,2.305614709854125977e+00,2.583256959915161133e+00,1.517330169677734375e+00,3.528751134872436523e+00,1.125230267643928528e-02,2.727396488189697266e+00,1.306077718734741211e+00,-0.000000000000000000e+00,1.630879521369934082e+00,-0.000000000000000000e+00,7.661268711090087891e-01,4.636615980416536331e-03,2.895870944485068321e-03,-0.000000000000000000e+00,1.450495243072509766e+00,1.065220117568969727e+00,1.562873832881450653e-02,2.973151858896017075e-03,2.935925126075744629e-02,1.761642866767942905e-03,2.030489206314086914e+00,-0.000000000000000000e+00,-0.000000000000000000e+00,2.657638072967529297e+00,1.220788154751062393e-02,-0.000000000000000000e+00,-0.000000000000000000e+00,3.855968266725540161e-02,7.911932468414306641e-01,4.600767511874437332e-03,-0.000000000000000000e+00,1.272063422948122025e-02,-0.000000000000000000e+00,-0.000000000000000000e+00,-0.000000000000000000e+00,5.354961752891540527e-01,6.674276664853096008e-03,2.287123441696166992e+00,-0.000000000000000000e+00,2.951433416455984116e-03,8.010150631889700890e-04,1.064628005027770996e+00,2.054423093795776367e-03,-0.000000000000000000e+00,-0.000000000000000000e+00,4.257216677069664001e-02,9.946489008143544197e-04,5.174110643565654755e-03,-0.000000000000000000e+00,-0.000000000000000000e+00,4.517484903335571289e-01,3.267497988417744637e-03,4.147982224822044373e-03,2.127518177032470703e+00,2.823882102966308594e+00,2.403578042984008789e+00,4.078892525285482407e-03,2.556408289819955826e-03,-0.000000000000000000e+00,1.098755955696105957e+00,1.196137908846139908e-02,-0.000000000000000000e+00,2.607855945825576782e-02,4.796535242348909378e-03,-0.000000000000000000e+00,-0.000000000000000000e+00,-0.000000000000000000e+00,4.762272536754608154e-02,-0.000000000000000000e+00,-0.000000000000000000e+00,-0.000000000000000000e+00,-0.000000000000000000e+00,3.649907186627388000e-03,4.598018527030944824e-01,-0.000000000000000000e+00,-0.000000000000000000e+00,-0.000000000000000000e+00,4.053592216223478317e-03,-0.000000000000000000e+00,3.870611777529120445e-03
-0.000000000000000000e+00,-0.000000000000000000e+00,-0.000000000000000000e+00,-0.000000000000000000e+00,-0.000000000000000000e+00,-0.000000000000000000e+00,-0.000000000000000000e+00,8.369538933038711548e-03,1.071452379226684570e+00,1.469817664474248886e-02,-0.000000000000000000e+00,-0.000000000000000000e+00,-0.000000000000000000e+00,-0.000000000000000000e+00,-0.000000000000000000e+00,5.552501603960990906e-02,1.707842107862234116e-03,1.579253189265727997e-02,3.827553475275635719e-03,8.515769243240356445e-01,-0.000000000000000000e+00,6.358963847160339355e-01,3.021686337888240814e-03,-0.000000000000000000e+00,5.226148366928100586e-01,-0.000000000000000000e+00,2.556916713714599609e+00,-0.000000000000000000e+00,1.375313162803649902e+00,1.664668670855462551e-03,1.552382484078407288e-03,8.020887374877929688e-01,-0.000000000000000000e+00,-0.000000000000000000e+00,5.092828869819641113e-01,-0.000000000000000000e+00,2.996657788753509521e-01,3.589265644550323486e-01,4.226156044751405716e-03,-0.000000000000000000e+00,-0.000000000000000000e+00,-0.000000000000000000e+00,-0.000000000000000000e+00,-0.000000000000000000e+00,-0.000000000000000000e+00,-0.000000000000000000e+00,3.175314748659729958e-03,3.893674015998840332e-01,-0.000000000000000000e+00,-0.000000000000000000e+00,8.507384657859802246e-01,3.026006817817687988e-01,1.293303538113832474e-02,6.636713147163391113e-01,-0.000000000000000000e+00,-0.000000000000000000e+00,6.451086665038019419e-05,1.327908691018819809e-02,1.227466821670532227e+00,4.242798779159784317e-03,1.814014685805886984e-04,-0.000000000000000000e+00,3.366813063621520996e-02,-0.000000000000000000e+00,1.199682429432868958e-02,4.891598597168922424e-03,-0.000000000000000000e+00,-0.000000000000000000e+00,2.283510006964206696e-02,1.463557127863168716e-03,-0.000000000000000000e+00,-0.000000000000000000e+00,1.672134399414062500e+00,2.832751750946044922e+00,-0.000000000000000000e+00,4.472399130463600159e-03,-0.000000000000000000e+00,-0.000000000000000000e+00,-0.000000000000000000e+00,-0.000000000000000000e+00,-0.000000000000000000e+00,-0.000000000000000000e+00,-0.000000000000000000e+00,-0.000000000000000000e+00,3.194855526089668274e-02,1.381615519523620605e+00,3.913528751581907272e-03,6.299076676368713379e-01,-0.000000000000000000e+00,1.404256094247102737e-02,1.784582257270812988e+00,4.957475364208221436e-01,1.878047734498977661e-02,2.212632417678833008e+00,5.842637736350297928e-03,1.586438417434692383e+00,1.868320822715759277e+00,6.815958768129348755e-04,7.180492859333753586e-03,1.155495494604110718e-01,4.210755228996276855e-03,1.262526750564575195e+00,1.194186508655548096e-02,-0.000000000000000000e+00,8.071283698081970215e-01,5.657559260725975037e-03,-0.000000000000000000e+00,-0.000000000000000000e+00,-0.000000000000000000e+00,-0.000000000000000000e+00,-0.000000000000000000e+00,1.521992497146129608e-03,1.160074114799499512e+00,1.238426566123962402e+00,-0.000000000000000000e+00,4.251914098858833313e-02,2.945083379745483398e+00,-0.000000000000000000e+00,1.102774739265441895e+00,7.776036858558654785e-01,1.862161094322800636e-03,1.634133696556091309e+00,-0.000000000000000000e+00,2.469570375978946686e-03,-0.000000000000000000e+00,2.857126528397202492e-03,-0.000000000000000000e+00,-0.000000000000000000e+00,-0.000000000000000000e+00,-0.000000000000000000e+00,-0.000000000000000000e+00,-0.000000000000000000e+00,-0.000000000000000000e+00,-0.000000000000000000e+00,4.908916950225830078e-01,-0.000000000000000000e+00,-0.000000000000000000e+00,3.501010825857520103e-03,-0.000000000000000000e+00,1.983924984931945801e+00,2.411228790879249573e-02,2.607783794403076172e+00,-0.000000000000000000e+00,1.104195117950439453e+00,1.136231064796447754e+00,1.080104827880859375e+00,2.102055549621582031e+00,-0.000000000000000000e+00,-0.000000000000000000e+00,1.524272281676530838e-02,1.698737964034080505e-02,-0.000000000000000000e+00,-0.000000000000000000e+00,7.036969661712646484e-01,1.921385899186134338e-02,-0.000000000000000000e+00,-0.000000000000000000e+00,-0.000000000000000000e+00,-0.000000000000000000e+00,-0.000000000000000000e+00,-0.000000000000000000e+00,-0.000000000000000000e+00,1.763449907302856445e-01,3.231770396232604980e-01,-0.000000000000000000e+00,6.682373583316802979e-03,6.725244522094726562e-01,-0.000000000000000000e+00,-0.000000000000000000e+00,1.682054717093706131e-03,-0.000000000000000000e+00,4.178959410637617111e-03,-0.000000000000000000e+00,-0.000000000000000000e+00,-0.000000000000000000e+00,2.780531765893101692e-03,1.413953423500061035e+00,2.528370857238769531e+00,2.852393081411719322e-03,-0.000000000000000000e+00,1.134735625237226486e-02,-0.000000000000000000e+00,1.763353466987609863e+00,2.079566475003957748e-03,1.629632234573364258e+00,3.849670989438891411e-03,3.663430929183959961e+00,2.834732003975659609e-04,1.452076315879821777e+00,5.518274381756782532e-03,8.456464856863021851e-03,1.132262110710144043e+00,-0.000000000000000000e+00,3.507721722126007080e-01,1.239611744880676270e+00,7.981617236509919167e-04,9.492840617895126343e-02,-0.000000000000000000e+00,-0.000000000000000000e+00,-0.000000000000000000e+00,1.306736826896667480e+00,-0.000000000000000000e+00,-0.000000000000000000e+00,2.143057296052575111e-03,5.715017323382198811e-06,3.261036763433367014e-04,8.914808742702007294e-03,-0.000000000000000000e+00,3.148220479488372803e-03,-0.000000000000000000e+00,3.884025383740663528e-03,2.063045511022210121e-03,1.466937130317091942e-03,-0.000000000000000000e+00,-0.000000000000000000e+00,-0.000000000000000000e+00,2.951020002365112305e-02,2.373617887496948242e+00,1.782893896102905273e+00,1.891452632844448090e-02,1.040241241455078125e+00,1.767374396324157715e+00,-0.000000000000000000e+00,1.637248277664184570e+00,1.773627638816833496e+00,5.956662935204803944e-04,1.566665649414062500e+00,-0.000000000000000000e+00,2.806014299392700195e+00,5.963531788438558578e-03,-0.000000000000000000e+00,-0.000000000000000000e+00,1.242378830909729004e+00,3.201083660125732422e+00,-0.000000000000000000e+00,-0.000000000000000000e+00,-0.000000000000000000e+00,1.332955621182918549e-02,1.638210177421569824e+00,1.758938312530517578e+00,2.098271608352661133e+00,1.251679472625255585e-02,5.606686472892761230e-01,8.137437701225280762e-01,7.287744898349046707e-03,1.803172111511230469e+00,1.750555075705051422e-02,-0.000000000000000000e+00,9.600113146007061005e-03,-0.000000000000000000e+00,2.256536960601806641e+00,2.545701107010245323e-03,2.139267206192016602e+00,4.261239431798458099e-03,4.829273745417594910e-02,-0.000000000000000000e+00,1.015090290457010269e-02,-0.000000000000000000e+00,7.459698710590600967e-03,4.643240245059132576e-04,-0.000000000000000000e+00,3.349139820784330368e-03,3.403666973114013672e+00,1.947529911994934082e-01,5.688444375991821289e-01,1.712267398834228516e+00,1.773023456335067749e-01,7.784696817398071289e-01,9.219027757644653320e-01,1.366916656494140625e+00,1.958896636962890625e+00,1.797351479530334473e+00,-0.000000000000000000e+00,1.649470254778862000e-02,3.650611937046051025e-01,1.705632567405700684e+00,1.460407018661499023e+00,1.140557885169982910e+00,-0.000000000000000000e+00,-0.000000000000000000e+00,-0.000000000000000000e+00,-0.000000000000000000e+00,7.779014706611633301e-01,3.078485140576958656e-03,2.003674507141113281e+00,-0.000000000000000000e+00,2.666036128997802734e+00,1.591263711452484131e-02,3.884269157424569130e-03,5.978284478187561035e-01,2.400443792343139648e+00,-0.000000000000000000e+00,2.345566079020500183e-02,2.309208959341049194e-01,-0.000000000000000000e+00,1.687918186187744141e+00,-0.000000000000000000e+00,4.884282946586608887e-01,-0.000000000000000000e+00,-0.000000000000000000e+00,4.321199357509613037e-01,-0.000000000000000000e+00,-0.000000000000000000e+00,-0.000000000000000000e+00,2.484392374753952026e-03,1.444359775632619858e-03,-0.000000000000000000e+00,6.838130299001932144e-03,-0.000000000000000000e+00,-0.000000000000000000e+00,-0.000000000000000000e+00,-0.000000000000000000e+00,-0.000000000000000000e+00,-0.000000000000000000e+00,1.017895434051752090e-02,-0.000000000000000000e+00,-0.000000000000000000e+00,-0.000000000000000000e+00,-0.000000000000000000e+00,-0.000000000000000000e+00,5.670221056789159775e-03,-0.000000000000000000e+00,-0.000000000000000000e+00,-0.000000000000000000e+00,1.663368381559848785e-02,6.072501186281442642e-03,-0.000000000000000000e+00,-0.000000000000000000e+00,-0.000000000000000000e+00,-0.000000000000000000e+00,-0.000000000000000000e+00,-0.000000000000000000e+00,-0.000000000000000000e+00,-0.000000000000000000e+00,-0.000000000000000000e+00,-0.000000000000000000e+00,-0.000000000000000000e+00,-0.000000000000000000e+00,-0.000000000000000000e+00,-0.000000000000000000e+00,-0.000000000000000000e+00,-0.000000000000000000e+00,6.490918397903442383e-01,-0.000000000000000000e+00,1.752291573211550713e-04,6.716865897178649902e-01,-0.000000000000000000e+00,-0.000000000000000000e+00,-0.000000000000000000e+00,3.397848224267363548e-03,4.084773957729339600e-01,-0.000000000000000000e+00,-0.000000000000000000e+00,-0.000000000000000000e+00,-0.000000000000000000e+00,-0.000000000000000000e+00,-0.000000000000000000e+00,-0.000000000000000000e+00,-0.000000000000000000e+00,-0.000000000000000000e+00,-0.000000000000000000e+00,-0.000000000000000000e+00,-0.000000000000000000e+00,7.985644042491912842e-03,-0.000000000000000000e+00,3.896708833053708076e-03,-0.000000000000000000e+00,-0.000000000000000000e+00,3.698257729411125183e-02
-0.000000000000000000e+00,-0.000000000000000000e+00,-0.000000000000000000e+00,-0.000000000000000000e+00,4.900905303657054901e-03,-0.000000000000000000e+00,3.973928978666663170e-04,6.837975382804870605e-01,-0.000000000000000000e+00,-0.000000000000000000e+00,-0.000000000000000000e+00,1.951671242713928223e+00,-0.000000000000000000e+00,1.806579530239105225e-02,-0.000000000000000000e+00,-0.000000000000000000e+00,-0.000000000000000000e+00,-0.000000000000000000e+00,-0.000000000000000000e+00,-0.000000000000000000e+00,9.638524651527404785e-01,9.557984471321105957e-01,6.733313798904418945e-01,1.665334217250347137e-02,-0.000000000000000000e+00,-0.000000000000000000e+00,2.134136915206909180e+00,-0.000000000000000000e+00,-0.000000000000000000e+00,-0.000000000000000000e+00,-0.000000000000000000e+00,9.036500006914138794e-03,-0.000000000000000000e+00,-0.000000000000000000e+00,-0.000000000000000000e+00,-0.000000000000000000e+00,-0.000000000000000000e+00,3.819162724539637566e-03,1.850223183631896973e+00,-0.000000000000000000e+00,-0.000000000000000000e+00,-0.000000000000000000e+00,9.561231854604557157e-05,5.549940466880798340e-01,3.678414577734656632e-05,2.008057013154029846e-02,1.350126345641911030e-03,2.012779470533132553e-03,-0.000000000000000000e+00,6.137373447418212891e-01,1.333212945610284805e-02,8.310887962579727173e-03,2.455285638570785522e-01,-0.000000000000000000e+00,3.828530665487051010e-03,-0.000000000000000000e+00,-0.000000000000000000e+00,-0.000000000000000000e+00,-0.000000000000000000e+00,-0.000000000000000000e+00,-0.000000000000000000e+00,9.423396587371826172e-01,1.376500487327575684e+00,5.459138751029968262e-01,3.540546298027038574e-01,-0.000000000000000000e+00,-0.000000000000000000e+00,-0.000000000000000000e+00,1.694229431450366974e-02,8.948303293436765671e-04,-0.000000000000000000e+00,4.747219500131905079e-04,-0.000000000000000000e+00,-0.000000000000000000e+00,-0.000000000000000000e+00,5.096531822346150875e-04,-0.000000000000000000e+00,-0.000000000000000000e+00,6.892399191856384277e-01,-0.000000000000000000e+00,2.297737635672092438e-02,-0.000000000000000000e+00,-0.000000000000000000e+00,7.247955072671175003e-03,2.201707124710083008e+00,-0.000000000000000000e+00,5.226920824497938156e-03,-0.000000000000000000e+00,-0.000000000000000000e+00,-0.000000000000000000e+00,-0.000000000000000000e+00,-0.000000000000000000e+00,-0.000000000000000000e+00,-0.000000000000000000e+00,3.725492628291249275e-03,3.496876684948801994e-03,1.337754447013139725e-02,3.179473638534545898e+00,1.969453133642673492e-02,-0.000000000000000000e+00,7.733382750302553177e-03,8.278648257255554199e-01,2.045367378741502762e-03,6.826906800270080566e-01,-0.000000000000000000e+00,3.827877342700958252e-02,-0.000000000000000000e+00,7.626901380717754364e-03,-0.000000000000000000e+00,3.976369276642799377e-03,1.203019917011260986e-01,2.127145767211914062e+00,1.547401189804077148e+00,-0.000000000000000000e+00,-0.000000000000000000e+00,-0.000000000000000000e+00,1.207474037073552608e-03,-0.000000000000000000e+00,1.487630367279052734e+00,-0.000000000000000000e+00,-0.000000000000000000e+00,-0.000000000000000000e+00,1.305577345192432404e-02,1.040891045704483986e-03,8.465489372611045837e-04,2.558474242687225342e-02,3.306048631668090820e+00,-0.000000000000000000e+00,-0.000000000000000000e+00,1.923285365104675293e+00,4.888169288635253906e+00,-0.000000000000000000e+00,2.808428287506103516e+00,-0.000000000000000000e+00,5.441052839159965515e-03,-0.000000000000000000e+00,2.579285530373454094e-03,-0.000000000000000000e+00,5.040286108851432800e-03,4.306205082684755325e-03,6.667844485491514206e-03,6.710940599441528320e-01,2.117251306772232056e-01,-0.000000000000000000e+00,-0.000000000000000000e+00,-0.000000000000000000e+00,3.572943687438964844e+00,1.282527227886021137e-05,3.196537733078002930e+00,7.936543785035610199e-03,1.701522851362824440e-03,-0.000000000000000000e+00,-0.000000000000000000e+00,-0.000000000000000000e+00,1.291468855924904346e-03,-0.000000000000000000e+00,-0.000000000000000000e+00,1.376322627067565918e+00,-0.000000000000000000e+00,-0.000000000000000000e+00,1.982053399085998535e+00,-0.000000000000000000e+00,9.104067459702491760e-03,-0.000000000000000000e+00,1.319629073143005371e+00,-0.000000000000000000e+00,-0.000000000000000000e+00,-0.000000000000000000e+00,-0.000000000000000000e+00,-0.000000000000000000e+00,-0.000000000000000000e+00,6.807027459144592285e-01,1.176374591886997223e-02,-0.000000000000000000e+00,1.938156038522720337e-02,1.583204984664916992e+00,9.490761756896972656e-01,1.112120628356933594e+00,2.120502471923828125e+00,1.856006741523742676e+00,7.850983738899230957e-01,1.534698605537414551e+00,-0.000000000000000000e+00,2.803348064422607422e+00,1.526937007904052734e+00,1.169033288955688477e+00,3.433598995208740234e+00,1.438270264770835638e-04,-0.000000000000000000e+00,1.787185430526733398e+00,1.779110431671142578e+00,1.371549010276794434e+00,-0.000000000000000000e+00,-0.000000000000000000e+00,2.241829633712768555e+00,-0.000000000000000000e+00,1.939273439347743988e-02,7.252660393714904785e-01,8.943728208541870117e-01,1.205137252807617188e+00,-0.000000000000000000e+00,9.249395132064819336e-02,-0.000000000000000000e+00,-0.000000000000000000e+00,-0.000000000000000000e+00,-0.000000000000000000e+00,1.072140812873840332e+00,-0.000000000000000000e+00,-0.000000000000000000e+00,-0.000000000000000000e+00,-0.000000000000000000e+00,-0.000000000000000000e+00,1.699800719507038593e-03,-0.000000000000000000e+00,-0.000000000000000000e+00,5.306134000420570374e-03,-0.000000000000000000e+00,2.890424057841300964e-02,2.320229291915893555e+00,2.158272504806518555e+00,1.862294673919677734e+00,1.712442278861999512e+00,1.971048951148986816e+00,1.085169434547424316e+00,-0.000000000000000000e+00,6.657869219779968262e-01,1.874025106430053711e+00,2.691227436065673828e+00,2.738732337951660156e+00,2.527625560760498047e+00,1.207569122314453125e+00,1.943526864051818848e+00,1.937391281127929688e+00,2.746226310729980469e+00,-0.000000000000000000e+00,1.076302051544189453e+00,-0.000000000000000000e+00,4.337628483772277832e-01,1.787713885307312012e+00,7.398905698210000992e-03,2.397450447082519531e+00,2.252979390323162079e-02,1.499742150306701660e+00,-0.000000000000000000e+00,1.734726428985595703e+00,1.616699099540710449e+00,9.164828807115554810e-03,-0.000000000000000000e+00,5.370870605111122131e-02,-0.000000000000000000e+00,2.652842521667480469e+00,-0.000000000000000000e+00,-0.000000000000000000e+00,1.036406680941581726e-02,1.821211166679859161e-02,-0.000000000000000000e+00,-0.000000000000000000e+00,-0.000000000000000000e+00,7.285845465958118439e-03,-0.000000000000000000e+00,-0.000000000000000000e+00,-0.000000000000000000e+00,-0.000000000000000000e+00,-0.000000000000000000e+00,-0.000000000000000000e+00,-0.000000000000000000e+00,1.390774250030517578e+00,7.361950874328613281e-01,2.658547018654644489e-04,3.736672690138220787e-03,-0.000000000000000000e+00,8.886036463081836700e-03,2.749294757843017578e+00,1.997464569285511971e-03,-0.000000000000000000e+00,8.360430365428328514e-04,1.839264869689941406e+00,1.539248824119567871e+00,3.018763102591037750e-02,2.909303426742553711e+00,1.534044384956359863e+00,1.062763452529907227e+00,-0.000000000000000000e+00,-0.000000000000000000e+00,7.736073732376098633e-01,-0.000000000000000000e+00,-0.000000000000000000e+00,1.544398348778486252e-02,-0.000000000000000000e+00,-0.000000000000000000e+00,2.264171361923217773e+00,1.631032791920006275e-04,1.335555221885442734e-02,1.065007760189473629e-03,6.295950617641210556e-03,-0.000000000000000000e+00,-0.000000000000000000e+00,-0.000000000000000000e+00,-0.000000000000000000e+00,-0.000000000000000000e+00,1.720092535018920898e+00,-0.000000000000000000e+00,-0.000000000000000000e+00,-0.000000000000000000e+00,-0.000000000000000000e+00,-0.000000000000000000e+00,-0.000000000000000000e+00,-0.000000000000000000e+00,1.545030251145362854e-02,-0.000000000000000000e+00,-0.000000000000000000e+00,9.013004601001739502e-03,-0.000000000000000000e+00,-0.000000000000000000e+00,-0.000000000000000000e+00,-0.000000000000000000e+00,-0.000000000000000000e+00,7.466831803321838379e-01,3.192737465724349022e-03,-0.000000000000000000e+00,8.476861694362014532e-05,-0.000000000000000000e+00,-0.000000000000000000e+00,-0.000000000000000000e+00,-0.000000000000000000e+00,-0.000000000000000000e+00,-0.000000000000000000e+00,4.055571742355823517e-03,-0.000000000000000000e+00,-0.000000000000000000e+00,-0.000000000000000000e+00,-0.000000000000000000e+00,-0.000000000000000000e+00,3.463431028649210930e-03,-0.000000000000000000e+00,1.317677670158445835e-03,-0.000000000000000000e+00,-0.000000000000000000e+00,1.023007091134786606e-03,9.302545338869094849e-03,-0.000000000000000000e+00,8.972448296844959259e-03,5.709886550903320312e-03,-0.000000000000000000e+00,-0.000000000000000000e+00,-0.000000000000000000e+00,2.615137025713920593e-02,-0.000000000000000000e+00,-0.000000000000000000e+00,-0.000000000000000000e+00,-0.000000000000000000e+00,6.147334352135658264e-03,2.743061304092407227e+00,3.771964926272630692e-03,-0.000000000000000000e+00,1.477072238922119141e+00,-0.000000000000000000e+00,-0.000000000000000000e+00,1.717422856017947197e-03,-0.000000000000000000e+00,-0.000000000000000000e+00,-0.000000000000000000e+00,6.953701376914978027e-01,-0.000000000000000000e+00,-0.000000000000000000e+00,-0.000000000000000000e+00,1.923018251545727253e-03,-0.000000000000000000e+00,9.253120981156826019e-03
