3.052773536182940006e-04,3.154118021484464407e-04,-0.000000000000000000e+00,4.515682303463108838e-05,-0.000000000000000000e+00,5.259253666736185551e-04,-0.000000000000000000e+00,-0.000000000000000000e+00,-0.000000000000000000e+00,1.755748235154896975e-04,-0.000000000000000000e+00,4.190864565316587687e-04,-0.000000000000000000e+00,-0.000000000000000000e+00,-0.000000000000000000e+00,-0.000000000000000000e+00,5.439154338091611862e-04,5.334931774996221066e-04,2.655911084730178118e-04,3.546111111063510180e-04,-0.000000000000000000e+00,6.188414990901947021e-04,6.146963569335639477e-04,-0.000000000000000000e+00,6.276952335610985756e-04,-0.000000000000000000e+00,-0.000000000000000000e+00,-0.000000000000000000e+00,-0.000000000000000000e+00,5.596340633928775787e-04,2.995624381583184004e-04,-0.000000000000000000e+00,-0.000000000000000000e+00,-0.000000000000000000e+00,6.414579693228006363e-04,-0.000000000000000000e+00,3.357775276526808739e-04,5.305272061377763748e-04,-0.000000000000000000e+00,4.241183924023061991e-04,2.395400952082127333e-04,-0.000000000000000000e+00,-0.000000000000000000e+00,6.361837149597704411e-04,8.139931742334738374e-05,1.449654373573139310e-04,-0.000000000000000000e+00,6.399759149644523859e-05,-0.000000000000000000e+00,-0.000000000000000000e+00,6.082560867071151733e-04,3.513027040753513575e-04,-0.000000000000000000e+00,-0.000000000000000000e+00,-0.000000000000000000e+00,-0.000000000000000000e+00,-0.000000000000000000e+00,1.711706681817304343e-05,-0.000000000000000000e+00,9.010251233121380210e-05,4.626524460036307573e-04,5.172805977053940296e-04,-0.000000000000000000e+00,5.702245398424565792e-04,5.434228223748505116e-04,-0.000000000000000000e+00,2.531293430365622044e-04,-0.000000000000000000e+00,5.747661925852298737e-04,-0.000000000000000000e+00,4.555224149953573942e-04,-0.000000000000000000e+00,4.723963502328842878e-04,3.759401442948728800e-04,-0.000000000000000000e+00,-0.000000000000000000e+00,1.474340533604845405e-04,-0.000000000000000000e+00,-0.000000000000000000e+00,5.928103928454220295e-04,1.465171080781146884e-04,5.511103081516921520e-04,3.173389122821390629e-04,4.296419792808592319e-04,-0.000000000000000000e+00,-0.000000000000000000e+00,-0.000000000000000000e+00,-0.000000000000000000e+00,6.021073786541819572e-04,1.178699858428444713e-05,-0.000000000000000000e+00,-0.000000000000000000e+00,4.966405103914439678e-04,-0.000000000000000000e+00,4.448165709618479013e-04,1.807820372050628066e-04,-0.000000000000000000e+00,-0.000000000000000000e+00,-0.000000000000000000e+00,-0.000000000000000000e+00,-0.000000000000000000e+00,4.668215988203883171e-04,-0.000000000000000000e+00,6.353044882416725159e-04,4.160402168054133654e-04,-0.000000000000000000e+00,-0.000000000000000000e+00,-0.000000000000000000e+00,5.719920736737549305e-04,-0.000000000000000000e+00,-0.000000000000000000e+00,-0.000000000000000000e+00,-0.000000000000000000e+00,-0.000000000000000000e+00,-0.000000000000000000e+00,-0.000000000000000000e+00,3.082455077674239874e-05,-0.000000000000000000e+00,1.067592238541692495e-04,4.162522091064602137e-04,2.610623196233063936e-04,2.970272325910627842e-04,3.614389861468225718e-04,-0.000000000000000000e+00,6.608386756852269173e-04,5.806265980936586857e-04,-0.000000000000000000e+00,-0.000000000000000000e+00
5.177275743335485458e-04,5.515446537174284458e-04,-0.000000000000000000e+00,4.651997296605259180e-04,6.588722462765872478e-04,6.228441634448245168e-05,-0.000000000000000000e+00,2.951572241727262735e-04,-0.000000000000000000e+00,5.431944155134260654e-04,-0.000000000000000000e+00,2.546631149016320705e-04,-0.000000000000000000e+00,3.920165763702243567e-04,5.507003515958786011e-04,-0.000000000000000000e+00,5.566932959482073784e-04,2.689437533263117075e-04,2.271468983963131905e-04,2.120558492606505752e-04,2.875968348234891891e-04,-0.000000000000000000e+00,8.129534398904070258e-05,5.935993394814431667e-04,4.375145726953633130e-05,-0.000000000000000000e+00,-0.000000000000000000e+00,3.172579745296388865e-04,3.507446090225130320e-04,-0.000000000000000000e+00,-0.000000000000000000e+00,3.417514963075518608e-04,-0.000000000000000000e+00,-0.000000000000000000e+00,-0.000000000000000000e+00,3.819919948000460863e-04,-0.000000000000000000e+00,4.326779453549534082e-04,5.299953627400100231e-04,3.525124338921159506e-04,2.978547709062695503e-04,-0.000000000000000000e+00,5.055837100371718407e-04,3.417657280806452036e-04,-0.000000000000000000e+00,-0.000000000000000000e+00,-0.000000000000000000e+00,-0.000000000000000000e+00,-0.000000000000000000e+00,-0.000000000000000000e+00,-0.000000000000000000e+00,1.694821694400161505e-04,-0.000000000000000000e+00,2.284482616232708097e-05,-0.000000000000000000e+00,2.489675534889101982e-04,-0.000000000000000000e+00,2.741244679782539606e-04,3.811600327026098967e-04,-0.000000000000000000e+00,-0.000000000000000000e+00,-0.000000000000000000e+00,-0.000000000000000000e+00,-0.000000000000000000e+00,-0.000000000000000000e+00,-0.000000000000000000e+00,6.530551472678780556e-04,-0.000000000000000000e+00,-0.000000000000000000e+00,6.052019307389855385e-04,-0.000000000000000000e+00,-0.000000000000000000e+00,3.769916947931051254e-04,4.043403314426541328e-04,2.835763734765350819e-04,-0.000000000000000000e+00,-0.000000000000000000e+00,-0.000000000000000000e+00,5.757068283855915070e-04,-0.000000000000000000e+00,-0.000000000000000000e+00,4.975056508556008339e-04,-0.000000000000000000e+00,1.022367432597093284e-04,-0.000000000000000000e+00,-0.000000000000000000e+00,-0.000000000000000000e+00,-0.000000000000000000e+00,-0.000000000000000000e+00,-0.000000000000000000e+00,6.004435708746314049e-04,-0.000000000000000000e+00,5.115308449603617191e-04,3.932441177312284708e-04,-0.000000000000000000e+00,-0.000000000000000000e+00,4.020438063889741898e-04,-0.000000000000000000e+00,2.879744279198348522e-04,2.564666210673749447e-04,1.451367133995518088e-04,5.835723713971674442e-04,-0.000000000000000000e+00,-0.000000000000000000e+00,2.684317005332559347e-04,-0.000000000000000000e+00,2.105992462020367384e-04,-0.000000000000000000e+00,-0.000000000000000000e+00,-0.000000000000000000e+00,2.895415818784385920e-04,-0.000000000000000000e+00,-0.000000000000000000e+00,-0.000000000000000000e+00,-0.000000000000000000e+00,-0.000000000000000000e+00,-0.000000000000000000e+00,-0.000000000000000000e+00,1.009482948575168848e-04,1.432060089427977800e-04,5.916995578445494175e-04,-0.000000000000000000e+00,-0.000000000000000000e+00,3.480958694126456976e-04,6.418239790946245193e-04,-0.000000000000000000e+00,-0.000000000000000000e+00,-0.000000000000000000e+00
-0.000000000000000000e+00,-0.000000000000000000e+00,6.140971090644598007e-04,-0.000000000000000000e+00,-0.000000000000000000e+00,1.268839841941371560e-04,2.997356932610273361e-04,-0.000000000000000000e+00,5.053265485912561417e-04,-0.000000000000000000e+00,4.293239035177975893e-04,3.236679476685822010e-04,6.286601419560611248e-04,6.643412052653729916e-04,-0.000000000000000000e+00,6.619094056077301502e-04,6.285101990215480328e-04,1.160721149062737823e-04,2.726991369854658842e-04,2.901642583310604095e-04,2.642559411469846964e-04,2.577005652710795403e-04,-0.000000000000000000e+00,2.286560338689014316e-04,-0.000000000000000000e+00,5.043243290856480598e-04,3.195327299181371927e-04,3.607358667068183422e-05,8.792051085038110614e-05,-0.000000000000000000e+00,-0.000000000000000000e+00,-0.000000000000000000e+00,-0.000000000000000000e+00,5.703880451619625092e-04,4.213671782054007053e-04,6.290979799814522266e-04,-0.000000000000000000e+00,5.211461029830388725e-05,3.251376620028167963e-04,1.000653064693324268e-04,-0.000000000000000000e+00,6.020190776325762272e-04,1.028930855682119727e-04,5.385002004913985729e-04,-0.000000000000000000e+00,6.062841275706887245e-04,-0.000000000000000000e+00,-0.000000000000000000e+00,-0.000000000000000000e+00,4.670134512707591057e-04,9.430199133930727839e-05,-0.000000000000000000e+00,2.157525450456887484e-04,-0.000000000000000000e+00,4.933963064104318619e-04,5.099326372146606445e-04,-0.000000000000000000e+00,2.464013814460486174e-04,-0.000000000000000000e+00,3.619534836616367102e-04,5.645427154377102852e-04,3.956046712119132280e-04,3.763158165384083986e-04,6.343958084471523762e-04,5.326220416463911533e-04,-0.000000000000000000e+00,-0.000000000000000000e+00,-0.000000000000000000e+00,-0.000000000000000000e+00,-0.000000000000000000e+00,1.274796522920951247e-04,1.555722265038639307e-04,-0.000000000000000000e+00,-0.000000000000000000e+00,-0.000000000000000000e+00,5.077575333416461945e-04,-0.000000000000000000e+00,-0.000000000000000000e+00,-0.000000000000000000e+00,-0.000000000000000000e+00,3.558333846740424633e-04,3.842446894850581884e-04,-0.000000000000000000e+00,5.017588846385478973e-04,1.786330394679680467e-04,1.464279193896800280e-04,-0.000000000000000000e+00,3.338720707688480616e-04,-0.000000000000000000e+00,2.173256216337904334e-04,3.293382760602980852e-04,2.767238183878362179e-04,-0.000000000000000000e+00,5.806423359899781644e-05,5.128945340402424335e-04,3.681888047140091658e-04,-0.000000000000000000e+00,6.072585238143801689e-04,5.945409066043794155e-04,2.021475083893164992e-04,5.944566219113767147e-04,-0.000000000000000000e+00,-0.000000000000000000e+00,4.127847496420145035e-04,3.044940531253814697e-04,3.922272753698052838e-06,5.432655452750623226e-04,-0.000000000000000000e+00,1.957013009814545512e-04,3.461154119577258825e-04,2.169518302252981812e-05,-0.000000000000000000e+00,1.486068958911346272e-05,1.583245320944115520e-04,-0.000000000000000000e+00,1.978658547159284353e-04,3.793512587435543537e-04,-0.000000000000000000e+00,1.651319471420720220e-04,-0.000000000000000000e+00,3.187956463079899549e-05,-0.000000000000000000e+00,-0.000000000000000000e+00,2.685661893337965012e-04,-0.000000000000000000e+00,-0.000000000000000000e+00,-0.000000000000000000e+00,-0.000000000000000000e+00
-0.000000000000000000e+00,4.722201556432992220e-04,2.422043908154591918e-04,1.720036088954657316e-04,3.323772107250988483e-04,3.361251146998256445e-04,-0.000000000000000000e+00,4.063260275870561600e-04,6.218033959157764912e-04,5.347793339751660824e-04,1.635738299228250980e-04,5.760160856880247593e-04,4.643515239877160639e-06,-0.000000000000000000e+00,4.502177762333303690e-04,1.759857550496235490e-04,-0.000000000000000000e+00,1.463054504711180925e-04,-0.000000000000000000e+00,2.282334753545001149e-05,2.290382690262049437e-04,5.644201301038265228e-04,3.699673106893897057e-05,-0.000000000000000000e+00,3.411766374483704567e-04,-0.000000000000000000e+00,-0.000000000000000000e+00,-0.000000000000000000e+00,-0.000000000000000000e+00,6.291447207331657410e-04,-0.000000000000000000e+00,2.127123298123478889e-04,-0.000000000000000000e+00,5.961996503174304962e-04,5.188288050703704357e-04,5.590155487880110741e-04,2.111170761054381728e-04,4.387287772260606289e-04,4.043981607537716627e-04,3.772957425098866224e-04,-0.000000000000000000e+00,6.035996484570205212e-04,2.214213163824751973e-04,-0.000000000000000000e+00,3.438314524828456342e-05,5.518883699551224709e-04,-0.000000000000000000e+00,-0.000000000000000000e+00,-0.000000000000000000e+00,-0.000000000000000000e+00,-0.000000000000000000e+00,5.761121283285319805e-04,9.346635488327592611e-05,-0.000000000000000000e+00,3.629227867349982262e-04,-0.000000000000000000e+00,1.635238004382699728e-04,-0.000000000000000000e+00,2.881528344005346298e-04,-0.000000000000000000e+00,6.229299469850957394e-04,-0.000000000000000000e+00,-0.000000000000000000e+00,8.920046821003779769e-05,-0.000000000000000000e+00,-0.000000000000000000e+00,5.675721913576126099e-04,-0.000000000000000000e+00,-0.000000000000000000e+00,-0.000000000000000000e+00,-0.000000000000000000e+00,3.183999797329306602e-04,-0.000000000000000000e+00,-0.000000000000000000e+00,6.355053483275696635e-05,6.172599969431757927e-04,2.635361452121287584e-04,5.266480147838592529e-04,4.879914049524813890e-04,-0.000000000000000000e+00,2.305934322066605091e-04,-0.000000000000000000e+00,6.119142053648829460e-04,2.240919711766764522e-04,3.031916567124426365e-04,-0.000000000000000000e+00,-0.000000000000000000e+00,9.134058927884325385e-05,5.936736124567687511e-05,-0.000000000000000000e+00,3.436325932852923870e-04,2.911754709202796221e-04,-0.000000000000000000e+00,-0.000000000000000000e+00,-0.000000000000000000e+00,6.297641084529459476e-04,2.246320800622925162e-04,-0.000000000000000000e+00,1.814567222027108073e-04,-0.000000000000000000e+00,-0.000000000000000000e+00,5.972702638246119022e-04,5.533209186978638172e-04,1.548605359857901931e-04,4.099704965483397245e-04,-0.000000000000000000e+00,-0.000000000000000000e+00,-0.000000000000000000e+00,-0.000000000000000000e+00,9.423257142771035433e-05,-0.000000000000000000e+00,-0.000000000000000000e+00,5.691327387467026711e-04,-0.000000000000000000e+00,-0.000000000000000000e+00,6.464993930421769619e-04,2.922755666077136993e-04,-0.000000000000000000e+00,8.135879033943638206e-05,8.436024654656648636e-05,-0.000000000000000000e+00,-0.000000000000000000e+00,4.552563477773219347e-04,-0.000000000000000000e+00,-0.000000000000000000e+00,-0.000000000000000000e+00,-0.000000000000000000e+00,2.409839726169593632e-05
-0.000000000000000000e+00,3.251159505452960730e-04,-0.000000000000000000e+00,4.911877331323921680e-04,-0.000000000000000000e+00,2.921431732829660177e-04,-0.000000000000000000e+00,-0.000000000000000000e+00,-0.000000000000000000e+00,-0.000000000000000000e+00,3.253496252000331879e-04,3.847615735139697790e-04,2.590662916190922260e-04,8.801296644378453493e-06,2.406902931397780776e-04,4.746337945107370615e-04,2.304784720763564110e-04,-0.000000000000000000e+00,-0.000000000000000000e+00,4.257772234268486500e-04,-0.000000000000000000e+00,-0.000000000000000000e+00,4.581998509820550680e-04,9.863294690148904920e-05,-0.000000000000000000e+00,4.582604742608964443e-04,-0.000000000000000000e+00,-0.000000000000000000e+00,-0.000000000000000000e+00,4.261854628566652536e-04,-0.000000000000000000e+00,-0.000000000000000000e+00,6.884662434458732605e-05,8.774604793870821595e-05,-0.000000000000000000e+00,3.841237048618495464e-04,5.003372207283973694e-04,-0.000000000000000000e+00,6.518571753986179829e-04,-0.000000000000000000e+00,-0.000000000000000000e+00,3.209115529898554087e-04,3.527016669977456331e-04,-0.000000000000000000e+00,2.210840830230154097e-05,-0.000000000000000000e+00,3.213029413018375635e-05,6.360186962410807610e-04,6.665450055152177811e-04,1.924925018101930618e-04,1.067662888090126216e-04,-0.000000000000000000e+00,6.017191335558891296e-04,-0.000000000000000000e+00,1.109938093577511609e-04,5.234877462498843670e-04,-0.000000000000000000e+00,2.779391361400485039e-04,6.202299846336245537e-04,2.427681902190670371e-04,-0.000000000000000000e+00,-0.000000000000000000e+00,5.006146384403109550e-04,1.826270163292065263e-04,3.276508941780775785e-04,-0.000000000000000000e+00,-0.000000000000000000e+00,-0.000000000000000000e+00,2.435317146591842175e-04,-0.000000000000000000e+00,9.154684084933251143e-05,-0.000000000000000000e+00,2.545593597460538149e-04,-0.000000000000000000e+00,5.774637102149426937e-04,-0.000000000000000000e+00,4.792711697518825531e-04,5.459216190502047539e-04,2.932815368694718927e-05,5.487842718139290810e-04,-0.000000000000000000e+00,-0.000000000000000000e+00,8.234733832068741322e-05,4.950946313329041004e-04,6.561006885021924973e-04,-0.000000000000000000e+00,1.403269561706110835e-05,9.633718582335859537e-05,-0.000000000000000000e+00,-0.000000000000000000e+00,-0.000000000000000000e+00,-0.000000000000000000e+00,6.658219353994354606e-05,-0.000000000000000000e+00,-0.000000000000000000e+00,3.623405355028808117e-04,-0.000000000000000000e+00,1.753474207362160087e-04,-0.000000000000000000e+00,-0.000000000000000000e+00,-0.000000000000000000e+00,9.009434143081307411e-05,-0.000000000000000000e+00,-0.000000000000000000e+00,-0.000000000000000000e+00,1.163587003247812390e-04,1.750319061102345586e-04,-0.000000000000000000e+00,-0.000000000000000000e+00,1.215233569382689893e-04,1.525809057056903839e-05,-0.000000000000000000e+00,-0.000000000000000000e+00,2.604918263386934996e-04,4.949984722770750523e-04,6.226137629710137844e-04,-0.000000000000000000e+00,5.195760750211775303e-04,-0.000000000000000000e+00,1.560181844979524612e-04,2.713999128900468349e-04,1.406812862114747986e-05,-0.000000000000000000e+00,4.559462249744683504e-04,-0.000000000000000000e+00,5.965960444882512093e-04,6.249342113733291626e-04,-0.000000000000000000e+00
2.194793487433344126e-04,-0.000000000000000000e+00,-0.000000000000000000e+00,4.181859549134969711e-04,-0.000000000000000000e+00,3.315376816317439079e-04,-0.000000000000000000e+00,-0.000000000000000000e+00,2.911800693254917860e-04,2.282329369336366653e-04,-0.000000000000000000e+00,2.846672723535448313e-04,2.810825826600193977e-04,3.623994125518947840e-04,-0.000000000000000000e+00,5.206979112699627876e-04,-0.000000000000000000e+00,-0.000000000000000000e+00,2.565678150858730078e-04,5.774894962087273598e-04,1.097750573535449803e-04,-0.000000000000000000e+00,4.576275750878266990e-05,2.910633338615298271e-04,4.426566301845014095e-04,-0.000000000000000000e+00,2.689992543309926987e-04,-0.000000000000000000e+00,-0.000000000000000000e+00,-0.000000000000000000e+00,1.565572165418416262e-04,-0.000000000000000000e+00,4.389373934827744961e-04,-0.000000000000000000e+00,-0.000000000000000000e+00,-0.000000000000000000e+00,6.076656281948089600e-04,1.870843552751466632e-04,1.730178046273067594e-04,-0.000000000000000000e+00,-0.000000000000000000e+00,5.396044580265879631e-04,-0.000000000000000000e+00,-0.000000000000000000e+00,-0.000000000000000000e+00,-0.000000000000000000e+00,5.417000647867098451e-05,-0.000000000000000000e+00,5.994751118123531342e-04,-0.000000000000000000e+00,-0.000000000000000000e+00,-0.000000000000000000e+00,-0.000000000000000000e+00,1.172533375211060047e-04,6.651329458691179752e-04,-0.000000000000000000e+00,2.666813379619270563e-04,-0.000000000000000000e+00,-0.000000000000000000e+00,-0.000000000000000000e+00,4.839232133235782385e-04,1.287792256334796548e-04,6.062691099941730499e-04,6.439544958993792534e-04,2.584356116130948067e-05,2.290241245646029711e-04,6.499091978184878826e-04,5.638607544824481010e-04,-0.000000000000000000e+00,2.299912302987650037e-04,1.168382805190049112e-04,-0.000000000000000000e+00,-0.000000000000000000e+00,1.374821149511262774e-04,5.532056093215942383e-04,-0.000000000000000000e+00,4.770048544742166996e-04,2.968256012536585331e-04,-0.000000000000000000e+00,-0.000000000000000000e+00,2.481755218468606472e-04,-0.000000000000000000e+00,-0.000000000000000000e+00,-0.000000000000000000e+00,6.262605893425643444e-04,-0.000000000000000000e+00,-0.000000000000000000e+00,-0.000000000000000000e+00,5.875986607861705124e-05,-0.000000000000000000e+00,2.569108037278056145e-04,2.113382470270153135e-05,-0.000000000000000000e+00,2.966951251437421888e-05,1.669301273068413138e-04,5.587980267591774464e-04,-0.000000000000000000e+00,-0.000000000000000000e+00,-0.000000000000000000e+00,-0.000000000000000000e+00,5.500292754732072353e-04,-0.000000000000000000e+00,4.980241646990180016e-05,-0.000000000000000000e+00,-0.000000000000000000e+00,-0.000000000000000000e+00,-0.000000000000000000e+00,3.922710020560771227e-04,-0.000000000000000000e+00,-0.000000000000000000e+00,-0.000000000000000000e+00,3.179970372002571821e-04,4.036297032143920660e-04,7.933304004836827517e-05,2.983835875056684017e-04,5.098511464893817902e-04,-0.000000000000000000e+00,-0.000000000000000000e+00,-0.000000000000000000e+00,-0.000000000000000000e+00,-0.000000000000000000e+00,-0.000000000000000000e+00,-0.000000000000000000e+00,-0.000000000000000000e+00,2.697430027183145285e-04,-0.000000000000000000e+00,4.815470601897686720e-04,-0.000000000000000000e+00
5.164393223822116852e-04,-0.000000000000000000e+00,-0.000000000000000000e+00,-0.000000000000000000e+00,1.752500102156773210e-04,3.852086665574461222e-04,6.340871332213282585e-04,-0.000000000000000000e+00,-0.000000000000000000e+00,1.325691700913012028e-04,2.081624406855553389e-04,-0.000000000000000000e+00,-0.000000000000000000e+00,-0.000000000000000000e+00,1.364905619993805885e-04,2.589776122476905584e-04,3.926972931367345154e-05,-0.000000000000000000e+00,-0.000000000000000000e+00,-0.000000000000000000e+00,-0.000000000000000000e+00,3.726081049535423517e-04,3.072573454119265079e-04,-0.000000000000000000e+00,-0.000000000000000000e+00,-0.000000000000000000e+00,-0.000000000000000000e+00,-0.000000000000000000e+00,6.216166075319051743e-04,4.264948074705898762e-04,6.230588769540190697e-04,2.168539322155993432e-05,6.020672735758125782e-04,-0.000000000000000000e+00,-0.000000000000000000e+00,6.031611119396984577e-04,3.413171798456460238e-04,-0.000000000000000000e+00,-0.000000000000000000e+00,6.236492190510034561e-04,4.266810137778520584e-04,3.924104385077953339e-04,1.790408132364973426e-04,3.567068197298794985e-04,-0.000000000000000000e+00,-0.000000000000000000e+00,2.436579379718750715e-04,3.493462863843888044e-04,3.664593969006091356e-04,-0.000000000000000000e+00,1.577697112224996090e-04,3.171025018673390150e-04,-0.000000000000000000e+00,5.006246501579880714e-04,4.111854650545865297e-04,4.906464600935578346e-04,5.149291246198117733e-04,2.052109193755313754e-04,-0.000000000000000000e+00,6.136963493190705776e-04,-0.000000000000000000e+00,-0.000000000000000000e+00,4.555996274575591087e-04,-0.000000000000000000e+00,-0.000000000000000000e+00,5.574580281972885132e-04,3.945523640140891075e-04,3.101435140706598759e-04,1.605088327778503299e-04,1.651834318181499839e-04,-0.000000000000000000e+00,-0.000000000000000000e+00,-0.000000000000000000e+00,4.679899575421586633e-05,-0.000000000000000000e+00,5.880373064428567886e-04,-0.000000000000000000e+00,-0.000000000000000000e+00,-0.000000000000000000e+00,4.181026597507297993e-04,6.804948498029261827e-05,1.265269820578396320e-04,-0.000000000000000000e+00,-0.000000000000000000e+00,-0.000000000000000000e+00,-0.000000000000000000e+00,-0.000000000000000000e+00,-0.000000000000000000e+00,7.830184040358290076e-05,-0.000000000000000000e+00,-0.000000000000000000e+00,2.287304669152945280e-04,2.978469710797071457e-04,2.802794042509049177e-04,-0.000000000000000000e+00,-0.000000000000000000e+00,-0.000000000000000000e+00,5.196329439058899879e-04,3.462560998741537333e-04,1.856944436440244317e-04,-0.000000000000000000e+00,-0.000000000000000000e+00,2.244598817924270406e-06,3.149182593915611506e-04,-0.000000000000000000e+00,-0.000000000000000000e+00,-0.000000000000000000e+00,-0.000000000000000000e+00,-0.000000000000000000e+00,-0.000000000000000000e+00,5.137511834618635476e-05,-0.000000000000000000e+00,-0.000000000000000000e+00,-0.000000000000000000e+00,-0.000000000000000000e+00,-0.000000000000000000e+00,-0.000000000000000000e+00,-0.000000000000000000e+00,-0.000000000000000000e+00,-0.000000000000000000e+00,-0.000000000000000000e+00,-0.000000000000000000e+00,-0.000000000000000000e+00,-0.000000000000000000e+00,-0.000000000000000000e+00,2.807439304888248444e-04,-0.000000000000000000e+00,2.990495413541793823e-04
-0.000000000000000000e+00,-0.000000000000000000e+00,-0.000000000000000000e+00,1.575628120917826891e-04,-0.000000000000000000e+00,1.427115348633378744e-04,4.158164665568619967e-04,2.534365921746939421e-04,-0.000000000000000000e+00,2.746731333900243044e-04,-0.000000000000000000e+00,1.876127498690038919e-04,-0.000000000000000000e+00,-0.000000000000000000e+00,-0.000000000000000000e+00,3.987507443525828421e-05,-0.000000000000000000e+00,3.218803612980991602e-04,-0.000000000000000000e+00,-0.000000000000000000e+00,4.358522710390388966e-04,4.638439568225294352e-04,3.346512967254966497e-04,-0.000000000000000000e+00,-0.000000000000000000e+00,-0.000000000000000000e+00,-0.000000000000000000e+00,3.961111360695213079e-04,5.828410503454506397e-04,1.901098730741068721e-04,-0.000000000000000000e+00,6.209458806551992893e-04,5.130188656039535999e-04,-0.000000000000000000e+00,-0.000000000000000000e+00,4.325099580455571413e-04,-0.000000000000000000e+00,-0.000000000000000000e+00,-0.000000000000000000e+00,5.978647386655211449e-04,-0.000000000000000000e+00,3.491856332402676344e-04,2.762080403044819832e-04,-0.000000000000000000e+00,3.362481365911662579e-04,4.444351943675428629e-04,5.929277394898235798e-04,5.027686711400747299e-05,4.213273641653358936e-04,-0.000000000000000000e+00,-0.000000000000000000e+00,4.198794194962829351e-04,7.079888018779456615e-05,-0.000000000000000000e+00,-0.000000000000000000e+00,6.002094596624374390e-04,-0.000000000000000000e+00,1.889726845547556877e-04,-0.000000000000000000e+00,3.055678389500826597e-04,5.347169935703277588e-04,1.583033736096695065e-04,-0.000000000000000000e+00,1.691120996838435531e-04,-0.000000000000000000e+00,-0.000000000000000000e+00,-0.000000000000000000e+00,1.183210988529026508e-04,-0.000000000000000000e+00,-0.000000000000000000e+00,-0.000000000000000000e+00,-0.000000000000000000e+00,-0.000000000000000000e+00,8.812762825982645154e-05,-0.000000000000000000e+00,1.228163455380126834e-04,-0.000000000000000000e+00,-0.000000000000000000e+00,2.335519384359940886e-04,-0.000000000000000000e+00,2.907530870288610458e-04,-0.000000000000000000e+00,-0.000000000000000000e+00,-0.000000000000000000e+00,5.987291806377470493e-04,3.140176122542470694e-04,-0.000000000000000000e+00,9.436162508791312575e-05,-0.000000000000000000e+00,-0.000000000000000000e+00,1.366046344628557563e-04,-0.000000000000000000e+00,1.701194269116967916e-04,-0.000000000000000000e+00,1.486873661633580923e-04,3.212924348190426826e-04,1.774937300069723278e-05,-0.000000000000000000e+00,2.511335187591612339e-04,4.169109161011874676e-04,-0.000000000000000000e+00,4.456101742107421160e-04,-0.000000000000000000e+00,-0.000000000000000000e+00,6.398592377081513405e-04,-0.000000000000000000e+00,-0.000000000000000000e+00,-0.000000000000000000e+00,5.543181323446333408e-04,5.708664539270102978e-04,3.641119983512908220e-04,-0.000000000000000000e+00,4.790413659065961838e-04,-0.000000000000000000e+00,1.381709353154292330e-05,-0.000000000000000000e+00,-0.000000000000000000e+00,-0.000000000000000000e+00,6.870662764413282275e-05,5.971142672933638096e-04,4.918467602692544460e-04,-0.000000000000000000e+00,1.023800650727935135e-04,-0.000000000000000000e+00,5.289000691846013069e-04,2.179916191380470991e-04,3.960516769438982010e-04,9.564941137796267867e-05
-0.000000000000000000e+00,-0.000000000000000000e+00,7.364465272985398769e-05,-0.000000000000000000e+00,1.465858222218230367e-04,-0.000000000000000000e+00,2.597148704808205366e-04,6.485366611741483212e-05,-0.000000000000000000e+00,1.656312670093029737e-04,3.183455191901884973e-05,1.853631983976811171e-04,1.907187979668378830e-04,-0.000000000000000000e+00,3.642375522758811712e-04,-0.000000000000000000e+00,-0.000000000000000000e+00,-0.000000000000000000e+00,6.388597539626061916e-04,3.497038851492106915e-04,-0.000000000000000000e+00,-0.000000000000000000e+00,-0.000000000000000000e+00,-0.000000000000000000e+00,-0.000000000000000000e+00,-0.000000000000000000e+00,-0.000000000000000000e+00,-0.000000000000000000e+00,-0.000000000000000000e+00,2.975588722620159388e-04,6.403039442375302315e-04,-0.000000000000000000e+00,-0.000000000000000000e+00,4.348844813648611307e-04,-0.000000000000000000e+00,-0.000000000000000000e+00,-0.000000000000000000e+00,1.479825150454416871e-04,-0.000000000000000000e+00,4.937600460834801197e-04,5.878731026314198971e-04,-0.000000000000000000e+00,5.310004344210028648e-04,-0.000000000000000000e+00,4.566891875583678484e-04,3.387831966392695904e-04,-0.000000000000000000e+00,4.620593681465834379e-04,1.097223503165878356e-04,4.440542543306946754e-04,-0.000000000000000000e+00,6.655142060481011868e-04,5.233005595073336735e-06,-0.000000000000000000e+00,-0.000000000000000000e+00,6.107076187618076801e-04,2.106242318404838443e-04,-0.000000000000000000e+00,6.060291198082268238e-04,-0.000000000000000000e+00,3.866504121106117964e-04,6.163489306345582008e-04,5.651824540109373629e-05,5.796233890578150749e-04,-0.000000000000000000e+00,1.280525902984663844e-04,2.702170168049633503e-04,-0.000000000000000000e+00,1.294719404540956020e-04,6.049537114449776709e-05,-0.000000000000000000e+00,1.096780688385479152e-04,-0.000000000000000000e+00,-0.000000000000000000e+00,-0.000000000000000000e+00,5.588391286437399685e-05,-0.000000000000000000e+00,-0.000000000000000000e+00,-0.000000000000000000e+00,5.722226342186331749e-04,2.179713483201339841e-04,-0.000000000000000000e+00,-0.000000000000000000e+00,-0.000000000000000000e+00,-0.000000000000000000e+00,-0.000000000000000000e+00,9.907928324537351727e-05,1.614469365449622273e-04,3.616400936152786016e-04,-0.000000000000000000e+00,-0.000000000000000000e+00,-0.000000000000000000e+00,-0.000000000000000000e+00,5.581299774348735809e-04,7.188306335592642426e-05,-0.000000000000000000e+00,-0.000000000000000000e+00,-0.000000000000000000e+00,3.508127119857817888e-04,-0.000000000000000000e+00,2.589274372439831495e-04,3.858404234051704407e-04,5.687167868018150330e-04,5.455120117403566837e-04,6.673592724837362766e-04,5.577373085543513298e-04,9.037132258526980877e-05,9.090041567105799913e-05,5.243531195446848869e-04,-0.000000000000000000e+00,6.305330898612737656e-04,4.665653395932167768e-04,-0.000000000000000000e+00,-0.000000000000000000e+00,5.029348540119826794e-04,4.987901775166392326e-04,2.984900784213095903e-04,4.039935884065926075e-04,-0.000000000000000000e+00,-0.000000000000000000e+00,4.314174584578722715e-04,3.818842815235257149e-04,-0.000000000000000000e+00,-0.000000000000000000e+00,1.303392637055367231e-04,5.576035619014874101e-05,-0.000000000000000000e+00,-0.000000000000000000e+00
-0.000000000000000000e+00,5.146197509020566940e-04,-0.000000000000000000e+00,4.245956006343476474e-06,6.487629725597798824e-04,-0.000000000000000000e+00,1.240040874108672142e-04,2.257603337056934834e-04,-0.000000000000000000e+00,-0.000000000000000000e+00,4.106045525986701250e-04,-0.000000000000000000e+00,-0.000000000000000000e+00,3.624293603934347630e-04,2.351580587856005877e-05,5.414583138190209866e-04,3.573022841010242701e-04,-0.000000000000000000e+00,-0.000000000000000000e+00,-0.000000000000000000e+00,-0.000000000000000000e+00,-0.000000000000000000e+00,-0.000000000000000000e+00,4.625317233148962259e-04,-0.000000000000000000e+00,-0.000000000000000000e+00,-0.000000000000000000e+00,9.651937943999655545e-06,5.897271912544965744e-04,-0.000000000000000000e+00,-0.000000000000000000e+00,3.505040949676185846e-04,-0.000000000000000000e+00,2.239289897261187434e-04,4.325010522734373808e-04,6.500122835859656334e-04,-0.000000000000000000e+00,3.848123596981167793e-04,4.320606822147965431e-04,-0.000000000000000000e+00,5.576919647864997387e-04,-0.000000000000000000e+00,9.284885163651779294e-05,-0.000000000000000000e+00,3.019919131475035101e-05,-0.000000000000000000e+00,3.516977303661406040e-04,-0.000000000000000000e+00,-0.000000000000000000e+00,-0.000000000000000000e+00,-0.000000000000000000e+00,-0.000000000000000000e+00,2.796331827994436026e-04,-0.000000000000000000e+00,-0.000000000000000000e+00,-0.000000000000000000e+00,2.158317220164462924e-04,2.669329114723950624e-04,6.104570929892361164e-04,-0.000000000000000000e+00,4.836445150431245565e-04,5.565079627558588982e-04,-0.000000000000000000e+00,5.723144859075546265e-04,3.800503909587860107e-04,2.672360860742628574e-04,1.733407989377155900e-04,-0.000000000000000000e+00,1.468516566092148423e-04,5.459942040033638477e-04,-0.000000000000000000e+00,-0.000000000000000000e+00,6.516163703054189682e-04,4.949285648763179779e-04,-0.000000000000000000e+00,-0.000000000000000000e+00,4.158258961979299784e-04,6.652203737758100033e-04,-0.000000000000000000e+00,4.567916330415755510e-04,-0.000000000000000000e+00,-0.000000000000000000e+00,-0.000000000000000000e+00,1.231508504133671522e-04,-0.000000000000000000e+00,3.288746229372918606e-04,6.038220599293708801e-04,-0.000000000000000000e+00,4.130915622226893902e-04,1.627770252525806427e-04,-0.000000000000000000e+00,6.101108738221228123e-04,2.796870248857885599e-04,3.518559387885034084e-04,6.114561692811548710e-04,4.327598726376891136e-04,-0.000000000000000000e+00,-0.000000000000000000e+00,4.760712035931646824e-04,-0.000000000000000000e+00,3.211082075722515583e-04,5.680618342012166977e-04,-0.000000000000000000e+00,4.574509221129119396e-04,1.264988095499575138e-04,3.658444911707192659e-04,6.023129681125283241e-04,5.455011269077658653e-04,-0.000000000000000000e+00,7.365577039308845997e-05,-0.000000000000000000e+00,-0.000000000000000000e+00,5.773376906290650368e-04,3.674883046187460423e-04,-0.000000000000000000e+00,6.237534107640385628e-04,-0.000000000000000000e+00,5.603074678219854832e-04,-0.000000000000000000e+00,-0.000000000000000000e+00,-0.000000000000000000e+00,5.625854828394949436e-04,-0.000000000000000000e+00,4.911880241706967354e-04,6.458064308390021324e-04,-0.000000000000000000e+00,2.791674160107504576e-05,-0.000000000000000000e+00
-0.000000000000000000e+00,1.884320954559370875e-04,8.363501547137275338e-05,-0.000000000000000000e+00,-0.000000000000000000e+00,4.386738510220311582e-05,6.483369506895542145e-04,-0.000000000000000000e+00,1.116306448238901794e-04,4.276047111488878727e-04,3.920184681192040443e-04,-0.000000000000000000e+00,-0.000000000000000000e+00,-0.000000000000000000e+00,-0.000000000000000000e+00,2.526403695810586214e-04,2.735266170930117369e-04,-0.000000000000000000e+00,-0.000000000000000000e+00,-0.000000000000000000e+00,-0.000000000000000000e+00,-0.000000000000000000e+00,5.652747931890189648e-04,4.684593295678496361e-04,-0.000000000000000000e+00,4.942323430441319942e-04,-0.000000000000000000e+00,1.267499173991382122e-04,6.656142650172114372e-04,3.699331718962639570e-04,-0.000000000000000000e+00,1.264606398763135076e-04,7.221532723633572459e-05,3.117558080703020096e-04,-0.000000000000000000e+00,1.908724370878189802e-04,2.628907677717506886e-04,-0.000000000000000000e+00,4.082658851984888315e-04,6.209581624716520309e-04,5.409070872701704502e-04,-0.000000000000000000e+00,4.692295915447175503e-04,-0.000000000000000000e+00,-0.000000000000000000e+00,-0.000000000000000000e+00,-0.000000000000000000e+00,-0.000000000000000000e+00,-0.000000000000000000e+00,1.753415272105485201e-04,1.250702189281582832e-04,1.270269858650863171e-04,-0.000000000000000000e+00,-0.000000000000000000e+00,-0.000000000000000000e+00,-0.000000000000000000e+00,3.362259594723582268e-04,2.586022128525655717e-05,-0.000000000000000000e+00,-0.000000000000000000e+00,3.929199592676013708e-04,-0.000000000000000000e+00,5.168150528334081173e-04,2.385793195571750402e-04,4.720319993793964386e-04,-0.000000000000000000e+00,6.409484776668250561e-04,5.724555812776088715e-04,5.495681543834507465e-04,-0.000000000000000000e+00,-0.000000000000000000e+00,-0.000000000000000000e+00,5.811241571791470051e-04,4.698619304690510035e-04,-0.000000000000000000e+00,-0.000000000000000000e+00,5.965867312625050545e-04,-0.000000000000000000e+00,5.745277740061283112e-04,1.664305891608819366e-04,-0.000000000000000000e+00,4.788088845089077950e-04,5.070688202977180481e-04,3.512645198497921228e-04,-0.000000000000000000e+00,3.993133723270148039e-04,5.366434343159198761e-04,-0.000000000000000000e+00,-0.000000000000000000e+00,-0.000000000000000000e+00,8.834413165459409356e-05,9.465019684284925461e-05,-0.000000000000000000e+00,-0.000000000000000000e+00,6.537922308780252934e-04,3.196597099304199219e-04,-0.000000000000000000e+00,-0.000000000000000000e+00,2.280008338857442141e-04,-0.000000000000000000e+00,2.831110032275319099e-04,4.374478157842531800e-05,4.912254516966640949e-04,9.874904935713857412e-05,7.089156133588403463e-05,-0.000000000000000000e+00,-0.000000000000000000e+00,6.149787222966551781e-04,3.117721644230186939e-04,5.181969609111547470e-04,-0.000000000000000000e+00,-0.000000000000000000e+00,3.593175497371703386e-04,-0.000000000000000000e+00,5.989443525322712958e-05,-0.000000000000000000e+00,5.205402267165482044e-04,-0.000000000000000000e+00,1.843674544943496585e-04,3.504269407130777836e-04,4.041343345306813717e-04,-0.000000000000000000e+00,1.682109868852421641e-04,-0.000000000000000000e+00,4.265249590389430523e-04,4.664800653699785471e-04,9.035147377289831638e-05,-0.000000000000000000e+00
4.130225279368460178e-04,4.509970021899789572e-04,-0.000000000000000000e+00,-0.000000000000000000e+00,-0.000000000000000000e+00,-0.000000000000000000e+00,-0.000000000000000000e+00,2.097255055559799075e-04,4.422687561600469053e-05,5.757487961091101170e-04,5.420418456196784973e-04,-0.000000000000000000e+00,6.619162741117179394e-04,-0.000000000000000000e+00,1.214440053445287049e-04,2.033147902693599463e-04,2.204198972322046757e-04,7.624754653079435229e-05,-0.000000000000000000e+00,-0.000000000000000000e+00,-0.000000000000000000e+00,-0.000000000000000000e+00,-0.000000000000000000e+00,-0.000000000000000000e+00,5.184264737181365490e-04,-0.000000000000000000e+00,-0.000000000000000000e+00,6.261325906962156296e-04,-0.000000000000000000e+00,4.199482500553131104e-04,-0.000000000000000000e+00,1.566958380863070488e-04,3.999008913524448872e-04,-0.000000000000000000e+00,1.494466705480590463e-04,-0.000000000000000000e+00,6.323353736661374569e-04,-0.000000000000000000e+00,2.449572093610186130e-05,-0.000000000000000000e+00,2.024601855055152555e-07,-0.000000000000000000e+00,4.077577614225447178e-04,-0.000000000000000000e+00,3.370384802110493183e-04,2.695647417567670345e-04,-0.000000000000000000e+00,3.326523583382368088e-04,1.339588779956102371e-04,3.241574449930340052e-04,-0.000000000000000000e+00,-0.000000000000000000e+00,2.323248772881925106e-04,-0.000000000000000000e+00,-0.000000000000000000e+00,5.951025523245334625e-04,-0.000000000000000000e+00,-0.000000000000000000e+00,-0.000000000000000000e+00,1.001801138045266271e-04,-0.000000000000000000e+00,-0.000000000000000000e+00,-0.000000000000000000e+00,-0.000000000000000000e+00,1.675308158155530691e-05,-0.000000000000000000e+00,1.380065077682957053e-04,-0.000000000000000000e+00,-0.000000000000000000e+00,6.674844189547002316e-04,6.585405571968294680e-06,-0.000000000000000000e+00,5.355565226636826992e-04,5.665519856847822666e-04,5.180698935873806477e-04,4.523597599472850561e-04,-0.000000000000000000e+00,2.980136487167328596e-04,-0.000000000000000000e+00,4.910975112579762936e-04,6.556966691277921200e-04,-0.000000000000000000e+00,-0.000000000000000000e+00,-0.000000000000000000e+00,-0.000000000000000000e+00,4.716871771961450577e-04,6.510358070954680443e-05,-0.000000000000000000e+00,5.334946326911449432e-04,2.470037143211811781e-04,3.226696280762553215e-04,-0.000000000000000000e+00,-0.000000000000000000e+00,4.031856078654527664e-04,5.323635996319353580e-04,-0.000000000000000000e+00,-0.000000000000000000e+00,-0.000000000000000000e+00,-0.000000000000000000e+00,-0.000000000000000000e+00,-0.000000000000000000e+00,6.317776278592646122e-04,-0.000000000000000000e+00,-0.000000000000000000e+00,-0.000000000000000000e+00,-0.000000000000000000e+00,-0.000000000000000000e+00,6.285204435698688030e-04,-0.000000000000000000e+00,-0.000000000000000000e+00,3.531327529344707727e-04,-0.000000000000000000e+00,-0.000000000000000000e+00,-0.000000000000000000e+00,-0.000000000000000000e+00,1.080263682524673641e-04,-0.000000000000000000e+00,-0.000000000000000000e+00,-0.000000000000000000e+00,5.408549623098224401e-05,5.388476420193910599e-04,1.484855747548863292e-04,1.548734289826825261e-04,4.781212774105370045e-04,-0.000000000000000000e+00,6.497849881270667538e-06,3.578107571229338646e-04,-0.000000000000000000e+00
-0.000000000000000000e+00,-0.000000000000000000e+00,3.142008040413202252e-07,1.181775360237224959e-06,1.354648848064243793e-03,-0.000000000000000000e+00,-0.000000000000000000e+00,-0.000000000000000000e+00,1.773790718289092183e-04,6.150807021185755730e-04,2.943214785773307085e-04,-0.000000000000000000e+00,6.197665934450924397e-04,2.263642954858369194e-06,-0.000000000000000000e+00,8.640521205961704254e-03,4.080207087099552155e-03,-0.000000000000000000e+00,-0.000000000000000000e+00,5.165632464922964573e-04,3.523430554196238518e-03,3.143306821584701538e-04,2.836489817127585411e-03,1.677734144323039800e-05,8.560242292787734186e-09,7.009745109826326370e-03,-0.000000000000000000e+00,2.682800870388746262e-03,1.310783991357311606e-04,-0.000000000000000000e+00,2.177628048229962587e-04,1.290076691657304764e-02,-0.000000000000000000e+00,8.952021016739308834e-04,2.711895387619733810e-03,-0.000000000000000000e+00,-0.000000000000000000e+00,1.102389884181320667e-03,4.112998140044510365e-04,2.565296133980154991e-03,-0.000000000000000000e+00,-0.000000000000000000e+00,2.652875446074176580e-05,1.651881146244704723e-03,2.260654952124241390e-07,-0.000000000000000000e+00,1.188738178461790085e-02,-0.000000000000000000e+00,-0.000000000000000000e+00,-0.000000000000000000e+00,6.185107049532234669e-04,1.332254178123548627e-04,-0.000000000000000000e+00,1.979754160856828094e-04,5.938349931966513395e-05,-0.000000000000000000e+00,2.474513137713074684e-03,-0.000000000000000000e+00,-0.000000000000000000e+00,-0.000000000000000000e+00,1.521176272945012897e-06,-0.000000000000000000e+00,-0.000000000000000000e+00,4.019240383058786392e-03,-0.000000000000000000e+00,7.635443471372127533e-04,4.456450697034597397e-03,8.427088148891925812e-03,2.273813350939235534e-07,-0.000000000000000000e+00,3.074206644669175148e-03,-0.000000000000000000e+00,5.269795656204223633e-03,1.547105966892559081e-05,-0.000000000000000000e+00,4.733002861030399799e-04,-0.000000000000000000e+00,-0.000000000000000000e+00,3.446933114901185036e-03,5.043062847107648849e-04,-0.000000000000000000e+00,-0.000000000000000000e+00,-0.000000000000000000e+00,1.859620242612436414e-04,1.128697064700645569e-07,5.773611633230757434e-08,1.024728361517190933e-02,4.732791057904250920e-05,2.205974567459634272e-07,-0.000000000000000000e+00,9.741888381540775299e-03,4.977205535396933556e-04,2.598950813990086317e-04,-0.000000000000000000e+00,-0.000000000000000000e+00,-0.000000000000000000e+00,-0.000000000000000000e+00,3.267193449119076831e-08,1.187402958748862147e-04,-0.000000000000000000e+00,5.038165487349033356e-03,4.739216876714635873e-07,1.833034679293632507e-02,-0.000000000000000000e+00,-0.000000000000000000e+00,-0.000000000000000000e+00,-0.000000000000000000e+00,-0.000000000000000000e+00,-0.000000000000000000e+00,4.906442482024431229e-04,1.709860080154612660e-04,-0.000000000000000000e+00,8.183147292584180832e-04,-0.000000000000000000e+00,1.035093519021756947e-04,8.759230840951204300e-04,1.406601630151271820e-03,1.202168277814052999e-05,-0.000000000000000000e+00,-0.000000000000000000e+00,5.917805247008800507e-04,1.397001557052135468e-03,-0.000000000000000000e+00,-0.000000000000000000e+00,1.762895117281004786e-04,5.689884419552981853e-04,-0.000000000000000000e+00,5.448067440738668665e-06
3.863293095491826534e-04,1.409751421306282282e-04,7.929206185508519411e-05,2.414746995782479644e-04,1.879694405943155289e-03,-0.000000000000000000e+00,-0.000000000000000000e+00,-0.000000000000000000e+00,3.240894875489175320e-04,2.375589792791288346e-05,-0.000000000000000000e+00,-0.000000000000000000e+00,5.577759584411978722e-04,7.139411900425329804e-05,-0.000000000000000000e+00,1.657253690063953400e-02,7.731238380074501038e-03,4.771534004248678684e-04,-0.000000000000000000e+00,7.411283440887928009e-04,7.536398246884346008e-03,2.520601753985829419e-07,6.139461882412433624e-03,3.840048739220947027e-04,1.874395749723589688e-08,1.398850046098232269e-02,-0.000000000000000000e+00,5.642136093229055405e-03,3.742912326742953155e-07,-0.000000000000000000e+00,6.160024786368012428e-04,2.488693408668041229e-02,-0.000000000000000000e+00,1.941917929798364639e-03,5.923876538872718811e-03,-0.000000000000000000e+00,-0.000000000000000000e+00,2.957279328256845474e-03,2.349886017327662557e-05,5.127763841301202774e-03,-0.000000000000000000e+00,-0.000000000000000000e+00,-0.000000000000000000e+00,3.574803704395890236e-03,4.950054517394164577e-07,-0.000000000000000000e+00,2.333434484899044037e-02,2.759776252787560225e-04,-0.000000000000000000e+00,-0.000000000000000000e+00,2.975719398818910122e-04,5.234872223809361458e-04,1.077084089047275484e-04,-0.000000000000000000e+00,3.666296106530353427e-05,-0.000000000000000000e+00,5.022280849516391754e-03,-0.000000000000000000e+00,-0.000000000000000000e+00,-0.000000000000000000e+00,5.415735358837991953e-06,-0.000000000000000000e+00,-0.000000000000000000e+00,8.641609922051429749e-03,-0.000000000000000000e+00,2.059039426967501640e-03,9.231334552168846130e-03,1.679074391722679138e-02,4.981871484233124647e-07,-0.000000000000000000e+00,6.635402794927358627e-03,-0.000000000000000000e+00,1.121563091874122620e-02,3.378622932359576225e-05,-0.000000000000000000e+00,-0.000000000000000000e+00,-0.000000000000000000e+00,-0.000000000000000000e+00,7.928597740828990936e-03,2.013022815106069174e-08,-0.000000000000000000e+00,3.635950561147183180e-04,-0.000000000000000000e+00,8.600588771514594555e-04,4.629146133083850145e-05,1.274016767638386227e-07,2.026298828423023224e-02,2.433344634482637048e-04,3.494797274470329285e-04,-0.000000000000000000e+00,1.935984380543231964e-02,-0.000000000000000000e+00,-0.000000000000000000e+00,-0.000000000000000000e+00,-0.000000000000000000e+00,-0.000000000000000000e+00,-0.000000000000000000e+00,7.154013559329541749e-08,2.535213425289839506e-04,-0.000000000000000000e+00,1.042253524065017700e-02,3.387382894288748503e-04,3.293662145733833313e-02,-0.000000000000000000e+00,-0.000000000000000000e+00,-0.000000000000000000e+00,-0.000000000000000000e+00,-0.000000000000000000e+00,-0.000000000000000000e+00,1.392988197039812803e-04,-0.000000000000000000e+00,-0.000000000000000000e+00,2.356541808694601059e-03,5.285775987431406975e-04,-0.000000000000000000e+00,1.888547209091484547e-03,3.336898284032940865e-03,1.655815722187981009e-04,-0.000000000000000000e+00,-0.000000000000000000e+00,1.182135861199640203e-06,3.093046834692358971e-03,2.866564318537712097e-04,-0.000000000000000000e+00,-0.000000000000000000e+00,-0.000000000000000000e+00,-0.000000000000000000e+00,1.011668882711092010e-05
3.655209438875317574e-04,4.849220858886837959e-04,3.696904514072230086e-06,4.875199228990823030e-04,-0.000000000000000000e+00,-0.000000000000000000e+00,4.775179550051689148e-04,-0.000000000000000000e+00,-0.000000000000000000e+00,5.438440130092203617e-04,-0.000000000000000000e+00,-0.000000000000000000e+00,-0.000000000000000000e+00,-0.000000000000000000e+00,-0.000000000000000000e+00,1.814413990359753370e-04,-0.000000000000000000e+00,6.666636909358203411e-04,-0.000000000000000000e+00,1.418378087691962719e-05,-0.000000000000000000e+00,7.525542605435475707e-05,3.848878550343215466e-04,6.809984188294038177e-05,4.055143508594483137e-04,-0.000000000000000000e+00,3.382582217454910278e-04,2.950783255073474720e-06,4.676676326198503375e-06,2.608214799693087116e-07,-0.000000000000000000e+00,4.034090670756995678e-04,5.495927780430065468e-06,-0.000000000000000000e+00,-0.000000000000000000e+00,2.019799865138338646e-07,4.729750507976859808e-04,-0.000000000000000000e+00,4.247201140969991684e-04,-0.000000000000000000e+00,-0.000000000000000000e+00,-0.000000000000000000e+00,1.305373189097736031e-06,6.190573913045227528e-04,6.363817374221980572e-04,4.634957876987755299e-04,1.298770484936540015e-06,-0.000000000000000000e+00,3.724408088601194322e-07,5.864081904292106628e-04,2.848992153303697705e-06,1.948820136021822691e-04,4.087388806510716677e-04,4.750326916109770536e-04,-0.000000000000000000e+00,-0.000000000000000000e+00,1.054516906151548028e-04,6.399955600500106812e-04,5.868986481800675392e-04,-0.000000000000000000e+00,2.683848833839874715e-05,4.542352689895778894e-04,-0.000000000000000000e+00,5.541539940168149769e-05,-0.000000000000000000e+00,1.091181388801487628e-06,5.045238067395985126e-04,-0.000000000000000000e+00,9.256406197089006582e-10,-0.000000000000000000e+00,-0.000000000000000000e+00,5.148177733644843102e-04,5.927965394221246243e-04,5.891826585866510868e-04,-0.000000000000000000e+00,-0.000000000000000000e+00,1.020940726448316127e-05,4.179310781182721257e-05,-0.000000000000000000e+00,2.815868356265127659e-04,2.913663774961605668e-05,1.875844191090436652e-07,1.809294044505804777e-04,-0.000000000000000000e+00,1.180903855129145086e-04,1.090208145981819143e-09,3.523157283780165017e-05,1.403684436809271574e-04,4.972496370214685157e-08,1.691896159172756597e-06,1.404607155564008281e-05,1.906123907247092575e-05,2.605314421089133248e-06,1.214147687278455123e-06,-0.000000000000000000e+00,2.088368773911497556e-06,1.181077777800965123e-06,7.708497832936700433e-06,2.645016938913613558e-04,-0.000000000000000000e+00,-0.000000000000000000e+00,1.509644076413962921e-09,4.149610504100564867e-07,6.626930553466081619e-04,1.920428185258060694e-04,1.163512206403538585e-05,-0.000000000000000000e+00,6.823424428148427978e-06,-0.000000000000000000e+00,1.976623842381286522e-08,1.345314085483551025e-04,1.068668789230287075e-04,1.745019544614478946e-04,5.665049538947641850e-04,-0.000000000000000000e+00,1.411710582033265382e-05,9.984803182305768132e-05,2.020249521592631936e-04,6.675329132121987641e-06,2.444521524012088776e-04,4.066551045980304480e-04,4.859869659412652254e-04,-0.000000000000000000e+00,4.196301451884210110e-04,4.367916844785213470e-04,4.187668309896253049e-06,4.784151387866586447e-04,3.192984440829604864e-04
1.083686029801356199e-07,3.677328932099044323e-04,3.888022911269217730e-04,-0.000000000000000000e+00,2.336267498321831226e-04,2.865605056285858154e-04,-0.000000000000000000e+00,4.397907468955963850e-04,-0.000000000000000000e+00,3.551714471541345119e-04,-0.000000000000000000e+00,9.771146142156794667e-05,2.683279453776776791e-04,-0.000000000000000000e+00,-0.000000000000000000e+00,-0.000000000000000000e+00,-0.000000000000000000e+00,5.545999738387763500e-04,-0.000000000000000000e+00,6.425858591683208942e-04,-0.000000000000000000e+00,-0.000000000000000000e+00,3.510436217766255140e-04,3.455468322499655187e-05,5.412728060036897659e-04,-0.000000000000000000e+00,1.753042653263037209e-07,1.230198733992438065e-07,6.617527105845510960e-04,1.086720047283051827e-08,-0.000000000000000000e+00,4.334904951974749565e-04,2.294184753282024758e-07,2.935437987616751343e-05,-0.000000000000000000e+00,8.415752539292498113e-09,-0.000000000000000000e+00,1.291972002945840359e-04,-0.000000000000000000e+00,-0.000000000000000000e+00,2.395283954683691263e-04,6.485066478489898145e-06,5.446019812893609924e-08,1.091255689971148968e-04,-0.000000000000000000e+00,-0.000000000000000000e+00,7.950553845148533583e-05,4.056862508150516078e-06,1.551845230096660089e-08,3.072878462262451649e-04,1.190606369050328794e-07,2.560618740972131491e-04,-0.000000000000000000e+00,9.908723586704581976e-05,-0.000000000000000000e+00,3.557528907549567521e-05,4.712544032372534275e-04,5.845269015480880626e-07,7.670765853617922403e-07,-0.000000000000000000e+00,1.118644604503060691e-06,3.378266701474785805e-04,5.089783226139843464e-04,-0.000000000000000000e+00,-0.000000000000000000e+00,5.878454539924860001e-04,3.143860376439988613e-04,-0.000000000000000000e+00,4.777356225531548262e-04,4.455626476556062698e-04,-0.000000000000000000e+00,2.275719016324728727e-04,4.033946897834539413e-04,-0.000000000000000000e+00,1.935566979227587581e-04,-0.000000000000000000e+00,4.353343974798917770e-04,-0.000000000000000000e+00,3.085130010731518269e-04,4.602049011737108231e-04,5.481140105985105038e-04,2.307361428393051028e-04,-0.000000000000000000e+00,-0.000000000000000000e+00,6.011360653701558476e-08,4.542542730856524713e-11,1.468049845243513118e-06,-0.000000000000000000e+00,1.153223820438142866e-06,7.057008843958101352e-08,4.113528993912041187e-04,7.942221600387711078e-07,3.050501400139182806e-04,5.058956986658813548e-08,6.285883137024939060e-04,8.701612586037299479e-08,5.987013573758304119e-04,5.473699420690536499e-04,-0.000000000000000000e+00,4.093114112038165331e-04,-0.000000000000000000e+00,3.711902536451816559e-04,4.775151901412755251e-04,9.592361311661079526e-05,-0.000000000000000000e+00,4.102502498426474631e-05,-0.000000000000000000e+00,8.597652049502357841e-05,-0.000000000000000000e+00,6.363041466102004051e-04,1.472567419114056975e-07,3.546210081140088732e-08,-0.000000000000000000e+00,2.879997396121325437e-07,-0.000000000000000000e+00,5.888748546567512676e-07,3.263205314851802541e-07,1.945498517841315333e-08,3.431806107982993126e-04,4.521884839050471783e-04,4.801639294504944644e-11,1.021187345031648874e-04,3.490653180051594973e-04,-0.000000000000000000e+00,3.981445624958723783e-04,1.755965683969407110e-07,6.400406391549040563e-07,2.902461565099656582e-04
1.430747070116922259e-04,7.627018931088969111e-05,-0.000000000000000000e+00,-0.000000000000000000e+00,2.790809958241879940e-04,-0.000000000000000000e+00,8.114450611174106598e-05,-0.000000000000000000e+00,4.442046629264950752e-04,1.152160439232829958e-05,3.192027506884187460e-04,-0.000000000000000000e+00,8.488421735819429159e-05,1.620461698621511459e-04,2.643894986249506474e-04,-0.000000000000000000e+00,4.647714667953550816e-04,-0.000000000000000000e+00,4.773387918248772621e-04,-0.000000000000000000e+00,4.680357233155518770e-04,3.327972663100808859e-04,5.960582057014107704e-04,4.333239485276862979e-05,4.673015500884503126e-04,-0.000000000000000000e+00,1.561367680551484227e-04,2.019565145019441843e-04,-0.000000000000000000e+00,4.832558042835444212e-04,1.738949795253574848e-04,-0.000000000000000000e+00,4.789550730492919683e-04,-0.000000000000000000e+00,-0.000000000000000000e+00,1.736282429192215204e-04,-0.000000000000000000e+00,6.068974616937339306e-04,6.653703749179840088e-04,2.962462021969258785e-04,-0.000000000000000000e+00,-0.000000000000000000e+00,3.009521788044366986e-05,-0.000000000000000000e+00,-0.000000000000000000e+00,-0.000000000000000000e+00,1.846068771556019783e-04,5.658367299474775791e-04,-0.000000000000000000e+00,3.896249982062727213e-04,-0.000000000000000000e+00,-0.000000000000000000e+00,-0.000000000000000000e+00,-0.000000000000000000e+00,-0.000000000000000000e+00,4.713100497610867023e-04,-0.000000000000000000e+00,3.256066120229661465e-04,-0.000000000000000000e+00,3.700900415424257517e-04,-0.000000000000000000e+00,1.047415644279681146e-04,-0.000000000000000000e+00,-0.000000000000000000e+00,5.186406779102981091e-04,3.757747181225568056e-04,2.968003682326525450e-04,1.967476855497807264e-04,-0.000000000000000000e+00,5.063419230282306671e-04,2.829969744198024273e-04,4.520701186265796423e-04,-0.000000000000000000e+00,2.498560352250933647e-04,-0.000000000000000000e+00,-0.000000000000000000e+00,-0.000000000000000000e+00,-0.000000000000000000e+00,6.581187481060624123e-04,-0.000000000000000000e+00,2.296368475072085857e-04,6.334920763038098812e-04,3.497696598060429096e-04,-0.000000000000000000e+00,-0.000000000000000000e+00,-0.000000000000000000e+00,-0.000000000000000000e+00,-0.000000000000000000e+00,4.368649388197809458e-04,3.447004128247499466e-04,-0.000000000000000000e+00,1.863785582827404141e-04,1.210540285683237016e-04,-0.000000000000000000e+00,-0.000000000000000000e+00,2.709389664232730865e-04,-0.000000000000000000e+00,3.729998979906667955e-06,5.518000689335167408e-04,-0.000000000000000000e+00,1.014668378047645092e-04,-0.000000000000000000e+00,5.367131088860332966e-04,4.870355769526213408e-04,2.743985678534954786e-04,2.502777533663902432e-05,-0.000000000000000000e+00,3.793985524680465460e-04,-0.000000000000000000e+00,-0.000000000000000000e+00,-0.000000000000000000e+00,-0.000000000000000000e+00,3.851819783449172974e-04,1.172414777101948857e-04,6.843919254606589675e-05,4.110246954951435328e-04,-0.000000000000000000e+00,3.667744458653032780e-04,4.490436112973839045e-04,4.432771529536694288e-04,-0.000000000000000000e+00,1.245729217771440744e-04,-0.000000000000000000e+00,-0.000000000000000000e+00,2.371567970840260386e-04,-0.000000000000000000e+00,5.913077620789408684e-04,-0.000000000000000000e+00
4.443341749720275402e-04,-0.000000000000000000e+00,1.479352795286104083e-04,5.366998957470059395e-04,-0.000000000000000000e+00,4.020378692075610161e-04,-0.000000000000000000e+00,-0.000000000000000000e+00,5.338778719305992126e-04,1.119059961638413370e-04,4.882446373812854290e-04,1.139424784923903644e-04,1.562919642310589552e-04,5.394238978624343872e-04,3.939008092856965959e-05,4.706374311354011297e-04,-0.000000000000000000e+00,5.181113374419510365e-04,-0.000000000000000000e+00,3.032869717571884394e-04,1.135788043029606342e-04,-0.000000000000000000e+00,2.683173224795609713e-04,2.994013775605708361e-04,-0.000000000000000000e+00,-0.000000000000000000e+00,2.576151164248585701e-04,1.131891476688906550e-04,3.440095752011984587e-04,-0.000000000000000000e+00,3.970135003328323364e-04,-0.000000000000000000e+00,-0.000000000000000000e+00,3.743779088836163282e-04,-0.000000000000000000e+00,1.060436043189838529e-04,-0.000000000000000000e+00,-0.000000000000000000e+00,5.886953440494835377e-04,-0.000000000000000000e+00,2.985520986840128899e-04,1.107229400076903403e-04,-0.000000000000000000e+00,3.378509718459099531e-04,4.856974410358816385e-04,6.397305405698716640e-04,-0.000000000000000000e+00,3.222904633730649948e-04,1.079462235793471336e-04,-0.000000000000000000e+00,9.739635424921289086e-05,-0.000000000000000000e+00,-0.000000000000000000e+00,-0.000000000000000000e+00,1.591255277162417769e-04,4.161623655818402767e-04,-0.000000000000000000e+00,-0.000000000000000000e+00,-0.000000000000000000e+00,8.909842290449887514e-05,-0.000000000000000000e+00,3.815618692897260189e-04,3.531484981067478657e-04,-0.000000000000000000e+00,-0.000000000000000000e+00,-0.000000000000000000e+00,-0.000000000000000000e+00,4.516490735113620758e-04,4.731750523205846548e-04,4.293782112654298544e-04,4.214649088680744171e-04,2.607791684567928314e-04,5.791712901555001736e-04,4.457363393157720566e-04,2.640495367813855410e-04,4.534618929028511047e-04,-0.000000000000000000e+00,-0.000000000000000000e+00,5.892502376809716225e-04,5.490633775480091572e-04,-0.000000000000000000e+00,-0.000000000000000000e+00,6.672791787423193455e-04,-0.000000000000000000e+00,-0.000000000000000000e+00,-0.000000000000000000e+00,-0.000000000000000000e+00,-0.000000000000000000e+00,2.632509567774832249e-04,5.784117383882403374e-04,-0.000000000000000000e+00,4.652900097426027060e-04,-0.000000000000000000e+00,-0.000000000000000000e+00,5.576913245022296906e-04,-0.000000000000000000e+00,1.158062150352634490e-04,-0.000000000000000000e+00,1.797511649783700705e-04,-0.000000000000000000e+00,1.870369305834174156e-04,4.761333402711898088e-04,3.421257133595645428e-05,3.612275468185544014e-04,-0.000000000000000000e+00,4.019041080027818680e-04,7.258999539772048593e-05,-0.000000000000000000e+00,-0.000000000000000000e+00,-0.000000000000000000e+00,2.901277621276676655e-04,-0.000000000000000000e+00,-0.000000000000000000e+00,-0.000000000000000000e+00,-0.000000000000000000e+00,-0.000000000000000000e+00,2.582249871920794249e-04,2.167961065424606204e-04,4.113716422580182552e-04,1.128200456150807440e-04,6.506295176222920418e-04,-0.000000000000000000e+00,-0.000000000000000000e+00,-0.000000000000000000e+00,6.127188680693507195e-04,6.823180592618882656e-05,-0.000000000000000000e+00,6.630131974816322327e-04
4.662957217078655958e-04,-0.000000000000000000e+00,2.651409886311739683e-04,7.807764632161706686e-05,-0.000000000000000000e+00,2.276446321047842503e-04,-0.000000000000000000e+00,1.886044046841561794e-04,-0.000000000000000000e+00,-0.000000000000000000e+00,2.536860702093690634e-04,2.408365253359079361e-04,5.546571919694542885e-04,2.143223828170448542e-04,2.000373569899238646e-05,1.507230772404000163e-04,5.679876194335520267e-04,2.236840955447405577e-04,3.017534909304231405e-04,-0.000000000000000000e+00,-0.000000000000000000e+00,2.915139484684914351e-04,-0.000000000000000000e+00,-0.000000000000000000e+00,-0.000000000000000000e+00,5.176229751668870449e-04,1.224353036377578974e-04,4.198832612019032240e-04,4.560267261695116758e-04,-0.000000000000000000e+00,2.780180657282471657e-04,-0.000000000000000000e+00,1.029087361530400813e-04,4.779696464538574219e-04,-0.000000000000000000e+00,-0.000000000000000000e+00,-0.000000000000000000e+00,5.457092192955315113e-04,-0.000000000000000000e+00,-0.000000000000000000e+00,-0.000000000000000000e+00,8.531500498065724969e-06,2.909705217462033033e-04,6.285397103056311607e-04,-0.000000000000000000e+00,3.895082627423107624e-04,-0.000000000000000000e+00,2.756362082436680794e-04,6.113804411143064499e-04,-0.000000000000000000e+00,1.855930895544588566e-04,-0.000000000000000000e+00,-0.000000000000000000e+00,-0.000000000000000000e+00,-0.000000000000000000e+00,-0.000000000000000000e+00,3.760963736567646265e-04,6.010669167153537273e-04,-0.000000000000000000e+00,-0.000000000000000000e+00,6.747036968590691686e-05,-0.000000000000000000e+00,6.348695605993270874e-04,-0.000000000000000000e+00,1.616334047866985202e-04,-0.000000000000000000e+00,-0.000000000000000000e+00,-0.000000000000000000e+00,2.748829137999564409e-04,2.393234899500384927e-04,6.652571028098464012e-04,5.810072179883718491e-04,-0.000000000000000000e+00,4.679895064327865839e-04,2.702203055378049612e-04,1.088329663616605103e-04,1.915129832923412323e-04,-0.000000000000000000e+00,-0.000000000000000000e+00,-0.000000000000000000e+00,6.134951254352927208e-04,1.222567807417362928e-04,-0.000000000000000000e+00,-0.000000000000000000e+00,-0.000000000000000000e+00,1.089797442546114326e-04,5.717474268749356270e-04,3.329333412693813443e-05,6.254913168959319592e-04,-0.000000000000000000e+00,-0.000000000000000000e+00,-0.000000000000000000e+00,1.520664663985371590e-04,-0.000000000000000000e+00,5.195532576180994511e-04,5.863555707037448883e-04,-0.000000000000000000e+00,2.293147554155439138e-04,-0.000000000000000000e+00,6.218184716999530792e-04,6.586314993910491467e-04,6.486040074378252029e-04,3.974828869104385376e-04,-0.000000000000000000e+00,5.941842682659626007e-04,-0.000000000000000000e+00,5.916078807786107063e-04,5.488228634931147099e-04,4.142810648772865534e-04,4.602519620675593615e-04,-0.000000000000000000e+00,6.316723302006721497e-04,1.104723851312883198e-04,1.900720817502588034e-04,-0.000000000000000000e+00,-0.000000000000000000e+00,4.245990130584686995e-04,-0.000000000000000000e+00,-0.000000000000000000e+00,-0.000000000000000000e+00,-0.000000000000000000e+00,1.178034654003567994e-04,-0.000000000000000000e+00,-0.000000000000000000e+00,-0.000000000000000000e+00,7.212732452899217606e-05,-0.000000000000000000e+00,5.588692147284746170e-04
-0.000000000000000000e+00,-0.000000000000000000e+00,4.065549292135983706e-04,-0.000000000000000000e+00,3.254953771829605103e-04,6.440320285037159920e-04,4.312282544560730457e-04,-0.000000000000000000e+00,2.248911623610183597e-04,5.626238416880369186e-04,5.613542161881923676e-04,-0.000000000000000000e+00,-0.000000000000000000e+00,1.956322957994416356e-04,-0.000000000000000000e+00,8.738011092646047473e-05,7.933121196401771158e-06,-0.000000000000000000e+00,5.040654796175658703e-04,1.886026325337297749e-06,5.415246123448014259e-04,-0.000000000000000000e+00,4.201886258670128882e-05,-0.000000000000000000e+00,-0.000000000000000000e+00,3.199759521521627903e-05,1.164664936368353665e-04,5.901813856326043606e-04,-0.000000000000000000e+00,-0.000000000000000000e+00,-0.000000000000000000e+00,-0.000000000000000000e+00,2.795968612190335989e-04,-0.000000000000000000e+00,5.858083022758364677e-04,4.278328924556262791e-05,7.695853128097951412e-05,-0.000000000000000000e+00,-0.000000000000000000e+00,-0.000000000000000000e+00,2.048819442279636860e-04,-0.000000000000000000e+00,2.415355766061111353e-06,-0.000000000000000000e+00,-0.000000000000000000e+00,2.224647178081795573e-04,3.449597897997591645e-06,4.470586718525737524e-04,-0.000000000000000000e+00,-0.000000000000000000e+00,1.139113301178440452e-04,-0.000000000000000000e+00,1.352363033220171928e-04,-0.000000000000000000e+00,3.777383244596421719e-04,2.360452053835615516e-04,-0.000000000000000000e+00,4.177487862762063742e-04,-0.000000000000000000e+00,-0.000000000000000000e+00,2.843818801920861006e-04,-0.000000000000000000e+00,-0.000000000000000000e+00,3.590957785490900278e-04,2.768920967355370522e-04,8.674784476170316339e-05,3.920794988516718149e-04,-0.000000000000000000e+00,-0.000000000000000000e+00,-0.000000000000000000e+00,-0.000000000000000000e+00,3.278036310803145170e-04,-0.000000000000000000e+00,2.615939301904290915e-04,-0.000000000000000000e+00,2.101402496919035912e-04,-0.000000000000000000e+00,-0.000000000000000000e+00,1.023880031425505877e-04,-0.000000000000000000e+00,3.801298735197633505e-04,1.046784745994955301e-05,1.110636658268049359e-04,-0.000000000000000000e+00,3.146743983961641788e-04,-0.000000000000000000e+00,3.911713138222694397e-04,6.383559593814425170e-06,-0.000000000000000000e+00,5.407702992670238018e-04,3.574229485820978880e-04,-0.000000000000000000e+00,-0.000000000000000000e+00,-0.000000000000000000e+00,3.679890069179236889e-04,3.431004297453910112e-04,2.949609188362956047e-04,-0.000000000000000000e+00,1.495995966251939535e-04,6.544270581798627973e-05,6.050132797099649906e-04,5.892380431760102510e-05,4.289251519367098808e-04,-0.000000000000000000e+00,-0.000000000000000000e+00,5.939145339652895927e-04,-0.000000000000000000e+00,-0.000000000000000000e+00,6.132430280558764935e-04,2.645973290782421827e-04,-0.000000000000000000e+00,8.944172441260889173e-05,1.463412336306646466e-04,-0.000000000000000000e+00,-0.000000000000000000e+00,2.519468544051051140e-04,6.178292824188247323e-05,-0.000000000000000000e+00,-0.000000000000000000e+00,2.817260101437568665e-04,4.663493891712278128e-04,6.385520682670176029e-04,3.958827001042664051e-04,-0.000000000000000000e+00,-0.000000000000000000e+00,6.107445224188268185e-04,1.877828181022778153e-04,4.536950436886399984e-04
-0.000000000000000000e+00,-0.000000000000000000e+00,-0.000000000000000000e+00,5.849289591424167156e-04,1.805840875022113323e-04,4.636113008018583059e-04,-0.000000000000000000e+00,-0.000000000000000000e+00,-0.000000000000000000e+00,-0.000000000000000000e+00,-0.000000000000000000e+00,-0.000000000000000000e+00,4.027525719720870256e-04,-0.000000000000000000e+00,3.246872220188379288e-04,-0.000000000000000000e+00,3.410535573493689299e-04,-0.000000000000000000e+00,2.982055957545526326e-05,-0.000000000000000000e+00,5.292423884384334087e-04,-0.000000000000000000e+00,-0.000000000000000000e+00,4.823889321414753795e-05,-0.000000000000000000e+00,-0.000000000000000000e+00,-0.000000000000000000e+00,-0.000000000000000000e+00,5.147380870766937733e-04,-0.000000000000000000e+00,5.817223573103547096e-04,4.327621427364647388e-04,8.809076098259538412e-05,-0.000000000000000000e+00,7.430167897837236524e-05,2.513100043870508671e-04,-0.000000000000000000e+00,3.987201780546456575e-04,2.803764655254781246e-04,-0.000000000000000000e+00,-0.000000000000000000e+00,4.300691944081336260e-04,6.447316263802349567e-04,-0.000000000000000000e+00,-0.000000000000000000e+00,-0.000000000000000000e+00,3.398969129193574190e-04,6.553661660291254520e-04,3.040497540496289730e-04,-0.000000000000000000e+00,-0.000000000000000000e+00,-0.000000000000000000e+00,5.654006381519138813e-04,-0.000000000000000000e+00,4.638347309082746506e-05,-0.000000000000000000e+00,-0.000000000000000000e+00,-0.000000000000000000e+00,2.907389134634286165e-04,2.930425107479095459e-04,4.991778987459838390e-04,-0.000000000000000000e+00,-0.000000000000000000e+00,1.774408519850112498e-05,1.794602285372093320e-04,3.395540261408314109e-05,-0.000000000000000000e+00,4.114361217943951488e-05,-0.000000000000000000e+00,-0.000000000000000000e+00,-0.000000000000000000e+00,3.683813265524804592e-04,2.404767146799713373e-04,-0.000000000000000000e+00,-0.000000000000000000e+00,-0.000000000000000000e+00,4.761765885632485151e-04,-0.000000000000000000e+00,-0.000000000000000000e+00,-0.000000000000000000e+00,6.014583050273358822e-04,-0.000000000000000000e+00,6.006786134093999863e-04,4.367231304058805108e-05,6.666944245807826519e-04,4.070963768754154444e-04,-0.000000000000000000e+00,3.656068874988704920e-04,-0.000000000000000000e+00,-0.000000000000000000e+00,-0.000000000000000000e+00,6.636622129008173943e-04,-0.000000000000000000e+00,5.025237915106117725e-04,3.916406421922147274e-04,5.282695638015866280e-04,1.444777153665199876e-04,-0.000000000000000000e+00,-0.000000000000000000e+00,1.549362932564690709e-04,-0.000000000000000000e+00,3.889321815222501755e-04,-0.000000000000000000e+00,-0.000000000000000000e+00,-0.000000000000000000e+00,-0.000000000000000000e+00,5.378231871873140335e-04,-0.000000000000000000e+00,-0.000000000000000000e+00,2.412968024145811796e-04,6.683835090370848775e-05,5.987928016111254692e-04,3.572699206415563822e-04,3.105719515588134527e-04,9.096817666431888938e-05,2.801709633786231279e-04,3.203082596883177757e-04,5.604228863376192749e-05,4.395154246594756842e-04,-0.000000000000000000e+00,5.040227279096143320e-06,-0.000000000000000000e+00,-0.000000000000000000e+00,4.053946177009493113e-04,2.794699103105813265e-04,4.201458941679447889e-04,4.026972455903887749e-04,4.222968345857225358e-05
-0.000000000000000000e+00,-0.000000000000000000e+00,5.691575934179127216e-04,-0.000000000000000000e+00,-0.000000000000000000e+00,1.383156923111528158e-04,-0.000000000000000000e+00,3.379861591383814812e-04,-0.000000000000000000e+00,-0.000000000000000000e+00,2.249902609037235379e-04,4.182673874311149120e-04,-0.000000000000000000e+00,-0.000000000000000000e+00,1.195355580421164632e-04,6.085557979531586170e-04,-0.000000000000000000e+00,-0.000000000000000000e+00,1.387612282996997237e-04,-0.000000000000000000e+00,-0.000000000000000000e+00,5.019025411456823349e-04,-0.000000000000000000e+00,-0.000000000000000000e+00,-0.000000000000000000e+00,6.100662285462021828e-04,2.740240888670086861e-04,6.331608165055513382e-04,-0.000000000000000000e+00,6.368722533807158470e-04,5.848850705660879612e-04,-0.000000000000000000e+00,-0.000000000000000000e+00,-0.000000000000000000e+00,3.800536069320514798e-05,-0.000000000000000000e+00,6.177809555083513260e-04,4.725544131360948086e-04,-0.000000000000000000e+00,3.246665073675103486e-05,-0.000000000000000000e+00,6.252352031879127026e-04,2.992736990563571453e-04,-0.000000000000000000e+00,5.614478141069412231e-04,5.379353533498942852e-04,-0.000000000000000000e+00,4.221401177346706390e-04,-0.000000000000000000e+00,7.569941226392984390e-05,2.898295933846384287e-04,4.597894439939409494e-04,1.356437715003266931e-04,6.488132639788091183e-04,1.874991430668160319e-04,3.576482704374939203e-04,6.014944519847631454e-04,6.221450748853385448e-04,-0.000000000000000000e+00,3.853757516480982304e-04,4.371609247755259275e-05,4.972470342181622982e-04,-0.000000000000000000e+00,-0.000000000000000000e+00,-0.000000000000000000e+00,5.898169474676251411e-04,7.209997420432046056e-05,-0.000000000000000000e+00,2.153444365831092000e-04,-0.000000000000000000e+00,1.743237662594765425e-04,-0.000000000000000000e+00,-0.000000000000000000e+00,8.619047002866864204e-05,-0.000000000000000000e+00,-0.000000000000000000e+00,-0.000000000000000000e+00,2.026786823989823461e-04,-0.000000000000000000e+00,5.506673478521406651e-04,2.702798519749194384e-04,-0.000000000000000000e+00,5.625089979730546474e-04,3.576155286282300949e-04,5.825610132887959480e-04,-0.000000000000000000e+00,-0.000000000000000000e+00,3.872587403748184443e-04,-0.000000000000000000e+00,-0.000000000000000000e+00,-0.000000000000000000e+00,2.406445128144696355e-04,2.734677400439977646e-04,3.421347937546670437e-04,-0.000000000000000000e+00,-0.000000000000000000e+00,6.227357662282884121e-04,-0.000000000000000000e+00,3.189564740750938654e-04,6.514716078527271748e-04,-0.000000000000000000e+00,-0.000000000000000000e+00,-0.000000000000000000e+00,5.715913721360266209e-04,-0.000000000000000000e+00,-0.000000000000000000e+00,-0.000000000000000000e+00,5.790521390736103058e-04,-0.000000000000000000e+00,-0.000000000000000000e+00,-0.000000000000000000e+00,-0.000000000000000000e+00,-0.000000000000000000e+00,-0.000000000000000000e+00,4.033529548905789852e-04,-0.000000000000000000e+00,2.302319626323878765e-04,1.450143608963117003e-04,-0.000000000000000000e+00,1.476604520576074719e-04,5.088742473162710667e-04,-0.000000000000000000e+00,-0.000000000000000000e+00,6.640515057370066643e-04,-0.000000000000000000e+00,-0.000000000000000000e+00,2.752736036200076342e-04,-0.000000000000000000e+00
-0.000000000000000000e+00,-0.000000000000000000e+00,-0.000000000000000000e+00,3.724643029272556305e-04,5.239241872914135456e-04,3.751341137103736401e-04,-0.000000000000000000e+00,5.612669046968221664e-04,-0.000000000000000000e+00,4.577445797622203827e-04,2.711953711695969105e-04,2.230057580163702369e-04,-0.000000000000000000e+00,5.256157601252198219e-04,-0.000000000000000000e+00,-0.000000000000000000e+00,4.115730916964821517e-05,-0.000000000000000000e+00,-0.000000000000000000e+00,4.071479488629847765e-04,3.862356825266033411e-04,-0.000000000000000000e+00,-0.000000000000000000e+00,4.604147106874734163e-04,1.378567103529348969e-04,-0.000000000000000000e+00,-0.000000000000000000e+00,-0.000000000000000000e+00,-0.000000000000000000e+00,5.216404679231345654e-04,-0.000000000000000000e+00,3.715891507454216480e-04,-0.000000000000000000e+00,6.283508846536278725e-04,1.638407411519438028e-04,-0.000000000000000000e+00,-0.000000000000000000e+00,-0.000000000000000000e+00,-0.000000000000000000e+00,2.000941312871873379e-04,1.464191009290516376e-04,4.756017879117280245e-04,2.005442656809464097e-04,2.421844837954267859e-04,2.729421539697796106e-04,-0.000000000000000000e+00,-0.000000000000000000e+00,5.421203677542507648e-04,3.107287921011447906e-04,-0.000000000000000000e+00,-0.000000000000000000e+00,2.291909913765266538e-04,-0.000000000000000000e+00,2.571036457084119320e-04,-0.000000000000000000e+00,2.573640958871692419e-04,-0.000000000000000000e+00,9.039138967636972666e-05,-0.000000000000000000e+00,5.594726462732069194e-05,4.512677696766331792e-05,-0.000000000000000000e+00,6.273090839385986328e-04,-0.000000000000000000e+00,-0.000000000000000000e+00,-0.000000000000000000e+00,-0.000000000000000000e+00,-0.000000000000000000e+00,3.810469061136245728e-04,3.871320222970098257e-04,-0.000000000000000000e+00,-0.000000000000000000e+00,3.417819680180400610e-04,2.945025153167080134e-05,4.281272140360670164e-06,-0.000000000000000000e+00,3.972677513957023621e-04,-0.000000000000000000e+00,-0.000000000000000000e+00,1.827450032578781247e-04,5.212302203290164471e-04,1.599717215867713094e-04,5.319039919413626194e-04,-0.000000000000000000e+00,1.781566425052005798e-05,6.968293746467679739e-05,5.742405191995203495e-04,-0.000000000000000000e+00,1.225616506417281926e-05,7.295692921616137028e-05,2.011268807109445333e-04,-0.000000000000000000e+00,1.998397056013345718e-04,3.001649747602641582e-04,2.000928216148167849e-04,-0.000000000000000000e+00,4.079614882357418537e-04,1.734992110868915915e-04,4.635431687347590923e-04,-0.000000000000000000e+00,-0.000000000000000000e+00,1.825129729695618153e-04,3.916303685400635004e-04,1.235947420354932547e-04,2.230545796919614077e-04,5.677486769855022430e-04,-0.000000000000000000e+00,2.082593127852305770e-04,4.995987983420491219e-04,3.049645965802483261e-05,-0.000000000000000000e+00,5.995476967655122280e-04,-0.000000000000000000e+00,-0.000000000000000000e+00,-0.000000000000000000e+00,-0.000000000000000000e+00,-0.000000000000000000e+00,-0.000000000000000000e+00,-0.000000000000000000e+00,5.844362312927842140e-04,-0.000000000000000000e+00,-0.000000000000000000e+00,2.774669846985489130e-04,3.852860827464610338e-04,5.992239457555115223e-04,-0.000000000000000000e+00,-0.000000000000000000e+00,3.746975271496921778e-04
-0.000000000000000000e+00,-0.000000000000000000e+00,-0.000000000000000000e+00,-0.000000000000000000e+00,6.795868102926760912e-05,-0.000000000000000000e+00,-0.000000000000000000e+00,1.688526826910674572e-04,2.859400992747396231e-04,8.600266301073133945e-05,-0.000000000000000000e+00,6.471512606367468834e-04,6.097562145441770554e-04,2.117531694239005446e-04,-0.000000000000000000e+00,5.635694833472371101e-04,-0.000000000000000000e+00,1.201062150357756764e-05,4.205936274956911802e-04,-0.000000000000000000e+00,-0.000000000000000000e+00,4.274730745237320662e-04,-0.000000000000000000e+00,-0.000000000000000000e+00,-0.000000000000000000e+00,-0.000000000000000000e+00,-0.000000000000000000e+00,-0.000000000000000000e+00,-0.000000000000000000e+00,6.569045362994074821e-04,-0.000000000000000000e+00,4.233212675899267197e-04,1.448155671823769808e-04,5.487435264512896538e-04,9.949188824975863099e-05,-0.000000000000000000e+00,1.117320207413285971e-04,-0.000000000000000000e+00,-0.000000000000000000e+00,-0.000000000000000000e+00,4.295697144698351622e-04,-0.000000000000000000e+00,4.586010763887315989e-04,-0.000000000000000000e+00,-0.000000000000000000e+00,-0.000000000000000000e+00,5.147305782884359360e-04,6.035171099938452244e-04,-0.000000000000000000e+00,1.372428669128566980e-04,-0.000000000000000000e+00,-0.000000000000000000e+00,-0.000000000000000000e+00,4.781302122864872217e-04,-0.000000000000000000e+00,-0.000000000000000000e+00,1.061303410097025335e-04,2.304520457983016968e-04,3.921626557712443173e-05,-0.000000000000000000e+00,-0.000000000000000000e+00,-0.000000000000000000e+00,6.264383555389940739e-04,2.571097866166383028e-04,-0.000000000000000000e+00,1.288805215153843164e-04,-0.000000000000000000e+00,-0.000000000000000000e+00,4.919650964438915253e-04,2.655654097907245159e-04,-0.000000000000000000e+00,1.437929604435339570e-04,-0.000000000000000000e+00,3.859133721562102437e-05,-0.000000000000000000e+00,-0.000000000000000000e+00,5.511224153451621532e-04,-0.000000000000000000e+00,-0.000000000000000000e+00,-0.000000000000000000e+00,1.680054119788110256e-04,1.496007025707513094e-04,1.159093335445504636e-05,-0.000000000000000000e+00,5.699274333892390132e-05,-0.000000000000000000e+00,1.745677291182801127e-04,-0.000000000000000000e+00,2.468511811457574368e-04,-0.000000000000000000e+00,1.700117572909221053e-04,-0.000000000000000000e+00,2.313775330549106002e-04,-0.000000000000000000e+00,5.466886796057224274e-04,-0.000000000000000000e+00,3.318949020467698574e-04,1.877925387816503644e-04,-0.000000000000000000e+00,-0.000000000000000000e+00,-0.000000000000000000e+00,1.293049717787653208e-04,-0.000000000000000000e+00,-0.000000000000000000e+00,-0.000000000000000000e+00,-0.000000000000000000e+00,-0.000000000000000000e+00,6.234091124497354031e-04,-0.000000000000000000e+00,3.716026840265840292e-04,5.713205900974571705e-04,2.942002320196479559e-04,-0.000000000000000000e+00,2.375786243646871299e-05,-0.000000000000000000e+00,-0.000000000000000000e+00,-0.000000000000000000e+00,4.230201302561908960e-04,7.510064460802823305e-05,-0.000000000000000000e+00,5.214775446802377701e-04,-0.000000000000000000e+00,-0.000000000000000000e+00,4.533216706477105618e-04,5.160067812539637089e-04,-0.000000000000000000e+00,3.379456466063857079e-04,-0.000000000000000000e+00
2.182783646276220679e-04,2.743745280895382166e-04,2.522694412618875504e-04,-0.000000000000000000e+00,5.153389065526425838e-04,5.478605744428932667e-04,5.554832168854773045e-04,-0.000000000000000000e+00,-0.000000000000000000e+00,7.045727397780865431e-05,-0.000000000000000000e+00,4.523476236499845982e-04,-0.000000000000000000e+00,4.591918695950880647e-05,3.771381161641329527e-04,6.523303454741835594e-04,-0.000000000000000000e+00,2.062093117274343967e-04,-0.000000000000000000e+00,-0.000000000000000000e+00,-0.000000000000000000e+00,5.774071905761957169e-05,6.648187409155070782e-04,1.192131167044863105e-04,5.412850878201425076e-04,-0.000000000000000000e+00,1.130003729485906661e-04,-0.000000000000000000e+00,4.437787283677607775e-04,3.774293872993439436e-04,-0.000000000000000000e+00,-0.000000000000000000e+00,-0.000000000000000000e+00,-0.000000000000000000e+00,-0.000000000000000000e+00,-0.000000000000000000e+00,-0.000000000000000000e+00,-0.000000000000000000e+00,3.342546697240322828e-04,-0.000000000000000000e+00,-0.000000000000000000e+00,-0.000000000000000000e+00,-0.000000000000000000e+00,2.048896749329287559e-05,-0.000000000000000000e+00,-0.000000000000000000e+00,-0.000000000000000000e+00,-0.000000000000000000e+00,-0.000000000000000000e+00,-0.000000000000000000e+00,-0.000000000000000000e+00,-0.000000000000000000e+00,-0.000000000000000000e+00,4.074321768712252378e-04,-0.000000000000000000e+00,-0.000000000000000000e+00,6.183069199323654175e-04,6.191998254507780075e-04,1.546854327898472548e-04,3.332548076286911964e-04,-0.000000000000000000e+00,-0.000000000000000000e+00,-0.000000000000000000e+00,-0.000000000000000000e+00,-0.000000000000000000e+00,-0.000000000000000000e+00,9.102305921260267496e-05,4.246628086548298597e-04,5.767624825239181519e-04,-0.000000000000000000e+00,1.557884970679879189e-04,6.496873993455665186e-06,-0.000000000000000000e+00,1.551251189084723592e-04,5.881969700567424297e-04,2.334693272132426500e-04,-0.000000000000000000e+00,-0.000000000000000000e+00,-0.000000000000000000e+00,-0.000000000000000000e+00,-0.000000000000000000e+00,3.039915172848850489e-04,4.867033567279577255e-04,1.559855591040104628e-04,-0.000000000000000000e+00,4.449314728844910860e-04,6.533198175020515919e-04,-0.000000000000000000e+00,8.828298450680449605e-05,3.657655906863510609e-04,4.400928737595677376e-04,-0.000000000000000000e+00,-0.000000000000000000e+00,2.508090692572295666e-04,-0.000000000000000000e+00,-0.000000000000000000e+00,-0.000000000000000000e+00,2.013516495935618877e-04,-0.000000000000000000e+00,1.268468477064743638e-04,-0.000000000000000000e+00,2.387970598647370934e-04,2.286670205648988485e-04,-0.000000000000000000e+00,-0.000000000000000000e+00,5.053958739154040813e-04,-0.000000000000000000e+00,6.090833339840173721e-04,5.904260324314236641e-04,1.865158701548352838e-04,1.213085488416254520e-04,3.214073949493467808e-04,-0.000000000000000000e+00,5.158615385880693793e-05,8.281505142804235220e-05,-0.000000000000000000e+00,3.165433008689433336e-04,-0.000000000000000000e+00,1.307293277932330966e-04,-0.000000000000000000e+00,-0.000000000000000000e+00,-0.000000000000000000e+00,-0.000000000000000000e+00,-0.000000000000000000e+00,-0.000000000000000000e+00,-0.000000000000000000e+00,4.491489380598068237e-04,3.813441435340791941e-04
-0.000000000000000000e+00,3.862912708427757025e-04,-0.000000000000000000e+00,-0.000000000000000000e+00,5.808926653116941452e-04,9.458448039367794991e-05,-0.000000000000000000e+00,-0.000000000000000000e+00,-0.000000000000000000e+00,3.861141449306160212e-04,-0.000000000000000000e+00,4.328893555793911219e-04,-0.000000000000000000e+00,-0.000000000000000000e+00,-0.000000000000000000e+00,6.360914994729682803e-05,-0.000000000000000000e+00,-0.000000000000000000e+00,-0.000000000000000000e+00,5.506762536242604256e-04,3.214720709365792572e-05,5.377412308007478714e-04,2.158098941436037421e-04,-0.000000000000000000e+00,-0.000000000000000000e+00,-0.000000000000000000e+00,-0.000000000000000000e+00,-0.000000000000000000e+00,-0.000000000000000000e+00,-0.000000000000000000e+00,-0.000000000000000000e+00,2.425732527626678348e-04,-0.000000000000000000e+00,-0.000000000000000000e+00,2.392879687249660492e-04,-0.000000000000000000e+00,1.319806469837203622e-04,1.997755462070927024e-04,1.505347754573449492e-04,5.028236191719770432e-04,6.143849896034225821e-05,-0.000000000000000000e+00,6.263004033826291561e-04,-0.000000000000000000e+00,6.063226610422134399e-04,-0.000000000000000000e+00,-0.000000000000000000e+00,-0.000000000000000000e+00,2.174390683649107814e-04,5.166215123608708382e-05,-0.000000000000000000e+00,6.181141361594200134e-04,1.581083488417789340e-04,5.877452204003930092e-04,-0.000000000000000000e+00,1.875481393653899431e-04,2.183697069995105267e-04,4.929397255182266235e-04,-0.000000000000000000e+00,3.718943116837181151e-05,2.880755928345024586e-04,6.054047262296080589e-04,-0.000000000000000000e+00,-0.000000000000000000e+00,3.467574715614318848e-04,-0.000000000000000000e+00,5.011662142351269722e-04,-0.000000000000000000e+00,5.663310876116156578e-04,-0.000000000000000000e+00,3.988594689872115850e-04,-0.000000000000000000e+00,-0.000000000000000000e+00,1.420013286406174302e-04,-0.000000000000000000e+00,4.841382542508654296e-05,-0.000000000000000000e+00,3.186315007042139769e-05,4.740962467622011900e-04,-0.000000000000000000e+00,-0.000000000000000000e+00,-0.000000000000000000e+00,-0.000000000000000000e+00,8.703597268322482705e-05,1.721375301713123918e-04,6.256483611650764942e-04,5.501708947122097015e-04,-0.000000000000000000e+00,-0.000000000000000000e+00,-0.000000000000000000e+00,6.309305317699909210e-04,5.172836245037615299e-04,-0.000000000000000000e+00,4.355170531198382378e-04,4.381735634524375200e-04,-0.000000000000000000e+00,4.891278222203254700e-04,4.718533891718834639e-04,4.141064418945461512e-04,4.966756096109747887e-04,2.030673385888803750e-06,3.328308812342584133e-04,-0.000000000000000000e+00,5.264945793896913528e-04,-0.000000000000000000e+00,-0.000000000000000000e+00,-0.000000000000000000e+00,4.188769089523702860e-04,1.340531161986291409e-04,-0.000000000000000000e+00,4.810757818631827831e-04,-0.000000000000000000e+00,-0.000000000000000000e+00,-0.000000000000000000e+00,2.213527768617495894e-04,-0.000000000000000000e+00,-0.000000000000000000e+00,-0.000000000000000000e+00,8.073251956375315785e-05,5.784569075331091881e-04,-0.000000000000000000e+00,2.381552912993356586e-04,-0.000000000000000000e+00,6.450055661844089627e-05,-0.000000000000000000e+00,1.003182842396199703e-04,4.256105166859924793e-04,-0.000000000000000000e+00
-0.000000000000000000e+00,-0.000000000000000000e+00,-0.000000000000000000e+00,1.116189960157498717e-04,6.020073196850717068e-04,6.718173972330987453e-05,-0.000000000000000000e+00,4.436096642166376114e-04,-0.000000000000000000e+00,-0.000000000000000000e+00,-0.000000000000000000e+00,8.762777724768966436e-05,6.376248784363269806e-04,-0.000000000000000000e+00,5.352164153009653091e-04,-0.000000000000000000e+00,4.077374469488859177e-04,-0.000000000000000000e+00,-0.000000000000000000e+00,-0.000000000000000000e+00,-0.000000000000000000e+00,3.371349303051829338e-04,-0.000000000000000000e+00,-0.000000000000000000e+00,3.629761340562254190e-04,-0.000000000000000000e+00,1.827208907343447208e-04,5.228250520303845406e-04,-0.000000000000000000e+00,2.587292983662337065e-04,4.420980694703757763e-04,-0.000000000000000000e+00,-0.000000000000000000e+00,-0.000000000000000000e+00,-0.000000000000000000e+00,-0.000000000000000000e+00,-0.000000000000000000e+00,-0.000000000000000000e+00,4.691787762567400932e-04,8.828636055113747716e-05,-0.000000000000000000e+00,-0.000000000000000000e+00,-0.000000000000000000e+00,-0.000000000000000000e+00,3.085514472331851721e-04,2.174751134589314461e-04,2.708507818169891834e-04,-0.000000000000000000e+00,2.045085420832037926e-04,5.890229949727654457e-04,1.874542795121669769e-04,2.302894135937094688e-04,-0.000000000000000000e+00,2.237563894595950842e-04,4.886082606390118599e-04,1.775762393663171679e-05,5.879580858163535595e-04,-0.000000000000000000e+00,2.845606650225818157e-04,-0.000000000000000000e+00,-0.000000000000000000e+00,-0.000000000000000000e+00,-0.000000000000000000e+00,-0.000000000000000000e+00,-0.000000000000000000e+00,2.734831359703093767e-04,-0.000000000000000000e+00,1.688964584900531918e-05,-0.000000000000000000e+00,1.804450730560347438e-04,-0.000000000000000000e+00,-0.000000000000000000e+00,-0.000000000000000000e+00,5.348635386326350272e-05,-0.000000000000000000e+00,-0.000000000000000000e+00,-0.000000000000000000e+00,4.776821879204362631e-04,5.940809496678411961e-04,-0.000000000000000000e+00,-0.000000000000000000e+00,-0.000000000000000000e+00,2.416203933535143733e-04,-0.000000000000000000e+00,6.137077580206096172e-04,8.104120206553488970e-05,2.760681672953069210e-04,-0.000000000000000000e+00,-0.000000000000000000e+00,4.184707358945161104e-04,-0.000000000000000000e+00,3.654699248727411032e-04,-0.000000000000000000e+00,5.340999632608145475e-05,6.498323054984211922e-04,2.603229077067226171e-04,1.978154468815773726e-04,-0.000000000000000000e+00,-0.000000000000000000e+00,-0.000000000000000000e+00,3.449280920904129744e-04,4.385709471534937620e-04,3.766772570088505745e-04,5.895537906326353550e-04,-0.000000000000000000e+00,-0.000000000000000000e+00,-0.000000000000000000e+00,-0.000000000000000000e+00,4.704913881141692400e-04,-0.000000000000000000e+00,-0.000000000000000000e+00,2.195010019931942225e-04,-0.000000000000000000e+00,5.058464012108743191e-04,6.528781959787011147e-04,-0.000000000000000000e+00,-0.000000000000000000e+00,-0.000000000000000000e+00,3.755940124392509460e-04,4.491577274166047573e-04,-0.000000000000000000e+00,-0.000000000000000000e+00,4.558072250802069902e-04,1.166592774097807705e-04,6.083467742428183556e-04,7.180123793659731746e-05,-0.000000000000000000e+00,-0.000000000000000000e+00
3.184934030286967754e-04,-0.000000000000000000e+00,6.590491393581032753e-04,-0.000000000000000000e+00,5.650817183777689934e-04,5.957080866210162640e-04,-0.000000000000000000e+00,-0.000000000000000000e+00,-0.000000000000000000e+00,-0.000000000000000000e+00,6.179467309266328812e-04,-0.000000000000000000e+00,-0.000000000000000000e+00,-0.000000000000000000e+00,4.473915032576769590e-04,3.647321136668324471e-04,2.466285950504243374e-04,-0.000000000000000000e+00,-0.000000000000000000e+00,-0.000000000000000000e+00,-0.000000000000000000e+00,-0.000000000000000000e+00,-0.000000000000000000e+00,-0.000000000000000000e+00,1.569332380313426256e-04,-0.000000000000000000e+00,1.285781327169388533e-04,-0.000000000000000000e+00,-0.000000000000000000e+00,-0.000000000000000000e+00,-0.000000000000000000e+00,-0.000000000000000000e+00,1.502163941040635109e-04,-0.000000000000000000e+00,6.419438286684453487e-04,9.093652624869719148e-05,-0.000000000000000000e+00,-0.000000000000000000e+00,3.347337769810110331e-04,1.106506970245391130e-04,-0.000000000000000000e+00,-0.000000000000000000e+00,-0.000000000000000000e+00,-0.000000000000000000e+00,4.600312386173754930e-04,7.544068648712709546e-05,-0.000000000000000000e+00,6.007949705235660076e-04,-0.000000000000000000e+00,-0.000000000000000000e+00,-0.000000000000000000e+00,-0.000000000000000000e+00,1.097021595342084765e-04,-0.000000000000000000e+00,-0.000000000000000000e+00,7.058733899611979723e-05,4.870063276030123234e-04,1.873504952527582645e-04,-0.000000000000000000e+00,2.785643155220896006e-04,3.667766577564179897e-04,4.874982696492224932e-04,6.081730243749916553e-04,1.678685948718339205e-04,-0.000000000000000000e+00,5.985890747979283333e-04,-0.000000000000000000e+00,-0.000000000000000000e+00,5.086958408355712891e-04,-0.000000000000000000e+00,2.749857376329600811e-04,4.880933556705713272e-04,-0.000000000000000000e+00,6.229719019756885245e-06,-0.000000000000000000e+00,7.107072451617568731e-05,-0.000000000000000000e+00,2.448385057505220175e-04,1.630530168768018484e-04,-0.000000000000000000e+00,-0.000000000000000000e+00,-0.000000000000000000e+00,4.196976078674197197e-04,-0.000000000000000000e+00,-0.000000000000000000e+00,3.257246571592986584e-04,2.959727426059544086e-04,-0.000000000000000000e+00,-0.000000000000000000e+00,-0.000000000000000000e+00,-0.000000000000000000e+00,-0.000000000000000000e+00,4.345407796790823340e-05,-0.000000000000000000e+00,-0.000000000000000000e+00,5.002391408197581768e-04,5.299876793287694454e-04,4.000839253421872854e-04,-0.000000000000000000e+00,4.904018132947385311e-04,-0.000000000000000000e+00,1.853584544733166695e-04,3.927231227862648666e-05,5.949176920694299042e-05,-0.000000000000000000e+00,-0.000000000000000000e+00,-0.000000000000000000e+00,1.898807240650057793e-04,-0.000000000000000000e+00,6.105554639361798763e-04,-0.000000000000000000e+00,4.229635815136134624e-04,4.577165527734905481e-04,-0.000000000000000000e+00,4.645578883355483413e-05,-0.000000000000000000e+00,-0.000000000000000000e+00,2.259327884530648589e-04,8.391872688662260771e-05,-0.000000000000000000e+00,-0.000000000000000000e+00,1.024775792757282034e-05,5.113140796311199665e-04,4.267175099812448025e-04,6.507599027827382088e-04,5.607907951343804598e-05,1.881232856248971075e-05,-0.000000000000000000e+00
4.702313162852078676e-05,1.973262551473453641e-04,-0.000000000000000000e+00,-0.000000000000000000e+00,5.335028981789946556e-04,-0.000000000000000000e+00,-0.000000000000000000e+00,-0.000000000000000000e+00,-0.000000000000000000e+00,-0.000000000000000000e+00,-0.000000000000000000e+00,2.580327854957431555e-04,1.084611067199148238e-04,-0.000000000000000000e+00,4.989482695236802101e-04,-0.000000000000000000e+00,4.915138124488294125e-04,2.002846595132723451e-04,4.876918683294206858e-04,2.312647266080603004e-04,-0.000000000000000000e+00,-0.000000000000000000e+00,-0.000000000000000000e+00,6.572336424142122269e-04,-0.000000000000000000e+00,-0.000000000000000000e+00,-0.000000000000000000e+00,2.935610245913267136e-04,-0.000000000000000000e+00,1.426016679033637047e-04,-0.000000000000000000e+00,3.904864715877920389e-04,-0.000000000000000000e+00,-0.000000000000000000e+00,3.722805995494127274e-04,4.436254675965756178e-04,-0.000000000000000000e+00,3.903068136423826218e-04,4.706778563559055328e-04,-0.000000000000000000e+00,2.328439004486426711e-04,-0.000000000000000000e+00,-0.000000000000000000e+00,-0.000000000000000000e+00,4.664198786485940218e-04,-0.000000000000000000e+00,-0.000000000000000000e+00,-0.000000000000000000e+00,2.577833656687289476e-04,-0.000000000000000000e+00,3.856137627735733986e-04,4.272541555110365152e-04,2.461530966684222221e-04,5.307481042109429836e-04,-0.000000000000000000e+00,-0.000000000000000000e+00,-0.000000000000000000e+00,-0.000000000000000000e+00,4.296141851227730513e-04,6.571847479790449142e-04,9.975973807740956545e-05,-0.000000000000000000e+00,-0.000000000000000000e+00,-0.000000000000000000e+00,2.099532430293038487e-04,6.422592559829354286e-04,3.067150100832805037e-05,-0.000000000000000000e+00,1.706061157165095210e-04,-0.000000000000000000e+00,-0.000000000000000000e+00,-0.000000000000000000e+00,-0.000000000000000000e+00,-0.000000000000000000e+00,-0.000000000000000000e+00,4.588577721733599901e-04,6.639514467678964138e-04,-0.000000000000000000e+00,-0.000000000000000000e+00,3.263161343056708574e-04,-0.000000000000000000e+00,6.425337633118033409e-04,5.347261903807520866e-04,-0.000000000000000000e+00,-0.000000000000000000e+00,2.747991820797324181e-04,-0.000000000000000000e+00,6.337712402455508709e-04,-0.000000000000000000e+00,-0.000000000000000000e+00,-0.000000000000000000e+00,3.114791470579802990e-04,-0.000000000000000000e+00,-0.000000000000000000e+00,3.987175878137350082e-04,-0.000000000000000000e+00,4.655915472540073097e-05,-0.000000000000000000e+00,3.252987226005643606e-04,-0.000000000000000000e+00,-0.000000000000000000e+00,-0.000000000000000000e+00,3.068993391934782267e-04,2.708940010052174330e-04,-0.000000000000000000e+00,4.141098761465400457e-04,-0.000000000000000000e+00,6.007970077916979790e-04,5.060408730059862137e-04,-0.000000000000000000e+00,2.513430954422801733e-04,-0.000000000000000000e+00,1.701408473309129477e-04,1.531450106995180249e-04,-0.000000000000000000e+00,-0.000000000000000000e+00,2.651538816280663013e-04,-0.000000000000000000e+00,2.431339271424803883e-05,1.187832822324708104e-04,6.615634192712605000e-04,1.553262154629919678e-05,4.086817789357155561e-04,3.184875458828173578e-05,-0.000000000000000000e+00,5.513379073818214238e-05,4.489043203648179770e-04,-0.000000000000000000e+00
2.375260082772001624e-04,-0.000000000000000000e+00,1.768787660694215447e-05,3.936247085221111774e-04,-0.000000000000000000e+00,-0.000000000000000000e+00,-0.000000000000000000e+00,-0.000000000000000000e+00,-0.000000000000000000e+00,-0.000000000000000000e+00,-0.000000000000000000e+00,-0.000000000000000000e+00,-0.000000000000000000e+00,-0.000000000000000000e+00,3.667935379780828953e-04,3.258330689277499914e-04,-0.000000000000000000e+00,-0.000000000000000000e+00,3.224533575121313334e-04,-0.000000000000000000e+00,-0.000000000000000000e+00,6.286540883593261242e-04,-0.000000000000000000e+00,-0.000000000000000000e+00,-0.000000000000000000e+00,5.305667291395366192e-04,-0.000000000000000000e+00,-0.000000000000000000e+00,6.395666860044002533e-04,-0.000000000000000000e+00,-0.000000000000000000e+00,3.412266669329255819e-04,-0.000000000000000000e+00,-0.000000000000000000e+00,-0.000000000000000000e+00,-0.000000000000000000e+00,4.015370213892310858e-04,-0.000000000000000000e+00,5.722229252569377422e-04,2.651379036251455545e-04,2.500725095160305500e-04,-0.000000000000000000e+00,2.062936837319284678e-04,2.208751393482089043e-04,6.302954279817640781e-04,-0.000000000000000000e+00,1.878603507066145539e-04,9.900223813019692898e-05,3.623481898102909327e-04,2.219113521277904510e-04,-0.000000000000000000e+00,5.419573280960321426e-04,-0.000000000000000000e+00,1.940344227477908134e-04,-0.000000000000000000e+00,-0.000000000000000000e+00,-0.000000000000000000e+00,5.146940820850431919e-04,4.055118188261985779e-04,-0.000000000000000000e+00,3.147697134409099817e-04,1.886543905129656196e-04,2.427534491289407015e-05,-0.000000000000000000e+00,-0.000000000000000000e+00,6.311164470389485359e-04,-0.000000000000000000e+00,2.345910179428756237e-04,3.303853154648095369e-04,-0.000000000000000000e+00,8.047437404457014054e-06,-0.000000000000000000e+00,5.457017687149345875e-04,-0.000000000000000000e+00,-0.000000000000000000e+00,2.885249268729239702e-04,4.323885077610611916e-04,5.931172636337578297e-04,6.065160850994288921e-04,-0.000000000000000000e+00,6.616119208047166467e-05,-0.000000000000000000e+00,1.995577185880392790e-04,2.152726519852876663e-04,2.835703780874609947e-04,2.749839331954717636e-04,-0.000000000000000000e+00,1.165106805274263024e-04,-0.000000000000000000e+00,3.454480611253529787e-04,-0.000000000000000000e+00,-0.000000000000000000e+00,3.407334152143448591e-04,-0.000000000000000000e+00,-0.000000000000000000e+00,1.877036702353507280e-04,3.397842519916594028e-04,-0.000000000000000000e+00,-0.000000000000000000e+00,-0.000000000000000000e+00,-0.000000000000000000e+00,-0.000000000000000000e+00,4.109720612177625299e-05,6.091152317821979523e-04,-0.000000000000000000e+00,3.247424901928752661e-04,-0.000000000000000000e+00,3.365908469277201220e-06,6.507129874080419540e-04,6.292153266258537769e-04,-0.000000000000000000e+00,3.174187149852514267e-04,1.275146350963041186e-04,-0.000000000000000000e+00,3.282203106209635735e-04,3.072054823860526085e-04,7.100076800270471722e-06,6.322312983684241772e-04,-0.000000000000000000e+00,-0.000000000000000000e+00,-0.000000000000000000e+00,-0.000000000000000000e+00,-0.000000000000000000e+00,-0.000000000000000000e+00,2.829147852025926113e-04,-0.000000000000000000e+00,4.840246401727199554e-04,-0.000000000000000000e+00
