-0.000000000000000000e+00,4.251528065651655197e-03,3.968687262386083603e-03,5.685815121978521347e-04,-0.000000000000000000e+00,4.763339238706976175e-04,6.821762304753065109e-03,6.786086130887269974e-03,4.226541612297296524e-03,-0.000000000000000000e+00,-0.000000000000000000e+00,-0.000000000000000000e+00,2.899002050980925560e-03,-0.000000000000000000e+00,5.085282493382692337e-03,-0.000000000000000000e+00
-0.000000000000000000e+00,7.705243770033121109e-03,-0.000000000000000000e+00,-0.000000000000000000e+00,2.240921894554048777e-04,-0.000000000000000000e+00,2.588677220046520233e-03,-0.000000000000000000e+00,-0.000000000000000000e+00,6.763898767530918121e-03,-0.000000000000000000e+00,4.038964863866567612e-03,7.634490728378295898e-03,-0.000000000000000000e+00,-0.000000000000000000e+00,4.442888312041759491e-03
-0.000000000000000000e+00,5.677996203303337097e-03,-0.000000000000000000e+00,4.631917923688888550e-03,-0.000000000000000000e+00,-0.000000000000000000e+00,-0.000000000000000000e+00,-0.000000000000000000e+00,-0.000000000000000000e+00,1.031063613481819630e-03,3.904291894286870956e-03,-0.000000000000000000e+00,-0.000000000000000000e+00,2.856169827282428741e-03,-0.000000000000000000e+00,1.902948715724050999e-03
-0.000000000000000000e+00,-0.000000000000000000e+00,1.758004887960851192e-03,-0.000000000000000000e+00,-0.000000000000000000e+00,4.955844487994909286e-03,1.164580462500452995e-03,-0.000000000000000000e+00,-0.000000000000000000e+00,-0.000000000000000000e+00,-0.000000000000000000e+00,1.574440510012209415e-03,-0.000000000000000000e+00,-0.000000000000000000e+00,4.737986891996115446e-04,-0.000000000000000000e+00
7.338103838264942169e-03,1.694624428637325764e-03,5.665968172252178192e-03,-0.000000000000000000e+00,-0.000000000000000000e+00,-0.000000000000000000e+00,-0.000000000000000000e+00,-0.000000000000000000e+00,2.050623763352632523e-03,4.309381358325481415e-03,-0.000000000000000000e+00,-0.000000000000000000e+00,-0.000000000000000000e+00,1.497780904173851013e-03,-0.000000000000000000e+00,2.177436370402574539e-03
-0.000000000000000000e+00,3.549485234543681145e-03,3.668425837531685829e-03,6.308848969638347626e-03,-0.000000000000000000e+00,-0.000000000000000000e+00,-0.000000000000000000e+00,-0.000000000000000000e+00,-0.000000000000000000e+00,-0.000000000000000000e+00,2.373812720179557800e-03,-0.000000000000000000e+00,2.405286068096756935e-03,7.493985351175069809e-03,3.703910391777753830e-03,2.423877362161874771e-03
-0.000000000000000000e+00,-0.000000000000000000e+00,-0.000000000000000000e+00,2.890545642003417015e-03,7.276560645550489426e-03,1.975174760445952415e-03,-0.000000000000000000e+00,-0.000000000000000000e+00,4.336571786552667618e-03,7.836066186428070068e-03,2.853228710591793060e-03,-0.000000000000000000e+00,-0.000000000000000000e+00,5.993053782731294632e-03,4.226216115057468414e-03,3.524683183059096336e-03
-0.000000000000000000e+00,-0.000000000000000000e+00,-0.000000000000000000e+00,5.269465618766844273e-04,-0.000000000000000000e+00,1.375683583319187164e-03,3.892304841428995132e-03,3.959683701395988464e-03,4.321110434830188751e-03,1.221404527314007282e-03,6.114688701927661896e-03,-0.000000000000000000e+00,-0.000000000000000000e+00,6.048019044101238251e-03,-0.000000000000000000e+00,-0.000000000000000000e+00
3.335781628265976906e-03,4.078496713191270828e-03,-0.000000000000000000e+00,-0.000000000000000000e+00,-0.000000000000000000e+00,4.475601483136415482e-03,-0.000000000000000000e+00,-0.000000000000000000e+00,3.414889506530016661e-04,4.639075603336095810e-03,7.177982479333877563e-03,2.642304869368672371e-03,3.316250862553715706e-03,1.259654294699430466e-03,3.277250798419117928e-03,-0.000000000000000000e+00
2.657176461070775986e-03,4.152521956712007523e-03,-0.000000000000000000e+00,4.559122491627931595e-03,1.449535484425723553e-03,-0.000000000000000000e+00,-0.000000000000000000e+00,4.901474341750144958e-03,5.321416538208723068e-03,-0.000000000000000000e+00,-0.000000000000000000e+00,6.263216026127338409e-03,1.505012391135096550e-03,-0.000000000000000000e+00,-0.000000000000000000e+00,1.738745137117803097e-03
-0.000000000000000000e+00,7.775352802127599716e-03,3.890123334713280201e-04,6.076117046177387238e-03,6.491648033261299133e-03,7.640041410923004150e-03,-0.000000000000000000e+00,6.806343328207731247e-03,-0.000000000000000000e+00,-0.000000000000000000e+00,7.553730625659227371e-03,5.533868912607431412e-03,4.211877007037401199e-03,-0.000000000000000000e+00,5.800091195851564407e-03,5.601701326668262482e-03
-0.000000000000000000e+00,-0.000000000000000000e+00,2.607194473966956139e-03,4.661295562982559204e-03,5.044287536293268204e-03,-0.000000000000000000e+00,-0.000000000000000000e+00,2.820491863531060517e-05,-0.000000000000000000e+00,1.687612530076876283e-04,-0.000000000000000000e+00,6.860841531306505203e-03,1.457365113310515881e-03,-0.000000000000000000e+00,4.307435359805822372e-03,-0.000000000000000000e+00
4.050711868330836296e-04,4.266128409653902054e-03,-0.000000000000000000e+00,4.458825569599866867e-03,2.151084598153829575e-03,1.002032216638326645e-02,-0.000000000000000000e+00,1.181811210699379444e-03,7.232835050672292709e-03,4.418824799358844757e-03,-0.000000000000000000e+00,-0.000000000000000000e+00,-0.000000000000000000e+00,-0.000000000000000000e+00,3.879259573295712471e-03,1.741428510285913944e-03
3.962223418056964874e-03,5.412781611084938049e-04,-0.000000000000000000e+00,9.797211736440658569e-03,5.736304447054862976e-03,2.076105214655399323e-02,-0.000000000000000000e+00,-0.000000000000000000e+00,1.546763163059949875e-02,-0.000000000000000000e+00,-0.000000000000000000e+00,4.658712539821863174e-03,-0.000000000000000000e+00,7.734688930213451385e-03,1.009833067655563354e-02,5.456043407320976257e-03
-0.000000000000000000e+00,6.984806619584560394e-03,2.234191561001352966e-05,-0.000000000000000000e+00,2.539078991503629368e-07,7.303168531507253647e-03,-0.000000000000000000e+00,5.419679917395114899e-03,-0.000000000000000000e+00,2.470517301844665781e-06,6.519849412143230438e-03,8.461255580186843872e-03,5.667021614499390125e-04,5.754846497438848019e-04,4.153628833591938019e-03,-0.000000000000000000e+00
-0.000000000000000000e+00,-0.000000000000000000e+00,9.309156894232728519e-07,4.411073168739676476e-04,5.605427548289299011e-03,-0.000000000000000000e+00,-0.000000000000000000e+00,9.228388807969167829e-05,6.165585364215075970e-04,1.029385856554654310e-07,6.095994729548692703e-03,9.742575639393180609e-05,2.361374754400458187e-05,7.674591615796089172e-03,1.453909208066761494e-04,1.494641881436109543e-03
5.820371210575103760e-03,4.188078921288251877e-03,-0.000000000000000000e+00,7.712174556218087673e-04,1.932667655637487769e-04,-0.000000000000000000e+00,6.130609661340713501e-03,-0.000000000000000000e+00,7.012518588453531265e-03,-0.000000000000000000e+00,7.565220817923545837e-03,5.732163786888122559e-03,-0.000000000000000000e+00,-0.000000000000000000e+00,-0.000000000000000000e+00,4.925361834466457367e-03
3.295923350378870964e-03,5.294316913932561874e-03,1.966209150850772858e-03,-0.000000000000000000e+00,7.198872626759111881e-04,-0.000000000000000000e+00,7.139279507100582123e-03,6.081610452383756638e-03,-0.000000000000000000e+00,-0.000000000000000000e+00,6.569845136255025864e-03,4.255759995430707932e-03,-0.000000000000000000e+00,-0.000000000000000000e+00,-0.000000000000000000e+00,2.761064097285270691e-03
2.061926061287522316e-03,-0.000000000000000000e+00,-0.000000000000000000e+00,-0.000000000000000000e+00,4.863596521317958832e-03,-0.000000000000000000e+00,-0.000000000000000000e+00,-0.000000000000000000e+00,1.525092753581702709e-03,1.134500373154878616e-03,-0.000000000000000000e+00,3.712596138939261436e-03,2.629756927490234375e-03,5.193149205297231674e-03,-0.000000000000000000e+00,6.703194696456193924e-03
-0.000000000000000000e+00,-0.000000000000000000e+00,-0.000000000000000000e+00,-0.000000000000000000e+00,-0.000000000000000000e+00,1.268737250939011574e-03,-0.000000000000000000e+00,2.734986599534749985e-03,4.736488219350576401e-03,-0.000000000000000000e+00,7.424436509609222412e-03,2.842461224645376205e-03,-0.000000000000000000e+00,-0.000000000000000000e+00,6.762384437024593353e-03,4.652361851185560226e-03
-0.000000000000000000e+00,-0.000000000000000000e+00,5.813214462250471115e-03,-0.000000000000000000e+00,-0.000000000000000000e+00,-0.000000000000000000e+00,-0.000000000000000000e+00,-0.000000000000000000e+00,1.013163855532184243e-04,2.375786425545811653e-03,-0.000000000000000000e+00,-0.000000000000000000e+00,4.494572523981332779e-03,-0.000000000000000000e+00,-0.000000000000000000e+00,6.791932508349418640e-03
1.787033630535006523e-03,-0.000000000000000000e+00,9.171694400720298290e-04,-0.000000000000000000e+00,-0.000000000000000000e+00,7.483914960175752640e-03,5.160718690603971481e-03,-0.000000000000000000e+00,7.516156416386365891e-03,7.146569434553384781e-03,-0.000000000000000000e+00,3.276965115219354630e-03,4.313851706683635712e-03,6.617607548832893372e-03,-0.000000000000000000e+00,-0.000000000000000000e+00
-0.000000000000000000e+00,1.861589262261986732e-03,-0.000000000000000000e+00,4.654470831155776978e-03,-0.000000000000000000e+00,-0.000000000000000000e+00,-0.000000000000000000e+00,5.672052502632141113e-03,-0.000000000000000000e+00,-0.000000000000000000e+00,-0.000000000000000000e+00,9.978674352169036865e-04,8.772526052780449390e-04,-0.000000000000000000e+00,-0.000000000000000000e+00,5.350833758711814880e-03
6.911996286362409592e-03,4.160665906965732574e-03,1.255599432624876499e-03,-0.000000000000000000e+00,4.358779697213321924e-04,6.864708848297595978e-03,3.704152768477797508e-03,8.561001159250736237e-04,2.630720846354961395e-03,-0.000000000000000000e+00,-0.000000000000000000e+00,-0.000000000000000000e+00,3.765454282984137535e-03,2.786665689200162888e-03,6.739312782883644104e-03,3.896468784660100937e-03
-0.000000000000000000e+00,9.133931598626077175e-04,-0.000000000000000000e+00,6.474372465163469315e-03,-0.000000000000000000e+00,7.732398342341184616e-03,-0.000000000000000000e+00,-0.000000000000000000e+00,7.280749268829822540e-03,-0.000000000000000000e+00,2.860685810446739197e-03,-0.000000000000000000e+00,-0.000000000000000000e+00,4.576194565743207932e-03,4.106169100850820541e-03,7.349499966949224472e-03
-0.000000000000000000e+00,2.483882475644350052e-03,2.711492357775568962e-03,6.371744908392429352e-03,-0.000000000000000000e+00,-0.000000000000000000e+00,-0.000000000000000000e+00,5.371774081140756607e-03,-0.000000000000000000e+00,-0.000000000000000000e+00,7.371566258370876312e-03,4.847638774663209915e-03,3.905478632077574730e-03,-0.000000000000000000e+00,1.291416236199438572e-03,2.159654395654797554e-03
-0.000000000000000000e+00,5.723099224269390106e-03,-0.000000000000000000e+00,5.556185264140367508e-03,2.953908871859312057e-03,-0.000000000000000000e+00,-0.000000000000000000e+00,5.824164021760225296e-03,-0.000000000000000000e+00,2.780037000775337219e-03,3.240910300519317389e-04,4.132318776100873947e-03,7.516728714108467102e-03,-0.000000000000000000e+00,-0.000000000000000000e+00,-0.000000000000000000e+00
6.941648665815591812e-03,7.560051744803786278e-04,-0.000000000000000000e+00,-0.000000000000000000e+00,7.837501354515552521e-03,3.557761432603001595e-03,2.728812687564641237e-04,-0.000000000000000000e+00,-0.000000000000000000e+00,-0.000000000000000000e+00,3.174321958795189857e-03,-0.000000000000000000e+00,-0.000000000000000000e+00,-0.000000000000000000e+00,-0.000000000000000000e+00,5.648552905768156052e-04
-0.000000000000000000e+00,-0.000000000000000000e+00,3.842128440737724304e-03,-0.000000000000000000e+00,6.368971895426511765e-03,3.613114589825272560e-03,4.333553835749626160e-03,1.808109111152589321e-03,5.310457199811935425e-03,-0.000000000000000000e+00,-0.000000000000000000e+00,-0.000000000000000000e+00,5.037011578679084778e-03,-0.000000000000000000e+00,-0.000000000000000000e+00,-0.000000000000000000e+00
-0.000000000000000000e+00,1.765522320056334138e-04,-0.000000000000000000e+00,-0.000000000000000000e+00,1.744600594975054264e-03,-0.000000000000000000e+00,4.156890790909528732e-03,-0.000000000000000000e+00,4.684031940996646881e-03,6.472022272646427155e-03,3.487661946564912796e-03,-0.000000000000000000e+00,4.270760342478752136e-03,-0.000000000000000000e+00,3.339930903166532516e-03,-0.000000000000000000e+00
6.303676054812967777e-04,-0.000000000000000000e+00,9.503089822828769684e-04,4.948755260556936264e-03,3.211868461221456528e-03,-0.000000000000000000e+00,3.680429421365261078e-03,1.659381203353404999e-03,3.675353713333606720e-03,6.655361037701368332e-03,1.869798172265291214e-03,-0.000000000000000000e+00,-0.000000000000000000e+00,7.243158761411905289e-03,4.183844663202762604e-03,2.864767564460635185e-03
-0.000000000000000000e+00,4.354758653789758682e-03,-0.000000000000000000e+00,4.140912089496850967e-03,-0.000000000000000000e+00,7.451278157532215118e-03,-0.000000000000000000e+00,3.229337162338197231e-04,3.038401249796152115e-03,2.601851010695099831e-03,1.040725619532167912e-03,3.870648331940174103e-03,-0.000000000000000000e+00,5.729960743337869644e-03,-0.000000000000000000e+00,3.780513070523738861e-04
6.829800084233283997e-03,1.151593778558890335e-06,-0.000000000000000000e+00,2.835844043147517368e-06,5.178081323720107321e-07,5.713784048566594720e-06,1.115626218961551785e-06,-0.000000000000000000e+00,9.692819003248587251e-05,-0.000000000000000000e+00,3.126814262941479683e-03,-0.000000000000000000e+00,2.566933517300640233e-06,-0.000000000000000000e+00,-0.000000000000000000e+00,3.903901597368530929e-05
2.556233666837215424e-04,2.159581345040351152e-05,5.696792621165513992e-03,5.506050001713447273e-05,1.126311235566390678e-05,7.239708676934242249e-03,2.984045306220650673e-03,-0.000000000000000000e+00,4.267187032382935286e-04,-0.000000000000000000e+00,4.928524140268564224e-04,4.348783753812313080e-03,-0.000000000000000000e+00,2.145996550098061562e-04,2.559022279456257820e-03,5.397563218139111996e-04
3.530287370085716248e-02,9.079854935407638550e-03,-0.000000000000000000e+00,9.098143316805362701e-03,2.072633430361747742e-02,5.031456053256988525e-02,1.811087946407496929e-03,-0.000000000000000000e+00,4.960713535547256470e-02,2.783394185826182365e-03,8.454551425529643893e-05,-0.000000000000000000e+00,-0.000000000000000000e+00,5.483095999807119370e-03,6.630904972553253174e-03,2.398421987891197205e-02
5.609672516584396362e-02,7.831368595361709595e-03,-0.000000000000000000e+00,9.156732819974422455e-03,2.236628718674182892e-02,6.817394495010375977e-02,4.035042598843574524e-03,-0.000000000000000000e+00,6.925100833177566528e-02,3.832604270428419113e-03,1.374845451209694147e-04,-0.000000000000000000e+00,-0.000000000000000000e+00,6.575212813913822174e-03,3.017628332599997520e-03,5.413823574781417847e-02
6.646495312452316284e-02,1.866992004215717316e-02,-0.000000000000000000e+00,1.327400840818881989e-02,3.393089398741722107e-02,7.908278703689575195e-02,1.311928372160764411e-06,-0.000000000000000000e+00,7.241176068782806396e-02,-0.000000000000000000e+00,2.849717566277831793e-05,-0.000000000000000000e+00,-0.000000000000000000e+00,3.203854663297533989e-03,-0.000000000000000000e+00,5.451628938317298889e-02
7.925570011138916016e-02,2.195168286561965942e-02,-0.000000000000000000e+00,2.743967436254024506e-02,9.141346439719200134e-03,1.003351360559463501e-01,9.450327524973545223e-06,1.526773907301048894e-08,1.109932884573936462e-01,-0.000000000000000000e+00,2.308797324076294899e-03,-0.000000000000000000e+00,-0.000000000000000000e+00,3.405291645321995020e-04,1.173034661405836232e-06,6.468707323074340820e-02
3.423846513032913208e-02,5.356672778725624084e-02,-0.000000000000000000e+00,6.848727166652679443e-02,2.016406506299972534e-03,1.852373182773590088e-01,2.620372734963893890e-02,1.233161981417651987e-07,1.942025274038314819e-01,-0.000000000000000000e+00,5.148437246680259705e-02,-0.000000000000000000e+00,-0.000000000000000000e+00,2.692892740014940500e-04,9.474492799199651927e-06,9.291920065879821777e-02
4.388564452528953552e-02,2.816465916112065315e-03,-0.000000000000000000e+00,6.987680494785308838e-02,2.489718375727534294e-03,2.581985592842102051e-01,2.166567742824554443e-02,1.450437707717355806e-07,1.964506953954696655e-01,4.204614087939262390e-03,1.160418055951595306e-02,-0.000000000000000000e+00,-0.000000000000000000e+00,-0.000000000000000000e+00,4.651281982660293579e-03,1.554727107286453247e-01
7.525892555713653564e-02,1.906990539282560349e-03,-0.000000000000000000e+00,4.695499315857887268e-02,2.640395425260066986e-02,2.579123675823211670e-01,3.507634624838829041e-02,3.347157573330150626e-08,2.032792270183563232e-01,4.422873258590698242e-02,4.776268824934959412e-02,-0.000000000000000000e+00,-0.000000000000000000e+00,-0.000000000000000000e+00,3.504799678921699524e-03,1.942401230335235596e-01
5.741097033023834229e-03,5.988993216305971146e-04,-0.000000000000000000e+00,8.557263645343482494e-04,3.273360058665275574e-02,9.062370657920837402e-02,2.106539977830834687e-05,-0.000000000000000000e+00,9.034270048141479492e-02,3.743438748642802238e-03,1.094975620508193970e-01,-0.000000000000000000e+00,1.053556799888610840e-03,8.447314612567424774e-03,1.175327077507972717e-01,9.665392339229583740e-02
6.610180134885013103e-04,9.691902669146656990e-04,4.595135524868965149e-02,8.263871818780899048e-02,1.080665737390518188e-02,7.920886855572462082e-05,7.801983738318085670e-04,2.353825839236378670e-03,1.181753934361040592e-03,1.085872277617454529e-01,8.018074184656143188e-02,4.660355672240257263e-02,3.960151970386505127e-02,4.744286090135574341e-02,7.852151244878768921e-02,3.494591219350695610e-04
1.385142374783754349e-02,9.155477746389806271e-04,-0.000000000000000000e+00,1.371924430131912231e-01,8.377587073482573032e-04,1.706288382411003113e-02,4.182646989647764713e-06,2.503757737576961517e-02,5.925211007706820965e-04,1.835507601499557495e-01,2.825408300850540400e-04,-0.000000000000000000e+00,8.495374931953847408e-04,3.658068180084228516e-02,1.893017292022705078e-01,3.386441618204116821e-03
4.910359624773263931e-03,4.153880104422569275e-02,3.690938683575950563e-05,2.275040606036782265e-03,1.557344803586602211e-03,1.961739808320999146e-01,1.057394663803279400e-03,2.957473993301391602e-01,4.822319606319069862e-04,9.901715070009231567e-02,8.605000912211835384e-04,1.132726101786829531e-04,1.764194667339324951e-02,3.921579942107200623e-02,2.051431983709335327e-01,2.479066699743270874e-02
3.474238619673997164e-04,6.447127461433410645e-02,4.622051346814259887e-05,2.486179582774639130e-03,7.315244292840361595e-04,2.729951739311218262e-01,1.621586278588438290e-07,1.152841597795486450e-01,1.138134226202964783e-01,1.609721407294273376e-02,7.636281793566013221e-07,8.518279355484992266e-05,1.019634655676782131e-03,5.017567891627550125e-03,3.661709651350975037e-02,9.137831628322601318e-02
1.445426791906356812e-02,3.403397649526596069e-02,-0.000000000000000000e+00,2.175699174404144287e-02,1.719386433251202106e-03,1.240189373493194580e-01,5.507423193193972111e-04,2.978413365781307220e-03,9.996779263019561768e-02,-0.000000000000000000e+00,1.278638137591769919e-06,-0.000000000000000000e+00,-0.000000000000000000e+00,4.921442014165222645e-04,-0.000000000000000000e+00,2.505420148372650146e-02
4.498940333724021912e-02,7.997781038284301758e-02,-0.000000000000000000e+00,1.223216671496629715e-02,4.111660178750753403e-03,1.363044977188110352e-01,3.773455973714590073e-03,-0.000000000000000000e+00,9.078396856784820557e-02,-0.000000000000000000e+00,-0.000000000000000000e+00,-0.000000000000000000e+00,-0.000000000000000000e+00,5.015206406824290752e-04,-0.000000000000000000e+00,2.287913486361503601e-02
3.370615094900131226e-02,5.685405433177947998e-02,-0.000000000000000000e+00,2.896608784794807434e-02,2.261522458866238594e-03,2.083162665367126465e-01,2.472635917365550995e-02,-0.000000000000000000e+00,8.438315987586975098e-02,-0.000000000000000000e+00,6.503188633359968662e-04,-0.000000000000000000e+00,-0.000000000000000000e+00,-0.000000000000000000e+00,-0.000000000000000000e+00,6.817698478698730469e-02
1.984898187220096588e-02,1.401469344273209572e-03,-0.000000000000000000e+00,8.938838541507720947e-02,6.148302782094106078e-05,1.294956952333450317e-01,1.171206496655941010e-02,-0.000000000000000000e+00,9.087064862251281738e-02,-0.000000000000000000e+00,-0.000000000000000000e+00,-0.000000000000000000e+00,-0.000000000000000000e+00,-0.000000000000000000e+00,-0.000000000000000000e+00,9.123388677835464478e-02
7.025302946567535400e-02,3.436292754486203194e-03,-0.000000000000000000e+00,8.248917758464813232e-02,1.826117746531963348e-03,1.939456909894943237e-01,2.606867812573909760e-03,-0.000000000000000000e+00,1.441162526607513428e-01,1.869121682830154896e-03,-0.000000000000000000e+00,-0.000000000000000000e+00,-0.000000000000000000e+00,-0.000000000000000000e+00,-0.000000000000000000e+00,1.261971443891525269e-01
6.729608774185180664e-02,2.760089002549648285e-03,-0.000000000000000000e+00,1.554325129836797714e-02,1.927338540554046631e-03,1.503099054098129272e-01,4.179081879556179047e-03,-0.000000000000000000e+00,8.344238251447677612e-02,3.835052950307726860e-03,-0.000000000000000000e+00,-0.000000000000000000e+00,-0.000000000000000000e+00,1.309061422944068909e-03,2.944183303043246269e-03,6.860746443271636963e-02
5.827661138027906418e-03,7.664806209504604340e-03,4.653606098145246506e-03,2.529762219637632370e-03,2.467990852892398834e-03,-0.000000000000000000e+00,3.321540541946887970e-03,4.232578910887241364e-03,-0.000000000000000000e+00,-0.000000000000000000e+00,-0.000000000000000000e+00,5.672304891049861908e-03,1.712930737994611263e-03,-0.000000000000000000e+00,3.031266387552022934e-03,1.871923101134598255e-03
-0.000000000000000000e+00,2.866308437660336494e-03,7.415483240038156509e-03,7.422674912959337234e-03,-0.000000000000000000e+00,-0.000000000000000000e+00,-0.000000000000000000e+00,2.161762444302439690e-03,-0.000000000000000000e+00,4.566453862935304642e-03,-0.000000000000000000e+00,6.644142791628837585e-03,5.195920355618000031e-03,6.457153707742691040e-03,9.985486976802349091e-04,1.251105422852560878e-04
-0.000000000000000000e+00,-0.000000000000000000e+00,-0.000000000000000000e+00,-0.000000000000000000e+00,-0.000000000000000000e+00,-0.000000000000000000e+00,-0.000000000000000000e+00,-0.000000000000000000e+00,-0.000000000000000000e+00,2.810846548527479172e-03,-0.000000000000000000e+00,-0.000000000000000000e+00,6.759313400834798813e-03,7.307629566639661789e-03,1.789144123904407024e-03,-0.000000000000000000e+00
9.295803029090166092e-04,-0.000000000000000000e+00,-0.000000000000000000e+00,-0.000000000000000000e+00,-0.000000000000000000e+00,-0.000000000000000000e+00,-0.000000000000000000e+00,7.287596818059682846e-03,-0.000000000000000000e+00,4.695878364145755768e-03,-0.000000000000000000e+00,-0.000000000000000000e+00,-0.000000000000000000e+00,2.969439141452312469e-03,4.054736811667680740e-03,-0.000000000000000000e+00
3.912175539880990982e-03,-0.000000000000000000e+00,-0.000000000000000000e+00,6.678540376015007496e-04,-0.000000000000000000e+00,-0.000000000000000000e+00,6.688387133181095123e-03,1.808450790122151375e-03,4.013841506093740463e-03,8.403894025832414627e-04,3.659135429188609123e-03,-0.000000000000000000e+00,7.390048820525407791e-03,2.122440841048955917e-03,-0.000000000000000000e+00,4.304361995309591293e-03
5.250656511634588242e-03,-0.000000000000000000e+00,5.341282114386558533e-03,-0.000000000000000000e+00,3.978901542723178864e-03,4.722248297184705734e-03,-0.000000000000000000e+00,-0.000000000000000000e+00,-0.000000000000000000e+00,2.662942744791507721e-03,1.520290155895054340e-03,-0.000000000000000000e+00,-0.000000000000000000e+00,2.540753223001956940e-03,4.456470720469951630e-03,-0.000000000000000000e+00
6.708511932629335206e-07,3.196591511368751526e-03,-0.000000000000000000e+00,4.066778637934476137e-05,9.676956688053905964e-05,2.443846082314848900e-03,1.057565910400626308e-07,-0.000000000000000000e+00,5.190132069401443005e-04,-0.000000000000000000e+00,6.926348561364648049e-08,-0.000000000000000000e+00,3.117550397291779518e-03,1.396374311298131943e-03,-0.000000000000000000e+00,4.381682374514639378e-04
1.727386494167149067e-03,-0.000000000000000000e+00,-0.000000000000000000e+00,6.296387873589992523e-03,5.180915817618370056e-03,4.410187900066375732e-02,4.808627181773772463e-06,3.313717199489474297e-03,4.486619494855403900e-03,1.915738731622695923e-02,2.712028333917260170e-03,-0.000000000000000000e+00,-0.000000000000000000e+00,5.982962902635335922e-03,3.641264140605926514e-02,1.656005717813968658e-02
3.152847290039062500e-02,-0.000000000000000000e+00,-0.000000000000000000e+00,2.245205640792846680e-02,1.076592234312556684e-04,3.584429249167442322e-02,1.076597068458795547e-02,-0.000000000000000000e+00,9.945727139711380005e-02,6.473551038652658463e-03,6.881062686443328857e-02,-0.000000000000000000e+00,-0.000000000000000000e+00,1.593133492860943079e-04,1.151523459702730179e-02,4.206065088510513306e-02
1.234512869268655777e-02,1.591006293892860413e-02,-0.000000000000000000e+00,1.031602080911397934e-02,6.086934823542833328e-03,8.515418507158756256e-03,1.987795811146497726e-03,3.705242488649673760e-05,3.591729328036308289e-02,-0.000000000000000000e+00,1.783845201134681702e-02,-0.000000000000000000e+00,2.012014389038085938e-03,2.441759919747710228e-03,1.764396415637747850e-06,8.119263686239719391e-03
6.307639181613922119e-02,2.116531133651733398e-01,-0.000000000000000000e+00,8.305435627698898315e-02,9.553969837725162506e-03,4.521241039037704468e-02,8.257690351456403732e-04,2.171991945942863822e-04,6.677085906267166138e-02,-0.000000000000000000e+00,4.403581319034621799e-11,-0.000000000000000000e+00,-0.000000000000000000e+00,3.788406274907174520e-06,5.023402991355396807e-05,5.560074374079704285e-02
2.144346237182617188e-01,2.570581734180450439e-01,-0.000000000000000000e+00,1.274109482765197754e-01,7.306694239377975464e-02,2.259416729211807251e-01,5.817882176017974416e-09,1.624001306481659412e-04,3.811070919036865234e-01,-0.000000000000000000e+00,1.860834471881389618e-02,-0.000000000000000000e+00,1.447161339456215501e-04,1.193274045363068581e-03,2.554873703047633171e-03,1.729669719934463501e-01
3.182021081447601318e-01,3.667552173137664795e-01,-0.000000000000000000e+00,1.493950933218002319e-01,8.459574729204177856e-02,3.112418353557586670e-01,8.576177788199856877e-05,-0.000000000000000000e+00,5.229812264442443848e-01,-0.000000000000000000e+00,1.993906497955322266e-02,-0.000000000000000000e+00,-0.000000000000000000e+00,3.792682255152612925e-04,-0.000000000000000000e+00,2.105875015258789062e-01
3.407024741172790527e-01,4.760443866252899170e-01,-0.000000000000000000e+00,1.695446223020553589e-01,1.566692292690277100e-01,4.592041075229644775e-01,8.748716936679556966e-06,1.426604390144348145e-02,2.835923135280609131e-01,-0.000000000000000000e+00,6.088468362577259541e-04,-0.000000000000000000e+00,-0.000000000000000000e+00,1.090521216392517090e-01,5.230282898992300034e-03,2.588623668998479843e-03
5.297843217849731445e-01,5.427544713020324707e-01,-0.000000000000000000e+00,4.054436385631561279e-01,1.859993040561676025e-01,7.343837618827819824e-01,1.137817045673727989e-03,-0.000000000000000000e+00,6.609038114547729492e-01,1.504739630036056042e-04,5.482627078890800476e-03,1.206124899908900261e-03,-0.000000000000000000e+00,1.385259181261062622e-01,7.315120659768581390e-03,4.400681238621473312e-03
6.138770580291748047e-01,4.724464714527130127e-01,-0.000000000000000000e+00,4.451391994953155518e-01,1.021702438592910767e-01,6.928594112396240234e-01,3.952959086745977402e-03,2.536159627197775990e-06,5.580719113349914551e-01,3.975100989919155836e-04,2.069277875125408173e-02,3.113023121841251850e-04,7.834523566998541355e-04,1.130295637995004654e-02,4.902456700801849365e-02,3.467277158051729202e-03
6.182163357734680176e-01,8.397527337074279785e-01,-0.000000000000000000e+00,3.693059384822845459e-01,1.902262717485427856e-01,7.513436079025268555e-01,7.150623132474720478e-04,1.377739850431680679e-02,4.807669818401336670e-01,-0.000000000000000000e+00,1.138783916831016541e-01,-0.000000000000000000e+00,-0.000000000000000000e+00,4.991344641894102097e-03,1.316918879747390747e-01,3.399928100407123566e-03
3.398157954216003418e-01,5.308220386505126953e-01,1.363073242828249931e-03,3.841127157211303711e-01,2.356661707162857056e-01,5.029187202453613281e-01,1.821394107537344098e-05,1.862460002303123474e-02,2.960211932659149170e-01,3.589508356526494026e-03,3.051289618015289307e-01,-0.000000000000000000e+00,6.106760352849960327e-03,1.776835706550627947e-04,1.931381076574325562e-01,1.074579660780727863e-03
2.690735757350921631e-01,6.520846486091613770e-01,1.872985158115625381e-03,6.418805718421936035e-01,2.275355607271194458e-01,6.022320985794067383e-01,8.693082490935921669e-04,3.458910435438156128e-02,2.840309739112854004e-01,1.854544579982757568e-01,2.095075249671936035e-01,8.586335461586713791e-04,1.226065214723348618e-02,-0.000000000000000000e+00,3.358319774270057678e-02,6.709276203764602542e-05
2.432323247194290161e-01,7.630179524421691895e-01,1.568332547321915627e-03,6.143168210983276367e-01,1.369647830724716187e-01,7.030664682388305664e-01,1.009160419926047325e-03,2.887673676013946533e-02,2.297560572624206543e-01,1.704505458474159241e-02,9.714053012430667877e-03,-0.000000000000000000e+00,5.409325938671827316e-03,1.344271149719133973e-04,2.944994531571865082e-02,7.332413224503397942e-05
9.252522885799407959e-02,7.509337663650512695e-01,-0.000000000000000000e+00,5.217897295951843262e-01,1.547086387872695923e-01,8.773350119590759277e-01,2.787558478303253651e-04,4.186568781733512878e-02,2.955402731895446777e-01,6.616448517888784409e-03,1.009728061035275459e-03,-0.000000000000000000e+00,1.838026917539536953e-03,2.963205588457640260e-05,2.534318715333938599e-02,8.660640742164105177e-05
3.448693023528903723e-04,5.986893177032470703e-01,3.363945288583636284e-04,3.861715495586395264e-01,1.148493215441703796e-01,7.511994838714599609e-01,-0.000000000000000000e+00,4.004624113440513611e-02,4.002618491649627686e-01,4.256296437233686447e-03,1.316590458154678345e-01,-0.000000000000000000e+00,7.321365177631378174e-02,1.266000763280317187e-04,1.318519376218318939e-02,2.102436870336532593e-02
4.318736027926206589e-03,4.491129517555236816e-01,-0.000000000000000000e+00,3.640708923339843750e-01,1.262408494949340820e-02,5.870026946067810059e-01,2.131355553865432739e-02,1.475936267524957657e-02,5.214297771453857422e-01,3.261946840211749077e-04,2.530189454555511475e-01,-0.000000000000000000e+00,9.701467119157314301e-03,1.128114090533927083e-04,7.438576314598321915e-03,3.150566220283508301e-01
8.020981401205062866e-02,5.000672936439514160e-01,-0.000000000000000000e+00,3.462956845760345459e-01,1.221481594257056713e-03,5.766804814338684082e-01,1.396645754575729370e-01,4.262706264853477478e-03,8.150010108947753906e-01,-0.000000000000000000e+00,3.613426387310028076e-01,-0.000000000000000000e+00,1.128750591306015849e-05,6.885785114718601108e-05,2.528592478483915329e-03,3.263425230979919434e-01
7.480996102094650269e-02,2.778663039207458496e-01,-0.000000000000000000e+00,2.283663749694824219e-01,9.922578465193510056e-05,3.251613974571228027e-01,1.972497999668121338e-01,-0.000000000000000000e+00,6.529732942581176758e-01,-0.000000000000000000e+00,2.242865115404129028e-01,-0.000000000000000000e+00,4.952616989612579346e-02,-0.000000000000000000e+00,-0.000000000000000000e+00,2.097641974687576294e-01
2.390200085937976837e-02,1.374918818473815918e-01,-0.000000000000000000e+00,1.354316771030426025e-01,2.356208278797566891e-05,3.451556861400604248e-01,8.632681518793106079e-02,-0.000000000000000000e+00,5.728992223739624023e-01,-0.000000000000000000e+00,1.344967931509017944e-01,-0.000000000000000000e+00,1.102749481797218323e-01,4.097098484635353088e-03,-0.000000000000000000e+00,2.013284862041473389e-01
1.195677593350410461e-01,4.991996288299560547e-02,-0.000000000000000000e+00,1.461993455886840820e-01,3.482567535684211180e-06,3.444116711616516113e-01,1.070199906826019287e-01,-0.000000000000000000e+00,4.817803800106048584e-01,-0.000000000000000000e+00,2.641367726027965546e-03,-0.000000000000000000e+00,2.569686248898506165e-02,2.512658014893531799e-03,-0.000000000000000000e+00,2.481527179479598999e-01
8.598770201206207275e-02,6.884100148454308510e-04,-0.000000000000000000e+00,1.880447752773761749e-02,5.611480213701725006e-03,2.885407805442810059e-01,3.136823326349258423e-02,6.189489271491765976e-03,1.224048808217048645e-01,-0.000000000000000000e+00,1.173075521364808083e-03,2.832665108144283295e-02,2.583457389846444130e-03,6.740919779986143112e-03,3.845583647489547729e-02,1.247308403253555298e-01
1.981278881430625916e-03,2.379063051193952560e-03,-0.000000000000000000e+00,7.630396430613473058e-05,1.428878604201599956e-04,7.305490784347057343e-03,7.966542616486549377e-04,5.304705724120140076e-02,2.121727680787444115e-03,-0.000000000000000000e+00,1.172197298728860915e-04,5.929149314761161804e-02,7.624322082847356796e-03,9.611863642930984497e-02,1.104554161429405212e-01,1.247403852175921202e-04
2.019000930886249989e-06,2.557237976930082368e-08,-0.000000000000000000e+00,4.474907109397463500e-05,6.446906809287611395e-06,1.684245216893032193e-04,-0.000000000000000000e+00,1.639985293149948120e-02,6.033842146280221641e-05,4.471422289498150349e-04,1.172120872583448659e-10,6.051807850599288940e-02,5.979574285447597504e-03,8.779532462358474731e-02,1.024384498596191406e-01,7.739133434370160103e-05
7.305693812668323517e-03,-0.000000000000000000e+00,-0.000000000000000000e+00,-0.000000000000000000e+00,2.142437733709812164e-03,-0.000000000000000000e+00,-0.000000000000000000e+00,3.989907447248697281e-03,3.855469170957803726e-03,-0.000000000000000000e+00,-0.000000000000000000e+00,-0.000000000000000000e+00,-0.000000000000000000e+00,-0.000000000000000000e+00,-0.000000000000000000e+00,1.616816851310431957e-03
7.549046538770198822e-03,1.443044049665331841e-03,-0.000000000000000000e+00,-0.000000000000000000e+00,-0.000000000000000000e+00,-0.000000000000000000e+00,6.868395023047924042e-03,2.498432295396924019e-04,-0.000000000000000000e+00,5.468807648867368698e-04,7.220396306365728378e-03,-0.000000000000000000e+00,-0.000000000000000000e+00,-0.000000000000000000e+00,1.210535876452922821e-03,-0.000000000000000000e+00
-0.000000000000000000e+00,2.918290207162499428e-03,-0.000000000000000000e+00,4.123361781239509583e-03,3.323728218674659729e-03,2.063628053292632103e-03,-0.000000000000000000e+00,-0.000000000000000000e+00,7.849022746086120605e-03,3.424047026783227921e-03,3.593584988266229630e-03,-0.000000000000000000e+00,-0.000000000000000000e+00,-0.000000000000000000e+00,-0.000000000000000000e+00,-0.000000000000000000e+00
-0.000000000000000000e+00,7.230758201330900192e-03,-0.000000000000000000e+00,-0.000000000000000000e+00,3.568287007510662079e-03,-0.000000000000000000e+00,7.274010218679904938e-03,-0.000000000000000000e+00,-0.000000000000000000e+00,-0.000000000000000000e+00,5.286610685288906097e-03,-0.000000000000000000e+00,1.796293188817799091e-03,5.873554386198520660e-03,-0.000000000000000000e+00,-0.000000000000000000e+00
6.231542837298320592e-09,1.790061243809759617e-03,5.612037144601345062e-03,1.633165217936038971e-02,6.976701784878969193e-03,9.253942607756471261e-07,5.229507105131148137e-11,-0.000000000000000000e+00,2.657205186551436782e-05,3.423226624727249146e-02,1.675388300315105994e-10,3.856534836813807487e-03,-0.000000000000000000e+00,-0.000000000000000000e+00,4.011441487818956375e-03,2.242638438474386930e-04
4.785369434046060633e-09,2.461235055761790136e-07,-0.000000000000000000e+00,5.069268401712179184e-03,3.693934413604438305e-04,8.866076171398162842e-02,1.355206128209829330e-03,-0.000000000000000000e+00,7.890722714364528656e-03,5.356492847204208374e-02,3.475285836884722812e-09,-0.000000000000000000e+00,-0.000000000000000000e+00,1.146228611469268799e-02,6.176741793751716614e-02,6.825333833694458008e-02
4.001439362764358521e-02,2.700446173548698425e-03,-0.000000000000000000e+00,8.370266854763031006e-02,7.456090301275253296e-03,1.550265848636627197e-01,1.276517510414123535e-01,-0.000000000000000000e+00,1.065277531743049622e-01,3.368178440723568201e-04,8.198843896389007568e-02,-0.000000000000000000e+00,3.002579510211944580e-02,1.473702583461999893e-02,1.542306854389607906e-03,1.199618950486183167e-01
1.007988825440406799e-01,8.095107972621917725e-02,1.860809046775102615e-03,9.622645378112792969e-02,2.329703420400619507e-03,1.663609445095062256e-01,6.691182404756546021e-02,5.129783228039741516e-02,4.504232481122016907e-02,1.011995937005849555e-05,2.405768260359764099e-03,3.411106392741203308e-02,7.753583602607250214e-03,2.071111090481281281e-02,7.235914468765258789e-03,-0.000000000000000000e+00
2.441783994436264038e-01,3.189282715320587158e-01,1.663196308072656393e-04,1.420688629150390625e-01,9.784020483493804932e-02,3.028656542301177979e-01,-0.000000000000000000e+00,1.014193147420883179e-01,2.133802510797977448e-02,2.981636862386949360e-05,-0.000000000000000000e+00,1.687374460743740201e-04,2.758173422989784740e-07,3.359318361617624760e-05,7.037524133920669556e-03,3.349778708070516586e-03
4.455281496047973633e-01,1.659638583660125732e-01,3.175758989527821541e-03,9.790599346160888672e-02,1.652734428644180298e-01,7.509279251098632812e-01,9.666918231232557446e-06,1.079905498772859573e-02,5.663779005408287048e-02,-0.000000000000000000e+00,-0.000000000000000000e+00,4.201708827167749405e-03,-0.000000000000000000e+00,1.174526172690093517e-03,1.212660595774650574e-01,1.306103076785802841e-04
8.334144949913024902e-01,2.326685488224029541e-01,3.403304610401391983e-03,1.232034191489219666e-01,1.538822054862976074e-01,1.181052446365356445e+00,-0.000000000000000000e+00,2.045228704810142517e-02,1.248255223035812378e-01,-0.000000000000000000e+00,2.014355559367686510e-04,4.130868706852197647e-03,6.144694052636623383e-04,1.576545238494873047e-01,1.087349141016602516e-03,6.724669947288930416e-05
9.179913401603698730e-01,3.577648401260375977e-01,2.909740898758172989e-03,2.809354364871978760e-01,2.604070007801055908e-01,1.150703430175781250e+00,-0.000000000000000000e+00,2.265115268528461456e-02,4.851117357611656189e-02,-0.000000000000000000e+00,6.417976692318916321e-04,5.119230132550001144e-03,3.274573478847742081e-03,3.358752429485321045e-01,4.231831524521112442e-03,1.287710474571213126e-04
5.929303169250488281e-01,4.404211640357971191e-01,4.708951339125633240e-03,3.753024935722351074e-01,1.894876807928085327e-01,1.100018501281738281e+00,3.198402919224463403e-05,2.139520198106765747e-01,7.752741128206253052e-02,-0.000000000000000000e+00,4.807985387742519379e-03,5.667652003467082977e-03,7.673499640077352524e-03,2.846751213073730469e-01,1.555957552045583725e-02,4.710745124612003565e-04
3.607863187789916992e-01,2.823049724102020264e-01,6.151807960122823715e-03,2.278774231672286987e-01,1.166647523641586304e-01,1.217619538307189941e+00,4.177012888249009848e-04,1.758611202239990234e-01,1.812407188117504120e-02,-0.000000000000000000e+00,2.331287786364555359e-02,5.411995574831962585e-03,7.396992295980453491e-03,8.750479668378829956e-03,1.506529748439788818e-01,3.911530948244035244e-04
8.622236847877502441e-01,1.315301191061735153e-02,6.906202062964439392e-03,6.848248839378356934e-01,7.987856864929199219e-03,1.733370065689086914e+00,1.792907423805445433e-04,9.930467605590820312e-02,7.153298705816268921e-03,2.225619275122880936e-03,3.903669072315096855e-03,3.289315402507781982e-01,9.704668074846267700e-03,1.900045014917850494e-02,2.558884918689727783e-01,2.187683421652764082e-04
1.113697290420532227e+00,8.635587058961391449e-03,8.769518695771694183e-03,8.653155565261840820e-01,1.155908629298210144e-01,1.632658362388610840e+00,9.319089003838598728e-04,3.267480432987213135e-01,4.012714028358459473e-01,4.327722825109958649e-03,4.788267426192760468e-03,2.421407774090766907e-02,1.261041779071092606e-02,7.929747924208641052e-03,8.612708449363708496e-01,3.506080247461795807e-04
2.815222926437854767e-02,7.233288604766130447e-03,3.024059161543846130e-02,4.540353119373321533e-01,1.434297394007444382e-02,1.555902957916259766e+00,1.089997007511556149e-03,3.628656640648841858e-02,6.025902461260557175e-03,6.878086365759372711e-03,2.751421928405761719e-01,1.635109931230545044e-01,2.214626595377922058e-02,6.696516182273626328e-03,5.230361223220825195e-01,2.535464009270071983e-03
1.749656163156032562e-02,4.182507283985614777e-03,2.196655981242656708e-02,9.189711809158325195e-01,1.373891439288854599e-02,1.112160086631774902e+00,1.114524435251951218e-03,1.924391984939575195e-01,1.008720137178897858e-02,6.350303068757057190e-03,4.036996364593505859e-01,5.347904190421104431e-02,3.957371786236763000e-02,6.536806933581829071e-03,4.129566997289657593e-02,4.507772624492645264e-03
1.039013080298900604e-02,3.936084685847163200e-04,6.304165814071893692e-03,6.725204586982727051e-01,2.306593349203467369e-03,9.948539137840270996e-01,6.284519913606345654e-04,8.549062907695770264e-02,1.156732439994812012e-02,4.067195579409599304e-03,2.572842836380004883e-01,2.676248364150524139e-02,3.586606308817863464e-02,7.264395244419574738e-03,4.644040465354919434e-01,2.387163601815700531e-02
9.061541641131043434e-05,8.488073945045471191e-03,3.714792663231492043e-03,4.266807436943054199e-01,2.789196791127324104e-03,1.015371084213256836e+00,2.419723168713971972e-04,1.615149676799774170e-01,2.733546542003750801e-03,7.771631237119436264e-03,7.805072665214538574e-01,1.052476279437541962e-02,3.975230455398559570e-02,1.005506608635187149e-02,3.712400048971176147e-02,3.425706550478935242e-02
4.840791597962379456e-02,1.001736447215080261e-01,3.369770012795925140e-03,4.663300812244415283e-01,6.015771068632602692e-03,8.026744127273559570e-01,3.620555857196450233e-03,7.106449455022811890e-02,1.952321082353591919e-01,6.810743361711502075e-03,2.113769799470901489e-01,1.936212996952235699e-03,6.708949208259582520e-01,6.659554317593574524e-03,1.450859569013118744e-02,4.469358548521995544e-02
5.217944737523794174e-03,5.401386618614196777e-01,2.874476602301001549e-03,4.083873927593231201e-01,1.941885799169540405e-01,8.173405528068542480e-01,5.549295544624328613e-01,3.707428649067878723e-02,2.078447118401527405e-02,4.219828639179468155e-03,9.682650566101074219e-01,-0.000000000000000000e+00,6.591700315475463867e-01,2.915143501013517380e-03,8.263097144663333893e-03,5.032891780138015747e-02
1.921084336936473846e-02,5.678301677107810974e-02,1.061016300809569657e-04,1.929621696472167969e-01,1.661688834428787231e-01,9.248992800712585449e-01,1.361702680587768555e-01,3.012631833553314209e-02,1.355633698403835297e-02,5.258967634290456772e-03,4.929939210414886475e-01,-0.000000000000000000e+00,7.274518609046936035e-01,-0.000000000000000000e+00,5.784864071756601334e-03,4.499595239758491516e-02
7.441232446581125259e-04,3.342247307300567627e-01,-0.000000000000000000e+00,4.044397920370101929e-02,3.252714872360229492e-03,7.597023248672485352e-01,3.870551288127899170e-01,7.794104516506195068e-03,8.019254542887210846e-03,4.047802649438381195e-03,4.418029785156250000e-01,4.276130814105272293e-03,8.815268874168395996e-01,1.994313206523656845e-03,5.344099365174770355e-03,1.955852806568145752e-01
5.393572617322206497e-03,4.503624439239501953e-01,-0.000000000000000000e+00,1.804832741618156433e-02,7.901278883218765259e-02,4.841839075088500977e-01,3.304178118705749512e-01,7.735011167824268341e-03,1.195030361413955688e-01,4.409421235322952271e-03,7.140200585126876831e-02,1.759535446763038635e-02,4.956248700618743896e-01,4.039900377392768860e-03,3.540522418916225433e-03,3.429046869277954102e-01
3.962340205907821655e-02,5.003072023391723633e-01,1.612437627045437694e-04,1.775799132883548737e-02,2.318070679903030396e-01,4.494721591472625732e-01,5.618022680282592773e-01,2.504067029803991318e-03,3.707503080368041992e-01,3.754540812224149704e-03,5.648054555058479309e-02,1.274834573268890381e-02,2.592209279537200928e-01,5.070192739367485046e-03,1.624566502869129181e-03,1.580489426851272583e-02
2.009372040629386902e-02,5.865465383976697922e-03,-0.000000000000000000e+00,1.105399988591670990e-02,8.099826425313949585e-02,3.244820237159729004e-01,4.346654415130615234e-01,4.107813947484828532e-05,8.570852875709533691e-02,4.129301756620407104e-03,4.444784950464963913e-03,4.629974439740180969e-02,6.899200379848480225e-02,4.428828507661819458e-02,3.853633999824523926e-03,6.043617054820060730e-02
-0.000000000000000000e+00,6.928838044404983521e-02,1.426293398253619671e-03,2.429165644571185112e-03,2.148430049419403076e-02,3.779466450214385986e-02,1.324041634798049927e-01,1.036460604518651962e-02,2.811177261173725128e-02,1.568391104228794575e-03,2.160716030630283058e-05,7.177774608135223389e-02,-0.000000000000000000e+00,9.489349275827407837e-02,1.300144046545028687e-01,5.052374675869941711e-03
1.602418487891554832e-03,1.187809975817799568e-03,-0.000000000000000000e+00,2.280250482726842165e-04,3.580154152587056160e-03,8.481959998607635498e-02,1.034701094031333923e-01,5.186325324757490307e-07,6.636314094066619873e-02,2.711880915740039200e-05,3.930444270372390747e-02,2.741399803198873997e-04,5.436302628368139267e-03,8.618128777015954256e-05,-0.000000000000000000e+00,5.379854701459407806e-03
-0.000000000000000000e+00,-0.000000000000000000e+00,-0.000000000000000000e+00,5.753855220973491669e-03,6.082483567297458649e-03,1.056410837918519974e-03,4.995680879801511765e-03,-0.000000000000000000e+00,2.737732604146003723e-03,-0.000000000000000000e+00,6.610747892409563065e-03,6.379690021276473999e-03,5.708115641027688980e-03,-0.000000000000000000e+00,-0.000000000000000000e+00,-0.000000000000000000e+00
3.860559081658720970e-03,5.026141181588172913e-03,5.691140890121459961e-03,6.030554883182048798e-03,-0.000000000000000000e+00,2.123814541846513748e-03,-0.000000000000000000e+00,-0.000000000000000000e+00,-0.000000000000000000e+00,-0.000000000000000000e+00,7.474008016288280487e-03,2.801445312798023224e-03,-0.000000000000000000e+00,6.864894181489944458e-03,3.444815985858440399e-03,3.659289097413420677e-03
6.670486527582397684e-06,4.861491266638040543e-03,2.825918272719718516e-05,5.982867151033133268e-06,-0.000000000000000000e+00,5.467025330290198326e-04,2.808358287438750267e-03,-0.000000000000000000e+00,-0.000000000000000000e+00,1.151513308286666870e-03,-0.000000000000000000e+00,2.403584039711859077e-05,5.468210671097040176e-03,2.414673872408457100e-06,6.005121977068483829e-04,5.826723761856555939e-03
1.642608549445867538e-03,1.687834014774125535e-07,2.241468802094459534e-02,3.399412706494331360e-02,1.391535636718899127e-10,4.365337372291833162e-05,-0.000000000000000000e+00,1.712433368084020913e-05,1.569201231177430600e-05,7.348643988370895386e-02,-0.000000000000000000e+00,2.806244418025016785e-03,-0.000000000000000000e+00,1.623369171284139156e-03,7.701195310801267624e-03,2.563991984061431140e-05
2.145589143037796021e-02,5.096387099001731258e-07,5.571819841861724854e-02,4.363972321152687073e-02,1.138529687194633766e-10,6.844122544862329960e-04,2.724558634259466317e-10,1.631528430152684450e-04,2.332981966901570559e-05,5.930197983980178833e-02,5.073502961749909446e-06,1.125871390104293823e-01,2.464482188224792480e-02,1.372038386762142181e-02,2.630766248330473900e-04,9.655352914705872536e-05
4.613775294274091721e-03,3.524305997416377068e-03,4.134420771151781082e-03,7.900540530681610107e-02,3.882643650285899639e-04,6.537235528230667114e-02,1.042757928371429443e-01,1.402969122864305973e-03,2.393421679735183716e-01,6.324399262666702271e-03,6.785835325717926025e-02,4.880535975098609924e-02,3.210519999265670776e-02,7.261114194989204407e-03,2.515587993912049569e-06,-0.000000000000000000e+00
2.827003896236419678e-01,1.397318765521049500e-02,2.458776682615280151e-01,2.095068246126174927e-01,2.241986949229612947e-04,2.901274859905242920e-01,3.553961589932441711e-02,9.807492606341838837e-03,8.747901767492294312e-03,-0.000000000000000000e+00,3.883302444592118263e-03,1.409112662076950073e-01,1.670920210017357022e-05,9.565006010234355927e-03,-0.000000000000000000e+00,5.450449418276548386e-03
5.646327733993530273e-01,9.243451058864593506e-02,1.140747871249914169e-02,2.865709662437438965e-01,8.846002630889415741e-03,6.817716360092163086e-01,5.573591333813965321e-04,1.797651499509811401e-01,2.738020010292530060e-02,-0.000000000000000000e+00,3.050061874091625214e-03,-0.000000000000000000e+00,2.927054083556868136e-05,-0.000000000000000000e+00,7.839633035473525524e-04,1.646852493286132812e-02
4.877487421035766602e-01,1.347962301224470139e-02,5.929038301110267639e-02,2.341877818107604980e-01,4.411357454955577850e-03,7.197797894477844238e-01,8.906334187486208975e-06,6.813193857669830322e-02,1.193394046276807785e-02,-0.000000000000000000e+00,1.577023649588227272e-03,7.069227285683155060e-03,2.282517962157726288e-03,5.609916988760232925e-04,5.507629248313605785e-05,2.806856064125895500e-03
5.427035689353942871e-01,1.507767438888549805e-01,1.525059714913368225e-02,2.107730656862258911e-01,9.165398776531219482e-03,4.093976020812988281e-01,2.895933903346303850e-06,7.769027352333068848e-02,1.491057034581899643e-02,-0.000000000000000000e+00,3.339152317494153976e-03,1.660657674074172974e-02,4.295286722481250763e-03,1.069666370749473572e-01,3.127167001366615295e-04,9.187462856061756611e-04
7.796084135770797729e-02,9.308599680662155151e-02,1.663081906735897064e-02,8.669218420982360840e-02,1.277212146669626236e-02,3.598052263259887695e-01,9.726016287459060550e-06,1.340902745723724365e-01,1.194203365594148636e-02,1.779565936885774136e-04,3.968045115470886230e-03,1.263149641454219818e-02,5.681393668055534363e-03,5.316594839096069336e-01,5.220144521445035934e-04,8.961361018009483814e-04
3.170040249824523926e-01,3.202171996235847473e-02,3.035111352801322937e-02,7.233368754386901855e-01,6.319383159279823303e-03,6.712134480476379395e-01,1.534640789031982422e-03,5.681451037526130676e-02,9.148844517767429352e-03,2.601193031296133995e-03,1.521832123398780823e-02,1.035713125020265579e-02,7.171495817601680756e-03,3.384843170642852783e-01,5.697510205209255219e-04,1.248289365321397781e-03
1.168212736956775188e-03,2.145020663738250732e-02,3.811975568532943726e-02,1.260874792933464050e-02,3.389930585399270058e-03,3.187550306320190430e-01,2.021145075559616089e-03,3.731089457869529724e-02,8.940347470343112946e-03,-0.000000000000000000e+00,2.222715131938457489e-02,2.570874989032745361e-01,3.083754889667034149e-02,3.179164528846740723e-01,1.292233075946569443e-02,2.719999523833394051e-03
2.130469679832458496e-02,6.930933147668838501e-02,3.543413802981376648e-02,4.976312220096588135e-01,1.693133451044559479e-02,9.571652114391326904e-02,2.674912568181753159e-03,2.270134091377258301e-01,3.620046423748135567e-03,-0.000000000000000000e+00,2.387195080518722534e-02,1.645840108394622803e-01,3.341126441955566406e-02,2.833266854286193848e-01,4.197102412581443787e-02,2.785968361422419548e-03
1.255607884377241135e-02,1.818526349961757660e-02,8.568969368934631348e-02,3.526792526245117188e-01,2.469765581190586090e-02,1.760772019624710083e-01,6.946498993784189224e-03,2.282404340803623199e-02,6.586380768567323685e-03,1.018201652914285660e-02,1.579960063099861145e-02,3.556418418884277344e-02,2.129108086228370667e-02,3.607742488384246826e-02,2.678896784782409668e-01,1.270162756554782391e-03
2.741232700645923615e-02,2.743389904499053955e-01,3.223947435617446899e-02,4.154070615768432617e-01,1.661161333322525024e-02,6.047292947769165039e-01,6.983741652220487595e-03,1.479064207524061203e-02,8.722183294594287872e-03,9.607577696442604065e-03,1.993153616786003113e-02,2.635194547474384308e-02,1.412083767354488373e-02,1.471633166074752808e-01,4.989594221115112305e-02,1.131923682987689972e-02
8.361599757336080074e-04,8.536496199667453766e-03,4.854368045926094055e-03,3.107012808322906494e-01,9.348985739052295685e-03,1.654410958290100098e-01,1.304243225604295731e-03,1.063596643507480621e-02,1.130500901490449905e-02,1.656176755204796791e-03,6.865249015390872955e-03,8.463479578495025635e-03,3.719405829906463623e-01,4.743516072630882263e-02,4.541442096233367920e-01,1.033764854073524475e-01
-0.000000000000000000e+00,1.857249289751052856e-01,3.588256193324923515e-03,5.221745967864990234e-01,7.444430608302354813e-03,3.404215276241302490e-01,4.310365300625562668e-03,9.154266119003295898e-02,6.157793104648590088e-03,8.131612557917833328e-04,3.340927185490727425e-03,7.426730357110500336e-03,5.252789855003356934e-01,5.019759759306907654e-02,5.410051718354225159e-02,5.206601694226264954e-02
-0.000000000000000000e+00,3.545366227626800537e-03,5.431765690445899963e-03,2.441342175006866455e-02,3.821522463113069534e-03,3.095166683197021484e-01,1.692976616322994232e-02,5.467421934008598328e-02,1.404875982552766800e-02,9.934722445905208588e-03,-0.000000000000000000e+00,5.491569172590970993e-04,1.027245149016380310e-01,4.583083838224411011e-02,7.103682309389114380e-02,6.227800250053405762e-02
-0.000000000000000000e+00,-0.000000000000000000e+00,3.477553138509392738e-03,3.432108163833618164e-01,9.395862929522991180e-03,2.618016302585601807e-01,1.521575544029474258e-02,2.399560250341892242e-02,2.922358177602291107e-02,1.372731849551200867e-02,1.501486450433731079e-02,-0.000000000000000000e+00,4.234184026718139648e-01,1.594958081841468811e-02,1.273499894887208939e-02,1.966397166252136230e-01
8.483168203383684158e-04,2.386551909148693085e-02,2.230344573035836220e-03,4.281354248523712158e-01,7.055679801851511002e-03,3.888501524925231934e-01,1.661735028028488159e-02,2.092237584292888641e-02,1.532940939068794250e-02,-0.000000000000000000e+00,1.925130374729633331e-02,-0.000000000000000000e+00,1.023600548505783081e-01,7.765832822769880295e-03,2.784375566989183426e-03,5.573247373104095459e-02
5.397587665356695652e-04,5.134347081184387207e-01,1.597271766513586044e-03,8.946504443883895874e-02,6.837692111730575562e-03,1.048108711838722229e-01,2.138946391642093658e-02,1.320622116327285767e-02,2.156297415494918823e-01,3.147799987345933914e-03,1.388485264033079147e-02,6.234167376533150673e-04,3.488718345761299133e-02,8.193512447178363800e-03,9.683836251497268677e-03,4.943903908133506775e-02
2.124455477314768359e-06,2.825837209820747375e-02,1.409410266205668449e-03,4.240512847900390625e-01,3.858514362946152687e-03,1.351678818464279175e-01,2.201508544385433197e-02,5.748434457927942276e-03,4.507194459438323975e-01,5.614440888166427612e-03,1.569813862442970276e-02,8.962574065662920475e-04,2.154615521430969238e-01,7.320992182940244675e-03,9.296887554228305817e-03,1.733503043651580811e-01
9.552064002491533756e-04,-0.000000000000000000e+00,1.534392940811812878e-03,2.142351679503917694e-02,1.010536798276007175e-03,4.123204350471496582e-01,1.128303259611129761e-02,3.993088379502296448e-03,3.136346638202667236e-01,2.886145561933517456e-02,6.184951961040496826e-02,1.483088126406073570e-04,3.509622514247894287e-01,-0.000000000000000000e+00,1.837737043388187885e-03,4.589457064867019653e-02
1.251640613190829754e-03,2.030826732516288757e-02,2.181457588449120522e-03,1.579966396093368530e-02,-0.000000000000000000e+00,1.114133838564157486e-02,8.930879831314086914e-02,-0.000000000000000000e+00,4.492045044898986816e-01,1.168095041066408157e-02,5.058713555335998535e-01,1.059926766902208328e-02,1.102014631032943726e-01,2.691909670829772949e-03,-0.000000000000000000e+00,4.613807499408721924e-01
4.686697502620518208e-04,-0.000000000000000000e+00,5.086471326649188995e-03,7.370772305876016617e-03,1.398248015902936459e-03,4.573845118284225464e-02,4.760214090347290039e-01,-0.000000000000000000e+00,1.147478446364402771e-02,6.163951009511947632e-03,2.567401528358459473e-01,2.385796047747135162e-02,6.827268600463867188e-01,3.555811010301113129e-03,-0.000000000000000000e+00,4.462561607360839844e-01
3.178474144078791142e-04,1.561241806484758854e-03,8.792371302843093872e-02,1.140899330493994057e-04,9.775683429324999452e-05,1.307902019470930099e-02,1.684626489877700806e-01,2.611268498003482819e-02,6.172109395265579224e-03,1.738422361086122692e-05,2.623514458537101746e-02,1.808125972747802734e-01,2.655655741691589355e-01,3.514177203178405762e-01,3.846802515909075737e-03,2.771016657352447510e-01
1.205084938555955887e-02,2.904356457293033600e-03,3.001871053129434586e-03,6.955932080745697021e-02,1.384569518268108368e-02,-0.000000000000000000e+00,6.808188557624816895e-02,9.697292931377887726e-03,-0.000000000000000000e+00,-0.000000000000000000e+00,-0.000000000000000000e+00,4.694072902202606201e-02,6.083327531814575195e-02,2.509561181068420410e-01,3.579670935869216919e-02,1.001024898141622543e-02
7.670771330595016479e-03,7.198135554790496826e-02,-0.000000000000000000e+00,5.900352261960506439e-04,1.696578785777091980e-02,7.679562270641326904e-02,2.559103444218635559e-02,1.589572493685409427e-04,5.793740972876548767e-02,-0.000000000000000000e+00,3.697663545608520508e-02,-0.000000000000000000e+00,2.247581491246819496e-03,6.771772634238004684e-03,1.739385188557207584e-04,-0.000000000000000000e+00
2.115614188369363546e-04,1.186832785606384277e-03,7.602658588439226151e-03,3.541762940585613251e-03,9.104107448365539312e-05,-0.000000000000000000e+00,6.076662801206111908e-03,-0.000000000000000000e+00,-0.000000000000000000e+00,-0.000000000000000000e+00,1.495926408097147942e-03,-0.000000000000000000e+00,7.456269580870866776e-03,4.459036281332373619e-04,-0.000000000000000000e+00,-0.000000000000000000e+00
2.706727012991905212e-03,-0.000000000000000000e+00,6.281640846282243729e-03,2.714987844228744507e-03,-0.000000000000000000e+00,5.680801346898078918e-03,5.533024668693542480e-03,-0.000000000000000000e+00,4.590911790728569031e-03,-0.000000000000000000e+00,4.788762424141168594e-03,5.731938872486352921e-03,-0.000000000000000000e+00,3.279164666309952736e-03,-0.000000000000000000e+00,-0.000000000000000000e+00
8.423066698014736176e-03,8.386290632188320160e-03,1.873860135674476624e-03,1.925949752330780029e-02,2.344175009056925774e-03,1.874934532679617405e-04,-0.000000000000000000e+00,1.058056019246578217e-03,8.084931410849094391e-03,3.164434805512428284e-02,-0.000000000000000000e+00,1.430083159357309341e-02,-0.000000000000000000e+00,4.413467831909656525e-03,1.678653352428227663e-04,9.787589806364849210e-05
5.783630162477493286e-02,-0.000000000000000000e+00,5.430490151047706604e-02,2.090277969837188721e-01,8.062518388032913208e-02,3.601085022091865540e-02,4.814070090651512146e-02,1.137811457738280296e-03,-0.000000000000000000e+00,1.095817089080810547e-01,1.355017502646660432e-07,1.124545708298683167e-01,7.715583592653274536e-02,9.374910593032836914e-02,7.069299463182687759e-04,-0.000000000000000000e+00
8.031303063035011292e-03,3.588213119655847549e-03,1.142249628901481628e-01,2.852031588554382324e-01,5.391165148466825485e-03,3.303113281726837158e-01,1.100652962923049927e-01,1.511221192777156830e-02,2.660771310329437256e-01,7.063805591315031052e-03,2.049210947006940842e-03,7.234015315771102905e-02,-0.000000000000000000e+00,1.666023582220077515e-01,4.988151486031711102e-04,-0.000000000000000000e+00
1.036778278648853302e-02,1.473469077609479427e-03,7.473373413085937500e-01,1.377203017473220825e-01,2.597978436824632809e-06,2.064238041639328003e-01,1.924853422679007053e-03,1.007846277207136154e-02,7.679874543100595474e-03,1.992768980562686920e-02,3.577049938030540943e-04,3.923718631267547607e-01,-0.000000000000000000e+00,6.122215418145060539e-04,7.835986616555601358e-05,8.906394243240356445e-03
2.291859500110149384e-02,1.674845581874251366e-03,4.131695926189422607e-01,6.836938858032226562e-02,1.661328831687569618e-03,3.851141035556793213e-01,9.042789461091160774e-04,2.150644920766353607e-02,8.942836895585060120e-03,6.413890048861503601e-03,2.881310181692242622e-03,8.168344385921955109e-03,6.939306040294468403e-04,2.520816028118133545e-01,1.982456014957278967e-04,1.870422391220927238e-03
4.107243940234184265e-02,5.960878916084766388e-03,5.780641436576843262e-01,1.092841029167175293e-01,-0.000000000000000000e+00,6.275872588157653809e-01,1.302488963119685650e-03,1.713437587022781372e-02,2.012162934988737106e-03,1.245634350925683975e-02,2.889706753194332123e-03,9.206543117761611938e-02,5.937824025750160217e-03,1.682856380939483643e-01,2.731433487497270107e-04,1.757791498675942421e-03
1.515049580484628677e-02,9.681875817477703094e-03,2.246893383562564850e-02,1.440932787954807281e-02,1.151491655036807060e-03,1.872382611036300659e-01,-0.000000000000000000e+00,2.650764882564544678e-01,6.164790596812963486e-03,2.472093142569065094e-02,2.238331828266382217e-03,2.415902316570281982e-01,4.590338561683893204e-03,1.330397278070449829e-01,2.533498336561024189e-04,5.373351275920867920e-03
2.934970892965793610e-03,2.465821802616119385e-02,4.288781061768531799e-02,2.493999898433685303e-02,2.782128751277923584e-03,9.340853430330753326e-03,-0.000000000000000000e+00,9.557043015956878662e-02,9.459494613111019135e-03,2.776465378701686859e-02,3.509830916300415993e-03,9.993366897106170654e-02,1.146958395838737488e-02,2.417445629835128784e-01,-0.000000000000000000e+00,7.434637285768985748e-03
3.754805075004696846e-03,1.860952377319335938e-02,4.113027453422546387e-02,1.617565937340259552e-02,4.756686277687549591e-03,1.093223877251148224e-02,-0.000000000000000000e+00,1.191333159804344177e-01,6.826687604188919067e-03,1.908121071755886078e-02,2.512203902006149292e-02,1.735891103744506836e-01,1.137857325375080109e-02,3.213064968585968018e-01,-0.000000000000000000e+00,3.584233578294515610e-03
1.962887495756149292e-02,2.843647822737693787e-02,3.573482483625411987e-02,4.900116007775068283e-03,5.201348103582859039e-03,2.006068360060453415e-03,-0.000000000000000000e+00,2.393684238195419312e-01,6.851682439446449280e-03,2.867221366614103317e-03,2.933604642748832703e-02,1.947032511234283447e-01,1.378369703888893127e-02,6.513951420783996582e-01,4.699961747974157333e-03,8.719160407781600952e-02
3.826038166880607605e-02,1.167005300521850586e-01,1.540601067245006561e-02,3.070634789764881134e-03,1.273443084210157394e-02,3.576067090034484863e-02,-0.000000000000000000e+00,5.388094484806060791e-02,1.588392630219459534e-02,6.565073970705270767e-03,4.617483541369438171e-02,1.325553953647613525e-01,1.123366318643093109e-02,6.934112906455993652e-01,3.436321020126342773e-02,3.474840894341468811e-03
2.897242009639739990e-01,1.745597645640373230e-02,1.442442275583744049e-02,3.049684921279549599e-03,-0.000000000000000000e+00,3.046872466802597046e-02,-0.000000000000000000e+00,9.586165100336074829e-02,8.401018567383289337e-03,7.998894900083541870e-03,4.062612354755401611e-02,4.063775390386581421e-02,1.612714491784572601e-02,4.592699110507965088e-01,5.942186713218688965e-02,1.268145628273487091e-02
3.386219143867492676e-01,1.786674931645393372e-02,1.331282220780849457e-02,4.607883468270301819e-02,1.380037865601480007e-03,4.180197417736053467e-02,5.620368290692567825e-03,3.151333332061767578e-02,2.589795179665088654e-02,8.821261581033468246e-04,2.875904738903045654e-02,1.336090825498104095e-02,2.677730470895767212e-02,5.677594989538192749e-02,6.926426291465759277e-01,1.160799991339445114e-02
4.621534049510955811e-01,1.711525395512580872e-02,8.582249283790588379e-03,3.534331917762756348e-02,7.818255573511123657e-03,5.914197489619255066e-02,4.738994408398866653e-03,1.075746305286884308e-02,1.246645953506231308e-02,-0.000000000000000000e+00,4.334207996726036072e-02,1.631510257720947266e-02,3.089288622140884399e-02,1.454174611717462540e-02,2.297604084014892578e-01,1.134086214005947113e-02
2.454172633588314056e-02,1.727656647562980652e-02,7.444384507834911346e-03,1.346187479794025421e-02,1.092632394284009933e-02,3.007326424121856689e-01,6.156193558126688004e-03,1.928552240133285522e-02,4.854047670960426331e-03,-0.000000000000000000e+00,2.532551996409893036e-02,2.083994820713996887e-02,5.026004463434219360e-02,5.444855690002441406e-01,2.633776701986789703e-02,6.170313432812690735e-02
2.321210131049156189e-02,1.516514830291271210e-02,1.693968079052865505e-03,3.095711581408977509e-03,1.613485068082809448e-02,7.532734423875808716e-02,2.923309989273548126e-02,8.220906369388103485e-03,2.597754122689366341e-03,3.865300212055444717e-03,1.064808070659637451e-01,1.195153873413801193e-02,1.488010492175817490e-02,5.552355647087097168e-01,3.769903630018234253e-02,1.157509908080101013e-01
2.797118015587329865e-02,4.883673042058944702e-03,1.606120262295007706e-03,3.034160938113927841e-03,2.078249305486679077e-02,1.715056598186492920e-01,2.579107880592346191e-02,6.142669357359409332e-03,1.764911599457263947e-02,6.366000045090913773e-03,2.553769014775753021e-02,1.162682846188545227e-02,2.354400604963302612e-02,2.287498489022254944e-02,4.360459744930267334e-02,8.061662316322326660e-02
3.319299721624702215e-04,6.308129988610744476e-03,8.005209965631365776e-04,8.756538480520248413e-02,7.531722541898488998e-03,1.605206169188022614e-02,1.908285170793533325e-02,2.845125854946672916e-04,1.154965534806251526e-02,-0.000000000000000000e+00,2.320759370923042297e-02,2.070800983346998692e-04,1.267322897911071777e-02,1.050747185945510864e-02,4.065871983766555786e-02,2.861847728490829468e-02
1.788678113371133804e-03,4.445779137313365936e-03,-0.000000000000000000e+00,9.976340085268020630e-02,5.607911385595798492e-03,1.126089226454496384e-02,2.134844660758972168e-02,3.450090298429131508e-04,4.580691922456026077e-03,1.967554446309804916e-03,1.488473638892173767e-02,4.813585546799004078e-04,2.184448018670082092e-02,1.951271109282970428e-02,2.550430968403816223e-02,2.018886059522628784e-01
3.986699972301721573e-03,5.402057897299528122e-03,-0.000000000000000000e+00,5.628951638936996460e-02,5.147148855030536652e-03,1.533541828393936157e-02,9.583958424627780914e-03,3.101193811744451523e-03,7.594716153107583523e-04,3.155055642127990723e-02,1.399946864694356918e-02,1.049655256792902946e-03,1.851238124072551727e-02,1.448891870677471161e-02,3.670382313430309296e-03,1.370482742786407471e-01
3.382357535883784294e-03,-0.000000000000000000e+00,-0.000000000000000000e+00,1.392627879977226257e-02,4.423231352120637894e-03,9.300081059336662292e-03,4.873897414654493332e-03,5.010636989027261734e-03,2.482517389580607414e-03,4.945723712444305420e-01,1.200586184859275818e-02,1.710322219878435135e-03,-0.000000000000000000e+00,6.097634322941303253e-03,-0.000000000000000000e+00,5.002625584602355957e-01
1.111603341996669769e-03,-0.000000000000000000e+00,8.019950240850448608e-03,7.173115853220224380e-03,-0.000000000000000000e+00,1.566058397293090820e-02,2.418033313006162643e-03,-0.000000000000000000e+00,2.027471922338008881e-02,3.923334181308746338e-01,5.943987146019935608e-02,4.186093807220458984e-03,1.053109392523765564e-02,1.189723517745733261e-02,-0.000000000000000000e+00,2.977479398250579834e-01
1.219015568494796753e-03,-0.000000000000000000e+00,1.076662819832563400e-02,6.744776852428913116e-03,-0.000000000000000000e+00,1.186747290194034576e-02,1.864803582429885864e-02,-0.000000000000000000e+00,4.753639455884695053e-03,1.105559244751930237e-02,1.408238559961318970e-01,5.600004922598600388e-03,5.927771925926208496e-01,1.092561800032854080e-02,-0.000000000000000000e+00,1.614013127982616425e-02
1.335960230790078640e-03,2.436089125694707036e-04,2.927910089492797852e-01,1.856807852163910866e-03,4.378291778266429901e-04,1.172807067632675171e-01,4.725487232208251953e-01,6.200821138918399811e-03,6.663072388619184494e-03,1.200660364702343941e-03,2.079664263874292374e-03,1.751990243792533875e-02,2.073283046483993530e-01,3.586499392986297607e-01,-0.000000000000000000e+00,2.540118992328643799e-01
3.214520215988159180e-02,-0.000000000000000000e+00,-0.000000000000000000e+00,2.961602760478854179e-03,7.152866455726325512e-04,2.499998062849044800e-01,1.336673796176910400e-01,-0.000000000000000000e+00,2.401015348732471466e-02,2.264249138534069061e-03,1.110345590859651566e-02,3.315668320283293724e-03,6.397599726915359497e-02,2.233581244945526123e-02,-0.000000000000000000e+00,9.984999895095825195e-03
5.128175020217895508e-03,7.967731356620788574e-02,7.549686415586620569e-05,1.013537403196096420e-04,1.626427867449820042e-03,9.503539651632308960e-02,4.368631541728973389e-02,2.626369314384646714e-05,6.797154992818832397e-02,-0.000000000000000000e+00,7.468990981578826904e-02,-0.000000000000000000e+00,1.380725181661546230e-03,2.762027725111693144e-04,1.482022635173052549e-04,-0.000000000000000000e+00
6.266671698540449142e-04,1.995575614273548126e-03,-0.000000000000000000e+00,5.441495683044195175e-03,6.089044269174337387e-03,6.093014962971210480e-03,-0.000000000000000000e+00,1.532006543129682541e-03,4.483422730118036270e-03,9.851712966337800026e-04,-0.000000000000000000e+00,3.360562492161989212e-03,-0.000000000000000000e+00,4.054604098200798035e-03,-0.000000000000000000e+00,-0.000000000000000000e+00
3.926467616111040115e-03,6.760522723197937012e-03,7.007390959188342094e-04,4.898526240140199661e-04,-0.000000000000000000e+00,1.030340208671987057e-03,-0.000000000000000000e+00,1.980330562219023705e-03,1.276069087907671928e-04,2.141146833309903741e-04,1.023580722403494292e-07,9.235527832061052322e-04,6.252593593671917915e-04,1.105944975279271603e-03,6.166821345686912537e-03,-0.000000000000000000e+00
5.751073360443115234e-03,2.865221118554472923e-03,2.414542948827147484e-03,-0.000000000000000000e+00,1.992125064134597778e-02,6.360753625631332397e-02,-0.000000000000000000e+00,2.606759220361709595e-02,1.325476332567632198e-03,-0.000000000000000000e+00,1.226505916565656662e-02,8.312746137380599976e-02,8.075899630784988403e-02,7.659085531486198306e-05,-0.000000000000000000e+00,3.639021515846252441e-02
2.598658902570605278e-03,-0.000000000000000000e+00,1.940103769302368164e-01,1.238972097635269165e-01,1.035545393824577332e-01,1.210794150829315186e-01,-0.000000000000000000e+00,5.344609543681144714e-02,2.065916080027818680e-03,2.028005868196487427e-01,8.797445916570723057e-04,3.777904212474822998e-01,8.658301085233688354e-02,5.661007948219776154e-03,2.336800826014950871e-04,-0.000000000000000000e+00
4.866270348429679871e-03,6.093751173466444016e-03,2.850430607795715332e-01,1.633254140615463257e-01,5.967477709054946899e-02,5.796864032745361328e-01,3.314605055493302643e-05,3.647852540016174316e-01,1.850658804178237915e-01,-0.000000000000000000e+00,2.037997590377926826e-03,2.963452041149139404e-01,4.648543894290924072e-02,7.342979311943054199e-03,4.859357606619596481e-03,-0.000000000000000000e+00
1.503803301602602005e-02,6.199270021170377731e-03,4.465418159961700439e-01,1.691036298871040344e-02,8.928079158067703247e-03,4.310988634824752808e-02,-0.000000000000000000e+00,1.454507112503051758e-01,6.905926764011383057e-02,6.798492278903722763e-03,4.504492506384849548e-03,4.834363982081413269e-02,1.234499216079711914e-01,9.003802202641963959e-03,-0.000000000000000000e+00,-0.000000000000000000e+00
3.003432042896747589e-02,3.359891707077622414e-03,5.274640768766403198e-02,3.112119436264038086e-01,6.653392221778631210e-03,1.096559613943099976e-01,-0.000000000000000000e+00,2.344585955142974854e-01,6.569543387740850449e-03,7.222101557999849319e-03,2.602314343675971031e-03,2.884507179260253906e-02,2.301945537328720093e-01,1.018564123660326004e-02,4.929921487928368151e-05,4.028886905871331692e-05
2.489461377263069153e-02,9.790251031517982483e-03,1.070798188447952271e-01,1.104144379496574402e-01,2.396356547251343727e-03,1.455711014568805695e-02,-0.000000000000000000e+00,4.772653058171272278e-02,2.659461693838238716e-03,3.950946964323520660e-03,2.570668701082468033e-03,3.653499484062194824e-02,1.518225371837615967e-01,5.032053217291831970e-03,2.494271611794829369e-04,5.171181168407201767e-03
7.965221069753170013e-03,2.213336154818534851e-02,2.921547740697860718e-02,2.090565674006938934e-02,1.766368048265576363e-03,1.304318569600582123e-02,-0.000000000000000000e+00,5.699351802468299866e-02,2.120470628142356873e-03,1.481835637241601944e-02,1.192802563309669495e-02,3.010370582342147827e-02,1.125785056501626968e-02,5.182161182165145874e-02,-0.000000000000000000e+00,4.887683317065238953e-03
6.218920461833477020e-03,1.481129135936498642e-02,4.009248316287994385e-02,8.264377713203430176e-03,3.317387774586677551e-03,1.029097568243741989e-02,-0.000000000000000000e+00,3.719789534807205200e-02,2.390046603977680206e-03,1.286264508962631226e-02,2.687945403158664703e-02,1.573559790849685669e-01,2.080860882997512817e-01,1.533248424530029297e-01,1.947434968315064907e-03,1.684676669538021088e-02
3.219840675592422485e-02,2.041430771350860596e-02,2.071104384958744049e-02,1.930868718773126602e-03,4.688202403485774994e-03,8.470380678772926331e-03,-0.000000000000000000e+00,5.115319043397903442e-02,3.827816806733608246e-03,2.391877584159374237e-03,2.771407365798950195e-02,2.719671130180358887e-01,5.776665639132261276e-03,6.385008245706558228e-02,1.436374243348836899e-02,2.530772611498832703e-02
2.631243690848350525e-02,3.866550326347351074e-02,1.923621073365211487e-02,4.361343570053577423e-03,1.657092012465000153e-02,1.243208628147840500e-02,-0.000000000000000000e+00,2.633165009319782257e-02,5.997467786073684692e-03,4.396458622068166733e-03,1.497288886457681656e-02,1.685708612203598022e-01,7.483302149921655655e-03,3.813172876834869385e-02,2.941810339689254761e-02,3.348010033369064331e-02
1.373183280229568481e-01,3.288324549794197083e-02,1.648108102381229401e-02,4.341485910117626190e-03,9.757273830473423004e-03,8.790927007794380188e-03,-0.000000000000000000e+00,1.281938329339027405e-02,1.268626470118761063e-02,7.947765290737152100e-03,6.695806514471769333e-03,7.463203370571136475e-02,7.914446294307708740e-03,2.891709096729755402e-02,1.611481420695781708e-02,4.485086351633071899e-02
2.445859462022781372e-01,1.992475427687168121e-02,5.958390422165393829e-03,2.889431081712245941e-03,5.317316390573978424e-03,9.187468327581882477e-03,-0.000000000000000000e+00,3.184412419795989990e-02,1.742810197174549103e-02,9.525938890874385834e-03,4.357729107141494751e-03,2.811692953109741211e-01,4.503637086600065231e-03,5.528106689453125000e-01,1.124904677271842957e-01,2.486431971192359924e-02
8.401267528533935547e-01,1.760169118642807007e-02,8.036432787775993347e-03,-0.000000000000000000e+00,6.081177387386560440e-03,6.133435294032096863e-03,7.799752056598663330e-04,1.749897748231887817e-01,9.662216529250144958e-03,4.394220188260078430e-03,1.380612049251794815e-02,3.383584693074226379e-02,3.693109378218650818e-03,5.717278271913528442e-02,2.418075799942016602e-01,5.730748176574707031e-02
7.285808920860290527e-01,1.415702980011701584e-02,5.758277606219053268e-03,1.570442691445350647e-04,1.075915060937404633e-02,-0.000000000000000000e+00,3.562235971912741661e-03,4.142657667398452759e-02,2.806711709126830101e-03,-0.000000000000000000e+00,7.893169298768043518e-03,3.403020277619361877e-02,6.714706309139728546e-03,3.233346641063690186e-01,2.944214344024658203e-01,4.854078963398933411e-02
3.790553808212280273e-01,1.703884266316890717e-02,4.618214908987283707e-03,-0.000000000000000000e+00,1.783612556755542755e-02,-0.000000000000000000e+00,3.286920953541994095e-03,2.745018526911735535e-02,5.140756722539663315e-03,-0.000000000000000000e+00,1.990350335836410522e-02,1.720352917909622192e-01,1.272945571690797806e-02,1.469474378973245621e-02,4.669167697429656982e-01,5.231103301048278809e-02
1.025597229599952698e-01,9.571412578225135803e-03,2.765185898169875145e-03,-0.000000000000000000e+00,1.861630938947200775e-02,3.540373640134930611e-03,2.252232655882835388e-02,1.182849239557981491e-02,4.299498163163661957e-03,-0.000000000000000000e+00,3.450485691428184509e-02,3.251787647604942322e-02,1.210439857095479965e-02,4.522408917546272278e-02,1.654655039310455322e-01,1.827207654714584351e-01
1.361282262951135635e-02,7.018923293799161911e-03,3.336870577186346054e-03,-0.000000000000000000e+00,9.380787611007690430e-03,2.363208308815956116e-02,2.630369551479816437e-02,4.286828916519880295e-04,3.427420742809772491e-03,-0.000000000000000000e+00,2.286150865256786346e-02,2.314432896673679352e-02,2.433139365166425705e-03,3.527693822979927063e-02,5.148498415946960449e-01,1.053127646446228027e-01
6.581060122698545456e-03,5.220993421971797943e-03,6.439603748731315136e-04,-0.000000000000000000e+00,7.407292723655700684e-03,2.445156872272491455e-02,4.543739836663007736e-03,1.537528936751186848e-03,2.579273132141679525e-04,2.009931951761245728e-03,6.976448465138673782e-03,8.770713582634925842e-03,2.669594623148441315e-02,1.521999388933181763e-01,6.079333275556564331e-02,1.840313524007797241e-01
8.054737001657485962e-03,4.642890300601720810e-03,-0.000000000000000000e+00,3.991598263382911682e-03,6.695841904729604721e-03,1.133662182837724686e-02,7.990173064172267914e-03,4.916827892884612083e-04,2.802338683977723122e-03,6.567888427525758743e-03,1.685428246855735779e-02,2.375395270064473152e-03,2.056660316884517670e-02,1.576247662305831909e-01,1.041016262024641037e-02,2.433094531297683716e-01
4.235200118273496628e-03,4.029632080346345901e-03,1.061475719325244427e-03,1.126751117408275604e-02,5.643475800752639771e-03,8.182341232895851135e-03,5.733674392104148865e-03,6.796455476433038712e-03,4.791405051946640015e-03,2.872623316943645477e-02,1.941507682204246521e-02,1.635902561247348785e-03,1.307530850172042847e-01,2.544973976910114288e-02,1.153597049415111542e-02,1.107909083366394043e-01
3.486375790089368820e-03,1.544800354167819023e-03,1.938411779701709747e-02,1.547316461801528931e-02,4.368373658508062363e-03,4.674734082072973251e-03,4.268347285687923431e-03,4.094040021300315857e-03,3.488375991582870483e-02,1.769422367215156555e-02,6.412977352738380432e-03,2.443232573568820953e-03,4.035954773426055908e-01,2.373533509671688080e-02,2.244809875264763832e-04,9.851384907960891724e-02
5.765347741544246674e-04,3.978679887950420380e-05,4.939114302396774292e-02,3.468925952911376953e-01,-0.000000000000000000e+00,5.401353351771831512e-03,6.325086578726768494e-04,-0.000000000000000000e+00,6.851105093955993652e-01,5.627157166600227356e-03,3.778310259804129601e-03,7.775919046252965927e-03,6.112387180328369141e-01,2.298291213810443878e-02,-0.000000000000000000e+00,6.900938749313354492e-01
4.906265996396541595e-03,2.739586343523114920e-04,4.915873520076274872e-03,2.317303121089935303e-01,-0.000000000000000000e+00,5.444383248686790466e-03,9.317979216575622559e-03,5.728252290282398462e-06,1.774223893880844116e-01,1.270943600684404373e-02,3.891071071848273277e-03,4.498221911489963531e-03,7.810401916503906250e-01,1.697766780853271484e-02,-0.000000000000000000e+00,7.573361992835998535e-01
7.282958365976810455e-03,-0.000000000000000000e+00,2.468515885993838310e-03,1.829962618649005890e-02,-0.000000000000000000e+00,4.323482513427734375e-03,5.257077217102050781e-01,-0.000000000000000000e+00,5.191120877861976624e-02,1.622756710276007652e-03,5.696043808711692691e-05,8.585032075643539429e-03,2.556010484695434570e-01,2.345768660306930542e-01,-0.000000000000000000e+00,4.874618351459503174e-01
1.659513101913034916e-03,-0.000000000000000000e+00,3.275667130947113037e-02,5.007565952837467194e-03,3.358445130288600922e-03,7.209409028291702271e-03,8.422034233808517456e-02,-0.000000000000000000e+00,5.815192591398954391e-03,7.596185896545648575e-03,2.152209402993321419e-03,1.363596618175506592e-01,9.731812775135040283e-02,5.292839556932449341e-02,-0.000000000000000000e+00,1.551260650157928467e-01
1.278176903724670410e-02,2.511012135073542595e-03,3.873102366924285889e-03,1.770978444255888462e-03,1.207598019391298294e-02,1.203650087118148804e-01,6.989289075136184692e-02,1.054682070389389992e-03,7.485551387071609497e-02,3.604026278480887413e-04,9.060799493454396725e-04,1.658649882301688194e-03,1.366091798990964890e-02,5.727324169129133224e-04,2.995055634528398514e-03,4.177912196610122919e-04
-0.000000000000000000e+00,3.940485883504152298e-03,1.503982464782893658e-03,4.925220273435115814e-03,8.910890755942091346e-06,6.494875997304916382e-03,6.706892047077417374e-03,1.496642107667867094e-05,5.142716225236654282e-03,3.011807100847363472e-03,1.957431086339056492e-04,2.698778174817562103e-03,6.984842941164970398e-03,5.555544514209032059e-03,4.629048053175210953e-04,7.491580210626125336e-03
3.104254938079975545e-05,-0.000000000000000000e+00,1.494544278830289841e-02,4.852557089179754257e-03,-0.000000000000000000e+00,6.322550773620605469e-02,-0.000000000000000000e+00,6.285801529884338379e-02,-0.000000000000000000e+00,5.768197402358055115e-02,-0.000000000000000000e+00,1.131730228662490845e-01,7.706232718192040920e-04,3.417741134762763977e-02,-0.000000000000000000e+00,9.491314995102584362e-04
4.346113651990890503e-03,3.850701265037059784e-03,3.309615189209580421e-03,1.193420393974520266e-04,1.003693267703056335e-01,7.916571944952011108e-02,-0.000000000000000000e+00,6.972631067037582397e-02,2.818834618665277958e-04,2.843484282493591309e-03,6.132330745458602905e-04,9.238250553607940674e-02,6.531900167465209961e-02,6.571216545125935227e-06,-0.000000000000000000e+00,1.008854992687702179e-02
1.685409224592149258e-03,9.758956730365753174e-05,2.772255241870880127e-01,2.520022355020046234e-02,2.168131992220878601e-02,2.287909537553787231e-01,-0.000000000000000000e+00,3.897406905889511108e-02,4.812416806817054749e-02,2.476669251918792725e-01,5.053885979577898979e-04,6.369684338569641113e-01,1.193868592381477356e-01,4.849526099860668182e-03,1.585180405527353287e-03,1.360102123726392165e-05
1.412630360573530197e-02,4.339016973972320557e-03,4.490577578544616699e-01,3.585823476314544678e-01,2.481251060962677002e-01,2.909778058528900146e-01,-0.000000000000000000e+00,1.856987178325653076e-01,1.150998193770647049e-02,5.311229266226291656e-03,3.925461322069168091e-03,5.116415619850158691e-01,4.475776255130767822e-01,7.279122248291969299e-03,3.714457387104630470e-03,-0.000000000000000000e+00
1.721935719251632690e-02,2.620720071718096733e-03,1.783816963434219360e-01,1.925612390041351318e-01,1.090600620955228806e-02,2.987782359123229980e-01,-0.000000000000000000e+00,1.690839976072311401e-02,2.497238479554653168e-02,6.310501601547002792e-03,7.332229055464267731e-03,1.242818236351013184e-01,7.043439149856567383e-01,6.612803786993026733e-03,-0.000000000000000000e+00,-0.000000000000000000e+00
2.069456875324249268e-02,4.913833923637866974e-03,5.798818916082382202e-02,3.467937931418418884e-02,2.236787229776382446e-03,2.886948734521865845e-02,-0.000000000000000000e+00,3.225532472133636475e-01,4.328697454184293747e-03,1.141617912799119949e-02,2.699906937777996063e-03,4.344179108738899231e-02,7.668659836053848267e-02,7.235594559460878372e-03,3.732596233021467924e-04,7.491983706131577492e-04
1.049064192920923233e-02,3.696314059197902679e-03,3.501734882593154907e-02,4.636017233133316040e-02,2.617417369037866592e-03,1.000062003731727600e-02,-0.000000000000000000e+00,2.863149046897888184e-01,3.475068137049674988e-03,1.637275144457817078e-02,6.914983037859201431e-03,3.196093067526817322e-02,2.896426022052764893e-01,6.834866013377904892e-03,2.162025484722107649e-04,2.853230689652264118e-04
5.158580373972654343e-03,1.221223082393407822e-02,2.023444324731826782e-02,2.146396785974502563e-02,1.180071104317903519e-02,1.031597144901752472e-02,-0.000000000000000000e+00,2.109954804182052612e-01,1.319576287642121315e-03,9.383963420987129211e-03,5.698936060070991516e-03,1.767799630761146545e-02,3.658239841461181641e-01,1.724029518663883209e-02,1.019405433908104897e-03,6.749662104994058609e-03
5.832721013575792313e-03,1.385057903826236725e-02,2.418595366179943085e-02,1.095593906939029694e-03,2.091382630169391632e-03,1.189439557492733002e-02,-0.000000000000000000e+00,5.320700258016586304e-02,5.157781997695565224e-04,2.673786878585815430e-02,5.122562870383262634e-03,2.099079266190528870e-02,6.349045783281326294e-03,2.060464397072792053e-02,3.997308667749166489e-03,2.152186445891857147e-02
3.181500360369682312e-03,1.829037442803382874e-02,1.684045046567916870e-02,3.588322084397077560e-03,1.342665310949087143e-02,3.272183239459991455e-02,4.313531389925628901e-04,1.330831497907638550e-01,4.232759587466716766e-03,8.398411795496940613e-03,5.379871930927038193e-03,5.841461941599845886e-03,6.989161949604749680e-03,1.368685662746429443e-01,7.835622876882553101e-03,1.726481914520263672e-01
-0.000000000000000000e+00,1.412143092602491379e-02,1.376441493630409241e-02,2.720864489674568176e-03,1.482309587299823761e-02,1.225454639643430710e-02,5.194192635826766491e-04,4.684696719050407410e-02,7.044154684990644455e-03,2.852440346032381058e-03,4.111710004508495331e-03,2.151430957019329071e-02,7.326661143451929092e-03,2.265203185379505157e-02,5.416747648268938065e-03,4.642730206251144409e-02
2.260951092466711998e-03,7.656595669686794281e-03,9.242758154869079590e-03,-0.000000000000000000e+00,4.971764981746673584e-03,2.551329322159290314e-03,3.506532229948788881e-04,9.138274937868118286e-03,1.194855011999607086e-02,1.645843125879764557e-02,3.370058257132768631e-03,3.231886625289916992e-01,1.125651062466204166e-03,1.898439601063728333e-02,3.301829844713211060e-02,1.468878984451293945e-01
7.272722572088241577e-02,-0.000000000000000000e+00,3.577008144930005074e-03,-0.000000000000000000e+00,1.608723192475736141e-03,8.870856836438179016e-04,-0.000000000000000000e+00,1.168747767806053162e-01,1.229169592261314392e-02,2.265767753124237061e-02,4.886636510491371155e-03,3.762530907988548279e-02,7.790613453835248947e-04,9.398717433214187622e-03,2.247016876935958862e-01,1.844714209437370300e-02
7.981758713722229004e-01,-0.000000000000000000e+00,7.680292241275310516e-03,-0.000000000000000000e+00,1.851476612500846386e-03,2.304471284151077271e-02,-0.000000000000000000e+00,4.322652518749237061e-02,4.107810556888580322e-03,1.235663704574108124e-02,2.889739349484443665e-03,1.268813908100128174e-01,-0.000000000000000000e+00,3.203613311052322388e-02,3.612250089645385742e-02,1.268149316310882568e-01
1.006201624870300293e+00,2.080522943288087845e-03,7.549321278929710388e-03,-0.000000000000000000e+00,5.139803979545831680e-03,-0.000000000000000000e+00,-0.000000000000000000e+00,3.255205228924751282e-02,3.485778812319040298e-03,2.027495019137859344e-02,3.689880250021815300e-03,3.448965400457382202e-02,6.857239641249179840e-03,8.844427764415740967e-02,2.746649086475372314e-02,2.445145137608051300e-02
7.394453138113021851e-02,1.323156896978616714e-02,7.953995838761329651e-03,1.103583909571170807e-02,1.203775592148303986e-02,-0.000000000000000000e+00,1.088546472601592541e-03,7.363455370068550110e-03,7.489178795367479324e-03,7.358205504715442657e-03,5.336968228220939636e-03,1.353591829538345337e-01,1.921347901225090027e-02,1.648218929767608643e-02,6.277899146080017090e-01,5.707583203911781311e-02
1.549537479877471924e-02,5.636538378894329071e-03,6.975404918193817139e-03,1.072034146636724472e-02,1.312809810042381287e-02,4.756180569529533386e-03,4.124494269490242004e-03,4.721633624285459518e-03,5.472853779792785645e-03,9.462281130254268646e-03,8.884926885366439819e-02,2.337911576032638550e-01,1.539143174886703491e-02,1.063930615782737732e-01,4.175576195120811462e-02,1.781565323472023010e-02
1.683727838099002838e-02,4.656844772398471832e-03,4.745430313050746918e-03,-0.000000000000000000e+00,6.007242947816848755e-03,1.512959040701389313e-02,1.534247770905494690e-02,4.552725702524185181e-03,5.924178985878825188e-04,1.356763392686843872e-02,8.258046582341194153e-03,6.051535159349441528e-02,4.575348924845457077e-03,3.777162134647369385e-01,9.112038463354110718e-02,5.248115211725234985e-02
1.021895464509725571e-02,5.842182785272598267e-03,1.652412232942879200e-03,-0.000000000000000000e+00,6.542373914271593094e-03,1.642219536006450653e-02,4.907651804387569427e-03,3.649352351203560829e-03,2.740832569543272257e-04,1.158699952065944672e-02,1.205209293402731419e-03,7.584464736282825470e-03,1.901501230895519257e-02,3.773329406976699829e-02,3.792508691549301147e-02,2.031331136822700500e-02
1.100074965506792068e-02,5.402489099651575089e-03,3.192425938323140144e-03,3.460729727521538734e-03,7.570140995085239410e-03,-0.000000000000000000e+00,2.286362461745738983e-03,1.549700624309480190e-03,2.688839565962553024e-03,4.787609353661537170e-02,8.977252990007400513e-03,4.202062264084815979e-03,2.852212078869342804e-02,4.123517870903015137e-02,8.657797239720821381e-03,9.008346125483512878e-03
8.917558006942272186e-03,5.078575573861598969e-03,3.224554006010293961e-03,1.075304485857486725e-02,6.915873382240533829e-03,-0.000000000000000000e+00,1.020761672407388687e-03,-0.000000000000000000e+00,3.953221254050731659e-03,1.660646311938762665e-02,6.405795924365520477e-03,3.654361236840486526e-03,5.554268136620521545e-02,2.929062023758888245e-02,1.286219223402440548e-03,1.636791229248046875e-01
5.700724665075540543e-03,1.231736503541469574e-03,2.006031945347785950e-02,2.568327076733112335e-02,5.730733275413513184e-03,1.554589485749602318e-03,4.454812500625848770e-03,4.558564629405736923e-03,1.109710056334733963e-02,1.216540858149528503e-02,1.530475914478302002e-03,5.215574987232685089e-03,1.059827283024787903e-01,4.775247722864151001e-02,2.482285257428884506e-03,1.042619794607162476e-01
1.213393406942486763e-03,-0.000000000000000000e+00,3.831486403942108154e-02,2.425128594040870667e-02,8.014899794943630695e-04,3.722853725776076317e-03,6.007845513522624969e-03,2.469628234393894672e-04,3.979725837707519531e-01,1.189391314983367920e-02,2.250441815704107285e-03,6.837955676019191742e-03,2.775230631232261658e-02,4.749509692192077637e-02,3.071299288421869278e-03,1.197419524192810059e+00
2.123058307915925980e-03,-0.000000000000000000e+00,2.537304535508155823e-03,2.416964620351791382e-01,5.322148208506405354e-04,5.573986563831567764e-03,2.479311078786849976e-01,7.538867648690938950e-04,5.661388114094734192e-02,5.958233959972858429e-03,4.642905667424201965e-03,3.305420977994799614e-03,7.239550948143005371e-01,3.077917732298374176e-02,1.895163441076874733e-03,1.253026604652404785e+00
1.269329804927110672e-02,-0.000000000000000000e+00,2.050062321359291673e-04,4.426580071449279785e-01,-0.000000000000000000e+00,2.103122510015964508e-02,5.134606361389160156e-01,-0.000000000000000000e+00,2.465808065608143806e-04,4.629060626029968262e-03,2.718643285334110260e-03,1.097963750362396240e-01,4.526652693748474121e-01,3.894819319248199463e-01,-0.000000000000000000e+00,2.334050834178924561e-01
2.730486914515495300e-03,3.489392111077904701e-03,3.827664768323302269e-03,1.200349256396293640e-01,3.230808768421411514e-03,3.559046657755970955e-03,9.262178093194961548e-02,2.509229583665728569e-03,2.000982407480478287e-03,5.647877231240272522e-02,4.070111084729433060e-03,1.164279785007238388e-02,7.943417131900787354e-02,1.482903212308883667e-01,1.256284653209149837e-03,5.286033730953931808e-03
4.304577130824327469e-03,4.630407784134149551e-03,3.418783191591501236e-03,1.248046755790710449e-03,4.787462821695953608e-04,9.800884872674942017e-02,5.802020803093910217e-02,9.737377404235303402e-04,7.717511802911758423e-02,2.894183271564543247e-04,-0.000000000000000000e+00,2.277654857607558370e-05,3.178356960415840149e-02,1.455771154724061489e-03,3.169829025864601135e-03,3.075490531045943499e-05
-0.000000000000000000e+00,-0.000000000000000000e+00,4.668565054544160375e-07,-0.000000000000000000e+00,4.004183938377536833e-05,6.513314694166183472e-02,-0.000000000000000000e+00,1.025777874019695446e-05,1.925564184784889221e-02,4.020196199417114258e-02,3.559366986155509949e-02,3.262759784572466515e-10,-0.000000000000000000e+00,8.109418675303459167e-03,8.802153915166854858e-02,1.991984248161315918e-02
-0.000000000000000000e+00,-0.000000000000000000e+00,1.257065916433930397e-03,-0.000000000000000000e+00,4.542209208011627197e-02,3.919391334056854248e-02,-0.000000000000000000e+00,2.394092231988906860e-01,-0.000000000000000000e+00,7.211576402187347412e-02,-0.000000000000000000e+00,1.430916637182235718e-01,4.847659729421138763e-03,-0.000000000000000000e+00,3.200231492519378662e-02,4.389303922653198242e-02
7.809961971361190081e-06,7.743434049189090729e-03,8.476869203150272369e-03,4.617703147232532501e-03,1.400668621063232422e-01,-0.000000000000000000e+00,4.285837640054523945e-04,8.411762118339538574e-02,9.439008682966232300e-02,3.522654250264167786e-02,7.243634318001568317e-04,5.960989743471145630e-02,2.881637774407863617e-02,2.094973344355821609e-03,-0.000000000000000000e+00,7.186137605458498001e-03
8.153351955115795135e-03,5.303122103214263916e-03,1.364849209785461426e-01,3.325690701603889465e-02,4.020153937744908035e-06,2.157395519316196442e-02,-0.000000000000000000e+00,2.027136972174048424e-03,2.867521531879901886e-02,2.070916593074798584e-01,4.527488723397254944e-03,5.059154033660888672e-01,8.904892951250076294e-02,3.340819478034973145e-02,8.131341077387332916e-03,4.066304609295912087e-05
1.605876348912715912e-02,2.707936055958271027e-02,4.211429953575134277e-01,4.013916254043579102e-01,1.177606824785470963e-02,1.441354155540466309e-01,-0.000000000000000000e+00,1.956254690885543823e-01,4.463509190827608109e-03,5.676576867699623108e-03,1.222661137580871582e-02,1.073036670684814453e+00,4.865272343158721924e-01,1.395865343511104584e-02,3.254340728744864464e-03,-0.000000000000000000e+00
2.001123875379562378e-02,5.020102951675653458e-03,4.801274463534355164e-02,4.344379529356956482e-02,1.818013144657015800e-03,1.497840974479913712e-02,4.628506911075191965e-09,2.058836817741394043e-02,3.518275450915098190e-03,1.393707096576690674e-02,2.600427716970443726e-03,4.496893659234046936e-02,1.654157936573028564e-01,1.589331775903701782e-02,5.738679192290874198e-06,5.184646695852279663e-03
2.682240493595600128e-02,2.001567976549267769e-03,3.399485349655151367e-01,4.681178182363510132e-02,2.000455511733889580e-03,5.488922819495201111e-03,1.841963967308402061e-05,4.000611230731010437e-02,2.114818664267659187e-03,5.227797105908393860e-02,5.404314026236534119e-03,5.972598120570182800e-02,2.572800591588020325e-02,1.106396596878767014e-02,5.031068576499819756e-04,-0.000000000000000000e+00
4.353462252765893936e-03,4.512541927397251129e-03,4.295860603451728821e-02,3.562378883361816406e-02,1.482195407152175903e-02,7.776223123073577881e-03,4.351547613623552024e-05,6.289429962635040283e-02,1.804494182579219341e-03,4.431291669607162476e-02,9.584639221429824829e-03,3.309958800673484802e-02,1.829660311341285706e-02,8.329919539391994476e-03,1.409251708537340164e-03,7.968031568452715874e-04
5.053955130279064178e-03,1.899174973368644714e-02,3.704291582107543945e-02,5.027054809033870697e-03,1.734258234500885010e-02,8.867189288139343262e-03,1.356938737444579601e-04,6.993069499731063843e-02,-0.000000000000000000e+00,1.728172972798347473e-02,8.002222515642642975e-03,6.313906516879796982e-03,5.263076163828372955e-03,6.060461513698101044e-03,3.067125566303730011e-03,7.623093202710151672e-03
1.336022163741290569e-03,1.682215742766857147e-02,1.291318517178297043e-02,1.689543016254901886e-03,3.109472338110208511e-03,2.695004083216190338e-02,1.009925385005772114e-03,2.721602655947208405e-02,4.087999463081359863e-03,1.602938771247863770e-02,7.674261461943387985e-03,9.212727658450603485e-03,7.484468631446361542e-03,5.753193981945514679e-03,5.855721421539783478e-03,2.474556118249893188e-02
-0.000000000000000000e+00,5.641940049827098846e-03,1.250785309821367264e-02,-0.000000000000000000e+00,3.597247414290904999e-03,1.519436668604612350e-02,8.580411085858941078e-04,1.506703440099954605e-02,3.407688345760107040e-03,9.717930108308792114e-03,4.235952161252498627e-03,5.917164497077465057e-03,7.927007041871547699e-03,1.927518285810947418e-02,2.340505085885524750e-02,3.975465148687362671e-02
-0.000000000000000000e+00,1.153471879661083221e-03,1.346814632415771484e-02,-0.000000000000000000e+00,2.416931325569748878e-03,1.593258348293602467e-03,-0.000000000000000000e+00,1.256955415010452271e-01,1.138438284397125244e-02,2.174623310565948486e-03,8.814463391900062561e-03,5.473139230161905289e-03,3.397140419110655785e-03,2.821741066873073578e-02,1.982210017740726471e-02,2.009370625019073486e-01
9.893100708723068237e-03,-0.000000000000000000e+00,1.097163651138544083e-02,-0.000000000000000000e+00,2.007220871746540070e-03,3.832662012428045273e-03,1.702823210507631302e-03,2.947716042399406433e-02,6.691584829241037369e-03,5.643429234623908997e-02,1.092431694269180298e-02,1.362469885498285294e-02,3.867760242428630590e-04,9.674172848463058472e-03,2.076832950115203857e-02,2.801658213138580322e-02
1.543460972607135773e-02,-0.000000000000000000e+00,2.020000014454126358e-03,1.388880889862775803e-03,1.871537533588707447e-03,2.134912833571434021e-02,-0.000000000000000000e+00,2.299037761986255646e-02,8.367549628019332886e-03,1.272175908088684082e-01,7.596177601953968406e-05,2.282809466123580933e-02,9.238091297447681427e-04,6.759114097803831100e-03,1.559507194906473160e-02,6.511753890663385391e-03
6.594973206520080566e-01,2.641278551891446114e-03,7.459141314029693604e-03,3.145732451230287552e-03,2.817301778122782707e-03,1.894752681255340576e-02,2.398018259555101395e-04,4.040629044175148010e-02,3.361491544637829065e-04,1.143077015876770020e-01,2.287223003804683685e-03,2.979909628629684448e-02,6.859910208731889725e-03,9.066176600754261017e-03,2.843842208385467529e-01,6.536949891597032547e-03
3.487783670425415039e-01,7.981775328516960144e-03,9.433034807443618774e-03,1.368300989270210266e-02,6.683230865746736526e-03,6.486331112682819366e-03,1.253771362826228142e-03,4.244562238454818726e-02,2.249279525130987167e-03,9.740898758172988892e-02,4.780583549290895462e-03,9.002732485532760620e-02,1.549140457063913345e-02,1.236953027546405792e-02,3.018505275249481201e-01,4.930922761559486389e-03
1.258089952170848846e-02,1.290363352745771408e-02,8.658502250909805298e-03,6.322879344224929810e-03,8.877130225300788879e-03,1.007559942081570625e-03,8.765336824581027031e-04,2.051340043544769287e-02,4.081996623426675797e-03,3.548955917358398438e-02,3.608115483075380325e-03,6.104722619056701660e-02,2.557625249028205872e-02,1.584633812308311462e-02,5.226721167564392090e-01,-0.000000000000000000e+00
5.748491268604993820e-03,5.399374756962060928e-03,7.007784675806760788e-03,7.810655981302261353e-03,3.176931291818618774e-03,8.287067525088787079e-03,-0.000000000000000000e+00,9.546817280352115631e-03,3.026529680937528610e-03,2.095535099506378174e-01,4.033664241433143616e-03,5.147695913910865784e-02,2.221694029867649078e-02,1.349256094545125961e-02,1.799086853861808777e-02,4.171165637671947479e-04
8.242963813245296478e-03,1.276149763725697994e-03,2.522602677345275879e-03,-0.000000000000000000e+00,2.648884197697043419e-03,8.376363664865493774e-03,2.607850590720772743e-03,1.086443755775690079e-02,6.889610085636377335e-05,1.923483610153198242e-01,7.612282875925302505e-03,4.170184955000877380e-02,6.120495963841676712e-03,7.838074117898941040e-02,6.729042530059814453e-02,8.101014420390129089e-03
7.794715464115142822e-03,4.027019254863262177e-03,1.560769742354750633e-04,1.791980350390076637e-03,3.191418480128049850e-03,7.539617363363504410e-04,8.848151192069053650e-03,8.648703806102275848e-03,1.596045331098139286e-03,9.370995685458183289e-03,1.361947134137153625e-02,4.084799904376268387e-03,-0.000000000000000000e+00,5.772866681218147278e-02,3.775941580533981323e-02,1.819224283099174500e-02
1.124816481024026871e-02,6.049447692930698395e-03,2.098142867907881737e-03,5.182506516575813293e-03,5.416323430836200714e-03,-0.000000000000000000e+00,2.209382131695747375e-03,1.135284546762704849e-03,3.655209904536604881e-03,4.557735100388526917e-02,3.799626138061285019e-03,2.304266672581434250e-03,2.306954376399517059e-02,2.284448146820068359e-01,2.089932188391685486e-02,1.560846436768770218e-02
1.199928577989339828e-02,4.711146466434001923e-03,3.200145438313484192e-03,1.275265682488679886e-02,4.511944483965635300e-03,-0.000000000000000000e+00,-0.000000000000000000e+00,4.728797357529401779e-03,5.846452899277210236e-03,9.978814981877803802e-03,2.424712292850017548e-04,4.291438497602939606e-03,2.868333645164966583e-02,3.390142694115638733e-02,4.139790311455726624e-03,1.088503375649452209e-02
9.394959546625614166e-03,-0.000000000000000000e+00,1.885724812746047974e-02,4.107806459069252014e-02,8.168526925146579742e-03,8.891059551388025284e-04,3.231640905141830444e-03,4.159077070653438568e-03,-0.000000000000000000e+00,5.809884518384933472e-03,-0.000000000000000000e+00,3.546337597072124481e-03,4.401533305644989014e-02,6.152276322245597839e-02,3.823383245617151260e-03,5.737113766372203827e-03
3.377028740942478180e-03,-0.000000000000000000e+00,2.341441251337528229e-02,3.315573930740356445e-02,1.675623655319213867e-02,5.561256781220436096e-03,8.436698466539382935e-03,2.127524651587009430e-02,5.210880190134048462e-03,1.860535703599452972e-02,-0.000000000000000000e+00,8.827697020024061203e-04,3.402024507522583008e-02,3.324556946754455566e-01,1.043963618576526642e-02,1.566392302513122559e+00
