-0.000000000000000000e+00,1.580986892804503441e-03,2.197455032728612423e-04,-0.000000000000000000e+00,1.637684646993875504e-03,6.488327635452151299e-04,1.076806103810667992e-03,-0.000000000000000000e+00,2.693343267310410738e-04,-0.000000000000000000e+00,7.269294001162052155e-04,2.024430083110928535e-03,-0.000000000000000000e+00,-0.000000000000000000e+00,-0.000000000000000000e+00,-0.000000000000000000e+00,-0.000000000000000000e+00,4.307925410103052855e-04,-0.000000000000000000e+00,7.377603324130177498e-04,4.289102798793464899e-04,-0.000000000000000000e+00,-0.000000000000000000e+00,1.266313018277287483e-03,1.484048087149858475e-03,1.438990700989961624e-03,1.494038850069046021e-03,2.006633440032601357e-03,-0.000000000000000000e+00,1.687446376308798790e-03,1.506512984633445740e-03,-0.000000000000000000e+00,-0.000000000000000000e+00,-0.000000000000000000e+00,-0.000000000000000000e+00,-0.000000000000000000e+00,-0.000000000000000000e+00,-0.000000000000000000e+00,1.341249560937285423e-03,2.007057890295982361e-03,-0.000000000000000000e+00,-0.000000000000000000e+00,1.160094863735139370e-03,8.761960780248045921e-04,2.044252818450331688e-03,1.066393568180501461e-03,-0.000000000000000000e+00,-0.000000000000000000e+00,-0.000000000000000000e+00,1.227383268997073174e-03,3.546886728145182133e-04,-0.000000000000000000e+00,3.819035191554576159e-05,2.013605320826172829e-03,-0.000000000000000000e+00,1.217110548168420792e-03,-0.000000000000000000e+00,3.187560942023992538e-04,-0.000000000000000000e+00,1.857305876910686493e-03,-0.000000000000000000e+00,1.872218097560107708e-03,-0.000000000000000000e+00,1.897385343909263611e-03
-0.000000000000000000e+00,-0.000000000000000000e+00,9.476813138462603092e-04,7.408740930259227753e-04,-0.000000000000000000e+00,1.975033956114202738e-04,-0.000000000000000000e+00,-0.000000000000000000e+00,-0.000000000000000000e+00,1.409967895597219467e-03,-0.000000000000000000e+00,-0.000000000000000000e+00,-0.000000000000000000e+00,-0.000000000000000000e+00,2.702742349356412888e-04,-0.000000000000000000e+00,-0.000000000000000000e+00,1.432637654943391681e-04,2.133568981662392616e-03,-0.000000000000000000e+00,-0.000000000000000000e+00,-0.000000000000000000e+00,1.055060536600649357e-03,-0.000000000000000000e+00,-0.000000000000000000e+00,-0.000000000000000000e+00,-0.000000000000000000e+00,-0.000000000000000000e+00,5.744838927057571709e-05,1.370813231915235519e-03,1.747313654050230980e-03,1.103110145777463913e-03,-0.000000000000000000e+00,-0.000000000000000000e+00,1.127816853113472462e-03,-0.000000000000000000e+00,-0.000000000000000000e+00,1.278671552427113056e-03,1.423747860826551914e-03,1.270572771318256855e-03,-0.000000000000000000e+00,-0.000000000000000000e+00,-0.000000000000000000e+00,2.211191691458225250e-03,-0.000000000000000000e+00,-0.000000000000000000e+00,-0.000000000000000000e+00,1.466278568841516972e-03,-0.000000000000000000e+00,8.946408051997423172e-04,5.898372619412839413e-04,1.617499045096337795e-03,-0.000000000000000000e+00,2.383833816566038877e-05,1.102632842957973480e-03,7.477198960259556770e-04,4.359640297479927540e-04,8.280140464194118977e-04,-0.000000000000000000e+00,-0.000000000000000000e+00,1.987723633646965027e-03,-0.000000000000000000e+00,1.555864582769572735e-04,1.208329224027693272e-03
-0.000000000000000000e+00,-0.000000000000000000e+00,7.615588838234543800e-04,2.059914870187640190e-03,7.700974238105118275e-04,-0.000000000000000000e+00,1.562745310366153717e-03,-0.000000000000000000e+00,-0.000000000000000000e+00,-0.000000000000000000e+00,1.548317814012989402e-04,-0.000000000000000000e+00,1.676933257840573788e-03,1.873161090770736337e-04,1.859528594650328159e-03,1.764768385328352451e-03,-0.000000000000000000e+00,-0.000000000000000000e+00,3.094376588705927134e-04,-0.000000000000000000e+00,1.876947702839970589e-03,3.738283412531018257e-04,8.807357517071068287e-04,-0.000000000000000000e+00,1.848243176937103271e-03,-0.000000000000000000e+00,-0.000000000000000000e+00,1.651629689149558544e-03,-0.000000000000000000e+00,-0.000000000000000000e+00,8.376073092222213745e-04,-0.000000000000000000e+00,3.570098488125950098e-04,-0.000000000000000000e+00,7.057109614834189415e-04,1.562285469844937325e-03,-0.000000000000000000e+00,-0.000000000000000000e+00,-0.000000000000000000e+00,7.788506336510181427e-04,-0.000000000000000000e+00,1.356491586193442345e-03,8.501998381689190865e-04,9.126197546720504761e-04,-0.000000000000000000e+00,-0.000000000000000000e+00,-0.000000000000000000e+00,4.397240118123590946e-04,-0.000000000000000000e+00,-0.000000000000000000e+00,1.745504327118396759e-03,-0.000000000000000000e+00,-0.000000000000000000e+00,-0.000000000000000000e+00,-0.000000000000000000e+00,-0.000000000000000000e+00,2.155939117074012756e-03,5.514053627848625183e-04,1.085866359062492847e-03,-0.000000000000000000e+00,-0.000000000000000000e+00,8.543103467673063278e-04,2.041295403614640236e-03,8.102133288048207760e-04
1.098318723961710930e-03,-0.000000000000000000e+00,-0.000000000000000000e+00,1.414590282365679741e-03,7.377517176792025566e-04,-0.000000000000000000e+00,2.283314010128378868e-03,1.895882422104477882e-03,-0.000000000000000000e+00,1.896567060612142086e-03,-0.000000000000000000e+00,9.202059300150722265e-05,2.095278818160295486e-03,-0.000000000000000000e+00,-0.000000000000000000e+00,5.170928197912871838e-04,-0.000000000000000000e+00,9.987738449126482010e-04,-0.000000000000000000e+00,-0.000000000000000000e+00,-0.000000000000000000e+00,-0.000000000000000000e+00,6.281816167756915092e-04,2.209594706073403358e-03,-0.000000000000000000e+00,5.444170892587862909e-05,-0.000000000000000000e+00,-0.000000000000000000e+00,-0.000000000000000000e+00,-0.000000000000000000e+00,4.164004640188068151e-04,2.003759611397981644e-03,8.824825054034590721e-04,1.469714101403951645e-03,6.385931192198768258e-05,-0.000000000000000000e+00,-0.000000000000000000e+00,1.503336126916110516e-03,-0.000000000000000000e+00,-0.000000000000000000e+00,-0.000000000000000000e+00,1.455162768252193928e-03,-0.000000000000000000e+00,-0.000000000000000000e+00,-0.000000000000000000e+00,-0.000000000000000000e+00,2.784164680633693933e-04,1.743620377965271473e-03,-0.000000000000000000e+00,-0.000000000000000000e+00,1.921125920489430428e-03,1.448545954190194607e-04,-0.000000000000000000e+00,7.855798467062413692e-04,-0.000000000000000000e+00,8.090395131148397923e-04,2.091215224936604500e-03,-0.000000000000000000e+00,9.503868059255182743e-04,-0.000000000000000000e+00,-0.000000000000000000e+00,-0.000000000000000000e+00,-0.000000000000000000e+00,-0.000000000000000000e+00
1.042623480316251516e-04,4.676474200095981359e-04,2.182825701311230659e-03,2.120560035109519958e-03,-0.000000000000000000e+00,5.662211915478110313e-04,1.755449222400784492e-03,1.426676288247108459e-03,-0.000000000000000000e+00,9.507816866971552372e-04,8.160271099768579006e-04,-0.000000000000000000e+00,3.448642673902213573e-04,-0.000000000000000000e+00,1.397390151396393776e-03,6.408176850527524948e-04,1.403560512699186802e-03,-0.000000000000000000e+00,-0.000000000000000000e+00,4.792833060491830111e-04,-0.000000000000000000e+00,-0.000000000000000000e+00,-0.000000000000000000e+00,-0.000000000000000000e+00,-0.000000000000000000e+00,-0.000000000000000000e+00,-0.000000000000000000e+00,8.741362835280597210e-04,2.031103707849979401e-03,-0.000000000000000000e+00,6.900848820805549622e-04,5.513824289664626122e-04,-0.000000000000000000e+00,1.840268145315349102e-03,-0.000000000000000000e+00,8.373659802600741386e-04,-0.000000000000000000e+00,-0.000000000000000000e+00,-0.000000000000000000e+00,2.801826922222971916e-04,1.097988686524331570e-03,1.064899406628683209e-04,-0.000000000000000000e+00,1.571933273226022720e-03,2.170520165236666799e-04,-0.000000000000000000e+00,6.185577367432415485e-04,-0.000000000000000000e+00,-0.000000000000000000e+00,-0.000000000000000000e+00,1.545719453133642673e-03,-0.000000000000000000e+00,-0.000000000000000000e+00,-0.000000000000000000e+00,-0.000000000000000000e+00,-0.000000000000000000e+00,-0.000000000000000000e+00,1.466842950321733952e-04,7.416079170070588589e-04,1.275402726605534554e-03,-0.000000000000000000e+00,3.242545935790985823e-04,1.127771683968603611e-03,-0.000000000000000000e+00
-0.000000000000000000e+00,1.040055765770375729e-03,1.423559879185631871e-04,4.808269441127777100e-04,2.063175197690725327e-03,1.764476415701210499e-03,5.395760526880621910e-04,5.220171078690327704e-05,1.175314537249505520e-03,-0.000000000000000000e+00,4.812179831787943840e-04,-0.000000000000000000e+00,-0.000000000000000000e+00,-0.000000000000000000e+00,1.657073269598186016e-03,8.579365385230630636e-06,1.788792869774624705e-04,-0.000000000000000000e+00,-0.000000000000000000e+00,-0.000000000000000000e+00,-0.000000000000000000e+00,1.796936965547502041e-03,-0.000000000000000000e+00,-0.000000000000000000e+00,2.252418926218524575e-04,1.271426677703857422e-03,-0.000000000000000000e+00,-0.000000000000000000e+00,2.234660321846604347e-03,-0.000000000000000000e+00,2.106579951941967010e-03,-0.000000000000000000e+00,1.312375185079872608e-03,6.965889479033648968e-04,1.278540701605379581e-03,1.110561075620353222e-03,-0.000000000000000000e+00,-0.000000000000000000e+00,5.964579177089035511e-04,6.515107816085219383e-04,1.783271087333559990e-03,-0.000000000000000000e+00,1.031775100273080170e-04,-0.000000000000000000e+00,2.163762692362070084e-03,1.684798276983201504e-03,-0.000000000000000000e+00,-0.000000000000000000e+00,1.746864872984588146e-03,8.892801706679165363e-04,-0.000000000000000000e+00,2.108382061123847961e-03,-0.000000000000000000e+00,1.431826967746019363e-04,-0.000000000000000000e+00,-0.000000000000000000e+00,-0.000000000000000000e+00,-0.000000000000000000e+00,-0.000000000000000000e+00,2.098557073622941971e-03,3.254869079682976007e-05,-0.000000000000000000e+00,-0.000000000000000000e+00,-0.000000000000000000e+00
1.149563351646065712e-03,-0.000000000000000000e+00,1.927694072946906090e-03,-0.000000000000000000e+00,-0.000000000000000000e+00,1.163073116913437843e-03,-0.000000000000000000e+00,-0.000000000000000000e+00,2.269092714414000511e-03,-0.000000000000000000e+00,9.624081430956721306e-04,1.453539007343351841e-03,-0.000000000000000000e+00,9.629447013139724731e-04,-0.000000000000000000e+00,1.352556282654404640e-03,-0.000000000000000000e+00,-0.000000000000000000e+00,-0.000000000000000000e+00,1.230391324497759342e-03,5.303552607074379921e-04,-0.000000000000000000e+00,2.239763503894209862e-03,8.431380265392363071e-04,7.435890147462487221e-04,1.327325589954853058e-03,-0.000000000000000000e+00,5.182442255318164825e-04,-0.000000000000000000e+00,-0.000000000000000000e+00,-0.000000000000000000e+00,7.142610847949981689e-04,-0.000000000000000000e+00,1.569982501678168774e-03,-0.000000000000000000e+00,-0.000000000000000000e+00,1.902276533655822277e-03,1.001746859401464462e-03,9.624966187402606010e-04,2.020178071688860655e-04,-0.000000000000000000e+00,-0.000000000000000000e+00,3.389048797544091940e-04,-0.000000000000000000e+00,2.407504798611626029e-04,6.117457523941993713e-04,1.804186031222343445e-04,-0.000000000000000000e+00,-0.000000000000000000e+00,-0.000000000000000000e+00,-0.000000000000000000e+00,1.742242253385484219e-03,-0.000000000000000000e+00,-0.000000000000000000e+00,-0.000000000000000000e+00,-0.000000000000000000e+00,2.239800523966550827e-03,-0.000000000000000000e+00,1.146686845459043980e-03,-0.000000000000000000e+00,1.059653121046721935e-03,5.749132833443582058e-04,5.176248960196971893e-04,-0.000000000000000000e+00
2.950865309685468674e-04,-0.000000000000000000e+00,-0.000000000000000000e+00,5.994461243972182274e-04,-0.000000000000000000e+00,1.807098626159131527e-03,7.180696120485663414e-04,8.504532743245363235e-04,-0.000000000000000000e+00,-0.000000000000000000e+00,1.257641706615686417e-03,4.643694555852562189e-04,3.577607858460396528e-04,-0.000000000000000000e+00,2.286295173689723015e-03,-0.000000000000000000e+00,-0.000000000000000000e+00,-0.000000000000000000e+00,2.214804990217089653e-03,-0.000000000000000000e+00,-0.000000000000000000e+00,-0.000000000000000000e+00,-0.000000000000000000e+00,-0.000000000000000000e+00,-0.000000000000000000e+00,-0.000000000000000000e+00,-0.000000000000000000e+00,-0.000000000000000000e+00,2.142700366675853729e-03,5.295857554301619530e-04,5.286967498250305653e-04,-0.000000000000000000e+00,1.703260350041091442e-03,-0.000000000000000000e+00,1.957649132236838341e-03,-0.000000000000000000e+00,-0.000000000000000000e+00,-0.000000000000000000e+00,-0.000000000000000000e+00,1.941735506989061832e-03,1.028693164698779583e-03,-0.000000000000000000e+00,-0.000000000000000000e+00,1.871839747764170170e-03,2.142281038686633110e-03,2.052347408607602119e-03,1.793103438103571534e-04,-0.000000000000000000e+00,9.295279160141944885e-04,1.281722099520266056e-03,-0.000000000000000000e+00,-0.000000000000000000e+00,1.514583476819097996e-03,-0.000000000000000000e+00,1.806670334190130234e-03,1.510255620814859867e-03,-0.000000000000000000e+00,-0.000000000000000000e+00,-0.000000000000000000e+00,2.212654799222946167e-03,1.683405134826898575e-03,2.922792045865207911e-04,1.068370998837053776e-03,-0.000000000000000000e+00
1.590499072335660458e-03,2.098216442391276360e-03,-0.000000000000000000e+00,-0.000000000000000000e+00,-0.000000000000000000e+00,6.890855147503316402e-04,-0.000000000000000000e+00,-0.000000000000000000e+00,-0.000000000000000000e+00,3.903412143699824810e-04,-0.000000000000000000e+00,-0.000000000000000000e+00,-0.000000000000000000e+00,-0.000000000000000000e+00,1.800356898456811905e-03,1.855714246630668640e-03,1.089434023015201092e-03,1.984960166737437248e-03,-0.000000000000000000e+00,4.499516217038035393e-04,2.268701355205848813e-04,4.482674703467637300e-04,6.759270327165722847e-04,-0.000000000000000000e+00,1.576125621795654297e-03,7.830858521629124880e-05,-0.000000000000000000e+00,-0.000000000000000000e+00,1.516900141723453999e-03,-0.000000000000000000e+00,1.605103025212883949e-03,-0.000000000000000000e+00,1.894574146717786789e-03,1.272975816391408443e-03,-0.000000000000000000e+00,1.972030382603406906e-03,-0.000000000000000000e+00,1.317222719080746174e-03,9.428741177543997765e-04,-0.000000000000000000e+00,6.708779837936162949e-04,-0.000000000000000000e+00,-0.000000000000000000e+00,-0.000000000000000000e+00,-0.000000000000000000e+00,-0.000000000000000000e+00,7.415172294713556767e-04,-0.000000000000000000e+00,1.058717491105198860e-03,-0.000000000000000000e+00,1.786645269021391869e-03,5.637130816467106342e-04,3.518568992149084806e-04,-0.000000000000000000e+00,1.180143095552921295e-03,2.276696322951465845e-04,5.151015357114374638e-04,1.199518330395221710e-03,-0.000000000000000000e+00,-0.000000000000000000e+00,2.768666599877178669e-04,1.983655783988069743e-05,-0.000000000000000000e+00,2.031944895861670375e-04
9.165573865175247192e-04,1.337050925940275192e-03,-0.000000000000000000e+00,1.154856756329536438e-03,-0.000000000000000000e+00,9.484912734478712082e-04,-0.000000000000000000e+00,3.281874232925474644e-04,-0.000000000000000000e+00,2.230450278148055077e-03,4.029562987852841616e-04,1.233088551089167595e-03,2.231222810223698616e-03,1.620222814381122589e-03,1.314109074883162975e-03,1.141752116382122040e-03,-0.000000000000000000e+00,-0.000000000000000000e+00,2.857449289876967669e-04,-0.000000000000000000e+00,6.713094189763069153e-04,1.159878680482506752e-03,2.111834939569234848e-03,-0.000000000000000000e+00,-0.000000000000000000e+00,-0.000000000000000000e+00,-0.000000000000000000e+00,1.169129856862127781e-03,-0.000000000000000000e+00,3.027183120138943195e-04,-0.000000000000000000e+00,1.881041564047336578e-03,1.307760248892009258e-03,-0.000000000000000000e+00,-0.000000000000000000e+00,1.598637900315225124e-03,-0.000000000000000000e+00,-0.000000000000000000e+00,1.968841766938567162e-03,1.554543036036193371e-03,-0.000000000000000000e+00,-0.000000000000000000e+00,-0.000000000000000000e+00,1.034537854138761759e-04,-0.000000000000000000e+00,2.135207643732428551e-03,-0.000000000000000000e+00,1.679644919931888580e-03,9.863152808975428343e-05,-0.000000000000000000e+00,-0.000000000000000000e+00,5.602847668342292309e-04,-0.000000000000000000e+00,-0.000000000000000000e+00,-0.000000000000000000e+00,-0.000000000000000000e+00,1.062675029970705509e-03,-0.000000000000000000e+00,1.010854379273951054e-03,-0.000000000000000000e+00,3.038941940758377314e-04,-0.000000000000000000e+00,2.171079861000180244e-03,1.982702873647212982e-03
5.216865683905780315e-04,-0.000000000000000000e+00,9.044400649145245552e-04,1.111265388317406178e-03,-0.000000000000000000e+00,-0.000000000000000000e+00,6.580686895176768303e-04,1.190089620649814606e-03,1.061055925674736500e-03,-0.000000000000000000e+00,1.665663323365151882e-03,1.268003019504249096e-03,-0.000000000000000000e+00,-0.000000000000000000e+00,9.663985692895948887e-04,-0.000000000000000000e+00,-0.000000000000000000e+00,1.863326644524931908e-03,-0.000000000000000000e+00,5.637825233861804008e-05,1.457148115150630474e-03,1.708514639176428318e-03,1.676817308180034161e-03,-0.000000000000000000e+00,-0.000000000000000000e+00,-0.000000000000000000e+00,-0.000000000000000000e+00,5.317064351402223110e-04,1.112653291784226894e-03,1.919776899740099907e-03,-0.000000000000000000e+00,6.832173094153404236e-04,2.098137978464365005e-03,-0.000000000000000000e+00,-0.000000000000000000e+00,2.006519818678498268e-03,-0.000000000000000000e+00,-0.000000000000000000e+00,-0.000000000000000000e+00,7.991919992491602898e-04,1.356764405500143766e-04,-0.000000000000000000e+00,1.605187659151852131e-03,-0.000000000000000000e+00,9.631339344196021557e-04,1.238239347003400326e-03,-0.000000000000000000e+00,5.478214006870985031e-04,-0.000000000000000000e+00,2.068755915388464928e-03,1.157358405180275440e-03,-0.000000000000000000e+00,2.219070913270115852e-03,-0.000000000000000000e+00,1.898424350656569004e-03,6.237236666493117809e-04,1.894068205729126930e-03,-0.000000000000000000e+00,-0.000000000000000000e+00,-0.000000000000000000e+00,8.524476434104144573e-04,2.025418216362595558e-04,1.986973220482468605e-03,2.037833211943507195e-03
2.003372901526745409e-05,-0.000000000000000000e+00,6.649950955761596560e-05,-0.000000000000000000e+00,-0.000000000000000000e+00,-0.000000000000000000e+00,1.300479285418987274e-03,1.644077827222645283e-03,1.535710180178284645e-03,-0.000000000000000000e+00,-0.000000000000000000e+00,7.149602170102298260e-04,-0.000000000000000000e+00,2.022602595388889313e-03,-0.000000000000000000e+00,-0.000000000000000000e+00,-0.000000000000000000e+00,-0.000000000000000000e+00,-0.000000000000000000e+00,-0.000000000000000000e+00,4.738577408716082573e-04,-0.000000000000000000e+00,-0.000000000000000000e+00,1.208844827488064766e-03,1.305359415709972382e-03,-0.000000000000000000e+00,7.825791835784912109e-04,-0.000000000000000000e+00,-0.000000000000000000e+00,1.325149205513298512e-03,-0.000000000000000000e+00,1.296156435273587704e-03,-0.000000000000000000e+00,-0.000000000000000000e+00,-0.000000000000000000e+00,-0.000000000000000000e+00,-0.000000000000000000e+00,8.260145841632038355e-05,-0.000000000000000000e+00,-0.000000000000000000e+00,-0.000000000000000000e+00,6.891715456731617451e-04,-0.000000000000000000e+00,-0.000000000000000000e+00,-0.000000000000000000e+00,1.226229127496480942e-03,-0.000000000000000000e+00,-0.000000000000000000e+00,8.869902812875807285e-04,-0.000000000000000000e+00,-0.000000000000000000e+00,-0.000000000000000000e+00,-0.000000000000000000e+00,-0.000000000000000000e+00,-0.000000000000000000e+00,9.965212084352970123e-04,-0.000000000000000000e+00,-0.000000000000000000e+00,-0.000000000000000000e+00,1.608467544429004192e-03,2.260728040710091591e-03,-0.000000000000000000e+00,6.367560126818716526e-04,1.561241340823471546e-03
-0.000000000000000000e+00,-0.000000000000000000e+00,1.584027661010622978e-03,8.131794165819883347e-04,2.490529790520668030e-03,8.658863604068756104e-03,-0.000000000000000000e+00,7.244387175887823105e-03,1.200822414830327034e-03,2.197179943323135376e-03,8.245901204645633698e-03,-0.000000000000000000e+00,9.059938602149486542e-04,2.580564236268401146e-03,2.365860715508460999e-02,-0.000000000000000000e+00,-0.000000000000000000e+00,7.918157498352229595e-04,-0.000000000000000000e+00,3.977649030275642872e-04,-0.000000000000000000e+00,8.553788647986948490e-04,4.715952672995626926e-05,2.227143850177526474e-03,1.343245152384042740e-03,-0.000000000000000000e+00,-0.000000000000000000e+00,1.225907355546951294e-03,1.269370876252651215e-02,-0.000000000000000000e+00,-0.000000000000000000e+00,1.176489610224962234e-02,-0.000000000000000000e+00,-0.000000000000000000e+00,-0.000000000000000000e+00,-0.000000000000000000e+00,3.510650712996721268e-03,5.257599521428346634e-03,2.143639698624610901e-02,1.861141179688274860e-03,1.794057199731469154e-03,2.475870773196220398e-03,-0.000000000000000000e+00,-0.000000000000000000e+00,-0.000000000000000000e+00,2.869226736947894096e-04,2.614778350107371807e-04,-0.000000000000000000e+00,-0.000000000000000000e+00,-0.000000000000000000e+00,-0.000000000000000000e+00,4.209829960018396378e-03,6.570543046109378338e-04,1.992078730836510658e-03,-0.000000000000000000e+00,-0.000000000000000000e+00,8.600018336437642574e-04,2.074834425002336502e-03,-0.000000000000000000e+00,2.072704955935478210e-03,-0.000000000000000000e+00,1.245317980647087097e-03,1.576237082190345973e-05,4.805392236448824406e-04
-0.000000000000000000e+00,-0.000000000000000000e+00,3.289735643193125725e-03,-0.000000000000000000e+00,4.855816718190908432e-03,2.012444473803043365e-02,-0.000000000000000000e+00,1.547439862042665482e-02,4.920896026305854321e-04,-0.000000000000000000e+00,1.660131104290485382e-02,-0.000000000000000000e+00,-0.000000000000000000e+00,1.921048155054450035e-03,4.127259925007820129e-02,-0.000000000000000000e+00,-0.000000000000000000e+00,3.906652797013521194e-03,-0.000000000000000000e+00,5.656212451867759228e-04,-0.000000000000000000e+00,1.137243933044373989e-03,1.041019058902747929e-04,2.273572143167257309e-03,1.037064794218167663e-04,-0.000000000000000000e+00,-0.000000000000000000e+00,2.669383538886904716e-03,2.676523849368095398e-02,-0.000000000000000000e+00,-0.000000000000000000e+00,2.309817075729370117e-02,-0.000000000000000000e+00,1.841794350184500217e-03,-0.000000000000000000e+00,-0.000000000000000000e+00,4.520749207586050034e-03,1.114110648632049561e-02,4.050521552562713623e-02,1.062427065335214138e-03,5.397017230279743671e-04,4.753326531499624252e-03,-0.000000000000000000e+00,-0.000000000000000000e+00,-0.000000000000000000e+00,6.222287192940711975e-04,-0.000000000000000000e+00,-0.000000000000000000e+00,-0.000000000000000000e+00,-0.000000000000000000e+00,-0.000000000000000000e+00,9.160645306110382080e-03,9.890528162941336632e-04,4.370505921542644501e-03,-0.000000000000000000e+00,-0.000000000000000000e+00,1.387367723509669304e-03,3.474771219771355391e-04,-0.000000000000000000e+00,4.153516492806375027e-04,-0.000000000000000000e+00,1.558955409564077854e-03,2.678217242646496743e-05,6.899501313455402851e-04
2.265073453600052744e-05,6.828969344496726990e-04,1.126269693486392498e-03,4.825846644962439314e-06,1.147846807725727558e-03,2.531660129534429871e-06,1.059639500454068184e-03,8.176009487215196714e-07,3.094502244493924081e-05,-0.000000000000000000e+00,6.172435678308829665e-05,1.764632877893745899e-03,2.820927693392150104e-05,1.860681106336414814e-03,-0.000000000000000000e+00,4.827560587727930397e-06,-0.000000000000000000e+00,1.828028143791016191e-05,8.406493179791141301e-06,1.252954825758934021e-03,1.965372590348124504e-03,2.241160291305277497e-05,5.348292179405689240e-04,1.153427059762179852e-03,-0.000000000000000000e+00,1.880799187347292900e-03,-0.000000000000000000e+00,5.937637761235237122e-04,5.748457624576985836e-04,1.570251697557978332e-05,3.616981266532093287e-04,9.690005681477487087e-04,3.481839030428091064e-06,1.988687552511692047e-03,-0.000000000000000000e+00,-0.000000000000000000e+00,1.289559411816298962e-03,1.758667058311402798e-03,1.592467771843075752e-03,2.288328018039464951e-03,-0.000000000000000000e+00,-0.000000000000000000e+00,2.152529545128345490e-03,2.050702460110187531e-03,2.029239658440928906e-05,-0.000000000000000000e+00,-0.000000000000000000e+00,-0.000000000000000000e+00,8.871436875779181719e-06,4.669378395192325115e-04,1.377639942802488804e-03,9.359397809021174908e-04,8.037703810259699821e-04,-0.000000000000000000e+00,-0.000000000000000000e+00,-0.000000000000000000e+00,2.036010613664984703e-03,1.675944538703788567e-08,2.305502304807305336e-03,2.095113042742013931e-03,1.548968371935188770e-03,3.792632696786313318e-06,-0.000000000000000000e+00,2.105937339365482330e-03
1.814624411053955555e-03,2.099033677950501442e-03,-0.000000000000000000e+00,2.012036475207423791e-07,2.108240965753793716e-03,1.054867126981662295e-07,1.410962315276265144e-03,3.406616855272659450e-08,1.463535591028630733e-03,-0.000000000000000000e+00,2.177280141040682793e-03,-0.000000000000000000e+00,5.961226997897028923e-04,-0.000000000000000000e+00,1.436703954823315144e-03,1.063957228325307369e-03,-0.000000000000000000e+00,1.073593623004853725e-03,3.503105006075202255e-07,1.773427589796483517e-03,1.084350174096471164e-06,9.442231316825200338e-07,8.278463064925745130e-05,1.314405235461890697e-03,8.206962374970316887e-04,-0.000000000000000000e+00,1.086490461602807045e-03,-0.000000000000000000e+00,1.915051834657788277e-03,1.084329909645020962e-03,-0.000000000000000000e+00,1.235891948454082012e-03,1.673866878263652325e-03,9.217096703650895506e-07,4.769544175360351801e-04,8.050284232012927532e-04,1.420414890162646770e-03,-0.000000000000000000e+00,-0.000000000000000000e+00,1.309219747781753540e-03,-0.000000000000000000e+00,2.590091316960752010e-04,4.536688607004180085e-07,1.860811491496860981e-03,8.567915870116848964e-07,5.190532538108527660e-04,1.362601178698241711e-03,1.240427140146493912e-03,3.697070667385560228e-07,-0.000000000000000000e+00,-0.000000000000000000e+00,-0.000000000000000000e+00,-0.000000000000000000e+00,-0.000000000000000000e+00,1.944689196534454823e-03,-0.000000000000000000e+00,1.337622292339801788e-03,6.983055800269255542e-10,1.616313170416106004e-06,1.193304546177387238e-03,-0.000000000000000000e+00,9.591892594471573830e-04,1.309707178734242916e-03,-0.000000000000000000e+00
-0.000000000000000000e+00,9.662232478149235249e-04,-0.000000000000000000e+00,-0.000000000000000000e+00,1.139520201832056046e-03,1.668997341766953468e-03,-0.000000000000000000e+00,5.762085202150046825e-04,1.285392208956182003e-03,-0.000000000000000000e+00,3.111483820248395205e-04,-0.000000000000000000e+00,9.224858949892222881e-04,1.756099052727222443e-03,2.779126225505024195e-04,-0.000000000000000000e+00,-0.000000000000000000e+00,-0.000000000000000000e+00,1.477691228501498699e-03,-0.000000000000000000e+00,-0.000000000000000000e+00,-0.000000000000000000e+00,5.351293293642811477e-05,1.327984267845749855e-03,-0.000000000000000000e+00,-0.000000000000000000e+00,1.492817886173725128e-03,4.014350997749716043e-04,-0.000000000000000000e+00,-0.000000000000000000e+00,-0.000000000000000000e+00,1.507037784904241562e-03,9.166560485027730465e-04,1.017185626551508904e-03,-0.000000000000000000e+00,-0.000000000000000000e+00,1.687725191004574299e-03,5.804165266454219818e-04,1.931319828145205975e-03,-0.000000000000000000e+00,3.564358630683273077e-04,-0.000000000000000000e+00,-0.000000000000000000e+00,-0.000000000000000000e+00,2.201652387157082558e-03,8.866190910339355469e-04,-0.000000000000000000e+00,-0.000000000000000000e+00,3.752998018171638250e-04,1.441004569642245770e-03,5.631818785332143307e-04,1.471771160140633583e-03,-0.000000000000000000e+00,8.107267203740775585e-04,1.407003961503505707e-03,2.153683919459581375e-03,4.659620753955096006e-05,1.005622674711048603e-03,-0.000000000000000000e+00,-0.000000000000000000e+00,2.185990306315943599e-04,-0.000000000000000000e+00,9.173025027848780155e-04,1.889112289063632488e-03
8.766196551732718945e-04,7.744229515083134174e-04,-0.000000000000000000e+00,2.210542093962430954e-03,1.155666541308164597e-03,-0.000000000000000000e+00,7.261715945787727833e-04,2.101613441482186317e-03,-0.000000000000000000e+00,-0.000000000000000000e+00,-0.000000000000000000e+00,-0.000000000000000000e+00,-0.000000000000000000e+00,-0.000000000000000000e+00,-0.000000000000000000e+00,1.671985955908894539e-04,5.401323505793698132e-05,1.908943057060241699e-03,-0.000000000000000000e+00,1.731801661662757397e-03,-0.000000000000000000e+00,-0.000000000000000000e+00,4.785487544722855091e-04,-0.000000000000000000e+00,-0.000000000000000000e+00,6.937049911357462406e-04,-0.000000000000000000e+00,-0.000000000000000000e+00,-0.000000000000000000e+00,-0.000000000000000000e+00,-0.000000000000000000e+00,2.639050944708287716e-04,1.010601699817925692e-04,-0.000000000000000000e+00,1.857600640505552292e-03,1.494536409154534340e-04,9.353395435027778149e-04,1.205487991683185101e-03,1.177249243482947350e-03,-0.000000000000000000e+00,-0.000000000000000000e+00,-0.000000000000000000e+00,1.784897525794804096e-03,1.264117774553596973e-03,2.020720625296235085e-03,-0.000000000000000000e+00,-0.000000000000000000e+00,1.083254581317305565e-03,6.612910656258463860e-04,-0.000000000000000000e+00,-0.000000000000000000e+00,-0.000000000000000000e+00,1.234192634001374245e-03,-0.000000000000000000e+00,9.665466495789587498e-04,-0.000000000000000000e+00,1.502574421465396881e-03,8.981046266853809357e-04,-0.000000000000000000e+00,-0.000000000000000000e+00,-0.000000000000000000e+00,1.984265865758061409e-03,4.485864192247390747e-04,1.825349172577261925e-03
-0.000000000000000000e+00,-0.000000000000000000e+00,-0.000000000000000000e+00,-0.000000000000000000e+00,2.147758146747946739e-03,-0.000000000000000000e+00,-0.000000000000000000e+00,-0.000000000000000000e+00,-0.000000000000000000e+00,-0.000000000000000000e+00,-0.000000000000000000e+00,8.436272037215530872e-04,-0.000000000000000000e+00,2.121750265359878540e-03,-0.000000000000000000e+00,4.147634608671069145e-04,2.999238495249301195e-04,-0.000000000000000000e+00,-0.000000000000000000e+00,1.745436456985771656e-03,8.431049063801765442e-04,-0.000000000000000000e+00,1.638004789128899574e-03,1.347648329101502895e-03,-0.000000000000000000e+00,1.516183489002287388e-03,7.227953028632327914e-05,-0.000000000000000000e+00,1.920659560710191727e-03,1.115602906793355942e-03,5.143787711858749390e-04,1.830604858696460724e-03,-0.000000000000000000e+00,-0.000000000000000000e+00,2.060179132968187332e-03,1.968499738723039627e-03,-0.000000000000000000e+00,9.377942769788205624e-04,8.001833339221775532e-04,2.918784739449620247e-04,8.835507906042039394e-04,-0.000000000000000000e+00,4.969295696355402470e-04,1.429435564205050468e-03,-0.000000000000000000e+00,1.839592820033431053e-03,2.089034533128142357e-03,-0.000000000000000000e+00,-0.000000000000000000e+00,-0.000000000000000000e+00,1.626149984076619148e-03,3.144972142763435841e-04,-0.000000000000000000e+00,1.728065399220213294e-04,-0.000000000000000000e+00,-0.000000000000000000e+00,2.205233322456479073e-03,-0.000000000000000000e+00,-0.000000000000000000e+00,-0.000000000000000000e+00,-0.000000000000000000e+00,-0.000000000000000000e+00,1.464391243644058704e-03,3.969599783886224031e-04
2.066603861749172211e-03,1.645469921641051769e-03,-0.000000000000000000e+00,4.179992829449474812e-04,-0.000000000000000000e+00,-0.000000000000000000e+00,2.468897146172821522e-04,-0.000000000000000000e+00,-0.000000000000000000e+00,-0.000000000000000000e+00,7.398353773169219494e-04,-0.000000000000000000e+00,-0.000000000000000000e+00,1.426158589310944080e-03,-0.000000000000000000e+00,1.454206998459994793e-03,-0.000000000000000000e+00,1.676856889389455318e-03,6.101840335759334266e-05,2.166843041777610779e-03,-0.000000000000000000e+00,2.027213806286454201e-03,2.186297439038753510e-03,2.156564500182867050e-03,1.635727705433964729e-03,1.166039146482944489e-03,-0.000000000000000000e+00,-0.000000000000000000e+00,-0.000000000000000000e+00,4.660740960389375687e-04,5.447416915558278561e-04,1.086097327060997486e-03,-0.000000000000000000e+00,5.887311999686062336e-05,3.892813983839005232e-04,1.697990344837307930e-03,1.053755870088934898e-03,-0.000000000000000000e+00,-0.000000000000000000e+00,1.596577116288244724e-03,4.802399489562958479e-04,-0.000000000000000000e+00,6.428667693398892879e-04,7.517692283727228642e-04,-0.000000000000000000e+00,-0.000000000000000000e+00,9.851027280092239380e-04,-0.000000000000000000e+00,-0.000000000000000000e+00,2.145110862329602242e-03,1.883504912257194519e-03,1.845646766014397144e-03,-0.000000000000000000e+00,-0.000000000000000000e+00,-0.000000000000000000e+00,-0.000000000000000000e+00,-0.000000000000000000e+00,-0.000000000000000000e+00,-0.000000000000000000e+00,-0.000000000000000000e+00,1.862291246652603149e-03,3.018949937541037798e-04,9.075555135495960712e-04,-0.000000000000000000e+00
1.975583378225564957e-03,2.202095231041312218e-03,-0.000000000000000000e+00,8.678441517986357212e-04,-0.000000000000000000e+00,-0.000000000000000000e+00,-0.000000000000000000e+00,1.623494783416390419e-03,-0.000000000000000000e+00,-0.000000000000000000e+00,3.125297080259770155e-04,1.403402304276823997e-03,2.140788128599524498e-03,1.096787280403077602e-03,2.128597116097807884e-03,-0.000000000000000000e+00,-0.000000000000000000e+00,-0.000000000000000000e+00,-0.000000000000000000e+00,-0.000000000000000000e+00,7.903911173343658447e-04,2.112828195095062256e-03,9.209567215293645859e-04,2.035139128565788269e-03,1.041727256961166859e-03,-0.000000000000000000e+00,1.106547657400369644e-03,-0.000000000000000000e+00,4.829731769859790802e-04,-0.000000000000000000e+00,-0.000000000000000000e+00,-0.000000000000000000e+00,1.187468646094202995e-03,-0.000000000000000000e+00,-0.000000000000000000e+00,-0.000000000000000000e+00,-0.000000000000000000e+00,-0.000000000000000000e+00,1.188861555419862270e-03,-0.000000000000000000e+00,-0.000000000000000000e+00,-0.000000000000000000e+00,1.567892497405409813e-03,1.276466064155101776e-03,5.360037321224808693e-04,-0.000000000000000000e+00,-0.000000000000000000e+00,-0.000000000000000000e+00,-0.000000000000000000e+00,1.320224546361714602e-04,-0.000000000000000000e+00,1.080493791960179806e-03,-0.000000000000000000e+00,1.442871522158384323e-03,2.047910355031490326e-03,2.238540677353739738e-03,1.559933531098067760e-03,-0.000000000000000000e+00,-0.000000000000000000e+00,1.452549477107822895e-03,-0.000000000000000000e+00,1.176980906166136265e-03,2.198697766289114952e-03,8.236918947659432888e-04
4.845610528718680143e-04,-0.000000000000000000e+00,-0.000000000000000000e+00,-0.000000000000000000e+00,1.285566133446991444e-03,-0.000000000000000000e+00,-0.000000000000000000e+00,2.373239112785086036e-04,-0.000000000000000000e+00,1.822826219722628593e-03,2.170055173337459564e-03,4.784209522767923772e-05,9.683393291197717190e-04,-0.000000000000000000e+00,-0.000000000000000000e+00,2.290918258950114250e-03,2.201923634856939316e-03,-0.000000000000000000e+00,1.164050074294209480e-03,-0.000000000000000000e+00,-0.000000000000000000e+00,-0.000000000000000000e+00,-0.000000000000000000e+00,-0.000000000000000000e+00,-0.000000000000000000e+00,1.635912689380347729e-03,-0.000000000000000000e+00,9.794016368687152863e-04,8.743590442463755608e-04,-0.000000000000000000e+00,1.974717248231172562e-03,1.184387947432696819e-03,-0.000000000000000000e+00,9.359386167488992214e-04,8.421636302955448627e-04,-0.000000000000000000e+00,-0.000000000000000000e+00,7.525783730670809746e-04,-0.000000000000000000e+00,-0.000000000000000000e+00,1.463399152271449566e-03,-0.000000000000000000e+00,-0.000000000000000000e+00,-0.000000000000000000e+00,2.185000339522957802e-03,2.151039661839604378e-03,1.109775621443986893e-03,-0.000000000000000000e+00,-0.000000000000000000e+00,7.963214884512126446e-04,3.144042857456952333e-04,-0.000000000000000000e+00,2.169041661545634270e-03,6.357361562550067902e-04,5.606923950836062431e-04,-0.000000000000000000e+00,1.526974519947543740e-04,-0.000000000000000000e+00,3.419240238144993782e-05,-0.000000000000000000e+00,1.372572849504649639e-03,-0.000000000000000000e+00,1.575360540300607681e-03,2.286888426169753075e-03
6.277306820265948772e-04,-0.000000000000000000e+00,1.380207715556025505e-03,-0.000000000000000000e+00,1.656425767578184605e-03,1.996572595089673996e-03,-0.000000000000000000e+00,7.142167305573821068e-04,-0.000000000000000000e+00,-0.000000000000000000e+00,-0.000000000000000000e+00,-0.000000000000000000e+00,1.231753965839743614e-03,-0.000000000000000000e+00,2.059668302536010742e-03,2.837850770447403193e-04,-0.000000000000000000e+00,2.595076148281805217e-05,1.486595254391431808e-03,-0.000000000000000000e+00,-0.000000000000000000e+00,7.135419291444122791e-04,2.003638539463281631e-03,-0.000000000000000000e+00,-0.000000000000000000e+00,8.470804896205663681e-04,9.931628592312335968e-04,1.162486223620362580e-04,2.106761792674660683e-03,-0.000000000000000000e+00,2.192795043811202049e-03,1.162331085652112961e-03,-0.000000000000000000e+00,-0.000000000000000000e+00,1.945407479070127010e-03,1.592973014339804649e-03,2.014004625380039215e-03,-0.000000000000000000e+00,2.781005459837615490e-04,1.525196828879415989e-03,2.143042162060737610e-03,2.024997724220156670e-03,5.447962903417646885e-04,-0.000000000000000000e+00,-0.000000000000000000e+00,-0.000000000000000000e+00,-0.000000000000000000e+00,-0.000000000000000000e+00,4.582738911267369986e-04,1.343687064945697784e-03,8.981518913060426712e-04,1.705639413557946682e-03,1.021109055727720261e-03,-0.000000000000000000e+00,1.988293370231986046e-03,1.436669030226767063e-03,-0.000000000000000000e+00,1.876418245956301689e-03,3.495434939395636320e-04,8.745813975110650063e-04,-0.000000000000000000e+00,1.215336611494421959e-03,1.160861458629369736e-03,6.314920028671622276e-04
1.586951897479593754e-03,9.123388445004820824e-04,1.997896004468202591e-03,1.120812143199145794e-03,6.659718928858637810e-04,-0.000000000000000000e+00,4.142425896134227514e-04,-0.000000000000000000e+00,-0.000000000000000000e+00,-0.000000000000000000e+00,-0.000000000000000000e+00,1.741761458106338978e-03,6.876284023746848106e-04,2.293352503329515457e-03,2.178488794015720487e-04,-0.000000000000000000e+00,7.050483836792409420e-04,1.390174111293163151e-05,3.816495591308921576e-04,-0.000000000000000000e+00,2.231342252343893051e-03,-0.000000000000000000e+00,1.432104385457932949e-03,-0.000000000000000000e+00,1.397796790115535259e-03,8.001819951459765434e-04,1.622840994969010353e-03,2.112310379743576050e-03,-0.000000000000000000e+00,2.269013930344954133e-04,-0.000000000000000000e+00,2.078204415738582611e-03,1.086389645934104919e-03,1.604419434443116188e-03,8.865263080224394798e-04,-0.000000000000000000e+00,-0.000000000000000000e+00,-0.000000000000000000e+00,1.440397696569561958e-03,-0.000000000000000000e+00,3.454861289355903864e-04,2.119478012900799513e-04,6.747285369783639908e-04,1.559907570481300354e-03,-0.000000000000000000e+00,1.910802442580461502e-03,-0.000000000000000000e+00,-0.000000000000000000e+00,1.754701137542724609e-03,-0.000000000000000000e+00,1.314939931035041809e-03,-0.000000000000000000e+00,-0.000000000000000000e+00,-0.000000000000000000e+00,6.294769700616598129e-04,-0.000000000000000000e+00,1.269974512979388237e-03,2.349977730773389339e-04,3.457069688010960817e-04,-0.000000000000000000e+00,6.431474466808140278e-04,-0.000000000000000000e+00,-0.000000000000000000e+00,-0.000000000000000000e+00
7.629679166711866856e-04,-0.000000000000000000e+00,1.279640244320034981e-03,1.013595960102975368e-03,-0.000000000000000000e+00,2.040817402303218842e-03,2.990709435835015029e-05,1.897589769214391708e-03,-0.000000000000000000e+00,2.195220673456788063e-03,2.133937785401940346e-03,-0.000000000000000000e+00,-0.000000000000000000e+00,5.942547577433288097e-04,1.980538479983806610e-03,-0.000000000000000000e+00,-0.000000000000000000e+00,-0.000000000000000000e+00,-0.000000000000000000e+00,-0.000000000000000000e+00,-0.000000000000000000e+00,9.044923353940248489e-04,7.156346109695732594e-04,1.550644170492887497e-03,4.780247691087424755e-04,1.443456276319921017e-04,8.343980298377573490e-04,-0.000000000000000000e+00,6.484038312919437885e-04,-0.000000000000000000e+00,1.410945667885243893e-03,3.989250399172306061e-04,3.249340807087719440e-04,-0.000000000000000000e+00,-0.000000000000000000e+00,-0.000000000000000000e+00,1.756779733113944530e-03,-0.000000000000000000e+00,-0.000000000000000000e+00,3.739209496416151524e-04,-0.000000000000000000e+00,-0.000000000000000000e+00,4.736903356388211250e-04,-0.000000000000000000e+00,2.103551989421248436e-03,2.224977128207683563e-03,2.414054615655913949e-04,1.750657684169709682e-03,1.568143023177981377e-03,-0.000000000000000000e+00,-0.000000000000000000e+00,1.702126348391175270e-03,5.154325626790523529e-04,-0.000000000000000000e+00,3.195712342858314514e-04,-0.000000000000000000e+00,1.890962739707902074e-04,8.160936995409429073e-04,2.179097384214401245e-03,2.182795666158199310e-03,3.475913254078477621e-04,-0.000000000000000000e+00,5.831118905916810036e-04,1.678199041634798050e-03
2.596331178210675716e-04,1.448147813789546490e-03,1.521605008747428656e-04,-0.000000000000000000e+00,1.150178024545311928e-03,7.532414165325462818e-04,-0.000000000000000000e+00,-0.000000000000000000e+00,-0.000000000000000000e+00,-0.000000000000000000e+00,-0.000000000000000000e+00,-0.000000000000000000e+00,-0.000000000000000000e+00,1.757372054271399975e-03,2.268146723508834839e-03,2.770989085547626019e-04,-0.000000000000000000e+00,-0.000000000000000000e+00,2.027991460636258125e-03,-0.000000000000000000e+00,1.067449687980115414e-03,-0.000000000000000000e+00,8.515283116139471531e-04,2.297050086781382561e-03,4.687503678724169731e-04,2.485219738446176052e-04,1.097473083063960075e-03,-0.000000000000000000e+00,-0.000000000000000000e+00,1.257513999007642269e-03,-0.000000000000000000e+00,-0.000000000000000000e+00,-0.000000000000000000e+00,-0.000000000000000000e+00,2.774774620775133371e-04,2.718978503253310919e-04,-0.000000000000000000e+00,1.193915260955691338e-03,1.137394923716783524e-03,-0.000000000000000000e+00,2.183152595534920692e-03,8.653928525745868683e-04,-0.000000000000000000e+00,-0.000000000000000000e+00,7.172258337959647179e-04,-0.000000000000000000e+00,2.086059190332889557e-03,-0.000000000000000000e+00,-0.000000000000000000e+00,1.938531408086419106e-03,-0.000000000000000000e+00,-0.000000000000000000e+00,-0.000000000000000000e+00,1.211748342029750347e-03,1.884012366645038128e-03,2.001156681217253208e-04,1.097193453460931778e-03,-0.000000000000000000e+00,1.534446608275175095e-03,-0.000000000000000000e+00,-0.000000000000000000e+00,-0.000000000000000000e+00,-0.000000000000000000e+00,-0.000000000000000000e+00
1.691677141934633255e-03,8.751274435780942440e-04,-0.000000000000000000e+00,-0.000000000000000000e+00,-0.000000000000000000e+00,-0.000000000000000000e+00,-0.000000000000000000e+00,-0.000000000000000000e+00,-0.000000000000000000e+00,3.929425147362053394e-04,-0.000000000000000000e+00,-0.000000000000000000e+00,1.580408541485667229e-03,2.282554283738136292e-03,-0.000000000000000000e+00,-0.000000000000000000e+00,3.224603424314409494e-04,7.660785340704023838e-04,5.982732400298118591e-04,-0.000000000000000000e+00,-0.000000000000000000e+00,-0.000000000000000000e+00,-0.000000000000000000e+00,1.702529145404696465e-03,2.021322725340723991e-03,1.701963599771261215e-03,-0.000000000000000000e+00,1.448289025574922562e-03,-0.000000000000000000e+00,2.627588692121207714e-04,7.800253224559128284e-04,-0.000000000000000000e+00,-0.000000000000000000e+00,-0.000000000000000000e+00,1.431907527148723602e-03,1.738236402161419392e-03,1.728464383631944656e-03,1.500202110037207603e-03,-0.000000000000000000e+00,5.864521954208612442e-04,-0.000000000000000000e+00,-0.000000000000000000e+00,1.918513560667634010e-03,3.621698706410825253e-04,-0.000000000000000000e+00,-0.000000000000000000e+00,3.927916113752871752e-04,-0.000000000000000000e+00,-0.000000000000000000e+00,7.315060356631875038e-04,3.060755261685699224e-04,-0.000000000000000000e+00,1.027033547870814800e-03,2.136050257831811905e-03,1.570026972331106663e-03,-0.000000000000000000e+00,9.257115743821486831e-05,8.645346970297396183e-04,-0.000000000000000000e+00,1.486239023506641388e-03,4.481156647671014071e-04,8.722503553144633770e-04,2.102868602378293872e-04,1.506621600128710270e-03
-0.000000000000000000e+00,9.760085376910865307e-04,-0.000000000000000000e+00,-0.000000000000000000e+00,-0.000000000000000000e+00,-0.000000000000000000e+00,-0.000000000000000000e+00,-0.000000000000000000e+00,5.285450024530291557e-04,-0.000000000000000000e+00,6.806944293202832341e-05,-0.000000000000000000e+00,-0.000000000000000000e+00,2.057310659438371658e-03,-0.000000000000000000e+00,1.201703329570591450e-03,1.574093708768486977e-03,-0.000000000000000000e+00,-0.000000000000000000e+00,5.660868482664227486e-04,-0.000000000000000000e+00,2.210354141425341368e-04,-0.000000000000000000e+00,1.803202321752905846e-03,2.825397532433271408e-04,2.183232689276337624e-03,-0.000000000000000000e+00,1.816846430301666260e-03,-0.000000000000000000e+00,-0.000000000000000000e+00,7.572815520688891411e-04,2.862822730094194412e-04,-0.000000000000000000e+00,-0.000000000000000000e+00,-0.000000000000000000e+00,1.676308107562363148e-03,1.843456062488257885e-03,1.303007942624390125e-03,-0.000000000000000000e+00,1.617586385691538453e-04,2.240558154881000519e-03,-0.000000000000000000e+00,-0.000000000000000000e+00,-0.000000000000000000e+00,4.867684911005198956e-04,-0.000000000000000000e+00,-0.000000000000000000e+00,-0.000000000000000000e+00,-0.000000000000000000e+00,-0.000000000000000000e+00,-0.000000000000000000e+00,1.411810633726418018e-03,1.148501905845478177e-04,-0.000000000000000000e+00,1.103341564885340631e-04,5.868818843737244606e-04,-0.000000000000000000e+00,7.064663222990930080e-04,1.853230991400778294e-03,-0.000000000000000000e+00,-0.000000000000000000e+00,-0.000000000000000000e+00,1.026316429488360882e-03,-0.000000000000000000e+00
1.501542283222079277e-03,2.161157550290226936e-03,7.254188531078398228e-04,1.015582005493342876e-03,1.901364339573774487e-05,-0.000000000000000000e+00,1.649204059503972530e-03,1.957727596163749695e-03,1.356265391223132610e-03,-0.000000000000000000e+00,-0.000000000000000000e+00,-0.000000000000000000e+00,1.164021887234412134e-04,1.880880590761080384e-04,-0.000000000000000000e+00,-0.000000000000000000e+00,4.823388007935136557e-05,-0.000000000000000000e+00,1.319795614108443260e-03,3.379308964213123545e-06,-0.000000000000000000e+00,1.733678276650607586e-03,1.014258130453526974e-03,2.079538069665431976e-03,6.445533945225179195e-04,8.257101872004568577e-04,-0.000000000000000000e+00,-0.000000000000000000e+00,-0.000000000000000000e+00,-0.000000000000000000e+00,-0.000000000000000000e+00,6.024623289704322815e-04,1.655770582146942616e-03,-0.000000000000000000e+00,-0.000000000000000000e+00,2.059795224340632558e-04,1.674417755566537380e-03,2.260410925373435020e-03,2.035139827057719231e-03,1.838389900512993336e-03,1.538177486509084702e-03,-0.000000000000000000e+00,1.225573243573307991e-03,5.839173682034015656e-04,4.999407101422548294e-04,1.948231831192970276e-03,1.934233470819890499e-03,9.183959336951375008e-04,-0.000000000000000000e+00,-0.000000000000000000e+00,-0.000000000000000000e+00,1.100959023460745811e-03,1.495162490755319595e-03,-0.000000000000000000e+00,-0.000000000000000000e+00,3.051675157621502876e-04,-0.000000000000000000e+00,-0.000000000000000000e+00,-0.000000000000000000e+00,-0.000000000000000000e+00,2.181574469432234764e-03,3.567751264199614525e-05,2.227032789960503578e-03,7.312113302759826183e-04
-0.000000000000000000e+00,-0.000000000000000000e+00,2.415506605757400393e-05,-0.000000000000000000e+00,4.229385813232511282e-04,7.083747186698019505e-04,-0.000000000000000000e+00,-0.000000000000000000e+00,-0.000000000000000000e+00,1.984630478546023369e-03,-0.000000000000000000e+00,-0.000000000000000000e+00,-0.000000000000000000e+00,-0.000000000000000000e+00,2.156005240976810455e-03,1.982579473406076431e-03,-0.000000000000000000e+00,1.727113150991499424e-03,-0.000000000000000000e+00,-0.000000000000000000e+00,-0.000000000000000000e+00,-0.000000000000000000e+00,-0.000000000000000000e+00,-0.000000000000000000e+00,2.294795354828238487e-03,3.548111126292496920e-04,1.429285621270537376e-03,1.843317644670605659e-03,-0.000000000000000000e+00,-0.000000000000000000e+00,-0.000000000000000000e+00,2.229579025879502296e-03,2.267568139359354973e-03,-0.000000000000000000e+00,2.284253016114234924e-03,1.095420797355473042e-03,-0.000000000000000000e+00,-0.000000000000000000e+00,-0.000000000000000000e+00,5.484747453010641038e-05,8.542711730115115643e-04,1.812802860513329506e-03,2.248414792120456696e-03,2.289566677063703537e-03,-0.000000000000000000e+00,-0.000000000000000000e+00,-0.000000000000000000e+00,1.229682820849120617e-03,-0.000000000000000000e+00,-0.000000000000000000e+00,1.706332317553460598e-03,-0.000000000000000000e+00,-0.000000000000000000e+00,-0.000000000000000000e+00,1.878543756902217865e-03,6.193513981997966766e-04,9.729352896101772785e-04,-0.000000000000000000e+00,1.181180472485721111e-03,1.605388242751359940e-03,-0.000000000000000000e+00,3.247915301471948624e-04,4.688423068728297949e-04,5.657371948473155499e-04
-0.000000000000000000e+00,1.678165048360824585e-03,-0.000000000000000000e+00,3.932339895982295275e-04,-0.000000000000000000e+00,-0.000000000000000000e+00,-0.000000000000000000e+00,-0.000000000000000000e+00,1.925743883475661278e-03,1.729484647512435913e-03,8.931906777434051037e-04,1.759344246238470078e-03,9.518358856439590454e-04,1.563561148941516876e-03,2.130264474544674158e-04,-0.000000000000000000e+00,2.423544065095484257e-04,-0.000000000000000000e+00,9.160990011878311634e-04,1.212685834616422653e-03,-0.000000000000000000e+00,-0.000000000000000000e+00,-0.000000000000000000e+00,-0.000000000000000000e+00,7.425884832628071308e-04,1.410460390616208315e-04,1.066697761416435242e-03,2.240395406261086464e-03,-0.000000000000000000e+00,9.631131542846560478e-04,-0.000000000000000000e+00,7.603283156640827656e-04,6.035898113623261452e-04,-0.000000000000000000e+00,-0.000000000000000000e+00,-0.000000000000000000e+00,-0.000000000000000000e+00,9.026833577081561089e-04,2.214706735685467720e-03,1.890729181468486786e-03,-0.000000000000000000e+00,-0.000000000000000000e+00,-0.000000000000000000e+00,1.431202050298452377e-03,1.215314914588816464e-04,7.725756149739027023e-04,-0.000000000000000000e+00,2.103232778608798981e-03,-0.000000000000000000e+00,4.281899600755423307e-04,-0.000000000000000000e+00,-0.000000000000000000e+00,-0.000000000000000000e+00,-0.000000000000000000e+00,1.873414381407201290e-03,-0.000000000000000000e+00,-0.000000000000000000e+00,2.094181254506111145e-03,7.668160833418369293e-04,2.063299529254436493e-03,8.972327341325581074e-04,-0.000000000000000000e+00,-0.000000000000000000e+00,-0.000000000000000000e+00
-0.000000000000000000e+00,1.004707184620201588e-03,1.336290966719388962e-03,2.137697068974375725e-03,-0.000000000000000000e+00,-0.000000000000000000e+00,4.761833988595753908e-04,1.811221940442919731e-03,1.328409882262349129e-03,-0.000000000000000000e+00,-0.000000000000000000e+00,9.439213317818939686e-05,9.782217675819993019e-04,-0.000000000000000000e+00,9.153933497145771980e-04,-0.000000000000000000e+00,1.307956757955253124e-03,-0.000000000000000000e+00,-0.000000000000000000e+00,9.196954779326915741e-04,1.679372391663491726e-03,-0.000000000000000000e+00,-0.000000000000000000e+00,-0.000000000000000000e+00,-0.000000000000000000e+00,-0.000000000000000000e+00,-0.000000000000000000e+00,3.422088338993489742e-04,6.720207165926694870e-04,-0.000000000000000000e+00,1.400156063027679920e-03,-0.000000000000000000e+00,-0.000000000000000000e+00,4.064679087605327368e-04,2.041899366304278374e-03,4.806149081559851766e-05,2.202509436756372452e-03,-0.000000000000000000e+00,-0.000000000000000000e+00,1.767785404808819294e-03,1.357885077595710754e-03,-0.000000000000000000e+00,1.737852115184068680e-03,1.418660744093358517e-03,9.250815492123365402e-04,1.878303708508610725e-03,5.146173061802983284e-04,2.118053613230586052e-03,-0.000000000000000000e+00,1.096330233849585056e-03,4.556851927191019058e-04,2.113837515935301781e-03,4.929503193125128746e-04,1.202592859044671059e-03,-0.000000000000000000e+00,-0.000000000000000000e+00,1.083783106878399849e-03,1.577490940690040588e-03,-0.000000000000000000e+00,1.739015569910407066e-03,5.561322323046624660e-04,7.278461707755923271e-04,-0.000000000000000000e+00,2.278210595250129700e-03
4.332572279963642359e-04,-0.000000000000000000e+00,8.629219519207254052e-05,-0.000000000000000000e+00,1.202982850372791290e-03,2.007478149607777596e-03,1.261431723833084106e-03,1.203976722763400176e-07,7.699470734223723412e-04,8.422079845331609249e-04,7.665311386517714709e-06,-0.000000000000000000e+00,1.321582472883164883e-03,9.603833314031362534e-04,2.236043568700551987e-03,-0.000000000000000000e+00,-0.000000000000000000e+00,9.754765196703374386e-04,-0.000000000000000000e+00,3.852179872865235666e-07,-0.000000000000000000e+00,1.751332310959696770e-03,7.572116828669095412e-06,2.295064041391015053e-03,7.837666657906083856e-07,-0.000000000000000000e+00,-0.000000000000000000e+00,1.103926265955124109e-07,1.132711768150329590e-03,-0.000000000000000000e+00,1.521612517535686493e-03,7.838270394131541252e-04,2.245321404188871384e-03,1.097869477234780788e-03,-0.000000000000000000e+00,2.002956578508019447e-03,1.889007748104631901e-03,4.149922169744968414e-04,2.863841655198484659e-04,2.804962662139587337e-07,1.036963652722988627e-07,1.458401584386592731e-06,5.190703086555004120e-04,-0.000000000000000000e+00,-0.000000000000000000e+00,7.764757583572645672e-07,-0.000000000000000000e+00,-0.000000000000000000e+00,2.566338253018329851e-07,6.559931789524853230e-04,7.920149946585297585e-04,1.565773738548159599e-03,-0.000000000000000000e+00,9.163773029285948724e-06,7.823180058039724827e-04,-0.000000000000000000e+00,-0.000000000000000000e+00,-0.000000000000000000e+00,1.945476251421496272e-04,8.564733775529020932e-07,6.909249350428581238e-04,-0.000000000000000000e+00,9.355092629448336083e-07,1.235944608879435691e-07
8.100846898742020130e-04,-0.000000000000000000e+00,3.039285047634621151e-06,4.490539431571960449e-04,-0.000000000000000000e+00,4.258369881426915526e-05,-0.000000000000000000e+00,9.178133041132241488e-06,1.344985561445355415e-03,-0.000000000000000000e+00,1.515753916464745998e-03,5.756985628977417946e-04,8.146249456331133842e-04,1.078349032468395308e-05,4.708605410996824503e-05,3.105477662757039070e-04,-0.000000000000000000e+00,1.826510298997163773e-03,4.774096596520394087e-04,2.079715486615896225e-03,2.040348947048187256e-03,-0.000000000000000000e+00,1.244756276719272137e-03,3.472164735285332426e-06,9.935080015566200018e-06,-0.000000000000000000e+00,3.412287624087184668e-04,1.605090452358126640e-03,9.231963304046075791e-06,7.337585557252168655e-04,5.367168341763317585e-04,7.682698924327269197e-05,3.783821302931755781e-04,-0.000000000000000000e+00,6.028428324498236179e-04,-0.000000000000000000e+00,4.094688847544603050e-05,1.297068083658814430e-03,3.433562960708513856e-05,1.556879578856751323e-05,8.687099325470626354e-04,1.772647010511718690e-05,1.046160741680068895e-05,9.207219118252396584e-04,1.726404019741778484e-10,1.988442149013280869e-03,1.858080271631479263e-03,-0.000000000000000000e+00,7.668963917240034789e-06,-0.000000000000000000e+00,2.196335844928398728e-04,2.007056536967866123e-05,-0.000000000000000000e+00,1.693826285190880299e-03,4.508275596890598536e-04,-0.000000000000000000e+00,1.561202807351946831e-03,2.028031973168253899e-03,6.973778363317251205e-04,2.870439629987231456e-06,1.364476047456264496e-03,-0.000000000000000000e+00,3.257990101701579988e-06,2.169889165088534355e-03
8.549758931621909142e-04,-0.000000000000000000e+00,-0.000000000000000000e+00,5.145627710589906201e-06,-0.000000000000000000e+00,2.956576645374298096e-02,1.531308633275330067e-03,2.597272582352161407e-02,1.761408406309783459e-03,-0.000000000000000000e+00,7.243212312459945679e-02,-0.000000000000000000e+00,9.643125813454389572e-04,1.848895475268363953e-02,7.109618186950683594e-02,-0.000000000000000000e+00,7.338720752159133554e-05,9.169314871542155743e-04,-0.000000000000000000e+00,1.115718204528093338e-02,-0.000000000000000000e+00,-0.000000000000000000e+00,2.213713247328996658e-03,1.454373705200850964e-03,1.388854929246008396e-03,2.011517528444528580e-03,-0.000000000000000000e+00,-0.000000000000000000e+00,6.489053368568420410e-02,-0.000000000000000000e+00,-0.000000000000000000e+00,4.664935171604156494e-02,-0.000000000000000000e+00,2.483343705534934998e-04,-0.000000000000000000e+00,-0.000000000000000000e+00,3.959844820201396942e-03,2.280475571751594543e-02,4.719542711973190308e-02,3.663900867104530334e-02,6.920149317011237144e-04,1.277762372046709061e-02,3.508266294375061989e-03,-0.000000000000000000e+00,2.505084739823359996e-05,4.369326867163181305e-03,-0.000000000000000000e+00,1.510793663328513503e-04,4.028751209261827171e-05,-0.000000000000000000e+00,2.687353450880891614e-08,1.789163239300251007e-02,-0.000000000000000000e+00,1.274827122688293457e-02,-0.000000000000000000e+00,-0.000000000000000000e+00,1.332146697677671909e-03,-0.000000000000000000e+00,8.338929037563502789e-04,1.536982017569243908e-03,-0.000000000000000000e+00,-0.000000000000000000e+00,4.277251355233602226e-05,9.785125730559229851e-04
-0.000000000000000000e+00,3.969713288825005293e-04,-0.000000000000000000e+00,5.264689098112285137e-04,-0.000000000000000000e+00,4.422967135906219482e-02,-0.000000000000000000e+00,3.485881909728050232e-02,1.939526526257395744e-03,1.087162236217409372e-04,8.626252412796020508e-02,-0.000000000000000000e+00,3.757443892027367838e-06,2.655564993619918823e-02,8.722544461488723755e-02,-0.000000000000000000e+00,-0.000000000000000000e+00,2.996588125824928284e-03,-0.000000000000000000e+00,1.366044022142887115e-02,-0.000000000000000000e+00,4.167701117694377899e-04,4.233936313539743423e-03,3.503182204440236092e-03,2.226310549303889275e-03,5.793754826299846172e-04,-0.000000000000000000e+00,-0.000000000000000000e+00,7.623005658388137817e-02,-0.000000000000000000e+00,-0.000000000000000000e+00,6.346358358860015869e-02,8.835299377096816897e-05,5.299651775203528814e-07,-0.000000000000000000e+00,-0.000000000000000000e+00,8.633458055555820465e-03,3.138077259063720703e-02,5.880595743656158447e-02,4.825951904058456421e-02,1.019284711219370365e-03,1.565851457417011261e-02,6.068393122404813766e-03,-0.000000000000000000e+00,2.122734258591663092e-05,6.147360894829034805e-03,-0.000000000000000000e+00,-0.000000000000000000e+00,2.696865121833980083e-04,-0.000000000000000000e+00,1.690809382125735283e-03,2.304813452064990997e-02,-0.000000000000000000e+00,1.947097666561603546e-02,-0.000000000000000000e+00,-0.000000000000000000e+00,1.892770291306078434e-03,5.560380523093044758e-04,3.010439686477184296e-03,2.169693354517221451e-03,-0.000000000000000000e+00,1.434058794984593987e-04,5.939637776464223862e-04,1.434856676496565342e-03
-0.000000000000000000e+00,8.233640692196786404e-04,6.219408987817587331e-07,1.045049202730297111e-07,8.548914820494246669e-07,1.202075090259313583e-02,-0.000000000000000000e+00,3.686339035630226135e-02,2.894190372899174690e-03,3.782461863011121750e-04,8.554216474294662476e-02,-0.000000000000000000e+00,1.617577800061553717e-04,3.644274920225143433e-02,7.854666560888290405e-02,-0.000000000000000000e+00,-0.000000000000000000e+00,1.221019192598760128e-03,1.383841390634188429e-05,1.958635449409484863e-02,1.261033117771148682e-03,1.883783028461039066e-03,5.164232850074768066e-02,2.207489684224128723e-02,1.890622312203049660e-03,-0.000000000000000000e+00,-0.000000000000000000e+00,4.355002545253228163e-07,7.134117186069488525e-02,-0.000000000000000000e+00,-0.000000000000000000e+00,7.078509777784347534e-02,-0.000000000000000000e+00,1.263588433886297935e-08,-0.000000000000000000e+00,-0.000000000000000000e+00,6.875062361359596252e-03,3.398413956165313721e-02,4.524817317724227905e-02,2.445819042623043060e-02,2.768035978078842163e-03,1.413769368082284927e-02,4.769362509250640869e-03,-0.000000000000000000e+00,4.947827747514565999e-08,1.852792222052812576e-03,-0.000000000000000000e+00,-0.000000000000000000e+00,5.571428118855692446e-06,-0.000000000000000000e+00,4.478925674789024924e-09,1.760574243962764740e-02,-0.000000000000000000e+00,8.810666389763355255e-03,-0.000000000000000000e+00,-0.000000000000000000e+00,-0.000000000000000000e+00,-0.000000000000000000e+00,2.481001196429133415e-03,6.739168893545866013e-03,-0.000000000000000000e+00,-0.000000000000000000e+00,3.077772562392055988e-04,8.948545437306165695e-04
-0.000000000000000000e+00,5.774208693765103817e-04,3.490579838398844004e-04,4.850399548672612582e-08,1.092332648113369942e-03,1.176757086068391800e-02,-0.000000000000000000e+00,1.409951597452163696e-02,-0.000000000000000000e+00,-0.000000000000000000e+00,5.887593328952789307e-02,-0.000000000000000000e+00,4.048822432878296240e-08,1.133818645030260086e-02,3.894318640232086182e-02,-0.000000000000000000e+00,4.269556652669592722e-10,3.957975714001804590e-04,-0.000000000000000000e+00,1.109012309461832047e-02,3.304317708341386606e-09,4.095311160199344158e-04,1.673763245344161987e-02,5.102979019284248352e-03,9.741702233441174030e-04,-0.000000000000000000e+00,-0.000000000000000000e+00,2.414279879303649068e-04,2.665276639163494110e-02,1.012278048051484802e-07,1.590990024169514072e-07,4.007582738995552063e-02,-0.000000000000000000e+00,-0.000000000000000000e+00,7.065554363805404137e-09,3.643558011390268803e-04,8.736866526305675507e-03,1.420684717595577240e-02,3.486534580588340759e-02,9.347530081868171692e-03,1.058802241459488869e-03,6.257337983697652817e-03,-0.000000000000000000e+00,-0.000000000000000000e+00,1.192918830383860040e-06,1.041692099533975124e-03,3.135266015306115150e-04,7.867881213314831257e-04,-0.000000000000000000e+00,6.297091204032767564e-08,2.201095048803836107e-04,9.649335406720638275e-03,-0.000000000000000000e+00,1.556197460740804672e-02,2.132372056706799412e-09,-0.000000000000000000e+00,2.828185756698076148e-07,-0.000000000000000000e+00,8.595268009230494499e-04,9.009475819766521454e-03,7.183040725067257881e-05,-0.000000000000000000e+00,8.498604292981326580e-04,4.730329092126339674e-04
-0.000000000000000000e+00,-0.000000000000000000e+00,6.002461537718772888e-03,3.989840706708491780e-07,4.922081716358661652e-03,3.695181757211685181e-02,-0.000000000000000000e+00,1.802014745771884918e-02,-0.000000000000000000e+00,-0.000000000000000000e+00,8.275826275348663330e-02,-0.000000000000000000e+00,-0.000000000000000000e+00,1.062747742980718613e-02,4.811305925250053406e-02,-0.000000000000000000e+00,3.512056867549517847e-09,1.012863358482718468e-03,-0.000000000000000000e+00,2.182896807789802551e-02,3.249013502681918908e-08,1.033860608004033566e-03,2.478534297551959753e-04,1.661598915234208107e-03,2.866890048608183861e-03,-0.000000000000000000e+00,-0.000000000000000000e+00,2.841685432940721512e-03,2.321279421448707581e-02,-0.000000000000000000e+00,1.308719447479234077e-06,6.847064942121505737e-02,-0.000000000000000000e+00,-0.000000000000000000e+00,5.811989467474631965e-08,2.825250646765198326e-07,1.356795430183410645e-02,2.703782171010971069e-02,8.290693163871765137e-02,1.129934471100568771e-02,1.152115408331155777e-03,7.842312566936016083e-03,-0.000000000000000000e+00,-0.000000000000000000e+00,8.383884414797648787e-05,1.425425754860043526e-03,-0.000000000000000000e+00,-0.000000000000000000e+00,-0.000000000000000000e+00,5.179865070203959476e-07,9.895676048472523689e-04,1.563094928860664368e-02,-0.000000000000000000e+00,2.066284604370594025e-02,1.754043488233492099e-08,-0.000000000000000000e+00,3.991324047092348337e-04,-0.000000000000000000e+00,-0.000000000000000000e+00,1.762936636805534363e-02,4.627056114259175956e-05,-0.000000000000000000e+00,3.523358376696705818e-03,5.964368392596952617e-05
-0.000000000000000000e+00,-0.000000000000000000e+00,6.580133922398090363e-03,7.617353503519552760e-08,1.105715706944465637e-02,5.923271179199218750e-02,-0.000000000000000000e+00,1.906847208738327026e-02,2.415159950032830238e-03,1.643137820065021515e-02,7.951130717992782593e-02,-0.000000000000000000e+00,-0.000000000000000000e+00,2.130301902070641518e-03,3.853477165102958679e-02,-0.000000000000000000e+00,-0.000000000000000000e+00,2.795331366360187531e-02,-0.000000000000000000e+00,1.956529356539249420e-02,2.513462327158322296e-08,3.173385493937530555e-06,9.514941484667360783e-04,6.303003174252808094e-04,1.051132567226886749e-03,-0.000000000000000000e+00,-0.000000000000000000e+00,7.497982122004032135e-03,7.523806300014257431e-03,-0.000000000000000000e+00,-0.000000000000000000e+00,6.003499776124954224e-02,-0.000000000000000000e+00,-0.000000000000000000e+00,-0.000000000000000000e+00,1.182392679766053334e-06,8.783776313066482544e-03,2.189468219876289368e-02,9.371293336153030396e-02,1.273468974977731705e-02,6.802095526836637873e-07,4.443530738353729248e-02,1.115805134759284556e-04,1.328678808931726962e-05,8.239618978223006707e-07,5.025893915444612503e-05,-0.000000000000000000e+00,-0.000000000000000000e+00,-0.000000000000000000e+00,-0.000000000000000000e+00,2.474965413057361729e-06,1.555120851844549179e-02,-0.000000000000000000e+00,5.124617740511894226e-02,-0.000000000000000000e+00,-0.000000000000000000e+00,2.882310375571250916e-02,-0.000000000000000000e+00,-0.000000000000000000e+00,2.809347771108150482e-02,4.764376717503182590e-05,-0.000000000000000000e+00,6.938425358384847641e-03,3.118988126516342163e-03
-0.000000000000000000e+00,-0.000000000000000000e+00,3.920733463019132614e-03,-0.000000000000000000e+00,5.434209946542978287e-03,8.558116853237152100e-02,-0.000000000000000000e+00,3.264125436544418335e-02,2.258169930428266525e-03,3.387420251965522766e-02,1.311785876750946045e-01,-0.000000000000000000e+00,-0.000000000000000000e+00,6.900063250213861465e-03,8.711297810077667236e-02,-0.000000000000000000e+00,-0.000000000000000000e+00,5.237953737378120422e-02,-0.000000000000000000e+00,1.850595511496067047e-02,-0.000000000000000000e+00,2.508242914700531401e-06,2.284195274114608765e-03,2.058461541309952736e-03,2.988795517012476921e-03,-0.000000000000000000e+00,-0.000000000000000000e+00,6.620061467401683331e-04,4.228246584534645081e-02,-0.000000000000000000e+00,-0.000000000000000000e+00,7.968554645776748657e-02,-0.000000000000000000e+00,4.713279777206480503e-04,-0.000000000000000000e+00,1.273901517606645939e-07,1.481174398213624954e-02,3.842937201261520386e-02,1.755432784557342529e-01,1.449242141097784042e-02,2.401871768142882502e-07,6.724561750888824463e-02,9.114896878600120544e-03,6.456900791818043217e-06,1.375442337803178816e-07,7.400242611765861511e-05,-0.000000000000000000e+00,-0.000000000000000000e+00,-0.000000000000000000e+00,-0.000000000000000000e+00,1.276177499676123261e-06,2.649143151938915253e-02,-0.000000000000000000e+00,7.015122473239898682e-02,-0.000000000000000000e+00,-0.000000000000000000e+00,4.660212993621826172e-02,-0.000000000000000000e+00,1.255853567272424698e-04,3.406462073326110840e-02,5.049681931268423796e-05,-0.000000000000000000e+00,1.097490452229976654e-02,1.264864020049571991e-02
-0.000000000000000000e+00,1.914535823743790388e-05,3.513603238388895988e-03,9.314954141359521600e-09,3.820267738774418831e-03,5.969445407390594482e-02,-0.000000000000000000e+00,2.130732499063014984e-02,6.252914899960160255e-04,5.398590583354234695e-03,9.854968637228012085e-02,-0.000000000000000000e+00,4.536036285571753979e-04,1.935232430696487427e-02,1.174554899334907532e-01,2.019176317844539881e-04,-0.000000000000000000e+00,3.826209902763366699e-02,-0.000000000000000000e+00,2.300432138144969940e-02,3.626114164489990799e-08,2.765802491921931505e-04,7.347221486270427704e-03,5.299855489283800125e-03,4.922920488752424717e-04,-0.000000000000000000e+00,-0.000000000000000000e+00,8.594675455242395401e-04,8.831618726253509521e-02,5.166046321392059326e-05,-0.000000000000000000e+00,7.467576861381530762e-02,-0.000000000000000000e+00,-0.000000000000000000e+00,-0.000000000000000000e+00,3.243336976765931468e-08,3.643462900072336197e-03,4.572057723999023438e-02,9.624072909355163574e-02,1.313120499253273010e-02,6.055443702024376762e-09,4.378769546747207642e-02,3.076668363064527512e-03,-0.000000000000000000e+00,3.027880390860104853e-09,1.449214178137481213e-03,-0.000000000000000000e+00,-0.000000000000000000e+00,4.532628372544422746e-05,-0.000000000000000000e+00,3.690440308901088429e-08,2.311567030847072601e-02,-0.000000000000000000e+00,3.764636069536209106e-02,-0.000000000000000000e+00,-0.000000000000000000e+00,2.494826167821884155e-02,-0.000000000000000000e+00,8.671715477248653769e-05,5.461993161588907242e-03,2.964487430290319026e-05,-0.000000000000000000e+00,2.880435436964035034e-03,7.309728767722845078e-03
3.115367330610752106e-02,7.114429608918726444e-04,2.997799413151369663e-07,-0.000000000000000000e+00,1.065133119482197799e-06,1.960789412260055542e-02,-0.000000000000000000e+00,1.573736808495596051e-04,3.014921769499778748e-02,3.139436244964599609e-02,1.198413129895925522e-02,-0.000000000000000000e+00,2.120965160429477692e-03,1.168671716004610062e-02,1.832656562328338623e-02,7.306810584850609303e-04,-0.000000000000000000e+00,2.212677709758281708e-02,6.842794828116893768e-04,1.005984097719192505e-02,2.814350530400133721e-08,6.565439398400485516e-04,1.499200266152911354e-06,1.173713151365518570e-02,-0.000000000000000000e+00,-0.000000000000000000e+00,-0.000000000000000000e+00,3.720334973422723124e-07,4.569911956787109375e-02,2.873002376873046160e-04,8.634841442108154297e-02,8.158148080110549927e-02,7.240095175802707672e-03,2.388573018833994865e-03,1.961962552741169930e-04,7.233600829437136781e-09,2.093188278377056122e-02,4.099618643522262573e-03,9.360226802527904510e-03,1.941534283105283976e-04,6.678761366174512659e-08,-0.000000000000000000e+00,1.411053119227290154e-03,3.061380796134471893e-02,-0.000000000000000000e+00,3.768371045589447021e-02,-0.000000000000000000e+00,4.059113853145390749e-04,3.110079851467162371e-04,3.773119242396205664e-04,9.108333289623260498e-02,5.678504705429077148e-02,6.924857007106766105e-05,1.057722183759324253e-04,-0.000000000000000000e+00,2.599840991024393588e-05,4.826311953365802765e-03,-0.000000000000000000e+00,1.032471991493366659e-04,1.073517632903531194e-04,2.491661632575414842e-07,-0.000000000000000000e+00,2.758305981842568144e-06,-0.000000000000000000e+00
8.465877175331115723e-02,1.775859505869448185e-03,-0.000000000000000000e+00,-0.000000000000000000e+00,6.293063779594376683e-05,4.758649691939353943e-02,1.935969703481532633e-05,-0.000000000000000000e+00,5.193054303526878357e-02,1.461871266365051270e-01,4.763434699270874262e-04,-0.000000000000000000e+00,4.128065891563892365e-03,-0.000000000000000000e+00,3.555796574801206589e-04,4.038282495457679033e-04,-0.000000000000000000e+00,1.305714994668960571e-01,1.752558164298534393e-03,5.338998744264245033e-05,-0.000000000000000000e+00,1.017152244457975030e-04,5.703794272449158598e-07,2.346559427678585052e-02,1.676617976045235991e-04,-0.000000000000000000e+00,-0.000000000000000000e+00,-0.000000000000000000e+00,5.516894161701202393e-03,2.350829454371705651e-04,3.224434331059455872e-02,6.092733889818191528e-02,1.825152337551116943e-02,7.219889666885137558e-03,-0.000000000000000000e+00,-0.000000000000000000e+00,4.677864909172058105e-02,1.179295068141072989e-04,1.040880233049392700e-01,5.357159534469246864e-04,-0.000000000000000000e+00,8.198998868465423584e-02,1.676747947931289673e-02,5.649352446198463440e-02,-0.000000000000000000e+00,6.516025215387344360e-02,-0.000000000000000000e+00,-0.000000000000000000e+00,3.864938917104154825e-04,4.834301769733428955e-03,1.303219348192214966e-01,5.697725713253021240e-02,-0.000000000000000000e+00,2.450974890962243080e-03,-0.000000000000000000e+00,2.701503399293869734e-05,7.751927524805068970e-02,-0.000000000000000000e+00,5.250269314274191856e-04,6.183659425005316734e-04,-0.000000000000000000e+00,1.987186988117173314e-05,6.015153485350310802e-04,2.644130028784275055e-02
5.426276102662086487e-02,1.432595252990722656e-01,-0.000000000000000000e+00,-0.000000000000000000e+00,1.157290171249769628e-04,8.142838627099990845e-02,1.103350520133972168e-02,3.117098913207883015e-06,4.069834202527999878e-02,1.158123686909675598e-01,1.809331733966246247e-04,-0.000000000000000000e+00,4.534051287919282913e-03,-0.000000000000000000e+00,1.186346984468400478e-03,4.105937108397483826e-02,-0.000000000000000000e+00,8.779415488243103027e-02,1.870841085910797119e-01,1.304954639635980129e-04,8.976752869784832001e-03,1.856398739619180560e-04,1.562981924507766962e-05,6.684401538223028183e-03,8.122145081870257854e-04,-0.000000000000000000e+00,-0.000000000000000000e+00,5.487030284712091088e-05,3.199280705302953720e-03,4.273485392332077026e-02,-0.000000000000000000e+00,-0.000000000000000000e+00,8.134204894304275513e-02,6.385352928191423416e-03,-0.000000000000000000e+00,-0.000000000000000000e+00,-0.000000000000000000e+00,-0.000000000000000000e+00,1.014775410294532776e-01,5.937344208359718323e-02,-0.000000000000000000e+00,1.008608862757682800e-01,1.970195621252059937e-01,3.721029497683048248e-03,-0.000000000000000000e+00,5.172821693122386932e-04,-0.000000000000000000e+00,-0.000000000000000000e+00,6.885943561792373657e-02,-0.000000000000000000e+00,1.672665402293205261e-02,-0.000000000000000000e+00,-0.000000000000000000e+00,5.725694075226783752e-02,-0.000000000000000000e+00,5.026421786169521511e-05,1.083762571215629578e-01,-0.000000000000000000e+00,1.101335510611534119e-01,7.511913427151739597e-04,-0.000000000000000000e+00,7.872774265706539154e-03,1.904983539134263992e-03,6.721106171607971191e-02
1.139641739428043365e-03,3.076446987688541412e-02,-0.000000000000000000e+00,-0.000000000000000000e+00,9.935554116964340210e-04,1.045374423265457153e-01,1.135558122768998146e-04,7.856644690036773682e-03,1.328968551206344273e-06,7.971386611461639404e-02,1.011431962251663208e-01,-0.000000000000000000e+00,6.386177119566127658e-05,1.679478300502523780e-04,2.090067416429519653e-02,5.574549504672177136e-05,-0.000000000000000000e+00,7.906861603260040283e-02,3.086448088288307190e-02,6.380892955348826945e-06,-0.000000000000000000e+00,4.998926215193932876e-06,8.361370419152081013e-06,4.230159684084355831e-04,-0.000000000000000000e+00,-0.000000000000000000e+00,-0.000000000000000000e+00,1.175042507384205237e-05,2.767698140814900398e-03,7.132791506592184305e-05,-0.000000000000000000e+00,4.293097555637359619e-02,1.747137494385242462e-02,-0.000000000000000000e+00,-0.000000000000000000e+00,-0.000000000000000000e+00,5.524773616343736649e-03,2.250778302550315857e-02,1.825165599584579468e-01,5.114004760980606079e-02,-0.000000000000000000e+00,8.830607682466506958e-02,7.853554189205169678e-02,1.836640080910001416e-06,-0.000000000000000000e+00,2.075518714264035225e-04,-0.000000000000000000e+00,-0.000000000000000000e+00,2.419686689972877502e-02,-0.000000000000000000e+00,-0.000000000000000000e+00,-0.000000000000000000e+00,-0.000000000000000000e+00,8.348926901817321777e-02,-0.000000000000000000e+00,1.328634994024469052e-06,7.422827184200286865e-02,-0.000000000000000000e+00,3.781504184007644653e-02,1.126929931342601776e-02,-0.000000000000000000e+00,4.175124922767281532e-05,1.267731469124555588e-02,3.554824367165565491e-02
1.972703466890379786e-05,6.562009366462007165e-05,2.443503035465255380e-06,-0.000000000000000000e+00,1.255964511074125767e-03,4.786147549748420715e-02,2.622416104713920504e-05,9.831517003476619720e-03,3.854618989862501621e-04,-0.000000000000000000e+00,1.311246752738952637e-01,-0.000000000000000000e+00,1.728646594756355626e-07,6.481771357357501984e-03,2.381976321339607239e-02,8.700428224983625114e-06,-0.000000000000000000e+00,-0.000000000000000000e+00,6.941358151379972696e-05,3.757084254175424576e-03,-0.000000000000000000e+00,1.923615855048410594e-05,4.126529966015368700e-04,2.665829088073223829e-04,1.388550037518143654e-03,6.354864453896880150e-04,-0.000000000000000000e+00,1.670146547257900238e-02,4.966791602782905102e-04,1.309045001107733697e-05,-0.000000000000000000e+00,1.017491593956947327e-01,1.197965350002050400e-03,-0.000000000000000000e+00,-0.000000000000000000e+00,-0.000000000000000000e+00,2.267451770603656769e-02,4.269151762127876282e-02,1.051412597298622131e-01,1.320801302790641785e-02,-0.000000000000000000e+00,4.570594683173112571e-06,1.812171831261366606e-05,8.144859748426824808e-06,-0.000000000000000000e+00,8.436334319412708282e-03,-0.000000000000000000e+00,-0.000000000000000000e+00,3.371132770553231239e-04,-0.000000000000000000e+00,-0.000000000000000000e+00,3.330076113343238831e-02,-0.000000000000000000e+00,7.113363593816757202e-02,-0.000000000000000000e+00,2.693274154808023013e-06,2.588099732747650705e-06,-0.000000000000000000e+00,2.240188950963784009e-05,1.021964289247989655e-02,1.064990065060555935e-03,8.635046469862572849e-06,1.152577996253967285e-02,-0.000000000000000000e+00
-0.000000000000000000e+00,-0.000000000000000000e+00,1.141252694651484489e-03,-0.000000000000000000e+00,3.047788050025701523e-03,2.639644406735897064e-02,-0.000000000000000000e+00,2.699321508407592773e-02,1.135370112024247646e-04,-0.000000000000000000e+00,9.488045424222946167e-02,-0.000000000000000000e+00,3.245142943342216313e-05,6.561426911503076553e-03,6.944678723812103271e-02,-0.000000000000000000e+00,-0.000000000000000000e+00,-0.000000000000000000e+00,-0.000000000000000000e+00,1.276897452771663666e-02,-0.000000000000000000e+00,-0.000000000000000000e+00,4.451496934052556753e-04,7.498932536691427231e-04,5.588894127868115902e-04,-0.000000000000000000e+00,-0.000000000000000000e+00,9.322262369096279144e-03,1.956809283001348376e-04,-0.000000000000000000e+00,-0.000000000000000000e+00,5.841290950775146484e-02,-0.000000000000000000e+00,-0.000000000000000000e+00,-0.000000000000000000e+00,-0.000000000000000000e+00,1.039551850408315659e-02,1.937112957239151001e-02,7.561934739351272583e-02,2.226474694907665253e-02,-0.000000000000000000e+00,1.261309138499200344e-03,-0.000000000000000000e+00,-0.000000000000000000e+00,-0.000000000000000000e+00,4.394866526126861572e-03,-0.000000000000000000e+00,-0.000000000000000000e+00,-0.000000000000000000e+00,-0.000000000000000000e+00,1.154437541117658839e-06,1.622795127332210541e-02,-0.000000000000000000e+00,4.040317982435226440e-02,-0.000000000000000000e+00,-0.000000000000000000e+00,-0.000000000000000000e+00,-0.000000000000000000e+00,3.060267772525548935e-06,3.948618099093437195e-02,1.017766771838068962e-03,-0.000000000000000000e+00,3.387771546840667725e-02,-0.000000000000000000e+00
-0.000000000000000000e+00,-0.000000000000000000e+00,1.076067052781581879e-02,-0.000000000000000000e+00,1.235201209783554077e-02,2.385687641799449921e-02,-0.000000000000000000e+00,2.022488787770271301e-02,1.411478733643889427e-04,-0.000000000000000000e+00,1.307291835546493530e-01,-0.000000000000000000e+00,-0.000000000000000000e+00,3.478275844827294350e-03,1.484064608812332153e-01,-0.000000000000000000e+00,-0.000000000000000000e+00,-0.000000000000000000e+00,-0.000000000000000000e+00,1.826098375022411346e-02,-0.000000000000000000e+00,-0.000000000000000000e+00,1.162661821581423283e-03,1.347178709693253040e-03,-0.000000000000000000e+00,1.750615483615547419e-04,-0.000000000000000000e+00,5.213849246501922607e-03,9.371840133098885417e-05,-0.000000000000000000e+00,-0.000000000000000000e+00,9.535589814186096191e-02,-0.000000000000000000e+00,-0.000000000000000000e+00,-0.000000000000000000e+00,-0.000000000000000000e+00,3.337937965989112854e-02,3.885384276509284973e-02,5.611515045166015625e-02,8.004887029528617859e-03,-0.000000000000000000e+00,3.664185293018817902e-03,-0.000000000000000000e+00,-0.000000000000000000e+00,-0.000000000000000000e+00,3.253416391089558601e-03,-0.000000000000000000e+00,-0.000000000000000000e+00,-0.000000000000000000e+00,-0.000000000000000000e+00,1.165975936601171270e-05,1.426453143358230591e-02,-0.000000000000000000e+00,8.242283761501312256e-02,-0.000000000000000000e+00,-0.000000000000000000e+00,-0.000000000000000000e+00,-0.000000000000000000e+00,3.502930439935880713e-06,2.656446024775505066e-02,2.280216431245207787e-04,-0.000000000000000000e+00,2.972261793911457062e-02,-0.000000000000000000e+00
-0.000000000000000000e+00,-0.000000000000000000e+00,1.625180244445800781e-02,1.719432417303323746e-03,5.952034145593643188e-03,2.325610816478729248e-02,-0.000000000000000000e+00,6.931148935109376907e-03,1.732397591695189476e-03,-0.000000000000000000e+00,9.783948957920074463e-02,-0.000000000000000000e+00,1.736828744469676167e-05,2.143644262105226517e-03,1.378330141305923462e-01,-0.000000000000000000e+00,8.605298353359103203e-05,1.804800122044980526e-03,-0.000000000000000000e+00,8.033325895667076111e-03,-0.000000000000000000e+00,-0.000000000000000000e+00,1.295659225434064865e-03,5.336496396921575069e-04,1.060275244526565075e-03,-0.000000000000000000e+00,-0.000000000000000000e+00,5.348952836357057095e-04,2.240506699308753014e-03,-0.000000000000000000e+00,-0.000000000000000000e+00,1.017184108495712280e-01,-0.000000000000000000e+00,-0.000000000000000000e+00,-0.000000000000000000e+00,-0.000000000000000000e+00,3.542944416403770447e-02,5.501769110560417175e-02,4.574951902031898499e-02,7.607139451693001320e-08,4.547020944301038980e-04,7.573379203677177429e-03,-0.000000000000000000e+00,-0.000000000000000000e+00,9.338961681351065636e-04,6.565625313669443130e-03,-0.000000000000000000e+00,-0.000000000000000000e+00,-0.000000000000000000e+00,-0.000000000000000000e+00,9.235494076165196020e-07,3.099383786320686340e-02,-0.000000000000000000e+00,8.843316882848739624e-02,-0.000000000000000000e+00,-0.000000000000000000e+00,-0.000000000000000000e+00,5.875031347386538982e-04,5.363547825254499912e-04,6.363197462633252144e-04,-0.000000000000000000e+00,-0.000000000000000000e+00,7.635495811700820923e-02,-0.000000000000000000e+00
-0.000000000000000000e+00,-0.000000000000000000e+00,1.737704616971313953e-03,-0.000000000000000000e+00,1.527347558294422925e-05,1.695042662322521210e-02,-0.000000000000000000e+00,3.873743582516908646e-03,2.119657397270202637e-02,-0.000000000000000000e+00,4.142263159155845642e-02,-0.000000000000000000e+00,-0.000000000000000000e+00,3.453819546848535538e-03,9.177328646183013916e-02,-0.000000000000000000e+00,-0.000000000000000000e+00,4.190912470221519470e-03,-0.000000000000000000e+00,2.048544120043516159e-03,-0.000000000000000000e+00,-0.000000000000000000e+00,3.724600537680089474e-05,2.255689585581421852e-03,1.568509032949805260e-03,-0.000000000000000000e+00,-0.000000000000000000e+00,1.987484210985712707e-05,7.927991682663559914e-04,-0.000000000000000000e+00,-0.000000000000000000e+00,6.918325275182723999e-02,-0.000000000000000000e+00,-0.000000000000000000e+00,-0.000000000000000000e+00,5.337439361028373241e-04,2.113874070346355438e-02,4.779491573572158813e-02,4.794500768184661865e-02,3.596232039853930473e-03,2.109037246555089951e-03,6.849861238151788712e-03,7.383618038147687912e-03,-0.000000000000000000e+00,-0.000000000000000000e+00,4.709400236606597900e-03,-0.000000000000000000e+00,-0.000000000000000000e+00,-0.000000000000000000e+00,-0.000000000000000000e+00,-0.000000000000000000e+00,3.101949021220207214e-02,-0.000000000000000000e+00,5.123553797602653503e-02,-0.000000000000000000e+00,-0.000000000000000000e+00,-0.000000000000000000e+00,1.477916492149233818e-03,7.290757726877927780e-03,8.671571413287892938e-05,6.338978408848561230e-08,-0.000000000000000000e+00,8.356272429227828979e-02,-0.000000000000000000e+00
-0.000000000000000000e+00,3.387503384146839380e-04,1.748401089571416378e-03,1.652540289796888828e-03,-0.000000000000000000e+00,8.989525958895683289e-03,8.472338085994124413e-04,1.228479901328682899e-03,3.321313532069325447e-03,4.486034595174714923e-05,9.524602442979812622e-03,-0.000000000000000000e+00,1.337694702669978142e-03,3.104466246441006660e-03,2.448085695505142212e-02,-0.000000000000000000e+00,-0.000000000000000000e+00,8.259317837655544281e-04,-0.000000000000000000e+00,2.600167412310838699e-03,1.960784895345568657e-03,-0.000000000000000000e+00,1.669225632213056087e-03,2.890993782784789801e-04,1.835893024690449238e-03,-0.000000000000000000e+00,-0.000000000000000000e+00,-0.000000000000000000e+00,1.113858190365135670e-03,-0.000000000000000000e+00,-0.000000000000000000e+00,1.512038614600896835e-02,-0.000000000000000000e+00,2.180838258937001228e-03,-0.000000000000000000e+00,-0.000000000000000000e+00,4.358095116913318634e-03,8.475151844322681427e-03,1.602287776768207550e-02,4.050933755934238434e-03,2.814031322486698627e-04,3.213762305676937103e-03,2.390465931966900826e-03,-0.000000000000000000e+00,-0.000000000000000000e+00,2.615212462842464447e-03,-0.000000000000000000e+00,1.022392068989574909e-03,2.688381064217537642e-04,-0.000000000000000000e+00,-0.000000000000000000e+00,3.530669258907437325e-03,-0.000000000000000000e+00,5.727288313210010529e-03,-0.000000000000000000e+00,-0.000000000000000000e+00,1.819560071453452110e-03,6.016394472680985928e-04,1.401780638843774796e-03,1.581755816005170345e-03,1.068842597305774689e-03,1.174677745439112186e-03,1.664015650749206543e-02,1.298204733757302165e-04
2.295070560649037361e-03,1.687531359493732452e-03,1.339245587587356567e-03,-0.000000000000000000e+00,7.623767596669495106e-04,1.919667934998869896e-03,1.715849735774099827e-03,-0.000000000000000000e+00,1.915093977004289627e-03,-0.000000000000000000e+00,1.492932438850402832e-03,-0.000000000000000000e+00,-0.000000000000000000e+00,-0.000000000000000000e+00,-0.000000000000000000e+00,-0.000000000000000000e+00,-0.000000000000000000e+00,-0.000000000000000000e+00,1.738276565447449684e-03,1.112014160753460601e-05,-0.000000000000000000e+00,-0.000000000000000000e+00,1.852506655268371105e-03,-0.000000000000000000e+00,9.755405480973422527e-04,1.198848709464073181e-03,-0.000000000000000000e+00,-0.000000000000000000e+00,1.635328517295420170e-03,-0.000000000000000000e+00,6.812108913436532021e-04,9.180687484331429005e-04,1.550128799863159657e-03,-0.000000000000000000e+00,-0.000000000000000000e+00,-0.000000000000000000e+00,9.131956030614674091e-04,-0.000000000000000000e+00,-0.000000000000000000e+00,-0.000000000000000000e+00,1.874618930742144585e-03,-0.000000000000000000e+00,2.716617018450051546e-04,1.539503107778728008e-03,5.587416817434132099e-04,-0.000000000000000000e+00,1.192116411402821541e-03,5.410793819464743137e-04,-0.000000000000000000e+00,-0.000000000000000000e+00,-0.000000000000000000e+00,3.114651772193610668e-04,2.457713708281517029e-04,1.152822747826576233e-03,-0.000000000000000000e+00,7.826682412996888161e-04,4.802111361641436815e-04,1.279741758480668068e-03,-0.000000000000000000e+00,1.338419038802385330e-03,9.803287684917449951e-04,1.557532668812200427e-04,-0.000000000000000000e+00,1.622656272957101464e-04
7.999383378773927689e-04,-0.000000000000000000e+00,-0.000000000000000000e+00,2.103460254147648811e-03,-0.000000000000000000e+00,1.753832446411252022e-03,3.647748962976038456e-04,-0.000000000000000000e+00,1.446523587219417095e-03,-0.000000000000000000e+00,8.430010057054460049e-04,-0.000000000000000000e+00,2.285327995195984840e-03,-0.000000000000000000e+00,1.826284453272819519e-03,5.363599047996103764e-04,1.451620366424322128e-03,-0.000000000000000000e+00,-0.000000000000000000e+00,-0.000000000000000000e+00,1.160394982434809208e-03,-0.000000000000000000e+00,5.379951908253133297e-04,1.444657682441174984e-03,2.057194942608475685e-03,3.028387436643242836e-04,5.618002032861113548e-04,1.682938658632338047e-03,-0.000000000000000000e+00,-0.000000000000000000e+00,1.950738951563835144e-03,8.363008964806795120e-04,-0.000000000000000000e+00,-0.000000000000000000e+00,-0.000000000000000000e+00,1.317726913839578629e-03,-0.000000000000000000e+00,1.463218941353261471e-03,-0.000000000000000000e+00,2.417150681139901280e-04,2.465627039782702923e-04,2.207489218562841415e-03,2.433342015137895942e-04,1.723789901006966829e-04,1.861781463958323002e-03,-0.000000000000000000e+00,1.580032985657453537e-03,-0.000000000000000000e+00,6.676377961412072182e-04,-0.000000000000000000e+00,-0.000000000000000000e+00,-0.000000000000000000e+00,8.982899016700685024e-04,-0.000000000000000000e+00,-0.000000000000000000e+00,1.869874307885766029e-03,-0.000000000000000000e+00,-0.000000000000000000e+00,-0.000000000000000000e+00,-0.000000000000000000e+00,-0.000000000000000000e+00,4.341848252806812525e-04,9.353614877909421921e-04,7.158400258049368858e-04
5.939253023825585842e-04,-0.000000000000000000e+00,1.014137873426079750e-03,1.585654972586780787e-04,1.404677459504455328e-04,9.403999429196119308e-04,-0.000000000000000000e+00,2.229487756267189980e-03,3.840549907181411982e-04,2.203414216637611389e-03,-0.000000000000000000e+00,1.525837695226073265e-03,-0.000000000000000000e+00,-0.000000000000000000e+00,-0.000000000000000000e+00,-0.000000000000000000e+00,1.531383371911942959e-03,-0.000000000000000000e+00,-0.000000000000000000e+00,9.168494143523275852e-04,1.871107495389878750e-03,1.203337335027754307e-03,1.379262655973434448e-03,-0.000000000000000000e+00,2.427206491120159626e-04,1.930049620568752289e-04,-0.000000000000000000e+00,1.209467300213873386e-03,-0.000000000000000000e+00,-0.000000000000000000e+00,1.899253693409264088e-03,-0.000000000000000000e+00,1.346998382359743118e-03,-0.000000000000000000e+00,-0.000000000000000000e+00,2.061954466626048088e-03,-0.000000000000000000e+00,1.713819685392081738e-03,-0.000000000000000000e+00,6.968501256778836250e-04,-0.000000000000000000e+00,8.367082045879215002e-05,-0.000000000000000000e+00,-0.000000000000000000e+00,1.191288814879953861e-03,1.332302694208920002e-03,1.845529419369995594e-03,-0.000000000000000000e+00,-0.000000000000000000e+00,-0.000000000000000000e+00,-0.000000000000000000e+00,1.054530366673134267e-04,1.643203780986368656e-03,1.511812733951956034e-04,-0.000000000000000000e+00,2.053680596873164177e-03,-0.000000000000000000e+00,2.183044562116265297e-03,6.679299403913319111e-04,-0.000000000000000000e+00,1.813258626498281956e-03,-0.000000000000000000e+00,2.290350617840886116e-03,-0.000000000000000000e+00
-0.000000000000000000e+00,1.957068016054108739e-04,-0.000000000000000000e+00,-0.000000000000000000e+00,1.833733986131846905e-03,-0.000000000000000000e+00,5.316426904755644500e-05,8.754470036365091801e-05,-0.000000000000000000e+00,1.784329884685575962e-03,-0.000000000000000000e+00,-0.000000000000000000e+00,-0.000000000000000000e+00,1.126119634136557579e-03,8.977138350019231439e-06,-0.000000000000000000e+00,-0.000000000000000000e+00,-0.000000000000000000e+00,1.585864374646916986e-04,-0.000000000000000000e+00,-0.000000000000000000e+00,2.193587133660912514e-03,-0.000000000000000000e+00,-0.000000000000000000e+00,1.322241849265992641e-03,-0.000000000000000000e+00,1.190110691823065281e-03,-0.000000000000000000e+00,1.866782433353364468e-03,-0.000000000000000000e+00,1.197326346300542355e-03,7.302531739696860313e-04,-0.000000000000000000e+00,-0.000000000000000000e+00,-0.000000000000000000e+00,-0.000000000000000000e+00,1.470612478442490101e-03,1.353496103547513485e-03,8.572028018534183502e-04,-0.000000000000000000e+00,1.251197187229990959e-03,1.880873751360923052e-04,2.444224955979734659e-04,-0.000000000000000000e+00,-0.000000000000000000e+00,-0.000000000000000000e+00,-0.000000000000000000e+00,-0.000000000000000000e+00,1.619669725187122822e-03,-0.000000000000000000e+00,1.328659942373633385e-03,-0.000000000000000000e+00,-0.000000000000000000e+00,1.527108135633170605e-03,2.082516584778204560e-04,-0.000000000000000000e+00,6.241445662453770638e-04,9.086822392418980598e-04,9.457272244617342949e-04,-0.000000000000000000e+00,5.138361011631786823e-04,5.265807703835889697e-05,1.911421539261937141e-03,1.390355610055848956e-04
1.731286407448351383e-03,-0.000000000000000000e+00,3.091957187280058861e-04,2.116867690347135067e-04,-0.000000000000000000e+00,-0.000000000000000000e+00,2.153138397261500359e-03,-0.000000000000000000e+00,1.874288078397512436e-03,2.230495680123567581e-03,4.262016154825687408e-04,1.939919311553239822e-03,-0.000000000000000000e+00,-0.000000000000000000e+00,1.963923219591379166e-03,-0.000000000000000000e+00,1.520352321676909924e-03,-0.000000000000000000e+00,2.172133186832070351e-03,-0.000000000000000000e+00,-0.000000000000000000e+00,-0.000000000000000000e+00,2.799847861751914024e-04,1.023239805363118649e-03,1.962253591045737267e-03,2.200290327891707420e-03,1.442939392291009426e-03,-0.000000000000000000e+00,1.492830226197838783e-03,8.432905888184905052e-04,-0.000000000000000000e+00,-0.000000000000000000e+00,1.623470103368163109e-03,-0.000000000000000000e+00,7.906483951956033707e-04,-0.000000000000000000e+00,3.866215047310106456e-05,1.329918042756617069e-03,7.987777353264391422e-04,-0.000000000000000000e+00,5.716959276469424367e-05,-0.000000000000000000e+00,1.320340204983949661e-03,-0.000000000000000000e+00,1.332788233412429690e-04,5.046910373494029045e-04,1.259715529158711433e-03,2.194446096837054938e-05,2.882619446609169245e-04,-0.000000000000000000e+00,7.195260259322822094e-04,-0.000000000000000000e+00,-0.000000000000000000e+00,1.526162304799072444e-05,-0.000000000000000000e+00,6.881736917421221733e-04,2.233724575489759445e-03,-0.000000000000000000e+00,-0.000000000000000000e+00,-0.000000000000000000e+00,-0.000000000000000000e+00,-0.000000000000000000e+00,-0.000000000000000000e+00,1.799513585865497589e-03
1.169308161479420960e-04,1.342461764579638839e-04,-0.000000000000000000e+00,2.072755887638777494e-05,7.292384398169815540e-04,-0.000000000000000000e+00,1.384217641316354275e-03,-0.000000000000000000e+00,-0.000000000000000000e+00,1.216829055920243263e-03,1.139419618993997574e-03,1.522476086392998695e-03,4.646595916710793972e-04,-0.000000000000000000e+00,2.190187107771635056e-03,-0.000000000000000000e+00,2.156413160264492035e-03,6.317733787000179291e-04,-0.000000000000000000e+00,-0.000000000000000000e+00,7.179147796705365181e-04,-0.000000000000000000e+00,1.778633915819227695e-03,2.890125033445656300e-04,-0.000000000000000000e+00,1.954758772626519203e-03,-0.000000000000000000e+00,7.486671674996614456e-04,1.916288747452199459e-03,1.420999644324183464e-03,-0.000000000000000000e+00,-0.000000000000000000e+00,-0.000000000000000000e+00,1.083790324628353119e-03,-0.000000000000000000e+00,7.064886740408837795e-04,-0.000000000000000000e+00,-0.000000000000000000e+00,6.794526707381010056e-04,-0.000000000000000000e+00,-0.000000000000000000e+00,-0.000000000000000000e+00,-0.000000000000000000e+00,-0.000000000000000000e+00,2.460411924403160810e-04,-0.000000000000000000e+00,-0.000000000000000000e+00,-0.000000000000000000e+00,-0.000000000000000000e+00,-0.000000000000000000e+00,-0.000000000000000000e+00,7.078760536387562752e-04,5.382999079301953316e-04,1.927772304043173790e-03,-0.000000000000000000e+00,-0.000000000000000000e+00,4.351240349933505058e-04,-0.000000000000000000e+00,2.281921915709972382e-03,2.281806664541363716e-03,-0.000000000000000000e+00,-0.000000000000000000e+00,2.197562949731945992e-03,1.578671974129974842e-03
2.006366150453686714e-03,2.049722243100404739e-03,4.095017658301003394e-09,1.499619567766785622e-03,2.465576720567241864e-08,3.974951687268912792e-04,-0.000000000000000000e+00,1.065749256667913869e-05,5.433643236756324768e-04,7.738087442703545094e-04,3.834497874777298421e-06,1.422835513949394226e-03,9.644044912420213223e-04,1.593084307387471199e-03,6.090998649597167969e-04,-0.000000000000000000e+00,1.633719424717128277e-03,2.636845124470710289e-07,-0.000000000000000000e+00,1.437966246157884598e-03,-0.000000000000000000e+00,9.834259981289505959e-04,5.193337759834548706e-09,3.808875135291600600e-07,2.157371025532484055e-03,-0.000000000000000000e+00,-0.000000000000000000e+00,4.666338791139423847e-04,6.246468586823539226e-08,-0.000000000000000000e+00,1.393787446431815624e-03,1.333950876869494095e-05,-0.000000000000000000e+00,-0.000000000000000000e+00,8.609450929952799925e-09,1.525326049886643887e-03,9.212025906890630722e-04,-0.000000000000000000e+00,2.026764210313558578e-03,1.381445210427045822e-03,2.083976287394762039e-03,1.839714605011977255e-05,1.822333956624788698e-06,7.202107553894165903e-06,1.298488583415746689e-03,7.823364853720704559e-07,1.706810871837660670e-04,1.711834920570254326e-03,9.867879562079906464e-04,-0.000000000000000000e+00,-0.000000000000000000e+00,2.215304411947727203e-03,1.325213350355625153e-03,5.523403524421155453e-05,2.075953962048515677e-04,-0.000000000000000000e+00,-0.000000000000000000e+00,1.815785304643213749e-03,1.446773989499661184e-08,1.610177219845354557e-03,2.904709788253967417e-07,1.308626262471079826e-03,8.884354940619232366e-08,-0.000000000000000000e+00
2.509687328711152077e-04,-0.000000000000000000e+00,1.810700837268086616e-06,2.527390461182221770e-05,-0.000000000000000000e+00,1.263260468840599060e-02,1.294352672994136810e-02,6.319713520497316495e-06,1.675879815593361855e-03,4.339370876550674438e-03,4.490697174333035946e-04,-0.000000000000000000e+00,2.379945362918078899e-04,5.684487405233085155e-04,7.275241892784833908e-03,1.414029509760439396e-03,-0.000000000000000000e+00,3.601076081395149231e-02,-0.000000000000000000e+00,1.190599618894339073e-06,1.341675408184528351e-03,5.830137524753808975e-04,1.399186003254726529e-04,2.720348857110366225e-05,1.823298371164128184e-04,-0.000000000000000000e+00,-0.000000000000000000e+00,2.111570909619331360e-03,1.266489016416016966e-05,-0.000000000000000000e+00,4.068399448442505673e-07,3.175721212755888700e-05,5.515851662494242191e-04,1.019435221678577363e-04,-0.000000000000000000e+00,1.629890990443527699e-03,8.693969575688242912e-04,1.306354068219661713e-03,3.808124922215938568e-03,2.134624628524761647e-05,5.902620032429695129e-04,1.686170813627541065e-03,3.074918175116181374e-03,4.724563495983602479e-06,-0.000000000000000000e+00,3.505111862978083082e-06,6.026108749210834503e-04,-0.000000000000000000e+00,4.360650152079870168e-08,1.142714987508952618e-03,2.542345609981566668e-04,1.260715507669374347e-04,-0.000000000000000000e+00,1.225609052926301956e-02,-0.000000000000000000e+00,-0.000000000000000000e+00,2.956342697143554688e-02,-0.000000000000000000e+00,1.550274086184799671e-03,2.447809558361768723e-03,7.779053703416138887e-06,1.286435988731682301e-03,1.137632504105567932e-02,5.919007584452629089e-03
8.562795701436698437e-04,-0.000000000000000000e+00,1.843857899075374007e-04,6.326387392618926242e-06,1.514766248874366283e-03,4.873100202530622482e-03,3.910648170858621597e-03,4.662101673602592200e-06,1.381473732180893421e-03,1.550857326947152615e-03,4.916681442409753799e-03,-0.000000000000000000e+00,1.314824912697076797e-03,2.897044214478228241e-05,5.069605074822902679e-03,-0.000000000000000000e+00,-0.000000000000000000e+00,1.341945398598909378e-02,-0.000000000000000000e+00,3.393950755707919598e-04,1.827861065976321697e-03,-0.000000000000000000e+00,1.960112014785408974e-03,2.170162275433540344e-03,7.102853851392865181e-04,-0.000000000000000000e+00,-0.000000000000000000e+00,8.792082439867954236e-07,8.617580533609725535e-06,-0.000000000000000000e+00,-0.000000000000000000e+00,3.415531944483518600e-03,1.045597833581268787e-03,9.210450807586312294e-04,-0.000000000000000000e+00,1.054237945936620235e-03,2.940137172117829323e-03,2.069188980385661125e-03,1.942206290550529957e-03,-0.000000000000000000e+00,2.818823304551187903e-05,1.951503800228238106e-03,4.381306644063442945e-04,-0.000000000000000000e+00,1.860241871327161789e-03,2.013346878811717033e-03,1.480667153373360634e-03,-0.000000000000000000e+00,1.350250095129013062e-03,-0.000000000000000000e+00,-0.000000000000000000e+00,2.536559710279107094e-03,-0.000000000000000000e+00,1.127714850008487701e-02,-0.000000000000000000e+00,-0.000000000000000000e+00,9.971393272280693054e-03,8.073956123553216457e-04,1.451484393328428268e-03,3.553446958903805353e-07,8.032892537812585942e-07,2.117294818162918091e-03,4.991443827748298645e-03,2.025587949901819229e-03
