-5.565038323402404785e-01,-1.061637401580810547e+00,2.200730293989181519e-01,-2.149737775325775146e-01,-1.586405932903289795e-01,-1.497203111648559570e+00,-4.900172352790832520e-01,-6.965154409408569336e-01,-1.195643663406372070e+00,-5.828732848167419434e-01
-2.498557120561599731e-01,-1.129667997360229492e+00,1.947327852249145508e-01,-6.191453337669372559e-01,-1.196487069129943848e+00,-2.616020143032073975e-01,-1.359767794609069824e+00,-5.804056525230407715e-01,-6.715087592601776123e-02,-1.035059213638305664e+00
-5.252396464347839355e-01,-1.307762742042541504e+00,3.058706521987915039e-01,-3.800282478332519531e-01,-1.302520155906677246e+00,-1.263761520385742188e+00,-1.361192345619201660e+00,-2.236436456441879272e-01,3.762423992156982422e-01,-9.575416445732116699e-01
4.027225449681282043e-02,-8.547513484954833984e-01,-2.122309446334838867e+00,3.062172532081604004e-01,-1.141635775566101074e+00,-2.307947874069213867e-01,-1.718240082263946533e-01,-2.062401473522186279e-01,-1.047199368476867676e+00,-9.855751991271972656e-01
-3.641310632228851318e-01,-1.108851432800292969e+00,4.931520521640777588e-01,-5.516719818115234375e-01,-1.888602852821350098e+00,1.266758739948272705e-01,-1.572510123252868652e+00,-1.037754893302917480e+00,-8.239241838455200195e-01,-3.193860948085784912e-01
-1.930314898490905762e+00,-1.246032118797302246e+00,-4.968714714050292969e-01,-7.703912854194641113e-01,-1.667151898145675659e-01,2.828465588390827179e-02,-1.288510441780090332e+00,3.392419591546058655e-02,-5.437069535255432129e-01,1.739081293344497681e-01
-5.946362614631652832e-01,-6.686299443244934082e-01,-1.125623226165771484e+00,-2.910835504531860352e+00,1.958642750978469849e-01,4.056189656257629395e-01,-8.276850581169128418e-01,-6.701067090034484863e-01,-1.170052409172058105e+00,1.034806847572326660e+00
-1.394145488739013672e+00,-7.793502807617187500e-01,1.524169921875000000e+00,1.112527489662170410e+00,-1.801151871681213379e+00,-5.101249217987060547e-01,-1.155722975730895996e+00,1.762527704238891602e+00,-1.934712171554565430e+00,-2.651956558227539062e+00
-1.079630136489868164e+00,-3.634601458907127380e-02,-9.957352280616760254e-01,-2.941967844963073730e-01,-7.194711565971374512e-01,-8.666669726371765137e-01,-1.028894662857055664e+00,-7.791967391967773438e-01,-3.831451833248138428e-01,-1.115141272544860840e+00
-1.559622406959533691e+00,-1.810086011886596680e+00,-3.550637960433959961e-01,2.142284959554672241e-01,-1.308736056089401245e-01,-1.485499739646911621e+00,-1.159835338592529297e+00,-1.461682558059692383e+00,2.273894697427749634e-01,-7.288200855255126953e-01
-5.336415395140647888e-02,4.338640272617340088e-01,-1.703773617744445801e+00,7.803270816802978516e-01,4.472152590751647949e-01,-2.237265348434448242e+00,4.301416575908660889e-01,3.083606362342834473e-01,-1.351483464241027832e+00,-9.764154553413391113e-01
-6.128863692283630371e-01,-6.182470917701721191e-01,-8.921537399291992188e-01,-6.026840209960937500e-01,-4.630762636661529541e-01,-1.064319252967834473e+00,-6.294004917144775391e-01,-1.875717759132385254e+00,-3.500163257122039795e-01,1.101283505558967590e-01
-1.994324445724487305e+00,3.788161277770996094e-02,2.870195806026458740e-01,-1.110795497894287109e+00,-2.010001659393310547e+00,7.000093460083007812e-01,-3.015245795249938965e-01,3.632702827453613281e-01,-1.823785185813903809e+00,-2.804159402847290039e+00
6.428255438804626465e-01,1.015377402305603027e+00,1.327436327934265137e+00,-1.216317057609558105e+00,-2.517846226692199707e-01,5.333996959961950779e-04,-1.035514235496520996e+00,-4.003995358943939209e-01,-2.932436227798461914e+00,-5.280681848526000977e-01
-1.506310582160949707e+00,-1.423068761825561523e+00,-8.414288759231567383e-01,-1.362607002258300781e+00,-6.929560899734497070e-01,7.783115506172180176e-01,-7.924392819404602051e-01,-1.976229190826416016e+00,6.876196265220642090e-01,-6.195544004440307617e-01
-5.508139133453369141e-01,-8.659133315086364746e-01,-6.923397779464721680e-01,-9.022546410560607910e-01,5.496704950928688049e-03,-9.801321029663085938e-01,-5.480794310569763184e-01,1.335823833942413330e-01,1.231849268078804016e-01,-3.480496704578399658e-01
-1.177459284663200378e-01,-6.060348749160766602e-01,-1.285250186920166016e+00,-6.022946238517761230e-01,-3.049192726612091064e-01,-8.282548785209655762e-01,-1.638950824737548828e+00,-2.079430967569351196e-01,-1.257128715515136719e+00,-3.233810365200042725e-01
-3.058635294437408447e-01,-1.372174978256225586e+00,-6.498411893844604492e-01,-1.467986226081848145e+00,-3.375310599803924561e-01,-1.552008152008056641e+00,-5.180217027664184570e-01,-2.729460000991821289e-01,-1.233826354146003723e-01,-1.123054862022399902e+00
-1.547799468040466309e+00,-1.990035474300384521e-01,-9.615068435668945312e-01,-6.370705366134643555e-02,-6.615186929702758789e-01,-9.559232741594314575e-02,-1.231683850288391113e+00,-4.389094561338424683e-02,1.036296784877777100e-01,-6.496032476425170898e-01
-1.502208411693572998e-01,-2.067466020584106445e+00,-1.392619371414184570e+00,-1.263597756624221802e-01,-9.362903833389282227e-01,-8.299651145935058594e-01,9.525974094867706299e-02,-1.205117464065551758e+00,3.152219057083129883e-01,-6.025128960609436035e-01
-5.855925083160400391e-01,-7.975598424673080444e-02,-4.897120893001556396e-01,-2.147001028060913086e+00,3.236958682537078857e-01,-8.509966135025024414e-01,-8.042970299720764160e-01,-4.050143957138061523e-01,-2.561397850513458252e-01,-5.144512653350830078e-01
-9.485061764717102051e-01,-1.106099128723144531e+00,-6.427542567253112793e-01,-6.187147498130798340e-01,-9.653408825397491455e-02,-6.230013370513916016e-01,-4.643405973911285400e-02,-1.095392346382141113e+00,7.772459983825683594e-01,-4.598736763000488281e-01
-1.303465723991394043e+00,-5.494926571846008301e-01,-1.640807271003723145e+00,-2.286443710327148438e+00,9.282931685447692871e-01,5.060220956802368164e-01,-5.611037015914916992e-01,-9.383838772773742676e-01,6.310968995094299316e-01,-5.780791044235229492e-01
-1.325538635253906250e+00,-2.455071806907653809e-01,4.069464504718780518e-01,4.132654666900634766e-01,6.653015017509460449e-01,-1.741082906723022461e+00,-1.307065486907958984e+00,-8.196792006492614746e-01,-6.839280575513839722e-02,-3.037490844726562500e+00
2.728040516376495361e-01,-3.245953619480133057e-01,5.781338214874267578e-01,-2.441338777542114258e+00,2.091298848390579224e-01,-1.252851605415344238e+00,-8.854141235351562500e-01,-6.180387735366821289e-01,-7.356130480766296387e-01,-1.026817798614501953e+00
-4.549309611320495605e-01,2.077404409646987915e-01,8.594283461570739746e-01,-1.279221653938293457e+00,-1.040286183357238770e+00,-9.037946462631225586e-01,-1.496120452880859375e+00,-3.556437492370605469e-01,-2.250616073608398438e+00,6.943315863609313965e-01
-1.628163218498229980e+00,-8.584099262952804565e-02,-2.110799401998519897e-01,1.460059881210327148e-01,-3.021248579025268555e-01,-1.066285610198974609e+00,6.443267222493886948e-03,-1.919923543930053711e+00,-8.577727675437927246e-01,5.035840272903442383e-01
-5.285913944244384766e-01,-6.472543478012084961e-01,-7.656362056732177734e-01,-2.384672909975051880e-01,-1.797475457191467285e+00,-2.442076206207275391e-01,-8.496419787406921387e-01,4.793954491615295410e-01,9.733909741044044495e-03,-9.612825512886047363e-01
-1.545647144317626953e+00,-1.357125043869018555e+00,-8.712207078933715820e-01,-1.162146091461181641e+00,-1.455253601074218750e+00,1.526202678680419922e+00,1.396820664405822754e+00,-2.879808843135833740e-01,-1.441041946411132812e+00,5.820319056510925293e-01
-7.815735936164855957e-01,5.661873146891593933e-02,-1.740502752363681793e-02,-1.811963081359863281e+00,-2.987640500068664551e-01,-4.856591522693634033e-01,-4.976550042629241943e-01,2.781661748886108398e-01,-1.911308884620666504e+00,-1.038865804672241211e+00
-1.775795340538024902e+00,-4.203401207923889160e-01,-1.483793377876281738e+00,9.589536786079406738e-01,3.455017805099487305e-01,8.170754313468933105e-01,-2.114978313446044922e+00,-5.767883062362670898e-01,-3.266524553298950195e+00,5.685800909996032715e-01
-1.030235886573791504e+00,-1.267472386360168457e+00,2.089254856109619141e-01,-6.182263493537902832e-01,-7.841614484786987305e-01,-1.844888687133789062e+00,-1.354835271835327148e+00,-1.193394660949707031e+00,-2.436960786581039429e-01,5.079231783747673035e-02
-1.484462738037109375e+00,-2.140431106090545654e-01,1.270028948783874512e+00,2.781301736831665039e-01,-4.632359445095062256e-01,-5.260944366455078125e-01,-1.319862723350524902e+00,3.801928460597991943e-01,-6.444438099861145020e-01,-2.290070533752441406e+00
-1.050525665283203125e+00,-7.560048699378967285e-01,-7.040761113166809082e-01,-5.193095207214355469e-01,-4.011199474334716797e-01,5.898253917694091797e-01,7.712308168411254883e-01,4.569612145423889160e-01,-9.191348552703857422e-01,-2.162222146987915039e+00
-9.950204491615295410e-01,7.211380600929260254e-01,-1.998193025588989258e+00,-7.902480363845825195e-01,-1.174381017684936523e+00,1.119796156883239746e+00,5.112510323524475098e-01,-7.951645851135253906e-01,-8.272393345832824707e-01,-4.526347815990447998e-01
-3.814368247985839844e-01,-9.973946809768676758e-01,-2.031824290752410889e-01,-1.083986401557922363e+00,-4.100041985511779785e-01,-1.470206528902053833e-01,-1.197388172149658203e+00,-7.110458612442016602e-01,3.200064599514007568e-01,-4.339764714241027832e-01
-3.934358358383178711e-01,-1.297603845596313477e+00,2.555170357227325439e-01,-1.151220798492431641e+00,-9.965733289718627930e-01,-1.182182073593139648e+00,-2.407321780920028687e-01,-5.094481259584426880e-02,-1.391009807586669922e+00,-8.072572946548461914e-01
1.812779903411865234e-01,-5.939298868179321289e-01,-3.138268738985061646e-02,-2.152386456727981567e-01,-1.074117064476013184e+00,-3.830308318138122559e-01,-9.196771979331970215e-01,-2.693238854408264160e-01,4.428158402442932129e-01,-1.157379627227783203e+00
9.154985845088958740e-02,1.717048287391662598e+00,-2.405983686447143555e+00,-1.847799062728881836e+00,1.432185649871826172e+00,-9.063313007354736328e-01,7.376151084899902344e-01,-1.289988636970520020e+00,-1.423560738563537598e+00,-1.891349792480468750e+00
8.788729310035705566e-01,-1.271594762802124023e+00,-8.535179495811462402e-01,-1.070057868957519531e+00,-2.536948919296264648e+00,-2.475456744432449341e-01,-2.734219431877136230e-01,-1.393015503883361816e+00,-2.044024467468261719e-01,8.721312880516052246e-01
-3.678799271583557129e-01,-1.211424469947814941e+00,-1.660179734230041504e+00,-6.873204112052917480e-01,-3.031458258628845215e-01,-2.441689223051071167e-01,-5.801382064819335938e-01,-1.562069058418273926e+00,-8.630634546279907227e-01,-3.987342119216918945e-02
-1.163180351257324219e+00,1.948005855083465576e-01,-3.571351170539855957e-01,5.109232068061828613e-01,1.660351604223251343e-01,-1.134314417839050293e+00,-5.575754642486572266e-01,4.888527095317840576e-01,-1.791960358619689941e+00,-2.182698726654052734e+00
-1.589356660842895508e+00,-1.070617675781250000e+00,-1.863374590873718262e+00,3.424773216247558594e-01,-4.686602056026458740e-01,-4.122379422187805176e-01,-2.235165357589721680e+00,2.736346423625946045e-02,-5.906031131744384766e-01,-2.855648696422576904e-01
-2.054367065429687500e+00,-1.525509208440780640e-01,-7.126348018646240234e-01,-1.863486289978027344e+00,-3.062433898448944092e-01,1.565013229846954346e-01,2.624894380569458008e-01,-1.334219813346862793e+00,-2.014138549566268921e-01,-4.541025683283805847e-02
-2.878721356391906738e-01,-1.148857712745666504e+00,-6.874778866767883301e-01,2.508178055286407471e-01,-1.005527615547180176e+00,-2.567900121212005615e-01,-8.739947676658630371e-01,-1.901529669761657715e+00,-1.080523014068603516e+00,-1.226770058274269104e-01
-4.317482411861419678e-01,-2.511380910873413086e-01,-8.517055213451385498e-02,-1.426086783409118652e+00,2.581132352352142334e-01,-5.306693725287914276e-03,-9.595904350280761719e-01,-8.970103263854980469e-01,-1.476799726486206055e+00,1.187594980001449585e-01
-2.253800071775913239e-02,-1.525955319404602051e+00,7.893376946449279785e-01,-1.807753443717956543e+00,-4.559088349342346191e-01,1.411655172705650330e-02,-3.143029212951660156e-01,-1.956136226654052734e+00,-2.352458685636520386e-01,-3.541987836360931396e-01
1.667022258043289185e-01,-1.096745610237121582e+00,-1.298853278160095215e+00,-4.346928745508193970e-02,-2.877534329891204834e-01,-7.804126739501953125e-01,-5.766373872756958008e-01,-1.414568066596984863e+00,-8.720961213111877441e-01,-8.491175770759582520e-01
1.280953139066696167e-01,-1.234684824943542480e+00,1.127206310629844666e-01,-1.224835276603698730e+00,-1.291786909103393555e+00,-9.780403375625610352e-01,2.111894190311431885e-01,-1.030444502830505371e+00,-7.708237767219543457e-01,-1.066060543060302734e+00
-5.703886747360229492e-01,-6.663146018981933594e-01,-1.521978020668029785e+00,-1.616174936294555664e+00,-8.638947606086730957e-01,-8.797060847282409668e-01,3.095247447490692139e-01,-7.672973871231079102e-01,-8.888884186744689941e-01,2.263492047786712646e-01
5.956906080245971680e-01,-7.272677421569824219e-01,-3.462911248207092285e-01,-5.691752955317497253e-02,-1.765113711357116699e+00,2.432138323783874512e-01,3.561886250972747803e-01,-1.276338458061218262e+00,-1.012370944023132324e+00,-1.140328049659729004e+00
-1.856207400560379028e-01,-5.752856135368347168e-01,-2.638858079910278320e+00,3.973442316055297852e-01,-1.930796980857849121e+00,3.466117978096008301e-01,-8.800872564315795898e-01,-2.515242099761962891e-01,-3.185572326183319092e-01,-8.985854983329772949e-01
-1.393445611000061035e+00,-6.746544241905212402e-01,-1.649265885353088379e+00,-7.905206680297851562e-01,-1.173715472221374512e+00,5.390276312828063965e-01,2.194252610206604004e-01,-1.047972321510314941e+00,8.998014032840728760e-02,-1.539371013641357422e+00
-1.835696458816528320e+00,-1.171648740768432617e+00,-5.238258838653564453e-01,1.587506413459777832e+00,-1.548791885375976562e+00,7.281916141510009766e-01,-1.186520576477050781e+00,1.119158267974853516e+00,-1.593254089355468750e+00,-6.656339764595031738e-01
-1.286286711692810059e+00,1.238030791282653809e+00,-1.088074326515197754e+00,-1.945235252380371094e+00,-3.533910810947418213e-01,5.026835203170776367e-01,-1.473242163658142090e+00,7.880781292915344238e-01,-2.310173034667968750e+00,-2.072873413562774658e-01
-1.102784156799316406e+00,1.798346787691116333e-01,6.485807299613952637e-01,-7.844593524932861328e-01,-5.364547967910766602e-01,-2.183392047882080078e+00,3.177853226661682129e-01,-2.118303775787353516e-01,-1.938896656036376953e+00,-2.992539107799530029e-01
-1.053206801414489746e+00,-1.016142725944519043e+00,-2.686580121517181396e-01,2.757503986358642578e-01,-3.359054625034332275e-01,-9.737809300422668457e-01,-9.296733140945434570e-01,-6.183905526995658875e-02,-1.331678509712219238e+00,-1.107707023620605469e-01
-7.240954041481018066e-02,-1.478978514671325684e+00,-6.013287901878356934e-01,-8.798187375068664551e-01,5.309638977050781250e-01,-8.363854289054870605e-01,-1.068444609642028809e+00,7.971642017364501953e-01,-1.790892630815505981e-01,-1.254577636718750000e+00
-1.951651275157928467e-01,-8.381437063217163086e-01,-5.355199575424194336e-01,5.958321690559387207e-01,-1.391443610191345215e+00,1.100893616676330566e-01,-8.414248824119567871e-01,-6.208332180976867676e-01,-6.785931587219238281e-01,-3.474504947662353516e-01
1.443712972104549408e-02,-1.370906949043273926e+00,1.445282995700836182e-02,-4.288405478000640869e-01,-6.815558075904846191e-01,-1.699466228485107422e+00,-8.383177518844604492e-01,-1.970962285995483398e+00,4.214637577533721924e-01,-8.334851861000061035e-01
-1.495166420936584473e+00,8.060814440250396729e-02,5.673496723175048828e-01,-2.084892392158508301e-01,-1.289483785629272461e+00,-5.843276381492614746e-01,-2.689731717109680176e-01,1.610732793807983398e+00,-1.270456433296203613e+00,-2.164693593978881836e+00
-6.313388943672180176e-01,-9.919608235359191895e-01,-2.767265737056732178e-01,-6.842666268348693848e-01,-9.001107513904571533e-02,2.806410193443298340e-01,-3.633666336536407471e-01,-1.818109750747680664e+00,5.438538789749145508e-01,-8.650817275047302246e-01
-1.469129562377929688e+00,-8.383214473724365234e-01,-1.893351674079895020e+00,-7.779434919357299805e-01,-3.301126658916473389e-01,-1.247847557067871094e+00,-6.326919198036193848e-01,-4.292612969875335693e-01,7.112766802310943604e-02,-2.736173272132873535e-01
-7.173751592636108398e-01,-1.971646308898925781e+00,-8.919559717178344727e-01,-1.604206919670104980e+00,-2.927484177052974701e-02,-6.194276809692382812e-01,-1.337878584861755371e+00,1.342436671257019043e-01,-2.700190544128417969e+00,3.962544798851013184e-01
-7.891470193862915039e-01,-5.270246267318725586e-01,1.400963366031646729e-01,-1.814403176307678223e+00,-1.831168234348297119e-01,-2.407169342041015625e+00,-1.251894354820251465e+00,-3.470801711082458496e-01,-1.785452514886856079e-01,-3.389404416084289551e-01
-2.134571373462677002e-01,-1.016341090202331543e+00,-5.231121182441711426e-01,-1.848081350326538086e+00,-1.575743913650512695e+00,7.476459145545959473e-01,5.072349905967712402e-01,-3.116686046123504639e-01,-1.741280555725097656e+00,9.236559867858886719e-01
1.798057854175567627e-01,-2.046426534652709961e+00,-9.475312232971191406e-01,-7.083014249801635742e-01,-2.231694698333740234e+00,3.813067674636840820e-01,-4.915969073772430420e-01,5.713402628898620605e-01,-3.631583154201507568e-01,-1.467836052179336548e-01
1.520145963877439499e-02,-5.880698561668395996e-01,-8.093638420104980469e-01,-1.871542632579803467e-01,-7.259941101074218750e-01,-9.469034075736999512e-01,-9.828491806983947754e-01,-1.510607004165649414e-01,-9.519107341766357422e-01,-8.630509376525878906e-01
-4.622823596000671387e-01,-3.126641213893890381e-01,-1.018691301345825195e+00,-1.496798396110534668e+00,-4.902849197387695312e-01,-1.277986645698547363e+00,9.347689338028430939e-04,-8.469474911689758301e-01,5.520396232604980469e-01,-2.658676505088806152e-01
2.806380018591880798e-02,-5.011506080627441406e-01,2.308220267295837402e-01,-1.951717495918273926e+00,-5.321462154388427734e-01,-2.078158140182495117e+00,3.335294425487518311e-01,-6.951803565025329590e-01,-2.045443296432495117e+00,5.647473931312561035e-01
-4.234806597232818604e-01,-8.696506619453430176e-01,-9.727652072906494141e-01,-1.209998205304145813e-01,-7.126510888338088989e-02,-5.860909223556518555e-01,-1.993470311164855957e+00,-1.799741268157958984e+00,-4.128211438655853271e-01,-2.832691967487335205e-01
-1.098094701766967773e+00,-5.431550741195678711e-01,-3.434052169322967529e-01,4.127898216247558594e-01,-1.966088652610778809e+00,-1.584871292114257812e+00,-7.736915946006774902e-01,-5.865112543106079102e-01,-6.270354390144348145e-01,-2.217710167169570923e-01
1.283765137195587158e-01,-4.159325659275054932e-01,-1.707772135734558105e+00,7.702651023864746094e-01,-5.328625440597534180e-01,-4.711332917213439941e-01,1.520124822854995728e-01,-3.988028168678283691e-01,-8.806054592132568359e-01,-6.671057343482971191e-01
-8.786999583244323730e-01,-2.690467536449432373e-01,-9.449760913848876953e-01,1.557046771049499512e+00,-2.624039053916931152e-01,-2.333018541336059570e+00,6.085865497589111328e-01,-4.202997982501983643e-01,-2.064916849136352539e+00,-5.143618583679199219e-01
-1.297361850738525391e+00,-1.641342163085937500e+00,-1.557088732719421387e+00,-1.153236389160156250e+00,1.298734247684478760e-01,4.826666414737701416e-01,-3.591828048229217529e-01,-6.622453927993774414e-01,2.231340259313583374e-01,-6.521266698837280273e-01
-1.581633090972900391e+00,-2.300735414028167725e-01,-1.282798647880554199e+00,-1.039144873619079590e+00,-6.720427870750427246e-01,-1.568087339401245117e+00,-2.098275274038314819e-01,-1.304568648338317871e+00,3.020638227462768555e-01,-1.408523172140121460e-01
1.015362516045570374e-01,-1.909170031547546387e+00,-5.385158061981201172e-01,3.042340278625488281e-01,-2.492774963378906250e+00,-8.822216987609863281e-01,-3.036477565765380859e-01,1.285761892795562744e-01,-2.052230119705200195e+00,6.059859395027160645e-01
-1.471341252326965332e+00,2.794833481311798096e-01,-1.258167982101440430e+00,-6.874037384986877441e-01,-4.436988532543182373e-01,-1.973206758499145508e+00,9.886493086814880371e-01,-4.429659545421600342e-01,-1.388122141361236572e-01,-3.551335632801055908e-01
-2.294374704360961914e-01,-2.974613308906555176e-01,-2.200459718704223633e+00,-1.007786631584167480e+00,5.130405426025390625e-01,-1.464521408081054688e+00,-6.701351404190063477e-01,1.998386830091476440e-01,-3.167703866958618164e+00,9.821970462799072266e-01
-2.340696573257446289e+00,-1.295331835746765137e+00,-1.918991923332214355e+00,4.978259801864624023e-01,-1.910158246755599976e-01,5.419117212295532227e-01,-1.443600177764892578e+00,-1.383133888244628906e+00,-1.024919450283050537e-01,8.842023015022277832e-01
-2.753444612026214600e-01,1.540820300579071045e-01,9.355022311210632324e-01,-8.378410935401916504e-01,-8.304288983345031738e-01,9.929590225219726562e-01,-1.958411931991577148e+00,-2.434777975082397461e+00,-2.165283918380737305e+00,4.867046475410461426e-01
-8.583979010581970215e-01,-5.502476096153259277e-01,-1.853289902210235596e-01,-6.282365918159484863e-01,-2.694635629653930664e+00,1.519855856895446777e+00,-7.673990726470947266e-01,1.630326271057128906e+00,-1.116960287094116211e+00,-9.494769573211669922e-01
-1.649611145257949829e-01,1.384831786155700684e+00,-6.742007732391357422e-01,-1.799998760223388672e+00,1.456817686557769775e-01,-1.857396811246871948e-01,-7.178120017051696777e-01,7.108160853385925293e-02,-2.499210119247436523e+00,-1.446208357810974121e+00
-1.374221146106719971e-01,-2.373327016830444336e-01,1.360068470239639282e-02,-2.546526908874511719e+00,-1.075117141008377075e-01,-2.595649480819702148e+00,-2.968334555625915527e-01,3.047638386487960815e-02,-1.435639381408691406e+00,-7.578977197408676147e-02
1.716954410076141357e-01,-1.085837125778198242e+00,-1.929347068071365356e-01,-1.249803781509399414e+00,7.646562159061431885e-02,-9.847598671913146973e-01,5.394103527069091797e-01,-6.245272755622863770e-01,-7.866183519363403320e-01,-1.205992221832275391e+00
-1.059694409370422363e+00,-9.045515060424804688e-01,-6.161845922470092773e-01,1.629541516304016113e-01,-2.266765683889389038e-01,-1.559574484825134277e+00,-4.486922919750213623e-01,3.854880630970001221e-01,-6.769672036170959473e-01,-5.056166648864746094e-01
3.210588693618774414e-01,-7.524648904800415039e-01,2.981555759906768799e-01,-3.489188849925994873e-01,-1.703392386436462402e+00,-5.382436513900756836e-01,1.473933756351470947e-01,-1.418217301368713379e+00,-7.025185227394104004e-01,-1.243988275527954102e+00
-1.263891339302062988e+00,5.216770991683006287e-02,-2.081186026334762573e-01,-3.289672434329986572e-01,1.513507246971130371e+00,-1.323640584945678711e+00,-2.033423036336898804e-01,-9.861454367637634277e-02,-1.590094327926635742e+00,-2.403959512710571289e+00
-1.182506456971168518e-01,4.220313429832458496e-01,1.529073566198348999e-01,-7.147524952888488770e-01,-1.058427572250366211e+00,-2.099809408187866211e+00,3.754010200500488281e-01,-2.998328804969787598e-01,-2.073693275451660156e+00,-4.232530295848846436e-01
-1.298434376716613770e+00,-5.964601635932922363e-01,-1.564030647277832031e+00,1.060190796852111816e+00,-9.421362876892089844e-01,8.150082081556320190e-02,4.392788708209991455e-01,-1.751904129981994629e+00,-8.217871189117431641e-01,-8.069015145301818848e-01
-5.962640047073364258e-01,2.429961264133453369e-01,-1.268399953842163086e-01,-1.795813918113708496e+00,-4.802806079387664795e-01,-4.071740806102752686e-01,-5.095519423484802246e-01,-2.401336193084716797e+00,-7.013414502143859863e-01,-1.123998522758483887e+00
-3.951201140880584717e-01,-1.029807090759277344e+00,-9.087885618209838867e-01,-1.451069593429565430e+00,3.906536102294921875e-01,-4.539564847946166992e-01,2.616899907588958740e-01,-1.696661829948425293e+00,-4.159564077854156494e-01,-7.497777342796325684e-01
7.885909080505371094e-02,-1.013068556785583496e+00,1.622084379196166992e-01,1.329971551895141602e-01,-3.580045700073242188e-01,-3.022567033767700195e-01,4.143602401018142700e-02,-1.425170660018920898e+00,-2.636097192764282227e+00,-2.449771642684936523e+00
-5.508282780647277832e-01,-1.402667909860610962e-01,-1.929894834756851196e-01,-9.472314119338989258e-01,-1.010347485542297363e+00,-9.085538983345031738e-01,-1.119716048240661621e+00,-1.170419216156005859e+00,-3.030149638652801514e-01,-1.041233241558074951e-01
1.245792269706726074e+00,-1.710481941699981689e-01,-1.086833477020263672e+00,-4.765627682209014893e-01,-1.056266665458679199e+00,-1.114598155021667480e+00,-2.765094637870788574e-01,1.317374587059020996e+00,-1.190498694777488708e-01,-1.414841175079345703e+00
-1.257030814886093140e-01,-9.403485059738159180e-01,-5.763754621148109436e-02,5.275025963783264160e-02,-9.346259832382202148e-01,-1.663622379302978516e+00,-8.113706707954406738e-01,-3.690367937088012695e-01,-1.183304309844970703e+00,2.146459817886352539e-01
-9.729378819465637207e-01,-1.883421391248703003e-01,-6.151804924011230469e-01,-1.637360215187072754e+00,5.271112546324729919e-02,-1.151472926139831543e+00,1.070338338613510132e-01,-1.377576708793640137e+00,-6.094384789466857910e-01,-8.187027573585510254e-01
-1.139302253723144531e+00,-1.700187325477600098e+00,5.831219553947448730e-01,-1.570708394050598145e+00,-2.162385135889053345e-01,-1.273659825325012207e+00,-1.655082941055297852e+00,-1.932255774736404419e-01,-2.872389256954193115e-01,-2.614030241966247559e-01
-9.859539866447448730e-01,-1.258568286895751953e+00,-1.610381364822387695e+00,-1.148588731884956360e-01,-1.115342020988464355e+00,-1.209291815757751465e-02,-3.118770420551300049e-01,-1.020961999893188477e+00,2.500999867916107178e-01,-7.490395307540893555e-01
-1.071524545550346375e-01,-1.080658555030822754e+00,-5.844892859458923340e-01,-3.070728778839111328e-01,4.687555506825447083e-02,-2.163753509521484375e-01,-4.120343029499053955e-01,-1.022990822792053223e+00,-3.623334765434265137e-01,-1.023272752761840820e+00
-3.930929005146026611e-01,-1.835337400436401367e+00,-4.074208736419677734e-01,-9.902547001838684082e-01,-1.766257286071777344e-01,5.866106227040290833e-02,3.446616828441619873e-01,3.672355413436889648e-01,-1.431305170059204102e+00,-2.605543136596679688e+00
-3.737888485193252563e-02,-4.397310912609100342e-01,-1.550321936607360840e+00,-2.310756921768188477e+00,-9.566893577575683594e-01,8.421586751937866211e-01,2.721785008907318115e-01,-8.522924184799194336e-01,-1.190065070986747742e-01,-3.494058251380920410e-01
-1.549453258514404297e+00,-6.132475733757019043e-01,-1.641197562217712402e+00,1.271629810333251953e+00,2.937376201152801514e-01,8.955949544906616211e-01,-2.363925457000732422e+00,-2.037406682968139648e+00,-3.173336267471313477e+00,1.909271597862243652e+00
-1.413853168487548828e+00,-1.589579820632934570e+00,1.153181120753288269e-01,4.762804806232452393e-01,-8.212299346923828125e-01,-2.428494930267333984e+00,-1.136616706848144531e+00,-1.341192960739135742e+00,3.937361240386962891e-01,-1.305892467498779297e-01
-1.473001599311828613e+00,-3.844266757369041443e-02,-6.292650103569030762e-01,-4.627669453620910645e-01,5.854847431182861328e-01,-4.821462035179138184e-01,-1.256380200386047363e+00,-9.636834263801574707e-01,5.353378653526306152e-01,-6.190567016601562500e-01
-6.024802923202514648e-01,-8.298643231391906738e-01,-2.936808824539184570e+00,-8.305816650390625000e-01,-5.500801205635070801e-01,6.401432156562805176e-01,3.011426031589508057e-01,-3.398840129375457764e-01,-2.075523853302001953e+00,8.685442209243774414e-01
-1.351744383573532104e-01,-4.362829327583312988e-01,1.332670003175735474e-01,-2.110162258148193359e+00,-1.883117318153381348e+00,-1.611499786376953125e-01,2.319887876510620117e-01,-8.996167778968811035e-01,-3.106552660465240479e-01,6.441454589366912842e-02
1.541153192520141602e-01,-9.284263849258422852e-02,4.573808312416076660e-01,-6.388975381851196289e-01,-1.224957823753356934e+00,-1.642971992492675781e+00,-4.648179113864898682e-01,6.604685187339782715e-01,-1.101104378700256348e+00,-1.560419440269470215e+00
-2.228275537490844727e+00,-2.594466507434844971e-01,1.041905164718627930e+00,-1.469871759414672852e+00,-4.973770976066589355e-01,-4.859901219606399536e-02,-8.785098791122436523e-01,-2.965926229953765869e-01,2.062345594167709351e-01,-1.641543865203857422e+00
-4.889037907123565674e-01,-2.028022050857543945e+00,1.358968317508697510e-01,7.602404803037643433e-03,-1.488015770912170410e+00,3.074036836624145508e-01,-1.500241398811340332e+00,-1.719068884849548340e+00,-1.032899171113967896e-01,-1.402813673019409180e+00
-1.666973590850830078e+00,-1.047681719064712524e-01,-1.994178533554077148e+00,-1.930746793746948242e+00,-1.218412443995475769e-01,-1.169797897338867188e+00,3.838976323604583740e-01,-1.486281394958496094e+00,-2.695226073265075684e-01,1.973893791437149048e-01
-1.870267242193222046e-01,-3.095301091670989990e-01,1.244575753808021545e-01,-2.558689713478088379e-01,-2.408041000366210938e+00,-9.436889290809631348e-01,-2.100299835205078125e+00,2.901623547077178955e-01,-6.858597397804260254e-01,-7.009612917900085449e-01
-2.905257344245910645e-01,-6.304040551185607910e-01,-6.872814893722534180e-01,-1.463911682367324829e-01,8.834285736083984375e-01,-9.194663166999816895e-01,-1.996156573295593262e-01,-1.409488677978515625e+00,-2.566529512405395508e+00,-2.377094984054565430e+00
-2.055135726928710938e+00,-6.011934280395507812e-01,4.494378268718719482e-01,-4.449199736118316650e-01,-2.154972404241561890e-02,3.715851008892059326e-01,-2.411927938461303711e+00,-1.776600599288940430e+00,-1.502775073051452637e+00,1.897134333848953247e-01
6.336677670478820801e-01,-9.150617122650146484e-01,9.902012944221496582e-01,-4.713810384273529053e-01,-9.684083461761474609e-01,6.135680153965950012e-02,-7.099025845527648926e-01,-1.351972699165344238e+00,-2.963738679885864258e+00,-6.950166225433349609e-01
-1.701964735984802246e-01,1.842785254120826721e-02,-6.825862526893615723e-01,3.632291257381439209e-01,-7.302497029304504395e-01,3.030623197555541992e-01,-4.848967194557189941e-01,7.173767685890197754e-01,-1.379932761192321777e+00,-1.155025839805603027e+00
-1.937669143080711365e-02,-1.117990732192993164e+00,3.770240843296051025e-01,7.847059369087219238e-01,-2.333168983459472656e+00,-5.972263216972351074e-01,-1.532343268394470215e+00,5.389992594718933105e-01,-6.526494622230529785e-01,-5.232759714126586914e-01
-1.190066576004028320e+00,1.808084249496459961e-01,-7.381180524826049805e-01,4.720055162906646729e-01,-1.121444702148437500e+00,-1.343130350112915039e+00,6.074670553207397461e-01,5.887756943702697754e-01,-1.031251311302185059e+00,-1.900534391403198242e+00
-1.272292494773864746e+00,-4.398623481392860413e-02,-1.044684290885925293e+00,-2.320647090673446655e-01,-1.550502061843872070e+00,-6.823810338973999023e-01,-1.501787900924682617e+00,-7.342762947082519531e-01,-3.231250643730163574e-01,-2.315321005880832672e-02
-1.042622566223144531e+00,-7.161618471145629883e-01,-1.407431662082672119e-01,-1.065586328506469727e+00,-3.775221407413482666e-01,9.193001314997673035e-03,-3.411664664745330811e-01,-2.034723281860351562e+00,-2.341805994510650635e-01,-1.702688694000244141e+00
-1.241268396377563477e+00,-5.449301600456237793e-01,9.847605228424072266e-02,-5.167115945369005203e-03,-2.136048555374145508e+00,5.198817253112792969e-01,6.935213804244995117e-01,-1.296324014663696289e+00,-1.019029617309570312e-01,-2.461193323135375977e+00
-1.185665249824523926e+00,-3.246665298938751221e-01,8.165386319160461426e-01,-8.254650831222534180e-01,-3.178687095642089844e-01,1.951507776975631714e-01,4.369159229099750519e-03,-1.336098074913024902e+00,-1.430254280567169189e-01,-1.533240556716918945e+00
-4.703229367733001709e-01,-9.187865257263183594e-01,-1.341800093650817871e+00,3.385181128978729248e-01,-6.772122383117675781e-01,-1.864293962717056274e-01,-1.223115563392639160e+00,-3.307423889636993408e-01,-8.296658992767333984e-01,4.494928717613220215e-01
9.357392042875289917e-02,-7.233453392982482910e-01,-1.018612906336784363e-01,-1.985470354557037354e-01,-3.587574064731597900e-01,-1.229648292064666748e-01,-1.672410070896148682e-01,-6.211540699005126953e-01,-8.849881589412689209e-02,-2.833124101161956787e-01
-1.181373596191406250e+00,-3.204102814197540283e-01,-1.006632804870605469e+00,-9.356129169464111328e-01,-3.137358725070953369e-01,-7.443869113922119141e-02,-5.046958327293395996e-01,-3.203147053718566895e-01,2.465885579586029053e-01,1.455682516098022461e-01
1.245196834206581116e-01,3.255309760570526123e-01,-2.610161006450653076e-01,4.515139758586883545e-01,-1.892599225044250488e+00,-1.151795506477355957e+00,-1.267556548118591309e-01,-3.638101816177368164e-01,-9.555211067199707031e-01,-9.132735133171081543e-01
-5.762319564819335938e-01,-4.231185913085937500e-01,1.581058353185653687e-01,-2.328290700912475586e+00,-7.104799151420593262e-01,-5.437169671058654785e-01,-1.490246295928955078e+00,3.022656440734863281e-01,-1.559887409210205078e+00,-6.446011066436767578e-01
-6.783820390701293945e-01,-1.569808363914489746e+00,7.608969807624816895e-01,-2.645118236541748047e+00,-5.952801108360290527e-01,7.186715602874755859e-01,2.318119257688522339e-01,6.315138936042785645e-02,-1.394003987312316895e+00,-1.008654832839965820e+00
-6.201348900794982910e-01,-5.062942504882812500e-01,-7.545046806335449219e-01,-2.263417482376098633e+00,8.921402096748352051e-01,8.491213321685791016e-01,2.296721488237380981e-01,-9.680957794189453125e-01,1.421198546886444092e-01,-1.231411337852478027e+00
-3.255391716957092285e-01,-1.270424604415893555e+00,-5.064820647239685059e-01,-1.915834397077560425e-01,-2.630901336669921875e+00,-1.243510246276855469e+00,-1.020544767379760742e+00,-6.640594601631164551e-01,-3.766227066516876221e-01,5.647139549255371094e-01
-5.069587826728820801e-01,-8.367433398962020874e-02,-1.429151654243469238e+00,3.446800708770751953e-01,9.780561923980712891e-01,-5.251897573471069336e-01,-9.163524508476257324e-01,-1.393075227737426758e+00,-1.692603945732116699e+00,7.685164213180541992e-01
-2.866755723953247070e-01,-8.890346288681030273e-01,-8.976444005966186523e-01,-4.262410700321197510e-01,-1.959685087203979492e-01,-2.663275599479675293e-01,2.079876214265823364e-01,-8.822404742240905762e-01,-8.889485895633697510e-02,-6.350415945053100586e-01
-5.179545283317565918e-01,-3.714917600154876709e-01,7.233471423387527466e-02,-7.242425680160522461e-01,2.768645621836185455e-02,-1.815876066684722900e-01,-1.118323445320129395e+00,6.684558093547821045e-02,-1.847651600837707520e+00,-1.434957623481750488e+00
-1.063224434852600098e+00,1.359234154224395752e-01,-1.480673074722290039e+00,-6.383518129587173462e-02,-3.022668659687042236e-01,-8.658915162086486816e-01,-1.917547702789306641e+00,-2.178487181663513184e-01,-5.625139474868774414e-01,-1.899968534708023071e-01
-1.261177659034729004e-01,-4.850636422634124756e-01,1.041836261749267578e+00,-6.305502653121948242e-01,-1.303589820861816406e+00,-1.017501831054687500e+00,-1.256288886070251465e+00,-4.878587424755096436e-01,-2.010710835456848145e-01,-2.045311927795410156e+00
1.211255431175231934e+00,1.426073193550109863e+00,9.914757683873176575e-03,-2.541533231735229492e+00,-2.265139669179916382e-02,-7.910373210906982422e-01,-7.875000238418579102e-01,-2.011316716670989990e-01,-2.852523088455200195e+00,1.897707022726535797e-02
-5.371562242507934570e-01,-4.688038229942321777e-01,-6.615939736366271973e-01,-3.533815965056419373e-02,-5.249221920967102051e-01,8.197844028472900391e-02,-8.969620466232299805e-01,-1.590017795562744141e+00,2.577003538608551025e-01,-4.195480942726135254e-01
4.019221663475036621e-01,-1.863680034875869751e-01,2.178950756788253784e-01,-2.335380315780639648e+00,6.157238483428955078e-01,-2.196135759353637695e+00,-1.872865200042724609e+00,-3.851141035556793213e-01,-1.280097842216491699e+00,8.183824419975280762e-01
-2.887937724590301514e-01,4.011754095554351807e-01,8.568778038024902344e-01,-8.907878398895263672e-01,-1.345747590065002441e+00,-4.508922100067138672e-01,-5.966937169432640076e-02,-1.605576753616333008e+00,-7.922376990318298340e-01,-4.519695341587066650e-01
-1.149248838424682617e+00,-1.437277913093566895e+00,-3.711259663105010986e-01,-3.988737165927886963e-01,-4.975486397743225098e-01,-2.252999305725097656e+00,-1.416566729545593262e+00,-6.812548637390136719e-01,6.632859706878662109e-01,5.411300342530012131e-03
-1.152549147605895996e+00,-6.475239396095275879e-01,-4.150442481040954590e-01,-9.998303055763244629e-01,-3.131227195262908936e-01,-1.434943079948425293e-01,-1.116862297058105469e+00,-3.273892998695373535e-01,-2.125203013420104980e-01,-3.373357057571411133e-01
1.063683629035949707e-01,-8.208135366439819336e-01,5.788963437080383301e-01,4.353093355894088745e-02,-1.054714322090148926e+00,-5.714516043663024902e-01,-1.176485896110534668e+00,-6.073076725006103516e-01,6.363485008478164673e-02,-1.356397151947021484e+00
1.585693210363388062e-01,-1.012747764587402344e+00,-1.491196274757385254e+00,-6.820144057273864746e-01,-2.700848281383514404e-01,-8.179937005043029785e-01,4.315402209758758545e-01,-1.594968080520629883e+00,-3.542755544185638428e-01,-1.730026960372924805e+00
-1.365316987037658691e+00,-4.910949170589447021e-01,9.510428905487060547e-01,-3.444690629839897156e-02,-1.951429963111877441e+00,3.783695399761199951e-01,-7.335742115974426270e-01,4.250162839889526367e-01,-1.421933889389038086e+00,-2.551155328750610352e+00
-5.498760342597961426e-01,-1.198976397514343262e+00,-9.086613059043884277e-01,-1.473716199398040771e-01,-1.818790912628173828e+00,-1.279229521751403809e+00,-2.664587460458278656e-03,-1.212780714035034180e+00,-7.926972508430480957e-01,3.244469463825225830e-01
-6.645135283470153809e-01,3.038131259381771088e-02,4.581073299050331116e-02,-2.692966759204864502e-01,-1.976290941238403320e+00,6.208194494247436523e-01,7.991886734962463379e-01,-1.772137761116027832e+00,-1.393194317817687988e+00,-1.869407594203948975e-01
5.907519459724426270e-01,-5.056949704885482788e-02,-1.743027925491333008e+00,-1.128378629684448242e+00,-1.144069433212280273e+00,-1.162215113639831543e+00,-1.231435298919677734e+00,6.442975997924804688e-01,-1.284066736698150635e-01,4.621002674102783203e-01
-8.481433391571044922e-01,6.036264449357986450e-02,-5.636199712753295898e-01,1.970655322074890137e-01,5.804567337036132812e-01,-1.908058524131774902e+00,-1.824241399765014648e+00,-1.287927746772766113e+00,-7.143449187278747559e-01,-3.328950703144073486e-01
-1.466784954071044922e+00,-8.219046592712402344e-01,1.822389811277389526e-01,-7.798497080802917480e-01,1.669973582029342651e-01,-1.194666028022766113e+00,-5.529618859291076660e-01,-2.137151718139648438e+00,-2.031289577484130859e+00,8.317267894744873047e-01
-8.065414428710937500e-01,5.697703957557678223e-01,-1.850177645683288574e+00,-1.667820930480957031e+00,-1.855217814445495605e-01,1.564790010452270508e-01,-1.607420206069946289e+00,-6.207920908927917480e-01,-1.703492164611816406e+00,8.214774131774902344e-01
-6.746834516525268555e-01,-1.104455709457397461e+00,-8.288905620574951172e-01,-6.303868889808654785e-01,-1.622537851333618164e+00,-1.006206989288330078e+00,-1.844720542430877686e-02,-5.389148592948913574e-01,5.832039713859558105e-01,3.457225263118743896e-01
1.521743983030319214e-01,-1.596735954284667969e+00,-1.352842926979064941e+00,-7.292225360870361328e-01,-3.271242678165435791e-01,-9.622700810432434082e-01,-4.377204179763793945e-02,-2.509402036666870117e-01,-2.083225727081298828e+00,-1.168190613389015198e-01
-9.816198945045471191e-01,-8.847869038581848145e-01,-5.389744639396667480e-01,1.491567958146333694e-02,-4.926723539829254150e-01,-6.945500522851943970e-02,-8.181650638580322266e-01,-2.680063247680664062e-01,1.600569933652877808e-01,-6.249817609786987305e-01
-1.875043153762817383e+00,5.569462776184082031e-01,5.705021619796752930e-01,-1.455268859863281250e-01,-4.062775969505310059e-01,-1.664453148841857910e+00,1.207759827375411987e-01,-8.747678399085998535e-01,-1.080443263053894043e+00,-2.791937112808227539e+00
-1.153517842292785645e+00,-5.445376038551330566e-01,-1.048650741577148438e+00,8.264545351266860962e-02,-1.328566193580627441e+00,-2.902573533356189728e-02,1.446398198604583740e-01,-1.578204870223999023e+00,3.037621974945068359e-01,-1.133712410926818848e+00
-5.017591118812561035e-01,-1.381747275590896606e-01,-8.605316877365112305e-01,1.734470389783382416e-02,-1.341417789459228516e+00,-6.715410947799682617e-01,4.675074219703674316e-01,-1.386726140975952148e+00,3.227019309997558594e-02,-7.201146483421325684e-01
-1.868235468864440918e-01,1.870923042297363281e+00,-1.507656097412109375e+00,1.029495075345039368e-01,2.102964162826538086e+00,-9.399754405021667480e-01,-3.421834409236907959e-01,-2.092465907335281372e-01,-2.170638799667358398e+00,-2.570447921752929688e+00
-2.004578828811645508e+00,-7.884911028668284416e-04,-4.499231278896331787e-01,5.337033793330192566e-02,-3.367945551872253418e-01,-1.927602171897888184e+00,-1.668626189231872559e+00,-1.105975508689880371e+00,2.918682694435119629e-01,9.075636416673660278e-02
-4.311622083187103271e-01,-1.618428468704223633e+00,-1.425285339355468750e+00,-1.446511894464492798e-01,-5.705011487007141113e-01,-6.047544479370117188e-01,-1.592590808868408203e+00,1.804937869310379028e-01,5.320562981069087982e-03,-5.166535377502441406e-01
-7.150773406028747559e-01,3.953296691179275513e-02,7.096606492996215820e-01,5.780503153800964355e-01,3.911229968070983887e-01,-5.472422242164611816e-01,-1.861387848854064941e+00,-2.008047550916671753e-01,-1.224323511123657227e+00,-1.652657389640808105e+00
-1.850615143775939941e+00,-4.218429327011108398e-01,-1.436336338520050049e-01,-8.511201739311218262e-01,-4.292846098542213440e-02,-5.706661343574523926e-01,4.180015251040458679e-02,-1.465469598770141602e+00,-3.190187513828277588e-01,-4.562625288963317871e-01
-7.744608521461486816e-01,6.726257801055908203e-01,-2.318211317062377930e+00,-2.266080856323242188e+00,-1.628410100936889648e+00,7.432558536529541016e-01,-1.248779818415641785e-01,-7.306606173515319824e-01,-9.170046448707580566e-01,-9.898496419191360474e-02
-7.793650627136230469e-01,1.027219414710998535e+00,1.238611221313476562e+00,-4.971179664134979248e-01,-1.228836894035339355e+00,2.088353037834167480e-01,-5.057063102722167969e-01,-1.334870100021362305e+00,-2.067095041275024414e+00,-1.046779513359069824e+00
-5.898607969284057617e-01,-1.002753734588623047e+00,-4.596972763538360596e-01,-4.824152886867523193e-01,-5.874992012977600098e-01,-3.536407649517059326e-01,-2.273382425308227539e+00,-4.486960768699645996e-01,-9.123250842094421387e-02,-1.261175572872161865e-01
4.628499746322631836e-01,-6.262412071228027344e-01,1.257098615169525146e-01,-2.408750772476196289e+00,-1.331248402595520020e+00,-7.548043727874755859e-01,-6.288894414901733398e-01,-7.899366617202758789e-01,1.330526828765869141e+00,-1.724655270576477051e+00
-9.584037661552429199e-01,-6.545909214764833450e-03,-8.469704985618591309e-01,-1.918248176574707031e+00,-3.413632214069366455e-01,-1.984068274497985840e+00,1.252667903900146484e+00,-8.536217212677001953e-01,-1.219045162200927734e+00,7.323204278945922852e-01
5.527067184448242188e-01,4.115870893001556396e-01,-2.148966312408447266e+00,-9.603064060211181641e-01,3.482187688350677490e-01,-9.314596056938171387e-01,4.956012070178985596e-01,1.490608453750610352e+00,-1.290775895118713379e+00,-2.084496974945068359e+00
-3.328106403350830078e-01,-7.743502855300903320e-01,6.943382024765014648e-01,-2.500804662704467773e-01,-8.904705047607421875e-01,-5.414341092109680176e-01,-4.036028087139129639e-01,-1.760054826736450195e+00,-5.368471518158912659e-02,3.999818116426467896e-02
8.160641044378280640e-02,-1.882761359214782715e+00,-2.814371883869171143e-01,-6.302523016929626465e-01,-4.672605693340301514e-01,-7.305310964584350586e-01,2.285187691450119019e-01,-4.891638457775115967e-01,-2.016297101974487305e+00,-1.177169680595397949e+00
6.897510290145874023e-01,-8.217308521270751953e-01,-5.266923308372497559e-01,-1.075189113616943359e+00,-1.272265553474426270e+00,-1.338670015335083008e+00,-6.920320391654968262e-01,-1.860653012990951538e-01,-1.206613302230834961e+00,-9.200869202613830566e-01
-1.917499899864196777e+00,-1.527459025382995605e+00,-1.401903748512268066e+00,-3.700845539569854736e-01,1.034256666898727417e-01,5.155556797981262207e-01,1.524812579154968262e-01,-7.351533770561218262e-01,2.367151975631713867e-01,-1.370311737060546875e+00
-1.471959948539733887e+00,2.450254261493682861e-01,9.725559949874877930e-01,-1.987949728965759277e+00,3.944381773471832275e-01,-7.641276717185974121e-01,2.307785749435424805e-01,-6.919211745262145996e-01,-1.528849363327026367e+00,-2.709546566009521484e+00
-1.150304794311523438e+00,-4.833447933197021484e-01,-2.233211517333984375e+00,1.225842595100402832e+00,5.509601235389709473e-01,7.585448622703552246e-01,-1.788942098617553711e+00,-1.079736113548278809e+00,-1.762202620506286621e+00,4.140031039714813232e-01
-6.639360189437866211e-01,2.292116917669773102e-02,2.520716190338134766e-01,-2.436413526535034180e+00,-2.290135174989700317e-01,-1.079105615615844727e+00,-7.285281270742416382e-02,4.793150722980499268e-02,2.787405252456665039e-01,-2.668681383132934570e+00
-5.137415528297424316e-01,-7.471364736557006836e-01,-1.397827982902526855e+00,-9.266808032989501953e-01,-3.799973130226135254e-01,6.139349937438964844e-01,-1.427914798259735107e-01,-2.061130255460739136e-01,1.445918995887041092e-02,-2.265514731407165527e-01
-1.053807586431503296e-01,-7.846096158027648926e-01,5.267774462699890137e-01,4.517278671264648438e-01,-1.232900619506835938e+00,-1.367299914360046387e+00,2.809391021728515625e-01,5.081878975033760071e-02,-8.605986833572387695e-01,-1.050268888473510742e+00
1.105437576770782471e-01,-1.271725773811340332e+00,4.282500743865966797e-01,-2.181092977523803711e+00,-1.999183177947998047e+00,-2.094682931900024414e+00,-1.626065187156200409e-02,-9.726793169975280762e-01,1.192905545234680176e+00,-9.228159785270690918e-01
-1.234694123268127441e+00,-1.170887470245361328e+00,-7.351804375648498535e-01,7.385816425085067749e-02,-9.793304204940795898e-01,-6.954170465469360352e-01,9.918961673974990845e-02,-1.108298778533935547e+00,-5.611004829406738281e-01,-6.444468498229980469e-01
-1.585740923881530762e+00,-1.302519559860229492e+00,-1.750759601593017578e+00,-7.021118700504302979e-02,-3.127062916755676270e-01,-7.678977847099304199e-01,-1.086078763008117676e+00,7.082204520702362061e-02,-6.957758665084838867e-01,1.268008351325988770e-01
-2.073504924774169922e+00,-4.479019641876220703e-01,-3.386967480182647705e-01,-8.810873627662658691e-01,-1.260578274726867676e+00,4.447780251502990723e-01,-1.567099571228027344e+00,4.360137581825256348e-01,-2.551151514053344727e-01,-2.000505685806274414e+00
-1.244970917701721191e+00,-6.934577822685241699e-01,-1.114699006080627441e+00,1.515259146690368652e-01,-6.338650584220886230e-01,-5.131611227989196777e-01,-1.077714681625366211e+00,1.968536674976348877e-01,-1.423604011535644531e+00,-1.198615193367004395e+00
-8.729416131973266602e-01,1.348136544227600098e+00,-1.588491439819335938e+00,-8.132529854774475098e-01,-1.130000233650207520e+00,1.241479158401489258e+00,1.043934598565101624e-01,-3.908658921718597412e-01,-9.119010567665100098e-01,-9.335089325904846191e-01
-2.657856643199920654e-01,-1.463517189025878906e+00,6.178237870335578918e-02,1.020264863967895508e+00,-1.330405116081237793e+00,-8.944201469421386719e-01,8.238772153854370117e-01,-1.105667114257812500e+00,-1.994748115539550781e+00,2.412122189998626709e-01
3.367662429809570312e-02,-1.694800972938537598e+00,-5.035719871520996094e-01,-1.928669810295104980e+00,-3.010731376707553864e-02,-1.194586515426635742e+00,2.089133262634277344e-01,-2.828517928719520569e-02,-9.409720301628112793e-01,-6.790704131126403809e-01
-6.383848190307617188e-01,-2.102185487747192383e-01,-1.893473267555236816e+00,-1.340117692947387695e+00,-2.704785168170928955e-01,-1.136559486389160156e+00,1.165456473827362061e-01,-5.932198166847229004e-01,-7.877799868583679199e-01,-5.269658565521240234e-01
-7.801892161369323730e-01,-1.115516543388366699e+00,-1.193264126777648926e+00,-7.568375468254089355e-01,-2.419979125261306763e-01,-8.181086778640747070e-01,-2.610609829425811768e-01,-8.930078744888305664e-01,-1.809456348419189453e-01,-1.889802217483520508e-01
-1.144798040390014648e+00,5.152590274810791016e-01,4.105651974678039551e-01,-1.360163211822509766e+00,-8.116757869720458984e-01,-2.138631105422973633e+00,-8.375598788261413574e-01,-1.562394648790359497e-01,1.308355450630187988e+00,-2.842017173767089844e+00
6.047784090042114258e-01,-6.391054950654506683e-03,-2.288061618804931641e+00,-6.599828600883483887e-01,1.503201425075531006e-01,-1.013571262359619141e+00,3.522960841655731201e-01,8.786004781723022461e-01,-1.943765282630920410e+00,-6.834502816200256348e-01
-5.889304876327514648e-01,-1.896982192993164062e-01,9.278049468994140625e-01,-1.705355525016784668e+00,-3.447901010513305664e-01,-2.560559272766113281e+00,-1.109733343124389648e+00,-5.748703330755233765e-02,-1.253700017929077148e+00,3.775989413261413574e-01
-1.094781517982482910e+00,-6.227616071701049805e-01,-7.996989488601684570e-01,-7.694201469421386719e-01,-1.540641933679580688e-01,5.282050371170043945e-01,-2.916889429092407227e+00,4.102298915386199951e-01,-2.193283319473266602e+00,-2.935966849327087402e-01
-1.574480175971984863e+00,-1.760471165180206299e-01,-1.181648969650268555e-01,-1.517213463783264160e+00,3.257867097854614258e-01,-3.572967350482940674e-01,4.240922629833221436e-02,-9.767425060272216797e-01,-4.297500252723693848e-01,-9.880187511444091797e-01
6.306475996971130371e-01,1.584819793701171875e+00,-1.790307044982910156e+00,1.877515614032745361e-01,-4.729304611682891846e-01,-2.149269342422485352e+00,2.428884655237197876e-01,-3.366611003875732422e-01,-1.617488145828247070e+00,-1.228313326835632324e+00
-1.661730527877807617e+00,-8.581250905990600586e-01,-1.559956312179565430e+00,-1.966877341270446777e+00,-1.971156239509582520e+00,2.115540027618408203e+00,9.582251906394958496e-01,3.155235648155212402e-01,-9.966682791709899902e-01,-4.115425646305084229e-01
-8.105429410934448242e-01,-1.650336384773254395e-01,8.360137343406677246e-01,1.304220914840698242e+00,-2.704937934875488281e+00,-1.011949062347412109e+00,-2.182882070541381836e+00,1.501491427421569824e+00,-1.731213092803955078e+00,-2.199588775634765625e+00
-4.868000149726867676e-01,-8.221250176429748535e-01,-7.801205515861511230e-01,-1.530108094215393066e+00,2.906170487403869629e-01,7.004285454750061035e-01,3.034125864505767822e-01,-4.970662593841552734e-01,2.822347581386566162e-01,-2.137353181838989258e+00
-1.242187470197677612e-01,-4.299010932445526123e-01,-9.890230298042297363e-01,-1.889546811580657959e-01,-3.104335069656372070e-01,-5.698238015174865723e-01,1.722082495689392090e-01,-1.633604526519775391e+00,-4.869094192981719971e-01,-2.302411317825317383e+00
-1.940986514091491699e+00,-1.073917388916015625e+00,-4.332789778709411621e-01,-5.537317395210266113e-01,-1.886268705129623413e-02,6.029194593429565430e-01,-4.529757499694824219e-01,-5.865202546119689941e-01,-8.658121824264526367e-01,1.182116046547889709e-01
4.163655638694763184e-01,-8.199378848075866699e-01,1.180957928299903870e-01,-6.006067991256713867e-01,-2.397302538156509399e-01,-9.904441833496093750e-01,-9.993050098419189453e-01,-5.219110846519470215e-01,5.000045523047447205e-02,-3.459504246711730957e-01
-1.393003582954406738e+00,5.604461953043937683e-02,-4.992288351058959961e-01,-6.167662143707275391e-01,-9.182092547416687012e-01,-3.116869032382965088e-01,-3.140533268451690674e-01,-2.099883794784545898e+00,5.484857559204101562e-01,2.179354988038539886e-02
-5.481225848197937012e-01,-5.477315783500671387e-01,-4.499411880970001221e-01,3.129303753376007080e-01,-1.536816507577896118e-01,-2.844141423702239990e-02,-4.652403593063354492e-01,-1.627352714538574219e+00,-4.284655749797821045e-01,-6.681000590324401855e-01
1.968634128570556641e-02,-6.117209792137145996e-01,-1.183992862701416016e+00,-1.960734009742736816e+00,-2.721689939498901367e-01,-1.011318325996398926e+00,-2.263397693634033203e+00,1.211245208978652954e-01,-7.341076135635375977e-01,-4.373358190059661865e-01
-1.036075949668884277e-01,2.124369889497756958e-01,-8.612241148948669434e-01,-4.403051733970642090e-01,1.311687350273132324e+00,-5.440229773521423340e-01,-1.406206846237182617e+00,7.889600992202758789e-01,-9.445796608924865723e-01,-1.915148258209228516e+00
6.125538349151611328e-01,-7.545448541641235352e-01,-2.982843853533267975e-02,7.353527545928955078e-01,-1.672204613685607910e+00,7.059677243232727051e-01,-6.170821189880371094e-01,-1.018372178077697754e+00,-2.139673709869384766e+00,-6.959342360496520996e-01
-2.522536218166351318e-01,-9.000008702278137207e-01,-8.968949913978576660e-01,1.130002066493034363e-01,-1.480504751205444336e+00,1.190408878028392792e-02,-1.560617238283157349e-01,-3.812189996242523193e-01,1.319486498832702637e-01,-4.143279790878295898e-01
-1.387707591056823730e+00,-1.227707505226135254e+00,-1.121699064970016479e-01,-4.343566894531250000e-01,-2.788880467414855957e-01,2.725478112697601318e-01,-1.311828732490539551e+00,-1.286450028419494629e-01,-4.261603355407714844e-01,-8.124856352806091309e-01
-1.535780280828475952e-01,8.673712611198425293e-02,-9.776166826486587524e-02,-2.513108551502227783e-01,-7.775746583938598633e-01,3.612828254699707031e-01,9.524944238364696503e-03,1.515119433403015137e+00,-2.005845069885253906e+00,-2.601493835449218750e+00
-5.870665907859802246e-01,4.106765389442443848e-01,-1.791674017906188965e+00,-1.628393769264221191e+00,-1.951011896133422852e+00,-1.706888526678085327e-01,-1.313794016838073730e+00,-1.144329681992530823e-01,-8.868802785873413086e-01,7.004086375236511230e-01
1.756529510021209717e-01,-1.522507309913635254e+00,-1.531904697418212891e+00,-4.093076586723327637e-01,-5.035511255264282227e-01,3.486719429492950439e-01,-3.486489653587341309e-01,-1.784617185592651367e+00,-1.271433830261230469e-01,1.601775735616683960e-01
-4.761316776275634766e-01,8.922995924949645996e-01,7.255877852439880371e-01,-1.557097792625427246e+00,-4.252771139144897461e-01,-1.957170248031616211e+00,-8.836926817893981934e-01,-4.351468384265899658e-01,-1.316247224807739258e+00,2.059043943881988525e-01
-2.422140687704086304e-01,-4.190079122781753540e-02,-9.267250299453735352e-01,-4.289020299911499023e-01,-6.731697320938110352e-01,-1.725196093320846558e-01,-1.333300352096557617e+00,-5.440641045570373535e-01,5.414505302906036377e-02,1.934170573949813843e-01
-1.870272308588027954e-01,-2.744130492210388184e-01,-2.957961559295654297e-01,-3.656429052352905273e-01,-1.464715003967285156e+00,-8.730907440185546875e-01,-7.277829051017761230e-01,-1.387998819351196289e+00,-2.409742772579193115e-01,-1.583768248558044434e+00
-6.330595016479492188e-01,-7.832517027854919434e-01,1.053046733140945435e-01,1.966599933803081512e-02,-6.871568411588668823e-02,-8.587517738342285156e-01,-2.491715997457504272e-01,-1.044570565223693848e+00,-2.559247985482215881e-02,-1.020599126815795898e+00
-9.442245364189147949e-01,8.776900172233581543e-01,-6.393757462501525879e-01,-2.660544514656066895e-01,9.367304444313049316e-01,-1.280306577682495117e+00,2.894572615623474121e-01,-2.987440228462219238e-01,-1.704429149627685547e+00,-8.929334878921508789e-01
-4.583008289337158203e-01,-2.737388908863067627e-01,-1.393236756324768066e+00,-1.877576351165771484e+00,2.291686981916427612e-01,9.055960178375244141e-01,-8.315286636352539062e-01,2.050542086362838745e-01,-1.210019230842590332e+00,-4.179226234555244446e-02
-8.048815131187438965e-01,-6.844664812088012695e-01,-1.629537463188171387e+00,-4.203715324401855469e-01,-3.203135728836059570e-01,-1.578140407800674438e-01,-1.494558811187744141e+00,-2.002436220645904541e-01,-2.161450237035751343e-01,-1.204696774482727051e+00
9.349223375320434570e-01,-3.565682172775268555e-01,7.395198941230773926e-01,9.367381930351257324e-01,-8.302107453346252441e-01,-2.029830694198608398e+00,-1.790782690048217773e+00,-2.299430370330810547e-01,-1.809705376625061035e+00,-4.598264694213867188e-01
-2.679728865623474121e-01,-7.161620259284973145e-01,-2.386015504598617554e-01,-8.066026866436004639e-02,-6.187300682067871094e-01,-2.235921621322631836e-01,-3.183672949671745300e-02,-1.543521642684936523e+00,-2.955915629863739014e-01,-3.473333120346069336e-01
-4.030132293701171875e-01,-4.651145935058593750e-01,-4.115079641342163086e-01,-3.359057605266571045e-01,-2.082062721252441406e+00,5.261808037757873535e-01,-1.291005730628967285e+00,1.005962640047073364e-01,-7.816942930221557617e-01,5.729115605354309082e-01
-2.556100189685821533e-01,-1.080198526382446289e+00,-2.937955968081951141e-02,-6.365337967872619629e-02,-6.945683956146240234e-01,-5.420374870300292969e-01,-5.844893455505371094e-01,-7.736393213272094727e-01,-6.292854249477386475e-02,2.003037482500076294e-01
4.214271903038024902e-01,1.473633944988250732e-01,-8.232967257499694824e-01,-1.990184545516967773e+00,-1.365725636482238770e+00,-2.338737964630126953e+00,1.762248426675796509e-01,-1.973380744457244873e-01,3.348531126976013184e-01,-1.690215229988098145e+00
-5.500319004058837891e-01,1.167969107627868652e-01,-5.165393352508544922e-01,-3.940888166427612305e+00,1.152888178825378418e+00,-2.185155630111694336e+00,-8.564683794975280762e-01,1.260731577873229980e+00,-1.055941224098205566e+00,-6.050642728805541992e-01
-4.060694873332977295e-01,-8.374078571796417236e-02,-2.500436544418334961e+00,1.154684945940971375e-01,-1.086511731147766113e+00,-2.850791811943054199e-01,-9.714025259017944336e-01,3.228006418794393539e-03,-1.515682935714721680e+00,-6.149149537086486816e-01
-9.042845368385314941e-01,-2.724549174308776855e-01,-1.849996209144592285e+00,-3.163566291332244873e-01,-1.148346066474914551e+00,-6.273252964019775391e-01,-9.638755321502685547e-01,1.362080872058868408e-01,-2.413357347249984741e-01,-1.097240090370178223e+00
-1.620478749275207520e+00,-4.995639324188232422e-01,-2.796235084533691406e-01,3.492258191108703613e-01,-7.981878519058227539e-01,-1.330823183059692383e+00,-1.082116961479187012e+00,-3.729831427335739136e-02,-5.152251124382019043e-01,-2.569949626922607422e+00
8.770236968994140625e-01,-1.132544636726379395e+00,-1.141169548034667969e+00,-1.144098043441772461e+00,-9.463202357292175293e-01,-2.942966818809509277e-01,1.240306049585342407e-01,-1.630913376808166504e+00,7.288974523544311523e-01,-2.891715057194232941e-02
1.917864531278610229e-01,-2.688983641564846039e-02,-2.825346708297729492e+00,-2.806522846221923828e-01,-1.917409300804138184e+00,3.331474363803863525e-01,9.044475108385086060e-02,-9.291857481002807617e-01,-9.352446794509887695e-01,-7.058287262916564941e-01
-8.217679262161254883e-01,-1.081186890602111816e+00,-1.593267470598220825e-01,-6.766891479492187500e-02,-1.949281334877014160e+00,-1.524788022041320801e+00,-8.847987651824951172e-01,-2.396034449338912964e-02,-9.496314823627471924e-02,5.467873215675354004e-01
3.113069832324981689e-01,-5.417262762784957886e-02,2.007158696651458740e-01,-1.752315521240234375e+00,-1.378972887992858887e+00,-1.435393571853637695e+00,2.532617449760437012e-01,2.728011012077331543e-01,-7.073045969009399414e-01,-9.494423866271972656e-01
-4.362124502658843994e-01,-8.227993249893188477e-01,-3.370461463928222656e+00,-6.114827990531921387e-01,-6.572425961494445801e-01,2.395540177822113037e-01,-7.758245468139648438e-01,-8.824911713600158691e-01,-2.483469098806381226e-01,1.806859970092773438e-01
8.192235231399536133e-02,-1.739983081817626953e+00,5.578455924987792969e-01,-3.917662501335144043e-01,-2.532894611358642578e+00,-3.305884003639221191e-01,-1.022194623947143555e+00,-5.524721741676330566e-01,-2.308009713888168335e-01,-5.587224364280700684e-01
-3.981298804283142090e-01,2.250884324312210083e-01,-9.601684212684631348e-01,-6.936254501342773438e-01,5.688540339469909668e-01,-2.048096179962158203e+00,-3.875498473644256592e-02,-2.208557277917861938e-01,-1.315854549407958984e+00,-1.277143001556396484e+00
-3.831003010272979736e-01,2.122553251683712006e-02,8.247018605470657349e-02,2.566364109516143799e-01,-8.982508182525634766e-01,-3.327004909515380859e+00,-2.095613241195678711e+00,-9.504959732294082642e-02,-1.220785140991210938e+00,-1.719516068696975708e-01
-1.004176855087280273e+00,-1.101534485816955566e+00,1.830472238361835480e-02,1.014069542288780212e-01,-1.749698996543884277e+00,-1.359358072280883789e+00,-1.100318193435668945e+00,5.301376581192016602e-01,-5.848768949508666992e-01,2.854099273681640625e-01
-1.532694220542907715e+00,2.057349681854248047e-01,-1.752740703523159027e-02,-1.328470587730407715e+00,-1.498354673385620117e+00,-3.335396945476531982e-01,5.673055648803710938e-01,-8.026598691940307617e-01,1.827184110879898071e-01,-1.612573266029357910e+00
-2.094383239746093750e-01,-5.731012821197509766e-01,-1.380579710006713867e+00,3.116916120052337646e-01,-7.799884676933288574e-01,8.192811012268066406e-01,8.539173286408185959e-04,-2.905562818050384521e-01,-1.101139664649963379e+00,9.075136482715606689e-02
-1.721959412097930908e-01,-1.465399980545043945e+00,-9.453717470169067383e-01,-2.444972097873687744e-01,-9.325981140136718750e-01,7.832066714763641357e-02,-1.158840894699096680e+00,-3.308647572994232178e-01,-2.950103282928466797e-01,-8.666512370109558105e-01
-9.026684165000915527e-01,-8.457278013229370117e-01,-9.067705273628234863e-01,-3.503599762916564941e-01,-5.436394810676574707e-01,4.032298550009727478e-02,-4.531710147857666016e-01,-1.612742662429809570e+00,-1.510094851255416870e-01,-7.024134993553161621e-01
-1.112757444381713867e+00,1.261855959892272949e-01,-7.316008210182189941e-02,-2.453151941299438477e-01,-1.924086093902587891e+00,-8.034991621971130371e-01,-8.810987472534179688e-01,-1.988554358482360840e+00,3.727211654186248779e-01,5.991663932800292969e-01
-6.664338111877441406e-01,5.550277829170227051e-01,-7.802042961120605469e-01,-1.780048131942749023e+00,3.319835290312767029e-02,-6.492069959640502930e-01,4.098676443099975586e-01,4.410226643085479736e-02,-2.120526075363159180e+00,-1.026482820510864258e+00
3.217923939228057861e-01,-8.660783171653747559e-01,-7.991234660148620605e-01,-1.771425604820251465e+00,-8.310079574584960938e-01,-3.444479405879974365e-02,-1.829848766326904297e+00,-4.323138892650604248e-01,-1.475554555654525757e-01,1.513874530792236328e-01
-1.245316386222839355e+00,-1.015221118927001953e+00,-6.761368513107299805e-01,-5.809457898139953613e-01,-8.942960500717163086e-01,-6.035243868827819824e-01,-8.125331401824951172e-01,-1.141871094703674316e+00,-4.363530874252319336e-01,-6.559850275516510010e-02
-6.076576709747314453e-01,-8.019397854804992676e-01,-9.683458209037780762e-01,1.177991032600402832e-01,-1.435259699821472168e+00,-9.743957519531250000e-01,7.631769776344299316e-02,-5.867577791213989258e-01,1.678268164396286011e-01,-1.165644764900207520e+00
1.789631694555282593e-02,-3.070404231548309326e-01,-7.969425320625305176e-01,-1.313240051269531250e+00,4.282253980636596680e-02,5.089485049247741699e-01,-1.560114264488220215e+00,-5.557920336723327637e-01,-1.144928574562072754e+00,4.817102253437042236e-01
-1.942106127738952637e+00,1.180041208863258362e-02,2.077292501926422119e-01,7.286478877067565918e-01,-6.934900581836700439e-02,-5.418577417731285095e-02,-1.614410877227783203e+00,5.795896053314208984e-01,-1.949014067649841309e+00,-2.528609037399291992e+00
-1.257995963096618652e+00,-6.275464296340942383e-01,-5.242174863815307617e-01,-1.819867193698883057e-01,-3.105205893516540527e-01,-1.755682468414306641e+00,-1.645592212677001953e+00,-5.947301983833312988e-01,-4.924638569355010986e-01,-5.133948326110839844e-01
1.454914361238479614e-01,3.628959953784942627e-01,4.971898496150970459e-01,-6.425966620445251465e-01,-2.350504636764526367e+00,-2.576294660568237305e+00,-5.952042341232299805e-01,3.414967358112335205e-01,-1.307416439056396484e+00,5.673710703849792480e-01
-6.431185603141784668e-01,-1.161435127258300781e+00,-4.555529356002807617e-01,-2.247458219528198242e+00,4.634259045124053955e-01,3.408072292804718018e-01,-1.403937816619873047e+00,-1.788074374198913574e-01,-1.993492722511291504e+00,-1.472609639167785645e+00
-5.659487843513488770e-01,5.768560990691184998e-02,-5.045631527900695801e-01,-5.807139873504638672e-01,1.635286808013916016e+00,-1.350573301315307617e+00,-7.050966024398803711e-01,2.032122611999511719e+00,-9.473403692245483398e-01,-2.864120721817016602e+00
-7.938486933708190918e-01,-9.290432184934616089e-02,-3.110382258892059326e-01,-7.600585818290710449e-01,-9.334983229637145996e-01,-2.921184062957763672e+00,-2.037766933441162109e+00,-5.111489892005920410e-01,-1.054288819432258606e-01,4.626085758209228516e-01
-1.444738984107971191e+00,-1.118766903877258301e+00,-1.461790800094604492e+00,4.936502873897552490e-01,1.383147239685058594e-01,8.375058174133300781e-01,-2.079601287841796875e+00,-6.564812660217285156e-01,-1.339759588241577148e+00,4.894365370273590088e-01
-4.984014332294464111e-01,-1.135092139244079590e+00,-5.149302482604980469e-01,-7.538573145866394043e-01,-7.035769224166870117e-01,-1.492963194847106934e+00,-6.255488395690917969e-01,-3.778408169746398926e-01,-1.239035874605178833e-01,-1.065542221069335938e+00
-1.195308923721313477e+00,1.034160479903221130e-01,-2.097845554351806641e+00,-2.712762117385864258e+00,2.369012683629989624e-02,6.009289622306823730e-01,-5.065078139305114746e-01,-6.227139234542846680e-01,-4.917798638343811035e-01,-8.723297119140625000e-01
1.173993758857250214e-02,-3.224009275436401367e-01,1.876493990421295166e-01,-4.066386222839355469e-01,-1.601548433303833008e+00,-2.687879502773284912e-01,-4.271126687526702881e-01,-2.849132061004638672e+00,-1.523204088211059570e+00,-1.229650974273681641e+00
-1.250753402709960938e+00,-1.337973952293395996e+00,-1.010215759277343750e+00,-2.387712240219116211e+00,-1.123681068420410156e-01,-4.941640421748161316e-02,-5.892690420150756836e-01,-1.527066528797149658e-01,5.007281899452209473e-01,9.507760405540466309e-02
-2.017012834548950195e+00,-1.455888390541076660e+00,-2.173799037933349609e+00,-6.354882121086120605e-01,-3.761788606643676758e-01,4.077000319957733154e-01,-1.700889110565185547e+00,-1.584738969802856445e+00,1.368499994277954102e+00,4.116659164428710938e-01
-7.104585766792297363e-01,-4.978417158126831055e-01,-3.324149608612060547e+00,2.478054165840148926e-01,1.603286713361740112e-02,-6.361272931098937988e-01,-7.581441402435302734e-01,-4.903972148895263672e-01,-7.487079501152038574e-01,2.340660393238067627e-01
