-6.452698111534118652e-01,-2.356746435165405273e+00,-1.064089536666870117e-01,-2.472834885120391846e-01,-6.108095049858093262e-01,-1.869420886039733887e+00,-7.198698520660400391e-01,-9.685463905334472656e-01,-4.136022627353668213e-01,-3.146498799324035645e-01
-1.862401247024536133e+00,-6.639294028282165527e-01,-7.945747375488281250e-01,-7.867278456687927246e-01,-3.670556783676147461e+00,2.062272548675537109e+00,1.142798423767089844e+00,-7.778239846229553223e-01,-9.885818958282470703e-01,3.647178411483764648e-01
-1.371374607086181641e+00,-2.566690444946289062e-01,-1.421829342842102051e+00,-3.108257055282592773e+00,-3.578828275203704834e-01,-2.430181264877319336e+00,7.252344489097595215e-02,-1.632922291755676270e-01,1.686312407255172729e-01,-3.255451917648315430e-01
-2.199643135070800781e+00,-3.016165196895599365e-01,-2.323279142379760742e+00,-2.104029953479766846e-01,8.024719953536987305e-01,1.065087616443634033e-01,-2.584230661392211914e+00,-1.593577504158020020e+00,6.874492168426513672e-01,-9.138900041580200195e-02
2.473958395421504974e-02,-1.308348894119262695e+00,-1.176855921745300293e+00,4.741679728031158447e-01,-2.160478353500366211e+00,-3.725095987319946289e-01,-6.240543127059936523e-01,-2.393331050872802734e+00,-5.160081386566162109e-01,-2.071621656417846680e+00
3.945449888706207275e-01,-1.744110822677612305e+00,-5.296216607093811035e-01,-1.691901564598083496e+00,-3.277721881866455078e+00,6.350445151329040527e-01,-2.511434793472290039e+00,6.534599065780639648e-01,-3.599939942359924316e-01,-2.026475965976715088e-01
-1.266656517982482910e+00,-7.817414402961730957e-01,1.814420670270919800e-01,-4.937169700860977173e-02,4.223631620407104492e-01,-1.837908148765563965e+00,-4.544980227947235107e-01,-1.438490986824035645e+00,-9.777312874794006348e-01,-1.318354606628417969e+00
-2.219837903976440430e+00,-1.223842859268188477e+00,-3.347670137882232666e-01,-1.335906863212585449e+00,-6.383884698152542114e-02,-1.393936038017272949e+00,-8.706365823745727539e-01,-4.601203203201293945e-01,-3.618658304214477539e+00,9.092072397470474243e-02
-2.068690538406372070e+00,2.983033955097198486e-01,-1.775235056877136230e+00,-1.798220634460449219e+00,-1.740701675415039062e+00,2.044104576110839844e+00,1.009261250495910645e+00,1.490152627229690552e-01,-1.729601860046386719e+00,-1.769075274467468262e+00
-1.198042273521423340e+00,-1.357003211975097656e+00,3.073680698871612549e-01,6.692237854003906250e-01,-3.058171510696411133e+00,1.541335582733154297e+00,4.589299261569976807e-01,-1.855765581130981445e+00,-1.113089203834533691e+00,-2.302047252655029297e+00
-1.662412047386169434e+00,-1.344129323959350586e+00,-1.306715846061706543e+00,-2.739933252334594727e+00,-4.032954573631286621e-01,1.199330240488052368e-01,4.279917776584625244e-01,1.726905405521392822e-01,-6.104267239570617676e-01,2.895238101482391357e-01
-1.514636397361755371e+00,-1.659319162368774414e+00,-5.874908566474914551e-01,6.477351784706115723e-01,-2.344966173171997070e+00,-5.167115330696105957e-01,-2.046861410140991211e+00,8.769449591636657715e-02,-9.031581878662109375e-01,2.391483187675476074e-01
-1.587349414825439453e+00,-7.005336284637451172e-01,5.585138797760009766e-01,-3.264078617095947266e+00,-1.493268489837646484e+00,-6.661528944969177246e-01,3.189523518085479736e-01,-1.223183512687683105e+00,1.203623190522193909e-01,-2.173755645751953125e+00
-8.109198808670043945e-01,-2.796009778976440430e-01,-1.888667106628417969e+00,3.146419525146484375e-01,6.419603228569030762e-01,-2.735487699508666992e+00,-1.167291283607482910e+00,-4.449304640293121338e-01,-4.095118999481201172e+00,1.371553301811218262e+00
-1.375669360160827637e+00,7.937785983085632324e-01,-2.369759082794189453e+00,-3.316031217575073242e+00,-1.440068244934082031e+00,3.797100782394409180e-01,8.052331805229187012e-01,-2.943640708923339844e+00,-1.099409341812133789e+00,1.756117463111877441e+00
-2.684829473495483398e+00,-1.135583519935607910e-01,-5.960891246795654297e-01,2.200375646352767944e-01,-1.445942163467407227e+00,-9.348365068435668945e-01,7.688263058662414551e-02,-7.086027879267930984e-03,-1.342894792556762695e+00,-3.123730897903442383e+00
4.042806103825569153e-02,-8.051468729972839355e-01,-1.219331622123718262e+00,-6.239476427435874939e-02,-1.759071469306945801e+00,-8.532858490943908691e-01,-2.687366008758544922e+00,-5.198298692703247070e-01,-1.346026182174682617e+00,7.791455835103988647e-02
1.760729216039180756e-02,-9.354427456855773926e-01,-2.729514837265014648e+00,-3.814221382141113281e+00,8.759329915046691895e-01,7.318878769874572754e-01,-1.007392048835754395e+00,1.194063872098922729e-01,-1.519897580146789551e+00,1.022271513938903809e+00
1.258388608694076538e-01,-4.000633023679256439e-03,-1.249422669410705566e+00,-2.145349025726318359e+00,-6.669921875000000000e-01,-2.777806282043457031e+00,4.938938915729522705e-01,7.087079435586929321e-02,7.570213079452514648e-01,-2.860846519470214844e+00
-1.802172362804412842e-01,-8.642206788063049316e-01,-3.129834651947021484e+00,6.384097337722778320e-01,-1.223226785659790039e+00,-5.757709741592407227e-01,-4.914895892143249512e-01,3.878016471862792969e-01,-9.342846870422363281e-01,-2.681600093841552734e+00
-9.291697144508361816e-01,8.048077672719955444e-02,-2.925702571868896484e+00,-2.943436145782470703e+00,4.701823294162750244e-01,6.474170684814453125e-01,-2.043361902236938477e+00,-1.093704998493194580e-01,-2.713900566101074219e+00,7.325292378664016724e-02
-6.336857676506042480e-01,-5.833572149276733398e-01,-2.332688570022583008e+00,-1.113648772239685059e+00,7.918303459882736206e-02,2.767553031444549561e-01,4.091844558715820312e-01,-3.920508027076721191e-01,-2.333943367004394531e+00,-2.025704622268676758e+00
-4.839318990707397461e-01,-2.372804880142211914e+00,9.774005413055419922e-01,-3.043855428695678711e+00,3.036923408508300781e-01,-1.023605346679687500e+00,4.315180778503417969e-01,-4.469547271728515625e-01,-2.369879245758056641e+00,-2.179397821426391602e+00
5.524630546569824219e-01,-4.772806167602539062e-01,-2.533286571502685547e+00,-1.074243426322937012e+00,-3.566580772399902344e+00,-6.314279437065124512e-01,-1.592818975448608398e+00,8.326940238475799561e-02,-5.735826864838600159e-02,-1.712985485792160034e-01
-1.968907356262207031e+00,-2.614695392549037933e-02,1.068362742662429810e-01,-1.051088869571685791e-01,-6.960863471031188965e-01,-3.172105789184570312e+00,-1.630381703376770020e+00,-1.744985938072204590e+00,-3.445747122168540955e-02,1.317324280738830566e+00
-5.798797011375427246e-01,-1.062355637550354004e+00,-1.044666886329650879e+00,3.883097786456346512e-03,3.972171247005462646e-01,-1.178343057632446289e+00,-1.701560616493225098e+00,-3.468217849731445312e-01,-1.201069951057434082e+00,-1.640869498252868652e+00
7.264865040779113770e-01,-2.634821176528930664e+00,1.777321547269821167e-01,-1.941107630729675293e+00,-5.298581123352050781e-01,-1.060629725456237793e+00,-4.663673639297485352e-01,3.117024004459381104e-01,-1.836228489875793457e+00,-1.334231138229370117e+00
-2.790119886398315430e+00,-1.859410405158996582e+00,-1.926250219345092773e+00,5.770917534828186035e-01,-6.698289513587951660e-01,-1.348833739757537842e-01,-2.143573760986328125e+00,4.239108413457870483e-02,-1.169664859771728516e+00,-1.260984092950820923e-01
-7.220517396926879883e-01,-1.830739617347717285e+00,-1.304637193679809570e+00,-2.185159325599670410e-01,-4.971977472305297852e-01,-1.741274356842041016e+00,-2.194928079843521118e-01,6.820030044764280319e-03,7.331220805644989014e-02,-1.967575073242187500e+00
-1.008851170539855957e+00,-2.000113010406494141e+00,3.949620425701141357e-01,-5.663952231407165527e-02,-4.366902410984039307e-01,-6.077384948730468750e-01,-1.273115754127502441e+00,-5.106042623519897461e-01,-1.508591175079345703e+00,-6.828087568283081055e-01
-1.779083132743835449e+00,-4.378703236579895020e-01,1.381809592247009277e+00,-2.673826217651367188e+00,-3.158132314682006836e+00,8.137763142585754395e-01,1.200687766075134277e+00,-7.409999966621398926e-01,-1.072153329849243164e+00,-1.858438253402709961e+00
-1.637967824935913086e+00,-1.052193999290466309e+00,-8.556708097457885742e-01,3.613303005695343018e-01,-1.629333376884460449e+00,-3.190781921148300171e-02,-2.326669931411743164e+00,5.746194720268249512e-02,-3.555065691471099854e-01,-6.006010174751281738e-01
-2.037219762802124023e+00,-1.192018613219261169e-01,2.039430141448974609e+00,-8.148657083511352539e-01,2.343370765447616577e-01,-1.072400689125061035e+00,-1.022676452994346619e-01,-1.099307656288146973e+00,-1.935061931610107422e+00,-3.417448520660400391e+00
-7.441451549530029297e-01,1.651173084974288940e-02,-2.145975589752197266e+00,-6.142764911055564880e-02,-1.072935461997985840e+00,7.616270333528518677e-02,-3.049509525299072266e+00,4.975936561822891235e-02,-2.282098531723022461e+00,-3.495382666587829590e-01
-9.138868451118469238e-01,-2.598471753299236298e-02,-2.294999837875366211e+00,-3.042597055435180664e+00,-1.889432370662689209e-01,-2.649273157119750977e+00,-2.371275611221790314e-02,-4.262042045593261719e-01,-2.831155955791473389e-01,2.823814563453197479e-02
-3.108313679695129395e-01,5.923669319599866867e-03,-1.979122906923294067e-01,-2.584446668624877930e+00,-9.842409491539001465e-01,-2.544887542724609375e+00,-3.829117864370346069e-02,2.139150500297546387e-01,8.271316885948181152e-01,-2.350347280502319336e+00
-1.818300604820251465e+00,-1.130130529403686523e+00,-2.960000753402709961e+00,-1.591731786727905273e+00,-1.825751811265945435e-01,2.435927629470825195e+00,-1.690399497747421265e-01,-8.297468423843383789e-01,-6.650751233100891113e-01,-1.291212886571884155e-01
-2.644015073776245117e+00,-6.943328976631164551e-01,-1.870422124862670898e+00,3.973707854747772217e-01,-4.452928304672241211e-01,1.504656765609979630e-02,-9.806042313575744629e-01,-1.984805703163146973e+00,4.378947615623474121e-01,-1.682762742042541504e+00
-6.194298863410949707e-01,-1.941553115844726562e+00,-6.826441287994384766e-01,-7.227220386266708374e-02,-1.570057153701782227e+00,-2.252352982759475708e-01,-6.132611036300659180e-01,-5.341647863388061523e-01,-1.420993924140930176e+00,-6.154303550720214844e-01
4.099636077880859375e-01,-5.621779561042785645e-01,-2.279704570770263672e+00,2.343127578496932983e-01,-2.951443195343017578e+00,-4.810221195220947266e-01,-4.480902552604675293e-01,-3.765757679939270020e-01,-1.960849046707153320e+00,-2.848883867263793945e-01
-1.934009045362472534e-01,-5.773804336786270142e-02,5.113375186920166016e-01,-1.124302864074707031e+00,-1.354546189308166504e+00,-4.258679866790771484e+00,-5.851585865020751953e-01,-1.525872647762298584e-01,-2.199524879455566406e+00,6.373142451047897339e-02
-1.672357439994812012e+00,-1.375948041677474976e-01,-2.631784915924072266e+00,1.073095917701721191e+00,4.703498780727386475e-01,8.812046647071838379e-01,-1.668319582939147949e+00,-1.801189303398132324e+00,-3.821971178054809570e+00,1.115249156951904297e+00
-1.094562411308288574e+00,-1.480151176452636719e+00,-2.030356168746948242e+00,2.985848113894462585e-02,-1.781805753707885742e+00,-1.311623692512512207e+00,1.763993501663208008e-01,6.943122297525405884e-02,1.460028052330017090e+00,-2.071357488632202148e+00
-1.102373361587524414e+00,-1.255226254463195801e+00,-1.351640462875366211e+00,-1.550493597984313965e+00,6.125532984733581543e-01,1.384260207414627075e-01,-3.408873379230499268e-01,-2.025674104690551758e+00,-1.028833985328674316e+00,-2.464621067047119141e+00
-3.377768397331237793e-01,-2.436233043670654297e+00,-9.945241212844848633e-01,6.097417473793029785e-01,-1.659590244293212891e+00,6.225016117095947266e-01,-1.386361002922058105e+00,-2.004305601119995117e+00,-1.631230115890502930e+00,7.758497595787048340e-01
-3.115943074226379395e-01,5.520699918270111084e-02,1.137238025665283203e+00,1.156108021736145020e+00,-2.369245052337646484e+00,-2.223846912384033203e+00,-2.137062311172485352e+00,1.490506887435913086e+00,-3.003277778625488281e+00,-3.663595914840698242e+00
2.688772082328796387e-01,-5.734025835990905762e-01,-7.007104158401489258e-01,-3.558200225234031677e-02,-2.141088008880615234e+00,-2.112508535385131836e+00,-8.728367090225219727e-02,-1.933122873306274414e+00,-3.784325420856475830e-01,-3.245858550071716309e-01
-1.683761328458786011e-01,-1.251928687095642090e+00,-4.121657013893127441e-01,6.378903985023498535e-01,-1.943634271621704102e+00,-1.498923748731613159e-01,-3.806425929069519043e-01,-3.108308553695678711e+00,-3.606536239385604858e-02,-1.350821018218994141e+00
-1.837564706802368164e+00,-1.471539378166198730e+00,-1.980187296867370605e+00,4.905230104923248291e-01,-1.823035836219787598e+00,5.816116333007812500e-01,-3.963566124439239502e-01,-1.413315534591674805e+00,5.996408462524414062e-01,-1.849867343902587891e+00
2.341268807649612427e-01,-5.655444264411926270e-01,3.093171417713165283e-01,-1.747799754142761230e+00,-2.475356608629226685e-01,-3.369075298309326172e+00,-5.321448445320129395e-01,-5.853573232889175415e-02,-2.571758031845092773e+00,1.108843445777893066e+00
-8.859357237815856934e-01,-1.405834436416625977e+00,-1.844675987958908081e-01,-1.622484177350997925e-01,-2.033905029296875000e+00,-9.866558909416198730e-01,-1.802312493324279785e+00,-2.365634918212890625e+00,-2.967753410339355469e-01,9.877779483795166016e-01
-6.212177872657775879e-01,-8.017658442258834839e-02,6.478496789932250977e-01,1.587508916854858398e-01,-1.100934386253356934e+00,-3.738983631134033203e+00,-2.403447628021240234e+00,-9.665833115577697754e-01,-1.390047311782836914e+00,3.278867900371551514e-01
-1.354974508285522461e+00,-2.861485257744789124e-02,-4.767093062400817871e-01,4.110739231109619141e-01,-1.273643374443054199e+00,-5.933657288551330566e-01,-2.210566282272338867e+00,3.185417130589485168e-02,-2.092015504837036133e+00,-2.826728820800781250e+00
-2.970526516437530518e-01,4.969979226589202881e-01,-5.275152921676635742e-01,-2.916134357452392578e+00,-2.297254279255867004e-03,3.142926692962646484e-01,-2.171849250793457031e+00,-2.198601961135864258e+00,-4.868592619895935059e-01,-1.171821713447570801e+00
-6.129515171051025391e-01,-1.294670104980468750e+00,7.364941239356994629e-01,1.376540958881378174e-01,-1.766595602035522461e+00,-2.303697347640991211e+00,-1.069237470626831055e+00,-1.254330992698669434e+00,6.107070446014404297e-01,-2.920643329620361328e+00
-6.797403693199157715e-01,-1.820428490638732910e+00,-2.840858459472656250e+00,7.387583702802658081e-02,-7.547987103462219238e-01,-1.463705599308013916e-01,2.004889994859695435e-01,-9.732271432876586914e-01,-1.135021448135375977e-01,-1.468998908996582031e+00
-1.443573236465454102e+00,7.245592474937438965e-01,-2.232985258102416992e+00,-1.388879060745239258e+00,9.250394105911254883e-01,-1.704614400863647461e+00,2.203097045421600342e-01,-2.428776502609252930e+00,-1.212111711502075195e+00,-1.631493568420410156e+00
-2.592203021049499512e-01,-4.428293704986572266e-01,-1.475891113281250000e+00,2.177488058805465698e-02,-1.307181477546691895e+00,-1.797708153724670410e+00,1.026995778083801270e+00,4.682527780532836914e-01,-2.932015180587768555e+00,-1.509397745132446289e+00
-4.973764121532440186e-01,-8.298668265342712402e-01,-7.121716141700744629e-01,-2.662307977676391602e+00,1.511347174644470215e+00,-7.509630918502807617e-01,-3.433372378349304199e-01,-7.153251767158508301e-01,2.311007678508758545e-01,-3.224137544631958008e+00
-8.077571392059326172e-01,-1.562939405441284180e+00,-1.626226425170898438e+00,1.482348144054412842e-01,-4.103896617889404297e-01,-1.039832830429077148e+00,-1.984327316284179688e+00,2.786998450756072998e-01,-4.853078424930572510e-01,-2.286473065614700317e-01
-2.486419677734375000e+00,-1.569277495145797729e-01,-1.630997359752655029e-01,-3.514811396598815918e-01,-7.995322942733764648e-01,-1.965604573488235474e-01,-1.278802752494812012e-01,-1.763188362121582031e+00,-2.586642503738403320e-01,-7.757334709167480469e-01
-2.961175918579101562e+00,-2.054195404052734375e+00,-2.169190347194671631e-01,-5.579624176025390625e-01,5.953494310379028320e-01,2.885743975639343262e-01,-2.193117856979370117e+00,-1.665991902351379395e+00,7.143225073814392090e-01,-6.212850809097290039e-01
-4.863781332969665527e-01,-2.709583759307861328e+00,1.179372668266296387e+00,-1.822250485420227051e+00,-1.933271527290344238e+00,1.080131754279136658e-01,-1.190398573875427246e+00,-2.283077001571655273e+00,-6.673573516309261322e-03,2.789767980575561523e-01
5.273903012275695801e-01,-1.208407759666442871e+00,-1.291772842407226562e+00,-2.792840719223022461e+00,-1.767661094665527344e+00,4.880081117153167725e-01,3.490152955055236816e-01,-1.525556564331054688e+00,4.811099171638488770e-01,-8.477899432182312012e-01
-5.176622271537780762e-01,2.645315825939178467e-01,-2.559940814971923828e+00,-1.949598670005798340e+00,2.413258314132690430e+00,1.193853139877319336e+00,-1.586786238476634026e-03,-5.520535707473754883e-01,-9.658578038215637207e-01,-3.637823581695556641e+00
9.145070612430572510e-02,-9.346349835395812988e-01,-1.559625625610351562e+00,1.078028202056884766e+00,-1.380151152610778809e+00,-2.493649959564208984e+00,6.882790327072143555e-01,-7.549725770950317383e-01,-2.569088935852050781e+00,-6.438809633255004883e-01
-9.592010974884033203e-01,-1.265047669410705566e+00,-2.684884786605834961e+00,-4.466213583946228027e-01,-1.012413740158081055e+00,-1.925207972526550293e+00,-6.945248246192932129e-01,6.782259941101074219e-01,-3.090296983718872070e-01,-1.867750436067581177e-01
-2.574511617422103882e-02,-1.328702569007873535e+00,-3.344464898109436035e-01,-1.418183326721191406e+00,7.738556861877441406e-01,-8.593083024024963379e-01,-1.696934938430786133e+00,-5.625674128532409668e-01,-2.622419357299804688e+00,-2.662737607955932617e+00
-1.059620976448059082e+00,1.420776367187500000e+00,-3.562382459640502930e+00,-1.710174083709716797e+00,-1.413795590400695801e+00,1.220382332801818848e+00,1.301518082618713379e+00,-1.077983021736145020e+00,-2.665904521942138672e+00,-8.171012401580810547e-01
9.221901893615722656e-01,5.202416777610778809e-01,6.910968422889709473e-01,-2.873838841915130615e-01,-4.133262634277343750e-01,-1.491498798131942749e-01,2.422616928815841675e-01,-6.674259901046752930e-02,-3.933475494384765625e+00,-2.994887828826904297e+00
-2.153661251068115234e+00,-6.195902824401855469e-01,8.958054184913635254e-01,1.025055289268493652e+00,-2.238924503326416016e+00,-8.052259683609008789e-01,-7.117679715156555176e-01,1.435582518577575684e+00,-1.206561207771301270e+00,-3.022804021835327148e+00
-2.252495586872100830e-01,-1.512795448303222656e+00,-7.474991083145141602e-01,7.699717283248901367e-01,-3.613927602767944336e+00,6.251687407493591309e-01,-1.538316130638122559e+00,-2.546146512031555176e-01,-2.197082281112670898e+00,7.939633727073669434e-01
-2.173330545425415039e+00,-3.172214925289154053e-01,-1.593280673027038574e+00,-2.389869242906570435e-01,-9.010925143957138062e-02,-2.130410671234130859e-01,-2.883155822753906250e+00,3.505257070064544678e-01,-3.387683928012847900e-01,-1.510436177253723145e+00
-2.844661712646484375e+00,-1.041732653975486755e-01,9.480494856834411621e-01,-1.393397927284240723e+00,-7.173430323600769043e-01,-1.079043388366699219e+00,-1.872223973274230957e+00,-1.153377771377563477e+00,3.269789367914199829e-02,-1.542213797569274902e+00
4.820929765701293945e-01,4.198036789894104004e-01,-1.064407825469970703e+00,-4.754403233528137207e-01,-2.838304519653320312e+00,-3.597463369369506836e-01,6.238518953323364258e-01,-3.284238100051879883e+00,-9.414203763008117676e-01,-1.981605410575866699e+00
-1.003760457038879395e+00,-1.587547421455383301e+00,-1.683411002159118652e+00,-1.528999924659729004e+00,2.904287576675415039e-01,1.022280216217041016e+00,-2.292565822601318359e+00,-9.635449647903442383e-01,-1.091119527816772461e+00,-7.984570860862731934e-01
-8.464444279670715332e-01,1.864910870790481567e-01,-1.937010049819946289e+00,-2.678031682968139648e+00,-5.119857564568519592e-02,-1.573529124259948730e+00,-2.608913421630859375e+00,2.608643174171447754e-01,2.722323536872863770e-01,-9.145306944847106934e-01
-3.305478394031524658e-01,2.030355483293533325e-02,1.114850878715515137e+00,2.566245384514331818e-02,-2.514818906784057617e+00,-2.713794231414794922e+00,-1.440096378326416016e+00,7.546990513801574707e-01,-1.205034613609313965e+00,-1.861050009727478027e+00
-1.668141782283782959e-01,5.187247395515441895e-01,1.051717996597290039e+00,-3.017114877700805664e+00,2.970331013202667236e-01,-1.056288719177246094e+00,-8.099910616874694824e-01,4.119889140129089355e-01,-2.459914922714233398e+00,-1.788135170936584473e+00
-9.445159435272216797e-01,-2.467672348022460938e+00,8.784355521202087402e-01,-1.240777969360351562e+00,-4.202064871788024902e-01,-1.940309286117553711e+00,-5.115706324577331543e-01,-3.242569446563720703e+00,-1.418570280075073242e+00,1.253699898719787598e+00
-5.412063002586364746e-01,-1.267167329788208008e-01,-3.631888151168823242e+00,-5.035438388586044312e-02,4.362039864063262939e-01,1.571463048458099365e-01,-8.450198173522949219e-02,-2.172106981277465820e+00,-1.729227304458618164e+00,9.217693805694580078e-01
-1.164144039154052734e+00,7.592147588729858398e-01,2.252821445465087891e+00,-1.514002084732055664e+00,-2.288494825363159180e+00,-1.658460646867752075e-01,-9.339039325714111328e-01,-9.228547811508178711e-01,-2.463825225830078125e+00,-8.657783865928649902e-01
-7.303488254547119141e-01,-1.106056690216064453e+00,-9.524608850479125977e-01,-2.052327156066894531e+00,-2.615297794342041016e+00,-8.348953127861022949e-01,-1.336295366287231445e+00,-1.168552994728088379e+00,3.340549170970916748e-01,1.662300109863281250e+00
-1.559369444847106934e+00,-2.298162281513214111e-01,-1.884359955787658691e+00,-6.359519064426422119e-02,-1.847019791603088379e+00,-1.073252320289611816e+00,-1.681764006614685059e+00,2.465763539075851440e-01,3.721925914287567139e-01,-9.084070920944213867e-01
-1.187917709350585938e+00,-5.764064192771911621e-01,-9.162903428077697754e-01,-1.263716697692871094e+00,-1.445586442947387695e+00,-1.172307848930358887e+00,-1.238525867462158203e+00,-2.617573738098144531e+00,3.237728476524353027e-01,1.066879153251647949e+00
-1.015025496482849121e+00,6.649688631296157837e-02,9.154447913169860840e-01,-1.346881151199340820e+00,-2.872023582458496094e-01,-1.694646120071411133e+00,-1.847906261682510376e-01,1.595898270606994629e+00,-1.862114071846008301e+00,-3.211211442947387695e+00
-2.062890768051147461e+00,-5.560236573219299316e-01,-1.080800175666809082e+00,-5.194524526596069336e-01,-1.744648456573486328e+00,2.617450952529907227e-01,-7.385089993476867676e-02,9.252698421478271484e-01,-2.350161075592041016e+00,-1.963807225227355957e+00
-1.384554028511047363e+00,-1.420744419097900391e+00,-1.253747344017028809e+00,6.297226548194885254e-01,-3.175514638423919678e-01,-1.363328218460083008e+00,-1.152507781982421875e+00,-4.053910374641418457e-01,-1.550109267234802246e+00,-9.027636647224426270e-01
-1.693732500076293945e+00,8.094693422317504883e-01,1.673607230186462402e+00,-1.806590676307678223e+00,-3.468116819858551025e-01,-3.291292786598205566e-01,-1.123012661933898926e+00,-2.189184904098510742e+00,-7.965376377105712891e-01,-1.793248653411865234e+00
-2.100677728652954102e+00,6.955608129501342773e-01,-7.120395898818969727e-01,2.866689562797546387e-01,1.109145998954772949e+00,-1.131283640861511230e+00,-1.103216171264648438e+00,3.838998675346374512e-01,-2.470037460327148438e+00,-2.908183813095092773e+00
-2.360378980636596680e+00,7.604604363441467285e-01,-1.878558993339538574e-01,8.234624266624450684e-01,1.388453364372253418e+00,-3.511301755905151367e+00,-7.190564870834350586e-01,-1.239119887351989746e+00,-1.246195077896118164e+00,-2.150775194168090820e+00
-8.981386423110961914e-01,-8.328240513801574707e-01,5.883781313896179199e-01,-1.884817004203796387e+00,9.834125638008117676e-02,1.184403896331787109e-01,5.524011701345443726e-02,-3.177746057510375977e+00,7.500906586647033691e-01,-1.904746413230895996e+00
-1.897638201713562012e+00,-2.098736286163330078e+00,-2.032225877046585083e-01,-5.053849816322326660e-01,-2.934994697570800781e-01,-3.846933245658874512e-01,-1.928408145904541016e+00,6.730983257293701172e-01,3.334225714206695557e-02,-1.280474305152893066e+00
-2.386818975210189819e-01,-6.236752867698669434e-01,2.771416902542114258e-01,-3.739501953125000000e+00,-2.245582491159439087e-01,-1.889359354972839355e+00,3.925723135471343994e-01,-1.244940638542175293e+00,1.076141119003295898e+00,-2.870901823043823242e+00
-1.417152523994445801e+00,-2.714281976222991943e-01,-1.822223424911499023e+00,-1.731183767318725586e+00,6.776245832443237305e-01,-9.609956145286560059e-01,-9.617198705673217773e-01,-7.907885909080505371e-01,-3.234141826629638672e+00,-2.684545814990997314e-01
1.962770223617553711e-01,-1.106441020965576172e+00,-3.026003122329711914e+00,5.762026906013488770e-01,-2.826217651367187500e+00,5.777355432510375977e-01,-7.710046172142028809e-01,-8.550841808319091797e-01,6.634007394313812256e-02,-8.335260748863220215e-01
5.406911969184875488e-01,-5.152468085289001465e-01,3.077125549316406250e-01,-2.915119409561157227e+00,1.988250315189361572e-01,-2.943458318710327148e+00,-8.198707699775695801e-01,-1.289225459098815918e+00,-6.340544819831848145e-01,-1.205756902694702148e+00
-1.542170166969299316e+00,2.166740745306015015e-01,-4.074154496192932129e-01,1.015183568000793457e+00,-5.968770384788513184e-01,-4.208355903625488281e+00,-1.485623240470886230e+00,-1.208665128797292709e-02,-2.803318977355957031e+00,9.540460258722305298e-02
-2.218909502029418945e+00,-2.170203208923339844e+00,-1.643816709518432617e+00,-2.117780923843383789e+00,9.334079921245574951e-02,-6.955409049987792969e-01,4.435072541236877441e-01,-2.395884275436401367e+00,4.708992540836334229e-01,2.598186731338500977e-01
-4.699435234069824219e-01,6.065055727958679199e-01,-1.358526498079299927e-01,-1.733771920204162598e+00,-2.049760580062866211e+00,-1.552990436553955078e+00,1.172125458717346191e+00,9.536290764808654785e-01,-2.288187026977539062e+00,-3.044688701629638672e+00
-1.056808531284332275e-01,-1.371387004852294922e+00,7.202304601669311523e-01,-2.211722612380981445e+00,-1.664844632148742676e+00,-2.549809932708740234e+00,3.434722125530242920e-01,-8.030013740062713623e-02,-3.021485209465026855e-01,-1.524184942245483398e+00
6.898839473724365234e-01,-2.305639982223510742e+00,-2.368229255080223083e-02,-2.159197330474853516e+00,-1.345163285732269287e-01,-1.093134999275207520e+00,-1.444439411163330078e+00,-7.193105220794677734e-01,-1.280262947082519531e+00,-4.751954376697540283e-01
1.452025532722473145e+00,-1.118412375450134277e+00,-6.348088979721069336e-01,-2.712158679962158203e+00,-2.660178422927856445e+00,-3.077050209045410156e+00,-7.402401566505432129e-01,-5.713193491101264954e-02,1.299434602260589600e-01,4.590750932693481445e-01
-1.858583331108093262e+00,-9.472836852073669434e-01,-6.493696570396423340e-01,8.653593063354492188e-01,-2.971276760101318359e+00,8.256400227546691895e-01,1.145232394337654114e-01,-2.766004800796508789e+00,-9.353061914443969727e-01,-3.184814155101776123e-01
-5.906408429145812988e-01,-2.098176240921020508e+00,-6.660321354866027832e-01,-1.106799483299255371e+00,-5.373415946960449219e-01,-1.319212198257446289e+00,-2.476338148117065430e+00,5.788155794143676758e-01,-1.049021720886230469e+00,4.611828029155731201e-01
-6.101245284080505371e-01,1.598297715187072754e+00,-2.594869852066040039e+00,-2.157909393310546875e+00,4.088137298822402954e-02,1.698475033044815063e-01,4.833841323852539062e-01,3.140217363834381104e-01,-2.799688339233398438e+00,-2.065893650054931641e+00
6.305574774742126465e-01,6.089189648628234863e-02,1.204136967658996582e+00,4.034794867038726807e-01,-1.491022944450378418e+00,1.605957150459289551e-01,-2.467825412750244141e+00,-1.820589065551757812e+00,-3.281712055206298828e+00,-1.254019618034362793e+00
-5.684665441513061523e-01,-2.492074728012084961e+00,-5.580391287803649902e-01,-6.559629440307617188e-01,-1.817499250173568726e-01,8.828745484352111816e-01,-2.487157821655273438e+00,-2.302145481109619141e+00,-8.400137424468994141e-01,4.067139923572540283e-01
-1.469076395034790039e+00,-1.328588008880615234e+00,-1.165156245231628418e+00,-1.732634186744689941e+00,-4.571095108985900879e-01,-3.542278409004211426e-01,-1.007397294044494629e+00,-2.696910142898559570e+00,4.066714942455291748e-01,7.603409290313720703e-01
-1.351332902908325195e+00,-8.900548815727233887e-01,-1.294257164001464844e+00,-2.627089738845825195e+00,-2.175056040287017822e-01,5.689834356307983398e-01,-3.010834693908691406e+00,8.053143620491027832e-01,-2.184869050979614258e+00,-6.467761397361755371e-01
-9.542965292930603027e-01,5.154137313365936279e-02,-1.680355429649353027e+00,-1.581649541854858398e+00,6.975904703140258789e-01,-6.594126820564270020e-01,2.645832486450672150e-02,-2.296523571014404297e+00,-3.732348382472991943e-01,-1.358803033828735352e+00
-1.942843675613403320e+00,-4.190050661563873291e-01,4.177909493446350098e-01,-7.318006753921508789e-01,-8.201513290405273438e-01,1.247292533516883850e-01,-2.532487869262695312e+00,-1.907402157783508301e+00,-4.486453905701637268e-02,-8.288416862487792969e-01
-1.025794863700866699e+00,3.462225198745727539e-01,6.844370365142822266e-01,6.382315158843994141e-01,-1.358986943960189819e-01,-4.471503734588623047e+00,-2.966505289077758789e+00,-5.099025964736938477e-01,-9.698649048805236816e-01,-1.534919023513793945e+00
-1.252730607986450195e+00,-1.138782382011413574e+00,-9.895180463790893555e-01,-2.484335184097290039e+00,1.013887763023376465e+00,-2.118779420852661133e+00,2.788822352886199951e-01,-1.793915867805480957e+00,6.030505523085594177e-02,-1.199031949043273926e+00
-3.366343975067138672e+00,3.282553255558013916e-01,1.061421394348144531e+00,-2.037483602762222290e-01,-2.029782772064208984e+00,1.979328989982604980e-01,-1.236847400665283203e+00,1.895438730716705322e-01,-1.142792701721191406e+00,-1.813026666641235352e+00
-6.571212410926818848e-02,-7.761813402175903320e-01,8.312124609947204590e-01,-1.180146694183349609e+00,-8.041101694107055664e-01,-7.983891367912292480e-01,-2.132735967636108398e+00,8.486195802688598633e-01,-2.851706504821777344e+00,-3.642122745513916016e-01
-3.200630545616149902e-01,6.483516693115234375e-01,-1.980455279350280762e+00,-3.303494691848754883e+00,-7.954201102256774902e-01,-3.951537013053894043e-01,-6.714912056922912598e-01,-6.311146020889282227e-01,-2.500582218170166016e+00,1.235127210617065430e+00
-9.023749232292175293e-01,-1.729163885116577148e+00,8.447411656379699707e-01,3.520838916301727295e-01,-1.385586857795715332e+00,-1.421838283538818359e+00,-1.855431079864501953e+00,-1.576985239982604980e+00,1.732387691736221313e-01,-2.105018854141235352e+00
-3.772812485694885254e-01,-2.442639827728271484e+00,-8.820994496345520020e-01,5.433074831962585449e-01,-1.030321240425109863e+00,-6.123546138405799866e-02,-1.747952818870544434e+00,-9.802595376968383789e-01,-2.957035005092620850e-01,-7.862010002136230469e-01
-1.706040352582931519e-01,-1.394997596740722656e+00,5.375407934188842773e-01,-1.620052933692932129e+00,-1.654504418373107910e+00,-3.736310824751853943e-02,3.529315292835235596e-01,1.017672419548034668e+00,-1.934059143066406250e+00,-3.179355144500732422e+00
-2.901505708694458008e+00,-1.179653882980346680e+00,-2.009095907211303711e+00,1.932474672794342041e-01,-5.927407145500183105e-01,-4.194290041923522949e-01,-2.901238679885864258e+00,-3.648981451988220215e-02,7.394312620162963867e-01,-6.664928793907165527e-01
-1.872744321823120117e+00,-6.888219714164733887e-01,-8.976135253906250000e-01,-3.932875990867614746e-01,-1.846866250038146973e+00,-7.481831908226013184e-01,-2.486097812652587891e+00,2.268033772706985474e-01,-4.535063803195953369e-01,3.595660924911499023e-01
-9.966875314712524414e-01,-5.068113207817077637e-01,-8.416514992713928223e-01,-1.261038661003112793e+00,-9.500218629837036133e-01,1.238273978233337402e+00,-4.348405301570892334e-01,-1.289412379264831543e+00,-2.346788406372070312e+00,-2.459754943847656250e+00
3.807024955749511719e-01,7.764559388160705566e-01,5.885763764381408691e-01,-3.093845129013061523e+00,-3.715584874153137207e-01,-8.293880522251129150e-02,-1.663109779357910156e+00,-4.390669167041778564e-01,-4.301136016845703125e+00,8.145283460617065430e-01
-7.766268849372863770e-01,-2.402410030364990234e+00,-2.921601831912994385e-01,-2.175612151622772217e-01,-2.032482385635375977e+00,-1.292774200439453125e+00,-6.604765653610229492e-01,-5.496899485588073730e-01,-3.436850011348724365e-01,8.800668269395828247e-02
8.186664581298828125e-01,-1.857890248298645020e+00,-3.054455280303955078e+00,-1.267455816268920898e+00,-1.763789504766464233e-01,-1.489769935607910156e+00,-4.155769646167755127e-01,-1.018624067306518555e+00,-5.187186002731323242e-01,5.152776241302490234e-01
1.044316530227661133e+00,1.976452469825744629e+00,-2.832831382751464844e+00,-2.325435727834701538e-02,-3.864682614803314209e-01,-2.307375431060791016e+00,2.969374656677246094e-01,1.067339330911636353e-01,-2.603136777877807617e+00,-1.792232751846313477e+00
-2.238731622695922852e+00,-3.401376307010650635e-01,-2.310465574264526367e+00,-2.634140729904174805e+00,-5.625666975975036621e-01,4.451435506343841553e-01,7.995328307151794434e-01,-1.093869656324386597e-01,-7.951629757881164551e-01,-1.956596672534942627e-01
