-3.904053926467895508e+00,-1.646938920021057129e+00,-4.853810310363769531e+00,-4.047729492187500000e+00,-1.286903977394104004e+00,-3.166506767272949219e+00,-1.281496763229370117e+00,-9.362878203392028809e-01,1.002477645874023438e+00,-7.158904671669006348e-01
-1.242328405380249023e+00,-9.212558269500732422e-01,-2.872308969497680664e+00,-1.008388042449951172e+00,-3.086210727691650391e+00,-6.862749099731445312e+00,1.591971397399902344e+00,-9.604618549346923828e-01,-1.508461713790893555e+00,-2.084168791770935059e-01
-6.424285173416137695e-01,-3.790669143199920654e-01,-6.860634088516235352e-01,-3.613738298416137695e+00,-4.667212486267089844e+00,-2.036499977111816406e+00,-1.045971512794494629e-01,-5.738714694976806641e+00,1.405770182609558105e+00,-2.200201749801635742e+00
-1.660760521888732910e+00,-5.886542797088623047e-01,-1.268871665000915527e+00,-2.873769402503967285e-01,-2.442076921463012695e+00,2.723236978054046631e-01,-1.866682052612304688e+00,3.009712934494018555e+00,-6.009102821350097656e+00,-4.604960441589355469e+00
1.417120933532714844e+00,8.183048367500305176e-01,-4.008951187133789062e+00,-3.947118759155273438e+00,-5.560538768768310547e+00,1.020353913307189941e+00,-2.205795764923095703e+00,-2.463630914688110352e+00,-2.572492957115173340e-01,-1.479000687599182129e+00
-1.355998039245605469e+00,-4.022375345230102539e-01,-1.294394135475158691e+00,-1.426011323928833008e+00,2.105480432510375977e+00,-2.333481073379516602e+00,-1.049059748649597168e+00,-2.937898635864257812e+00,-4.734533309936523438e+00,-6.267591476440429688e+00
3.508672118186950684e-01,-4.057302951812744141e+00,-1.658608436584472656e+00,-2.834202527999877930e+00,-3.211609840393066406e+00,1.371657013893127441e+00,-6.311821937561035156e+00,1.428350359201431274e-01,-2.207114934921264648e+00,-6.196398735046386719e-01
-2.183742523193359375e+00,2.740498818457126617e-02,-6.494148969650268555e-01,1.163484692573547363e+00,-5.024212837219238281e+00,-3.293330192565917969e+00,-5.770579338073730469e+00,3.694910109043121338e-01,-1.817294836044311523e+00,-2.597045004367828369e-01
-4.066605567932128906e+00,3.653592765331268311e-01,-4.924869060516357422e+00,1.102776288986206055e+00,5.091676712036132812e-01,-6.772985458374023438e-01,-2.025492668151855469e+00,-6.498120427131652832e-01,-4.414205551147460938e+00,-3.927348256111145020e-01
-2.390591055154800415e-01,3.669202804565429688e+00,-3.417260408401489258e+00,-3.683776617050170898e+00,-1.813280820846557617e+00,6.300365328788757324e-01,1.412542223930358887e+00,-2.649810791015625000e+00,-4.837461948394775391e+00,-3.053349971771240234e+00
-1.641318917274475098e+00,-4.637580871582031250e+00,-8.730382919311523438e-01,3.834628462791442871e-01,-4.001606941223144531e+00,-1.026058316230773926e+00,-5.391185283660888672e-01,-7.787891626358032227e-01,-1.853814959526062012e+00,-1.720318555831909180e+00
-4.953393459320068359e+00,6.017413362860679626e-02,1.144747138023376465e+00,-3.548590183258056641e+00,-3.571114063262939453e+00,8.525953292846679688e-01,1.945764541625976562e+00,2.855791151523590088e-01,-1.173699259757995605e+00,-6.268494129180908203e+00
-3.824079275131225586e+00,5.028973817825317383e-01,-1.164829492568969727e+00,-4.884657263755798340e-01,-4.476483345031738281e+00,3.997501626145094633e-04,-2.239707261323928833e-01,-1.129248365759849548e-01,-3.941903352737426758e+00,-2.723672628402709961e+00
-3.969540357589721680e+00,1.453431367874145508e+00,1.629423856735229492e+00,-2.865550041198730469e+00,-3.204405069351196289e+00,-2.535833120346069336e+00,-2.605851173400878906e+00,-6.233789920806884766e-01,6.128586530685424805e-01,-7.774182319641113281e+00
-2.945236682891845703e+00,-1.804175376892089844e-01,-2.094127416610717773e+00,-3.564538478851318359e+00,1.250661134719848633e+00,-2.330963850021362305e+00,-7.602955102920532227e-01,-1.622395038604736328e+00,-6.503586292266845703e+00,-1.741477847099304199e+00
-1.506504654884338379e+00,-3.374857425689697266e+00,9.940406084060668945e-01,-2.434767484664916992e+00,-1.139428496360778809e+00,-1.088406801223754883e+00,-3.281265974044799805e+00,8.890599608421325684e-01,-3.772314786911010742e+00,-3.643054008483886719e+00
-8.784219622611999512e-01,1.084299564361572266e+00,-2.479402571916580200e-01,-4.350536346435546875e+00,-3.595381081104278564e-01,-6.168283462524414062e+00,-3.289133548736572266e+00,3.550581336021423340e-01,-5.601482391357421875e+00,1.124823927879333496e+00
-4.487360000610351562e+00,-2.985086441040039062e+00,-2.244768142700195312e+00,-6.106734275817871094e-01,7.577260732650756836e-01,-1.560474276542663574e+00,-3.097700119018554688e+00,-1.925425767898559570e+00,6.071349978446960449e-01,-2.391130447387695312e+00
-2.576487302780151367e+00,-2.386717081069946289e+00,-2.303938627243041992e+00,-4.581841230392456055e-01,-4.335545539855957031e+00,-7.715725898742675781e-02,-2.516289710998535156e+00,-3.206114172935485840e-01,1.215072512626647949e+00,-3.779322624206542969e+00
-1.895191192626953125e+00,-5.249049663543701172e-01,8.227836489677429199e-01,-5.522385597229003906e+00,-1.485009908676147461e+00,-8.666944503784179688e-01,9.129612445831298828e-01,-3.035907268524169922e+00,-2.662075281143188477e+00,-3.006826400756835938e+00
-4.483342766761779785e-01,-4.580858707427978516e+00,-5.316170454025268555e-01,-1.672432899475097656e+00,-2.727395534515380859e+00,-3.214427828788757324e-01,-4.529100418090820312e+00,-7.807031869888305664e-01,-1.029329061508178711e+00,4.693823456764221191e-01
-5.752851486206054688e+00,-9.545744061470031738e-01,9.015496969223022461e-01,-8.758762478828430176e-01,3.617373406887054443e-01,7.908285260200500488e-01,-5.416695117950439453e+00,-3.789244890213012695e+00,-3.763674497604370117e+00,1.446320056915283203e+00
-1.186110854148864746e+00,-4.713397026062011719e-01,-4.156497001647949219e+00,-2.807179450988769531e+00,1.530178904533386230e+00,1.020704030990600586e+00,8.185192346572875977e-01,-7.190515995025634766e-01,-2.126590728759765625e+00,-5.165399551391601562e+00
-2.084398984909057617e+00,9.123107790946960449e-01,-6.565122604370117188e+00,-6.284962177276611328e+00,-1.516739845275878906e+00,4.412856400012969971e-01,6.284148097038269043e-01,-7.884600162506103516e-01,-3.806023120880126953e+00,-1.013262271881103516e+00
-1.947766393423080444e-01,-3.827302217483520508e+00,-4.845223426818847656e+00,1.188193485140800476e-01,-2.826289176940917969e+00,-9.769970774650573730e-01,-3.138700485229492188e+00,-6.178370714187622070e-01,3.215038478374481201e-01,9.067289531230926514e-02
-5.320560455322265625e+00,-1.064613938331604004e+00,-4.561192512512207031e+00,1.147049546241760254e+00,3.290908634662628174e-01,1.839518547058105469e+00,-4.596625328063964844e+00,-6.323958039283752441e-01,-4.974036216735839844e+00,2.244889289140701294e-01
-1.121502995491027832e+00,-1.152472972869873047e+00,-1.204005360603332520e+00,2.821167111396789551e-01,-5.053123950958251953e+00,-4.752034246921539307e-01,-1.124738216400146484e+00,-4.813882827758789062e+00,9.819485545158386230e-01,-3.593630075454711914e+00
-3.867529630661010742e+00,-1.160259246826171875e+00,-3.525639295578002930e+00,-3.036572456359863281e+00,-6.890295505523681641e+00,3.568374395370483398e+00,4.959551393985748291e-01,1.597992062568664551e+00,-1.574022173881530762e+00,-4.037702381610870361e-01
-1.248370528221130371e+00,-6.284630298614501953e-01,3.342806816101074219e+00,2.304621219635009766e+00,-4.023001194000244141e+00,-9.735633730888366699e-01,-4.842593669891357422e+00,1.857955694198608398e+00,-4.812646865844726562e+00,-4.861483573913574219e+00
1.799762964248657227e+00,-1.698681950569152832e+00,-2.102948427200317383e+00,-4.923948943614959717e-01,-1.011433839797973633e+00,1.440703868865966797e+00,-2.667961597442626953e+00,4.128755927085876465e-01,-5.903456687927246094e+00,-1.263293027877807617e+00
-7.097311615943908691e-01,-2.518864870071411133e+00,3.940288126468658447e-01,-3.983476400375366211e+00,-4.412820816040039062e+00,-3.259792923927307129e-02,-1.061592817306518555e+00,-4.029563903808593750e+00,-1.579327344894409180e+00,1.000987648963928223e+00
1.393851935863494873e-01,-1.020188450813293457e+00,1.343424558639526367e+00,-3.208847343921661377e-01,-7.112913131713867188e+00,-4.745873451232910156e+00,1.482901930809020996e+00,-6.405115127563476562e-01,-3.324827909469604492e+00,4.754563570022583008e-01
-1.471711248159408569e-01,-2.738945484161376953e+00,-2.930351257324218750e+00,-1.122893095016479492e+00,1.921490132808685303e-01,-2.762811899185180664e+00,5.867987871170043945e-01,-1.548861265182495117e+00,-1.269124984741210938e+00,-7.658961296081542969e+00
-1.970986962318420410e+00,-2.755841493606567383e+00,-2.999061584472656250e+00,1.009973764419555664e+00,-2.052966654300689697e-01,7.063297033309936523e-01,-4.146562099456787109e+00,-1.092948198318481445e+00,-3.125532627105712891e+00,-2.591472864151000977e+00
-7.904641032218933105e-01,-1.840875864028930664e+00,-3.245904684066772461e+00,1.659370899200439453e+00,-3.099006414413452148e+00,-2.209559679031372070e+00,-2.641638278961181641e+00,-2.659418106079101562e+00,-4.432188034057617188e+00,2.106420040130615234e+00
-6.928299069404602051e-01,-2.255435943603515625e+00,1.509933829307556152e+00,-2.332786083221435547e+00,-1.544563174247741699e+00,-5.583834171295166016e+00,-8.894352912902832031e-01,9.644557833671569824e-01,-3.606856107711791992e+00,-2.156679868698120117e+00
-1.206678628921508789e+00,-7.680550962686538696e-02,-1.536057353019714355e+00,-6.533914089202880859e+00,-2.755164623260498047e+00,-8.844891935586929321e-02,-2.827035903930664062e+00,1.560859322547912598e+00,-4.408957004547119141e+00,-1.777377605438232422e+00
-2.556495428085327148e+00,-2.722905874252319336e+00,1.175024390220642090e+00,-2.495873719453811646e-01,-1.821180462837219238e+00,-2.252019166946411133e+00,-3.718578100204467773e+00,-4.345051348209381104e-01,-6.777471303939819336e-01,-6.477563858032226562e+00
8.880049586296081543e-01,-3.691275358200073242e+00,-1.243359684944152832e+00,-6.678970456123352051e-01,1.206161618232727051e+00,-2.296433448791503906e+00,4.906308054924011230e-01,-4.692745208740234375e+00,-2.294129133224487305e+00,-5.346333503723144531e+00
-2.811269044876098633e+00,4.794740080833435059e-01,-4.384179592132568359e+00,8.252901583909988403e-02,-3.240990400314331055e+00,-2.206477165222167969e+00,-1.148745059967041016e+00,-4.223150730133056641e+00,8.430558443069458008e-01,-6.775191426277160645e-01
8.516305685043334961e-01,-8.517538309097290039e-01,2.095725536346435547e-01,-5.514263629913330078e+00,-1.299601316452026367e+00,-4.764432907104492188e+00,1.364884376525878906e-01,-2.571101665496826172e+00,-5.155562400817871094e+00,-1.016691088676452637e+00
-2.773204445838928223e-01,4.691720902919769287e-01,-1.162885129451751709e-02,1.340377211570739746e+00,-2.695341348648071289e+00,-4.888294219970703125e+00,-4.377646923065185547e+00,-1.620233535766601562e+00,-3.671645402908325195e+00,-1.435806989669799805e+00
-3.986854076385498047e+00,-2.896542310714721680e+00,-1.532330632209777832e+00,-3.150747299194335938e+00,-4.351774692535400391e+00,3.223114967346191406e+00,1.809054732322692871e+00,2.498628139495849609e+00,-4.010500431060791016e+00,-1.907726168632507324e+00
-2.930349826812744141e+00,-5.330712318420410156e+00,-4.394079685211181641e+00,6.728448271751403809e-01,-6.646580100059509277e-01,-7.130577564239501953e-01,3.338991105556488037e-01,-2.266611576080322266e+00,9.310729056596755981e-02,-2.335320711135864258e+00
-4.037191390991210938e+00,-3.660692930221557617e+00,3.918122053146362305e-01,8.831219673156738281e-01,-1.643051624298095703e+00,-3.009239435195922852e-01,-1.499720335006713867e+00,-5.207919120788574219e+00,6.656463146209716797e-01,-1.267443656921386719e+00
-1.074273139238357544e-01,2.570163011550903320e+00,-3.360716581344604492e+00,-1.623123735189437866e-01,2.027769088745117188e+00,-5.314077377319335938e+00,9.809513092041015625e-01,7.392932176589965820e-01,-6.796316623687744141e+00,-3.734554767608642578e+00
7.209948301315307617e-01,-2.735355377197265625e+00,2.466785430908203125e+00,-2.976516008377075195e+00,-2.168924808502197266e+00,-2.331218481063842773e+00,-2.225598096847534180e+00,-5.030591487884521484e-01,-1.022104382514953613e+00,-5.678980827331542969e+00
-3.396236002445220947e-01,-2.654738426208496094e+00,-4.505592346191406250e+00,-5.074950218200683594e+00,-4.935652017593383789e-01,-3.260997056961059570e+00,-5.540293455123901367e-01,-4.681959152221679688e+00,8.185389041900634766e-01,1.816462993621826172e+00
-2.395134687423706055e+00,-3.987140417098999023e+00,1.612697124481201172e+00,-1.225915312767028809e+00,-2.097479581832885742e+00,-7.225683689117431641e+00,-3.205647945404052734e+00,-2.235429525375366211e+00,1.342291712760925293e+00,-5.333467721939086914e-01
-1.271507620811462402e+00,3.958230316638946533e-01,-1.375782728195190430e+00,-8.042293548583984375e+00,-2.416630089282989502e-01,-1.092544198036193848e+00,-2.672204256057739258e+00,2.321680188179016113e-01,-2.997061252593994141e+00,4.120779335498809814e-01
-2.689990282058715820e+00,-8.233920931816101074e-01,4.516758322715759277e-01,-5.804048180580139160e-01,2.341900020837783813e-01,-7.509766101837158203e+00,-5.416715621948242188e+00,4.060690104961395264e-02,-7.069690227508544922e-01,-1.570543050765991211e+00
-6.006354331970214844e+00,-1.118816971778869629e+00,-1.092186570167541504e+00,-1.304720401763916016e+00,1.445904523134231567e-01,9.213915467262268066e-01,-2.042525053024291992e+00,-5.733204364776611328e+00,-2.597479820251464844e+00,9.667118191719055176e-01
-8.714827895164489746e-01,-4.190537929534912109e+00,-2.588190317153930664e+00,5.707624182105064392e-02,2.093250006437301636e-01,-2.326698064804077148e+00,-4.111908912658691406e+00,-1.119452118873596191e+00,-2.883479118347167969e+00,3.493448197841644287e-01
-5.972244739532470703e+00,-6.365284919738769531e-01,-4.891946792602539062e+00,7.843044400215148926e-01,-1.168040871620178223e+00,8.106414675712585449e-01,-5.729261875152587891e+00,-1.607307553291320801e+00,1.326272964477539062e+00,-8.437808156013488770e-01
-1.392334997653961182e-01,-3.201215028762817383e+00,-2.861692905426025391e+00,1.905522465705871582e+00,-5.057501316070556641e+00,2.467483580112457275e-01,-1.656012833118438721e-01,-4.466659069061279297e+00,-3.341989040374755859e+00,-2.053016722202301025e-01
-1.558947920799255371e+00,-2.177046537399291992e+00,2.873671770095825195e+00,-4.259515285491943359e+00,-1.088019490242004395e+00,-5.197171568870544434e-01,-1.965719342231750488e+00,-4.516139984130859375e+00,-9.597286581993103027e-01,-1.440902590751647949e+00
-3.072109937667846680e+00,-3.155892372131347656e+00,-4.036550998687744141e+00,-4.355348587036132812e+00,-5.088458657264709473e-01,1.113837361335754395e+00,1.372131228446960449e+00,-3.084898471832275391e+00,-8.221198618412017822e-02,-1.142716407775878906e+00
6.992821097373962402e-01,-9.103698134422302246e-01,1.113720417022705078e+00,-5.802978038787841797e+00,9.079208970069885254e-01,-4.569758415222167969e+00,-2.425386428833007812e+00,-6.403502821922302246e-01,-3.956126213073730469e+00,2.553429603576660156e-01
-1.767733454704284668e+00,-1.986680865287780762e+00,-5.881363868713378906e+00,6.815868616104125977e-02,-1.327851295471191406e+00,-7.831994891166687012e-01,-1.807510495185852051e+00,3.864500224590301514e-01,-2.373443841934204102e-01,-2.575027465820312500e+00
-1.123015522956848145e+00,-7.728514075279235840e-01,-1.870524644851684570e+00,-5.471947669982910156e+00,-7.455371618270874023e-01,-5.244523048400878906e+00,-7.073624134063720703e-01,9.248520135879516602e-01,1.348842620849609375e+00,-4.230635643005371094e+00
-1.139891743659973145e+00,4.718765914440155029e-01,-7.732695341110229492e-01,5.496046543121337891e-01,1.061634778976440430e+00,-3.337577819824218750e+00,-2.061549901962280273e+00,-3.427207708358764648e+00,-2.136017322540283203e+00,-5.417049884796142578e+00
-8.389241695404052734e-01,-3.756197452545166016e+00,-4.220244407653808594e+00,-4.665251255035400391e+00,-1.011464715003967285e+00,4.598236083984375000e-01,-1.571439146995544434e+00,-4.392789840698242188e+00,2.279963940382003784e-01,2.619653224945068359e+00
-4.246906280517578125e+00,-1.471655964851379395e+00,1.140793085098266602e+00,-1.619741320610046387e-01,-9.988133907318115234e-01,-3.958223462104797363e-01,-1.808132290840148926e+00,-4.921137809753417969e+00,-1.470816254615783691e+00,-2.043027162551879883e+00
-2.276807069778442383e+00,8.649407029151916504e-01,-1.269231081008911133e+00,-2.750744342803955078e+00,-4.750067889690399170e-01,-5.253869533538818359e+00,3.244870901107788086e-01,1.749872088432312012e+00,-2.619751095771789551e-01,-5.121372222900390625e+00
