-1.483223022660240531e-04,-4.844663199037313461e-03,-1.787367509678006172e-03,-9.744258131831884384e-04,5.139809101819992065e-03,5.303480662405490875e-03,7.260003592818975449e-03,4.996494855731725693e-03,1.599711365997791290e-03,6.212226580828428268e-03,6.346417125314474106e-03,2.363423118367791176e-03,6.428986089304089546e-04,-3.202055580914020538e-03,7.473614066839218140e-03,-1.314682886004447937e-03,-3.668893827125430107e-03,1.752364682033658028e-03,-1.084562623873353004e-03,-5.038806702941656113e-03,-4.900476429611444473e-03,-2.986615989357233047e-03,5.976982880383729935e-03,-7.536920718848705292e-03,3.376679029315710068e-03,1.504605286754667759e-03,-5.313066300004720688e-03,-3.268345259130001068e-03,-7.032106164842844009e-03,-2.887368027586489916e-04,5.340256728231906891e-03,3.974060993641614914e-03,-2.306763781234622002e-03,-5.222733598202466965e-03,1.939524430781602859e-03,-9.099449380300939083e-04,-4.946942906826734543e-03,-6.625219713896512985e-03,1.256564981304109097e-03,4.250042606145143509e-03,-3.122035646811127663e-03,6.848730263300240040e-04,3.634291002526879311e-03,-4.631903488188982010e-03,-4.452105145901441574e-03,-2.988503780215978622e-03,-5.229593720287084579e-03,-1.855419715866446495e-03,-2.138646086677908897e-03,-5.762195214629173279e-03,4.475262947380542755e-03,-7.285016588866710663e-03,-2.495679771527647972e-03,-1.985597657039761543e-03,6.809062790125608444e-03,-3.186839167028665543e-03,5.425584968179464340e-03,5.493026692420244217e-04,2.682178979739546776e-03,7.414595689624547958e-03,1.356161665171384811e-03,6.836340297013521194e-03,-2.754552755504846573e-03,2.058177487924695015e-03
-5.566231440752744675e-03,5.055094952695071697e-04,-2.883143257349729538e-03,4.730848886538296938e-04,2.234201412647962570e-03,2.671034075319766998e-03,-9.750924073159694672e-04,-6.171915214508771896e-03,1.466053188778460026e-03,-7.256489712744951248e-03,1.926277065649628639e-03,4.484509117901325226e-03,-1.096295076422393322e-03,4.064677341375499964e-04,-6.614840123802423477e-03,-2.316454425454139709e-03,5.589328240603208542e-03,-1.048992387950420380e-03,3.491939743980765343e-03,-3.890881547704339027e-03,4.145709332078695297e-03,9.607055108062922955e-04,-1.528682652860879898e-03,-4.623720888048410416e-03,1.123468158766627312e-03,5.763442721217870712e-03,-3.223442705348134041e-03,-5.768926814198493958e-03,9.621724020689725876e-04,-3.262001322582364082e-03,-7.540172431617975235e-03,1.750959549099206924e-03,-6.670670118182897568e-03,-7.034564390778541565e-03,-4.897903185337781906e-03,-6.551386788487434387e-03,-4.865745082497596741e-03,-1.874645706266164780e-03,-2.716342220082879066e-03,-5.751373246312141418e-03,-7.417739252559840679e-04,-1.666965312324464321e-03,4.586939699947834015e-03,3.150049131363630295e-03,-7.158905267715454102e-03,3.240638761781156063e-04,7.115642540156841278e-03,2.237361622974276543e-03,-2.888873917981982231e-03,-3.315045963972806931e-03,7.427962962538003922e-03,-2.066594548523426056e-03,4.656172823160886765e-03,3.257885575294494629e-03,-7.621831260621547699e-03,-6.421882659196853638e-03,7.352643646299839020e-03,5.871545057743787766e-03,-5.896607413887977600e-03,-1.571296015754342079e-03,-5.369703751057386398e-03,1.643680152483284473e-03,4.493421409279108047e-03,-1.709587057121098042e-03
-5.085777956992387772e-03,2.868141047656536102e-03,-5.921616684645414352e-03,5.972176790237426758e-03,-4.370316863059997559e-03,3.624122356995940208e-03,-4.433389287441968918e-03,-1.911563798785209656e-03,3.899206174537539482e-03,-2.231662161648273468e-03,3.544768085703253746e-03,5.642662756145000458e-03,1.351269427686929703e-03,2.640729071572422981e-03,-4.675394389778375626e-03,-3.609244478866457939e-03,2.538629341870546341e-03,-5.599601427093148232e-04,-9.608266409486532211e-04,-1.901145908050239086e-03,3.432215889915823936e-03,1.723941415548324585e-03,7.831348193576559424e-05,-3.816644893959164619e-03,-5.925751291215419769e-03,-6.508274935185909271e-03,-5.883101839572191238e-03,5.219729617238044739e-03,-1.031562918797135353e-03,5.177865270525217056e-03,7.851149421185255051e-04,-2.638596342876553535e-03,-4.828028380870819092e-03,3.300913376733660698e-03,4.367497283965349197e-03,6.255322135984897614e-03,3.120613982900977135e-03,3.049662103876471519e-03,-5.142171867191791534e-03,7.020504679530858994e-03,-4.805201198905706406e-03,3.300425596535205841e-04,9.545578504912555218e-04,7.458879612386226654e-03,2.493493957445025444e-03,5.003588739782571793e-03,4.392655566334724426e-03,3.308855229988694191e-03,3.487454028800129890e-03,-3.944147378206253052e-03,-3.410809906199574471e-03,7.220016326755285263e-03,7.161336485296487808e-03,6.346262671286240220e-05,2.215825486928224564e-03,-2.251818543300032616e-03,-4.674180876463651657e-03,-4.446133971214294434e-03,6.592108868062496185e-03,2.464340766891837120e-03,-7.071723812259733677e-04,1.429720432497560978e-03,-5.352450534701347351e-03,-6.701957900077104568e-03
3.146233968436717987e-03,-3.255446674302220345e-03,1.473735086619853973e-03,-5.303286947309970856e-03,-2.961734309792518616e-03,8.429408771917223930e-04,2.989000640809535980e-03,2.381921658525243402e-04,-2.851106692105531693e-03,6.345557980239391327e-03,4.173614084720611572e-03,-4.458164330571889877e-03,-4.854014143347740173e-03,-1.640858710743486881e-03,-4.320212639868259430e-03,5.481273401528596878e-03,2.054682001471519470e-03,7.197199738584458828e-04,2.875908685382455587e-04,7.275689858943223953e-03,5.777475889772176743e-03,-1.241614925675094128e-03,7.311734836548566818e-03,3.941374830901622772e-03,-3.537343582138419151e-03,-4.208106547594070435e-03,7.268982939422130585e-03,6.463894154876470566e-03,-3.983329050242900848e-03,1.204996369779109955e-03,-4.987265914678573608e-03,-8.485628059133887291e-04,-6.005895789712667465e-03,1.526801497675478458e-03,-7.342032622545957565e-03,2.414344111457467079e-03,-4.787600133568048477e-03,1.718763727694749832e-03,-6.624089553952217102e-03,6.396038923412561417e-03,3.894296009093523026e-03,-6.458274554461240768e-03,7.126365089789032936e-04,-3.884127130731940269e-03,3.037369810044765472e-03,4.348598304204642773e-04,-6.757207214832305908e-03,-4.259663168340921402e-03,7.314909249544143677e-03,-7.099346723407506943e-03,-4.773004911839962006e-03,-4.324826877564191818e-03,-1.747551374137401581e-03,3.326210891827940941e-03,-7.154531776905059814e-03,1.319571398198604584e-03,1.646635821089148521e-03,-3.890793537721037865e-03,3.496884601190686226e-03,7.065876387059688568e-03,-4.298440646380186081e-03,-7.096073124557733536e-03,-6.848954595625400543e-03,5.632610060274600983e-03
-4.019791726022958755e-03,-4.981046542525291443e-03,1.596216578036546707e-03,1.076072687283158302e-03,-5.502791143953800201e-03,-3.458697814494371414e-03,6.497881840914487839e-03,5.203306209295988083e-03,-8.965594461187720299e-04,-5.397027824074029922e-03,6.696325726807117462e-05,1.467323862016201019e-03,-5.691586993634700775e-03,-3.605416277423501015e-03,4.344900604337453842e-03,-7.494727149605751038e-03,-4.137496463954448700e-03,6.376346107572317123e-03,-6.573178339749574661e-03,-5.578497075475752354e-04,5.795500706881284714e-03,1.766073750331997871e-03,-3.385932883247733116e-03,6.999150849878787994e-03,1.040413626469671726e-03,-3.942237235605716705e-03,4.881910281255841255e-04,-2.440453041344881058e-03,1.529454952105879784e-03,-1.869816216640174389e-03,-6.149278953671455383e-03,2.263249596580862999e-03,-7.416545413434505463e-03,2.886790316551923752e-03,1.346664270386099815e-03,-6.141867954283952713e-03,5.882737692445516586e-03,5.155510734766721725e-04,-7.270392961800098419e-04,-5.033510737121105194e-03,-1.620381022803485394e-03,-6.449594162404537201e-03,1.815654686652123928e-03,2.811852609738707542e-03,2.324222121387720108e-03,-1.597527734702453017e-04,6.884527392685413361e-03,-4.847838077694177628e-03,1.929466612637042999e-03,-5.434646154753863811e-04,-1.670328318141400814e-03,2.980196848511695862e-03,-7.168193347752094269e-03,7.284421939402818680e-03,-6.299032829701900482e-04,-6.758134346455335617e-03,2.267605392262339592e-03,3.417475614696741104e-03,1.058486741385422647e-04,-7.150500081479549408e-03,-4.996635019779205322e-03,-5.046348553150892258e-03,-1.954348990693688393e-03,7.306140381842851639e-03
-5.074416752904653549e-03,4.205688834190368652e-03,-7.023802492767572403e-03,-4.197421949356794357e-03,-2.612063428387045860e-03,6.308429408818483353e-03,-2.323237247765064240e-03,1.567785628139972687e-03,4.965076223015785217e-04,3.659047652035951614e-03,-7.877898169681429863e-04,4.778511356562376022e-03,4.702690057456493378e-03,5.189975723624229431e-03,-1.077497261576354504e-03,-5.742965731769800186e-03,1.864944206317886710e-04,1.793944626115262508e-03,-3.057956695556640625e-03,7.303372491151094437e-03,7.273014169186353683e-03,6.292959675192832947e-03,-3.921159077435731888e-03,-7.072100415825843811e-03,-6.140827201306819916e-03,1.680271379882469773e-04,4.117363132536411285e-03,-7.492919918149709702e-03,1.222698483616113663e-03,-8.208796498365700245e-04,9.209951967932283878e-04,-7.220071274787187576e-03,-6.167527753859758377e-03,4.832943435758352280e-03,-4.238198744133114815e-04,-2.737777074798941612e-03,-1.691940822638571262e-03,-4.519654437899589539e-03,-3.821895690634846687e-03,1.306505640968680382e-03,5.606852937489748001e-03,-4.529324825853109360e-03,-6.852349266409873962e-03,6.953672505915164948e-03,4.745586775243282318e-03,-9.656785405240952969e-04,-4.241529852151870728e-03,-2.349976915866136551e-03,2.882628701627254486e-03,2.090670401230454445e-03,2.191054634749889374e-03,-8.016127976588904858e-04,-7.051520515233278275e-03,-2.689635148271918297e-03,-2.559378277510404587e-03,-2.838089130818843842e-03,2.605342539027333260e-03,4.414390772581100464e-03,6.829949561506509781e-03,-5.593201145529747009e-03,1.661035203142091632e-04,-1.787736662663519382e-03,-5.049704341217875481e-04,-6.365500390529632568e-03
-6.037257146090269089e-03,5.713761318475008011e-03,-1.455365680158138275e-03,1.038566464558243752e-03,5.828385706990957260e-03,3.389473422430455685e-04,-6.995153613388538361e-03,4.121242556720972061e-03,-2.545947907492518425e-03,1.020688447169959545e-03,-7.505832705646753311e-03,1.292193192057311535e-03,-1.690146513283252716e-03,9.626107930671423674e-05,-4.366552922874689102e-03,-7.770534139126539230e-04,-1.974058803170919418e-03,-6.152055226266384125e-03,3.960791975259780884e-03,2.391025889664888382e-03,-3.254189388826489449e-03,-9.919077856466174126e-04,6.449679844081401825e-03,4.178497474640607834e-03,6.420762278139591217e-03,2.431434113532304764e-03,-4.331313073635101318e-03,-7.357137743383646011e-03,-5.962051451206207275e-03,-5.016381852328777313e-03,-1.095993095077574253e-03,1.950361765921115875e-03,1.398949418216943741e-03,-6.340257823467254639e-03,6.638981401920318604e-03,-4.980615340173244476e-03,7.461538538336753845e-03,1.583831151947379112e-03,-1.070813159458339214e-03,3.061834024265408516e-03,-1.939372858032584190e-03,-1.449499162845313549e-03,2.267023315653204918e-03,2.198078436776995659e-03,2.205315278843045235e-03,8.995002717711031437e-04,-4.229049663990736008e-03,6.787162739783525467e-03,-3.947218938264995813e-04,2.541732043027877808e-03,6.622680462896823883e-03,3.302856348454952240e-03,-6.296442355960607529e-03,7.117988541722297668e-03,-6.920123938471078873e-03,-4.682985134422779083e-03,1.590574975125491619e-03,5.653204862028360367e-03,-3.668971592560410500e-03,-2.935117110610008240e-03,3.588559105992317200e-03,-6.773769273422658443e-04,7.545161526650190353e-03,5.999500863254070282e-04
1.864965772256255150e-03,5.729191470891237259e-03,-4.963542334735393524e-03,6.305339280515909195e-03,7.527740672230720520e-03,-6.994723808020353317e-03,5.480587948113679886e-03,6.634980905801057816e-03,-4.912637639790773392e-03,-1.837864750996232033e-03,-2.197951311245560646e-03,-5.770148243755102158e-03,7.486644666641950607e-03,-2.116040559485554695e-03,2.769020618870854378e-03,-5.315646063536405563e-03,6.976917851716279984e-03,-8.116182289086282253e-04,-6.981774698942899704e-03,2.078271703794598579e-03,5.423501133918762207e-03,4.842488095164299011e-03,4.861207213252782822e-03,-4.457233473658561707e-03,4.453341010957956314e-03,-7.296426687389612198e-03,2.328283386304974556e-03,3.655686043202877045e-03,6.834320258349180222e-03,-5.840340163558721542e-03,6.014189682900905609e-03,6.539309397339820862e-03,7.516355253756046295e-03,1.712678815238177776e-03,-2.335876692086458206e-03,7.553776726126670837e-03,2.442124765366315842e-03,-1.665090559981763363e-03,-1.409056014381349087e-03,-1.932444167323410511e-03,-1.934996456839144230e-03,7.159604690968990326e-03,2.561267232522368431e-03,2.393953735008835793e-03,-2.005476737394928932e-03,-4.565602634102106094e-03,4.476105328649282455e-03,5.156201310455799103e-03,4.180284158792346716e-04,-4.008614458143711090e-03,-2.194957574829459190e-03,-5.724399350583553314e-03,1.352818566374480724e-03,-1.785358646884560585e-03,7.561277598142623901e-03,2.092941896989941597e-03,2.738124225288629532e-03,7.385928649455308914e-03,5.504451692104339600e-03,-7.463272660970687866e-03,7.545403670519590378e-03,2.996968803927302361e-03,-6.202783435583114624e-03,-5.546896252781152725e-03
3.405655734241008759e-03,-2.383198123425245285e-03,1.519407029263675213e-03,-4.524021409451961517e-03,3.470009425655007362e-03,-2.357398159801959991e-03,7.552247028797864914e-03,5.067755118943750858e-04,4.122114274650812149e-03,-5.135677754878997803e-03,-2.577348204795271158e-04,-3.347154473885893822e-03,-4.356616642326116562e-03,-5.234639975242316723e-04,5.858067888766527176e-03,-3.692155471071600914e-03,5.903379991650581360e-03,2.144173253327608109e-03,-4.926078952848911285e-03,-1.514552743174135685e-03,5.367477424442768097e-03,5.194238387048244476e-03,6.051624193787574768e-03,-4.243185743689537048e-03,2.897704252973198891e-04,5.523270461708307266e-03,2.239331835880875587e-03,-3.000911558046936989e-03,-6.697926204651594162e-03,7.161587942391633987e-03,5.098849534988403320e-03,5.657885340042412281e-04,-7.235649973154067993e-03,-5.985347088426351547e-03,1.387933618389070034e-03,2.139399759471416473e-03,9.808222530409693718e-04,-4.254772793501615524e-03,-1.680015469901263714e-03,-5.233138799667358398e-03,4.248011857271194458e-03,-5.870759021490812302e-03,-5.977352149784564972e-03,6.936922436580061913e-04,2.818272914737462997e-04,4.833590064663439989e-04,-3.123438917100429535e-03,-2.788955112919211388e-03,6.286190357059240341e-03,-4.214026499539613724e-03,-1.769230701029300690e-03,3.884715260937809944e-03,-7.268236484378576279e-03,4.039681050926446915e-03,-4.483645316213369370e-03,6.608087103813886642e-03,-7.394180865958333015e-04,7.584389764815568924e-03,7.629167754203081131e-03,-2.008778275921940804e-03,3.740103449672460556e-03,-3.144984599202871323e-03,6.752803921699523926e-03,-4.919836763292551041e-03
7.483155466616153717e-03,-7.461753557436168194e-04,-3.192435018718242645e-03,-6.969781592488288879e-03,1.224841922521591187e-03,3.819737117737531662e-03,-7.516929414123296738e-03,7.357998285442590714e-03,5.176621954888105392e-03,-3.173809498548507690e-03,5.641669034957885742e-03,1.901452546007931232e-03,6.747628562152385712e-03,-6.799132097512483597e-04,-5.141739733517169952e-03,7.528218557126820087e-04,4.479049704968929291e-03,4.486504476517438889e-03,5.045943893492221832e-03,1.701457193121314049e-03,5.096799228340387344e-03,1.703905640169978142e-03,3.556240582838654518e-03,3.175019752234220505e-03,8.252131519839167595e-04,-4.606480710208415985e-03,6.696586497128009796e-03,2.554219216108322144e-03,2.136223018169403076e-03,1.504529616795480251e-03,-2.901973202824592590e-03,6.955895107239484787e-03,3.873057139571756124e-04,4.242233932018280029e-03,-5.959458649158477783e-03,-5.429468117654323578e-03,-7.263032719492912292e-03,4.755746573209762573e-03,-7.415837608277797699e-03,1.488818903453648090e-03,3.627067897468805313e-03,-1.522715669125318527e-03,-4.634432960301637650e-03,-3.377747023478150368e-03,-4.908831324428319931e-03,2.462900010868906975e-03,-5.807965993881225586e-03,-1.501978840678930283e-03,9.029398788698017597e-04,-5.404734984040260315e-03,1.637539244256913662e-03,-1.664263196289539337e-03,-3.088078228756785393e-04,4.421600140631198883e-03,5.618340801447629929e-03,-2.605544170364737511e-03,7.473193109035491943e-03,4.633148200809955597e-04,-3.523491788655519485e-03,6.318325642496347427e-03,3.476289566606283188e-03,6.848193239420652390e-03,1.745177200064063072e-03,-5.623514764010906219e-03
6.650796160101890564e-03,5.401798989623785019e-03,-5.400198511779308319e-03,-4.991761408746242523e-03,7.360870484262704849e-03,-1.744214678183197975e-03,-5.704807117581367493e-03,9.755684295669198036e-04,7.554299663752317429e-03,3.446924267336726189e-03,6.517746020108461380e-03,-5.366023164242506027e-03,-6.585348397493362427e-03,-5.733580794185400009e-03,-6.954557728022336960e-03,-5.498104263097047806e-03,6.505728233605623245e-03,5.159832537174224854e-03,-2.550520934164524078e-03,-4.095702897757291794e-03,4.042465705424547195e-03,1.733625394990667701e-04,-3.047462785616517067e-03,3.697651205584406853e-03,-5.980394780635833740e-03,-8.382105152122676373e-04,5.799409933388233185e-03,-2.569892909377813339e-03,-5.179573781788349152e-04,3.283248050138354301e-03,3.400957677513360977e-03,7.888014661148190498e-04,-3.210496855899691582e-03,4.700326360762119293e-03,2.290257485583424568e-03,1.802989281713962555e-03,7.516929414123296738e-03,-6.140194367617368698e-03,1.907163998112082481e-03,6.939837243407964706e-03,3.429262433201074600e-03,1.842357567511498928e-03,-3.203294472768902779e-03,5.510065238922834396e-03,4.204142838716506958e-03,5.562223028391599655e-03,-4.371621645987033844e-03,4.927301779389381409e-03,1.376225991407409310e-04,3.373089712113142014e-03,-4.684293176978826523e-03,-2.497880021110177040e-03,-5.103609524667263031e-03,-1.534418435767292976e-03,6.023748312145471573e-03,4.052420845255255699e-04,3.303394187241792679e-03,5.486282519996166229e-03,-5.578564945608377457e-03,3.878093790262937546e-03,-7.173520512878894806e-03,4.077943507581949234e-03,-5.154613871127367020e-03,-4.190457984805107117e-04
7.699805428273975849e-04,-2.413106849417090416e-03,4.460194613784551620e-03,-2.387175569310784340e-03,4.099004727322608232e-04,-4.417335148900747299e-03,6.384273059666156769e-03,-3.004669211804866791e-03,-2.319172024726867676e-03,3.894772380590438843e-03,6.706244777888059616e-03,-2.793503692373633385e-03,-7.546576671302318573e-03,-3.513570874929428101e-03,-3.590273903682827950e-03,-5.347975529730319977e-03,-1.484107458963990211e-03,-1.779234851710498333e-03,-1.257864525541663170e-03,5.877292715013027191e-03,-7.454623933881521225e-03,-4.926384426653385162e-03,-3.762681968510150909e-03,-3.607043297961354256e-03,-1.118460786528885365e-03,-3.488111309707164764e-03,4.111862275749444962e-03,-1.476170262321829796e-03,-4.268588963896036148e-03,1.658868044614791870e-03,1.351333572529256344e-03,-3.550437046214938164e-03,-6.653195712715387344e-03,1.964235911145806313e-03,4.614157078322023153e-04,2.969116438180208206e-03,7.628020364791154861e-03,-7.568398956209421158e-03,-5.726428236812353134e-03,2.110403263941407204e-03,-6.114390678703784943e-03,-3.345716279000043869e-03,-5.833527073264122009e-03,-5.741877015680074692e-03,2.155756112188100815e-03,-5.801598541438579559e-03,2.561692148447036743e-03,4.645634442567825317e-03,2.730669453740119934e-03,-5.596218630671501160e-03,-6.845040712505578995e-03,6.438715849071741104e-03,-7.119573652744293213e-03,-1.967581454664468765e-03,-6.985179148614406586e-03,-7.096338551491498947e-03,-4.668002948164939880e-03,6.296893116086721420e-03,7.097594207152724266e-04,4.393974319100379944e-03,4.555935040116310120e-03,-7.579353637993335724e-03,-2.732504392042756081e-03,6.521207746118307114e-03
1.333958003669977188e-03,7.687164004892110825e-03,-4.521586000919342041e-03,7.198959123343229294e-03,-2.502187388017773628e-03,-2.474326407536864281e-03,5.016519222408533096e-03,-2.420127129880711436e-04,-1.938575587701052427e-04,-3.628117498010396957e-03,-5.724625661969184875e-03,5.426980787888169289e-04,7.651796098798513412e-03,1.444956986233592033e-03,-1.092713908292353153e-03,-7.317647803574800491e-03,1.453605480492115021e-03,-2.981595229357481003e-03,5.236915778368711472e-03,2.685480751097202301e-03,2.784527314361184835e-04,-6.157978903502225876e-03,6.669424939900636673e-03,7.279273122549057007e-03,6.867578718811273575e-03,-4.515290725976228714e-03,5.316980648785829544e-03,6.301889196038246155e-03,2.065737266093492508e-03,-3.828320186585187912e-03,7.416652049869298935e-03,-5.956025328487157822e-03,3.184123430401086807e-03,-4.360688384622335434e-03,2.826775889843702316e-03,1.856877584941685200e-03,-2.890806877985596657e-03,-5.874856724403798580e-04,2.800540998578071594e-03,1.876788679510354996e-03,-2.854470163583755493e-03,3.126222174614667892e-03,-4.856889601796865463e-03,-6.466463208198547363e-03,2.456205897033214569e-03,-4.509705584496259689e-03,-1.117993961088359356e-03,4.341474268585443497e-03,-3.940125927329063416e-03,1.631045714020729065e-03,-4.574067890644073486e-03,-6.339065730571746826e-03,-6.766140926629304886e-03,5.837341770529747009e-03,-8.137268596328794956e-04,-2.663417253643274307e-03,-2.272539772093296051e-03,-5.732721649110317230e-03,-2.343266503885388374e-03,2.537399530410766602e-03,4.666917957365512848e-03,-4.766969010233879089e-03,3.693414328154176474e-05,5.265924148261547089e-03
6.763004232197999954e-03,-3.251601476222276688e-03,2.634431701153516769e-03,-1.012164517305791378e-03,-1.744275563396513462e-03,-5.281446035951375961e-03,-9.220505133271217346e-03,-4.875204060226678848e-03,4.661580547690391541e-03,-6.311890901997685432e-04,7.199772167950868607e-03,-4.993850365281105042e-03,2.503306372091174126e-03,3.336491994559764862e-03,-7.448763120919466019e-03,3.432355879340320826e-04,-7.122596725821495056e-03,-3.694111946970224380e-03,-6.947256624698638916e-03,4.842368885874748230e-03,-6.885834736749529839e-04,1.152690383605659008e-04,-3.397026564925909042e-03,-2.445827703922986984e-03,-3.637996967881917953e-03,4.218927060719579458e-04,5.420987959951162338e-03,4.016519524157047272e-03,2.688867971301078796e-03,-7.114982232451438904e-03,-6.225429824553430080e-04,6.362732034176588058e-03,3.936458844691514969e-03,6.302598398178815842e-03,4.254543688148260117e-03,-1.649991492740809917e-03,-2.560161752626299858e-03,-5.897664930671453476e-03,3.834313014522194862e-03,2.044431166723370552e-03,-4.107654560357332230e-03,-6.958596408367156982e-03,-1.248121261596679688e-04,-1.600745308678597212e-04,2.328889910131692886e-03,-3.483710577711462975e-03,-6.464763078838586807e-03,-6.080886814743280411e-03,-2.985939616337418556e-03,-2.076907083392143250e-03,-1.110931485891342163e-02,3.940044436603784561e-03,4.968126886524260044e-04,6.508653517812490463e-03,-5.941064446233212948e-04,3.903553122654557228e-03,-3.030592808499932289e-03,1.356558059342205524e-03,-4.851020872592926025e-03,-4.968462046235799789e-03,3.915697336196899414e-03,-4.623744636774063110e-03,-6.739809643477201462e-03,1.035434892401099205e-03
1.557510579004883766e-03,2.768934005871415138e-03,-6.367235910147428513e-03,-5.518215242773294449e-03,-1.991316443309187889e-03,-5.204986780881881714e-03,2.202286617830395699e-03,1.360041824227664620e-05,-5.754963960498571396e-03,2.627315698191523552e-04,7.384994998574256897e-03,-1.554700662381947041e-03,-5.957911722362041473e-03,5.718883126974105835e-03,8.077279780991375446e-04,6.293373182415962219e-03,-6.598851643502712250e-03,4.363303072750568390e-03,4.982587881386280060e-03,3.658621804788708687e-03,8.820935618132352829e-04,4.484643694013357162e-03,2.159900031983852386e-03,5.705402698367834091e-03,-2.181898569688200951e-03,-6.929175928235054016e-03,3.823967650532722473e-03,6.037999875843524933e-03,-6.501687690615653992e-03,-7.910032873041927814e-04,-4.155001603066921234e-03,-2.155030146241188049e-03,6.004954688251018524e-03,6.250606384128332138e-03,-1.233389775734394789e-04,1.858952338807284832e-03,-4.836153704673051834e-03,2.983354730531573296e-03,6.539766211062669754e-03,-2.031665295362472534e-03,5.750860553234815598e-03,2.342916268389672041e-04,-4.763470496982336044e-03,-1.847970532253384590e-03,-2.173222601413726807e-04,-6.188310217112302780e-03,4.147621802985668182e-03,3.266301704570651054e-03,3.646562108770012856e-03,3.284437581896781921e-03,5.802819505333900452e-04,3.860179567709565163e-04,5.991386715322732925e-03,4.483476281166076660e-03,2.058027079328894615e-03,1.078358967788517475e-03,5.011543631553649902e-03,6.095760036259889603e-03,4.273932427167892456e-03,-6.905599031597375870e-03,3.431806806474924088e-03,6.554473657160997391e-03,4.701238125562667847e-03,-2.324660308659076691e-03
7.556900964118540287e-04,-3.339263144880533218e-03,-4.038479644805192947e-03,-5.127979966346174479e-05,2.261645160615444183e-03,2.442099153995513916e-03,-2.276584273204207420e-03,6.358418613672256470e-03,3.477004589512944221e-03,-4.257365129888057709e-03,-6.816162262111902237e-03,-5.941279698163270950e-03,-6.696444936096668243e-03,-6.449750624597072601e-03,1.063755713403224945e-03,-4.465388599783182144e-03,5.026939790695905685e-03,7.541489787399768829e-03,1.605640747584402561e-03,-6.287359166890382767e-03,3.044880228117108345e-03,6.144379265606403351e-03,-1.508668297901749611e-03,-7.229109760373830795e-03,-6.903349421918392181e-04,1.524259801954030991e-03,6.483342498540878296e-03,6.876307073980569839e-03,6.558855064213275909e-03,1.157770930149126798e-05,-5.829925648868083954e-03,3.470929339528083801e-03,-6.184349767863750458e-03,-3.427755727898329496e-04,-2.225300995633006096e-03,5.687235388904809952e-03,-1.018948620185256004e-03,-5.218848586082458496e-03,4.403102211654186249e-03,-2.743925200775265694e-03,-7.239249069243669510e-03,7.624461781233549118e-03,-3.833824303001165390e-03,-2.648602821864187717e-04,-5.771175492554903030e-03,7.448755204677581787e-03,-4.540119785815477371e-03,7.346309721469879150e-03,-6.545393727719783783e-03,4.185760859400033951e-03,6.798736751079559326e-03,-2.063747961074113846e-03,-6.820688489824533463e-03,-1.069952384568750858e-03,-2.044985303655266762e-03,1.665197545662522316e-03,-7.018245290964841843e-03,6.714023184031248093e-03,9.505749912932515144e-04,3.263841615989804268e-03,-6.009805016219615936e-03,-2.448534360155463219e-03,-3.084569470956921577e-03,-1.007448532618582249e-03
-5.011979490518569946e-03,1.949252327904105186e-03,-4.159173928201198578e-03,4.052887670695781708e-04,-5.517697427421808243e-03,-5.953235551714897156e-03,-5.893867928534746170e-03,4.970452282577753067e-03,-3.198529593646526337e-03,7.478661369532346725e-03,-5.843623075634241104e-03,-5.974975880235433578e-03,6.252858322113752365e-03,5.524762440472841263e-03,-2.427241997793316841e-03,1.107223797589540482e-03,-3.111646044999361038e-03,-4.935588221997022629e-04,-2.924932632595300674e-03,-6.330493371933698654e-03,2.966598840430378914e-03,5.249169189482927322e-03,6.117750424891710281e-03,4.399161320179700851e-03,2.944000298157334328e-03,3.270191838964819908e-03,-1.842364901676774025e-03,-4.815512802451848984e-03,5.916784983128309250e-03,9.745174320414662361e-04,-5.138282198458909988e-03,5.537374410778284073e-03,-3.580176853574812412e-04,6.089556496590375900e-03,3.556331153959035873e-03,3.765597473829984665e-03,9.059379226528108120e-04,5.199759267270565033e-03,-5.227611400187015533e-03,-4.594373051077127457e-03,-6.940111983567476273e-03,-5.496074445545673370e-03,2.191781764850020409e-03,7.450224831700325012e-03,-3.209030954167246819e-03,6.228398531675338745e-03,-4.212072119116783142e-03,-1.709298347122967243e-03,3.761799773201346397e-03,2.487801248207688332e-03,-7.211213465780019760e-03,-4.012171179056167603e-03,-5.772843491286039352e-03,3.830997040495276451e-03,-3.339189570397138596e-03,-7.072817534208297729e-03,4.525038879364728928e-03,7.457334548234939575e-03,2.199391368776559830e-03,-3.174744546413421631e-03,-3.004671307280659676e-04,1.887468621134757996e-03,4.236186388880014420e-03,-6.244100164622068405e-03
-7.427840959280729294e-03,3.004728350788354874e-03,6.751673296093940735e-03,4.041182983200997114e-04,6.695394869893789291e-03,-1.806374057196080685e-03,-5.090385209769010544e-03,-6.713874638080596924e-03,5.665136501193046570e-03,1.154130557551980019e-03,-7.346598431468009949e-03,3.099354798905551434e-04,-1.980566885322332382e-03,-4.852304235100746155e-03,5.449217278510332108e-03,-2.326607005670666695e-03,1.656568725593388081e-03,5.597054027020931244e-03,-1.912085921503603458e-03,-4.760018084198236465e-03,-5.635713692754507065e-03,-5.434398073703050613e-03,-7.531177252531051636e-03,-7.176532410085201263e-03,-5.779666826128959656e-03,-4.787174519151449203e-03,5.712947342544794083e-03,2.264355076476931572e-03,-3.703026333823800087e-03,-6.193714682012796402e-03,-4.880730062723159790e-03,-5.256539676338434219e-03,5.731847602874040604e-03,4.580467008054256439e-03,4.535212938208132982e-04,-4.629653878509998322e-03,-5.080149509012699127e-03,-6.458832416683435440e-03,-2.400314406258985400e-04,-1.097534550353884697e-03,-5.495093297213315964e-03,4.245370160788297653e-03,1.429311931133270264e-03,-1.141484899562783539e-04,1.180159742943942547e-03,-2.417190466076135635e-03,5.877871997654438019e-03,5.490818060934543610e-03,-2.922932617366313934e-03,5.610008258372545242e-03,-5.831651389598846436e-03,6.735085509717464447e-03,-9.223342058248817921e-04,1.974849496036767960e-03,-3.071998944506049156e-03,-7.242168765515089035e-03,6.876753177493810654e-03,7.270540110766887665e-03,-6.985256448388099670e-03,-6.282878573983907700e-03,4.398729070089757442e-04,-6.309880875051021576e-03,1.135247061029076576e-03,-1.516277552582323551e-03
-1.194678712636232376e-03,6.302484311163425446e-03,-3.865066682919859886e-03,1.001037380774505436e-04,-6.604146212339401245e-03,4.687549080699682236e-03,-2.527231583371758461e-03,5.746222566813230515e-03,1.537881908006966114e-04,7.006360217928886414e-03,5.879942327737808228e-03,-4.406892694532871246e-03,5.043318960815668106e-03,-1.916262786835432053e-03,1.350638107396662235e-03,-4.007658921182155609e-03,5.309044383466243744e-03,7.115258835256099701e-03,2.222470240667462349e-03,3.259553341194987297e-03,2.625976921990513802e-03,6.004310213029384613e-03,-6.939544342458248138e-03,4.364165943115949631e-03,1.750297262333333492e-03,-5.175802391022443771e-03,-2.507499186322093010e-03,6.366947200149297714e-03,-3.092215629294514656e-04,-1.300854375585913658e-03,6.434791721403598785e-04,-7.599473930895328522e-03,-1.698341686278581619e-03,1.833566813729703426e-03,1.056164503097534180e-03,6.310619413852691650e-03,1.706105889752507210e-03,3.155686659738421440e-03,-5.670937243849039078e-03,-6.234839558601379395e-03,3.833881113678216934e-03,-3.647816600278019905e-03,2.193027175962924957e-03,-1.103313989005982876e-03,5.193711258471012115e-03,1.809356152079999447e-03,6.238611880689859390e-03,-2.646816428750753403e-03,-3.391019999980926514e-03,-7.373460102826356888e-03,2.317131496965885162e-03,7.190313655883073807e-03,1.207071589305996895e-03,-2.708012703806161880e-03,2.887659240514039993e-03,1.037607435137033463e-03,3.991993609815835953e-03,1.846473314799368382e-03,3.687249263748526573e-03,-6.499088834971189499e-03,-5.483461543917655945e-03,-4.564953967928886414e-03,1.052857958711683750e-03,-7.405699230730533600e-03
-4.403571132570505142e-03,-1.091485377401113510e-03,4.305230977479368448e-04,-4.637624137103557587e-03,8.557614055462181568e-04,3.979728557169437408e-03,-5.909885279834270477e-03,-2.156024333089590073e-03,1.883709221147000790e-03,-4.519360139966011047e-03,-3.649430116638541222e-03,-4.498045891523361206e-03,3.707276890054345131e-03,-1.814227201975882053e-03,-3.024020465090870857e-03,2.579791937023401260e-03,4.177606664597988129e-03,6.258106790482997894e-03,2.679554745554924011e-03,-7.627557497471570969e-03,4.715723451226949692e-03,-1.748932409100234509e-03,-2.249001758173108101e-03,3.647305304184556007e-03,-4.581842804327607155e-04,4.779514390975236893e-03,-1.665850286372005939e-03,4.192882042843848467e-04,2.701975405216217041e-03,-2.561915898695588112e-03,-6.728418637067079544e-03,4.229719750583171844e-03,3.051410662010312080e-03,-4.355692770332098007e-03,6.469719577580690384e-03,4.076647106558084488e-03,2.923588501289486885e-03,3.372224979102611542e-03,-4.483067896217107773e-03,-6.316829472780227661e-03,2.473485423251986504e-03,-4.690067842602729797e-03,7.023706566542387009e-03,7.340988144278526306e-03,-2.583497203886508942e-03,5.975296255201101303e-03,2.692399080842733383e-03,-1.835141447372734547e-03,-6.705176085233688354e-03,6.532329600304365158e-03,2.501948270946741104e-03,5.578104406595230103e-03,4.155794158577919006e-03,7.536487653851509094e-03,4.038496408611536026e-03,-5.895409267395734787e-03,-1.687802141532301903e-03,4.323881585150957108e-03,-5.319965537637472153e-03,7.425614632666110992e-03,-7.195774815045297146e-04,7.629175670444965363e-03,2.437586896121501923e-03,4.442965146154165268e-03
-5.061055067926645279e-03,5.872199311852455139e-03,-7.528367452323436737e-03,-4.292661324143409729e-03,-6.976449396461248398e-03,6.643102504312992096e-03,-3.419472370296716690e-03,2.198565052822232246e-03,-1.187604153528809547e-03,6.764771416783332825e-03,4.789261613041162491e-03,6.691223941743373871e-03,3.395558334887027740e-03,3.642847063019871712e-03,-7.144189905375242233e-03,2.262036548927426338e-03,5.061755888164043427e-03,-5.057970993220806122e-03,-2.824070725182536989e-05,-6.235070992261171341e-03,-6.229109130799770355e-03,5.374090280383825302e-03,1.701171975582838058e-03,7.530224043875932693e-03,-4.975838121026754379e-03,1.858563337009400129e-05,-6.088094785809516907e-03,-7.448491174727678299e-03,-4.471781197935342789e-03,-2.864493988454341888e-03,4.779553506523370743e-03,-9.774951031431555748e-04,-4.510527942329645157e-03,4.925903864204883575e-03,-4.645892884582281113e-03,-1.380961039103567600e-04,2.458819421008229256e-03,-9.638440096750855446e-04,-7.517680060118436813e-04,4.111716058105230331e-03,-1.565819722600281239e-03,3.090361133217811584e-03,1.738072955049574375e-03,3.278183517977595329e-03,-7.749531068839132786e-04,3.210175549611449242e-03,1.203191815875470638e-03,-3.801399609073996544e-03,5.727939307689666748e-03,-6.411666050553321838e-03,-3.765923669561743736e-03,-2.151749096810817719e-03,2.190216677263379097e-03,6.118684541434049606e-03,-9.086933569051325321e-04,-1.767451292835175991e-03,1.454994198866188526e-03,7.005617953836917877e-03,4.301321692764759064e-03,1.867369166575372219e-03,5.104135256260633469e-03,-1.500345184467732906e-03,-5.026847589761018753e-03,4.115787800401449203e-03
7.101623807102441788e-03,-2.952290698885917664e-03,7.214508485049009323e-03,7.081557530909776688e-03,-3.683035029098391533e-03,6.308891810476779938e-03,-4.669500980526208878e-03,-2.411339432001113892e-03,-5.088245030492544174e-03,-3.720040433108806610e-03,-4.414718598127365112e-03,-3.326447447761893272e-03,-6.803265772759914398e-03,-5.271411966532468796e-03,-5.436938721686601639e-03,-4.898184444755315781e-03,-1.245380990440025926e-04,8.834688342176377773e-04,-2.522240160033106804e-03,4.532448016107082367e-03,-1.841693418100476265e-03,5.603295285254716873e-03,-2.083542756736278534e-03,4.649547860026359558e-03,-7.229130715131759644e-03,-7.596353068947792053e-03,5.824782885611057281e-03,-5.869251908734440804e-04,-3.739858744665980339e-03,-4.183239769190549850e-03,5.752979777753353119e-03,-1.274865353479981422e-03,1.312054460868239403e-03,3.225454594939947128e-03,-4.770698491483926773e-03,-6.083643063902854919e-03,2.440759213641285896e-03,-4.908161703497171402e-03,-6.419617217034101486e-03,4.836386069655418396e-03,-2.737567760050296783e-03,4.340957384556531906e-04,-6.461361888796091080e-03,-2.571451710537075996e-03,-5.536410491913557053e-03,-9.569699177518486977e-04,3.330053063109517097e-03,-1.722577493637800217e-03,7.395374588668346405e-03,-4.106311127543449402e-03,-7.237826008349657059e-03,-3.531032940372824669e-03,4.986820276826620102e-03,-5.244490224868059158e-03,2.026635454967617989e-03,7.276490796357393265e-03,4.374092444777488708e-03,2.901491709053516388e-03,-2.465776924509555101e-04,-3.555432427674531937e-03,1.681252848356962204e-03,9.411136270500719547e-04,9.091234533116221428e-04,-5.200434010475873947e-03
-5.218432750552892685e-03,-1.322860363870859146e-03,4.090799775440245867e-04,-6.544785574078559875e-03,-3.423975314944982529e-03,-7.558946032077074051e-03,-3.790298243984580040e-03,5.846118554472923279e-03,-7.408305536955595016e-03,6.814444903284311295e-03,5.826357752084732056e-03,-4.549919976852834225e-04,6.465170532464981079e-03,-6.623340770602226257e-03,4.781370051205158234e-03,1.326228142715990543e-03,-5.224160850048065186e-03,-3.857706906273961067e-03,-5.395376589149236679e-03,-6.769768893718719482e-03,2.613600343465805054e-03,-6.211774423718452454e-03,1.927080680616199970e-03,-7.452684920281171799e-03,-2.187829464673995972e-03,-3.642197698354721069e-04,-6.830535130575299263e-05,-5.028769839555025101e-03,3.994137514382600784e-03,5.825113505125045776e-03,2.040918116108514369e-05,4.333334974944591522e-03,-6.202416028827428818e-03,-3.071145620197057724e-03,-2.954766852781176567e-03,-5.469086114317178726e-03,7.373073138296604156e-03,1.189362606965005398e-03,1.939028850756585598e-03,2.252372913062572479e-03,7.236654404550790787e-03,2.318441402167081833e-03,-7.181774126365780830e-04,4.724122583866119385e-03,-1.681001391261816025e-03,-6.924531888216733932e-03,-5.560319870710372925e-03,1.517251715995371342e-03,8.725101943127810955e-04,-5.555455107241868973e-03,-4.984079394489526749e-03,6.409528199583292007e-03,5.012293811887502670e-03,-6.793276406824588776e-03,4.737893119454383850e-03,6.118769291788339615e-03,5.980532150715589523e-03,7.857044693082571030e-04,-6.557153072208166122e-03,6.580278743058443069e-03,2.629990922287106514e-03,-5.243229214102029800e-03,-2.661892212927341461e-03,4.279918503016233444e-03
7.509281393140554428e-03,-6.828282959759235382e-03,-1.181624596938490868e-03,2.539198845624923706e-03,-5.424565635621547699e-03,1.473106094636023045e-03,5.723543930798768997e-03,2.906665671616792679e-03,-2.516922308132052422e-03,-5.242955870926380157e-03,-4.674546886235475540e-03,-7.196628022938966751e-03,1.394971041008830070e-03,-4.336170386523008347e-03,5.235517863184213638e-03,6.022337824106216431e-03,3.889915766194462776e-03,5.275265779346227646e-03,5.046881735324859619e-03,5.383798852562904358e-03,1.823977334424853325e-03,1.438305946066975594e-03,-3.304172540083527565e-03,-1.750931143760681152e-03,4.606894683092832565e-03,-6.010778248310089111e-03,-1.126884133554995060e-03,5.839772988110780716e-03,3.188830800354480743e-03,2.055566757917404175e-03,-6.783118005841970444e-03,1.316453563049435616e-03,4.478476941585540771e-03,-3.367370925843715668e-03,-3.415923099964857101e-03,6.455188617110252380e-03,-5.312353372573852539e-03,5.149695090949535370e-03,-5.813490599393844604e-03,-1.099858083762228489e-03,2.155494876205921173e-03,4.860532935708761215e-03,3.969933837652206421e-03,-4.520683549344539642e-03,7.389927282929420471e-03,7.351033389568328857e-03,-4.325491841882467270e-03,2.853480400517582893e-04,3.680060151964426041e-03,-2.033000811934471130e-03,-6.980978883802890778e-03,4.324245266616344452e-03,-7.155207917094230652e-03,-5.066895391792058945e-03,-2.572105498984456062e-03,2.122429199516773224e-03,2.714378060773015022e-03,3.302614437416195869e-03,7.466368842869997025e-03,5.227657034993171692e-03,-6.581180728971958160e-03,2.600074745714664459e-03,4.665306769311428070e-03,9.371805936098098755e-04
-7.138910586945712566e-04,7.963440730236470699e-04,3.281859448179602623e-03,2.763477619737386703e-03,1.502642524428665638e-03,1.083580544218420982e-03,-4.627707879990339279e-03,4.646029789000749588e-03,-2.095953328534960747e-03,-4.338933504186570644e-04,7.275481708347797394e-03,2.492935396730899811e-03,7.775489939376711845e-04,-2.751933876425027847e-03,3.633695654571056366e-03,5.886172875761985779e-03,-1.840442651882767677e-03,-5.090367980301380157e-03,4.073031712323427200e-03,4.298022948205471039e-03,4.977516364306211472e-03,-7.078347261995077133e-04,-1.881832606159150600e-03,1.294098678044974804e-03,8.173667592927813530e-04,-3.647599369287490845e-03,-1.947707729414105415e-03,1.179174170829355717e-03,-3.941837698221206665e-03,3.317008959129452705e-03,-5.229249596595764160e-03,-3.507196670398116112e-03,-1.572896027937531471e-03,-5.375727079808712006e-03,-6.793383508920669556e-03,7.036267779767513275e-03,-1.484066946431994438e-03,-3.083810443058609962e-03,7.099181413650512695e-03,2.719238400459289551e-03,-5.620490992441773415e-04,2.301237545907497406e-03,-3.111118217930197716e-03,5.561505444347858429e-03,-2.366625238209962845e-03,5.979250650852918625e-03,-4.723901860415935516e-03,6.846590898931026459e-03,2.396430121734738350e-03,-1.717500505037605762e-03,1.622552867047488689e-03,-4.968964960426092148e-03,4.160241689532995224e-03,4.611758980900049210e-03,-7.365738041698932648e-03,7.228351198136806488e-03,-4.149846266955137253e-03,6.300271488726139069e-03,-3.775572404265403748e-03,-5.132974591106176376e-03,-2.943977713584899902e-03,4.818450193852186203e-03,5.775291938334703445e-03,-4.655246157199144363e-03
-5.217351485043764114e-03,-2.655450021848082542e-03,-6.186847575008869171e-03,-2.569480857346206903e-04,6.743573583662509918e-03,5.521056707948446274e-03,1.339127542451024055e-03,3.670569043606519699e-03,-2.112851943820714951e-03,-3.301565535366535187e-03,4.392386879771947861e-03,3.580668242648243904e-03,-6.391158327460289001e-03,2.513233106583356857e-03,1.274981535971164703e-03,-2.612941432744264603e-03,-8.371556177735328674e-04,7.023219950497150421e-04,2.342636696994304657e-03,-1.332763116806745529e-03,-3.741174237802624702e-03,1.322641153819859028e-03,2.491099992766976357e-03,2.664417261257767677e-03,-1.725172274746000767e-03,2.334656310267746449e-04,-2.521961578167974949e-04,2.556911204010248184e-03,-3.513564821332693100e-03,-6.800249218940734863e-03,-7.022656500339508057e-03,-5.999258719384670258e-03,5.285655613988637924e-03,-6.863623391836881638e-03,6.256456021219491959e-03,1.041658455505967140e-03,-6.042785942554473877e-03,-1.990657532587647438e-03,6.365382112562656403e-03,-4.097060766071081161e-03,-5.652417894452810287e-03,-3.827754873782396317e-03,1.484320731833577156e-03,-3.182453103363513947e-03,-6.183936726301908493e-03,3.577521536499261856e-03,-4.387500230222940445e-03,-3.280324162915349007e-03,4.257705062627792358e-03,2.422164194285869598e-03,4.428371321409940720e-03,-1.537534408271312714e-03,-3.754555480554699898e-03,4.121378529816865921e-03,4.010640084743499756e-03,-7.135696243494749069e-03,-7.435138802975416183e-03,5.883656907826662064e-03,4.211639054119586945e-03,7.403098046779632568e-03,8.172884699888527393e-04,-2.060851082205772400e-03,-6.726486608386039734e-04,8.934511570259928703e-04
-3.155918326228857040e-03,8.408431313000619411e-05,-7.057074923068284988e-03,6.893631536513566971e-03,-7.583469152450561523e-03,-3.611676860600709915e-03,2.002242021262645721e-03,-5.096203181892633438e-03,-3.319031558930873871e-03,-6.895934231579303741e-03,6.862033042125403881e-04,-5.407643504440784454e-03,-2.778089372441172600e-03,-1.461881329305469990e-03,-5.480622872710227966e-03,1.637785695493221283e-03,2.332463394850492477e-03,6.303054280579090118e-03,-7.438906468451023102e-03,7.598088588565587997e-03,-7.342050317674875259e-03,-4.804535303264856339e-03,-4.419486038386821747e-03,-2.820023801177740097e-03,4.358408972620964050e-03,4.580248147249221802e-03,4.390759393572807312e-03,-3.577067283913493156e-03,3.321491880342364311e-03,4.865032620728015900e-03,1.815004507079720497e-03,6.759018637239933014e-03,-1.423386740498244762e-03,-6.687376182526350021e-03,-5.018694719183258712e-05,4.040005151182413101e-03,6.132956128567457199e-03,-5.062833428382873535e-03,-6.017413455992937088e-03,-1.699825515970587730e-03,-4.748526029288768768e-03,-4.586665454553440213e-05,6.768996361643075943e-03,-3.805044107139110565e-04,2.883233828470110893e-04,-4.612109041772782803e-04,-4.982626414857804775e-04,-2.270905533805489540e-04,1.337290974333882332e-03,-7.359984796494245529e-03,6.118942983448505402e-03,4.162986762821674347e-03,3.267896827310323715e-03,-5.847499240189790726e-03,-1.470845891162753105e-03,-1.646570628508925438e-03,-4.005906172096729279e-03,-7.046686485409736633e-03,3.306605387479066849e-03,5.301217548549175262e-03,4.705222789198160172e-03,6.803771830163896084e-04,3.554449882358312607e-03,4.203127697110176086e-03
4.571628756821155548e-03,7.092735613696277142e-04,3.543669125065207481e-03,-7.536898367106914520e-03,-1.407249947078526020e-03,2.626151079311966896e-03,5.909556522965431213e-03,6.856366991996765137e-03,1.256038784049451351e-03,-1.052955194609239697e-04,6.865405593998730183e-04,-6.417266558855772018e-03,-2.084610052406787872e-03,-3.125648712739348412e-03,6.466371007263660431e-03,4.198040813207626343e-03,-5.724034737795591354e-03,-5.108710844069719315e-03,2.790693251881748438e-04,5.685351788997650146e-03,-3.598093986511230469e-03,7.242367602884769440e-03,1.210967078804969788e-03,-2.259338740259408951e-03,1.926345401443541050e-03,-3.753665136173367500e-03,-6.802293471992015839e-03,-6.915572565048933029e-03,7.204222027212381363e-03,5.544626619666814804e-03,-6.012589205056428909e-03,5.494774319231510162e-03,-2.488314639776945114e-03,5.865474697202444077e-03,-3.932201303541660309e-03,-7.372708991169929504e-03,3.002126002684235573e-03,1.457671402022242546e-03,-7.125784177333116531e-03,-7.535235956311225891e-03,2.790229162201285362e-03,-6.965249311178922653e-03,-4.925338085740804672e-03,4.569102078676223755e-03,7.250150199979543686e-03,-4.086566623300313950e-03,3.865661798045039177e-03,-6.175505928695201874e-03,-1.799111720174551010e-03,6.706303916871547699e-03,2.305341186001896858e-03,-4.641145467758178711e-03,1.053939195116981864e-04,-4.414720926433801651e-03,4.142319448874332011e-05,-5.119904875755310059e-03,-6.373890209943056107e-03,6.271496880799531937e-03,4.187883343547582626e-03,-7.293140515685081482e-03,3.629881888628005981e-03,5.217601545155048370e-03,-3.027530619874596596e-03,-7.066209334880113602e-03
-2.344284439459443092e-03,2.199031878262758255e-03,-2.837328240275382996e-03,-8.858848013915121555e-04,-4.706616047769784927e-03,6.616035825572907925e-04,7.012636400759220123e-03,1.340254209935665131e-03,-4.459479823708534241e-03,5.863595288246870041e-03,1.513027120381593704e-03,4.816090222448110580e-03,5.437805783003568649e-03,-7.553540170192718506e-03,7.533192168921232224e-03,2.154296729713678360e-03,-1.802099985070526600e-03,-1.501253806054592133e-03,-6.349628791213035583e-03,-1.578143914230167866e-03,1.558802672661840916e-03,7.446013856679201126e-03,-4.505540709942579269e-03,-4.013504367321729660e-03,-2.895763842388987541e-03,-3.518920624628663063e-03,3.229611087590456009e-03,1.148039824329316616e-03,3.637237939983606339e-03,-7.290794514119625092e-03,1.945363939739763737e-03,7.307337364181876183e-04,2.969446126371622086e-03,2.645674394443631172e-03,7.240985520184040070e-03,-5.097868852317333221e-03,-3.337112022563815117e-03,6.894691847264766693e-03,7.117819972336292267e-03,-2.799185924232006073e-03,-6.907924544066190720e-03,-4.442682489752769470e-03,3.361773211508989334e-03,-3.147213254123926163e-03,-4.018106032162904739e-03,-3.485641209408640862e-03,3.614085959270596504e-03,8.852495229803025723e-04,-6.196113768965005875e-03,7.090759929269552231e-03,4.370382055640220642e-03,-4.115896299481391907e-03,5.260549951344728470e-03,5.245028063654899597e-03,-6.706732674501836300e-04,-2.829642733559012413e-03,-5.420845001935958862e-03,1.522315666079521179e-03,-3.045027377083897591e-03,-5.713493563234806061e-03,3.981226123869419098e-03,-7.366436533629894257e-03,-3.891520900651812553e-03,3.052580635994672775e-03
1.994758611544966698e-03,-6.028788629919290543e-03,-7.701996946707367897e-04,1.363310439046472311e-04,-4.896426573395729065e-03,1.968097873032093048e-03,2.718988340348005295e-03,-1.933918065333273262e-05,-7.005420047789812088e-03,6.790187209844589233e-03,-4.966781008988618851e-03,-2.382959239184856415e-03,1.233813585713505745e-03,-4.217886831611394882e-03,2.375912386924028397e-03,6.123382132500410080e-03,-2.756917383521795273e-03,-2.031156560406088829e-03,-3.455021884292364120e-03,-4.038865678012371063e-03,-2.117607276886701584e-03,-6.729549728333950043e-03,-4.052311647683382034e-03,-2.264974405989050865e-03,1.737349550239741802e-03,5.899906158447265625e-03,-3.333932021632790565e-03,-4.257975670043379068e-04,4.677255172282457352e-03,3.356943780090659857e-04,-4.908010363578796387e-03,4.691984504461288452e-03,-2.623526088427752256e-04,-2.250874880701303482e-03,-3.629322163760662079e-04,7.272304501384496689e-03,2.814899198710918427e-03,5.245711654424667358e-03,-6.152175832539796829e-03,1.591445412486791611e-03,3.567653242498636246e-03,7.052604574710130692e-03,8.604886825196444988e-04,-6.322896573692560196e-03,6.579154636710882187e-03,7.196383085101842880e-03,-1.940384740009903908e-03,5.798021797090768814e-03,3.266693325713276863e-03,3.913655411452054977e-03,-6.686268374323844910e-03,1.060731126926839352e-03,8.194606052711606026e-04,1.903056545415893197e-04,5.285020451992750168e-03,5.595137365162372589e-03,5.439973901957273483e-03,5.836047232151031494e-03,-2.854155143722891808e-03,6.853436119854450226e-03,2.911274554207921028e-03,2.297264989465475082e-03,7.543463259935379028e-03,4.829510115087032318e-03
-1.553980284370481968e-03,-2.444562596792820841e-05,-3.363706171512603760e-03,-6.852403283119201660e-03,5.985347088426351547e-03,2.010548720136284828e-03,3.312509274110198021e-03,-6.613794830627739429e-04,-5.588169675320386887e-03,4.721445497125387192e-03,-3.882452612742781639e-03,-1.253444701433181763e-03,-2.777080051600933075e-03,-3.841618541628122330e-03,4.996176343411207199e-03,-1.282635843381285667e-03,-3.911613021045923233e-03,1.771718729287385941e-03,-1.151882577687501907e-03,-4.845327232033014297e-03,-5.359368398785591125e-03,5.595101509243249893e-03,-3.862116253003478050e-03,7.249972317367792130e-03,7.036768365651369095e-03,-3.232479095458984375e-03,-7.262941449880599976e-03,1.232474925927817822e-03,-3.782810876145958900e-03,4.072076175361871719e-03,-5.317396484315395355e-03,2.911831485107541084e-03,-5.728252697736024857e-03,-5.133779253810644150e-03,2.103455044561997056e-04,7.838287856429815292e-04,-2.830848330631852150e-03,4.159893374890089035e-03,-1.201925682835280895e-03,-4.908677656203508377e-03,-3.663290757685899734e-03,-5.811363458633422852e-03,1.955694518983364105e-03,-6.692820228636264801e-03,6.010669749230146408e-03,7.151497062295675278e-03,-4.504228476434946060e-03,-6.365123204886913300e-03,-3.125344635918736458e-03,6.152959074825048447e-03,-6.126961670815944672e-03,-8.675946737639605999e-04,7.208262570202350616e-03,-7.220023311674594879e-03,-4.826709628105163574e-03,-5.076126195490360260e-03,-4.209371749311685562e-03,-2.084958832710981369e-03,5.885283928364515305e-03,-3.758043749257922173e-03,2.557393163442611694e-03,7.289671339094638824e-03,2.390735317021608353e-03,-4.061806015670299530e-03
7.430591620504856110e-03,-6.060305517166852951e-03,4.727881168946623802e-04,4.636012949049472809e-03,-3.114405088126659393e-03,4.133611917495727539e-03,-1.542646205052733421e-03,4.244272131472826004e-03,-6.375466473400592804e-03,-5.716355517506599426e-03,1.830141700338572264e-04,6.697939243167638779e-03,-1.273469184525310993e-03,-5.735112354159355164e-03,1.832480425946414471e-03,2.750068779278080910e-05,1.269108732230961323e-03,7.824176573194563389e-04,3.587200073525309563e-03,-6.783466786146163940e-03,7.102631963789463043e-03,5.497147329151630402e-03,-3.791508730500936508e-03,-6.473802961409091949e-03,-4.078019876033067703e-03,-5.320360884070396423e-03,-7.145926938392221928e-04,-1.202748273499310017e-03,3.008086059708148241e-04,3.978782799094915390e-03,-6.875291466712951660e-03,-1.314023626036942005e-03,7.210091571323573589e-04,-3.853806294500827789e-03,-3.091277321800589561e-03,2.045285655185580254e-03,1.493772258982062340e-03,2.348038833588361740e-03,-3.929858561605215073e-03,1.060982234776020050e-03,-5.061762407422065735e-03,4.353890661150217056e-03,-6.795737426728010178e-03,-1.991103636100888252e-03,-3.071960993111133575e-03,1.892398577183485031e-04,1.366645214147865772e-03,-6.807724013924598694e-03,1.356272958219051361e-03,-1.059538102708756924e-03,3.288221312686800957e-03,-6.824329029768705368e-03,-2.787059638649225235e-03,6.761028897017240524e-03,4.652545321732759476e-03,-3.669982077553868294e-03,-4.883173387497663498e-04,-3.406317904591560364e-03,1.824169652536511421e-03,5.395044106990098953e-03,-1.070428406819701195e-03,2.630414441227912903e-03,2.151482971385121346e-03,-2.146010519936680794e-03
-3.188452916219830513e-03,1.485032378695905209e-03,6.642264779657125473e-03,-3.711631521582603455e-03,-1.395434257574379444e-03,-5.179872270673513412e-03,-8.194129914045333862e-04,-1.277509611099958420e-03,5.638756789267063141e-03,-9.003746090456843376e-04,3.200611172360368073e-05,3.144735237583518028e-03,-4.991282708942890167e-03,-7.408804260194301605e-03,7.281201425939798355e-03,-3.695105668157339096e-03,4.518270725384354591e-04,7.002879865467548370e-03,4.809473175555467606e-03,-5.185358226299285889e-03,-4.708911292254924774e-03,3.974529972765594721e-04,-7.621123455464839935e-03,1.616297988221049309e-03,-7.218527141958475113e-03,1.555886236019432545e-03,3.888004226610064507e-03,-3.207298927009105682e-03,3.476931015029549599e-03,-4.645182751119136810e-03,-7.070826366543769836e-03,-4.212234634906053543e-03,1.748788869008421898e-03,3.198973136022686958e-03,3.091155318543314934e-03,5.547029431909322739e-03,5.203803535550832748e-03,3.819442063104361296e-04,7.161761168390512466e-04,-3.091265680268406868e-03,-1.751653268001973629e-03,5.243512336164712906e-03,4.433873109519481659e-03,5.666173528879880905e-03,-1.370683196000754833e-03,-1.541386154713109136e-05,-2.361104707233607769e-04,-4.491464234888553619e-03,6.495499983429908752e-03,-6.439768709242343903e-03,-4.115030169486999512e-03,-3.054172964766621590e-03,-1.118587795644998550e-03,2.823923481628298759e-03,7.528636138886213303e-03,-1.490009017288684845e-03,-5.948451347649097443e-03,-1.584987039677798748e-03,-2.830318873748183250e-03,-4.296952392905950546e-03,3.161260683555155993e-04,3.215316450223326683e-03,-7.428412325680255890e-03,-2.469399711117148399e-03
4.185166326351463795e-04,4.437980707734823227e-03,5.668331403285264969e-03,1.479931990616023540e-03,5.643145646899938583e-03,1.139776722993701696e-04,-6.367987953126430511e-03,2.571048447862267494e-03,-2.987027633935213089e-03,-4.066612571477890015e-03,-5.697441287338733673e-03,-3.245978150516748428e-03,-5.529878661036491394e-03,4.948378074914216995e-03,2.646123757585883141e-03,1.312096137553453445e-03,4.683034960180521011e-03,-6.948852911591529846e-03,-3.837315365672111511e-03,6.214650813490152359e-03,-3.922899719327688217e-03,6.534592248499393463e-03,4.481725860387086868e-03,3.947507124394178391e-03,-1.170224510133266449e-03,6.996121257543563843e-03,-1.669379649683833122e-03,-5.972561426460742950e-03,2.021211665123701096e-03,4.027710296213626862e-03,-4.532414823188446462e-05,-5.928598344326019287e-03,4.824899137020111084e-03,2.259283792227506638e-03,-3.275153692811727524e-03,5.502911284565925598e-03,5.234879907220602036e-03,-4.462281242012977600e-03,2.694636117666959763e-03,2.520665584597736597e-04,-4.455941729247570038e-03,5.766225047409534454e-03,6.435788236558437347e-03,-4.238828551024198532e-03,4.855642560869455338e-03,2.251215279102325439e-03,4.600157961249351501e-03,-5.345259793102741241e-03,1.744037494063377380e-03,-3.571647917851805687e-03,3.276208182796835899e-03,-1.363576506264507771e-03,-6.821508985012769699e-03,-6.198151386342942715e-04,5.775487050414085388e-03,7.493783719837665558e-03,2.187230624258518219e-03,-6.891785655170679092e-03,-1.339941285550594330e-03,8.594946702942252159e-04,9.843341540545225143e-04,-7.271638140082359314e-03,-1.664965762756764889e-03,-6.297891028225421906e-03
-4.896586760878562927e-03,-3.527154913172125816e-03,1.225278596393764019e-03,-6.372975651174783707e-03,4.517680034041404724e-03,5.334111396223306656e-03,2.695695264264941216e-03,-3.945906646549701691e-04,4.307880531996488571e-03,4.957761149853467941e-03,-6.737676914781332016e-03,6.909057265147566795e-04,5.460117012262344360e-03,1.021637348458170891e-03,-3.713341662660241127e-03,-4.596588667482137680e-03,-5.193144548684358597e-03,-7.311185356229543686e-03,4.892723169177770615e-03,3.363249357789754868e-03,1.722858636640012264e-03,2.128242282196879387e-03,-3.245933447033166885e-03,2.432657172903418541e-03,-4.972331225872039795e-03,-1.117441616952419281e-02,8.324272930622100830e-03,-4.625550005584955215e-03,5.085120443254709244e-03,-4.676789045333862305e-03,6.158940028399229050e-03,4.638228099793195724e-03,3.220220329239964485e-03,4.844326525926589966e-03,1.473954063840210438e-03,-6.349635776132345200e-03,-6.584855262190103531e-03,-3.572360612452030182e-03,-2.173391170799732208e-03,-5.690216130460612476e-05,6.118902005255222321e-03,-3.715811297297477722e-03,8.938396349549293518e-03,-2.437341259792447090e-03,3.600589698180556297e-03,-4.590802360326051712e-03,-6.597706116735935211e-03,-5.494917742908000946e-03,-6.819770671427249908e-03,-5.150564480572938919e-03,1.164095476269721985e-03,-6.665419787168502808e-03,5.254679359495639801e-03,-1.078351680189371109e-02,9.689322672784328461e-03,-4.599952138960361481e-03,4.302258603274822235e-03,-2.408771077170968056e-03,-3.932253457605838776e-03,-7.465973962098360062e-03,-3.288117470219731331e-03,-3.002549288794398308e-03,2.313192380825057626e-04,-4.457884642761200666e-04
4.498623777180910110e-03,1.099785231053829193e-02,5.196578335016965866e-03,7.442587986588478088e-03,1.168165006674826145e-03,4.945109598338603973e-03,-1.162116508930921555e-02,-9.723862167447805405e-04,2.319989027455449104e-03,2.230086131021380424e-03,4.670445807278156281e-03,1.235134061425924301e-02,1.577166840434074402e-02,8.928854949772357941e-04,1.174356089904904366e-03,5.584205500781536102e-03,5.428118165582418442e-03,-3.001376520842313766e-03,2.640133243403397501e-05,1.155995484441518784e-02,-4.332866054028272629e-03,-2.339260187000036240e-03,-7.163504138588905334e-03,4.161034710705280304e-03,1.390288380207493901e-04,-1.334273815155029297e-02,-1.672420301474630833e-03,-2.873770426958799362e-03,5.503917345777153969e-04,9.672140004113316536e-04,-7.105647819116711617e-04,1.144214067608118057e-02,7.247657515108585358e-03,-6.377777084708213806e-03,4.120081663131713867e-03,4.554702900350093842e-03,-5.336629226803779602e-03,-1.314440858550369740e-03,-1.894619665108621120e-03,5.061898846179246902e-03,2.853448502719402313e-03,-1.037662476301193237e-02,-7.635248475708067417e-04,3.354670479893684387e-03,2.286036498844623566e-03,-6.477111950516700745e-03,-4.673608578741550446e-03,2.557605039328336716e-03,-2.944072242826223373e-03,1.415511476807296276e-03,3.103262279182672501e-03,-1.511204801499843597e-02,-3.790984395891427994e-03,-8.857483975589275360e-03,1.831271685659885406e-02,2.971044275909662247e-03,4.946959204971790314e-03,-1.585137285292148590e-02,4.005123337265104055e-04,1.106682117097079754e-03,-1.769017055630683899e-02,5.546913947910070419e-03,-3.595621557906270027e-03,-6.445332895964384079e-03
-4.459576681256294250e-03,-2.394740236923098564e-03,-1.795327872969210148e-03,-1.874401001259684563e-03,-6.110805086791515350e-03,-1.422688481397926807e-03,-6.636505015194416046e-03,-8.880002424120903015e-03,-5.292436107993125916e-03,-5.611877422779798508e-03,-5.296311806887388229e-03,6.304342765361070633e-03,1.279877219349145889e-02,7.117372006177902222e-03,3.150464268401265144e-03,-1.450128736905753613e-03,-7.807485293596982956e-03,-1.177336741238832474e-02,4.565407056361436844e-03,-2.803315641358494759e-03,-1.068246830254793167e-02,-1.185710891149938107e-03,8.757793344557285309e-03,6.880653556436300278e-03,-6.522412411868572235e-03,-1.930748671293258667e-02,6.926496978849172592e-03,5.689500831067562103e-03,6.893797311931848526e-03,-9.370135143399238586e-03,2.714635804295539856e-03,2.652426436543464661e-02,9.944090852513909340e-04,-6.353846751153469086e-03,6.838338449597358704e-03,-5.404228344559669495e-03,-4.120359662920236588e-03,-1.420104224234819412e-02,6.069915834814310074e-04,-2.980846911668777466e-03,1.250110287219285965e-02,-8.548445068299770355e-03,3.666784148663282394e-03,7.678139954805374146e-03,-9.645947138778865337e-04,-2.755275228992104530e-03,6.549695972353219986e-03,3.100007306784391403e-03,-1.085376460105180740e-02,6.364057771861553192e-04,-3.420390887185931206e-03,-1.044698245823383331e-02,4.144313745200634003e-03,-1.317970734089612961e-02,2.118799462914466858e-02,-7.098680827766656876e-03,-7.313497917493805289e-05,-1.104458607733249664e-02,-2.829003380611538887e-03,-4.964934778399765491e-04,-7.973604835569858551e-03,-5.228735506534576416e-03,3.343733027577400208e-03,9.001832804642617702e-04
1.586844911798834801e-03,8.815559558570384979e-03,-6.137639866210520267e-04,3.742500906810164452e-03,-3.831752343103289604e-03,3.743521636351943016e-03,1.320053706876933575e-03,2.591673692222684622e-04,3.971938509494066238e-03,4.270261153578758240e-03,2.123862970620393753e-03,8.361416868865489960e-03,-1.676009618677198887e-03,6.703805644065141678e-03,-6.800893228501081467e-03,4.698112607002258301e-03,4.766435828059911728e-03,-9.612886235117912292e-03,-2.371504437178373337e-03,5.320600233972072601e-03,-1.449833041988313198e-03,5.218663252890110016e-03,6.795274093747138977e-03,-6.957623176276683807e-03,3.180382307618856430e-03,-9.942095726728439331e-03,5.555390380322933197e-03,7.016884628683328629e-03,-6.674514617770910263e-03,-6.085094995796680450e-03,6.578719330718740821e-05,1.252373121678829193e-02,5.749408155679702759e-03,4.125771578401327133e-03,3.933288622647523880e-03,7.715291343629360199e-03,-2.876156242564320564e-03,-1.463729538954794407e-03,-3.186100162565708160e-03,-1.056321663782000542e-03,4.661220125854015350e-03,-7.295383140444755554e-03,-5.733508151024580002e-03,3.358083311468362808e-03,1.594843575730919838e-03,-2.496764529496431351e-03,3.539885859936475754e-03,4.639117512851953506e-03,-4.058536607772111893e-03,2.365002641454339027e-03,2.759540220722556114e-03,3.991233184933662415e-03,-6.423599552363157272e-03,-4.022702632937580347e-04,-9.788559982553124428e-04,-9.721194510348141193e-04,-3.961017820984125137e-03,-4.944973159581422806e-03,-4.045478068292140961e-03,6.724566686898469925e-03,-2.556988969445228577e-03,-9.341608383692800999e-04,-5.401901900768280029e-03,4.765546880662441254e-03
7.732164114713668823e-03,3.625547979027032852e-03,2.684442792087793350e-03,-1.657990622334182262e-03,-3.326251171529293060e-03,5.237163975834846497e-03,-8.085614535957574844e-05,5.726782255806028843e-04,-5.128987599164247513e-03,7.910848595201969147e-03,4.629657603800296783e-03,1.332723535597324371e-02,-1.767746289260685444e-03,-3.952117171138525009e-03,1.063548610545694828e-03,-1.106006442569196224e-03,1.365803618682548404e-04,-6.212270352989435196e-03,-6.630103569477796555e-03,8.277790620923042297e-03,2.102309372276067734e-03,5.453631281852722168e-03,-4.117208998650312424e-03,1.005745958536863327e-03,-2.484868047758936882e-03,-2.889573108404874802e-03,1.592191983945667744e-03,-2.243590541183948517e-03,-6.009207572788000107e-03,-6.865180563181638718e-03,-1.444374676793813705e-03,3.264271188527345657e-03,1.430555596016347408e-03,-1.285879756323993206e-03,-5.930179730057716370e-03,8.750047534704208374e-03,2.008159412071108818e-03,3.638599766418337822e-03,8.244127966463565826e-03,9.698414942249655724e-04,4.612879361957311630e-03,-1.067399885505437851e-02,-1.455148798413574696e-03,3.708698553964495659e-03,5.018757190555334091e-03,-4.199943505227565765e-04,4.995574243366718292e-03,5.115782376378774643e-03,6.331937853246927261e-03,2.588243223726749420e-03,2.209018450230360031e-03,-2.803138224408030510e-03,1.965104136615991592e-03,-2.626350382342934608e-03,7.019202690571546555e-03,-1.898076850920915604e-03,4.657749086618423462e-03,6.639231462031602859e-03,-1.150294393301010132e-02,7.968738791532814503e-04,6.054347846657037735e-03,-4.344125278294086456e-03,-1.901638694107532501e-03,-1.668592740315943956e-04
3.049084683880209923e-03,5.092531908303499222e-03,4.592995624989271164e-03,2.304000081494450569e-03,-1.034880173392593861e-03,-3.897153539583086967e-03,-1.556740375235676765e-03,-6.350403651595115662e-03,-1.138613838702440262e-02,-2.342679305002093315e-03,7.439648266881704330e-03,8.450087159872055054e-03,-6.656065233983099461e-04,-6.427097832784056664e-04,4.836727399379014969e-03,2.933034673333168030e-03,-8.649522787891328335e-04,-4.341222345829010010e-03,-8.484861813485622406e-03,1.780869998037815094e-02,2.429332351312041283e-03,-8.364361710846424103e-03,-6.792537169530987740e-04,-4.719788208603858948e-03,-1.256079133599996567e-02,-7.094385102391242981e-03,3.492430085316300392e-03,2.756441943347454071e-03,2.139271469786763191e-03,4.171011503785848618e-03,4.668581299483776093e-03,1.886979863047599792e-02,6.206658668816089630e-03,1.344752614386379719e-03,-7.703164010308682919e-04,1.904080808162689209e-02,1.902517862617969513e-02,3.673809114843606949e-03,1.316134165972471237e-02,-1.433571521192789078e-02,2.973847649991512299e-02,1.038612448610365391e-03,4.174291621893644333e-03,-6.264194846153259277e-03,-7.775423116981983185e-03,-5.565169267356395721e-03,1.204499509185552597e-02,5.175604950636625290e-03,1.613822206854820251e-02,1.050785928964614868e-02,5.619144067168235779e-03,-1.645899005234241486e-02,-1.515923300758004189e-03,-7.294143084436655045e-03,-4.995750728994607925e-03,2.009536139667034149e-02,9.484337642788887024e-03,2.132609672844409943e-02,-2.535852789878845215e-02,3.467492293566465378e-03,-6.450477987527847290e-03,-5.224285647273063660e-03,-5.054779467172920704e-04,-4.413681570440530777e-03
-1.723010675050318241e-03,4.436276853084564209e-02,4.029198363423347473e-02,-3.688804863486438990e-04,9.138485416769981384e-03,2.806152449920773506e-03,-2.979534305632114410e-02,-1.811875030398368835e-02,-2.453767508268356323e-02,3.100121021270751953e-02,9.020128287374973297e-03,2.276874706149101257e-02,2.909173257648944855e-02,-1.290896534919738770e-02,1.087730106519302353e-05,6.693069008179008961e-04,1.404774957336485386e-03,-2.538927271962165833e-02,9.596903808414936066e-03,3.319134563207626343e-02,-1.021511480212211609e-02,-2.736143022775650024e-02,9.230743162333965302e-03,4.674627911299467087e-03,-9.612213820219039917e-03,-8.674601092934608459e-03,1.473427936434745789e-02,8.203581091947853565e-04,-2.362736873328685760e-02,-3.868127823807299137e-04,2.462758310139179230e-02,6.274861842393875122e-02,6.475851405411958694e-03,-1.378439087420701981e-02,9.979520924389362335e-03,9.047703817486763000e-03,7.143995026126503944e-04,-2.182323671877384186e-02,1.604485139250755310e-02,1.313962042331695557e-02,3.109787590801715851e-02,-2.005512826144695282e-02,3.876845538616180420e-02,7.118361536413431168e-03,3.384066745638847351e-03,-1.025750953704118729e-02,4.773247521370649338e-03,1.067680492997169495e-02,-1.828526519238948822e-02,-8.552764542400836945e-03,-1.743683964014053345e-02,-4.349954798817634583e-02,-1.303161215037107468e-02,-7.727774325758218765e-03,4.243734106421470642e-02,1.140669570304453373e-03,5.085163749754428864e-03,-2.024265378713607788e-02,-1.903526298701763153e-02,6.543077062815427780e-03,-7.063116878271102905e-03,1.325961947441101074e-02,-1.114420313388109207e-02,1.157455984503030777e-02
-4.430259286891669035e-04,2.740849182009696960e-02,4.229352623224258423e-02,-7.726173382252454758e-03,3.668532008305191994e-04,-5.955711472779512405e-03,-2.593148127198219299e-02,-2.030492015182971954e-02,-2.049715816974639893e-02,2.992729097604751587e-02,2.561407396569848061e-03,1.873002946376800537e-02,3.238466754555702209e-02,-8.456051349639892578e-03,1.845903461799025536e-03,-5.899906158447265625e-03,-1.919134985655546188e-03,-2.434863150119781494e-02,5.173628218472003937e-03,1.701163873076438904e-02,-1.485054567456245422e-02,-1.215494703501462936e-02,2.394201001152396202e-03,1.237318199127912521e-02,-8.902356959879398346e-03,-4.135512933135032654e-02,1.215970981866121292e-02,7.148510310798883438e-03,-1.216064486652612686e-02,-1.293759047985076904e-02,2.535074204206466675e-02,4.074049368500709534e-02,6.693940609693527222e-03,2.524008741602301598e-03,4.260820336639881134e-03,4.297262988984584808e-03,-4.237751476466655731e-03,-1.534516829997301102e-02,1.117931213229894638e-02,2.113077417016029358e-02,2.285710349678993225e-02,-1.286102831363677979e-02,3.913426399230957031e-02,3.409359138458967209e-03,4.852051381021738052e-03,-4.391120281070470810e-03,-4.599256906658411026e-03,-3.151304088532924652e-03,-2.899965271353721619e-02,-1.789425872266292572e-02,-2.821304835379123688e-02,-3.378566727042198181e-02,-1.975760795176029205e-02,-3.561444208025932312e-02,4.695102944970130920e-02,-9.933120571076869965e-03,6.535882130265235901e-03,-1.379652973264455795e-02,3.442037268541753292e-04,-1.881976204458624125e-04,-1.354612316936254501e-02,3.867660881951451302e-03,-1.127521321177482605e-02,1.007192954421043396e-02
1.678904751315712929e-03,2.254987694323062897e-02,3.128851950168609619e-02,-1.677875989116728306e-03,1.044255122542381287e-02,7.681766524910926819e-03,-3.482672385871410370e-03,-1.153780333697795868e-02,7.756246719509363174e-03,2.437513321638107300e-02,5.181706044822931290e-03,2.205017209053039551e-02,2.296334318816661835e-02,1.953641418367624283e-03,-6.331247277557849884e-03,-1.776661723852157593e-02,-2.443247940391302109e-03,-1.448439061641693115e-02,-5.936630535870790482e-03,1.511879544705152512e-02,-2.807327173650264740e-02,-1.394400559365749359e-02,5.040354095399379730e-03,1.893407292664051056e-02,-2.290479460498318076e-04,-2.230174466967582703e-02,-2.903637010604143143e-03,-9.978610323742032051e-04,-3.192888200283050537e-02,-1.310351770371198654e-02,1.014761067926883698e-02,1.757222972810268402e-02,-4.061938729137182236e-03,-7.018415257334709167e-03,5.783159751445055008e-03,-5.910815205425024033e-03,3.405970754101872444e-03,-1.088260021060705185e-02,-1.677325740456581116e-02,2.002301625907421112e-02,1.680393517017364502e-02,-1.013001147657632828e-02,1.474516466259956360e-02,1.958986744284629822e-03,8.896093349903821945e-04,4.024526104331016541e-03,5.377157125622034073e-03,-1.735168916638940573e-04,-7.514524739235639572e-03,1.331431558355689049e-03,-6.957532837986946106e-03,-1.748477295041084290e-02,-1.846606843173503876e-02,-2.552051283419132233e-02,2.809013053774833679e-02,-7.972043938934803009e-03,-3.556246403604745865e-03,1.246965373866260052e-03,6.618501152843236923e-03,3.853047499433159828e-03,-4.643488209694623947e-03,3.046438097953796387e-03,-1.307863090187311172e-02,1.360065117478370667e-02
2.939882455393671989e-03,4.790710285305976868e-02,3.177964687347412109e-02,5.724327173084020615e-03,4.780584201216697693e-02,5.540727172046899796e-03,-3.005807101726531982e-02,9.796608239412307739e-03,-3.169181570410728455e-02,3.138270229101181030e-02,-2.663652994669973850e-04,3.464309498667716980e-02,2.425170876085758209e-02,7.926399703137576580e-04,-5.774677993031218648e-05,-1.832332275807857513e-02,-5.133834201842546463e-04,-3.267685323953628540e-02,3.609844017773866653e-03,1.066880766302347183e-02,-2.625347673892974854e-02,-3.944369405508041382e-02,-4.619054496288299561e-03,2.829314768314361572e-02,2.767979865893721581e-03,-8.740628138184547424e-03,1.450929883867502213e-02,1.585714891552925110e-02,-3.176118433475494385e-02,-7.989532314240932465e-03,3.657094389200210571e-02,7.527177780866622925e-02,4.981564823538064957e-03,-3.426526859402656555e-02,-6.756245857104659081e-04,-1.599555462598800659e-02,1.271694898605346680e-02,-1.069036312401294708e-02,-1.155694201588630676e-02,9.201360866427421570e-03,3.237194567918777466e-02,-1.163856795756146312e-04,3.797622025012969971e-02,1.867586979642510414e-03,-5.894601810723543167e-03,2.076501259580254555e-03,-5.136978346854448318e-03,-1.170944771729409695e-03,-2.979210205376148224e-02,-2.437555603682994843e-02,-1.384186372160911560e-02,-4.922007024288177490e-02,-1.105097401887178421e-02,-1.044659502804279327e-02,5.524109303951263428e-02,-9.351400658488273621e-03,-1.080314815044403076e-02,-1.570401526987552643e-02,1.328044105321168900e-02,-6.900482694618403912e-04,-1.554610300809144974e-02,-2.860714157577604055e-04,-1.805379241704940796e-02,9.211953729391098022e-03
-2.749217208474874496e-03,2.660669013857841492e-02,1.553676091134548187e-02,-3.461220534518361092e-03,2.995356917381286621e-02,-8.056914433836936951e-03,2.917998703196644783e-03,1.699556037783622742e-02,-7.926146686077117920e-02,1.726796478033065796e-02,9.064231067895889282e-03,2.525259042158722878e-03,2.350444719195365906e-02,8.444344275631010532e-04,-4.352037329226732254e-03,1.222941931337118149e-02,-2.609892189502716064e-02,-3.198653832077980042e-02,1.003383472561836243e-02,4.040607716888189316e-03,2.729495055973529816e-02,-2.622736990451812744e-02,-8.764969184994697571e-03,-7.945873774588108063e-03,2.587561868131160736e-02,-3.794029820710420609e-03,3.798935189843177795e-02,8.842595852911472321e-03,3.083943761885166168e-02,1.211811555549502373e-03,4.145546630024909973e-02,8.487381041049957275e-02,-6.800385192036628723e-03,-1.398101449012756348e-02,-7.252689683809876442e-04,1.253807730972766876e-02,1.416317094117403030e-02,6.715763360261917114e-03,2.459802664816379547e-02,-2.329812617972493172e-03,4.735832288861274719e-02,1.392799522727727890e-02,2.862719632685184479e-02,-1.092348992824554443e-02,1.214394997805356979e-02,-2.642017789185047150e-02,3.190028248354792595e-03,-1.257382985204458237e-02,-1.095568854361772537e-02,-2.428407594561576843e-02,1.080062240362167358e-03,-7.884811609983444214e-02,3.993174526840448380e-03,-1.258619129657745361e-02,4.128911346197128296e-02,3.958376497030258179e-02,-4.064406827092170715e-02,-1.451712101697921753e-02,-1.589539088308811188e-02,4.022180801257491112e-04,-1.150925178080797195e-02,-2.171982452273368835e-02,3.333982313051819801e-03,-5.330174695700407028e-03
-7.296832744032144547e-03,1.789416000247001648e-02,1.008319295942783356e-02,-3.467465750873088837e-03,2.188070863485336304e-02,-3.950773272663354874e-03,-8.010390214622020721e-03,1.012440305203199387e-02,-4.818311333656311035e-02,1.614729315042495728e-02,5.717590451240539551e-03,1.756092533469200134e-03,7.835160940885543823e-03,6.813660729676485062e-03,-7.182352710515260696e-03,-9.177649626508355141e-04,-6.803911644965410233e-03,-1.932160928845405579e-02,1.969758654013276100e-03,-1.670102705247700214e-03,3.188551403582096100e-03,-1.648182980716228485e-02,-3.350328188389539719e-03,-7.940133102238178253e-03,7.126066368073225021e-03,-2.985473489388823509e-03,2.255264110863208771e-02,-1.470224233344197273e-03,1.532140001654624939e-02,2.594121498987078667e-03,2.018332108855247498e-02,6.773060560226440430e-02,-4.836426116526126862e-03,-1.223025936633348465e-02,4.960110411047935486e-03,8.092298172414302826e-03,-1.503927749581634998e-03,-9.589952416718006134e-03,1.145714707672595978e-02,5.124633200466632843e-03,2.635662816464900970e-02,-2.998953452333807945e-03,1.518798992037773132e-02,-1.008080225437879562e-02,1.048331730999052525e-03,-7.924688979983329773e-03,8.674457669258117676e-03,-5.241035018116235733e-03,-1.440806547179818153e-03,-4.804825875908136368e-03,4.829772748053073883e-03,-4.699810966849327087e-02,8.403196930885314941e-03,2.073520328849554062e-03,3.032050654292106628e-02,1.698644272983074188e-02,-2.028635330498218536e-02,-1.172687113285064697e-02,-8.531603962182998657e-03,5.489759612828493118e-03,-1.498019788414239883e-02,-1.283192541450262070e-02,-8.583715185523033142e-03,-3.007772611454129219e-04
6.683198269456624985e-03,3.405516222119331360e-02,1.135333999991416931e-02,2.335069235414266586e-03,6.314981263130903244e-03,-4.783046431839466095e-03,-2.370755746960639954e-02,4.412951413542032242e-03,-5.332796368747949600e-03,1.173721719533205032e-02,5.649401340633630753e-03,1.664739474654197693e-02,9.833810850977897644e-03,3.071450861170887947e-03,2.222124021500349045e-03,-3.884155768901109695e-03,-4.987213760614395142e-03,-8.934556506574153900e-03,1.323368865996599197e-03,9.370151907205581665e-03,-3.220358118414878845e-02,-1.328852958977222443e-02,-2.173384185880422592e-03,1.768810860812664032e-02,-2.312566852197051048e-03,-4.570255056023597717e-03,4.284093622118234634e-03,6.640822626650333405e-03,-3.861744701862335205e-02,4.174327943474054337e-03,1.044012419879436493e-02,1.791387610137462616e-02,2.751940628513693810e-03,-1.643011905252933502e-02,-4.039370920509099960e-03,4.728575237095355988e-03,-4.419262404553592205e-04,-1.937712542712688446e-02,3.548715496435761452e-03,9.279143996536731720e-03,1.146447099745273590e-02,-2.399535663425922394e-02,2.342058904469013214e-02,2.773211151361465454e-02,-2.490351442247629166e-03,-7.876904681324958801e-03,4.313476849347352982e-03,1.678366446867585182e-03,-1.876928657293319702e-02,1.874366425909101963e-03,-2.830000128597021103e-03,-1.043341681361198425e-02,-6.126285996288061142e-03,-8.329749107360839844e-03,1.367767993360757828e-02,-1.409129519015550613e-02,4.144602455198764801e-03,-4.045154433697462082e-03,2.093524299561977386e-02,-4.010135889984667301e-04,-1.950640976428985596e-02,8.356943726539611816e-03,-2.147489786148071289e-02,-3.990672528743743896e-03
-3.411413170397281647e-03,2.164803817868232727e-02,1.867871545255184174e-02,2.926382701843976974e-03,1.025211298838257790e-03,6.903414032422006130e-04,-1.672241464257240295e-02,-4.292469937354326248e-03,-5.778914317488670349e-03,2.345569059252738953e-02,-4.918945953249931335e-03,1.854027807712554932e-02,2.183720096945762634e-02,-3.887648927047848701e-04,-1.780062011675909162e-04,-1.689901575446128845e-03,-5.164173431694507599e-03,-5.369286052882671356e-03,7.478837855160236359e-03,1.571282558143138885e-02,-3.243277594447135925e-02,-1.341671776026487350e-02,8.106819353997707367e-03,1.794612593948841095e-02,-3.487164387479424477e-03,-5.769681185483932495e-03,9.674572385847568512e-03,3.404198447242379189e-03,-3.422553837299346924e-02,-2.663930645212531090e-03,7.111289072781801224e-03,8.670770563185214996e-03,5.561343859881162643e-03,-2.367463335394859314e-02,5.792033858597278595e-03,-7.224214728921651840e-03,5.079680704511702061e-04,-1.659024134278297424e-02,6.512337364256381989e-03,7.534678094089031219e-03,8.591025136411190033e-03,-2.014754153788089752e-02,8.994826115667819977e-03,1.591946743428707123e-02,-1.068775448948144913e-02,-5.011743400245904922e-03,-7.212892174720764160e-03,8.137878961861133575e-03,-1.773083396255970001e-02,-4.314562771469354630e-03,-1.110671646893024445e-02,-1.022371277213096619e-02,-6.717901211231946945e-03,2.769282553344964981e-03,1.329150609672069550e-02,-1.569802872836589813e-02,1.618890091776847839e-02,-1.929813250899314880e-02,1.010065246373414993e-02,-4.814559128135442734e-03,-1.491426490247249603e-02,7.090616505593061447e-03,-2.103782724589109421e-03,-3.982420079410076141e-03
4.545144736766815186e-03,2.191164065152406693e-03,4.638113547116518021e-03,6.094189826399087906e-03,1.281663961708545685e-02,-4.785609897226095200e-03,-1.539411675184965134e-02,-7.803066633641719818e-03,-2.578527899459004402e-03,1.684416667558252811e-03,-1.749483402818441391e-03,1.497313473373651505e-02,8.531815372407436371e-03,-5.387531127780675888e-03,1.274830428883433342e-03,-9.998260065913200378e-04,4.059131722897291183e-03,-1.151259290054440498e-03,4.454684909433126450e-03,8.217683993279933929e-03,-2.313586883246898651e-02,-3.927936311811208725e-03,1.013951096683740616e-02,1.426447648555040359e-02,2.964517567306756973e-03,-9.804782457649707794e-04,7.680644746869802475e-03,9.035506285727024078e-03,-2.290997095406055450e-02,3.112667473033070564e-03,8.316851221024990082e-03,1.246976573020219803e-02,3.446796676144003868e-03,-7.986757904291152954e-03,3.360688686370849609e-03,2.952611306682229042e-03,4.537213593721389771e-03,-1.133177615702152252e-02,9.288840927183628082e-03,3.835114417597651482e-03,1.015071943402290344e-02,-1.416276581585407257e-02,1.161172054708003998e-02,1.103844307363033295e-02,-3.272377653047442436e-04,-1.485715853050351143e-03,6.705723702907562256e-03,5.177529063075780869e-03,-1.127913594245910645e-03,-9.998183697462081909e-03,-9.046652354300022125e-03,-1.186149939894676208e-02,7.119349902495741844e-04,-4.493889864534139633e-03,1.683243922889232635e-02,-1.367187034338712692e-02,1.123585738241672516e-02,-7.899240590631961823e-03,4.486644640564918518e-03,3.311613108962774277e-03,-8.271796396002173424e-04,1.008606050163507462e-02,-4.427697276696562767e-04,-4.168461076915264130e-03
5.788428243249654770e-03,1.166453305631875992e-02,4.765790421515703201e-03,-5.854173563420772552e-03,6.438075564801692963e-03,-4.356999415904283524e-03,-6.811313796788454056e-03,-8.954466320574283600e-03,8.306245319545269012e-03,-4.456253722310066223e-03,7.711538579314947128e-03,6.746554281562566757e-03,1.263198209926486015e-03,-8.001754991710186005e-03,6.261411122977733612e-03,-5.396406166255474091e-03,-4.132503643631935120e-03,1.310672232648357749e-04,-6.236685439944267273e-03,-4.287331830710172653e-03,-1.299171522259712219e-02,-3.138348227366805077e-03,1.909688464365899563e-03,-8.193997200578451157e-04,-5.504446104168891907e-03,4.049791954457759857e-03,5.009654909372329712e-03,-7.152318023145198822e-03,-1.692819595336914062e-02,6.091989576816558838e-03,1.933858613483607769e-03,1.581607852131128311e-03,9.199240244925022125e-03,-5.118147004395723343e-03,-1.431280863471329212e-03,5.605360958725214005e-03,1.653957413509488106e-03,-7.040177471935749054e-03,1.313724555075168610e-03,-7.370185339823365211e-04,-4.010165110230445862e-03,-2.829773118719458580e-03,-1.688219606876373291e-03,9.321459569036960602e-03,-5.435091909021139145e-03,6.241349037736654282e-03,-5.401220638304948807e-03,-4.214998334646224976e-03,-5.707616452127695084e-03,-5.741355940699577332e-03,-2.333535114303231239e-03,-6.764321587979793549e-04,3.273605601862072945e-03,2.333524404093623161e-03,6.306905299425125122e-03,-6.792790256440639496e-03,8.997660130262374878e-03,2.146085957065224648e-03,7.283728104084730148e-03,6.223220843821763992e-03,4.450513049960136414e-03,-1.661252230405807495e-03,5.007007348467595875e-05,4.357261117547750473e-03
-3.850743640214204788e-03,4.883651155978441238e-03,-4.007775802165269852e-03,-5.635933950543403625e-03,-1.765275490470230579e-03,4.436918534338474274e-03,-4.444327671080827713e-03,-7.731363642960786819e-03,-1.758012222126126289e-03,-6.583600305020809174e-03,1.079903682693839073e-03,5.812888965010643005e-03,9.246809058822691441e-04,-8.134052623063325882e-04,3.424414200708270073e-03,-3.678505017887800932e-04,-1.083550858311355114e-03,-3.949000500142574310e-03,2.171542961150407791e-03,8.580941706895828247e-03,9.868704946711659431e-04,-5.376822082325816154e-04,-4.659010097384452820e-03,7.207529619336128235e-03,5.729751195758581161e-03,6.453275680541992188e-03,-3.772028721868991852e-03,-3.753125201910734177e-03,-1.065113116055727005e-02,6.407854612916707993e-03,1.947535201907157898e-04,9.844611631706357002e-04,-6.643575616180896759e-03,-1.894406974315643311e-03,-5.692439619451761246e-03,2.336034085601568222e-03,-2.796249464154243469e-03,-4.332625539973378181e-04,3.682680195197463036e-03,-2.486017066985368729e-03,5.631909589283168316e-04,-4.720229189842939377e-03,7.276819087564945221e-03,5.779550876468420029e-03,4.494319146033376455e-04,2.803085371851921082e-03,-7.201252970844507217e-03,-3.022646298632025719e-03,8.109286427497863770e-04,2.836260944604873657e-03,2.689720131456851959e-03,-8.842814713716506958e-03,2.623147098347544670e-03,5.750010721385478973e-03,1.192358601838350296e-02,8.625116897746920586e-04,2.875625621527433395e-03,3.293360117822885513e-03,7.011397276073694229e-03,2.025296911597251892e-03,-8.329103002324700356e-04,1.178064849227666855e-03,-6.198646966367959976e-03,-5.454305559396743774e-03
5.769192241132259369e-03,-5.048925988376140594e-03,7.921590469777584076e-03,-7.169848773628473282e-03,1.630532322451472282e-03,3.378617577254772186e-03,1.691225101239979267e-03,3.044276265427470207e-03,-3.974220715463161469e-03,-2.577617065981030464e-03,-4.906475543975830078e-03,9.289341396652162075e-04,-5.161038134247064590e-03,3.920037124771624804e-04,-5.009881686419248581e-03,2.761360257863998413e-03,-5.373307969421148300e-03,-7.170249009504914284e-04,-3.226205706596374512e-03,1.756037003360688686e-03,-3.904302138835191727e-04,-6.453409790992736816e-03,-5.359254311770200729e-03,-1.342550851404666901e-03,-5.239615682512521744e-03,1.374754821881651878e-03,4.594034049659967422e-03,-7.339959964156150818e-03,4.667189903557300568e-03,-1.859567011706531048e-03,-4.081334453076124191e-03,5.104611162096261978e-03,2.683454658836126328e-04,-6.926370318979024887e-03,1.056260080076754093e-03,-7.241784594953060150e-03,-1.627514720894396305e-03,-3.616358852013945580e-03,1.202236599056050181e-04,7.716886233538389206e-03,-6.759374868124723434e-03,3.637999529018998146e-03,-2.804422052577137947e-03,-5.286960862576961517e-03,-4.771002859342843294e-04,1.455564750358462334e-03,-6.267197313718497753e-04,2.038107253611087799e-03,-1.513793598860502243e-03,2.023611450567841530e-03,-1.285886508412659168e-03,-4.024146590381860733e-03,-5.276987329125404358e-03,6.188293336890637875e-04,-1.958030276000499725e-03,1.280846889130771160e-03,3.805165877565741539e-03,-9.399643749929964542e-05,4.154256545007228851e-03,1.997082494199275970e-03,-8.092282951110973954e-05,-7.111804559826850891e-03,4.134553018957376480e-03,2.400461817160248756e-03
1.425280701369047165e-03,1.286258571781218052e-03,2.957314951345324516e-03,-6.347214803099632263e-03,-3.320895833894610405e-03,4.498772323131561279e-03,-4.619948100298643112e-03,5.509060807526111603e-03,2.056163037195801735e-03,3.972914069890975952e-03,-4.129384178668260574e-03,-3.219933714717626572e-03,3.206899855285882950e-03,-5.628997460007667542e-03,-2.507883589714765549e-03,-6.092983763664960861e-03,-1.169666647911071777e-03,-9.265408734790980816e-04,1.287675346247851849e-03,3.520580241456627846e-03,4.499413073062896729e-03,3.118770895525813103e-03,3.904341487213969231e-03,5.453165067592635751e-05,3.395366715267300606e-03,6.722762249410152435e-03,5.134746897965669632e-03,1.182361505925655365e-03,-1.353653729893267155e-03,1.473764539696276188e-03,1.833857822930440307e-04,-2.792141865938901901e-03,-4.589521791785955429e-03,-2.035834826529026031e-03,-2.788488054648041725e-03,-5.763764958828687668e-03,-7.519758772104978561e-03,-1.400790875777602196e-03,-3.987328149378299713e-03,-5.904193036258220673e-03,8.700459147803485394e-04,5.719456356018781662e-03,4.807170946151018143e-03,-1.530911307781934738e-03,7.350853644311428070e-03,1.998296473175287247e-03,7.583921775221824646e-03,1.326179364696145058e-03,6.392560433596372604e-03,4.596184473484754562e-03,-1.457629841752350330e-03,-7.135655730962753296e-03,7.292054127901792526e-03,6.485260091722011566e-03,-5.265341140329837799e-03,1.086995122022926807e-03,2.024778397753834724e-03,2.539746463298797607e-03,3.212361596524715424e-03,1.437071594409644604e-03,5.694569554179906845e-03,-4.796669352799654007e-03,-4.323269240558147430e-03,3.068960970267653465e-03
-6.775263696908950806e-03,-2.394725568592548370e-03,-1.272971392609179020e-03,3.888135834131389856e-04,-4.518026020377874374e-03,4.047292750328779221e-03,-2.728155581280589104e-03,3.451130120083689690e-03,5.627458915114402771e-03,-4.123679827898740768e-03,-4.390332382172346115e-03,7.012780406512320042e-04,-5.189376883208751678e-03,2.250188961625099182e-03,3.861491801217198372e-03,-6.898750085383653641e-03,-6.351409945636987686e-03,-7.196052465587854385e-03,-3.020343137905001640e-03,3.995832055807113647e-03,-5.364804062992334366e-03,-2.779751084744930267e-03,-4.801128525286912918e-03,-4.004136193543672562e-03,1.824346254579722881e-03,6.269736215472221375e-03,-5.634634289890527725e-03,-2.625751658342778683e-04,-7.614788599312305450e-03,-4.730198415927588940e-04,4.743026802316308022e-04,-2.175688277930021286e-03,5.513127427548170090e-03,3.799845464527606964e-03,-7.086669211275875568e-04,-4.754086490720510483e-03,5.120096262544393539e-03,-3.681658999994397163e-03,-6.553609389811754227e-03,4.267853684723377228e-03,3.696661675348877907e-03,-3.044998971745371819e-03,-3.123549977317452431e-03,-6.988093722611665726e-03,-4.943994805216789246e-03,5.190518684685230255e-03,3.656696062535047531e-03,-2.259223721921443939e-03,3.495275508612394333e-03,-5.150186829268932343e-03,-7.035962305963039398e-03,5.990734323859214783e-03,1.932252082042396069e-03,3.788226516917347908e-03,-6.345438770949840546e-03,3.546829801052808762e-03,-1.165384892374277115e-03,9.518807055428624153e-04,-3.727108472958207130e-03,-1.148304363596253097e-04,-3.075423883274197578e-03,-2.333908341825008392e-03,-6.958569400012493134e-03,-1.006901264190673828e-03
-3.909029532223939896e-03,-6.059901788830757141e-03,2.910492708906531334e-03,-3.140523622278124094e-04,7.181997352745383978e-05,-6.130246329121291637e-04,4.332049749791622162e-03,-7.630435749888420105e-03,3.765636589378118515e-03,-3.738800296559929848e-03,-3.092975122854113579e-03,-5.134741775691509247e-03,-1.360964030027389526e-03,1.762797008268535137e-03,1.895510009489953518e-03,7.509503513574600220e-03,-6.831859704107046127e-03,-3.937189001590013504e-03,1.308176782913506031e-03,-3.202488413080573082e-03,7.178253494203090668e-03,-1.210847054608166218e-03,3.575663082301616669e-03,6.959433201700448990e-03,2.372740535065531731e-03,-5.745475646108388901e-03,-3.667636075988411903e-03,2.018181548919528723e-04,6.900611799210309982e-03,-7.334731984883546829e-03,-4.350522998720407486e-03,9.627097169868648052e-04,1.402085064910352230e-03,3.625883720815181732e-03,1.585918362252414227e-03,-4.394493997097015381e-03,-1.278128329431638122e-04,5.772219505161046982e-03,-5.481468979269266129e-03,-6.970024202018976212e-03,9.883202146738767624e-04,1.060222159139811993e-03,2.774266060441732407e-03,3.020463744178414345e-03,-4.608279094099998474e-03,-1.430400647222995758e-03,1.971088495338335633e-04,3.302041441202163696e-03,-4.352636169642210007e-03,3.508434165269136429e-03,1.109296863432973623e-04,1.998662715777754784e-03,2.078858524328097701e-04,-4.789397120475769043e-03,-3.438958898186683655e-03,5.639204755425453186e-03,-6.184268277138471603e-03,-6.121450569480657578e-03,-6.155257113277912140e-03,-1.903188996948301792e-03,-4.189739469438791275e-03,-6.096495199017226696e-04,-3.362115006893873215e-03,1.523182843811810017e-03
-6.114445626735687256e-03,2.108588814735412598e-03,-1.465078792534768581e-03,6.738069350831210613e-04,7.444075774401426315e-03,-3.657175460830330849e-03,3.183784894645214081e-03,-5.167424678802490234e-03,3.756297519430518150e-03,6.249564699828624725e-03,2.993752481415867805e-03,-4.064429085701704025e-03,2.871584380045533180e-03,-4.474276211112737656e-03,-5.633857101202011108e-03,4.795387387275695801e-03,7.564588915556669235e-03,-7.252005743794143200e-04,5.476763471961021423e-03,4.816864617168903351e-03,4.061397165060043335e-03,-2.913374686613678932e-03,5.932233761996030807e-03,3.941905219107866287e-03,-8.096419624052941799e-04,-4.625610308721661568e-04,6.974691990762948990e-03,-9.857604745775461197e-04,5.743491929024457932e-03,6.094714626669883728e-03,-3.038021735846996307e-03,4.019962623715400696e-03,6.485350895673036575e-03,-6.526450160890817642e-03,-5.959018133580684662e-03,3.259047400206327438e-03,-7.130045443773269653e-03,-2.695157891139388084e-04,2.629901864565908909e-04,6.863939110189676285e-03,-1.523051178082823753e-03,-6.221912335604429245e-03,-2.307040384039282799e-03,3.174942219629883766e-03,-6.658018101006746292e-03,-3.237828146666288376e-03,6.722331978380680084e-03,-5.288071930408477783e-03,-2.342175692319869995e-03,-7.034253794699907303e-03,6.166150793433189392e-03,5.258627934381365776e-04,-4.766535013914108276e-03,-4.737039096653461456e-03,5.161139415577054024e-04,-6.338338833302259445e-03,1.934882602654397488e-03,5.406627897173166275e-03,-4.914047312922775745e-04,3.841121913865208626e-03,4.800283350050449371e-03,-5.376825574785470963e-03,-6.370563525706529617e-03,7.203415967524051666e-03
3.384836949408054352e-03,-7.167048752307891846e-03,-1.881227013655006886e-03,6.802539806813001633e-03,2.952649258077144623e-03,7.291815709322690964e-03,-5.580550059676170349e-03,3.003265243023633957e-03,3.248177235946059227e-03,5.621466785669326782e-03,1.630412181839346886e-03,-6.634077522903680801e-03,8.997844415716826916e-04,5.740324035286903381e-03,6.371473893523216248e-03,1.442570006474852562e-03,-5.204313900321722031e-03,-6.982019171118736267e-03,-5.068640224635601044e-03,-5.822556558996438980e-03,7.527151145040988922e-03,6.722443271428346634e-03,-1.758740632794797421e-03,1.176922000013291836e-03,-3.568309766706079245e-04,-4.017607308924198151e-03,-9.869956411421298981e-04,6.479754229076206684e-04,1.595653593540191650e-03,1.620932249352335930e-03,2.723682438954710960e-03,3.392555750906467438e-03,3.091835416853427887e-03,5.881713703274726868e-03,5.455307546071708202e-04,-2.098166849464178085e-03,5.540323909372091293e-04,6.170049775391817093e-03,-7.286605425179004669e-03,6.110885180532932281e-03,7.380160503089427948e-03,-3.608805360272526741e-03,7.487315684556961060e-03,3.744911402463912964e-03,3.170297481119632721e-03,-7.378092035651206970e-03,7.543195504695177078e-03,-5.515253636986017227e-03,6.610289216041564941e-03,4.610262345522642136e-03,-2.395805669948458672e-03,5.786311812698841095e-03,-1.025635981932282448e-03,-4.531689628493040800e-04,-2.388576976954936981e-03,-1.949551660800352693e-04,-3.186023794114589691e-03,-3.994924481958150864e-03,-4.802866373211145401e-03,-2.595720347017049789e-03,2.118235221132636070e-03,-4.918159451335668564e-03,5.121628637425601482e-04,2.811675192788243294e-03
-4.621169064193964005e-03,2.754961373284459114e-03,5.478986073285341263e-03,1.938695204444229603e-03,-5.287008360028266907e-03,6.258950103074312210e-03,-1.886083278805017471e-03,-1.905237673781812191e-03,-1.104991883039474487e-03,4.087109118700027466e-03,-4.334590397775173187e-03,-4.953729148837737739e-05,2.163611818104982376e-03,9.689584112493321300e-05,7.193972822278738022e-03,3.378878114745020866e-03,1.694309990853071213e-03,-1.889180748548824340e-05,5.920263007283210754e-03,-1.437027967767789960e-04,-6.712811882607638836e-04,-4.562136251479387283e-03,5.843860097229480743e-03,4.220404662191867828e-03,7.150614634156227112e-03,-1.779484227881766856e-05,5.401032976806163788e-03,1.630975515581667423e-03,-6.642158608883619308e-03,8.150836220011115074e-05,1.603815471753478050e-03,-6.295116618275642395e-03,-4.065059591084718704e-03,-5.484865047037601471e-03,-5.518106743693351746e-03,-1.513054827228188515e-03,3.314364003017544746e-03,-5.625376012176275253e-03,-2.972960937768220901e-03,-9.970588143914937973e-04,7.480927277356386185e-03,5.272422917187213898e-03,-1.128692296333611012e-03,6.159475073218345642e-03,1.234268769621849060e-03,-4.780414979904890060e-03,-3.051004372537136078e-03,4.113243892788887024e-03,-5.838868208229541779e-03,-2.704091835767030716e-03,9.633851004764437675e-04,5.095217376947402954e-03,-4.889102187007665634e-03,7.497944403439760208e-03,-3.851827466860413551e-03,-2.296284772455692291e-03,4.434919916093349457e-03,-9.610953566152602434e-05,-2.570005366578698158e-03,-3.589420113712549210e-03,5.139809101819992065e-03,-3.632269799709320068e-03,1.905186334624886513e-03,-7.501181680709123611e-03
-6.302931811660528183e-03,-1.586097758263349533e-03,1.513657975010573864e-03,1.042350661009550095e-03,-4.094676114618778229e-03,-5.503232823684811592e-04,-7.364745717495679855e-03,2.843452384695410728e-03,3.722853027284145355e-03,7.122643757611513138e-03,3.620265051722526550e-03,-6.595973856747150421e-03,5.415973253548145294e-03,4.767479840666055679e-03,-1.635850989259779453e-03,6.429645000025629997e-04,-5.619893781840801239e-03,1.712954021058976650e-03,-1.860080054029822350e-03,2.055970107903704047e-04,2.029397757723927498e-03,2.804343122988939285e-03,-6.175523158162832260e-04,-2.424796577543020248e-03,5.299816839396953583e-04,-4.243522707838565111e-04,7.337208837270736694e-03,-4.723729507531970739e-04,-2.744490979239344597e-03,7.475463207811117172e-03,-4.186919424682855606e-03,1.377690467052161694e-03,-5.399992223829030991e-03,6.295877974480390549e-03,6.010499782860279083e-03,-3.484518965706229210e-03,1.348266494460403919e-03,4.359911195933818817e-03,2.547375857830047607e-03,3.291734028607606888e-03,4.290613345801830292e-03,-4.754241555929183960e-03,3.781711449846625328e-03,-5.556199699640274048e-03,5.209547933191061020e-03,-5.557884462177753448e-03,4.558394663035869598e-03,4.597118124365806580e-03,4.461754113435745239e-03,-5.292530171573162079e-03,9.554901043884456158e-04,-4.173567285761237144e-04,-6.324045360088348389e-03,-4.051429685205221176e-03,6.356705911457538605e-03,-4.791431594640016556e-03,-6.463458412326872349e-04,-8.435380877926945686e-04,-2.590797143056988716e-03,-5.747888702899217606e-03,1.810342771932482719e-03,6.301006767898797989e-03,-5.262444727122783661e-03,-1.683239941485226154e-03
1.216622418724000454e-03,3.786857705563306808e-03,1.558498595841228962e-03,7.843554951250553131e-03,2.726315986365079880e-03,4.256706684827804565e-03,1.837392774177715182e-04,4.902685759589076042e-04,-4.144593141973018646e-03,-2.020480344071984291e-03,-3.376179840415716171e-03,5.301540251821279526e-03,-3.110190853476524353e-03,-1.065119286067783833e-03,-7.281167432665824890e-03,-4.501249641180038452e-03,-4.763082135468721390e-03,1.939214183948934078e-03,2.229371108114719391e-03,-2.287855371832847595e-03,1.195498509332537651e-03,5.376078188419342041e-03,-1.116709969937801361e-02,-1.986764837056398392e-03,-1.597548020072281361e-03,6.443492136895656586e-03,-2.907982794567942619e-03,-4.088988527655601501e-03,-1.940825837664306164e-03,-6.850629113614559174e-03,9.616965427994728088e-03,5.192832555621862411e-03,5.623357836157083511e-03,6.760954391211271286e-03,6.927058100700378418e-03,6.760045653209090233e-04,7.552305702120065689e-03,-7.576533127576112747e-03,-5.005653016269207001e-03,1.720137079246342182e-03,6.540606729686260223e-03,6.212973967194557190e-03,-1.405347604304552078e-03,-1.024419814348220825e-02,4.212358966469764709e-03,5.257886834442615509e-03,-4.690892063081264496e-03,-1.381532754749059677e-03,3.115064464509487152e-03,3.453091718256473541e-03,5.513754673302173615e-03,-1.485356036573648453e-02,7.524794898927211761e-03,-4.588814917951822281e-03,1.246102713048458099e-02,-1.687475130893290043e-03,-6.639051716774702072e-03,3.181574633345007896e-03,-3.936974797397851944e-03,-6.744063924998044968e-03,-2.443581819534301758e-03,-4.571179859340190887e-03,-7.059934083372354507e-03,1.388165750540792942e-03
4.103169310837984085e-03,1.116890343837440014e-04,4.117977805435657501e-03,5.590398330241441727e-03,4.561725538223981857e-03,1.511848648078739643e-03,3.989866003394126892e-03,1.075509819202125072e-03,-8.735151030123233795e-03,-6.162188481539487839e-03,7.162029854953289032e-03,-8.770341519266366959e-04,-5.817245692014694214e-03,4.337313584983348846e-03,-6.783051881939172745e-03,1.116417231969535351e-03,-1.851866487413644791e-03,1.846568076871335506e-03,-1.329530845396220684e-03,-4.948952235281467438e-03,1.846862724050879478e-03,-2.228643978014588356e-03,-1.237880322150886059e-03,4.003841895610094070e-03,7.713953498750925064e-03,4.211604129523038864e-03,2.391886664554476738e-03,-5.368127953261137009e-03,7.487319409847259521e-03,3.996985033154487610e-03,-1.874290872365236282e-03,-1.318606897257268429e-03,-5.704608280211687088e-03,3.612257307395339012e-03,-5.268114036880433559e-04,-2.954578027129173279e-03,6.978265941143035889e-03,4.752702079713344574e-03,5.301861092448234558e-03,-4.486490972340106964e-03,-5.323216319084167480e-03,4.719390533864498138e-03,-4.533313040155917406e-04,-9.672007872723042965e-04,4.411249421536922455e-03,6.894276477396488190e-03,5.869309883564710617e-03,6.558319553732872009e-03,6.757579278200864792e-03,4.400182049721479416e-03,5.591065157204866409e-03,-4.137445241212844849e-03,3.553633345291018486e-03,5.154291633516550064e-03,7.891274057328701019e-03,4.100630059838294983e-03,-3.539297962561249733e-03,-6.177194416522979736e-03,-4.146213177591562271e-03,-6.782752927392721176e-03,-7.322074845433235168e-03,-3.080756869167089462e-03,-1.295867259614169598e-03,-9.932733373716473579e-04
