-1.011172571452334523e-05,-1.610412844456732273e-03,1.703619584441184998e-02,2.524071559309959412e-02,1.792457327246665955e-02,-3.035984933376312256e-03,1.381733105517923832e-03,8.867536671459674835e-04,6.860290188342332840e-03,1.717038336209952831e-03,2.445294894278049469e-02,-1.821970753371715546e-02,-1.660883240401744843e-02,1.122536789625883102e-02,-1.288359146565198898e-02,-1.549210958182811737e-02,1.476583443582057953e-02,-1.984559465199708939e-03,5.317104980349540710e-03,-4.296751692891120911e-03,-2.223729901015758514e-02,9.914078749716281891e-03,-2.579814009368419647e-02,-1.203715335577726364e-02,5.487971357069909573e-04,1.128201722167432308e-03,5.076383706182241440e-03,-2.260982431471347809e-02,-1.392561662942171097e-02,-1.797285303473472595e-02,-1.403732318431138992e-02,1.191383507102727890e-02
-5.754871759563684464e-03,2.381320670247077942e-02,-1.949480175971984863e-02,1.036986825056374073e-03,-9.013867005705833435e-03,2.879481995478272438e-03,1.351297460496425629e-02,1.699550449848175049e-02,4.324498120695352554e-03,1.536907721310853958e-02,-2.277996577322483063e-02,1.409190334379673004e-02,-1.811542734503746033e-02,2.494454383850097656e-02,1.415417436510324478e-02,-1.519766519777476788e-04,-6.967895198613405228e-03,1.177504379302263260e-02,-7.014644797891378403e-03,-2.225683815777301788e-02,-1.716974005103111267e-02,1.455246377736330032e-02,2.971239155158400536e-03,2.297183126211166382e-02,-4.686638421844691038e-04,-2.983704674988985062e-03,-1.337773539125919342e-02,6.046365015208721161e-03,1.811144500970840454e-02,-6.497588008642196655e-03,-1.444517914205789566e-02,-1.918726041913032532e-02
1.307808328419923782e-02,6.970510352402925491e-03,1.548912096768617630e-02,1.299053151160478592e-02,1.271883584558963776e-02,2.097580581903457642e-02,-2.238930203020572662e-02,2.383372373878955841e-02,1.066152751445770264e-02,-1.170758996158838272e-02,-1.882888376712799072e-02,1.593245076946914196e-03,-1.972752064466476440e-02,1.311814645305275917e-03,8.410306647419929504e-03,1.220188685692846775e-03,9.910578373819589615e-04,2.993485657498240471e-03,-2.153432182967662811e-02,1.241780444979667664e-02,-2.383333444595336914e-02,-8.963678847067058086e-04,-8.564410964027047157e-04,2.227217145264148712e-02,1.819290779531002045e-02,-2.399998949840664864e-03,-9.390780702233314514e-03,7.203314453363418579e-03,-1.597748883068561554e-02,8.867252618074417114e-03,1.532924734055995941e-02,1.221056282520294189e-02
1.582175679504871368e-02,-2.242580801248550415e-02,-2.085268683731555939e-02,6.770067382603883743e-03,2.335162460803985596e-02,-4.032341763377189636e-03,-2.722213510423898697e-03,-1.052108127623796463e-02,4.860143177211284637e-03,-7.524229586124420166e-03,-3.016316564753651619e-03,7.796862628310918808e-03,1.670430973172187805e-02,-1.772539503872394562e-02,2.119252458214759827e-02,-7.617511320859193802e-03,2.353783138096332550e-02,7.252586074173450470e-03,2.526661939918994904e-02,2.287328708916902542e-03,-3.853933303616940975e-04,7.052561733871698380e-03,2.183704078197479248e-02,1.658449880778789520e-02,-7.353620138019323349e-03,-6.933042313903570175e-03,8.733553811907768250e-03,1.325767859816551208e-02,-1.964905112981796265e-02,1.540752872824668884e-02,2.444214187562465668e-02,-1.368169859051704407e-02
1.609436981379985809e-02,-4.571783822029829025e-03,7.231945171952247620e-03,2.157915383577346802e-02,1.580608636140823364e-02,1.006273087114095688e-02,-2.386044338345527649e-02,-1.023461110889911652e-02,-2.131860516965389252e-02,1.532648806460201740e-03,-2.087269537150859833e-02,-1.804471388459205627e-02,-1.463533728383481503e-03,1.317291427403688431e-02,-3.069957019761204720e-04,-1.719151809811592102e-02,-2.315843291580677032e-02,-2.076585032045841217e-02,4.346611385699361563e-04,5.982468836009502411e-03,2.498362958431243896e-02,3.214931348338723183e-03,5.670659709721803665e-03,1.575199328362941742e-02,-4.245816264301538467e-03,1.592965796589851379e-02,-1.906310766935348511e-02,1.336163468658924103e-02,-1.158131659030914307e-02,2.259472198784351349e-02,1.251393090933561325e-02,-2.184878848493099213e-02
1.280559971928596497e-02,-2.313940599560737610e-02,1.158040761947631836e-02,-1.602045493200421333e-03,-2.189879678189754486e-02,-1.105251256376504898e-02,2.159228920936584473e-02,1.600115559995174408e-02,2.341288328170776367e-02,-1.423232909291982651e-02,8.862240239977836609e-03,2.529396489262580872e-02,-1.605908200144767761e-02,-1.362880505621433258e-02,-1.748015917837619781e-02,2.522522769868373871e-02,1.388289500027894974e-02,-1.926302537322044373e-02,-1.619980670511722565e-02,2.095061168074607849e-02,-1.024347078055143356e-02,2.554243057966232300e-02,-1.078890054486691952e-03,1.086174231022596359e-02,2.466953173279762268e-02,-1.342600956559181213e-02,1.299894182011485100e-03,3.290906781330704689e-03,2.147342450916767120e-02,-2.362586185336112976e-02,-3.078142181038856506e-03,1.277985516935586929e-02
-1.982186362147331238e-02,-2.426840737462043762e-02,2.394260279834270477e-02,-1.180412713438272476e-02,9.897616691887378693e-03,2.240412309765815735e-02,7.617078255861997604e-03,9.537233971059322357e-03,1.632617227733135223e-02,-9.044854901731014252e-03,1.817443408071994781e-02,-1.138530322350561619e-03,1.236250344663858414e-02,-2.155489102005958557e-02,-1.426059193909168243e-02,9.277620352804660797e-03,2.991128247231245041e-03,-2.479916624724864960e-02,7.564578671008348465e-03,1.323779206722974777e-02,2.424107678234577179e-02,-4.077873192727565765e-03,1.938703842461109161e-02,1.094939094036817551e-02,-1.004994567483663559e-02,-1.860399544239044189e-02,-2.342972904443740845e-02,1.095413230359554291e-03,-1.463221851736307144e-02,2.108421549201011658e-02,8.749456144869327545e-03,7.272066082805395126e-03
-1.545106433331966400e-02,2.198301069438457489e-02,-2.348041906952857971e-02,-6.805026903748512268e-03,1.584639400243759155e-02,2.323731780052185059e-02,2.350438013672828674e-02,-1.478628348559141159e-02,4.729920998215675354e-03,5.605793092399835587e-03,-6.087933667004108429e-03,2.155112661421298981e-02,-1.423776615411043167e-02,8.169860579073429108e-03,-1.788801141083240509e-02,2.396688330918550491e-03,2.371004410088062286e-02,1.122287940233945847e-02,-1.926609838847070932e-04,7.774527184665203094e-03,1.166369207203388214e-02,-2.619692124426364899e-03,7.090751081705093384e-03,-1.948199979960918427e-02,7.652731612324714661e-03,-6.846736185252666473e-03,1.602828153409063816e-03,2.858334686607122421e-03,-8.102406747639179230e-03,-1.077099982649087906e-02,1.629862003028392792e-02,8.722500875592231750e-03
2.362583763897418976e-02,4.399847239255905151e-03,-1.072774175554513931e-02,-1.421023067086935043e-02,2.457261644303798676e-02,-1.399492844939231873e-02,2.512723580002784729e-02,-1.847648061811923981e-02,1.930083148181438446e-02,5.105084739625453949e-03,-1.155711617320775986e-02,-4.246901720762252808e-03,1.537833176553249359e-02,-1.885724067687988281e-02,1.647466979920864105e-02,-2.505595423281192780e-02,-1.083756703883409500e-02,-2.015269920229911804e-02,1.544996979646384716e-03,-2.405842393636703491e-02,-6.292643491178750992e-03,1.787095330655574799e-02,-1.309066172689199448e-02,-1.466480782255530357e-03,1.810810528695583344e-02,2.186764468206092715e-04,1.305191125720739365e-02,-1.212064549326896667e-02,-8.262633346021175385e-03,2.295477502048015594e-02,9.190437383949756622e-03,2.584487665444612503e-03
-1.602374762296676636e-02,-8.071651682257652283e-03,5.940322298556566238e-03,3.102865535765886307e-03,-1.253920886665582657e-02,-1.438406854867935181e-02,-1.419263612478971481e-02,2.190167084336280823e-02,-9.361146017909049988e-03,1.041432749480009079e-02,1.216638740152120590e-02,1.840941049158573151e-02,-3.988164011389017105e-03,-1.570102572441101074e-02,1.147482171654701233e-02,-3.766360692679882050e-03,-2.579228579998016357e-02,-2.545436099171638489e-02,2.042723633348941803e-02,1.752408407628536224e-02,2.403210289776325226e-02,3.342437325045466423e-03,3.626138437539339066e-03,1.473956461995840073e-02,-8.969140239059925079e-03,1.910838857293128967e-02,1.901272684335708618e-02,2.354674972593784332e-02,1.808723434805870056e-02,4.922238644212484360e-03,-5.134032107889652252e-03,6.666750996373593807e-04
-1.196909416466951370e-02,2.459009177982807159e-02,-1.298956945538520813e-02,1.733732782304286957e-02,-1.600602827966213226e-02,1.904754340648651123e-02,-2.322139218449592590e-02,1.747961156070232391e-02,-6.512660998851060867e-03,1.258691190741956234e-04,3.357268578838557005e-04,-1.288815774023532867e-02,-1.610838249325752258e-02,2.179345488548278809e-02,1.457082852721214294e-02,6.153781898319721222e-03,-4.035835620015859604e-03,1.626383513212203979e-02,1.890484616160392761e-02,-2.304997853934764862e-02,9.186645969748497009e-03,1.513999328017234802e-02,3.018268384039402008e-03,4.419019911438226700e-03,1.029134914278984070e-02,-1.788843609392642975e-02,6.941609317436814308e-04,-1.982095837593078613e-02,-1.345085352659225464e-02,-1.993681304156780243e-02,-2.140010520815849304e-02,1.428701262921094894e-02
-2.414700202643871307e-02,7.065814454108476639e-03,1.139668654650449753e-02,-3.928444813936948776e-03,-1.329042948782444000e-02,1.599315367639064789e-02,1.996778137981891632e-02,-5.274027120321989059e-03,-1.918187551200389862e-02,-2.379323355853557587e-02,1.732110045850276947e-03,-1.648745685815811157e-02,1.735774130793288350e-04,2.009355835616588593e-02,2.476292848587036133e-02,4.389974754303693771e-03,-2.488423325121402740e-02,-6.790542043745517731e-03,7.448207587003707886e-03,-2.510603517293930054e-02,1.456554513424634933e-02,-4.384790663607418537e-04,7.341284304857254028e-03,-1.355043239891529083e-02,-1.550356391817331314e-02,8.072729222476482391e-03,-3.031210741028189659e-03,8.392007090151309967e-03,5.511714145541191101e-03,2.537103183567523956e-02,-2.533614449203014374e-02,-1.574536599218845367e-02
-2.220179885625839233e-02,5.267029162496328354e-03,-1.777337305247783661e-02,6.361332256346940994e-03,1.939070783555507660e-02,-1.282054465264081955e-02,-9.444537572562694550e-03,2.507843449711799622e-02,-2.445584721863269806e-02,6.722281221300363541e-03,1.931259408593177795e-02,-1.575481519103050232e-02,1.890420168638229370e-02,-1.095380261540412903e-02,2.545704320073127747e-02,3.212457988411188126e-03,-1.984369754791259766e-02,5.728881806135177612e-03,2.538688248023390770e-03,-9.368343278765678406e-03,-2.423064410686492920e-02,2.431795746088027954e-02,1.870164275169372559e-02,-1.251120027154684067e-02,-1.471690367907285690e-02,6.911078467965126038e-03,-2.176109701395034790e-02,5.375847686082124710e-03,-5.745687987655401230e-03,2.265190891921520233e-02,-1.818672381341457367e-02,1.692680455744266510e-02
-6.519412156194448471e-03,2.285213768482208252e-02,-1.159150339663028717e-02,1.538675930351018906e-02,2.047741413116455078e-02,-2.500715898349881172e-03,-1.652690768241882324e-02,2.434796094894409180e-02,1.144627947360277176e-02,-7.189340889453887939e-03,4.739078693091869354e-03,4.184458870440721512e-03,9.417049586772918701e-03,-2.369281835854053497e-02,2.077551558613777161e-02,-8.256277069449424744e-03,2.450044453144073486e-02,1.032015308737754822e-02,-1.086294837296009064e-02,-2.013756334781646729e-02,-4.876041784882545471e-03,-3.773851785808801651e-03,2.351742424070835114e-02,-7.306982297450304031e-03,-1.830017380416393280e-02,-1.737115089781582355e-03,9.381941519677639008e-03,7.366961799561977386e-03,2.492775395512580872e-02,2.309228479862213135e-02,1.786840520799160004e-02,-1.433103438466787338e-02
1.892026141285896301e-02,-7.403645664453506470e-03,-4.267274402081966400e-03,-1.181526668369770050e-02,-2.324493601918220520e-02,5.160106346011161804e-03,-1.349445991218090057e-02,1.179329585283994675e-02,-1.338346977718174458e-03,1.677259430289268494e-02,2.896058140322566032e-03,2.236585505306720734e-02,8.936488069593906403e-03,-6.856504827737808228e-03,-7.376885507255792618e-03,-3.356152214109897614e-03,-1.591349020600318909e-02,-1.388245075941085815e-02,2.520903758704662323e-02,3.266655374318361282e-03,-1.054090540856122971e-02,1.224620267748832703e-02,-7.739022374153137207e-03,3.086889162659645081e-03,4.458063282072544098e-03,1.371711120009422302e-02,7.544656284153461456e-03,-1.391513459384441376e-02,-7.036238443106412888e-03,2.194520644843578339e-02,7.466188166290521622e-03,-7.430757861584424973e-03
2.272492088377475739e-02,-2.562973089516162872e-02,1.898446236737072468e-03,2.149653062224388123e-02,9.595525451004505157e-03,2.370383590459823608e-02,1.069224067032337189e-02,2.859871136024594307e-03,-2.211783081293106079e-02,9.647449478507041931e-03,1.813711225986480713e-02,5.695573054254055023e-03,-1.107301563024520874e-02,-1.769866049289703369e-02,2.106536924839019775e-02,-5.328465718775987625e-03,-1.140581071376800537e-02,-4.274930688552558422e-04,1.691628806293010712e-02,-1.299068611115217209e-02,2.449756488204002380e-02,1.412869617342948914e-02,8.581458590924739838e-03,-1.130735967308282852e-02,-3.087311983108520508e-03,-2.532825991511344910e-02,6.483857054263353348e-03,-2.025156840682029724e-02,-1.606663130223751068e-02,-2.536294609308242798e-02,-2.388675324618816376e-02,-4.720816388726234436e-03
1.065400522202253342e-02,1.744394190609455109e-02,3.348754544276744127e-04,1.453303848393261433e-03,-2.230744995176792145e-02,2.205479890108108521e-02,3.905222285538911819e-03,9.611951827537268400e-05,3.938887733966112137e-03,-8.392072282731533051e-03,-1.184092136099934578e-03,2.137914672493934631e-02,-1.589055173099040985e-02,1.206208765506744385e-02,-4.682479426264762878e-03,-1.456680428236722946e-02,-2.073639817535877228e-02,-1.332610007375478745e-02,-2.560304477810859680e-02,-1.576013863086700439e-02,1.517422264441847801e-03,1.810502074658870697e-02,-2.146152220666408539e-02,1.541356462985277176e-02,1.303766947239637375e-02,-5.750302225351333618e-03,1.950708031654357910e-02,-2.116217277944087982e-03,1.188877131789922714e-02,1.755817979574203491e-02,-5.795571487396955490e-03,6.460016593337059021e-03
2.244591712951660156e-02,1.124768983572721481e-02,1.621194928884506226e-02,2.880827290937304497e-03,2.470168471336364746e-02,-1.478978060185909271e-02,-1.506259758025407791e-02,-2.355382777750492096e-02,2.004310861229896545e-02,-1.170053891837596893e-02,-3.976922482252120972e-03,-6.733518559485673904e-03,1.418942585587501526e-02,1.480736862868070602e-02,7.678255438804626465e-03,1.791294664144515991e-02,-2.561826445162296295e-02,-2.256615785881876945e-03,2.216749079525470734e-02,2.874193247407674789e-03,-4.311642609536647797e-03,-2.279319614171981812e-02,1.052715233527123928e-03,2.540807425975799561e-02,-2.894720295444130898e-03,-1.115932501852512360e-02,1.968524791300296783e-02,1.552522834390401840e-02,1.765504106879234314e-02,-6.754929199814796448e-04,-1.846574246883392334e-02,-9.019212797284126282e-03
-5.116216372698545456e-03,1.984609290957450867e-02,-2.334889397025108337e-02,2.326556853950023651e-02,-5.280937533825635910e-03,9.172488935291767120e-04,1.532497629523277283e-02,-2.180800400674343109e-02,-1.125817932188510895e-02,6.401341408491134644e-03,2.387735620141029358e-02,-2.518035843968391418e-02,-2.342890575528144836e-02,-6.457708775997161865e-03,-2.203621342778205872e-02,1.042457204312086105e-02,-2.468408644199371338e-02,-1.256192754954099655e-02,2.397098951041698456e-02,-3.297759452834725380e-03,-1.416344568133354187e-02,-2.053417451679706573e-02,3.490158822387456894e-03,7.200520951300859451e-03,-4.447989165782928467e-03,-1.734205638058483601e-03,-8.508179336786270142e-03,-2.087481506168842316e-02,-2.232844568789005280e-02,1.329508330672979355e-02,-4.748306237161159515e-03,-1.507894229143857956e-02
2.482821606099605560e-02,1.291947998106479645e-02,-1.909098774194717407e-02,-6.378652993589639664e-03,1.466297637671232224e-02,5.009628832340240479e-03,1.344116963446140289e-02,-4.475912079215049744e-03,1.429348066449165344e-02,-2.052450366318225861e-02,2.612390555441379547e-03,-1.671198382973670959e-02,1.339813694357872009e-02,-1.510982774198055267e-02,1.976203545928001404e-02,-7.874133298173546791e-04,-2.789159771054983139e-03,1.263188547454774380e-03,6.809986196458339691e-03,5.834265146404504776e-03,1.472678594291210175e-02,2.100044861435890198e-02,1.577820070087909698e-02,2.347100712358951569e-02,1.032042433507740498e-03,-2.067328803241252899e-02,9.738069958984851837e-03,-1.937008835375308990e-02,8.863758295774459839e-03,-2.470644935965538025e-02,-1.841056533157825470e-02,1.417751796543598175e-02
1.340263430029153824e-02,-2.306476049125194550e-02,-9.925462305545806885e-03,9.752450510859489441e-03,-1.506496686488389969e-02,5.522935185581445694e-03,2.534164674580097198e-02,1.005263766273856163e-03,-1.220031455159187317e-02,2.256117016077041626e-02,2.265163511037826538e-02,3.155382815748453140e-03,-3.903149859979748726e-03,-1.057588588446378708e-02,-2.124869637191295624e-02,-2.164786309003829956e-02,2.692703623324632645e-03,-5.366714205592870712e-03,-3.574361326172947884e-03,1.566438749432563782e-02,-1.964104548096656799e-02,-5.761717911809682846e-03,5.425407551229000092e-03,-3.631344530731439590e-03,2.329948171973228455e-02,3.042201977223157883e-03,-8.493100758641958237e-04,-1.641648449003696442e-02,8.424057625234127045e-03,2.141769044101238251e-02,3.459174651652574539e-03,3.444470057729631662e-04
-1.080007571727037430e-02,1.986079663038253784e-02,-7.086776196956634521e-03,2.005263604223728180e-02,-2.248857170343399048e-02,1.571875996887683868e-02,1.694759540259838104e-02,1.808764599263668060e-02,2.196358330547809601e-02,-1.880908943712711334e-02,1.025416702032089233e-02,-1.403167471289634705e-02,-3.531382186338305473e-03,4.806575365364551544e-03,1.269278116524219513e-02,-1.577595598064363003e-03,-1.295695174485445023e-02,1.925228536128997803e-02,-9.449721314013004303e-03,-1.574286073446273804e-02,1.374952029436826706e-02,4.468308296054601669e-03,1.511417794972658157e-02,-2.191818505525588989e-02,1.218920946121215820e-02,-2.565359137952327728e-02,-2.064293064177036285e-02,-1.454733591526746750e-02,1.095143239945173264e-02,7.239807862788438797e-03,-2.469326602295041084e-03,1.999337784945964813e-02
-3.773824311792850494e-03,1.654608733952045441e-02,-2.495133876800537109e-02,1.952173188328742981e-02,6.736567709594964981e-03,-3.785300999879837036e-03,1.134879887104034424e-02,-2.499372325837612152e-02,3.142334055155515671e-03,2.389004640281200409e-02,4.363454878330230713e-03,-6.158119998872280121e-03,1.399215124547481537e-02,-2.459568157792091370e-02,-4.580201581120491028e-03,1.491819508373737335e-02,-1.773197762668132782e-02,-9.390553459525108337e-03,-2.543209306895732880e-02,-8.151749148964881897e-03,5.642924923449754715e-03,-2.577293477952480316e-02,7.385808043181896210e-03,4.481470678001642227e-04,2.256782725453376770e-02,-2.035963116213679314e-03,1.942756585776805878e-02,-1.118952129036188126e-02,4.747076891362667084e-03,1.115350984036922455e-02,1.552983280271291733e-02,-9.212818928062915802e-03
-6.059873849153518677e-03,-7.639187853783369064e-03,3.168598748743534088e-03,1.536291185766458511e-02,-1.176629401743412018e-02,5.639299284666776657e-03,2.457522228360176086e-02,7.332150358706712723e-03,2.429679967463016510e-02,-1.168380491435527802e-02,-1.389866508543491364e-02,-1.099247392266988754e-02,-6.124693318270146847e-04,2.476282604038715363e-02,1.533411326818168163e-03,1.384624652564525604e-02,-8.936649188399314880e-03,-1.188623253256082535e-02,-5.031060427427291870e-03,-2.192275412380695343e-02,3.529592417180538177e-03,1.211452484130859375e-02,-3.507159184664487839e-03,2.296919934451580048e-02,-5.611420143395662308e-03,6.769421044737100601e-03,-6.309744436293840408e-03,1.749567314982414246e-02,2.303122915327548981e-02,5.820629303343594074e-04,5.027443170547485352e-03,6.357663776725530624e-03
2.362772636115550995e-02,2.275630831718444824e-02,-2.015378139913082123e-02,1.891464577056467533e-03,-3.642830299213528633e-03,-1.591621694387868047e-04,-2.196058817207813263e-02,9.642067365348339081e-03,-6.537856999784708023e-03,-2.246378734707832336e-02,9.980949573218822479e-03,1.150083448737859726e-02,-2.527954615652561188e-02,-1.887210831046104431e-02,1.962990872561931610e-02,-1.929977559484541416e-03,1.255952939391136169e-02,1.428176090121269226e-02,3.051307285204529762e-03,1.642288453876972198e-02,-2.473566494882106781e-02,-8.318294771015644073e-03,-2.029885165393352509e-02,-2.006562985479831696e-02,6.169649772346019745e-03,-1.001858897507190704e-02,-7.208824623376131058e-03,-2.265422046184539795e-02,-9.896378964185714722e-03,9.623400866985321045e-03,1.656296104192733765e-02,-5.759509745985269547e-03
1.211870834231376648e-02,-9.060786105692386627e-03,-2.042642561718821526e-03,5.331234540790319443e-03,-1.953266002237796783e-02,2.216674201190471649e-02,-1.998089998960494995e-02,-9.237144258804619312e-04,8.736892486922442913e-04,3.759006969630718231e-03,2.218957804143428802e-02,-2.166506648063659668e-02,-2.624764107167720795e-03,2.303668297827243805e-02,2.391922287642955780e-02,6.377336103469133377e-03,-7.105326745659112930e-03,-2.301764674484729767e-02,-1.351317763328552246e-02,-4.309451207518577576e-03,-2.539603598415851593e-02,-1.104207988828420639e-02,-8.102647261694073677e-04,-1.247040182352066040e-02,1.972771249711513519e-03,-4.603522364050149918e-03,-8.038070984184741974e-03,1.500112190842628479e-02,7.975735701620578766e-03,-9.908373467624187469e-03,5.419544875621795654e-03,-6.797667127102613449e-03
-6.447778549045324326e-03,-1.313287485390901566e-02,-1.816436462104320526e-02,-9.189322590827941895e-04,-2.301187952980399132e-03,-2.157986164093017578e-02,-1.564116915687918663e-03,-1.667061075568199158e-02,2.334158122539520264e-02,1.179017405956983566e-02,9.726376272737979889e-03,1.173452474176883698e-03,-2.516712434589862823e-02,1.741345785558223724e-02,4.014138597995042801e-03,7.000369485467672348e-03,-7.975773885846138000e-03,-1.966280117630958557e-02,2.283949404954910278e-02,2.371713705360889435e-02,-3.891755593940615654e-03,-1.154070906341075897e-02,3.758151317015290260e-03,-1.930803246796131134e-02,-9.349921718239784241e-03,-8.112447336316108704e-03,1.575239375233650208e-02,-1.037272997200489044e-02,1.478988328017294407e-03,1.779357343912124634e-02,6.476066075265407562e-03,-2.208349760621786118e-03
-8.706322871148586273e-03,-1.443057972937822342e-02,1.117475796490907669e-02,-5.050916690379381180e-03,1.999456435441970825e-03,-1.501487009227275848e-02,2.551306970417499542e-02,1.400047354400157928e-02,-2.018059976398944855e-02,8.349386975169181824e-03,-2.221318706870079041e-02,-1.800207607448101044e-02,-1.514978148043155670e-02,2.248226851224899292e-02,5.434719379991292953e-03,1.601212471723556519e-02,1.710560917854309082e-02,-1.497415173798799515e-02,-4.536684427876025438e-04,1.233001518994569778e-02,-3.029966959729790688e-03,-5.391219630837440491e-03,-5.318580660969018936e-03,-1.950448937714099884e-02,1.001897081732749939e-02,6.153337890282273293e-04,-2.081954292953014374e-02,-2.430165652185678482e-03,1.809683442115783691e-02,-1.904472149908542633e-02,-7.895421003922820091e-04,1.304592238739132881e-03
2.537408284842967987e-02,-5.514498800039291382e-03,2.147909253835678101e-02,-1.953406445682048798e-02,2.455933252349495888e-03,6.427710177376866341e-04,-9.249985218048095703e-03,8.440564386546611786e-03,-2.395165525376796722e-02,-1.715151779353618622e-02,-8.431580499745905399e-05,-7.289331406354904175e-03,-6.929676979780197144e-03,2.546049281954765320e-02,-9.758615866303443909e-03,4.878073465079069138e-03,-2.063620463013648987e-02,6.281639914959669113e-03,-7.512490847148001194e-04,-6.412607763195410371e-05,-2.282073535025119781e-02,-5.136268679052591324e-03,2.551502920687198639e-02,-1.642093434929847717e-02,1.625939086079597473e-02,-1.086734887212514877e-02,-4.862797446548938751e-03,-1.609207130968570709e-02,4.627760499715805054e-03,-1.385592482984066010e-02,-2.244448475539684296e-02,1.050616707652807236e-02
1.621594093739986420e-02,-7.372777909040451050e-03,2.060558646917343140e-02,-1.180249359458684921e-02,-1.133380457758903503e-02,2.104865200817584991e-02,2.854060148820281029e-03,7.003535982221364975e-03,-1.356910262256860733e-02,-9.753123740665614605e-04,-1.408934965729713440e-02,1.389113720506429672e-02,-2.285964787006378174e-02,-2.649732166901230812e-03,-6.320619024336338043e-03,2.132220380008220673e-02,-4.808379802852869034e-03,1.031489204615354538e-02,-5.830584559589624405e-03,2.168316207826137543e-02,-1.154618989676237106e-02,1.427566446363925934e-02,2.562494017183780670e-02,1.968176476657390594e-02,-1.787297055125236511e-02,-8.437907323241233826e-03,5.712991580367088318e-03,-7.641076110303401947e-03,-1.704376190900802612e-02,-2.451393194496631622e-02,-1.510913390666246414e-02,1.077851373702287674e-02
1.346775889396667480e-02,2.566642127931118011e-02,-8.608840405941009521e-03,1.639002747833728790e-02,1.935029961168766022e-02,-4.303420893847942352e-03,1.248621754348278046e-02,-1.952529698610305786e-02,3.930788021534681320e-03,1.962944492697715759e-02,1.455397810786962509e-02,-1.129520125687122345e-03,-2.117345482110977173e-02,2.302912063896656036e-02,9.229619055986404419e-03,1.502774842083454132e-02,-1.999452244490385056e-03,-3.996990621089935303e-03,-2.348811551928520203e-02,9.353049099445343018e-03,-5.204437300562858582e-03,1.414690166711807251e-02,-1.662309467792510986e-02,5.944754928350448608e-03,-1.229884941130876541e-02,-2.578013576567173004e-03,2.517335303127765656e-02,-1.653272658586502075e-02,-5.028515122830867767e-03,2.058255672454833984e-02,1.273403875529766083e-02,-1.962138339877128601e-02
1.791799813508987427e-02,-1.349547691643238068e-02,2.423756290227174759e-03,4.808404948562383652e-03,1.592781394720077515e-02,4.840346984565258026e-03,-1.745462231338024139e-02,-5.947713274508714676e-03,-7.096345536410808563e-03,-2.537159062922000885e-02,1.975319534540176392e-02,2.697514137253165245e-03,5.409414879977703094e-03,2.096981182694435120e-02,8.677451871335506439e-03,-2.126800082623958588e-02,-1.023526303470134735e-02,-2.337964810431003571e-02,2.528654597699642181e-02,-6.213581189513206482e-03,-2.057866565883159637e-02,1.917577721178531647e-02,9.603394195437431335e-03,4.135006107389926910e-03,-1.640916243195533752e-02,1.645854674279689789e-02,1.855689659714698792e-02,-7.706717588007450104e-03,-2.009393088519573212e-02,-8.786642923951148987e-03,-1.399336010217666626e-02,1.278950367122888565e-02
1.270150300115346909e-02,-2.395421266555786133e-02,-1.738945581018924713e-02,2.093806490302085876e-02,4.329894203692674637e-03,-3.343261312693357468e-03,2.134440839290618896e-02,-8.588545024394989014e-03,-4.418779164552688599e-03,4.040134605020284653e-03,-1.433068513870239258e-02,1.155495364218950272e-02,-5.631661042571067810e-03,1.902302540838718414e-02,-1.805411465466022491e-02,2.265720628201961517e-02,-1.419294252991676331e-02,1.732583902776241302e-02,-1.445590704679489136e-02,-2.108529955148696899e-02,1.698905229568481445e-02,-6.479556206613779068e-03,2.302024513483047485e-02,2.857647370547056198e-03,1.540315430611371994e-02,2.275429293513298035e-02,6.288531236350536346e-03,1.777779310941696167e-02,-1.617052778601646423e-02,-4.546245094388723373e-03,-4.629143513739109039e-03,2.066740207374095917e-02
1.829615980386734009e-02,1.285024452954530716e-02,1.292413286864757538e-02,-1.657240837812423706e-02,1.424660673364996910e-03,9.131839615292847157e-04,2.537151798605918884e-02,8.848207071423530579e-03,-3.812021110206842422e-03,-2.553605008870363235e-03,2.209706464782357216e-03,-1.050442829728126526e-02,2.240751683712005615e-02,1.358798053115606308e-02,-1.686007715761661530e-02,8.768371306359767914e-03,2.140760794281959534e-02,-1.416954118758440018e-02,3.328653983771800995e-03,-8.338991552591323853e-03,1.613027998246252537e-03,-4.718839656561613083e-03,1.097149122506380081e-02,1.205941475927829742e-02,5.116010084748268127e-03,-2.509788423776626587e-02,1.840717531740665436e-02,1.294223498553037643e-02,1.308264490216970444e-02,2.377490699291229248e-02,-3.487662645056843758e-03,-1.461577322334051132e-02
-2.350219525396823883e-02,2.443275600671768188e-02,2.193442173302173615e-02,-2.274149842560291290e-02,-2.068042755126953125e-02,-1.738932542502880096e-02,-7.681806571781635284e-03,2.364346943795681000e-02,-2.615574002265930176e-02,1.464966591447591782e-02,-1.890107057988643646e-02,-2.329315431416034698e-02,-9.944735094904899597e-03,1.436301320791244507e-02,2.021897211670875549e-02,-1.390714757144451141e-02,2.528261393308639526e-02,1.846503093838691711e-02,2.285136096179485321e-02,6.743494421243667603e-03,2.197598852217197418e-02,-1.580563746392726898e-02,-5.605397745966911316e-04,8.877075277268886566e-03,1.517040003091096878e-02,8.850662037730216980e-03,1.598951779305934906e-02,-1.944114081561565399e-02,-6.708181463181972504e-03,-1.653209887444972992e-02,-2.571965008974075317e-02,1.539055444300174713e-02
-1.346283778548240662e-02,1.514139119535684586e-02,-2.547824196517467499e-02,-2.297250181436538696e-02,6.746808532625436783e-03,-2.528974786400794983e-02,2.412194758653640747e-02,-1.289276871830224991e-02,1.622151397168636322e-02,-3.313510911539196968e-03,-3.763360157608985901e-02,1.352546177804470062e-02,4.501487594097852707e-03,1.350409258157014847e-02,-2.533249743282794952e-02,1.313542714342474937e-03,1.356302667409181595e-02,1.722968532703816891e-03,1.242850627750158310e-02,2.313086297363042831e-04,-3.160607069730758667e-02,1.183530315756797791e-02,-1.309192273765802383e-02,-4.963423125445842743e-03,-6.017501931637525558e-03,1.637261360883712769e-02,-2.067552506923675537e-02,1.575252600014209747e-02,3.588122781366109848e-03,1.972794160246849060e-02,4.346610046923160553e-03,1.384792011231184006e-02
5.109981168061494827e-03,-9.465273469686508179e-03,-2.067238092422485352e-02,2.499387599527835846e-02,-1.199674047529697418e-02,-2.238977700471878052e-02,2.049461938440799713e-02,2.311544120311737061e-02,-2.345982752740383148e-02,-2.278697118163108826e-02,-5.206015333533287048e-02,-6.419619545340538025e-03,7.817305624485015869e-03,-5.854556336998939514e-02,-8.629543590359389782e-04,2.302698232233524323e-02,-2.633109979797154665e-04,-3.512033447623252869e-02,1.166059263050556183e-02,1.023441366851329803e-02,-1.491044368594884872e-02,-1.627759821712970734e-02,3.744061803445219994e-03,-2.211853675544261932e-02,2.134930808097124100e-03,-2.456566132605075836e-02,9.100929833948612213e-03,-6.224087439477443695e-03,1.086354814469814301e-02,-4.558311775326728821e-03,2.056932076811790466e-02,1.424753759056329727e-02
-1.496201381087303162e-02,-5.464775953441858292e-03,-8.204434998333454132e-03,3.579365555197000504e-03,4.719628486782312393e-03,-5.019477009773254395e-02,2.943440154194831848e-02,2.150055766105651855e-02,-2.579103782773017883e-02,-1.620936952531337738e-02,-2.027049288153648376e-02,-1.559972204267978668e-02,1.220729481428861618e-02,-3.022585995495319366e-02,9.051644243299961090e-03,-1.199956983327865601e-02,1.387537084519863129e-02,-8.827649056911468506e-03,1.606441475450992584e-02,1.724033965729176998e-03,-1.579245552420616150e-03,-7.881100289523601532e-03,-2.471452578902244568e-02,7.933620363473892212e-03,2.755776233971118927e-02,1.361384801566600800e-02,9.309925138950347900e-03,-2.070099674165248871e-02,-1.978805102407932281e-02,-1.214039418846368790e-02,-1.362154912203550339e-02,-2.240464650094509125e-02
-3.166462993249297142e-03,-2.277036197483539581e-03,2.158184349536895752e-02,-2.758791437372565269e-03,-7.757504004985094070e-03,6.377079989761114120e-04,-2.028922084718942642e-03,-1.514289714395999908e-02,-1.450839824974536896e-02,-8.383228559978306293e-04,-7.035785820335149765e-03,3.049862943589687347e-02,2.369949966669082642e-02,-2.204621210694313049e-02,-3.737176535651087761e-03,-1.461273431777954102e-02,1.271803677082061768e-02,-2.198704518377780914e-02,1.293323282152414322e-02,-2.593571692705154419e-02,-3.689229860901832581e-02,-9.482846595346927643e-03,1.914003305137157440e-02,6.405679974704980850e-03,7.659214083105325699e-03,-5.527176894247531891e-03,-6.385401822626590729e-03,-1.081247255206108093e-02,-6.898554973304271698e-03,2.511876076459884644e-02,-9.441058151423931122e-03,-3.272940870374441147e-03
-2.893103472888469696e-02,-1.991216652095317841e-02,-1.407248713076114655e-02,1.726955175399780273e-02,1.915771514177322388e-02,-1.907984958961606026e-03,1.604485511779785156e-02,-1.396635733544826508e-02,8.965658955276012421e-03,7.065325509756803513e-03,-2.749808318912982941e-02,1.337993424385786057e-02,2.596590854227542877e-02,-4.683077707886695862e-02,2.469819039106369019e-02,9.813477285206317902e-03,-2.047002548351883888e-03,1.893789158202707767e-03,6.919750012457370758e-03,-1.165526639670133591e-02,-4.705385863780975342e-02,2.127447165548801422e-02,-3.164278576150536537e-03,1.032695523463189602e-03,3.446080721914768219e-03,-2.102557846228592098e-05,2.076638676226139069e-02,7.184016052633523941e-03,1.613172329962253571e-02,-7.171513512730598450e-03,-9.546937420964241028e-03,-1.993756927549839020e-02
-9.498245082795619965e-03,2.021399512887001038e-02,-1.149073056876659393e-02,1.793554052710533142e-02,-2.116271294653415680e-03,-2.535305730998516083e-02,5.805345252156257629e-02,-2.165565267205238342e-02,1.082450803369283676e-02,-3.792342962697148323e-03,-7.211435586214065552e-02,1.448071678169071674e-03,3.229416906833648682e-02,-9.488958120346069336e-02,1.930165849626064301e-02,3.241017833352088928e-02,-1.078395638614892960e-02,-3.829212859272956848e-02,5.177098140120506287e-02,3.975509852170944214e-02,-7.766429334878921509e-02,-2.679924666881561279e-02,-6.235780660063028336e-03,2.004947513341903687e-02,-1.324469968676567078e-02,-8.450996130704879761e-03,-1.554978918284177780e-02,-1.862857118248939514e-02,-2.125562913715839386e-02,-4.806516692042350769e-03,-1.047047600150108337e-02,-1.623999513685703278e-02
-4.970666486769914627e-05,-3.772208001464605331e-03,1.106110960245132446e-02,-1.340303197503089905e-02,1.884197443723678589e-02,-4.654471203684806824e-02,-9.029320441186428070e-03,-1.830068603157997131e-02,2.719769545365124941e-04,-2.651909925043582916e-02,-1.876845769584178925e-02,3.500875458121299744e-02,1.859647966921329498e-02,-8.563759922981262207e-02,2.094994857907295227e-02,-1.838936586864292622e-03,-1.854941248893737793e-02,6.681032944470643997e-03,3.621249273419380188e-02,-8.641589432954788208e-03,-4.906064644455909729e-02,-4.510716348886489868e-02,1.436163950711488724e-02,1.185501273721456528e-02,1.519813202321529388e-02,1.815011911094188690e-02,-1.539636217057704926e-02,5.922657903283834457e-03,6.568646058440208435e-03,2.545653143897652626e-03,2.125656756106764078e-04,-1.128786429762840271e-02
4.726992454379796982e-03,-8.215259760618209839e-03,-3.123313188552856445e-03,-1.161935739219188690e-02,8.985177613794803619e-03,2.038843184709548950e-02,-1.703459769487380981e-02,-1.123106759041547775e-02,1.804680377244949341e-02,1.671462506055831909e-02,7.281360775232315063e-02,9.708442725241184235e-03,7.841012440621852875e-03,-1.899270899593830109e-02,1.075415499508380890e-02,-4.900857806205749512e-02,1.235528383404016495e-03,2.835060469806194305e-02,1.684600673615932465e-02,1.385261956602334976e-02,1.657294481992721558e-02,1.673151925206184387e-02,1.912788502522744238e-05,1.761186122894287109e-02,-8.099246770143508911e-03,-1.730051077902317047e-02,1.455499045550823212e-02,-2.938675321638584137e-02,-4.551612958312034607e-02,3.260124474763870239e-02,3.953735157847404480e-02,-3.064702637493610382e-02
9.619019925594329834e-03,4.091555019840598106e-04,-1.410321448929607868e-03,-1.913956180214881897e-02,-8.455764502286911011e-03,-3.479748498648405075e-03,-7.403304800391197205e-03,9.387529455125331879e-03,1.539869979023933411e-02,-3.430559532716870308e-03,-1.818604208528995514e-02,1.143113803118467331e-02,5.223403871059417725e-02,-4.493787139654159546e-02,8.887597173452377319e-02,1.100381836295127869e-01,3.377919644117355347e-02,-8.326126635074615479e-02,8.121762424707412720e-02,-5.798328202217817307e-03,-4.215382784605026245e-02,-3.227557241916656494e-02,1.418143417686223984e-02,2.377574704587459564e-02,-2.734009549021720886e-02,-5.973950028419494629e-02,5.882678553462028503e-02,-2.005865424871444702e-02,1.849063113331794739e-02,3.691574558615684509e-02,1.095665171742439270e-01,-7.515019178390502930e-02
6.783057004213333130e-02,-4.524884279817342758e-03,-8.333237841725349426e-03,-1.236075814813375473e-02,-7.349578291177749634e-02,-7.867635786533355713e-02,3.760178387165069580e-02,-3.558948868885636330e-03,3.237196058034896851e-02,-2.664852514863014221e-02,-3.180494066327810287e-03,1.681086793541908264e-02,4.475614521652460098e-03,-1.107244640588760376e-01,1.218196898698806763e-01,8.613187819719314575e-02,7.329351734369993210e-03,-6.862121820449829102e-02,8.607648313045501709e-02,1.112622953951358795e-02,-8.803257718682289124e-03,-8.177650719881057739e-02,-5.479485727846622467e-03,2.032015658915042877e-02,-5.933120381087064743e-03,-5.303709581494331360e-02,1.192315574735403061e-02,-2.258072607219219208e-02,1.654744148254394531e-02,-1.672787591814994812e-02,8.262494951486587524e-02,-2.325955033302307129e-02
6.075649708509445190e-02,-2.152994647622108459e-02,-1.157891005277633667e-02,-1.077658310532569885e-02,-1.178026665002107620e-02,-2.983871847391128540e-02,3.056549839675426483e-02,-1.929924264550209045e-02,-8.755062706768512726e-03,-2.592487633228302002e-02,-6.002430338412523270e-03,-8.471149951219558716e-03,-1.850440725684165955e-02,-7.360428571701049805e-02,7.666527479887008667e-02,5.846776068210601807e-02,4.192318301647901535e-03,-9.388386458158493042e-02,1.611016318202018738e-02,-1.749861240386962891e-02,-1.740274392068386078e-02,-6.839906424283981323e-02,-1.529997028410434723e-02,1.377537846565246582e-02,6.750074215233325958e-03,-9.126719832420349121e-02,1.942762359976768494e-02,2.208598889410495758e-02,-4.065649583935737610e-03,-3.055209107697010040e-02,8.449899405241012573e-02,1.836864830693230033e-04
-1.810798607766628265e-02,1.387121155858039856e-02,1.236305478960275650e-02,-4.972954280674457550e-03,2.721158787608146667e-02,-3.400847688317298889e-02,2.021013945341110229e-02,-1.993209123611450195e-03,-5.941329989582300186e-03,1.969649456441402435e-03,-3.241901472210884094e-02,1.133274193853139877e-02,3.694164752960205078e-02,-3.126505017280578613e-02,-1.455298066139221191e-02,3.214899823069572449e-02,7.880152203142642975e-03,-2.409558184444904327e-02,-1.026298012584447861e-02,1.514128502458333969e-02,-2.631350979208946228e-02,6.130139809101819992e-03,-2.249653637409210205e-02,2.149081043899059296e-02,2.783121168613433838e-02,-1.162451226264238358e-02,-3.572764247655868530e-02,-9.013101225718855858e-04,-1.301581040024757385e-02,-1.481226063333451748e-04,-1.703419722616672516e-02,-2.436163462698459625e-02
-2.627217955887317657e-02,-2.235825173556804657e-02,-5.327843129634857178e-03,2.250744588673114777e-02,1.991338469088077545e-02,-3.460173308849334717e-02,1.909730397164821625e-02,8.167582564055919647e-03,-1.808436773717403412e-02,-1.899138651788234711e-02,-3.607823327183723450e-02,4.810352995991706848e-02,3.283546119928359985e-02,-6.068711355328559875e-02,-8.558503352105617523e-03,2.603982016444206238e-02,2.600320987403392792e-02,-2.299037389457225800e-02,1.402794383466243744e-02,-8.572312071919441223e-03,-3.066419810056686401e-02,-2.786116674542427063e-03,2.712344750761985779e-02,1.601938717067241669e-02,3.911151736974716187e-02,-1.501384936273097992e-02,-9.886551648378372192e-03,-4.584122449159622192e-03,-1.241890061646699905e-02,2.134374342858791351e-02,-1.090088579803705215e-02,1.149243302643299103e-02
-2.169003896415233612e-02,4.725104663521051407e-03,-1.861950382590293884e-02,-1.193961594253778458e-02,3.865265846252441406e-02,-1.042500510811805725e-02,1.286732777953147888e-02,1.340433582663536072e-02,-3.440645337104797363e-02,3.504008287563920021e-03,-5.792432650923728943e-02,4.112702608108520508e-02,1.869470253586769104e-02,-3.126295516267418861e-03,-2.253541164100170135e-02,3.468739613890647888e-02,-3.796892939135432243e-03,-4.036560712847858667e-04,3.194963559508323669e-02,1.133362296968698502e-02,-4.574931785464286804e-02,-9.717347100377082825e-03,6.322326138615608215e-03,1.923811994493007660e-02,4.438859596848487854e-02,-1.705419085919857025e-02,1.155250985175371170e-02,-2.307914569973945618e-02,-7.277646567672491074e-03,-5.097491201013326645e-03,2.440560422837734222e-02,-2.630002610385417938e-02
4.227543249726295471e-03,-1.920325309038162231e-02,2.145238220691680908e-02,-1.645076088607311249e-02,1.362355332821607590e-02,-6.226129457354545593e-02,4.666156321763992310e-02,9.921246208250522614e-03,-2.629759721457958221e-02,-1.852013729512691498e-02,-3.458280116319656372e-02,6.263088434934616089e-02,5.451979488134384155e-02,-3.668963909149169922e-02,6.837967783212661743e-03,4.245914518833160400e-02,2.356344088912010193e-02,-3.578242659568786621e-02,5.732893943786621094e-02,-1.237009000033140182e-02,-4.799848049879074097e-02,-1.798172667622566223e-02,8.082507178187370300e-03,2.190403267741203308e-02,3.245813399553298950e-02,-8.885739371180534363e-04,-2.219022996723651886e-02,-1.043895608745515347e-03,-4.207790829241275787e-03,-9.288013912737369537e-03,7.331224624067544937e-03,1.449341699481010437e-02
8.519709110260009766e-03,-1.621059514582157135e-02,-5.750460550189018250e-03,-2.313319966197013855e-02,3.750287741422653198e-02,-6.179813295602798462e-02,6.229456141591072083e-02,-1.664357446134090424e-02,-1.818382181227207184e-02,-4.288761690258979797e-02,-2.648800425231456757e-02,6.005907803773880005e-02,5.244383215904235840e-02,-1.067922823131084442e-02,-1.152081042528152466e-02,3.762220963835716248e-02,5.403906689025461674e-04,-4.980469588190317154e-03,5.172862485051155090e-02,9.046681225299835205e-03,3.752929158508777618e-03,1.924185827374458313e-02,8.036806248128414154e-03,-1.907023228704929352e-02,-1.202026382088661194e-02,4.875855520367622375e-04,-2.068148739635944366e-02,-2.618104778230190277e-02,1.349585969001054764e-02,1.766458339989185333e-02,1.099821925163269043e-02,-1.910528168082237244e-02
-1.848712936043739319e-02,-2.162780985236167908e-02,3.410304198041558266e-03,-2.956018317490816116e-03,3.497153753414750099e-03,-7.866399362683296204e-03,2.271565794944763184e-02,6.125594023615121841e-03,1.474923733621835709e-02,3.070505568757653236e-03,4.785606171935796738e-03,-1.570553518831729889e-02,-1.029250025749206543e-02,-3.035778179764747620e-02,-1.202562544494867325e-02,-9.739139117300510406e-03,-8.440785109996795654e-03,-1.130561158061027527e-02,1.382199302315711975e-02,1.574094407260417938e-02,-2.443577535450458527e-02,1.092241331934928894e-02,-1.076478976756334305e-02,-8.771514520049095154e-03,-4.844178445637226105e-03,-2.181752584874629974e-02,1.248805597424507141e-02,3.947650082409381866e-03,1.200064085423946381e-03,-4.486411809921264648e-03,-2.401138655841350555e-02,6.431252229958772659e-03
1.962669752538204193e-02,2.344521693885326385e-02,-1.385510899126529694e-02,-6.259628105908632278e-03,1.325586903840303421e-02,9.619155898690223694e-03,-1.933188922703266144e-02,2.227476052939891815e-02,2.290076203644275665e-02,5.071388557553291321e-03,-1.561927516013383865e-02,2.567060850560665131e-02,1.359264925122261047e-02,7.071963977068662643e-03,1.453852467238903046e-02,-3.007535357028245926e-03,8.047856390476226807e-03,5.996509455144405365e-03,-1.178867835551500320e-02,2.129745297133922577e-02,-1.299045793712139130e-02,-2.492656558752059937e-02,-3.883416065946221352e-03,1.188744325190782547e-02,-5.538546014577150345e-03,-2.112186141312122345e-02,-9.960448369383811951e-03,-1.988028921186923981e-02,-6.471370579674839973e-04,1.951610855758190155e-02,6.035950500518083572e-03,-1.298198197036981583e-02
2.374535612761974335e-02,2.905915491282939911e-03,9.326350875198841095e-03,1.469942857511341572e-03,1.656119711697101593e-03,1.373648643493652344e-02,4.532092498266138136e-05,-8.689193986356258392e-03,-1.560506690293550491e-02,-2.119969576597213745e-03,1.579496636986732483e-02,8.873830549418926239e-03,1.943578943610191345e-02,-5.230274517089128494e-03,1.921289041638374329e-02,-4.445853643119335175e-03,1.331435702741146088e-02,-2.072052797302603722e-03,-1.202590949833393097e-02,-1.710809394717216492e-02,-1.450806390494108200e-02,-1.363203860819339752e-02,-6.205129437148571014e-03,8.267513476312160492e-03,-1.396208629012107849e-02,-1.493991259485483170e-02,-8.231421001255512238e-03,6.430979701690375805e-04,-8.766968734562397003e-03,2.349043078720569611e-02,2.124844118952751160e-02,-1.897767372429370880e-02
-2.460588235408067703e-03,1.647623069584369659e-02,-9.889416396617889404e-03,-1.176674733869731426e-03,-2.424257434904575348e-02,1.817082427442073822e-02,-1.790301129221916199e-02,-2.077657543122768402e-02,-1.937880180776119232e-02,4.926130175590515137e-03,-1.123916241340339184e-03,-2.544320374727249146e-02,-1.087212376296520233e-02,-1.454143039882183075e-02,2.128539420664310455e-02,-1.593958935700356960e-03,-1.965041086077690125e-02,-1.040614559315145016e-03,-3.952016588300466537e-03,9.904882870614528656e-03,-2.628106391057372093e-03,2.500729449093341827e-02,5.167606286704540253e-03,-4.316159989684820175e-03,-1.280962303280830383e-02,-2.434256114065647125e-02,2.500164322555065155e-02,1.444495003670454025e-02,7.962068542838096619e-03,-1.122995745390653610e-02,-9.325701743364334106e-03,-4.783753771334886551e-03
-2.577442908659577370e-03,1.668089628219604492e-02,1.763357035815715790e-02,1.169096585363149643e-02,7.441940717399120331e-03,6.255629006773233414e-03,-2.110371366143226624e-03,-2.060782350599765778e-02,1.268346235156059265e-02,4.591438919305801392e-03,1.682947203516960144e-02,-2.547379350289702415e-03,-1.496865600347518921e-02,2.220947109162807465e-02,-2.228057570755481720e-02,2.561005204916000366e-02,-1.805301941931247711e-02,1.475926768034696579e-02,1.071620639413595200e-02,1.608962751924991608e-02,-6.364489672705531120e-04,1.234291773289442062e-02,-1.949513680301606655e-03,-2.025224454700946808e-02,-9.586717002093791962e-03,1.526344195008277893e-02,1.484144013375043869e-02,2.530269557610154152e-03,-5.078954156488180161e-03,-1.019205152988433838e-02,-1.047009322792291641e-02,-2.575027197599411011e-02
-1.969605498015880585e-02,1.568249776028096676e-03,4.406730178743600845e-03,-2.083323150873184204e-02,-4.254795785527676344e-04,-1.493795774877071381e-02,2.178648486733436584e-02,-2.114035561680793762e-02,-1.609202660620212555e-02,-2.406234666705131531e-02,2.480611391365528107e-02,5.986149772070348263e-04,-2.151071652770042419e-02,-2.439775131642818451e-02,8.506573736667633057e-03,2.025318890810012817e-02,2.041817270219326019e-02,1.228754263138398528e-04,6.713900249451398849e-03,-2.176384907215833664e-03,-5.764269153587520123e-04,-1.683080568909645081e-02,8.918029488995671272e-04,-2.064857445657253265e-02,9.173821657896041870e-03,-1.336602121591567993e-02,-1.585753262042999268e-02,1.517484802752733231e-02,-1.908120699226856232e-02,-1.230406481772661209e-02,-1.279871538281440735e-02,-1.837138843256980181e-04
1.899811625480651855e-02,2.190338261425495148e-02,-2.294274233281612396e-02,-1.797380670905113220e-02,2.570075169205665588e-02,-4.436015442479401827e-04,-8.849097415804862976e-03,9.051378816366195679e-03,-8.601525798439979553e-03,2.569231763482093811e-02,4.302335437387228012e-03,-1.890408247709274292e-02,-1.659463159739971161e-02,-1.604611985385417938e-02,-1.893531443784013391e-04,-2.432806231081485748e-02,-2.520921640098094940e-02,6.055116653442382812e-03,-3.953143022954463959e-03,-9.841631166636943817e-03,1.349114719778299332e-02,2.269242890179157257e-02,5.294679198414087296e-03,-4.119390214327722788e-04,-1.208332274109125137e-02,-2.439285814762115479e-02,-7.843395695090293884e-03,7.754778955131769180e-03,-2.202173136174678802e-02,-1.216270215809345245e-02,-7.621845696121454239e-03,-6.797718349844217300e-03
-2.507867850363254547e-02,2.127132005989551544e-02,-1.884487271308898926e-02,-1.046704221516847610e-02,-2.008505910634994507e-02,1.803900301456451416e-02,-9.003978222608566284e-03,-2.411814965307712555e-02,-3.015131689608097076e-03,1.518835779279470444e-02,1.114396378397941589e-02,1.853521540760993958e-02,-1.434731762856245041e-02,-2.898545237258076668e-03,-5.704876501113176346e-03,-8.518191985785961151e-03,-8.314157836139202118e-03,1.639240421354770660e-02,-7.549755275249481201e-03,-9.768332354724407196e-03,-3.095632127951830626e-04,2.317695505917072296e-02,2.172913588583469391e-02,1.752875978127121925e-03,-5.209035240113735199e-03,-4.713379312306642532e-03,-1.029199641197919846e-02,-2.998729702085256577e-03,-2.447031438350677490e-02,-6.994850933551788330e-03,7.187973242253065109e-03,1.604222320020198822e-02
1.453555840998888016e-02,-2.018283866345882416e-02,1.362039335072040558e-02,7.375090382993221283e-03,3.313601249828934669e-03,1.560278795659542084e-02,8.215514011681079865e-03,2.002725563943386078e-02,1.606348529458045959e-02,-1.644967822358012199e-03,5.836453288793563843e-03,-2.498757652938365936e-02,-1.370479073375463486e-02,-1.374142151325941086e-02,1.274964399635791779e-02,2.455324120819568634e-02,2.984625985845923424e-03,-2.449961565434932709e-02,9.187848307192325592e-03,-2.105725184082984924e-02,4.769828170537948608e-03,-2.022520080208778381e-02,-2.820806391537189484e-02,3.553477348759770393e-03,-6.468797102570533752e-03,-9.090667590498924255e-03,-1.384866889566183090e-02,4.517467692494392395e-03,6.564003997482359409e-04,-2.475487813353538513e-02,1.670991256833076477e-02,1.489703170955181122e-02
-1.937233284115791321e-02,-2.573996968567371368e-02,2.095218002796173096e-02,-2.966889645904302597e-03,-1.791361533105373383e-02,1.078766677528619766e-02,1.283889543265104294e-02,4.691406153142452240e-03,1.961437240242958069e-02,-1.143706403672695160e-02,1.651115342974662781e-02,-1.708403974771499634e-02,-4.189639585092663765e-04,1.071990653872489929e-02,1.103033311665058136e-02,1.929584704339504242e-02,-8.781909942626953125e-03,1.454270817339420319e-02,1.966303586959838867e-02,1.487164292484521866e-02,-6.927451118826866150e-03,1.083891605958342552e-03,-2.988094696775078773e-03,1.875498890876770020e-02,-1.768849976360797882e-02,1.019298005849123001e-02,-2.138807997107505798e-02,-2.459419891238212585e-02,1.458280137740075588e-03,-2.582919318228960037e-03,2.295995317399501801e-02,-2.450228668749332428e-02
2.202290482819080353e-02,-1.513048633933067322e-02,2.109900675714015961e-02,-1.066842302680015564e-02,-1.674100570380687714e-02,2.548366412520408630e-02,-6.424841005355119705e-03,5.901960190385580063e-03,7.493268698453903198e-03,1.259997859597206116e-02,-1.807206310331821442e-02,-2.481008507311344147e-02,-2.232402376830577850e-02,-2.533680573105812073e-02,7.557665812782943249e-04,-1.084125600755214691e-02,1.366031076759099960e-02,-2.533652819693088531e-03,-2.432911656796932220e-02,-1.365664135664701462e-02,-9.785979986190795898e-03,1.136814523488283157e-02,-4.121073987334966660e-03,-9.575179778039455414e-03,-1.171315554529428482e-03,-3.469681600108742714e-03,1.494475454092025757e-02,-1.003215089440345764e-02,-1.399259362369775772e-02,1.158554572612047195e-02,-9.304012171924114227e-03,6.200295174494385719e-04
-1.476668566465377808e-02,7.973110303282737732e-03,-5.641643074341118336e-04,-9.751996025443077087e-03,1.546848192811012268e-02,-2.606056816875934601e-02,1.433458924293518066e-02,-1.307570561766624451e-02,-1.213002111762762070e-02,-7.274902891367673874e-03,8.767353370785713196e-03,1.995302923023700714e-02,-1.024339254945516586e-02,-1.054813992232084274e-02,-2.378233708441257477e-02,1.502609346061944962e-02,1.025138050317764282e-02,4.501073621213436127e-03,-1.032429630868136883e-03,-2.154759503901004791e-02,-1.780633255839347839e-02,-2.842072397470474243e-02,2.081955783069133759e-03,5.445525050163269043e-03,-1.918272860348224640e-02,-2.002220042049884796e-02,1.721356250345706940e-02,-8.768542669713497162e-03,1.795516721904277802e-02,7.400539703667163849e-03,2.159103937447071075e-02,-1.013006363064050674e-02
1.707509718835353851e-02,2.545731142163276672e-02,2.588546089828014374e-02,2.729155123233795166e-02,2.961837314069271088e-02,-1.942530460655689240e-02,8.777935989201068878e-03,3.874213434755802155e-03,-3.782747685909271240e-02,-4.057265073060989380e-02,-3.691839799284934998e-02,1.214483659714460373e-02,-1.144809741526842117e-02,-6.172110512852668762e-02,6.757638417184352875e-03,4.042631387710571289e-02,-2.701315330341458321e-03,-4.799030255526304245e-03,3.064581193029880524e-02,2.524247393012046814e-02,-5.095522850751876831e-02,-4.078971222043037415e-02,2.327231504023075104e-02,8.553403429687023163e-03,3.853511810302734375e-02,-2.973033580929040909e-03,6.352973170578479767e-03,-3.374795895069837570e-03,1.911925710737705231e-02,1.351320277899503708e-02,-2.558138780295848846e-02,2.166211977601051331e-02
1.229772623628377914e-02,4.378660582005977631e-03,-2.945534512400627136e-02,3.542008250951766968e-02,3.434671461582183838e-02,-1.054480820894241333e-01,7.859112322330474854e-02,1.350524649024009705e-02,-6.888232380151748657e-02,-3.762982785701751709e-02,-7.549165189266204834e-02,-3.314011171460151672e-02,-2.225110493600368500e-02,-1.268626451492309570e-01,-1.266793720424175262e-02,2.122885733842849731e-02,2.191265672445297241e-02,1.663912087678909302e-02,5.430551245808601379e-02,-2.615121193230152130e-02,-1.063974667340517044e-02,-3.928320854902267456e-02,6.810678169131278992e-03,1.627040281891822815e-02,-7.517073303461074829e-02,2.804839052259922028e-02,3.269990533590316772e-02,-1.557894330471754074e-02,1.997489668428897858e-02,5.877286568284034729e-02,-8.762977272272109985e-02,7.371384650468826294e-02
9.200207144021987915e-02,-2.293303608894348145e-02,-8.314869552850723267e-02,8.456799387931823730e-02,7.518201321363449097e-02,-7.060606032609939575e-02,6.591171771287918091e-02,-6.097129732370376587e-02,-6.360635161399841309e-02,-8.637991547584533691e-02,-7.422777265310287476e-02,-1.991634629666805267e-02,-7.271891832351684570e-02,-1.281244456768035889e-01,-3.242861479520797729e-02,1.530616544187068939e-02,1.209108158946037292e-03,-1.623769663274288177e-02,1.302315890789031982e-01,-4.622017033398151398e-03,-5.208764225244522095e-03,1.904834434390068054e-02,-2.824234589934349060e-02,5.158436298370361328e-02,-1.572553962469100952e-01,3.843094408512115479e-02,1.287720352411270142e-01,-1.569385454058647156e-02,6.048881448805332184e-03,1.544336508959531784e-02,-1.183984875679016113e-01,6.823319941759109497e-02
8.600837737321853638e-02,-2.475530141964554787e-03,-3.902842476963996887e-02,1.263483613729476929e-01,9.217556565999984741e-02,-1.808757185935974121e-01,1.205352321267127991e-01,-1.040305849164724350e-02,-7.889387756586074829e-02,-1.027963832020759583e-01,-6.908560544252395630e-02,8.539965748786926270e-02,-4.248209297657012939e-02,-1.251134574413299561e-01,-6.116790696978569031e-02,6.110634654760360718e-02,2.049944549798965454e-02,-1.043848041445016861e-02,2.727892100811004639e-01,-8.926595561206340790e-03,-9.683140367269515991e-02,-9.425222873687744141e-03,6.472343811765313148e-04,2.947849966585636139e-02,-1.319544613361358643e-01,2.345531061291694641e-02,6.860806792974472046e-02,-3.944735601544380188e-02,4.010419920086860657e-02,3.324106708168983459e-02,-1.237312629818916321e-01,5.802147835493087769e-02
1.358616724610328674e-02,2.753096818923950195e-02,-7.152570039033889771e-02,1.319402456283569336e-01,1.485463082790374756e-01,-2.306405901908874512e-01,2.185122966766357422e-01,-3.884590044617652893e-02,-1.424432247877120972e-01,-1.152861416339874268e-01,-1.015738323330879211e-01,9.522798657417297363e-02,-5.887956358492374420e-04,-2.563519775867462158e-01,-9.743750840425491333e-02,1.509902477264404297e-01,1.946253143250942230e-02,3.192985197529196739e-03,2.634215056896209717e-01,-5.793843045830726624e-02,-2.362781614065170288e-01,-1.019211187958717346e-01,4.077139496803283691e-02,-1.068374328315258026e-02,-8.609685301780700684e-02,8.387968689203262329e-02,6.948947906494140625e-02,-3.113885968923568726e-02,1.591685786843299866e-02,7.907429337501525879e-02,-1.387075185775756836e-01,2.320437319576740265e-02
-6.076681241393089294e-02,1.200008764863014221e-01,-8.748557418584823608e-02,1.197838038206100464e-01,5.382972583174705505e-02,-1.065907999873161316e-01,1.902223676443099976e-01,-2.492864616215229034e-02,-5.227457359433174133e-02,-1.004180535674095154e-01,-5.182277411222457886e-02,1.406447310000658035e-02,-1.221315786242485046e-01,-1.823098808526992798e-01,-1.561855822801589966e-01,1.792880445718765259e-01,-1.427312474697828293e-02,5.942897871136665344e-02,1.966888308525085449e-01,2.716781012713909149e-02,-1.535580307245254517e-01,-7.840965688228607178e-02,4.155698046088218689e-02,-1.684975810348987579e-02,-1.891840621829032898e-02,9.058638662099838257e-02,7.086804509162902832e-02,3.120481036603450775e-02,-8.320027589797973633e-02,-4.987464845180511475e-02,-9.454970061779022217e-02,5.886180698871612549e-02
-1.241302490234375000e-01,-4.368726164102554321e-02,-7.184830307960510254e-02,2.849981188774108887e-02,2.250550687313079834e-01,-1.840182095766067505e-01,1.656679511070251465e-01,1.691849902272224426e-02,8.298976719379425049e-02,-1.331252139061689377e-02,-1.918823458254337311e-03,1.122942864894866943e-01,5.437047407031059265e-02,-1.410145759582519531e-01,-2.642908692359924316e-01,2.029455155134201050e-01,2.021657302975654602e-02,1.595887988805770874e-01,2.177521437406539917e-01,9.098930656909942627e-02,-1.046381592750549316e-01,7.212033122777938843e-02,1.005233377218246460e-01,-1.265608370304107666e-01,3.009374625980854034e-02,2.582851052284240723e-02,1.231197342276573181e-01,-3.160984721034765244e-03,-1.483577936887741089e-01,8.095273748040199280e-03,7.552412897348403931e-02,1.777153275907039642e-02
-1.079756617546081543e-01,5.511223897337913513e-02,-1.080906465649604797e-01,8.088354021310806274e-02,2.446965873241424561e-01,-9.802610427141189575e-02,1.826995611190795898e-01,1.261080652475357056e-01,6.547633558511734009e-02,-8.203225582838058472e-02,-1.266019511967897415e-02,1.739809364080429077e-01,5.227473750710487366e-02,-1.316772699356079102e-01,-1.757414489984512329e-01,4.989675059914588928e-02,-5.433810129761695862e-02,1.810214072465896606e-01,1.576888859272003174e-01,4.773093760013580322e-02,-4.672580957412719727e-02,1.302431374788284302e-01,1.442985683679580688e-01,-7.703232020139694214e-02,-1.453415118157863617e-02,-8.251371979713439941e-02,1.610454469919204712e-01,-8.746022731065750122e-02,-8.901702612638473511e-02,-8.093011379241943359e-02,1.390049606561660767e-01,1.947692036628723145e-02
-1.307739913463592529e-01,-3.670656308531761169e-02,-1.089799180626869202e-01,1.176509112119674683e-01,2.167730629444122314e-01,-5.015792325139045715e-02,5.732573196291923523e-02,1.696200519800186157e-01,4.535222426056861877e-02,-2.383572161197662354e-01,-4.968495294451713562e-02,2.950016595423221588e-02,7.003133744001388550e-02,-7.100166380405426025e-02,-1.691518872976303101e-01,1.789706642739474773e-03,-4.425463825464248657e-02,1.161638870835304260e-01,1.608873009681701660e-01,-1.002217233180999756e-01,-6.279899179935455322e-02,2.182749807834625244e-01,1.915679723024368286e-01,-2.645684033632278442e-02,-5.429076030850410461e-02,-1.221057400107383728e-01,1.818757504224777222e-01,-8.220592141151428223e-02,-5.111580714583396912e-02,-7.715643197298049927e-02,7.576277107000350952e-02,-5.056118965148925781e-02
-2.391556650400161743e-02,-3.056789562106132507e-02,-2.304813079535961151e-02,6.219048798084259033e-02,1.398654878139495850e-01,-1.120348572731018066e-01,8.102673292160034180e-02,1.532610803842544556e-01,-7.527905702590942383e-02,-1.796216070652008057e-01,-8.520384132862091064e-02,1.180831938982009888e-01,1.778316870331764221e-02,-5.185439810156822205e-02,-8.224833756685256958e-02,1.391927599906921387e-01,2.646492421627044678e-02,-2.652856148779392242e-02,1.670042723417282104e-01,-1.461108475923538208e-01,-5.425540357828140259e-02,1.126463189721107483e-01,1.885971575975418091e-01,-1.674656569957733154e-01,2.612942270934581757e-02,5.640033632516860962e-04,5.481527373194694519e-02,-6.825955957174301147e-02,-6.162024661898612976e-02,2.242978289723396301e-02,8.395007997751235962e-02,-2.261037938296794891e-02
-5.464084073901176453e-02,2.647538669407367706e-02,1.153995934873819351e-02,4.117299988865852356e-02,5.663360655307769775e-02,-1.034783720970153809e-01,6.801677495241165161e-02,4.428677633404731750e-02,-6.684728711843490601e-02,-1.171895936131477356e-01,-1.241308897733688354e-01,1.116424649953842163e-01,1.816302910447120667e-02,-2.065908350050449371e-02,-1.457597017288208008e-01,1.643170230090618134e-02,4.728980362415313721e-03,-8.081840351223945618e-03,1.565951257944107056e-01,-1.188168451189994812e-01,-4.108626022934913635e-02,8.517376333475112915e-02,7.997398823499679565e-02,-1.026250123977661133e-01,5.098744854331016541e-02,3.036194946616888046e-03,-3.665517643094062805e-02,-1.333738118410110474e-01,-2.644824422895908356e-02,4.532653838396072388e-02,-1.896314322948455811e-02,7.285353261977434158e-03
-3.870136663317680359e-02,-4.875158891081809998e-02,1.925751101225614548e-03,-5.501519516110420227e-02,-2.800586260855197906e-02,-1.186630278825759888e-01,2.910723164677619934e-02,1.954665593802928925e-02,-1.247349083423614502e-01,-9.243899583816528320e-02,-1.068092882633209229e-01,1.362230479717254639e-01,9.295637905597686768e-02,-2.491307631134986877e-02,-1.020318791270256042e-01,4.061072319746017456e-02,1.116959564387798309e-02,-1.719036698341369629e-02,1.272664666175842285e-01,-5.399907007813453674e-02,-5.154345557093620300e-02,5.951763689517974854e-02,7.784783840179443359e-02,-9.377840906381607056e-02,1.103139966726303101e-01,9.186470508575439453e-02,-1.073037460446357727e-01,-5.756167322397232056e-02,5.917450040578842163e-02,-7.995761185884475708e-02,-1.414943113923072815e-02,2.135228738188743591e-02
-4.142230376601219177e-03,-4.096993058919906616e-02,-4.689653869718313217e-03,-4.311041161417961121e-02,-9.616007097065448761e-03,-1.631053984165191650e-01,9.991873800754547119e-02,3.797391895204782486e-03,-1.715937405824661255e-01,-8.758383244276046753e-02,-1.242398098111152649e-01,2.559435665607452393e-01,2.266643047332763672e-01,-7.144899666309356689e-02,-9.856263548135757446e-02,1.963170915842056274e-01,4.248452931642532349e-02,-4.549653455615043640e-02,8.643479645252227783e-02,2.952092792838811874e-03,-1.307741552591323853e-01,-3.315603360533714294e-02,9.964746981859207153e-02,-9.179632179439067841e-03,1.582031548023223877e-01,1.546497363597154617e-02,-1.324512064456939697e-01,6.889712531119585037e-03,1.533209439367055893e-02,1.221654471009969711e-02,3.241048380732536316e-02,-3.167285770177841187e-02
-4.892114084213972092e-03,-1.422406360507011414e-02,-2.184734307229518890e-02,1.090105902403593063e-02,-1.315026357769966125e-02,-1.124857887625694275e-01,3.408096730709075928e-02,-1.631112396717071533e-02,-1.140407398343086243e-01,-3.904635086655616760e-02,-1.587300896644592285e-01,1.606745272874832153e-01,1.635884195566177368e-01,-9.279299527406692505e-02,-4.355855286121368408e-02,1.153138503432273865e-01,2.833478897809982300e-02,-3.806675225496292114e-02,9.124254435300827026e-02,5.530259385704994202e-02,-1.310085356235504150e-01,8.966157911345362663e-04,5.689616501331329346e-02,-8.586407639086246490e-03,1.043354719877243042e-01,8.606590330600738525e-02,-9.014162421226501465e-02,8.437877520918846130e-03,-7.159737870097160339e-03,2.860991097986698151e-02,1.711355522274971008e-02,-2.137685380876064301e-02
-1.638676598668098450e-02,7.365284953266382217e-03,7.220523431897163391e-03,6.182215735316276550e-02,-1.800612197257578373e-03,-8.570133894681930542e-02,7.447218894958496094e-02,-2.417656593024730682e-03,-1.362144649028778076e-01,1.873920671641826630e-02,-1.078627035021781921e-01,8.971291780471801758e-02,1.442324966192245483e-01,-1.190427541732788086e-01,-4.220304638147354126e-02,7.715831696987152100e-02,-2.694496884942054749e-03,-2.873891405761241913e-02,4.432799667119979858e-02,5.108879506587982178e-02,-1.176693886518478394e-01,-4.245193302631378174e-02,1.779735274612903595e-02,-5.214481148868799210e-03,7.040933519601821899e-02,4.363512247800827026e-02,-5.757081881165504456e-02,8.493752218782901764e-03,1.302426122128963470e-02,5.379822477698326111e-02,1.201676423079334199e-04,-3.936089633498340845e-04
2.509689703583717346e-02,3.570045158267021179e-02,-4.482573363929986954e-03,3.491807356476783752e-02,2.969194017350673676e-02,-1.005992144346237183e-01,3.981159627437591553e-02,-2.070272713899612427e-02,-5.741821974515914917e-02,-3.198569640517234802e-02,-5.431979149580001831e-02,7.270063459873199463e-02,1.314293146133422852e-01,-7.458498328924179077e-02,6.123693659901618958e-03,6.462717056274414062e-02,1.879242062568664551e-02,-4.623764380812644958e-02,4.230192303657531738e-02,4.351337626576423645e-02,-7.114440202713012695e-02,-3.892734646797180176e-02,2.630590833723545074e-02,-1.524403225630521774e-02,6.821439415216445923e-02,2.740367501974105835e-02,-5.727064982056617737e-02,-1.545077003538608551e-02,7.267741952091455460e-03,2.285519987344741821e-02,-2.147344499826431274e-02,1.910172589123249054e-02
-1.183375995606184006e-02,1.653385721147060394e-02,1.006086170673370361e-02,1.053927093744277954e-02,1.536190509796142578e-02,-3.632149845361709595e-02,2.218356728553771973e-02,-1.851092837750911713e-02,-3.441185504198074341e-02,-5.591440945863723755e-02,-4.294232279062271118e-02,2.500309795141220093e-02,5.556713417172431946e-02,-5.342181399464607239e-02,-1.912420801818370819e-02,7.573385536670684814e-02,1.690063998103141785e-02,-3.590654348954558372e-03,6.772357225418090820e-02,-1.338229328393936157e-02,4.478623159229755402e-03,-1.703383401036262512e-02,-1.931247673928737640e-02,1.679992862045764923e-02,3.166957944631576538e-02,2.868404984474182129e-02,-1.003103610128164291e-02,-1.909601688385009766e-02,2.512840786948800087e-03,-4.020420368760824203e-03,-2.593227103352546692e-02,2.587134763598442078e-02
1.839445531368255615e-02,-4.927044268697500229e-03,-2.242023870348930359e-02,-1.692245341837406158e-02,1.728251762688159943e-02,-9.094264358282089233e-03,-1.430152170360088348e-02,-2.273757010698318481e-02,1.090750284492969513e-02,-3.421478345990180969e-02,-1.239382755011320114e-02,-6.382622290402650833e-03,-9.428483434021472931e-03,-4.112272337079048157e-02,6.351670250296592712e-03,4.265543818473815918e-02,9.399699978530406952e-03,1.561723463237285614e-02,2.532233670353889465e-02,2.090841718018054962e-02,6.030029617249965668e-03,7.697053253650665283e-03,1.436938624829053879e-02,1.502219401299953461e-02,-4.450224805623292923e-03,-1.395088899880647659e-02,2.014065161347389221e-02,-1.334308739751577377e-02,-9.737152606248855591e-03,1.026656944304704666e-02,-1.637210883200168610e-02,2.166183292865753174e-02
-1.063874457031488419e-02,-4.240286536514759064e-03,8.839396759867668152e-03,-1.696183905005455017e-02,2.248593419790267944e-02,2.433639951050281525e-02,2.060629054903984070e-02,1.956382952630519867e-02,-6.421066820621490479e-03,-1.778635755181312561e-02,-2.441801503300666809e-02,4.540177993476390839e-03,-1.004804205149412155e-02,2.099229209125041962e-02,-5.993788130581378937e-03,1.279989839531481266e-03,-1.826786808669567108e-02,2.346166782081127167e-02,-2.348241023719310760e-02,-2.468836866319179535e-02,-1.352685596793889999e-02,-9.336941875517368317e-03,-2.099148184061050415e-02,-1.209480408579111099e-02,-3.392794728279113770e-02,-1.739300042390823364e-02,9.688442572951316833e-03,4.563606053125113249e-04,-2.333818376064300537e-02,1.276918035000562668e-02,-2.170071750879287720e-02,6.290991324931383133e-03
7.161170709878206253e-03,1.689067669212818146e-02,5.675180815160274506e-03,3.462662687525153160e-03,-6.539422553032636642e-03,-1.486164797097444534e-02,-1.506782695651054382e-02,-1.970437914133071899e-02,5.737544037401676178e-03,-1.799791678786277771e-02,-1.209274306893348694e-02,1.919440180063247681e-02,9.210071526467800140e-03,7.250337395817041397e-03,2.896754303947091103e-03,2.009913325309753418e-02,4.760585259646177292e-03,-2.496413514018058777e-02,1.780936145223677158e-03,-1.253691036254167557e-02,2.056760713458061218e-02,-2.429137751460075378e-02,-2.203141571953892708e-03,1.585589163005352020e-02,-1.449128333479166031e-02,-1.881220005452632904e-02,2.445688657462596893e-02,2.550094854086637497e-03,2.360602468252182007e-02,-9.055920876562595367e-03,2.077698707580566406e-02,-1.790857873857021332e-02
8.770696818828582764e-03,-1.631440035998821259e-02,-1.624660566449165344e-02,1.987702678889036179e-03,2.434503659605979919e-02,2.199838124215602875e-02,1.826573908329010010e-02,-1.965917460620403290e-02,-8.081262931227684021e-03,-2.542882971465587616e-02,1.221883762627840042e-02,8.464075624942779541e-03,1.373141538351774216e-02,1.831561094149947166e-03,-2.233996801078319550e-02,7.564750034362077713e-03,4.373963456600904465e-03,-1.855392940342426300e-02,-2.470014430582523346e-02,1.198783610016107559e-02,-3.570673987269401550e-03,1.363199669867753983e-02,2.446169406175613403e-02,6.556915584951639175e-03,1.336076762527227402e-02,-1.630005775950849056e-03,-1.468312833458185196e-02,-1.817610487341880798e-02,2.358805388212203979e-02,1.276510860770940781e-02,1.236907113343477249e-02,-1.729514263570308685e-02
2.506325021386146545e-02,-8.584579452872276306e-03,5.721230409108102322e-04,-1.249795593321323395e-02,-2.328734099864959717e-02,-6.282784510403871536e-03,2.422907203435897827e-02,-4.393128678202629089e-03,7.661712588742375374e-04,2.456953749060630798e-02,-6.639124825596809387e-03,1.747529022395610809e-02,1.666696975007653236e-03,-3.610139479860663414e-03,-6.976835895329713821e-03,3.455720609053969383e-03,-2.304583601653575897e-02,6.040380802005529404e-03,-9.990660473704338074e-03,1.927802152931690216e-02,-1.666370220482349396e-02,-2.069189585745334625e-02,-8.310466073453426361e-03,-2.196273021399974823e-02,6.618693470954895020e-03,-1.435032766312360764e-02,-6.613853853195905685e-03,-1.631922461092472076e-02,1.268768031150102615e-02,1.886447332799434662e-02,-2.425686642527580261e-02,1.307212747633457184e-02
-1.809482276439666748e-02,-6.047282367944717407e-03,2.258089557290077209e-02,4.219272173941135406e-03,-2.205954492092132568e-02,2.214043401181697845e-02,1.307923439890146255e-02,1.240181922912597656e-02,-7.696413900703191757e-03,-9.624744765460491180e-03,1.806341297924518585e-02,-1.510104909539222717e-02,-8.189838845282793045e-04,1.848783902823925018e-02,1.863411813974380493e-02,-2.271911688148975372e-02,9.241991676390171051e-03,1.222291175508871675e-04,1.360770780593156815e-02,1.388383191078901291e-02,3.458346240222454071e-03,-7.972012273967266083e-03,9.062012657523155212e-03,4.402128048241138458e-03,-1.974183879792690277e-02,1.878473209217190742e-03,2.461320348083972931e-02,1.166829653084278107e-02,-1.262468937784433365e-02,1.018046401441097260e-02,-7.449093274772167206e-03,1.007455959916114807e-02
-2.208102867007255554e-02,-1.007421407848596573e-02,-6.412375252693891525e-03,4.957363475114107132e-03,2.171656303107738495e-02,-1.884509995579719543e-02,-2.712622284889221191e-03,-6.216396111994981766e-03,1.100631803274154663e-02,4.276684485375881195e-03,2.555508166551589966e-02,1.222490891814231873e-02,-1.006331294775009155e-02,1.811963692307472229e-02,4.940717481076717377e-03,1.521720550954341888e-02,2.069135569036006927e-02,-2.076700702309608459e-02,-6.310065742582082748e-03,1.285005081444978714e-02,-5.196400918066501617e-03,3.453977697063237429e-04,-4.964029649272561073e-04,-1.129636541008949280e-02,-2.572231739759445190e-02,-6.556678563356399536e-03,1.204640325158834457e-02,-2.884990768507122993e-03,2.001255378127098083e-02,-2.325257658958435059e-02,1.707736589014530182e-02,-1.425402425229549408e-02
-5.249870941042900085e-03,2.473784424364566803e-02,1.241865009069442749e-02,-9.143012575805187225e-03,-3.407134488224983215e-02,1.143723446875810623e-02,-2.613307163119316101e-02,-1.852767355740070343e-02,9.938561124727129936e-04,-7.115114480257034302e-03,4.215633030980825424e-03,-1.096318475902080536e-02,-6.110943388193845749e-03,1.046774070709943771e-02,-7.363182958215475082e-03,1.681412570178508759e-02,-1.076283119618892670e-02,7.893574424088001251e-03,1.984154060482978821e-02,3.151498967781662941e-03,3.317855997011065483e-03,3.625190351158380508e-03,-3.434600681066513062e-02,2.601719088852405548e-02,-1.371031161397695541e-03,-2.724113408476114273e-03,2.822515368461608887e-02,1.077114837244153023e-03,-2.334056422114372253e-02,-1.491178385913372040e-02,-2.616757759824395180e-03,-7.487746886909008026e-03
-1.282912213355302811e-03,2.199934824602678418e-04,4.876102507114410400e-02,-6.000948604196310043e-03,-4.652617499232292175e-02,3.725219145417213440e-02,2.378731407225131989e-02,-2.080463618040084839e-02,1.608509919606149197e-03,-2.604710683226585388e-02,1.759749650955200195e-02,-3.435626160353422165e-03,1.401845179498195648e-02,2.036176435649394989e-02,1.637987419962882996e-02,4.456389322876930237e-02,2.365388348698616028e-02,1.498027890920639038e-02,1.177283469587564468e-02,1.823625899851322174e-02,5.211364477872848511e-03,-1.770607009530067444e-02,1.972821773961186409e-03,-1.249566953629255295e-02,1.453817915171384811e-02,2.802319126203656197e-03,6.709143985062837601e-03,1.706187322270125151e-04,-7.044394966214895248e-03,-2.086723409593105316e-02,6.874081213027238846e-03,-9.136147797107696533e-03
-1.743163913488388062e-02,5.539679434150457382e-03,3.856312111020088196e-02,-9.682960808277130127e-03,4.610509146004915237e-03,-7.802347652614116669e-03,4.350632429122924805e-02,3.105927025899291039e-03,-2.345926314592361450e-02,-2.158788591623306274e-02,-2.491844072937965393e-02,-8.934429497458040714e-04,-1.849937438964843750e-02,-3.512837737798690796e-02,-5.232727620750665665e-03,1.455842144787311554e-02,7.605295162647962570e-03,6.369285285472869873e-02,-7.617402076721191406e-02,-6.498595327138900757e-02,3.089027106761932373e-02,-5.960225686430931091e-02,7.246386958286166191e-04,-1.056394260376691818e-02,-2.210546098649501801e-02,4.526031017303466797e-02,-4.312858800403773785e-04,-4.555489285849034786e-04,-5.843956023454666138e-02,2.985507436096668243e-02,8.144674939103424549e-04,1.552794408053159714e-02
5.523790139704942703e-03,-1.705519482493400574e-02,3.092637471854686737e-02,-1.877049729228019714e-02,7.529546972364187241e-03,-3.949847072362899780e-02,6.413611024618148804e-02,-3.565736813470721245e-03,-4.297477006912231445e-02,-1.049031317234039307e-02,-3.408329933881759644e-02,-2.357180416584014893e-02,9.191219694912433624e-03,-3.279530629515647888e-02,-9.377385489642620087e-03,4.122274369001388550e-02,-6.925197783857584000e-03,7.104875147342681885e-02,-1.168669909238815308e-01,-8.241941034793853760e-02,-3.072287887334823608e-03,-7.288593053817749023e-02,-2.596254227682948112e-03,-3.511450439691543579e-02,-2.628834685310721397e-03,3.604045882821083069e-02,-4.403049871325492859e-02,-3.319673985242843628e-02,-3.776142746210098267e-02,2.490402944386005402e-02,-3.275714442133903503e-02,-3.790931950788944960e-04
-2.142694080248475075e-03,-5.186726804822683334e-03,4.442476853728294373e-02,4.976878408342599869e-03,4.706841427832841873e-03,-1.035617962479591370e-01,1.122214347124099731e-01,1.551848370581865311e-02,-5.007724091410636902e-02,1.129458099603652954e-02,-1.237852498888969421e-01,-4.610775038599967957e-03,-1.907746493816375732e-02,-3.425460308790206909e-02,5.557211115956306458e-02,7.171535491943359375e-02,-7.055010646581649780e-02,7.688459753990173340e-02,-1.467660069465637207e-01,-9.536845237016677856e-02,-2.248124405741691589e-02,-9.911936521530151367e-02,8.343234658241271973e-02,-1.073455438017845154e-01,-1.125408243387937546e-02,3.380904346704483032e-02,-7.301904261112213135e-02,2.697358373552560806e-03,-6.916068494319915771e-02,3.372186422348022461e-02,-5.364582687616348267e-02,-2.688257396221160889e-02
5.862468481063842773e-02,-8.743121474981307983e-02,4.250922799110412598e-02,-7.369126379489898682e-02,-5.164770781993865967e-02,-1.866538971662521362e-01,2.179458290338516235e-01,-2.011495828628540039e-02,-2.003069669008255005e-01,-1.394710987806320190e-01,-3.029248118400573730e-01,-9.363687038421630859e-02,-1.140485256910324097e-01,-1.765687167644500732e-01,2.001051008701324463e-01,2.812735438346862793e-01,-5.924585834145545959e-02,1.276131439954042435e-02,-2.124341130256652832e-01,-1.385081410408020020e-01,1.048689633607864380e-01,-9.661702811717987061e-02,-2.465416118502616882e-02,-1.106622442603111267e-02,-1.257972121238708496e-01,4.169127345085144043e-02,2.489423751831054688e-02,-3.349712491035461426e-02,5.988239869475364685e-02,3.409691527485847473e-02,-9.158235043287277222e-02,6.584504991769790649e-02
9.479525685310363770e-02,-1.839925795793533325e-01,-1.501633669249713421e-04,8.026768453419208527e-03,-9.086614847183227539e-02,-2.032154053449630737e-01,2.519986629486083984e-01,-5.900213494896888733e-02,-1.954178214073181152e-01,-1.935034096240997314e-01,-2.522338032722473145e-01,-7.614447176456451416e-02,-1.731418371200561523e-01,-1.806845366954803467e-01,2.002586871385574341e-01,2.530157864093780518e-01,-2.207324840128421783e-02,-6.300044804811477661e-02,-3.592878952622413635e-02,-8.831381052732467651e-02,8.708354830741882324e-02,2.142745256423950195e-02,4.302858561277389526e-02,1.057878583669662476e-01,-2.623910307884216309e-01,5.437768250703811646e-02,1.013843044638633728e-01,-7.408170402050018311e-02,6.698599457740783691e-02,-1.716639399528503418e-01,-1.566941738128662109e-01,1.279850602149963379e-01
2.420369302853941917e-03,-1.384585797786712646e-01,4.520559683442115784e-02,1.779202744364738464e-02,-1.763146072626113892e-01,-1.979755312204360962e-01,3.792895376682281494e-01,-1.289174407720565796e-01,-1.644306331872940063e-01,-3.340434730052947998e-01,-1.853244006633758545e-01,-9.787289053201675415e-02,-2.661807537078857422e-01,-2.510638535022735596e-01,8.508152514696121216e-02,1.880179494619369507e-01,-7.676747441291809082e-02,3.420757502317428589e-02,1.798430457711219788e-02,-8.257918804883956909e-02,2.290626913309097290e-01,1.063833460211753845e-01,6.122115254402160645e-02,3.446667268872261047e-02,-1.785064190626144409e-01,9.173085540533065796e-02,1.102745383977890015e-01,-5.352393910288810730e-02,-1.824536942876875401e-03,-1.614557504653930664e-01,-1.890543997287750244e-01,2.091151922941207886e-01
-5.665678158402442932e-02,1.853173598647117615e-02,5.455420166254043579e-02,5.311387032270431519e-02,-1.165362298488616943e-01,-2.833136022090911865e-01,5.263105630874633789e-01,-1.372089087963104248e-01,-1.369990557432174683e-01,-3.921322226524353027e-01,-1.422405540943145752e-01,-3.963097631931304932e-01,-3.346185982227325439e-01,-4.238463342189788818e-01,1.003542244434356689e-01,1.084029152989387512e-01,-1.690775454044342041e-01,-1.168039906769990921e-02,-7.882104068994522095e-02,-5.134921520948410034e-02,1.157701984047889709e-01,1.919087320566177368e-01,1.819337531924247742e-02,5.013987421989440918e-02,-3.323127627372741699e-01,2.956165075302124023e-01,5.531127564609050751e-03,-1.756363660097122192e-01,-1.366002708673477173e-01,-2.121822237968444824e-01,-3.042551279067993164e-01,2.354187071323394775e-01
-1.628008037805557251e-01,-1.282764077186584473e-01,1.468684971332550049e-01,-2.244843840599060059e-01,1.792014576494693756e-02,-3.276639878749847412e-01,3.615260124206542969e-01,1.547305844724178314e-02,1.757814586162567139e-01,-4.450770616531372070e-01,-1.509791463613510132e-01,-3.853681683540344238e-01,-2.361314892768859863e-01,-3.004527986049652100e-01,-4.350074008107185364e-02,3.144059181213378906e-01,-1.591764688491821289e-01,1.104182228446006775e-01,2.264712750911712646e-02,-1.950993537902832031e-01,1.275763362646102905e-01,2.744352519512176514e-01,1.890197210013866425e-02,-1.854385733604431152e-01,-1.505934149026870728e-01,1.865445673465728760e-01,1.218737512826919556e-01,-1.959954053163528442e-01,-2.132687121629714966e-01,-1.763046234846115112e-01,1.398880332708358765e-01,1.347826570272445679e-01
-1.896731704473495483e-01,3.600748255848884583e-02,2.201415598392486572e-01,-1.984768956899642944e-01,-3.497396036982536316e-02,-2.728447318077087402e-01,4.956577718257904053e-01,7.265140116214752197e-02,4.117596447467803955e-01,-5.929220914840698242e-01,-3.584748804569244385e-01,-2.787653729319572449e-02,-1.413436979055404663e-01,-4.956664741039276123e-01,-2.059236615896224976e-01,3.296813666820526123e-01,-8.007171005010604858e-02,2.955600246787071228e-02,1.475130021572113037e-01,-1.201404482126235962e-01,-1.326267570257186890e-01,9.027836471796035767e-02,1.035750731825828552e-01,-2.706095576286315918e-01,-2.143447399139404297e-01,3.084783852100372314e-01,2.778196930885314941e-01,-1.644171774387359619e-01,-2.616726458072662354e-01,-4.536427557468414307e-01,1.204689964652061462e-01,5.363421514630317688e-02
-2.310344576835632324e-01,1.332175880670547485e-01,1.362315118312835693e-01,-1.391471475362777710e-01,-4.677063971757888794e-02,-3.417034745216369629e-01,7.030805945396423340e-01,7.400427758693695068e-02,6.671763062477111816e-01,-3.126770555973052979e-01,-1.934943497180938721e-01,1.769203133881092072e-02,-1.607195883989334106e-01,-5.937659144401550293e-01,-3.835483491420745850e-01,6.084945425391197205e-02,-2.782444059848785400e-01,-6.271846359595656395e-05,-1.435172557830810547e-01,2.972908318042755127e-02,-1.734435111284255981e-01,1.598102599382400513e-01,3.075491487979888916e-01,-1.098204702138900757e-01,-3.640307113528251648e-02,1.719756424427032471e-01,-4.368015006184577942e-02,-6.032015755772590637e-02,-1.572380810976028442e-01,-3.368330299854278564e-01,-5.503756552934646606e-02,1.151471063494682312e-01
-9.710013866424560547e-02,1.091307699680328369e-01,-5.427427962422370911e-02,-2.575863897800445557e-01,-5.834002420306205750e-02,-9.847571700811386108e-02,3.806217610836029053e-01,1.740474551916122437e-01,3.074122667312622070e-01,-5.148574709892272949e-01,-2.673122286796569824e-01,-1.263580918312072754e-01,-2.189647108316421509e-01,-3.020741045475006104e-01,-3.402965068817138672e-01,4.478895291686058044e-02,-2.036466002464294434e-01,1.895602196455001831e-01,-2.774384617805480957e-02,-5.665337666869163513e-02,-1.927771419286727905e-01,1.518390607088804245e-02,6.662225723266601562e-02,-1.487299650907516479e-01,-3.199861943721771240e-02,-4.045193269848823547e-02,-1.704481095075607300e-01,-1.057211905717849731e-01,3.146881237626075745e-02,-2.055237442255020142e-01,3.361460566520690918e-02,1.624519191682338715e-02
-6.562554836273193359e-02,6.761712580919265747e-02,4.824263229966163635e-02,-2.183757536113262177e-02,1.734099537134170532e-01,-1.789588332176208496e-01,3.540990352630615234e-01,2.336503416299819946e-01,1.698583066463470459e-01,-3.925663828849792480e-01,-1.780101954936981201e-01,-1.568981409072875977e-01,-1.304684765636920929e-02,-2.953671514987945557e-01,-7.809684425592422485e-02,-6.386786699295043945e-02,-2.284474074840545654e-01,7.866811752319335938e-02,6.156750395894050598e-02,-1.444602608680725098e-01,-2.035503387451171875e-01,2.045662105083465576e-01,4.233914613723754883e-02,-1.998382806777954102e-01,-2.015254944562911987e-01,-3.667156994342803955e-01,7.118502166122198105e-03,-2.051895111799240112e-01,1.460138801485300064e-02,-2.686680853366851807e-01,2.330582737922668457e-01,-3.206823021173477173e-02
-9.759745001792907715e-02,9.312877058982849121e-02,2.735858857631683350e-01,4.786151647567749023e-02,-1.679340004920959473e-02,-2.201561927795410156e-01,3.273011445999145508e-01,2.124303281307220459e-01,-4.099460318684577942e-02,-1.292014122009277344e-01,-1.199944540858268738e-01,-1.784214079380035400e-01,2.016318887472152710e-01,-8.500141650438308716e-02,2.017688006162643433e-01,1.533534843474626541e-02,-2.257022857666015625e-01,-5.710745230317115784e-02,-9.958330541849136353e-02,-2.092224359512329102e-01,-1.881081610918045044e-01,1.696473807096481323e-01,1.159385368227958679e-01,-2.294262647628784180e-01,-2.556551098823547363e-01,-8.591255545616149902e-02,-3.382721170783042908e-02,-2.852081693708896637e-02,1.221283748745918274e-01,-3.334238827228546143e-01,3.316538035869598389e-01,3.623784333467483521e-02
-7.069780677556991577e-02,1.390143483877182007e-01,3.413461446762084961e-01,-1.886918544769287109e-01,-6.771151721477508545e-02,-6.435492634773254395e-02,5.483093485236167908e-02,1.055431365966796875e-01,-3.470031619071960449e-01,-1.303118765354156494e-01,-2.413258403539657593e-01,2.592012286186218262e-01,1.973933577537536621e-01,-5.646522715687751770e-02,-6.092223525047302246e-02,2.175259292125701904e-01,5.845459550619125366e-02,9.618548676371574402e-03,-2.484968155622482300e-01,-2.479472756385803223e-01,-1.504893153905868530e-01,-2.363209426403045654e-02,1.221613511443138123e-01,-2.801387906074523926e-01,8.316266536712646484e-02,-1.190082654356956482e-01,-2.157628536224365234e-01,9.554578363895416260e-02,1.315451413393020630e-01,-1.794097870588302612e-01,3.169513642787933350e-01,-5.751467868685722351e-02
-1.153576523065567017e-01,2.314572222530841827e-02,3.066539168357849121e-01,-6.575267016887664795e-02,-1.516414880752563477e-01,2.258148640394210815e-01,-2.413180470466613770e-02,-1.437529027462005615e-01,-1.216698214411735535e-01,-1.701402217149734497e-01,-3.335220813751220703e-01,4.333305954933166504e-01,1.198442354798316956e-01,-6.921457499265670776e-02,2.480926737189292908e-02,3.935658633708953857e-01,-1.605965383350849152e-02,1.119009479880332947e-01,4.825993627309799194e-02,-6.790591031312942505e-02,-1.508631259202957153e-01,-6.897613406181335449e-02,2.450380027294158936e-01,-7.394997775554656982e-02,9.198778867721557617e-02,1.147511601448059082e-01,-2.485014200210571289e-01,1.099870949983596802e-01,-3.053805604577064514e-02,-1.355658620595932007e-01,1.005506440997123718e-01,-8.299255371093750000e-02
-8.876559883356094360e-02,-5.566507950425148010e-02,3.059224784374237061e-01,-2.481825351715087891e-01,-1.537519097328186035e-01,2.032346874475479126e-01,3.305412456393241882e-02,-1.200887858867645264e-01,-1.308638304471969604e-01,-1.430796980857849121e-01,-2.137372642755508423e-01,2.652266621589660645e-01,-3.083406016230583191e-02,8.661291748285293579e-02,2.488433867692947388e-01,2.896633744239807129e-01,-1.299519985914230347e-01,-4.963736236095428467e-02,-2.034876942634582520e-01,8.670902997255325317e-02,-1.636274755001068115e-01,-5.285911262035369873e-02,8.257708698511123657e-02,-4.135606810450553894e-02,2.516140937805175781e-01,-1.282476540654897690e-02,-3.348481357097625732e-01,3.230838105082511902e-02,-1.320211589336395264e-01,-1.813043951988220215e-01,2.723098993301391602e-01,-6.351035833358764648e-02
-5.113216862082481384e-02,1.388314552605152130e-02,1.161867529153823853e-01,-1.395479440689086914e-01,-1.168476715683937073e-01,8.914013952016830444e-02,-7.832133769989013672e-02,-3.973138704895973206e-02,-2.662292122840881348e-01,-7.707092165946960449e-02,-2.817657887935638428e-01,4.545534551143646240e-01,1.055693253874778748e-01,-6.386109441518783569e-02,7.847460359334945679e-02,2.128573954105377197e-01,-7.536094635725021362e-02,2.807506360113620758e-02,-7.816835492849349976e-02,1.489641964435577393e-01,-3.324201107025146484e-01,-1.366168111562728882e-01,-5.722459405660629272e-02,-1.845991313457489014e-01,2.811542153358459473e-01,5.343559756875038147e-02,-1.502389013767242432e-01,1.197191029787063599e-01,-1.613080054521560669e-01,9.146059304475784302e-02,-3.941737487912178040e-02,3.787688910961151123e-02
-5.197538062930107117e-02,-3.889454156160354614e-02,5.266175046563148499e-02,1.578069990500807762e-03,4.564116708934307098e-03,3.556009382009506226e-02,-1.369893699884414673e-01,-1.390280276536941528e-01,-2.418216615915298462e-01,-1.674555614590644836e-02,-1.418000012636184692e-01,2.307128906250000000e-01,5.267388746142387390e-02,-2.208710908889770508e-01,-5.024901777505874634e-02,5.019369348883628845e-02,2.040615864098072052e-02,-1.101287780329585075e-03,-1.000882610678672791e-01,1.119129955768585205e-01,-1.600578129291534424e-01,6.038156896829605103e-02,-5.546399578452110291e-02,-9.504614770412445068e-02,2.276161462068557739e-01,6.345166265964508057e-02,4.909532517194747925e-02,3.807985223829746246e-03,-9.768427908420562744e-02,3.429206833243370056e-02,-1.181469187140464783e-01,3.632285445928573608e-02
-3.528447821736335754e-02,-3.462437167763710022e-02,6.060535088181495667e-02,-8.453124761581420898e-02,1.400323957204818726e-01,-2.561590634286403656e-02,-9.457320719957351685e-02,-1.319545358419418335e-01,-2.385279238224029541e-01,2.093310281634330750e-02,-1.830764859914779663e-01,2.236060351133346558e-01,3.058995865285396576e-02,-2.826444208621978760e-01,-1.253296583890914917e-01,4.725102707743644714e-02,9.849524497985839844e-02,-1.527376193553209305e-02,-6.249849870800971985e-02,1.062212735414505005e-01,-1.100416257977485657e-01,9.906952083110809326e-02,-4.583105817437171936e-02,-9.035877138376235962e-02,1.663350462913513184e-01,5.612019915133714676e-03,-3.367908671498298645e-02,-3.417048603296279907e-02,-3.462819615378975868e-03,8.393793553113937378e-02,-8.279139548540115356e-02,-1.107573322951793671e-02
-1.203787513077259064e-02,-5.436700582504272461e-02,1.963685080409049988e-02,-5.705807358026504517e-02,7.167265564203262329e-02,1.009226143360137939e-01,-5.984005331993103027e-02,-4.480737075209617615e-02,-1.015788763761520386e-01,-3.884887322783470154e-02,-1.862426847219467163e-01,1.031817570328712463e-01,6.063814833760261536e-02,-1.100236326456069946e-01,-6.202187389135360718e-02,6.913492083549499512e-02,-2.827550284564495087e-02,5.506248027086257935e-02,2.050229907035827637e-02,3.055335953831672668e-02,2.574891783297061920e-02,-2.164279296994209290e-02,3.669304773211479187e-02,-5.000984668731689453e-02,2.504752017557621002e-02,-2.710824646055698395e-02,2.964805345982313156e-03,-1.609732210636138916e-02,-3.441064059734344482e-02,2.113043330609798431e-02,-9.668824262917041779e-03,-1.361138839274644852e-02
9.593890048563480377e-03,-7.611119747161865234e-02,4.268618300557136536e-03,-2.417498640716075897e-02,3.662944072857499123e-03,2.264385856688022614e-02,9.575043804943561554e-03,9.864383377134799957e-03,1.822129450738430023e-02,-3.366174921393394470e-02,-9.338590316474437714e-03,4.106412827968597412e-02,6.385662127286195755e-03,7.433925569057464600e-02,5.514731630682945251e-02,1.462906878441572189e-02,-5.665015894919633865e-03,3.992550447583198547e-02,-2.950165048241615295e-02,1.612122915685176849e-02,1.077363546937704086e-02,-2.945369668304920197e-02,-4.638903960585594177e-02,1.560307759791612625e-02,-5.106327589601278305e-03,-6.821095198392868042e-02,3.118966333568096161e-02,1.787784881889820099e-02,-8.819599635899066925e-03,2.159782126545906067e-02,2.055367454886436462e-02,2.733340254053473473e-03
-1.209312304854393005e-02,-1.542129437439143658e-03,7.191613782197237015e-03,2.433301508426666260e-02,-7.835904136300086975e-03,3.368895873427391052e-02,1.017214264720678329e-02,-7.849103771150112152e-03,-2.602717652916908264e-02,-1.655807159841060638e-02,-2.725499682128429413e-02,-5.782895023003220558e-04,1.836830377578735352e-02,5.293340887874364853e-03,2.349351346492767334e-02,-5.590849090367555618e-03,1.454486232250928879e-02,1.798695325851440430e-02,-8.428572677075862885e-03,-4.557933192700147629e-03,2.560253441333770752e-02,-2.491343393921852112e-02,1.278693415224552155e-02,5.821263883262872696e-03,2.044189162552356720e-02,7.941141724586486816e-03,2.619799971580505371e-02,4.922993481159210205e-03,-7.781924214214086533e-03,-8.156222291290760040e-03,-1.917057484388351440e-02,7.486501242965459824e-03
-1.516995765268802643e-02,1.209444645792245865e-02,1.971332589164376259e-03,1.601235009729862213e-02,3.990440629422664642e-03,1.036644331179559231e-03,1.658298633992671967e-02,8.241842500865459442e-03,-1.923627406358718872e-02,1.849368587136268616e-02,1.497761812061071396e-02,-1.107294019311666489e-02,2.050748467445373535e-02,-1.418212614953517914e-02,-2.125279977917671204e-02,2.194477617740631104e-02,-2.075173426419496536e-03,2.168423868715763092e-02,7.943922653794288635e-03,-2.569722384214401245e-02,9.335760027170181274e-03,-5.767502821981906891e-03,-1.135247573256492615e-02,2.390976436436176300e-02,-1.991398632526397705e-02,-8.728240616619586945e-03,-2.166767045855522156e-02,-6.575439125299453735e-03,-2.504302375018596649e-02,-2.444080635905265808e-02,4.666865803301334381e-03,-8.798900991678237915e-03
-3.641037968918681145e-03,1.423548068851232529e-02,-1.708930917084217072e-02,3.544179024174809456e-03,7.730366196483373642e-03,-2.580123580992221832e-02,-4.190419334918260574e-03,4.260683432221412659e-03,1.616997830569744110e-02,-1.931859925389289856e-02,-6.936766207218170166e-03,-1.110158674418926239e-02,-2.146415226161479950e-02,-3.069524187594652176e-03,-1.559651270508766174e-02,-1.408061664551496506e-02,-1.054370892234146595e-03,8.665628411108627915e-05,-2.503376640379428864e-02,-6.456324830651283264e-03,-1.220031455159187317e-02,-1.434442400932312012e-02,-1.347915083169937134e-02,2.149456925690174103e-02,-2.390433102846145630e-02,1.336091477423906326e-02,-7.135048508644104004e-04,-1.486079860478639603e-02,-4.385058302432298660e-03,2.032681368291378021e-02,-1.172443199902772903e-02,-2.289204113185405731e-02
1.556579256430268288e-03,-2.900374587625265121e-03,-1.685297815129160881e-03,1.033265702426433563e-02,1.496064569801092148e-02,-1.187949441373348236e-02,-5.617725662887096405e-03,4.668909590691328049e-03,2.365740574896335602e-02,-2.236582897603511810e-02,8.229391649365425110e-03,6.076716817915439606e-03,1.246287021785974503e-02,1.753878593444824219e-02,9.045978076756000519e-03,-1.184085942804813385e-02,2.458358881995081902e-03,9.872876107692718506e-03,6.905422080308198929e-03,1.827266439795494080e-02,-2.282216213643550873e-02,1.583792455494403839e-02,-1.598276197910308838e-02,-1.272059604525566101e-02,2.536794170737266541e-02,1.938284188508987427e-02,7.985014468431472778e-03,7.228010799735784531e-03,-1.726711355149745941e-02,2.557150274515151978e-02,2.104216255247592926e-02,1.330864615738391876e-02
4.931114614009857178e-03,8.557277615182101727e-04,-7.585444953292608261e-03,-3.399793431162834167e-02,-1.210264163091778755e-03,7.811062037944793701e-03,-4.342197254300117493e-02,7.359525654464960098e-03,5.154667794704437256e-02,2.903300151228904724e-02,-2.257627248764038086e-02,2.137431129813194275e-02,-8.084012195467948914e-03,8.536465466022491455e-03,1.215000916272401810e-02,1.534332986921072006e-02,1.278501842170953751e-02,-2.067747898399829865e-02,-8.354996331036090851e-03,-8.965426124632358551e-03,-2.140755765140056610e-03,1.623991131782531738e-02,8.423366816714406013e-04,-1.618614979088306427e-02,1.855855621397495270e-02,-1.652899570763111115e-02,5.651063984259963036e-04,-1.990342512726783752e-02,-1.069818343967199326e-02,9.247407317161560059e-03,2.164135128259658813e-02,-7.351648528128862381e-03
9.217033162713050842e-03,1.473214197903871536e-02,1.134483376517891884e-03,-1.311271544545888901e-02,7.218392565846443176e-03,4.849285469390451908e-04,-2.789732441306114197e-02,-9.150044992566108704e-03,-1.214378792792558670e-02,1.355794444680213928e-02,1.296424889005720615e-03,1.200121548026800156e-02,1.771172881126403809e-02,4.678730387240648270e-03,6.992168258875608444e-03,-2.458721864968538284e-03,2.451133355498313904e-02,1.531584654003381729e-03,6.280396599322557449e-03,-6.485933437943458557e-03,-9.126489050686359406e-03,2.234155684709548950e-02,-1.634619943797588348e-02,2.495574019849300385e-02,-2.394348755478858948e-02,-3.123408928513526917e-02,7.151060272008180618e-04,3.001761622726917267e-02,-1.796636916697025299e-02,4.571302328258752823e-03,-6.668385583907365799e-03,-1.748958043754100800e-02
1.430844143033027649e-02,-1.911373622715473175e-02,3.325716033577919006e-02,5.638055503368377686e-03,6.105757877230644226e-02,-2.113821730017662048e-02,-1.332026626914739609e-02,1.163423899561166763e-02,-2.300450205802917480e-02,-4.689031094312667847e-02,-5.438880994915962219e-02,-6.116632372140884399e-03,-2.837186865508556366e-02,-3.810458257794380188e-02,4.919270053505897522e-03,3.311194851994514465e-02,2.101926133036613464e-02,1.011405140161514282e-02,1.852357387542724609e-02,-2.767271734774112701e-02,-8.294546045362949371e-03,1.253496576100587845e-02,4.482005536556243896e-02,-3.199448809027671814e-02,-6.466288119554519653e-03,-4.013449884951114655e-03,-3.562331898137927055e-03,8.870299905538558960e-03,8.279962465167045593e-03,3.588466718792915344e-02,-1.945036277174949646e-02,-1.333102397620677948e-02
5.458809435367584229e-02,-5.779552087187767029e-02,-3.007109835743904114e-02,-4.866449907422065735e-02,1.293251812458038330e-01,-2.246377803385257721e-02,1.868493296205997467e-02,4.993353411555290222e-02,1.908675394952297211e-02,-6.006502732634544373e-02,-6.089824810624122620e-02,-8.777227997779846191e-02,-5.692280828952789307e-02,1.549654174596071243e-02,4.003753885626792908e-02,5.268514528870582581e-02,-7.148639415390789509e-04,1.416649371385574341e-01,-1.218918561935424805e-01,-1.188875809311866760e-01,-8.173762820661067963e-03,4.019368067383766174e-02,1.837709248065948486e-01,-1.710094138979911804e-02,-2.827071771025657654e-02,2.983844466507434845e-02,-1.645698100328445435e-01,5.207751691341400146e-02,-6.872540712356567383e-02,6.135804206132888794e-02,-2.221206948161125183e-02,-1.113599166274070740e-01
1.567812263965606689e-01,-1.326742321252822876e-01,-1.182306334376335144e-01,1.524552796036005020e-02,9.523144364356994629e-02,8.127028495073318481e-02,5.463086813688278198e-02,1.010773852467536926e-01,8.293133229017257690e-02,-4.320244863629341125e-02,-1.562802493572235107e-01,-2.227956056594848633e-01,-7.930876314640045166e-02,2.052564918994903564e-02,8.528557419776916504e-02,-2.781308954581618309e-03,-6.815736740827560425e-02,1.713133007287979126e-01,-1.058883145451545715e-01,-1.453227270394563675e-02,1.690521277487277985e-02,1.186601445078849792e-01,1.076795980334281921e-01,-3.295580297708511353e-02,-5.311299115419387817e-02,2.718725614249706268e-02,-1.188364624977111816e-01,-2.312959730625152588e-02,-8.460953831672668457e-02,1.288716774433851242e-02,-5.270693078637123108e-02,-1.456873118877410889e-01
1.721475273370742798e-02,-3.054364621639251709e-01,9.071090258657932281e-03,3.520711883902549744e-02,2.256265655159950256e-02,2.196907550096511841e-01,1.402283012866973877e-01,1.009472459554672241e-01,2.529619261622428894e-02,-1.127782836556434631e-01,-1.827827841043472290e-01,-2.846554815769195557e-01,-1.441135555505752563e-01,-8.702104538679122925e-02,1.702221781015396118e-01,1.117082461714744568e-01,-1.051479801535606384e-01,2.885762751102447510e-01,-2.197176665067672729e-01,-1.515198033303022385e-02,-1.652938872575759888e-02,1.336872577667236328e-01,5.960390344262123108e-02,3.401003777980804443e-02,-6.794957071542739868e-02,1.153853982686996460e-01,-9.673824161291122437e-02,-7.149390131235122681e-02,-8.787795901298522949e-02,-1.190777346491813660e-01,-1.494432240724563599e-01,1.824252121150493622e-02
-6.112231314182281494e-02,-3.101783990859985352e-01,-4.633532091975212097e-02,1.256112288683652878e-02,1.447564214468002319e-01,2.900871634483337402e-02,1.645460873842239380e-01,9.221048653125762939e-02,-8.941809833049774170e-02,-1.166038662195205688e-01,-2.879725694656372070e-01,-3.337499797344207764e-01,-3.179548084735870361e-01,-4.360408186912536621e-01,1.029020994901657104e-01,1.977297961711883545e-01,8.544549345970153809e-02,2.492080032825469971e-01,-2.128911912441253662e-01,-1.444541662931442261e-01,8.478861302137374878e-02,3.772938847541809082e-01,3.500298783183097839e-02,3.071120008826255798e-02,-1.003730222582817078e-01,1.284877508878707886e-01,-1.293542683124542236e-01,-1.768525391817092896e-01,-3.151280432939529419e-02,-5.181987211108207703e-02,-3.699223995208740234e-01,1.084396243095397949e-01
-2.008785307407379150e-01,-3.921652436256408691e-01,9.546183794736862183e-02,9.529731422662734985e-02,5.338557437062263489e-02,2.292139222845435143e-03,9.793514758348464966e-02,-1.299749128520488739e-02,-7.876320183277130127e-02,-9.859767556190490723e-02,-4.114189147949218750e-01,-1.085152626037597656e-01,-5.015348196029663086e-01,-4.311691522598266602e-01,1.023075878620147705e-01,2.804269194602966309e-01,3.026941716670989990e-01,1.655354499816894531e-01,-1.933204196393489838e-02,3.651391714811325073e-02,1.721288561820983887e-01,3.291539549827575684e-01,-4.260862991213798523e-02,-8.123359642922878265e-03,-1.252950578927993774e-01,2.451017647981643677e-01,8.825726062059402466e-02,-3.695239424705505371e-01,-1.159957125782966614e-01,-1.931261420249938965e-01,-4.392636716365814209e-01,3.693627119064331055e-01
