-2.110545486211776733e-01,1.184165477752685547e-01,-1.041012644767761230e+00,-4.070834517478942871e-01,3.693348467350006104e-01,1.702097207307815552e-01,-3.517452999949455261e-02,-3.543649911880493164e-01,1.466622650623321533e-01,3.614475965499877930e+00,-7.766762971878051758e-01,3.808073103427886963e-01,-9.932274222373962402e-01,7.341403514146804810e-02,-1.674096107482910156e+00,-1.948486924171447754e+00,-8.361432552337646484e-01,-3.150766193866729736e-01,5.309861302375793457e-01,-3.585138916969299316e-01,-9.762755036354064941e-01,1.978923529386520386e-01,-1.880104660987854004e+00,-1.684010267257690430e+00,-8.142239451408386230e-01,-2.763880491256713867e-01,-4.977124333381652832e-01,-4.633616805076599121e-01,-8.986347913742065430e-01,4.275839924812316895e-01,-1.579331874847412109e+00,7.432172894477844238e-01
4.391242563724517822e-01,-3.809162080287933350e-01,-2.486585974693298340e-01,-2.534772753715515137e-01,5.442796349525451660e-01,2.926919460296630859e-01,-2.066391110420227051e-01,-2.312655448913574219e-01,5.285343527793884277e-01,3.063214063644409180e+00,-1.703909039497375488e-01,5.728317499160766602e-01,-3.719283342361450195e-01,-1.560368388891220093e-01,-1.023968338966369629e+00,-1.351629137992858887e+00,-3.769987821578979492e-01,2.519173622131347656e-01,2.172495275735855103e-01,-3.340069651603698730e-01,-1.161285877227783203e+00,-4.441362991929054260e-02,-8.220575451850891113e-01,-7.116123437881469727e-01,-7.191553711891174316e-01,5.159197747707366943e-02,-8.908925950527191162e-02,3.820902481675148010e-02,-6.626919507980346680e-01,3.870625495910644531e-01,-8.633858561515808105e-01,-1.876413375139236450e-01
2.245668917894363403e-01,-5.257264971733093262e-01,-5.284360051155090332e-01,-3.421486020088195801e-01,9.008074402809143066e-01,2.887954413890838623e-01,-9.442688524723052979e-02,5.790224671363830566e-01,7.125951051712036133e-01,2.103199005126953125e+00,-4.302529394626617432e-01,7.814230322837829590e-01,-3.458416461944580078e-01,-3.189654350280761719e-01,-8.680436611175537109e-01,-9.583290815353393555e-01,-4.789840877056121826e-01,2.593976259231567383e-01,8.064271509647369385e-02,-1.005355045199394226e-01,-7.824884653091430664e-01,9.478732943534851074e-03,-1.295420825481414795e-01,-1.432311177253723145e+00,-7.115669250488281250e-01,2.599587142467498779e-01,1.575226634740829468e-01,2.856081910431385040e-02,-5.312907099723815918e-01,5.072081685066223145e-01,-1.286205410957336426e+00,-2.155796997249126434e-02
1.654554009437561035e-01,-7.116138339042663574e-01,-6.367638707160949707e-01,-1.426657438278198242e-01,1.391853570938110352e+00,3.025140762329101562e-01,2.646069228649139404e-01,-2.694700956344604492e-01,6.078927516937255859e-01,2.000520706176757812e+00,-1.486882567405700684e-01,9.400341510772705078e-01,-2.082019299268722534e-01,-3.764722943305969238e-01,-1.214904069900512695e+00,-6.796715259552001953e-01,-1.702495962381362915e-01,5.975725650787353516e-01,1.061735078692436218e-01,-1.763250529766082764e-01,-7.613072991371154785e-01,-2.842291891574859619e-01,-6.002271920442581177e-02,-1.737656831741333008e+00,-5.688790678977966309e-01,2.367518991231918335e-01,-3.848607540130615234e-01,-1.733506321907043457e-01,-8.130614757537841797e-01,2.517528235912322998e-01,-1.394100546836853027e+00,8.351760357618331909e-02
3.687605261802673340e-01,-5.851112604141235352e-01,-7.838367223739624023e-01,-1.019938960671424866e-01,1.102473855018615723e+00,5.071509629487991333e-02,-2.511743009090423584e-01,3.478846549987792969e-01,3.989165127277374268e-01,1.476186037063598633e+00,1.420084685087203979e-01,6.798514723777770996e-01,-4.982578754425048828e-01,-3.079194426536560059e-01,-1.105978965759277344e+00,-8.622912764549255371e-01,-4.717665612697601318e-01,7.060652971267700195e-01,-7.596033811569213867e-02,-1.765600778162479401e-02,-1.270369768142700195e+00,-4.267493635416030884e-02,-6.239563226699829102e-02,-1.956415414810180664e+00,-4.842840135097503662e-01,-3.116612136363983154e-02,-1.153185591101646423e-01,-1.915190368890762329e-01,-5.259026288986206055e-01,5.590641498565673828e-01,-9.057767987251281738e-01,-9.409538507461547852e-01
3.056128621101379395e-01,-4.192381501197814941e-01,-4.978854656219482422e-01,1.056941002607345581e-01,1.051950693130493164e+00,-2.755414545536041260e-01,-2.917017936706542969e-01,5.410075783729553223e-01,6.769960522651672363e-01,1.522686481475830078e+00,1.747680455446243286e-01,5.850843787193298340e-01,-4.010359048843383789e-01,-1.807713806629180908e-01,-2.997734248638153076e-01,-6.736202836036682129e-01,-2.521482706069946289e-01,5.004870295524597168e-01,1.351742539554834366e-03,3.446823060512542725e-01,-1.399723529815673828e+00,-5.848484635353088379e-01,1.304724067449569702e-01,-1.871438264846801758e+00,-5.777414441108703613e-01,-1.665149033069610596e-01,6.900543719530105591e-02,-3.437606692314147949e-01,-7.634909749031066895e-01,6.978520154953002930e-01,-4.982166290283203125e-01,-7.309389710426330566e-01
4.356086254119873047e-01,-2.770624458789825439e-01,-2.579939663410186768e-01,4.165969043970108032e-02,8.261461853981018066e-01,-2.212548255920410156e-01,-3.714295029640197754e-01,5.097059607505798340e-01,5.872031450271606445e-01,9.078965187072753906e-01,5.025715753436088562e-02,2.021728903055191040e-01,-3.782452046871185303e-01,-5.094727873802185059e-02,-5.301409363746643066e-01,-1.028310731053352356e-01,1.985029727220535278e-01,8.117183297872543335e-02,4.209730625152587891e-01,-2.854212224483489990e-01,-1.396650552749633789e+00,-3.429035842418670654e-01,4.205421805381774902e-01,-2.094858169555664062e+00,-2.304493337869644165e-01,-2.728568017482757568e-01,1.973968446254730225e-01,-5.348838567733764648e-01,-1.038238525390625000e+00,4.460585117340087891e-01,-1.886639371514320374e-02,-8.940690159797668457e-01
1.077253296971321106e-01,-8.813504576683044434e-01,-4.863136410713195801e-01,1.496250331401824951e-01,1.434997200965881348e+00,-1.135589852929115295e-01,-3.073789775371551514e-01,3.064337670803070068e-01,1.261480003595352173e-01,8.713230490684509277e-01,3.943386673927307129e-02,6.010155081748962402e-01,5.550285428762435913e-02,-3.165332973003387451e-01,-8.983120322227478027e-02,-2.012603878974914551e-01,-5.815176963806152344e-01,-2.773789167404174805e-01,4.031197167932987213e-03,2.312532514333724976e-01,-1.497278451919555664e+00,2.727282643318176270e-01,7.649237662553787231e-02,-1.790088772773742676e+00,-5.235360860824584961e-01,3.985491394996643066e-01,1.078316941857337952e-01,-7.224045991897583008e-01,-5.988632440567016602e-01,7.228271961212158203e-01,5.871416926383972168e-01,-5.427918434143066406e-01
7.461835741996765137e-01,-2.477927058935165405e-01,-1.835860759019851685e-01,9.062808752059936523e-02,1.454256772994995117e+00,-5.765610337257385254e-01,-5.263120532035827637e-01,4.463751316070556641e-01,-1.630750745534896851e-01,9.263623356819152832e-01,8.010078668594360352e-01,6.262068748474121094e-01,-6.716936826705932617e-01,1.541055552661418915e-02,3.349233567714691162e-01,-1.356377303600311279e-01,5.271874070167541504e-01,-1.013736575841903687e-01,1.243645995855331421e-01,3.820498585700988770e-01,-1.844165444374084473e+00,-7.537937164306640625e-02,4.067750647664070129e-02,-1.981243252754211426e+00,7.079861313104629517e-02,3.552314639091491699e-01,-1.359181255102157593e-01,-3.106530904769897461e-01,-4.102827906608581543e-01,1.805785000324249268e-01,1.230557084083557129e+00,-6.081891059875488281e-01
-7.445687893778085709e-03,-1.505489945411682129e-01,-3.895822167396545410e-01,1.364141464233398438e+00,1.379363298416137695e+00,-7.034733295440673828e-01,-4.342562854290008545e-01,9.911071509122848511e-02,-4.410385191440582275e-01,1.320440173149108887e-01,6.891246438026428223e-01,4.993006587028503418e-01,-1.961327716708183289e-02,-6.932379007339477539e-01,3.747066557407379150e-01,-1.920290738344192505e-01,2.152804434299468994e-01,2.651556767523288727e-02,4.070790112018585205e-01,5.896359682083129883e-01,-1.636171579360961914e+00,-3.642774820327758789e-01,3.398935496807098389e-01,-1.576407670974731445e+00,-4.463795721530914307e-01,5.491688847541809082e-01,-1.202237606048583984e-02,-3.479131758213043213e-01,-4.746631979942321777e-01,6.388573050498962402e-01,1.391689896583557129e+00,-6.470764279365539551e-01
4.499421119689941406e-01,4.257271885871887207e-01,1.317948848009109497e-01,1.348980188369750977e+00,1.682907581329345703e+00,-7.483007907867431641e-01,-5.538688898086547852e-01,5.782144665718078613e-01,-3.177791535854339600e-01,7.288867831230163574e-01,5.907241106033325195e-01,-1.787800639867782593e-01,-5.582020282745361328e-01,-4.111570715904235840e-01,4.541112780570983887e-01,1.324037313461303711e-01,7.527983188629150391e-02,2.222358584403991699e-01,1.653102636337280273e-01,1.857198774814605713e-01,-1.525284051895141602e+00,9.564269334077835083e-02,-3.258178532123565674e-01,-7.192177176475524902e-01,-1.830006688833236694e-01,-6.136782094836235046e-02,3.516233265399932861e-01,-5.582221969962120056e-02,-2.183931320905685425e-01,6.001111865043640137e-01,1.229993104934692383e+00,-4.433133900165557861e-01
-1.302267163991928101e-01,1.361989378929138184e-01,2.983420491218566895e-01,1.199897050857543945e+00,2.106704950332641602e+00,-7.669498324394226074e-01,-8.383459448814392090e-01,2.042362093925476074e-01,-1.764460504055023193e-01,6.494719386100769043e-01,1.679613441228866577e-01,1.831582561135292053e-02,5.224216580390930176e-01,-6.613564491271972656e-01,4.351652860641479492e-01,1.709112524986267090e-01,-2.632192336022853851e-02,9.518203325569629669e-03,-5.035041570663452148e-01,-2.206489676609635353e-03,-1.177682757377624512e+00,9.952043741941452026e-02,-3.226852277293801308e-03,-5.756334662437438965e-01,-7.988625168800354004e-01,3.329613804817199707e-01,5.819258689880371094e-01,-6.857271194458007812e-01,-2.578483819961547852e-01,3.552355766296386719e-01,1.117492198944091797e+00,-4.484022557735443115e-01
-5.939700454473495483e-02,-1.610581725835800171e-01,3.778674900531768799e-01,2.422342538833618164e+00,2.141096830368041992e+00,-3.034710168838500977e+00,-4.804902151226997375e-02,2.364265620708465576e-01,1.963384076952934265e-02,5.420038700103759766e-01,2.586586177349090576e-01,-3.112850189208984375e-01,1.746543347835540771e-01,-4.940758943557739258e-01,-6.866161525249481201e-02,1.098163574934005737e-01,4.626428186893463135e-01,-7.446466386318206787e-02,4.251643717288970947e-01,3.130902051925659180e-01,-1.208958268165588379e+00,9.522904455661773682e-02,2.958807945251464844e-01,4.538163840770721436e-01,-4.517063796520233154e-01,2.051020860671997070e-01,2.874645590782165527e-01,-3.822405040264129639e-01,-3.921874761581420898e-01,9.178239703178405762e-01,1.209607124328613281e+00,-3.559651076793670654e-01
-5.314807966351509094e-02,7.216876745223999023e-01,7.382681965827941895e-01,1.765304565429687500e+00,2.156973361968994141e+00,-3.394191265106201172e+00,4.192186892032623291e-01,1.028624996542930603e-01,4.695685952901840210e-02,4.708552956581115723e-01,-2.456057518720626831e-01,-4.111244678497314453e-01,-4.233487881720066071e-03,-2.606484591960906982e-01,-2.005044966936111450e-01,8.763062208890914917e-02,1.360036134719848633e-01,-5.879272818565368652e-01,-8.598266541957855225e-02,2.596330642700195312e-01,-8.386031985282897949e-01,4.284127652645111084e-01,2.155075073242187500e-01,1.355333209037780762e+00,-8.176207542419433594e-01,-2.024066746234893799e-01,3.743913024663925171e-02,-2.741422355175018311e-01,-1.857936233282089233e-01,1.201030686497688293e-01,7.335780858993530273e-01,7.893269062042236328e-01
-1.500099152326583862e-01,1.006983399391174316e+00,-1.648330986499786377e-01,2.530922889709472656e+00,2.207548141479492188e+00,-3.172878026962280273e+00,6.858460307121276855e-01,1.010002419352531433e-01,-2.917096912860870361e-01,1.043925762176513672e+00,-3.922770917415618896e-01,-6.951630115509033203e-01,9.150698781013488770e-02,-5.296404361724853516e-01,-4.128574728965759277e-01,-3.788675963878631592e-01,6.189923286437988281e-01,-1.088135600090026855e+00,5.518959090113639832e-02,3.627131283283233643e-01,-1.334839761257171631e-01,1.092331290245056152e+00,-2.985397912561893463e-02,2.816885709762573242e+00,-1.211757421493530273e+00,-3.269993886351585388e-02,4.648758769035339355e-01,-6.938807964324951172e-01,1.241500973701477051e-01,1.686406433582305908e-01,8.990660309791564941e-01,4.009477496147155762e-01
-2.234797328710556030e-01,-1.804712265729904175e-01,2.428843677043914795e-01,2.342637062072753906e+00,2.041164398193359375e+00,-2.037662267684936523e+00,-1.205063536763191223e-01,-2.552596628665924072e-01,-3.824599385261535645e-01,6.564435958862304688e-01,-5.835741162300109863e-01,-1.551998704671859741e-01,-5.717775970697402954e-02,-4.637789726257324219e-01,-8.078241348266601562e-02,-2.067120224237442017e-01,2.530745863914489746e-01,-2.002652645111083984e+00,2.062346339225769043e-01,2.029737234115600586e-01,-3.865526318550109863e-01,1.448630213737487793e+00,-2.549789249897003174e-01,3.446423530578613281e+00,-1.349251747131347656e+00,8.347682654857635498e-02,2.073675543069839478e-01,-6.731978654861450195e-01,-2.407205104827880859e-01,3.724821209907531738e-01,5.840623378753662109e-01,1.117062121629714966e-01
7.071663439273834229e-02,3.670182824134826660e-01,1.314464211463928223e-01,3.008611917495727539e+00,1.666285037994384766e+00,-8.503399491310119629e-01,5.402294397354125977e-01,-2.506110668182373047e-01,-4.132951498031616211e-01,5.946999192237854004e-01,-6.974807977676391602e-01,2.504414319992065430e-01,2.421711981296539307e-01,-5.430268049240112305e-01,-1.935580521821975708e-01,1.805347204208374023e-01,4.513299092650413513e-02,-2.081118106842041016e+00,-1.494824886322021484e-01,6.083448529243469238e-01,6.039985418319702148e-01,1.650388240814208984e+00,-5.822935700416564941e-01,3.847162723541259766e+00,-1.714098572731018066e+00,-1.195296123623847961e-01,-4.814136400818824768e-02,-1.926440596580505371e-01,2.610148489475250244e-01,3.566282987594604492e-01,6.371639966964721680e-01,1.202351376414299011e-01
2.974182069301605225e-01,-1.359990537166595459e-01,4.076438546180725098e-01,2.502135276794433594e+00,1.681375861167907715e+00,-1.505974978208541870e-01,1.044212952256202698e-01,9.081399440765380859e-02,-7.190896868705749512e-01,3.531360626220703125e-02,-5.227398276329040527e-01,7.682872414588928223e-01,-2.595338821411132812e-01,2.228694260120391846e-01,4.120644927024841309e-01,1.008233204483985901e-01,-2.231624424457550049e-01,-1.689909934997558594e+00,2.003939747810363770e-01,-8.164100050926208496e-01,3.232353627681732178e-01,2.241998434066772461e+00,-3.936319351196289062e-01,1.666264295578002930e+00,-2.868585586547851562e+00,1.157408431172370911e-01,1.234974041581153870e-01,-7.524391412734985352e-01,-7.506322860717773438e-02,3.544012606143951416e-01,5.735057592391967773e-01,8.287915587425231934e-01
2.074824720621109009e-01,3.489622101187705994e-02,6.653155088424682617e-01,2.825793504714965820e+00,1.734449505805969238e+00,-5.653313994407653809e-01,-2.032787501811981201e-01,-6.760735064744949341e-02,-8.429048657417297363e-01,1.983695924282073975e-01,-3.742320239543914795e-01,-4.109088331460952759e-02,-1.155538707971572876e-01,1.805197745561599731e-01,5.309028029441833496e-01,2.764587104320526123e-01,-2.748661339282989502e-01,-1.142051935195922852e+00,1.197384074330329895e-01,-1.836566627025604248e-01,4.635652005672454834e-01,2.330924987792968750e+00,1.722777187824249268e-01,6.759682297706604004e-01,-2.263148069381713867e+00,8.614577054977416992e-01,-1.552041918039321899e-01,-4.937300980091094971e-01,-1.858862340450286865e-01,3.452728390693664551e-01,7.598863840103149414e-01,8.249815702438354492e-01
-4.573777690529823303e-02,-6.939243078231811523e-01,7.724156975746154785e-01,2.066986560821533203e+00,1.645102977752685547e+00,3.014430105686187744e-01,-1.939566284418106079e-01,1.155372187495231628e-01,-8.892311453819274902e-01,3.843544125556945801e-01,1.697578877210617065e-01,-6.238566040992736816e-01,-1.042187213897705078e-01,1.452351510524749756e-01,1.608301103115081787e-01,7.281000260263681412e-03,-1.828691810369491577e-01,-1.193661689758300781e+00,-6.360651552677154541e-02,-5.318396091461181641e-01,4.417469501495361328e-01,1.882725715637207031e+00,-6.739684939384460449e-01,1.531831502914428711e+00,-1.103294789791107178e-01,-5.042353868484497070e-01,-1.898870617151260376e-01,-7.546147704124450684e-01,6.338603496551513672e-01,2.410673201084136963e-01,9.764291048049926758e-01,1.196143627166748047e+00
4.203498959541320801e-01,-3.363173305988311768e-01,5.837037563323974609e-01,1.220077276229858398e+00,1.300121068954467773e+00,1.048814356327056885e-01,5.185988172888755798e-02,1.476628929376602173e-01,-6.232186555862426758e-01,-1.410545557737350464e-01,4.706108868122100830e-01,-3.206417262554168701e-01,-2.737759649753570557e-01,1.477027088403701782e-01,6.758103966712951660e-01,4.859519004821777344e-01,-1.930467933416366577e-01,-1.432073473930358887e+00,-7.795704156160354614e-02,1.244503781199455261e-01,2.716225385665893555e-01,1.729281067848205566e+00,-6.890569329261779785e-01,1.010824322700500488e+00,9.327808618545532227e-01,-3.353361785411834717e-01,2.103703767061233521e-01,-2.578855156898498535e-01,-2.988665401935577393e-01,3.468527793884277344e-01,3.417446613311767578e-01,1.079862952232360840e+00
2.593111395835876465e-01,-5.111728310585021973e-01,2.641791999340057373e-01,2.017483234405517578e+00,1.245530962944030762e+00,8.823807239532470703e-01,2.414703816175460815e-01,3.484575450420379639e-01,-6.277939081192016602e-01,2.434931099414825439e-01,1.154201507568359375e+00,-1.331406533718109131e-01,-5.569345951080322266e-01,4.145159423351287842e-01,7.130084633827209473e-01,2.828668355941772461e-01,-2.591084241867065430e-01,-8.754570484161376953e-01,3.366485238075256348e-02,-2.920976579189300537e-01,4.620361328125000000e-01,1.100325345993041992e+00,-3.929809331893920898e-01,-1.119716241955757141e-01,1.659020304679870605e+00,-7.935789413750171661e-03,1.979757100343704224e-01,-7.076330184936523438e-01,-1.410925835371017456e-01,3.675670027732849121e-01,3.427507281303405762e-01,1.029317975044250488e+00
1.831017881631851196e-01,-9.840116500854492188e-01,2.343705445528030396e-01,1.760092258453369141e+00,7.874449491500854492e-01,4.990244507789611816e-01,2.007701843976974487e-01,2.818779945373535156e-01,-6.610883474349975586e-01,1.923198848962783813e-01,1.313654184341430664e+00,1.751945614814758301e-01,-1.631787270307540894e-01,1.214136406779289246e-01,2.148135602474212646e-01,2.035240828990936279e-01,-1.576550006866455078e-01,-6.255089044570922852e-01,2.697421014308929443e-01,3.277374207973480225e-01,2.317332923412322998e-01,1.677813053131103516e+00,-8.878299593925476074e-01,3.695108890533447266e-01,1.949603319168090820e+00,-5.723098665475845337e-02,2.864918708801269531e-01,-6.441449373960494995e-02,-5.267363190650939941e-01,-2.528921365737915039e-01,-2.982968464493751526e-03,1.029823780059814453e+00
2.628290653228759766e-01,-7.984449863433837891e-01,5.820147395133972168e-01,1.539630889892578125e+00,9.449072480201721191e-01,4.781574606895446777e-01,2.114178240299224854e-01,-1.724234968423843384e-01,-6.316897273063659668e-01,4.653892815113067627e-01,1.154547810554504395e+00,-1.812173798680305481e-02,-2.046653926372528076e-01,1.183061152696609497e-01,5.925818681716918945e-01,-2.372630536556243896e-01,-4.589590430259704590e-01,-3.532906770706176758e-01,4.868738055229187012e-01,-6.058250665664672852e-01,1.136609554290771484e+00,1.599124550819396973e+00,-4.065919816493988037e-01,3.702359497547149658e-01,2.358170986175537109e+00,-2.428380548954010010e-01,-7.288157939910888672e-01,-2.104959785938262939e-01,-4.944036900997161865e-01,6.600137948989868164e-01,-7.225229591131210327e-02,1.342448949813842773e+00
4.159612357616424561e-01,-1.299141645431518555e+00,6.646447777748107910e-01,1.846210479736328125e+00,8.165746927261352539e-01,3.820136487483978271e-01,2.668708860874176025e-01,-2.449808828532695770e-02,-1.301095247268676758e+00,-1.891051083803176880e-01,8.504245281219482422e-01,-5.070090889930725098e-01,-2.696392834186553955e-01,-1.387175172567367554e-01,2.000604122877120972e-01,3.439550697803497314e-01,-5.717111825942993164e-01,-3.464900553226470947e-01,6.594867706298828125e-01,-2.149915844202041626e-01,5.387210249900817871e-01,1.825142264366149902e+00,-5.278978943824768066e-01,2.875193953514099121e-02,2.784111022949218750e+00,3.387770652770996094e-01,-7.327966094017028809e-01,-5.748742222785949707e-01,-3.787522017955780029e-01,5.706263184547424316e-01,2.653161585330963135e-01,1.164987683296203613e+00
1.078955829143524170e-01,-1.173005819320678711e+00,2.496735602617263794e-01,1.615119218826293945e+00,6.351535320281982422e-01,-7.788582146167755127e-02,4.176366329193115234e-01,-3.211312592029571533e-01,-4.897562861442565918e-01,-1.197025403380393982e-01,3.748320341110229492e-01,-2.554749548435211182e-01,-2.492613494396209717e-01,1.228216290473937988e-01,-5.193635076284408569e-02,-9.677978605031967163e-02,-1.562090069055557251e-01,-6.934049129486083984e-01,2.177315205335617065e-01,-2.602820694446563721e-01,2.390070408582687378e-01,8.026434779167175293e-01,-3.197685778141021729e-01,-1.150411963462829590e-01,2.424662113189697266e+00,9.165336936712265015e-02,-4.506613910198211670e-01,-1.061924815177917480e+00,6.053575128316879272e-02,5.848813056945800781e-01,2.261251211166381836e-06,1.034108161926269531e+00
4.447692036628723145e-01,-4.092757701873779297e-01,1.688292436301708221e-02,5.200567245483398438e-01,8.318746089935302734e-01,1.803583502769470215e-01,5.011744424700737000e-02,-1.295615434646606445e-01,-4.653884470462799072e-01,3.320702612400054932e-01,7.250232100486755371e-01,-1.779115647077560425e-01,-1.638878583908081055e-01,7.572116851806640625e-01,-3.590080738067626953e-01,6.462980806827545166e-02,-2.239635884761810303e-01,-4.373908787965774536e-02,6.052062660455703735e-02,3.513377606868743896e-01,3.122448921203613281e-02,1.601236104965209961e+00,-8.814796805381774902e-01,-1.061542518436908722e-02,2.590804576873779297e+00,-1.347697526216506958e-01,-2.687830626964569092e-01,-7.772158980369567871e-01,-4.831832051277160645e-01,6.714529991149902344e-01,-4.067287147045135498e-01,1.842294216156005859e+00
9.296713024377822876e-02,-1.831227093935012817e-01,2.767751812934875488e-01,1.379424691200256348e+00,1.964886039495468140e-01,5.371543765068054199e-01,-3.483822941780090332e-01,-4.655768573284149170e-01,2.076780796051025391e-02,3.056743741035461426e-01,9.420353770256042480e-01,-1.224845349788665771e-01,-1.265122145414352417e-01,-1.543994396924972534e-01,2.719457447528839111e-01,-2.474023401737213135e-01,-3.971298933029174805e-01,-7.044779658317565918e-01,3.207102417945861816e-01,1.041766405105590820e-01,4.822522103786468506e-01,1.386533379554748535e+00,-2.534628808498382568e-01,-6.144195199012756348e-01,2.132111310958862305e+00,-1.691344678401947021e-01,-3.311420679092407227e-01,-6.921974569559097290e-02,-7.843315005302429199e-01,2.287137359380722046e-01,-5.028819665312767029e-02,1.042900443077087402e+00
8.036996424198150635e-02,-4.771767258644104004e-01,9.659083932638168335e-02,1.018678069114685059e+00,8.666406273841857910e-01,4.505549371242523193e-01,8.489426374435424805e-01,-2.985859215259552002e-01,9.234594106674194336e-01,6.974621415138244629e-01,1.024115532636642456e-01,-5.512408018112182617e-01,-1.362595986574888229e-02,2.053405493497848511e-01,-4.310014545917510986e-01,1.343322265893220901e-02,-3.059923648834228516e-01,-3.616178035736083984e-01,1.895256936550140381e-01,-2.069440782070159912e-01,5.376542732119560242e-02,9.518332481384277344e-01,5.645427480340003967e-02,-5.839326977729797363e-01,1.936500787734985352e+00,-5.794438719749450684e-01,-4.216939806938171387e-01,-5.620837807655334473e-01,-4.254572689533233643e-01,1.849462985992431641e-01,-4.573788642883300781e-01,6.954381465911865234e-01
1.002863720059394836e-01,2.194709926843643188e-01,-2.235742509365081787e-01,6.868104338645935059e-01,1.173765659332275391e-01,7.684222608804702759e-02,6.309344172477722168e-01,-6.733283996582031250e-01,3.671454489231109619e-01,5.823650360107421875e-01,2.856830358505249023e-01,-2.678899466991424561e-01,-5.018120408058166504e-01,2.781347334384918213e-01,-2.990737855434417725e-01,1.555013209581375122e-01,-2.918063402175903320e-01,1.936743706464767456e-01,4.384283125400543213e-01,-1.019483581185340881e-01,1.574374549090862274e-02,7.075500488281250000e-01,-5.989563092589378357e-02,-5.662971735000610352e-01,1.314526557922363281e+00,-5.025344491004943848e-01,-5.080118179321289062e-01,-8.907249569892883301e-01,-6.629321575164794922e-01,6.054285764694213867e-01,-5.795524120330810547e-01,1.310872793197631836e+00
2.535246014595031738e-01,5.039288997650146484e-01,-1.783884912729263306e-01,4.614056050777435303e-01,2.224295586347579956e-01,6.019176170229911804e-02,2.447637915611267090e-01,-8.677904605865478516e-01,8.906017988920211792e-02,1.369449257850646973e+00,-2.303180992603302002e-01,-4.318441748619079590e-01,-9.828886389732360840e-02,-3.137551844120025635e-01,-7.300739288330078125e-01,-7.785698771476745605e-01,-6.056021526455879211e-02,-2.476364672183990479e-01,2.752427756786346436e-01,1.300873979926109314e-02,-3.820773586630821228e-02,2.177171558141708374e-01,-1.946691423654556274e-01,-6.541845798492431641e-01,1.106947779655456543e+00,-4.494515955448150635e-01,-8.445923924446105957e-01,-5.061036348342895508e-01,-1.290187478065490723e+00,6.420358419418334961e-01,-1.890395283699035645e-01,9.325253963470458984e-01
3.761455416679382324e-01,7.922327518463134766e-01,-4.493940174579620361e-01,6.081746816635131836e-01,4.170955121517181396e-01,-3.335288166999816895e-01,5.286685228347778320e-01,-1.165893554687500000e+00,7.234946489334106445e-01,1.650002002716064453e+00,-7.478374987840652466e-02,-1.635577380657196045e-01,-3.814397752285003662e-01,-3.712891340255737305e-01,-8.313217163085937500e-01,-1.487042307853698730e+00,-4.692209959030151367e-01,3.162985146045684814e-01,4.263736605644226074e-01,6.518784761428833008e-01,-3.338867332786321640e-03,4.253771305084228516e-01,-6.501073837280273438e-01,-3.967648446559906006e-01,5.350981950759887695e-01,-6.948742270469665527e-01,-7.175790071487426758e-01,-4.877625107765197754e-01,-1.961574316024780273e+00,1.057063460350036621e+00,-3.918246328830718994e-01,1.322043299674987793e+00
-6.323561817407608032e-02,-8.851892948150634766e-01,-9.696201086044311523e-01,7.335423026233911514e-03,2.912056744098663330e-01,1.833601146936416626e-01,-2.920389175415039062e-01,-1.131900250911712646e-01,8.652083873748779297e-01,3.341294050216674805e+00,-5.516661405563354492e-01,1.801305711269378662e-01,-9.643654823303222656e-01,1.923342347145080566e-01,-3.840749859809875488e-01,-6.515922546386718750e-01,-5.909906625747680664e-01,-1.464241594076156616e-01,-5.366857349872589111e-02,-7.447935342788696289e-01,-8.540064692497253418e-01,5.421496629714965820e-01,-5.919487476348876953e-01,-9.147332310676574707e-01,-5.907119512557983398e-01,-3.922572135925292969e-01,5.970334261655807495e-02,-2.498940676450729370e-01,-6.459786891937255859e-01,6.354304552078247070e-01,-1.721742868423461914e+00,-2.161416709423065186e-01
2.890550792217254639e-01,-1.885932445526123047e+00,-4.089888632297515869e-01,-3.101806044578552246e-01,7.593776583671569824e-01,-2.524829208850860596e-01,-3.386318981647491455e-01,5.637958049774169922e-01,1.110815525054931641e+00,2.565251588821411133e+00,-1.591398268938064575e-01,2.856664955615997314e-01,-3.328573405742645264e-01,-2.465930879116058350e-01,3.037749826908111572e-01,-1.700065284967422485e-01,3.389478623867034912e-01,2.821426689624786377e-01,-4.951938986778259277e-01,-6.886261105537414551e-01,-6.746303439140319824e-01,4.661530256271362305e-01,3.909292519092559814e-01,-5.136238932609558105e-01,-2.821741253137588501e-02,-2.250306010246276855e-01,3.804834559559822083e-02,3.881052136421203613e-01,-2.043576836585998535e-01,2.518688738346099854e-01,-1.116290569305419922e+00,-1.426686406135559082e+00
3.536324203014373779e-01,-1.235786914825439453e+00,-5.153388381004333496e-01,2.739943265914916992e-01,8.897017240524291992e-01,4.639835283160209656e-02,-3.040511608123779297e-01,4.015650451183319092e-01,1.090331673622131348e+00,1.674617648124694824e+00,1.069873645901679993e-01,2.038877606391906738e-01,1.225608959794044495e-01,5.681588314473628998e-03,6.764196753501892090e-01,6.190707087516784668e-01,-5.570468306541442871e-01,6.606402397155761719e-01,9.152399748563766479e-02,4.440625756978988647e-02,-4.129446446895599365e-01,2.210165411233901978e-01,5.198342800140380859e-01,-4.918162226676940918e-01,-2.754697203636169434e-01,5.681153535842895508e-01,4.427438378334045410e-01,3.832041025161743164e-01,-1.852687564678490162e-03,2.864868640899658203e-01,-4.099097549915313721e-01,-1.863973021507263184e+00
5.735420808196067810e-02,-1.455254435539245605e+00,-1.198788657784461975e-01,9.389586746692657471e-02,1.280223727226257324e+00,-5.217139795422554016e-02,-5.781083181500434875e-02,1.172767207026481628e-01,7.832791805267333984e-01,1.129459619522094727e+00,-3.236795663833618164e-01,4.799671471118927002e-02,-3.260546624660491943e-01,-1.072135344147682190e-01,6.729531884193420410e-01,3.328643739223480225e-01,6.505241990089416504e-01,1.351625323295593262e-01,-6.663810461759567261e-02,1.717459708452224731e-01,-8.863111734390258789e-01,1.523060947656631470e-01,4.679627418518066406e-01,-8.591669201850891113e-01,5.125311389565467834e-02,3.663775920867919922e-01,2.065007388591766357e-01,5.060786008834838867e-01,8.269097805023193359e-01,4.397267401218414307e-01,2.747104167938232422e-01,-1.428592801094055176e+00
-2.853364124894142151e-02,-8.977108001708984375e-01,-4.376277625560760498e-01,-5.717658251523971558e-02,1.331147432327270508e+00,-1.929139196872711182e-01,-3.835076689720153809e-01,4.396529197692871094e-01,1.113503694534301758e+00,9.606784582138061523e-01,5.577622652053833008e-01,-9.410473704338073730e-02,2.227262854576110840e-01,1.678397655487060547e-01,4.743331074714660645e-01,2.302402406930923462e-01,1.069665625691413879e-01,5.158890411257743835e-02,3.708884865045547485e-02,-2.460796833038330078e-01,-6.663208007812500000e-01,5.898671746253967285e-01,-3.350442945957183838e-01,-9.733374714851379395e-01,-1.458013355731964111e-01,3.282601237297058105e-01,-1.329627633094787598e-02,2.432017624378204346e-01,5.496533513069152832e-01,2.485678493976593018e-01,7.191092371940612793e-01,-1.260330319404602051e+00
2.366263605654239655e-02,-1.114680051803588867e+00,1.047137659043073654e-02,-3.125158846378326416e-01,1.220884084701538086e+00,-2.174571007490158081e-01,-5.636702775955200195e-01,5.564628913998603821e-02,8.627660870552062988e-01,6.499547958374023438e-01,2.061589658260345459e-01,-3.934645652770996094e-02,-3.946463465690612793e-01,2.238958477973937988e-01,2.081797569990158081e-01,-3.092842735350131989e-02,5.601468086242675781e-01,-2.451182901859283447e-01,-1.452784389257431030e-01,-4.216997027397155762e-01,-6.197328567504882812e-01,2.301832735538482666e-01,7.402558922767639160e-01,-1.072908520698547363e+00,1.297426521778106689e-01,7.047827243804931641e-01,4.732637107372283936e-01,4.375871717929840088e-01,5.962077975273132324e-01,7.044293284416198730e-01,6.028273701667785645e-01,-1.209668159484863281e+00
-1.310793012380599976e-01,-1.003427505493164062e+00,-1.684908568859100342e-01,1.652154624462127686e-01,1.137388944625854492e+00,-3.547984063625335693e-01,-1.352097690105438232e-01,1.857904046773910522e-01,6.733030080795288086e-01,3.896726369857788086e-01,9.263120591640472412e-03,-8.601015806198120117e-02,2.732888460159301758e-01,-6.985672116279602051e-01,4.247779250144958496e-01,5.442458987236022949e-01,-1.570187807083129883e-01,-3.508018553256988525e-01,1.853532344102859497e-01,-4.588860869407653809e-01,-5.958147644996643066e-01,-5.541637539863586426e-01,5.409453809261322021e-02,-6.668273210525512695e-01,-3.174486011266708374e-02,3.383651971817016602e-01,4.892863631248474121e-01,1.288161519914865494e-02,3.892259895801544189e-01,1.381559669971466064e-01,2.259206473827362061e-01,-1.367468357086181641e+00
2.384252101182937622e-01,-7.912710905075073242e-01,-3.982582688331604004e-01,7.359682768583297729e-02,1.376734733581542969e+00,-2.794305384159088135e-01,-3.249300420284271240e-01,6.803231313824653625e-03,8.318387269973754883e-01,9.583288431167602539e-01,4.583530724048614502e-01,1.360389590263366699e-01,2.895061671733856201e-02,8.076471835374832153e-02,3.490683622658252716e-03,2.899985611438751221e-01,6.391272544860839844e-01,-4.775402843952178955e-01,-1.547017544507980347e-01,-5.354448556900024414e-01,-1.136023044586181641e+00,-4.252541363239288330e-01,1.481247544288635254e-01,-8.572127223014831543e-01,-2.298164367675781250e-01,2.954671084880828857e-01,-1.973360478878021240e-01,1.682522594928741455e-01,2.039114087820053101e-01,1.359154134988784790e-01,-1.801934391260147095e-01,-9.377209544181823730e-01
5.696457996964454651e-02,-1.724421381950378418e+00,3.219375908374786377e-01,2.028812319040298462e-01,1.444015383720397949e+00,-7.614120375365018845e-03,9.873248636722564697e-02,3.179233372211456299e-01,6.954391598701477051e-01,7.405191063880920410e-01,1.601734608411788940e-01,5.604273676872253418e-01,-3.944150805473327637e-01,2.059744112193584442e-02,5.104487538337707520e-01,5.624889209866523743e-02,2.233777791261672974e-01,-4.291466176509857178e-01,3.988009989261627197e-01,-8.869320750236511230e-01,-1.075812697410583496e+00,-3.706638514995574951e-01,2.775048613548278809e-01,-9.574769735336303711e-01,-1.852453947067260742e-01,2.629057168960571289e-01,3.885120153427124023e-01,2.120187729597091675e-01,7.872184514999389648e-01,5.825890302658081055e-01,5.653024464845657349e-02,-7.379836440086364746e-01
-5.692639350891113281e-01,-1.148145079612731934e+00,1.642532497644424438e-01,1.077663823962211609e-01,1.655986785888671875e+00,-3.748907148838043213e-01,4.059700667858123779e-02,1.712474524974822998e-01,6.026118993759155273e-01,6.860433220863342285e-01,-3.168655037879943848e-01,-2.820926010608673096e-01,-6.316216588020324707e-01,8.747322857379913330e-02,-1.127827912569046021e-01,8.877926319837570190e-02,3.850186616182327271e-02,-2.242379635572433472e-01,-2.240845113992691040e-01,2.201828360557556152e-01,-1.215809941291809082e+00,-4.015890061855316162e-01,5.536739230155944824e-01,-1.140830159187316895e+00,2.019220031797885895e-03,8.282575756311416626e-02,4.604073613882064819e-02,1.949129551649093628e-01,1.603083908557891846e-01,1.154353618621826172e-01,3.292493820190429688e-01,-8.035767078399658203e-01
-5.568800568580627441e-01,-9.225567579269409180e-01,3.430862128734588623e-01,1.898367255926132202e-01,1.585468769073486328e+00,-2.594331204891204834e-01,-7.698941826820373535e-01,2.653568387031555176e-01,5.128029584884643555e-01,5.845574736595153809e-01,-1.011744290590286255e-01,-2.663864195346832275e-01,5.341342464089393616e-02,2.484525591135025024e-01,-1.125350147485733032e-01,7.181307766586542130e-03,-1.520078927278518677e-01,-5.679069161415100098e-01,-8.013761043548583984e-02,-4.884356260299682617e-01,-7.568429112434387207e-01,-6.041849255561828613e-01,-1.971922814846038818e-01,-7.615538835525512695e-01,-4.184874296188354492e-01,3.396561741828918457e-01,2.905538678169250488e-02,-1.354891359806060791e-01,1.714721471071243286e-01,1.825290769338607788e-01,8.355774879455566406e-01,-6.709686517715454102e-01
1.273526251316070557e-01,-3.011788725852966309e-01,5.775877088308334351e-02,3.777202665805816650e-01,1.343965888023376465e+00,-3.852826654911041260e-01,9.150753915309906006e-02,6.340341269969940186e-02,4.226283729076385498e-01,5.581635832786560059e-01,-3.746901750564575195e-01,1.215040013194084167e-01,-1.511246562004089355e-01,-2.464337348937988281e-01,1.760216951370239258e-01,-1.678407341241836548e-01,5.692167878150939941e-01,-1.892651766538619995e-01,1.799650788307189941e-01,-1.973662674427032471e-01,-1.227942347526550293e+00,-4.786622822284698486e-01,6.860610842704772949e-01,-8.527948856353759766e-01,-5.054067969322204590e-01,-7.230709306895732880e-03,-3.767598867416381836e-01,2.353871315717697144e-01,6.179738640785217285e-01,3.055019080638885498e-01,3.959184885025024414e-01,-5.613297820091247559e-01
-5.221783649176359177e-03,-7.427840232849121094e-01,-4.059070944786071777e-01,5.406478643417358398e-01,1.606436967849731445e+00,-1.751669049263000488e+00,1.810579746961593628e-01,-4.578999429941177368e-02,7.136265635490417480e-01,3.790982067584991455e-01,1.670654565095901489e-01,4.247096776962280273e-01,-6.602938473224639893e-02,-9.142006933689117432e-02,-1.212502196431159973e-01,-4.411302208900451660e-01,3.555449247360229492e-01,-1.509849578142166138e-01,-4.427357912063598633e-01,-6.415318250656127930e-01,-1.088198065757751465e+00,-7.121089696884155273e-01,4.239023625850677490e-01,-1.261778473854064941e+00,-2.904187142848968506e-01,2.275680154561996460e-01,-2.438942342996597290e-01,-3.845406472682952881e-01,1.670255810022354126e-01,1.135183647274971008e-01,8.063400983810424805e-01,-9.593362808227539062e-01
-2.686978280544281006e-01,-5.968180298805236816e-01,-3.278055489063262939e-01,9.200537204742431641e-01,1.945747852325439453e+00,-2.137671947479248047e+00,5.095732212066650391e-01,-5.266065597534179688e-01,6.210395097732543945e-01,9.677659273147583008e-01,-1.463261395692825317e-01,-1.826497614383697510e-01,3.044166564941406250e-01,-3.747623562812805176e-01,-2.392822206020355225e-01,1.357150673866271973e-01,-1.506394147872924805e-01,-5.126342773437500000e-01,1.087885200977325439e-01,-4.135041311383247375e-02,-9.359014034271240234e-01,-1.123474955558776855e+00,1.782511621713638306e-01,-4.019800722599029541e-01,-1.023187488317489624e-01,1.301762312650680542e-01,3.733116090297698975e-01,2.299510389566421509e-01,-3.951977938413619995e-03,4.928963184356689453e-01,1.156762599945068359e+00,-8.680822253227233887e-01
-1.837105005979537964e-01,-7.994984984397888184e-01,-1.557417213916778564e-01,1.129194378852844238e+00,2.169735193252563477e+00,-1.031934857368469238e+00,1.779383867979049683e-01,4.166170954704284668e-01,1.078592658042907715e+00,6.366786360740661621e-01,5.388208031654357910e-01,-3.828018307685852051e-01,4.145168960094451904e-01,-2.505077123641967773e-01,-4.894494637846946716e-02,-5.790591239929199219e-02,8.898653090000152588e-03,2.665117383003234863e-01,2.903223037719726562e-01,-2.398604750633239746e-01,-1.067759156227111816e+00,-1.762292385101318359e+00,5.060974955558776855e-01,1.189657598733901978e-01,-5.364183187484741211e-01,1.070059649646282196e-02,4.208155274391174316e-01,1.303868144750595093e-01,6.900801062583923340e-01,-8.577181398868560791e-02,1.584199368953704834e-01,-1.504746675491333008e+00
-2.617078721523284912e-01,-2.015435397624969482e-01,-5.418540835380554199e-01,5.063421130180358887e-01,1.762764453887939453e+00,-1.856746524572372437e-01,-6.874525547027587891e-01,4.312903285026550293e-01,6.595298647880554199e-01,9.464125037193298340e-01,-3.250439763069152832e-01,-5.529484152793884277e-01,2.695136964321136475e-01,-7.224765419960021973e-02,4.206983149051666260e-01,-2.818107306957244873e-01,1.910541802644729614e-01,-2.331838607788085938e-01,6.933377683162689209e-02,-5.473398566246032715e-01,-1.289647579193115234e+00,-1.625021457672119141e+00,1.190001070499420166e-01,1.060782551765441895e+00,-3.529720902442932129e-01,9.435226768255233765e-02,3.694379031658172607e-01,8.626487255096435547e-01,-1.577104181051254272e-01,-1.986287981271743774e-01,4.627290666103363037e-01,-1.328138232231140137e+00
-1.816931217908859253e-01,-2.341390401124954224e-01,3.268657624721527100e-01,8.673948645591735840e-01,1.546576976776123047e+00,9.172357320785522461e-01,-2.138579934835433960e-01,3.999109566211700439e-01,7.012066245079040527e-01,8.097023963928222656e-01,-2.902279198169708252e-01,-1.011021360754966736e-01,1.297571957111358643e-01,4.199004471302032471e-01,-1.587892919778823853e-01,-4.253002703189849854e-01,1.547037363052368164e-01,-6.175709366798400879e-01,5.448907613754272461e-02,3.908716440200805664e-01,-7.012724280357360840e-01,-1.668998837471008301e+00,7.323672175407409668e-01,1.601740837097167969e+00,-9.790073633193969727e-01,-1.157309487462043762e-01,-4.143945127725601196e-02,-1.318548917770385742e-01,2.186745852231979370e-01,-3.475212156772613525e-01,1.097800210118293762e-01,-1.269976735115051270e+00
-1.697070598602294922e-01,7.297211885452270508e-02,-5.278775095939636230e-02,1.012823224067687988e+00,1.362146854400634766e+00,4.044170081615447998e-01,-7.890282571315765381e-02,3.531349301338195801e-01,1.042679309844970703e+00,9.834606647491455078e-01,-4.146459996700286865e-01,-8.737269788980484009e-02,-1.581624597311019897e-01,2.233399152755737305e-01,-2.024951428174972534e-01,-4.391984343528747559e-01,-4.789773523807525635e-01,1.157849878072738647e-01,-1.410314291715621948e-01,-2.222081571817398071e-01,-4.421326145529747009e-02,-1.822550296783447266e+00,3.144362568855285645e-01,3.703101277351379395e-01,-1.286052584648132324e+00,1.310606002807617188e-01,-2.216551080346107483e-02,5.295298695564270020e-01,-1.375967264175415039e-01,-2.931243181228637695e-01,1.852359622716903687e-01,-1.220247983932495117e+00
4.806399717926979065e-02,-1.782820373773574829e-01,4.347862303256988525e-01,9.968588352203369141e-01,1.208890914916992188e+00,-2.122715674340724945e-02,6.763448119163513184e-01,2.542709000408649445e-02,8.184333443641662598e-01,4.067464172840118408e-01,4.924638867378234863e-01,-5.629290640354156494e-02,-4.129768610000610352e-01,3.985392153263092041e-01,-4.086233377456665039e-01,-6.469926238059997559e-01,3.574450314044952393e-02,-6.974586248397827148e-01,3.752156794071197510e-01,-5.204879641532897949e-01,-7.260004431009292603e-02,-1.272570252418518066e+00,3.804709315299987793e-01,6.157131195068359375e-01,3.859409317374229431e-02,5.348504185676574707e-01,6.984531283378601074e-01,3.088670372962951660e-01,9.717956930398941040e-02,1.483411937952041626e-01,4.818772375583648682e-01,-9.968594312667846680e-01
-5.037376880645751953e-01,-2.730853296816349030e-02,-6.733578443527221680e-02,1.374673962593078613e+00,5.978729724884033203e-01,4.834519922733306885e-01,7.794587314128875732e-02,-5.035019516944885254e-01,6.672627329826354980e-01,6.625137329101562500e-01,1.315740495920181274e-01,-1.547564566135406494e-01,4.179927408695220947e-01,-1.489185839891433716e-01,-3.871254324913024902e-01,-1.905820965766906738e-01,-1.702945977449417114e-01,-4.179192483425140381e-01,3.522630035877227783e-01,-3.986777365207672119e-01,-2.661162018775939941e-01,-9.156792163848876953e-01,4.309374988079071045e-01,6.878119707107543945e-01,6.250689029693603516e-01,-2.988134622573852539e-01,7.328624725341796875e-01,1.739771813154220581e-01,-2.665572799742221832e-02,2.077030539512634277e-01,4.014536142349243164e-01,-7.357379794120788574e-01
2.855185978114604950e-02,-2.637095451354980469e-01,-9.568426758050918579e-02,1.638994574546813965e+00,1.178993463516235352e+00,6.313782930374145508e-01,4.128231406211853027e-01,1.268732994794845581e-01,2.282712608575820923e-01,3.840963840484619141e-01,1.978290528059005737e-01,-2.307704389095306396e-01,-6.392583996057510376e-02,6.974530965089797974e-02,-4.787602722644805908e-01,-3.914641737937927246e-01,-8.610874414443969727e-02,1.789556741714477539e-01,-3.121350659057497978e-03,-2.220848351716995239e-01,-8.526155725121498108e-03,-9.574040174484252930e-01,-4.979540407657623291e-02,5.868849158287048340e-01,8.234243988990783691e-01,1.215267479419708252e-01,1.003694176673889160e+00,2.039412707090377808e-01,-1.697066873311996460e-01,-1.011826246976852417e-01,-1.887541450560092926e-02,-5.798877477645874023e-01
-1.189475506544113159e-01,-2.840026617050170898e-01,-1.122811809182167053e-01,7.465079426765441895e-01,8.472757339477539062e-01,7.789840698242187500e-01,1.105787381529808044e-01,-2.850019931793212891e-01,5.979236960411071777e-01,3.504549562931060791e-01,7.424063235521316528e-02,-3.094027042388916016e-01,2.560509741306304932e-02,6.428728103637695312e-01,-3.349108695983886719e-01,-4.503767192363739014e-01,1.329216510057449341e-01,-3.738689124584197998e-01,-1.097253113985061646e-01,-4.574209824204444885e-02,-1.429666280746459961e-01,-1.469770073890686035e+00,3.783366829156875610e-02,2.292014509439468384e-01,1.311336994171142578e+00,-5.706654787063598633e-01,2.610257565975189209e-01,-2.170323394238948822e-02,-1.690224744379520416e-02,-3.660595118999481201e-01,2.102730572223663330e-01,-4.068545103073120117e-01
5.110480636358261108e-02,-1.581080555915832520e-01,6.831276416778564453e-01,1.599686384201049805e+00,5.106408596038818359e-01,3.502257764339447021e-01,2.595452964305877686e-01,-2.661246359348297119e-01,4.475006163120269775e-01,1.367383897304534912e-01,2.377858571708202362e-02,-2.965522408485412598e-01,-1.831881403923034668e-01,-3.449842333793640137e-01,-6.593663096427917480e-01,-7.093781232833862305e-01,-2.010105550289154053e-01,-1.201559975743293762e-01,-1.350874751806259155e-01,-2.765372991561889648e-01,-4.967958480119705200e-02,-6.674860119819641113e-01,5.873193033039569855e-03,1.507324427366256714e-01,5.814761519432067871e-01,-3.806526362895965576e-01,-3.996481001377105713e-02,2.096048742532730103e-01,1.325657814741134644e-01,3.137051314115524292e-02,5.202060341835021973e-01,-7.306959629058837891e-01
-1.182295680046081543e-01,-1.736280880868434906e-02,2.466008998453617096e-03,1.250430345535278320e+00,7.281039357185363770e-01,1.077688857913017273e-01,6.972377300262451172e-01,5.217504221946001053e-03,5.781608223915100098e-01,-9.440276771783828735e-02,1.072263643145561218e-01,-3.352230191230773926e-01,3.837164938449859619e-01,1.072060689330101013e-01,5.914417505264282227e-01,-1.866932660341262817e-01,-1.711415648460388184e-01,-2.385529279708862305e-01,-5.014627575874328613e-01,3.413492813706398010e-02,1.399191212840378284e-03,-6.327521204948425293e-01,5.803235992789268494e-02,-7.827267050743103027e-02,5.560814738273620605e-01,-5.759227871894836426e-01,-1.128963828086853027e-01,6.156681180000305176e-01,-1.624318212270736694e-01,1.312990784645080566e-01,7.723465561866760254e-01,-2.718621492385864258e-01
-1.130705550312995911e-01,-2.443292438983917236e-01,-4.117222875356674194e-02,4.619157314300537109e-01,5.514127016067504883e-01,5.967958569526672363e-01,3.338699042797088623e-01,-2.200728841125965118e-02,6.542140841484069824e-01,3.753425180912017822e-01,1.744875907897949219e-01,-2.028807699680328369e-01,3.742580413818359375e-01,1.403217166662216187e-01,-2.804623544216156006e-01,1.319126337766647339e-01,-5.760011821985244751e-02,2.732037305831909180e-01,1.035819351673126221e-01,-5.992390513420104980e-01,-2.238246947526931763e-01,-1.971158534288406372e-01,2.836322784423828125e-01,3.143016695976257324e-01,8.968582749366760254e-01,-8.748658895492553711e-01,2.105398923158645630e-01,-1.539412289857864380e-01,-1.862233728170394897e-01,2.202959507703781128e-01,1.916147321462631226e-01,-6.433044672012329102e-01
2.835433781147003174e-01,-1.144548296928405762e+00,7.446168661117553711e-01,6.235285997390747070e-01,7.629145979881286621e-01,4.387202262878417969e-01,4.851954877376556396e-01,-5.308666825294494629e-01,1.119067430496215820e+00,-1.105393543839454651e-01,5.852286219596862793e-01,-3.974769115447998047e-01,-5.664461106061935425e-02,6.467195153236389160e-01,-3.017742335796356201e-01,-5.744093656539916992e-01,1.875938773155212402e-01,1.987867802381515503e-02,-2.038080804049968719e-02,-6.165791675448417664e-02,3.663849458098411560e-02,9.413072466850280762e-01,2.892461121082305908e-01,7.302580773830413818e-02,7.167172431945800781e-01,-5.666511058807373047e-01,3.328300118446350098e-01,3.050438463687896729e-01,-2.100240439176559448e-01,-7.998976856470108032e-02,-2.656346559524536133e-01,-8.269445896148681641e-01
-3.236878514289855957e-01,-4.255746304988861084e-01,-3.463043272495269775e-01,3.480297327041625977e-01,7.807421088218688965e-01,-7.773693650960922241e-02,3.105138838291168213e-01,-2.476396709680557251e-01,6.039633750915527344e-01,-2.764739394187927246e-01,3.824024200439453125e-01,-2.933030426502227783e-01,1.769286543130874634e-01,1.322147101163864136e-01,-1.235132589936256409e-01,-2.526632547378540039e-01,2.676789462566375732e-01,-2.465313859283924103e-02,-3.146183490753173828e-01,-3.875439167022705078e-01,2.638569474220275879e-01,1.920810818672180176e+00,1.761217564344406128e-01,-3.985490649938583374e-02,1.184941649436950684e+00,-1.789211779832839966e-01,-1.532127894461154938e-02,2.991637587547302246e-01,-1.722394824028015137e-01,4.446674287319183350e-01,3.188232779502868652e-01,-1.964933574199676514e-01
6.257489323616027832e-01,-2.707241475582122803e-01,-1.269193142652511597e-01,3.999476730823516846e-01,3.481917381286621094e-01,2.473269030451774597e-02,4.594777822494506836e-01,-1.649064272642135620e-01,9.258534312248229980e-01,-1.102175787091255188e-01,6.533195376396179199e-01,3.092324733734130859e-01,1.230379641056060791e-01,-3.562242686748504639e-01,7.700038701295852661e-02,-3.853762149810791016e-01,7.547028064727783203e-01,-4.169771969318389893e-01,-4.489119350910186768e-01,-4.778600633144378662e-01,-1.656377017498016357e-01,1.787437438964843750e+00,-9.563828259706497192e-02,9.341634511947631836e-01,1.155475735664367676e+00,-6.800106763839721680e-01,-2.612984739243984222e-02,4.471499621868133545e-01,-1.926169693470001221e-01,-8.897286653518676758e-02,2.174522727727890015e-02,-4.327146410942077637e-01
1.759746223688125610e-01,-3.730320632457733154e-01,-2.701525390148162842e-01,5.157241821289062500e-01,3.745637536048889160e-01,3.179816901683807373e-01,2.797258794307708740e-01,-2.158644646406173706e-01,4.654910564422607422e-01,-4.697767794132232666e-01,2.056303322315216064e-01,1.029217466711997986e-01,2.426356226205825806e-01,2.625297196209430695e-02,2.446926683187484741e-01,8.148187398910522461e-01,4.355548322200775146e-01,1.058014109730720520e-01,-1.759981513023376465e-01,-6.612093448638916016e-01,-9.891462326049804688e-02,1.097836732864379883e+00,2.999819219112396240e-01,2.127483040094375610e-01,8.549872040748596191e-01,-2.778399288654327393e-01,2.818368077278137207e-01,1.855163574218750000e-01,-1.396809816360473633e-01,-8.816403895616531372e-02,-1.712516099214553833e-01,-5.509842634201049805e-01
1.120960488915443420e-01,-4.598526656627655029e-01,-2.071843743324279785e-01,-2.163076251745223999e-01,2.455231845378875732e-01,4.108872413635253906e-01,5.572950467467308044e-02,-1.085571169853210449e+00,8.597387075424194336e-01,-2.339795380830764771e-01,1.954617053270339966e-01,1.303743720054626465e-01,-3.991664946079254150e-01,1.110758483409881592e-01,1.433519870042800903e-01,1.081927716732025146e-01,8.276633024215698242e-01,-1.874922513961791992e-01,-4.335280954837799072e-01,-5.544281005859375000e-01,-6.184198707342147827e-02,9.282826185226440430e-01,1.509929746389389038e-01,3.031750954687595367e-02,1.043039679527282715e+00,9.700503945350646973e-02,1.127716079354286194e-01,4.479229748249053955e-01,1.380341947078704834e-01,1.963293552398681641e-01,3.155749440193176270e-01,-1.271318495273590088e-01
2.941101491451263428e-01,-4.747543931007385254e-01,-3.877499327063560486e-02,-2.474175542593002319e-01,-8.401114493608474731e-03,1.799543946981430054e-01,1.251264661550521851e-01,-9.407904930412769318e-03,7.380621433258056641e-01,2.173600792884826660e-01,7.194434851408004761e-02,-7.317155599594116211e-02,3.635632097721099854e-01,-2.239794880151748657e-01,9.104058146476745605e-02,-9.904684126377105713e-02,4.756751954555511475e-01,-1.435503214597702026e-01,-1.521164923906326294e-01,-1.502158045768737793e-01,1.283584535121917725e-01,5.685366988182067871e-01,1.762317419052124023e-01,-2.383871376514434814e-02,9.085851907730102539e-01,-3.833450675010681152e-01,-2.722101211547851562e-01,-1.780474558472633362e-02,-3.426600992679595947e-02,7.357051968574523926e-01,-2.247526496648788452e-01,-1.464240998029708862e-01
-8.794516324996948242e-02,4.241338074207305908e-01,-6.322667598724365234e-01,-4.039478302001953125e-01,-4.797254223376512527e-03,-1.872477233409881592e-01,-2.601894140243530273e-01,-1.055569887161254883e+00,1.009135365486145020e+00,7.765561938285827637e-01,-1.843423247337341309e-01,-1.204683184623718262e-01,2.604445815086364746e-01,-8.851491659879684448e-02,-3.853316605091094971e-01,-1.147079825401306152e+00,7.715505361557006836e-01,-2.026794254779815674e-01,-2.783785760402679443e-01,-5.103189349174499512e-01,1.315875947475433350e-01,1.085983633995056152e+00,-3.246656954288482666e-01,-3.408221900463104248e-02,8.124003410339355469e-01,-6.682548522949218750e-01,-2.471505291759967804e-02,-1.258614007383584976e-02,-1.305336236953735352e+00,4.397209584712982178e-01,-4.136876165866851807e-01,4.960250556468963623e-01
-3.531972877681255341e-03,-7.654752731323242188e-01,-6.912239789962768555e-01,-9.979784488677978516e-02,7.643450498580932617e-01,1.129199489951133728e-01,5.462312102317810059e-01,7.021109461784362793e-01,7.619379162788391113e-01,3.262228488922119141e+00,-7.683537602424621582e-01,3.336343765258789062e-01,-7.847968339920043945e-01,4.261338412761688232e-01,-1.009469032287597656e+00,-2.869767844676971436e-01,-8.417890667915344238e-01,2.812662124633789062e-01,2.726133167743682861e-01,-3.984443247318267822e-01,-1.809247493743896484e+00,7.688345909118652344e-01,-6.475093364715576172e-01,-1.366899251937866211e+00,-6.045192480087280273e-01,-4.313526153564453125e-01,4.891723394393920898e-01,-8.218835592269897461e-01,-9.946548342704772949e-01,4.865237176418304443e-01,-2.091584682464599609e+00,-7.374496459960937500e-01
2.803120017051696777e-01,-1.458009362220764160e+00,3.937007486820220947e-02,-4.482541978359222412e-01,1.013409137725830078e+00,-2.314557433128356934e-01,-6.444131582975387573e-02,1.091191768646240234e-01,8.593212962150573730e-01,2.291994810104370117e+00,2.917702682316303253e-02,1.061000674962997437e-01,-6.220604106783866882e-02,-2.858500480651855469e-01,-1.398976240307092667e-02,8.673350214958190918e-01,-3.787953257560729980e-01,5.291328430175781250e-01,-1.459064334630966187e-01,-1.902194470167160034e-01,-1.256565928459167480e+00,-1.339709311723709106e-01,3.260208070278167725e-01,-5.220125913619995117e-01,-2.672145068645477295e-01,2.173960059881210327e-01,-1.256281584501266479e-01,3.141174018383026123e-01,-3.404689133167266846e-01,-1.925881952047348022e-02,-7.349239587783813477e-01,-1.818195462226867676e+00
1.006332263350486755e-01,-9.631844162940979004e-01,-5.983175039291381836e-01,2.225603312253952026e-01,3.230975270271301270e-01,-3.729708790779113770e-01,-9.564976394176483154e-02,5.279316306114196777e-01,1.185034990310668945e+00,1.340351819992065430e+00,1.159528195858001709e-01,3.579207360744476318e-01,-5.366908311843872070e-01,-3.397595286369323730e-01,1.058443784713745117e+00,6.433125138282775879e-01,-3.037120029330253601e-02,3.974917531013488770e-01,-1.571077480912208557e-02,7.712756842374801636e-02,-8.109098076820373535e-01,3.782056868076324463e-01,1.997122541069984436e-02,1.887575024738907814e-03,-6.528926640748977661e-02,-4.856992363929748535e-01,-9.500893950462341309e-02,6.702343933284282684e-03,-4.990392625331878662e-01,3.042050004005432129e-01,-8.880854249000549316e-01,-1.327534794807434082e+00
2.962312474846839905e-02,-6.382927298545837402e-01,-3.049329519271850586e-01,1.078810021281242371e-01,6.926161646842956543e-01,-3.674325644969940186e-01,-1.007369905710220337e-02,4.409997761249542236e-01,8.798399567604064941e-01,8.053371906280517578e-01,2.768326401710510254e-01,1.573185473680496216e-01,5.865234732627868652e-01,-6.432691216468811035e-01,2.703484296798706055e-01,-3.308148384094238281e-01,-1.437972765415906906e-02,2.593912482261657715e-01,7.106112241744995117e-01,7.956423610448837280e-02,-5.898897647857666016e-01,2.276864051818847656e-01,-1.096726804971694946e-01,-2.384501844644546509e-01,3.059154748916625977e-02,2.399016320705413818e-01,-5.041005015373229980e-01,-4.279860854148864746e-01,-1.856879889965057373e-01,1.747102104127407074e-02,-7.071092128753662109e-01,-8.701598048210144043e-01
-3.338063955307006836e-01,-4.885082840919494629e-01,-1.182196754962205887e-02,3.777047991752624512e-02,4.785777628421783447e-01,-2.866917252540588379e-01,-2.524628043174743652e-01,-4.016892015933990479e-01,7.241237163543701172e-01,5.071450471878051758e-01,-2.474502027034759521e-01,9.323874115943908691e-02,-3.569686412811279297e-01,-5.179128423333168030e-02,2.443348467350006104e-01,-5.665875673294067383e-01,2.893129885196685791e-01,1.409280151128768921e-01,-1.625148057937622070e-01,2.011781744658946991e-02,-2.239368706941604614e-01,4.793768823146820068e-01,-5.968489050865173340e-01,-5.254051685333251953e-01,-2.375691980123519897e-01,3.933928310871124268e-01,-3.614708781242370605e-01,-1.540411859750747681e-01,3.984022885560989380e-02,4.440881907939910889e-01,4.852317646145820618e-02,-1.019135355949401855e+00
-2.634276449680328369e-01,-5.884178876876831055e-01,2.145784646272659302e-01,-2.708046510815620422e-02,7.327548265457153320e-01,-3.561607897281646729e-01,-6.608559489250183105e-01,2.498265802860260010e-01,5.262431502342224121e-01,2.968824207782745361e-01,5.454764515161514282e-02,3.780694603919982910e-01,-3.932485878467559814e-01,-4.912442862987518311e-01,-1.487820781767368317e-02,-1.304915100336074829e-01,-5.652233213186264038e-02,-3.693417878821492195e-03,1.889539361000061035e-01,-5.710538625717163086e-01,-2.372542768716812134e-01,-8.541713654994964600e-02,1.583841741085052490e-01,2.157402485609054565e-01,-2.287057191133499146e-01,1.522963680326938629e-02,-3.317059874534606934e-01,1.191752776503562927e-01,9.747426956892013550e-02,2.102827876806259155e-01,-6.613992154598236084e-02,-9.762073755264282227e-01
1.407359093427658081e-01,4.731065928936004639e-01,-5.938232541084289551e-01,-7.283607125282287598e-02,4.905708730220794678e-01,-4.681626260280609131e-01,-8.400831371545791626e-02,-3.252814412117004395e-01,6.473816037178039551e-01,-4.559445753693580627e-02,1.052287220954895020e-01,3.058606684207916260e-01,2.109695225954055786e-02,-4.594781994819641113e-01,5.509964823722839355e-01,-1.788028329610824585e-01,1.217399761080741882e-01,3.459035158157348633e-01,7.110585272312164307e-02,1.607074737548828125e-01,-1.358094513416290283e-01,3.216519355773925781e-01,2.033365070819854736e-01,-6.422562003135681152e-01,-2.865099608898162842e-01,5.982081890106201172e-01,-5.984445661306381226e-02,-5.106850862503051758e-01,4.672762155532836914e-01,2.729681432247161865e-01,4.097887128591537476e-02,-8.545909523963928223e-01
5.704454779624938965e-01,-2.472732588648796082e-02,-3.117795586585998535e-01,-9.109891951084136963e-02,8.714837431907653809e-01,-2.174289226531982422e-01,-6.240653991699218750e-01,3.619193136692047119e-01,2.625785768032073975e-01,6.572582125663757324e-01,5.641633868217468262e-01,6.926075816154479980e-01,-2.576004564762115479e-01,-4.435183405876159668e-01,-7.480464875698089600e-02,4.037234485149383545e-01,9.937514550983905792e-05,-4.276892542839050293e-01,-7.659756112843751907e-03,4.776129722595214844e-01,-2.725697159767150879e-01,5.341587215662002563e-02,-1.955338865518569946e-01,-1.291728615760803223e-01,-4.772223532199859619e-01,5.892347693443298340e-01,5.167544633150100708e-02,-8.000562340021133423e-02,-3.825418055057525635e-01,6.067045331001281738e-01,3.851549234241247177e-03,-4.790631234645843506e-01
6.831435859203338623e-02,3.975360989570617676e-01,1.323288679122924805e-01,2.911937981843948364e-02,-1.443029046058654785e-01,-7.855471372604370117e-01,-3.994598984718322754e-01,1.612117588520050049e-01,1.754761040210723877e-01,9.378933906555175781e-02,3.516384959220886230e-01,5.771236419677734375e-01,-4.287378787994384766e-01,-3.137592673301696777e-01,3.321101367473602295e-01,5.460258126258850098e-01,-2.299607247114181519e-01,2.638977169990539551e-01,9.447894245386123657e-02,-4.678861796855926514e-02,1.885093450546264648e-01,-6.106626987457275391e-02,-1.498427093029022217e-01,-9.245335459709167480e-01,-1.356150209903717041e-01,-2.636118531227111816e-01,2.961678206920623779e-01,-6.629744172096252441e-01,-4.892125725746154785e-01,6.772571206092834473e-01,4.455705881118774414e-01,5.078760534524917603e-02
5.366640686988830566e-01,-1.646298170089721680e-01,3.567921817302703857e-01,5.686400532722473145e-01,1.252878755331039429e-01,-8.695710301399230957e-01,-4.073331654071807861e-01,-1.331961303949356079e-01,2.767917811870574951e-01,5.747290253639221191e-01,3.559585511684417725e-01,2.288139909505844116e-01,-2.214787602424621582e-01,8.902996033430099487e-02,9.785380959510803223e-01,-2.520243525505065918e-01,-2.438144385814666748e-01,-2.042902261018753052e-01,4.160922467708587646e-01,-4.864008128643035889e-01,-2.770686335861682892e-02,-6.734436750411987305e-02,3.528430759906768799e-01,-2.898017764091491699e-01,-7.495610713958740234e-01,2.289112657308578491e-01,2.436218559741973877e-01,-4.950711131095886230e-01,-5.293363332748413086e-01,2.872612178325653076e-01,2.125248461961746216e-01,-9.951040148735046387e-02
-1.060376390814781189e-01,-2.767023444175720215e-02,-3.481539487838745117e-01,5.212587118148803711e-01,5.967886745929718018e-02,-1.259789943695068359e+00,-7.423733472824096680e-01,2.939988113939762115e-02,1.027758494019508362e-01,7.128581404685974121e-02,-1.124174594879150391e-01,8.467146158218383789e-01,-2.460568100214004517e-01,4.344709962606430054e-02,1.070219948887825012e-01,1.403948850929737091e-02,8.307064324617385864e-02,6.421708315610885620e-02,1.019560620188713074e-01,1.998710036277770996e-01,2.518707513809204102e-01,-4.408044368028640747e-02,7.504463940858840942e-02,-1.165117025375366211e+00,-3.742060065269470215e-01,3.827076554298400879e-01,5.942407846450805664e-01,-7.470731139183044434e-01,8.303206413984298706e-02,5.469198822975158691e-01,8.296169638633728027e-01,-1.555452793836593628e-01
-1.899131201207637787e-02,-2.808493673801422119e-01,2.272732108831405640e-01,1.244940608739852905e-01,1.400294899940490723e-01,-2.557245016098022461e+00,-7.005204558372497559e-01,4.971207305788993835e-02,1.943518370389938354e-01,-1.753737181425094604e-01,2.689875960350036621e-01,5.298644900321960449e-01,-5.732291843742132187e-03,-1.254604160785675049e-01,3.302800953388214111e-01,-3.379844129085540771e-01,9.112285077571868896e-02,-3.498137891292572021e-01,5.778524279594421387e-01,-7.886576652526855469e-02,-3.160016834735870361e-01,1.055266037583351135e-01,2.463419437408447266e-01,-8.226951360702514648e-01,-6.974904537200927734e-01,-1.650476083159446716e-02,4.869783222675323486e-01,-1.131903409957885742e+00,-1.139059215784072876e-01,2.532610595226287842e-01,4.054853916168212891e-01,-4.110440984368324280e-02
3.091946840286254883e-01,-2.628055214881896973e-01,9.076045155525207520e-01,-5.806003138422966003e-02,8.701525628566741943e-02,-3.008971214294433594e+00,-5.598758459091186523e-01,5.320433974266052246e-01,-5.119962096214294434e-01,-1.396064460277557373e-01,-2.096962183713912964e-01,2.758712768554687500e-01,2.617061138153076172e-01,-3.004695773124694824e-01,3.403429687023162842e-01,-1.789659410715103149e-01,1.966873109340667725e-01,-4.738512933254241943e-01,-2.738916277885437012e-01,1.400238871574401855e-01,2.243270426988601685e-01,-2.751862108707427979e-01,-3.227963745594024658e-01,-1.065575838088989258e+00,-4.472711682319641113e-01,3.920745551586151123e-01,5.546579957008361816e-01,-7.738459706306457520e-01,-5.474396944046020508e-01,7.443201541900634766e-01,1.027836918830871582e+00,7.140365839004516602e-01
5.972245335578918457e-01,-2.246722579002380371e-01,1.502370238304138184e-01,1.830114424228668213e-01,-7.963435351848602295e-02,-1.203004598617553711e+00,-8.565899729728698730e-02,3.761033713817596436e-01,2.776545584201812744e-01,4.655124619603157043e-02,-2.849065959453582764e-01,-4.847234785556793213e-01,1.951828971505165100e-02,-5.863487720489501953e-01,8.021631836891174316e-01,-1.252477020025253296e-01,3.318957090377807617e-01,-6.439304351806640625e-01,1.199824810028076172e-01,1.733360141515731812e-01,2.651944383978843689e-02,1.996349543333053589e-02,-2.903102934360504150e-01,-9.209845066070556641e-01,-7.481279373168945312e-01,4.233208596706390381e-01,-1.300390958786010742e-01,-3.282738327980041504e-01,-2.549166083335876465e-01,2.657751142978668213e-01,9.604860544204711914e-01,8.357897400856018066e-02
1.860964149236679077e-01,-1.516637057065963745e-01,5.524023175239562988e-01,7.428376078605651855e-01,-4.059146940708160400e-01,-2.822053134441375732e-01,1.752454787492752075e-01,-2.356288731098175049e-01,-9.533874690532684326e-02,-4.020315408706665039e-01,1.761757582426071167e-02,-5.092933177947998047e-01,-3.174321949481964111e-01,-2.601756751537322998e-01,1.212061420083045959e-01,-1.839973777532577515e-01,1.967842578887939453e-01,-1.080355525016784668e+00,-1.961510628461837769e-02,2.639816515147686005e-02,-8.880892395973205566e-02,7.197315990924835205e-02,-2.265559583902359009e-01,-3.363403081893920898e-01,-1.084632992744445801e+00,3.333867713809013367e-02,1.036113619804382324e+00,-6.636767387390136719e-01,1.633681207895278931e-01,1.296168863773345947e-01,1.101595401763916016e+00,8.551797270774841309e-01
-2.632365189492702484e-02,-1.476653367280960083e-01,-3.199840188026428223e-01,7.031348347663879395e-01,5.626850202679634094e-02,-5.354559421539306641e-01,3.602132499217987061e-01,-2.193329781293869019e-01,-9.964567422866821289e-02,-1.393163651227951050e-01,-1.494701020419597626e-03,-1.741910427808761597e-01,-3.277353644371032715e-01,-5.695159435272216797e-01,7.660976797342300415e-02,-2.955862879753112793e-01,1.177412271499633789e-01,-1.207816243171691895e+00,-3.407194837927818298e-02,3.817518055438995361e-01,3.545293509960174561e-01,2.990590035915374756e-01,-1.694804280996322632e-01,1.041386246681213379e+00,-1.691669344902038574e+00,3.483451604843139648e-01,7.667369842529296875e-01,-7.194228172302246094e-01,-4.509356319904327393e-01,8.443223237991333008e-01,6.187888979911804199e-01,1.099499389529228210e-01
7.060456871986389160e-01,-5.389552563428878784e-02,-3.075306303799152374e-02,1.011296033859252930e+00,1.132470220327377319e-01,-6.205020099878311157e-02,-8.700622245669364929e-03,-3.070657253265380859e-01,-4.996361136436462402e-01,-7.209644317626953125e-01,-7.515281438827514648e-01,-5.760344862937927246e-01,-2.216469198465347290e-01,-9.087124466896057129e-01,4.417605996131896973e-01,-3.405048251152038574e-01,-1.065697520971298218e-01,-1.151770830154418945e+00,1.864678412675857544e-01,1.111668720841407776e-01,-5.132484436035156250e-01,3.839037418365478516e-01,1.920321211218833923e-02,2.277109384536743164e+00,-1.400846600532531738e+00,6.940937042236328125e-02,8.767858147621154785e-01,-5.989637970924377441e-01,-6.024802327156066895e-01,1.106053233146667480e+00,5.198698639869689941e-01,5.691972374916076660e-01
1.560942977666854858e-01,-4.862561225891113281e-01,1.887925118207931519e-01,7.857639789581298828e-01,-3.690757155418395996e-01,-4.574240446090698242e-01,-2.018033862113952637e-01,-1.758986413478851318e-01,-4.203245937824249268e-01,-1.352986097335815430e-01,2.119179815053939819e-02,5.420196102932095528e-04,3.442234396934509277e-01,-1.491692960262298584e-01,2.262245714664459229e-01,5.001655220985412598e-01,5.811654925346374512e-01,-1.336899638175964355e+00,-5.999368801712989807e-02,-3.070889413356781006e-01,-3.932099044322967529e-01,4.823438823223114014e-01,-6.021779775619506836e-01,1.959984779357910156e+00,-1.628474295139312744e-01,-4.717086255550384521e-01,2.823827415704727173e-02,-4.459792673587799072e-01,-2.215163260698318481e-01,4.985519945621490479e-01,6.981217861175537109e-01,8.436875939369201660e-01
6.987022161483764648e-01,-3.013481497764587402e-01,8.563355356454849243e-02,8.491436243057250977e-01,-4.083932936191558838e-01,-3.593340218067169189e-01,5.142949819564819336e-01,-4.772836267948150635e-01,-9.756100773811340332e-01,-6.096706390380859375e-01,-5.307721495628356934e-01,-1.264721062034368515e-02,-1.201239302754402161e-01,-2.633323669433593750e-01,3.208858370780944824e-01,5.123888328671455383e-02,-2.344460040330886841e-01,-1.670297384262084961e+00,-1.282776892185211182e-01,9.714337438344955444e-02,3.575731813907623291e-01,5.894866585731506348e-01,-4.355201423168182373e-01,9.309667944908142090e-01,8.448702096939086914e-01,3.198806345462799072e-01,8.329275846481323242e-01,-8.873307704925537109e-01,1.536992341279983521e-01,2.246695160865783691e-01,2.031598836183547974e-01,7.412824630737304688e-01
2.836185693740844727e-01,-9.195938706398010254e-02,2.871242761611938477e-01,9.734095335006713867e-01,2.125405967235565186e-01,5.737670660018920898e-01,-3.893717825412750244e-01,-1.627379655838012695e-01,-6.874626874923706055e-01,-3.893795311450958252e-01,7.099452614784240723e-02,-7.038472294807434082e-01,-2.654618322849273682e-01,-1.020074337720870972e-01,4.382320940494537354e-01,-3.096634149551391602e-01,-5.922380685806274414e-01,-1.287337183952331543e+00,-3.084253072738647461e-01,-2.255905866622924805e-01,5.672626495361328125e-01,4.698164165019989014e-01,6.264427304267883301e-02,7.861470580101013184e-01,1.764152765274047852e+00,-2.731457650661468506e-01,5.898271799087524414e-01,-7.967104315757751465e-01,1.014751940965652466e-01,1.303562074899673462e-01,-8.689755946397781372e-02,7.389232516288757324e-01
4.875726401805877686e-01,-3.088765740394592285e-01,3.429901599884033203e-01,5.624681711196899414e-01,3.995009064674377441e-01,2.940838932991027832e-01,2.063934653997421265e-01,-2.815325558185577393e-01,-4.272784888744354248e-01,-3.076990842819213867e-01,-3.423838615417480469e-01,2.447468042373657227e-01,-2.671066820621490479e-01,-3.902551233768463135e-01,3.680216670036315918e-01,-2.636290490627288818e-01,-2.539612539112567902e-02,-8.353244662284851074e-01,-1.144214272499084473e-01,-2.944598495960235596e-01,-5.227370262145996094e-01,3.147274851799011230e-01,-2.602809071540832520e-01,3.248458206653594971e-01,7.204625606536865234e-01,-5.133885517716407776e-02,-3.983274102210998535e-01,-3.640893995761871338e-01,-3.112305104732513428e-01,4.270083904266357422e-01,2.926829159259796143e-01,3.371962010860443115e-01
1.070920899510383606e-01,-8.056995868682861328e-01,3.284093141555786133e-01,4.035743772983551025e-01,-1.972080618143081665e-01,7.316738367080688477e-02,4.442981779575347900e-01,-4.707495868206024170e-01,-4.484797418117523193e-01,-3.943432271480560303e-01,6.039883494377136230e-01,-9.316889941692352295e-02,1.651995182037353516e-01,4.050630033016204834e-01,5.537840723991394043e-01,-5.510699748992919922e-01,-2.320488393306732178e-01,-9.338248968124389648e-01,-1.925919651985168457e-01,-1.972953975200653076e-02,3.550235331058502197e-01,1.189660355448722839e-01,-3.951694965362548828e-01,5.545125603675842285e-01,2.324998229742050171e-01,-1.363696902990341187e-01,-2.673581540584564209e-01,-7.763852179050445557e-02,6.744740605354309082e-01,4.682080745697021484e-01,3.003597818315029144e-02,1.492158174514770508e-01
2.695560753345489502e-01,-6.391345858573913574e-01,1.967735886573791504e-01,6.682060360908508301e-01,-1.184840500354766846e-01,3.257099390029907227e-01,7.148975133895874023e-02,-8.455959558486938477e-01,-2.574364840984344482e-01,-1.248749941587448120e-01,1.003437757492065430e+00,5.268133282661437988e-01,-4.875359684228897095e-02,1.452953815460205078e-01,5.979957580566406250e-01,-2.524394690990447998e-01,-6.792876720428466797e-01,-8.791323304176330566e-01,7.014662623405456543e-01,-5.080903172492980957e-01,2.067315876483917236e-01,2.744491696357727051e-01,-4.740835726261138916e-01,8.999657034873962402e-01,7.907763719558715820e-01,1.499262005090713501e-01,-4.996749758720397949e-01,-8.800353407859802246e-01,-5.848715901374816895e-01,4.942390620708465576e-01,-3.209710121154785156e-01,3.687047064304351807e-01
2.028153240680694580e-01,-6.562851071357727051e-01,2.721137702465057373e-01,6.691081821918487549e-02,-1.617089360952377319e-01,-5.556021332740783691e-01,2.865580320358276367e-01,-1.929489374160766602e-01,-4.477383792400360107e-01,-1.652107685804367065e-01,5.224741697311401367e-01,1.567216217517852783e-01,-2.257336974143981934e-01,3.167302012443542480e-01,3.564143776893615723e-01,4.400122463703155518e-01,-6.467586848884820938e-03,-6.300705075263977051e-01,1.991277337074279785e-01,5.700143054127693176e-03,4.515253305435180664e-01,-3.350491076707839966e-02,-3.761183917522430420e-01,1.116519793868064880e-01,7.657976150512695312e-01,1.569256000220775604e-02,2.534078061580657959e-01,-5.667375922203063965e-01,3.936307504773139954e-02,6.452271938323974609e-01,-2.885131239891052246e-01,8.202194571495056152e-01
-6.531293988227844238e-01,-1.653135120868682861e-01,3.222512304782867432e-01,9.382379055023193359e-01,3.850555792450904846e-02,2.777990102767944336e-01,4.888852834701538086e-01,-3.138911426067352295e-01,5.054719373583793640e-02,-4.947241842746734619e-01,9.527331590652465820e-01,-1.847145892679691315e-02,-3.249891996383666992e-01,6.344395279884338379e-01,3.346173465251922607e-01,-1.728041023015975952e-01,8.211022615432739258e-02,-4.252171218395233154e-01,-1.343459337949752808e-01,-4.785370454192161560e-02,-3.472754955291748047e-01,2.811541035771369934e-02,-4.240089356899261475e-01,4.386535882949829102e-01,7.486361861228942871e-01,3.246202692389488220e-02,-4.054712057113647461e-01,-2.039698511362075806e-01,-5.984578728675842285e-01,3.725183308124542236e-01,-2.100815176963806152e-01,1.656985282897949219e-01
3.500286638736724854e-01,-3.760526776313781738e-01,-1.014346182346343994e-01,5.246348381042480469e-01,-9.589709341526031494e-02,1.733932942152023315e-01,5.654025077819824219e-01,2.667690813541412354e-01,3.815330937504768372e-02,1.198470294475555420e-01,7.742772102355957031e-01,-6.428129673004150391e-01,-4.821280241012573242e-01,-3.823925554752349854e-02,3.377493023872375488e-01,-4.107582941651344299e-02,-2.962284386157989502e-01,2.895120717585086823e-02,2.413396351039409637e-02,-7.610570639371871948e-03,-2.099137455224990845e-01,4.385898113250732422e-01,-5.431286096572875977e-01,2.794934511184692383e-01,8.937669992446899414e-01,1.871367096900939941e-01,-5.319064855575561523e-01,-3.521173596382141113e-01,3.509504795074462891e-01,-4.749723970890045166e-01,1.227504201233386993e-02,6.736564040184020996e-01
3.120790123939514160e-01,-1.429176479578018188e-01,8.262793719768524170e-02,6.426574587821960449e-01,-4.090674221515655518e-03,2.900684475898742676e-01,7.601189613342285156e-01,3.101170957088470459e-01,-4.252298772335052490e-01,4.875743091106414795e-01,7.343268394470214844e-01,-1.213782280683517456e-01,-2.641910687088966370e-02,5.987365841865539551e-01,2.691546678543090820e-01,1.783922016620635986e-01,-4.328926652669906616e-02,-3.721873164176940918e-01,1.754088401794433594e-01,-1.776918419636785984e-03,2.946810424327850342e-01,6.066303849220275879e-01,-5.707082748413085938e-01,4.259604513645172119e-01,1.588376283645629883e+00,-5.586967803537845612e-03,-3.571532666683197021e-01,-4.460193514823913574e-01,-3.065913319587707520e-01,5.794125795364379883e-01,-1.938076168298721313e-01,5.032580494880676270e-01
6.342374682426452637e-01,-2.754732370376586914e-01,5.326410755515098572e-02,1.605364978313446045e-01,4.194881021976470947e-01,-4.685695767402648926e-01,1.921743154525756836e-01,-1.137496083974838257e-01,-2.014886140823364258e-01,-4.498956203460693359e-01,5.431300401687622070e-01,-2.144228816032409668e-01,-2.008217424154281616e-01,1.773024350404739380e-01,-9.128183126449584961e-02,-4.253466799855232239e-02,-9.099215269088745117e-02,-2.067555338144302368e-01,4.579089283943176270e-01,7.596951723098754883e-02,1.686577349901199341e-01,6.000386476516723633e-01,1.012568175792694092e-01,1.261944472789764404e-01,1.722318768501281738e+00,-3.432258665561676025e-01,-3.174221888184547424e-02,-6.075174212455749512e-01,-2.688890397548675537e-01,4.359966516494750977e-01,2.815905809402465820e-01,8.040357828140258789e-01
4.471335411071777344e-01,-5.723998546600341797e-01,-2.011252641677856445e-01,1.874768733978271484e-01,-1.494753509759902954e-01,1.868445128202438354e-01,-2.911010384559631348e-01,-1.905259490013122559e-01,9.657667577266693115e-02,-3.023058474063873291e-01,4.607008993625640869e-01,-3.825449943542480469e-01,-7.365650534629821777e-01,3.763440251350402832e-02,-9.270813316106796265e-02,-2.726935148239135742e-01,-3.064488060772418976e-02,-3.484342694282531738e-01,2.157688289880752563e-01,7.033997029066085815e-02,-2.298035025596618652e-01,1.143120765686035156e+00,-4.112802445888519287e-01,4.023269414901733398e-01,1.674790501594543457e+00,-8.582622408866882324e-01,-2.071425020694732666e-01,2.654523551464080811e-01,-4.828162491321563721e-01,2.928912043571472168e-01,-6.410282850265502930e-01,2.660812139511108398e-01
-4.215476661920547485e-02,-7.378851175308227539e-01,-3.950066864490509033e-02,4.993584156036376953e-01,-2.327529788017272949e-01,1.432233452796936035e-01,3.080149292945861816e-01,1.974660158157348633e-01,-9.919679164886474609e-02,2.120588123798370361e-01,8.143759965896606445e-01,-1.457966864109039307e-01,2.040241658687591553e-01,8.655781149864196777e-01,1.879963129758834839e-01,4.002363681793212891e-01,-3.671086728572845459e-01,-3.520024716854095459e-01,-1.271836608648300171e-01,9.944830834865570068e-02,-3.047150373458862305e-01,7.173120975494384766e-01,4.695161804556846619e-02,-9.653370082378387451e-02,1.507560253143310547e+00,9.107188880443572998e-02,-1.254685819149017334e-01,-3.776498436927795410e-01,5.763885006308555603e-02,-4.019934311509132385e-02,8.003692626953125000e-01,9.252640008926391602e-01
-4.255570769309997559e-01,-9.756363034248352051e-01,-9.112831205129623413e-02,-8.662456274032592773e-02,2.851304113864898682e-01,1.392963379621505737e-01,-2.911448776721954346e-01,-2.395099550485610962e-01,9.505015611648559570e-01,-1.120962873101234436e-01,2.747017741203308105e-01,-9.288755804300308228e-02,-4.445603191852569580e-01,3.870344758033752441e-01,-5.477354526519775391e-01,-7.640469670295715332e-01,3.958532512187957764e-01,-2.645906805992126465e-01,-1.628926098346710205e-01,2.023255228996276855e-01,-4.274019300937652588e-01,7.752404808998107910e-01,2.077627032995223999e-01,1.110881268978118896e-01,1.117323517799377441e+00,2.135837450623512268e-03,-5.949137806892395020e-01,-5.238620191812515259e-02,1.302555017173290253e-02,-9.108887985348701477e-03,1.824702322483062744e-02,4.231002926826477051e-01
-4.457097351551055908e-01,1.316772997379302979e-01,-6.852348446846008301e-01,-1.412799656391143799e-01,2.357174456119537354e-01,2.636476755142211914e-01,4.025328755378723145e-01,-1.115605831146240234e+00,3.325304687023162842e-01,8.649857044219970703e-01,1.062072589993476868e-01,-3.304606378078460693e-01,-6.807502359151840210e-02,-1.006975695490837097e-01,-7.545862793922424316e-01,-7.081117033958435059e-01,-1.370370201766490936e-02,-9.262942075729370117e-01,1.999630779027938843e-01,2.275501340627670288e-01,-1.932635456323623657e-01,1.494365692138671875e+00,4.214405640959739685e-02,-3.480303287506103516e-01,6.651939153671264648e-01,-7.840713858604431152e-01,-8.254240453243255615e-02,-2.084646224975585938e-01,-7.669479250907897949e-01,4.439502656459808350e-01,-6.674445271492004395e-01,2.652511894702911377e-01
-4.556154012680053711e-01,-8.670138716697692871e-01,-5.775375962257385254e-01,5.418955162167549133e-02,5.053432583808898926e-01,3.712205886840820312e-01,-1.866260170936584473e-01,5.569166541099548340e-01,1.059265017509460449e+00,3.088831186294555664e+00,-4.229434952139854431e-02,3.810397088527679443e-01,-6.044145822525024414e-01,-4.037849605083465576e-01,-6.525632739067077637e-01,-2.562007606029510498e-01,-1.657183170318603516e-01,3.886797130107879639e-01,3.894282579421997070e-01,8.729082532227039337e-03,-1.719824314117431641e+00,3.226586282253265381e-01,-2.357557266950607300e-01,-1.279398202896118164e+00,7.454033195972442627e-02,-1.494108587503433228e-01,2.772465348243713379e-01,-4.119472801685333252e-01,-5.231884717941284180e-01,7.280741930007934570e-01,-1.933139801025390625e+00,-4.410223960876464844e-01
5.162906646728515625e-01,-1.584595203399658203e+00,-1.069990396499633789e-01,-2.155324369668960571e-01,1.225043892860412598e+00,-2.546313405036926270e-01,-4.080036655068397522e-02,3.070617020130157471e-01,7.691900730133056641e-01,2.164054870605468750e+00,-3.678234219551086426e-01,1.634154319763183594e-01,-7.150918990373611450e-02,-2.078609317541122437e-01,2.267134785652160645e-01,3.638328015804290771e-01,8.569725751876831055e-01,7.272676229476928711e-01,4.577436298131942749e-02,4.662806391716003418e-01,-1.148498177528381348e+00,-2.652369141578674316e-01,4.180498421192169189e-01,-7.162127494812011719e-01,-1.496832221746444702e-01,2.510646879673004150e-01,2.450885921716690063e-01,1.998254209756851196e-01,2.892300784587860107e-01,4.460390210151672363e-01,-1.247384071350097656e+00,-1.321086645126342773e+00
-1.113013178110122681e-01,-4.111866056919097900e-01,-1.968197375535964966e-01,-4.692252352833747864e-02,1.281256824731826782e-01,7.225590944290161133e-02,-9.225621074438095093e-02,2.582299523055553436e-03,7.490002512931823730e-01,9.676520228385925293e-01,3.522393405437469482e-01,5.159221887588500977e-01,-1.316467523574829102e-01,3.419742584228515625e-01,2.077182680368423462e-01,-3.768710792064666748e-02,-1.084737330675125122e-01,1.477739959955215454e-01,7.814278453588485718e-02,-3.803984522819519043e-01,-7.909213304519653320e-01,3.151563555002212524e-02,-2.625046372413635254e-01,-4.555415511131286621e-01,-1.916934400796890259e-01,2.540746331214904785e-01,1.949122175574302673e-02,-2.298294454813003540e-01,-1.037227064371109009e-01,6.419196128845214844e-01,-8.020665645599365234e-01,-1.328918814659118652e+00
2.503072023391723633e-01,-9.304983019828796387e-01,-4.370549321174621582e-01,4.607485830783843994e-01,-1.684756428003311157e-01,-1.643743067979812622e-01,-1.607662439346313477e-01,4.821848869323730469e-02,3.427271842956542969e-01,4.552634060382843018e-01,-2.556041181087493896e-01,5.072292089462280273e-01,-6.045392155647277832e-01,3.908663392066955566e-01,6.723251342773437500e-01,-1.538987155072391033e-03,-1.851006746292114258e-01,-1.870543807744979858e-01,-1.028694771230220795e-02,-1.511986255645751953e-01,-2.372689545154571533e-01,1.955909729003906250e-01,3.432688117027282715e-01,1.576667875051498413e-01,-1.402930766344070435e-01,4.895579218864440918e-01,3.232893943786621094e-01,2.547948658466339111e-01,3.258673101663589478e-02,5.487359762191772461e-01,-5.561374425888061523e-01,-1.557186722755432129e+00
9.236999601125717163e-02,-9.872562885284423828e-01,-5.568513274192810059e-01,-4.558784365653991699e-01,-2.749052941799163818e-01,-6.860265731811523438e-01,-4.214668869972229004e-01,4.820010364055633545e-01,8.685103058815002441e-01,2.913988232612609863e-01,-4.255767166614532471e-01,2.551563978195190430e-01,2.809145450592041016e-01,6.362467259168624878e-02,-2.491476237773895264e-01,3.033808767795562744e-01,-1.534687131643295288e-01,-1.433426737785339355e-01,-1.201963573694229126e-01,1.349220126867294312e-01,-2.457922548055648804e-01,5.176347494125366211e-01,2.534143924713134766e-01,-3.916488960385322571e-02,-1.347562763839960098e-02,6.725476980209350586e-01,1.397954821586608887e-01,-5.955364108085632324e-01,1.773217618465423584e-01,1.940780580043792725e-01,-2.719743251800537109e-01,-1.167721033096313477e+00
1.945506781339645386e-01,-8.231363892555236816e-01,-3.315750956535339355e-01,-3.457309305667877197e-01,-3.703239858150482178e-01,-6.312440633773803711e-01,-1.365346759557723999e-01,8.945015817880630493e-02,6.434276700019836426e-01,6.632072329521179199e-01,2.154626250267028809e-01,1.765991896390914917e-01,-4.805928468704223633e-01,8.324990421533584595e-02,4.331791102886199951e-01,2.636675536632537842e-01,3.397374749183654785e-01,-3.565685451030731201e-01,-6.048998236656188965e-02,-3.172703981399536133e-01,-5.526021122932434082e-01,4.715661704540252686e-01,2.804723978042602539e-01,-5.075762867927551270e-01,-1.931140124797821045e-01,2.524252282455563545e-03,-1.966971438378095627e-03,-1.027087450027465820e+00,1.929580047726631165e-02,1.307176500558853149e-01,4.546411335468292236e-01,-1.241540312767028809e+00
2.004510611295700073e-01,-8.068087697029113770e-01,2.517755329608917236e-02,5.103241205215454102e-01,-4.231954216957092285e-01,-2.029327452182769775e-01,2.974286302924156189e-02,3.704577088356018066e-01,1.915664374828338623e-01,4.489919245243072510e-01,-9.598723798990249634e-02,6.567098498344421387e-01,-3.635586798191070557e-01,-2.552902996540069580e-01,3.118478059768676758e-01,6.067613363265991211e-01,1.926308423280715942e-01,-2.859618365764617920e-01,1.018103137612342834e-01,-6.946744024753570557e-02,5.186151713132858276e-02,4.421288520097732544e-02,-4.985005557537078857e-01,-6.480847001075744629e-01,-4.489322602748870850e-01,3.959600925445556641e-01,-1.756473481655120850e-01,-2.994492053985595703e-01,-2.859342396259307861e-01,1.324646174907684326e-01,1.429825276136398315e-01,-1.240510106086730957e+00
-2.255265265703201294e-01,-8.083499670028686523e-01,-2.118767797946929932e-01,-7.011322677135467529e-02,2.661761343479156494e-01,-7.776903510093688965e-01,-8.461112529039382935e-02,-2.243048846721649170e-01,-7.267808914184570312e-02,8.301573805510997772e-03,-1.627548038959503174e-02,1.439401507377624512e-01,-1.537242671474814415e-03,-2.868217229843139648e-01,7.268740534782409668e-01,1.094221174716949463e-01,2.002331465482711792e-01,5.539562106132507324e-01,7.847781479358673096e-02,-2.367673963308334351e-01,4.085494875907897949e-01,-1.520502865314483643e-01,3.573365509510040283e-01,-4.839073121547698975e-01,-1.485744118690490723e-01,-9.979726746678352356e-03,9.383657574653625488e-02,1.606572568416595459e-01,3.218407928943634033e-02,3.146112561225891113e-01,6.983027458190917969e-01,-1.280123710632324219e+00
5.389649271965026855e-01,-9.679656624794006348e-01,-2.305533885955810547e-01,1.352420747280120850e-01,-1.424220353364944458e-01,-4.612423181533813477e-01,-5.650759339332580566e-01,-4.678038060665130615e-01,4.406529963016510010e-01,-2.741451561450958252e-02,3.413620963692665100e-02,7.099232077598571777e-01,-8.068806678056716919e-02,-3.399443924427032471e-01,-1.101813912391662598e-01,-2.542839944362640381e-01,-8.090802468359470367e-03,2.287942618131637573e-01,5.245362594723701477e-02,-7.041766047477722168e-01,2.046783566474914551e-01,-1.451538056135177612e-01,-1.716928184032440186e-01,-8.960015177726745605e-01,-6.861164569854736328e-01,4.554218351840972900e-01,-2.496173679828643799e-01,-3.954474031925201416e-01,1.668384224176406860e-01,5.999080538749694824e-01,-2.000522017478942871e-01,-7.684190869331359863e-01
-3.448141366243362427e-02,-4.513675272464752197e-01,-2.788441181182861328e-01,4.740134775638580322e-01,-1.756634712219238281e-01,-1.208235740661621094e+00,-4.964066445827484131e-01,3.814093470573425293e-01,3.676403164863586426e-01,4.633084833621978760e-01,-2.119011133909225464e-01,4.782060086727142334e-01,-1.153086945414543152e-01,-1.609947234392166138e-01,7.522607594728469849e-02,5.762629583477973938e-02,5.294513329863548279e-02,-3.284777700901031494e-01,-1.686365157365798950e-01,-3.555338680744171143e-01,5.307425260543823242e-01,-2.431128174066543579e-01,3.609221279621124268e-01,-3.249877691268920898e-01,-6.241459250450134277e-01,3.959013521671295166e-01,2.351920492947101593e-02,6.390263885259628296e-02,1.397742629051208496e-01,1.413486599922180176e-01,1.933317184448242188e-01,-4.766876697540283203e-01
5.003141760826110840e-01,-7.974508404731750488e-01,-1.078046709299087524e-01,3.252799510955810547e-01,1.280315667390823364e-01,-1.238513946533203125e+00,-9.719593077898025513e-02,-2.416337728500366211e-01,-9.727149270474910736e-03,3.492771647870540619e-03,-1.276244670152664185e-01,2.147421240806579590e-01,-2.445390075445175171e-01,-1.818076223134994507e-01,9.028623253107070923e-02,6.124264001846313477e-01,8.393698185682296753e-02,-3.642049729824066162e-01,-2.689781188964843750e-01,-2.198819220066070557e-01,1.120613291859626770e-01,3.990912437438964844e-01,-1.633753776550292969e-01,-5.782855153083801270e-01,-6.300287842750549316e-01,7.294941693544387817e-03,2.566084861755371094e-01,-2.994530498981475830e-01,-8.666603267192840576e-02,-1.513122674077749252e-02,2.503927946090698242e-01,-1.162953302264213562e-01
-1.686114966869354248e-01,-3.332366049289703369e-01,-6.949335802346467972e-03,6.085437536239624023e-01,-8.049911856651306152e-01,-1.770015358924865723e+00,-5.500754117965698242e-01,-2.219429612159729004e-01,9.498614072799682617e-01,-3.904584944248199463e-01,-3.985245898365974426e-02,-1.971104890108108521e-01,-1.199077367782592773e-01,-2.123465687036514282e-01,2.977589666843414307e-01,-1.782990992069244385e-01,5.343317240476608276e-02,-2.935535311698913574e-01,2.451628595590591431e-01,-6.566572189331054688e-01,1.975320279598236084e-01,-3.303411602973937988e-01,-1.053375154733657837e-01,-1.059095263481140137e+00,-2.378143668174743652e-01,2.878293991088867188e-01,2.578114569187164307e-01,4.559140801429748535e-01,-4.358181655406951904e-01,9.532092809677124023e-01,1.050520300865173340e+00,8.785520493984222412e-02
4.532712101936340332e-01,-2.387239038944244385e-01,6.677529215812683105e-01,6.195353269577026367e-01,-9.787253141403198242e-01,-1.396284103393554688e+00,6.524544209241867065e-03,-1.945150829851627350e-02,6.416639089584350586e-01,8.791337013244628906e-01,-1.035447567701339722e-01,-5.434852465987205505e-02,-3.497171998023986816e-01,2.127020955085754395e-01,3.162356913089752197e-01,-5.477114394307136536e-02,3.346072509884834290e-02,-7.183213829994201660e-01,2.967606671154499054e-02,-2.097774595022201538e-01,1.882004737854003906e-01,-6.981152296066284180e-01,1.734168380498886108e-01,-7.859448790550231934e-01,-8.795436620712280273e-01,-2.776536941528320312e-01,-1.357267946004867554e-01,-6.223940849304199219e-01,-5.645615980029106140e-03,1.215170919895172119e-01,6.170803904533386230e-01,-4.072779119014739990e-01
8.295483887195587158e-03,-1.665048599243164062e-01,3.365837037563323975e-01,1.371464431285858154e-01,-1.033112645149230957e+00,7.031010389328002930e-01,1.049697771668434143e-01,3.604479134082794189e-02,1.738499104976654053e-01,-9.192756563425064087e-02,2.912953197956085205e-01,-3.572840690612792969e-01,1.198685467243194580e-01,-7.435448765754699707e-01,-2.128446698188781738e-01,-7.155320048332214355e-02,-1.109574958682060242e-01,-7.882659435272216797e-01,2.417204380035400391e-01,-3.611162602901458740e-01,-1.369305700063705444e-01,-7.825666069984436035e-01,6.238573193550109863e-01,-8.079356551170349121e-01,-4.455742239952087402e-01,-2.173984199762344360e-01,8.587685823440551758e-01,-7.657365798950195312e-01,2.671706080436706543e-01,8.228569030761718750e-01,1.080251574516296387e+00,-2.216433584690093994e-01
4.987244009971618652e-01,-3.847283720970153809e-01,1.645184308290481567e-01,2.730713486671447754e-01,-1.502038240432739258e+00,8.829912543296813965e-02,7.114269584417343140e-02,3.523072600364685059e-02,4.897322952747344971e-01,-4.781221151351928711e-01,-2.534286975860595703e-01,9.042392671108245850e-02,-1.998280733823776245e-01,-1.246609315276145935e-01,2.145417630672454834e-01,-1.742275506258010864e-01,4.985387623310089111e-02,-5.615916252136230469e-01,2.762773334980010986e-01,-2.331351190805435181e-01,-1.025143265724182129e-01,-5.569793581962585449e-01,5.739246010780334473e-01,-1.632646799087524414e+00,-1.220178604125976562e+00,1.150940582156181335e-01,4.404680132865905762e-01,-2.777148187160491943e-01,2.612941861152648926e-01,3.135240077972412109e-01,1.025271534919738770e+00,1.878431886434555054e-01
3.981927633285522461e-01,-5.389633774757385254e-01,1.833502501249313354e-01,3.017672002315521240e-01,-9.192138910293579102e-01,5.842263698577880859e-01,-2.945954501628875732e-01,-5.062425881624221802e-02,6.856406927108764648e-01,-1.626840233802795410e-01,-3.335259854793548584e-01,6.721836328506469727e-02,3.912354111671447754e-01,-5.721985101699829102e-01,5.381296277046203613e-01,-1.725466847419738770e-01,1.637610346078872681e-01,-6.669987440109252930e-01,-2.500292472541332245e-02,-3.977436125278472900e-01,-8.549608588218688965e-01,-4.488829672336578369e-01,6.241735219955444336e-01,-1.244132500141859055e-02,-9.744541645050048828e-01,1.682067066431045532e-01,5.335909724235534668e-01,-1.836640089750289917e-01,1.381686329841613770e-01,9.144290685653686523e-01,1.181301996111869812e-01,1.416483372449874878e-01
2.586358785629272461e-01,-2.094328105449676514e-01,-2.585326731204986572e-01,6.023096442222595215e-01,-6.899810433387756348e-01,6.090949773788452148e-01,-4.899010062217712402e-02,4.313399493694305420e-01,-4.896284937858581543e-01,3.976133763790130615e-01,-1.156848110258579254e-02,-1.219133660197257996e-01,-1.858819276094436646e-01,-3.194151818752288818e-01,1.574428752064704895e-02,-5.546523928642272949e-01,4.423315525054931641e-01,-5.926412940025329590e-01,6.994941830635070801e-02,-4.788071513175964355e-01,-3.496377468109130859e-01,-7.670140862464904785e-01,-1.356706917285919189e-01,1.484815001487731934e+00,-3.668501377105712891e-01,1.073552519083023071e-01,1.132352948188781738e+00,4.304945766925811768e-01,3.453275263309478760e-01,3.055297136306762695e-01,7.169592380523681641e-01,-8.388197422027587891e-02
4.032658934593200684e-01,-4.339805841445922852e-01,-4.400819912552833557e-02,1.148489713668823242e+00,-5.411347746849060059e-01,4.681590497493743896e-01,4.079351574182510376e-02,-5.101263523101806641e-01,8.751355409622192383e-01,-2.116082310676574707e-01,-4.449393153190612793e-01,-8.570644259452819824e-01,-3.930127024650573730e-01,7.952457666397094727e-01,4.524749219417572021e-01,-8.694778680801391602e-01,-2.857132814824581146e-02,-1.304058074951171875e+00,1.599531173706054688e-01,-3.929835259914398193e-01,-3.232471346855163574e-01,-6.814718246459960938e-01,-5.208249390125274658e-02,2.106746196746826172e+00,-2.202473953366279602e-02,5.184464529156684875e-02,3.073546588420867920e-01,-5.916765332221984863e-02,-1.781680434942245483e-01,6.582083106040954590e-01,4.370767474174499512e-01,6.507629062980413437e-03
3.957388177514076233e-02,-6.747955679893493652e-01,-1.172760650515556335e-01,1.296244502067565918e+00,1.645003408193588257e-01,4.630480334162712097e-02,5.623034834861755371e-01,1.846977919340133667e-01,-1.496024131774902344e-01,-3.048769235610961914e-01,-5.159330740571022034e-02,-7.429093718528747559e-01,-8.063711971044540405e-02,-3.342620730400085449e-01,8.121370077133178711e-01,-5.162519589066505432e-02,1.824084371328353882e-01,-1.281547069549560547e+00,1.762781143188476562e-01,-4.240961074829101562e-01,-1.397139430046081543e-01,-3.768481314182281494e-01,-1.284106224775314331e-01,1.283342123031616211e+00,1.387089490890502930e+00,2.678107619285583496e-01,7.392700910568237305e-01,-3.023347556591033936e-01,-1.424204278737306595e-02,3.356694281101226807e-01,4.535621702671051025e-01,3.598634898662567139e-01
6.309057474136352539e-01,-7.155194878578186035e-01,2.191312760114669800e-01,1.322668075561523438e+00,-2.166144102811813354e-01,6.337835788726806641e-01,2.935653179883956909e-02,-1.962563246488571167e-01,5.673784017562866211e-01,1.165271997451782227e-01,-1.280410587787628174e-01,-4.651790857315063477e-01,-5.589636564254760742e-01,3.851818144321441650e-01,7.541925180703401566e-03,-4.754691720008850098e-01,1.654873043298721313e-02,-9.325707554817199707e-01,-3.211544826626777649e-03,-2.864134013652801514e-01,4.540576636791229248e-01,-5.710360407829284668e-01,5.126787349581718445e-02,1.306141376495361328e+00,1.218240976333618164e+00,-7.333014607429504395e-01,5.062969326972961426e-01,2.515236735343933105e-01,-1.707103997468948364e-01,2.198175340890884399e-01,5.571690201759338379e-01,-1.978326737880706787e-01
1.044557020068168640e-01,-5.529443621635437012e-01,2.431328594684600830e-01,2.008612155914306641e+00,-1.510128006339073181e-02,4.832366406917572021e-01,3.064684271812438965e-01,-2.788925468921661377e-01,8.354833722114562988e-02,-1.272408962249755859e-01,5.534926056861877441e-01,3.576446473598480225e-01,-2.441149204969406128e-01,-1.998053342103958130e-01,2.704857289791107178e-01,2.801248431205749512e-01,-3.758457303047180176e-01,-5.548884272575378418e-01,5.578835308551788330e-02,-3.311747610569000244e-01,-6.029449701309204102e-01,-3.502539992332458496e-01,7.258347421884536743e-02,7.863191366195678711e-01,2.924537360668182373e-01,-4.640162587165832520e-01,1.987129449844360352e-01,-2.436834871768951416e-01,4.265157878398895264e-02,3.046568930149078369e-01,4.848833382129669189e-01,1.545075029134750366e-01
4.273457229137420654e-01,-8.905977606773376465e-01,-8.304499089717864990e-02,1.883582711219787598e+00,-4.895998835563659668e-01,2.096552848815917969e-01,6.450266242027282715e-01,-2.691853046417236328e-01,1.247921705245971680e+00,3.207521140575408936e-01,2.378029078245162964e-01,4.618003591895103455e-02,-4.233942925930023193e-01,7.300642877817153931e-02,3.419762253761291504e-01,-3.729359433054924011e-02,4.061410725116729736e-01,-2.707235515117645264e-01,9.031569212675094604e-02,1.504095643758773804e-01,-3.894374668598175049e-01,-6.131833791732788086e-01,-1.820001751184463501e-01,5.140600800514221191e-01,6.626110672950744629e-01,-3.497452437877655029e-01,5.856948494911193848e-01,-2.834567427635192871e-01,5.112363770604133606e-02,3.453906178474426270e-01,1.392152011394500732e-01,3.812885284423828125e-01
-2.356308400630950928e-01,-8.496342897415161133e-01,-5.202767625451087952e-02,9.118267893791198730e-01,2.754677832126617432e-01,2.604238986968994141e-01,7.127012312412261963e-02,-1.027277559041976929e-01,3.140635192394256592e-01,-2.526747584342956543e-01,3.963882923126220703e-01,-1.500343233346939087e-01,-1.667060106992721558e-01,-5.111964792013168335e-02,1.107233688235282898e-01,-7.501869648694992065e-02,4.469165503978729248e-01,2.571728639304637909e-02,1.571119204163551331e-02,-4.192278981208801270e-01,-2.459547221660614014e-01,-2.491146177053451538e-01,1.538688093423843384e-01,4.321117997169494629e-01,9.362664222717285156e-01,-5.131968855857849121e-01,1.385675519704818726e-01,-3.750277161598205566e-01,-3.917438983917236328e-01,2.991691231727600098e-01,3.360337615013122559e-01,7.950676232576370239e-02
4.414636641740798950e-02,-9.363772273063659668e-01,6.376555562019348145e-02,7.140225768089294434e-01,-1.114124339073896408e-02,5.179219245910644531e-01,5.023355036973953247e-02,-4.324884712696075439e-01,-2.604125142097473145e-01,-5.806211754679679871e-02,2.769687473773956299e-01,-4.269142746925354004e-01,1.637171804904937744e-01,3.006950616836547852e-01,2.339777350425720215e-01,-1.449707597494125366e-01,2.905358970165252686e-01,-2.837886102497577667e-02,9.036828577518463135e-02,6.227091699838638306e-02,2.019684165716171265e-01,2.069820016622543335e-01,-2.457067072391510010e-01,4.659195542335510254e-01,7.953336834907531738e-01,5.495896339416503906e-01,-3.118034601211547852e-01,2.283768951892852783e-01,1.475631147623062134e-01,-4.001595377922058105e-01,5.128553509712219238e-01,-9.636435657739639282e-03
-4.010742530226707458e-02,-3.432770669460296631e-01,1.836895495653152466e-01,6.067453026771545410e-01,-1.576688140630722046e-01,1.038676723837852478e-01,-1.355702057480812073e-02,-4.049041867256164551e-02,1.939411312341690063e-01,-9.758038073778152466e-02,1.221022725105285645e+00,1.096816658973693848e-01,-2.526018023490905762e-01,-4.014933854341506958e-02,5.255756378173828125e-01,-1.194414049386978149e-01,1.225582510232925415e-01,3.493159115314483643e-01,2.608648538589477539e-01,-1.235624775290489197e-01,3.057506978511810303e-01,6.572754979133605957e-01,3.653672933578491211e-01,7.028128504753112793e-01,5.184408426284790039e-01,2.035955339670181274e-01,-2.286757677793502808e-01,-1.014839783310890198e-01,-3.759600594639778137e-02,8.625878095626831055e-01,2.374423295259475708e-01,4.290433228015899658e-01
3.917992711067199707e-01,-1.882821768522262573e-01,-1.737809367477893829e-02,3.137518763542175293e-01,-2.055197209119796753e-01,3.994758129119873047e-01,2.664556801319122314e-01,-4.120512604713439941e-01,3.492042124271392822e-01,2.275546491146087646e-01,9.238575696945190430e-01,9.916690737009048462e-02,-3.321087658405303955e-01,-1.321529597043991089e-01,9.056045114994049072e-02,1.752715557813644409e-01,-6.034391745924949646e-02,-2.941892445087432861e-01,2.139188349246978760e-01,6.731832772493362427e-02,2.994240820407867432e-01,3.208152353763580322e-01,5.445814877748489380e-02,7.520537376403808594e-01,6.628285050392150879e-01,-8.737325668334960938e-01,3.826380670070648193e-01,-4.327736794948577881e-01,8.610706776380538940e-02,1.402509063482284546e-01,1.680310964584350586e-01,-1.089983154088258743e-02
